784 100
sound 0.003988 0.009484 0.017069 0.006386 0.012775 0.013679 -0.010009 0.012861 -0.025009 0.015919 -0.002926 -0.002535 -0.019321 0.013884 0.000781 0.017446 0.009548 -0.022918 -0.001921 -0.004523 -0.013098 -0.032739 0.008260 -0.005225 -0.020151 -0.008908 0.025157 -0.019209 0.010814 -0.040346 -0.015527 0.027001 -0.003807 -0.043378 -0.025831 0.001057 -0.012284 -0.014978 -0.012142 -0.011190 -0.005537 -0.004554 0.002905 -0.009610 0.005127 0.023749 0.045966 0.049790 -0.000466 -0.004070 -0.016427 0.021130 -0.016202 0.000851 0.000013 0.011933 -0.013948 -0.013908 -0.007884 0.006914 0.034036 0.000979 -0.017399 -0.012656 -0.018888 0.006314 -0.033127 -0.020545 0.010853 -0.008149 -0.001367 -0.024216 -0.013773 -0.037735 0.011683 -0.007248 -0.015947 0.003893 -0.022188 -0.041769 -0.006969 0.020477 -0.041136 0.002216 -0.017354 -0.008693 -0.012220 0.011084 -0.019419 0.018640 -0.015160 -0.009615 -0.035003 -0.027561 -0.022382 0.031919 -0.021719 -0.015053 -0.014029 0.021344
radio -0.000934 0.002354 0.006527 0.008870 0.004396 0.010685 0.005586 0.005117 -0.007042 -0.007074 -0.001072 -0.001933 0.000771 0.008363 -0.007493 -0.000482 -0.005280 -0.009472 -0.003268 0.006140 0.008624 -0.002824 -0.007089 -0.013526 -0.009599 -0.006138 -0.003227 0.003169 0.016008 -0.018526 -0.010892 0.016556 -0.003316 -0.010904 0.007531 -0.005813 0.008822 0.006313 -0.004905 -0.009835 -0.006688 -0.008457 0.003471 -0.016922 -0.004596 0.011286 0.000667 0.013268 -0.003216 0.001130 -0.018437 0.014639 0.007193 0.009224 -0.011357 0.002975 -0.016977 -0.012214 -0.012491 -0.007391 -0.004290 0.006231 0.001572 -0.000821 -0.007146 0.006026 0.004205 -0.000513 0.005134 0.011153 -0.004967 -0.000555 -0.009565 0.001775 0.008218 -0.007094 -0.007481 0.002430 -0.010405 -0.010029 -0.008176 0.006633 -0.001992 -0.008185 -0.001759 0.003234 0.010076 -0.004272 -0.011652 -0.005289 -0.016273 0.003618 -0.004999 0.000785 -0.017070 -0.004444 -0.001764 -0.004091 0.001615 0.011363
battery 0.010565 0.013209 -0.002345 0.014771 0.007140 0.026511 -0.021766 0.013807 -0.033340 0.025377 0.002288 -0.021102 -0.027320 0.036856 0.009880 0.037224 0.005604 -0.032050 0.002498 -0.020434 -0.022137 -0.039395 0.010563 -0.004084 -0.011150 -0.004793 0.034328 -0.025015 0.003842 -0.049131 -0.016798 0.022657 0.020122 -0.048237 -0.043364 -0.004198 -0.030906 -0.027898 -0.003421 -0.004909 -0.013130 0.006446 0.004809 -0.007901 -0.014947 0.031583 0.067808 0.046274 0.008111 -0.019275 -0.002216 0.020079 -0.025986 -0.008715 0.012729 0.008859 -0.010159 -0.031680 -0.006663 0.001247 0.038909 -0.009290 -0.017815 -0.033254 -0.014343 0.003545 -0.048356 -0.036603 0.019011 -0.006946 0.000704 -0.022321 -0.002064 -0.053920 0.013600 0.002837 -0.004359 -0.003662 -0.015422 -0.062916 -0.007160 0.020555 -0.046586 -0.003083 -0.008969 -0.030330 -0.025884 0.013110 0.001388 0.029985 -0.015817 -0.013087 -0.050513 -0.038867 -0.024244 0.035893 -0.026567 -0.004929 -0.024821 0.022294
price 0.002518 0.004700 0.002592 -0.003937 0.004679 0.003930 0.004406 0.003401 0.003141 0.000927 -0.000369 0.000761 0.002934 -0.004864 0.000132 0.000142 0.001720 -0.004595 -0.002545 -0.000188 -0.001415 0.004165 0.003958 0.004354 -0.003815 0.004867 -0.000803 0.002359 -0.001054 0.000636 0.002039 0.005699 -0.003294 0.000003 0.003728 -0.001236 -0.002589 -0.001688 0.003378 0.000529 -0.003299 0.003537 -0.004865 0.000080 -0.002125 -0.000372 0.000881 0.006649 -0.002152 0.000992 -0.000069 -0.000991 0.004330 -0.004335 0.001601 -0.002594 0.001856 0.000897 -0.004724 -0.002422 -0.001584 0.003138 0.002317 0.005263 -0.000129 -0.003047 0.003888 0.002986 -0.002331 0.000409 0.001695 -0.005279 0.000349 0.004657 0.005091 -0.003297 -0.005378 -0.004253 -0.002018 0.000910 0.001682 0.003544 -0.000848 0.003656 0.002198 0.006865 -0.004408 0.002314 0.000992 0.001999 0.000438 -0.004906 -0.005503 0.000305 0.005334 0.004051 -0.002368 -0.003603 -0.001807 -0.000616
button 0.006410 0.000750 0.008224 0.004143 0.001834 0.008628 0.003620 -0.001504 -0.005999 0.006544 -0.004950 -0.010634 -0.006581 0.001062 0.003266 0.012567 0.002153 0.004040 -0.004604 0.000704 0.002235 -0.001661 0.000821 0.004785 -0.007069 0.004579 0.011766 -0.006093 0.001060 -0.013902 -0.001906 0.000917 -0.005163 -0.009191 -0.004142 -0.002023 0.000587 0.003072 0.004357 -0.004226 -0.002154 -0.004413 -0.006102 0.000859 0.002052 -0.000635 0.015419 0.016088 0.005652 -0.001296 -0.002926 0.007368 -0.004000 0.001802 0.004584 0.009305 -0.006256 0.000901 -0.000896 0.007559 0.005268 0.003128 -0.002970 -0.004423 0.001889 0.000633 -0.004249 0.001829 0.004536 0.002850 0.001936 -0.007785 0.000480 -0.007030 0.002272 0.000351 -0.002454 0.008418 -0.008149 -0.010481 0.001345 0.004249 -0.011147 0.007391 0.003305 0.003056 -0.001286 0.005881 -0.001502 0.005289 -0.004843 0.003835 -0.010583 -0.006326 -0.002405 0.002739 -0.008168 0.005833 -0.003687 0.005933
feature 0.008878 0.006985 0.004574 0.004059 0.008253 0.003870 -0.007216 0.008308 -0.007067 0.006310 -0.004181 -0.001614 -0.008106 0.005741 0.004542 0.007194 0.006450 -0.011831 -0.001620 -0.004468 -0.003596 -0.018544 -0.000093 0.001214 -0.008699 -0.002605 0.009561 -0.008235 0.007975 -0.016610 -0.011010 0.014985 0.000169 -0.020411 -0.012645 -0.003526 -0.001563 -0.011959 -0.007459 -0.010977 -0.005019 -0.008329 -0.003244 -0.002032 -0.001925 0.010437 0.020893 0.025915 -0.005883 -0.001270 0.000352 0.015036 -0.000730 -0.006890 -0.000549 0.009446 -0.004422 -0.010438 -0.001713 0.005604 0.013382 0.000366 -0.010324 -0.007439 -0.014380 0.008361 -0.015920 -0.013720 0.002470 -0.002602 -0.000707 -0.011403 -0.001154 -0.017574 -0.000366 -0.000411 -0.004679 0.001885 -0.006304 -0.018816 -0.000503 0.006278 -0.022205 -0.001338 -0.002479 -0.001670 -0.008314 0.003230 -0.006855 0.012264 -0.004602 0.000745 -0.019252 -0.014404 -0.007430 0.016283 -0.005630 -0.006082 -0.001619 0.012252
music 0.006020 0.006020 0.006357 0.004889 0.006910 0.008491 -0.002622 0.006626 -0.017044 0.012131 0.000886 -0.001031 -0.007398 0.007590 -0.001673 0.005789 -0.003455 -0.011735 -0.004083 -0.003076 -0.009028 -0.011202 0.003825 -0.006508 -0.008420 -0.006059 0.012054 -0.002110 0.006764 -0.021210 -0.012669 0.013569 -0.000538 -0.022962 -0.011855 -0.004890 -0.012483 -0.005383 -0.002814 -0.010751 -0.001140 0.004993 0.000077 -0.006796 -0.000182 0.006232 0.023303 0.020090 0.000683 -0.005662 -0.006113 0.004570 -0.010914 -0.001559 0.003588 0.003959 -0.000820 -0.009963 -0.001259 0.003108 0.014852 0.004543 -0.009058 -0.008604 -0.013091 -0.001749 -0.016811 -0.016038 0.000814 -0.005363 0.006815 -0.007006 -0.007295 -0.017636 0.009789 -0.001236 -0.005711 0.001991 -0.010546 -0.018016 -0.001644 0.012262 -0.017524 0.000132 -0.005304 -0.009547 -0.006272 0.001080 -0.009749 0.008480 -0.008506 -0.007121 -0.021047 -0.013925 -0.011972 0.010188 -0.013732 -0.003183 -0.009377 0.011044
car 0.008058 0.009354 0.017673 0.007599 0.019457 0.027535 -0.023213 0.013534 -0.039624 0.014930 -0.008945 -0.015469 -0.027812 0.023734 0.009091 0.027730 0.014162 -0.026829 -0.000455 -0.004550 -0.022163 -0.034022 0.009833 -0.005783 -0.024793 -0.007383 0.033288 -0.016241 0.003863 -0.044418 -0.030953 0.033094 0.000694 -0.058616 -0.044192 -0.009552 -0.022385 -0.030638 -0.012650 -0.027871 -0.009255 -0.013331 0.000242 -0.006328 -0.002527 0.025546 0.069088 0.072309 -0.009234 -0.008419 -0.015870 0.031278 -0.028334 -0.012376 0.006371 0.026888 -0.009310 -0.018523 -0.016484 0.008316 0.042242 -0.000037 -0.025838 -0.031490 -0.029404 0.002897 -0.047948 -0.028017 0.012069 -0.006958 0.012259 -0.035499 -0.024398 -0.053475 0.007550 0.000784 -0.022104 0.002790 -0.027983 -0.060295 0.003981 0.017975 -0.055723 -0.001088 -0.017904 -0.018044 -0.023447 0.006389 -0.024465 0.028446 -0.023903 -0.000762 -0.051961 -0.045352 -0.017288 0.039492 -0.021874 -0.011642 -0.018135 0.031214
song 0.006616 0.004857 0.002459 -0.002192 0.005294 0.007417 0.001725 0.009397 -0.010586 0.000753 0.001859 0.001132 -0.002908 0.009175 -0.000667 0.006281 0.001255 -0.002365 -0.000502 -0.001447 -0.007780 -0.007435 0.010445 0.001140 -0.011940 0.006548 0.008995 -0.013946 0.006354 -0.006270 0.003495 0.005672 -0.008279 -0.013600 -0.012999 0.002492 -0.007725 -0.007168 0.008124 -0.006235 -0.007485 -0.007544 0.000953 0.008704 0.007362 0.006340 0.017850 0.021166 -0.008467 -0.005858 0.003169 0.009161 -0.003037 -0.009163 0.011758 0.010251 -0.006938 -0.004833 -0.005798 0.011185 0.016450 0.003566 -0.013560 -0.003944 -0.011220 0.007921 -0.006999 -0.005671 0.000649 -0.011633 0.000629 -0.014407 0.001923 -0.007768 -0.000327 -0.006079 -0.008163 -0.002835 -0.004271 -0.014524 0.003601 -0.002721 -0.018196 0.009019 0.006788 0.001651 -0.007012 -0.000389 -0.011337 0.010928 -0.005724 0.000136 -0.012585 -0.015971 0.005581 0.014639 -0.009085 -0.004995 0.006573 -0.002015
dvd 0.005804 0.001220 0.009327 0.004502 0.004403 0.003196 -0.008481 0.006984 -0.002720 0.004701 -0.006777 -0.003086 -0.009600 0.005020 0.000687 0.012281 0.000943 -0.005393 0.001198 -0.006465 -0.003262 -0.012124 -0.000245 0.003521 -0.008470 0.001356 0.013291 -0.010472 0.004988 -0.015993 -0.012022 0.013269 -0.006732 -0.011751 -0.013095 0.002657 -0.005430 -0.009059 -0.004649 -0.008470 0.000894 -0.001466 -0.005073 -0.000419 0.003057 0.011873 0.014544 0.027034 0.001427 -0.001074 -0.005710 0.003080 0.000172 -0.001403 0.000865 0.008174 -0.000358 -0.002940 0.003410 0.001572 0.017197 -0.004633 -0.012969 -0.009547 -0.004005 0.001619 -0.014058 -0.013288 0.000269 0.000164 0.004872 -0.008759 -0.003905 -0.011336 0.007214 0.003387 -0.012334 0.003738 -0.007565 -0.018047 0.005420 0.007614 -0.017970 0.001777 -0.003590 0.001363 -0.006377 0.002364 -0.010270 0.003069 -0.009586 -0.004182 -0.010066 -0.019702 -0.008525 0.018824 -0.004437 0.000725 0.001082 0.004057
remote 0.006079 -0.000382 0.002478 -0.000960 -0.000695 0.004518 0.001263 -0.005366 0.001341 0.003810 -0.001478 0.001021 -0.002509 0.003880 -0.001193 -0.005569 0.005411 0.000970 0.003187 -0.004144 -0.002980 0.006142 -0.000475 -0.003719 -0.006562 -0.002209 0.002038 0.003494 -0.003231 -0.006959 -0.002169 0.005212 -0.004200 -0.001060 0.005843 0.003070 -0.001793 0.000014 -0.002837 -0.007189 -0.000007 -0.002824 -0.003143 0.000347 0.001156 0.002571 0.003628 0.000237 -0.000517 0.002901 0.000340 0.002008 0.005125 -0.000846 0.000718 0.000961 0.000416 0.004440 -0.000570 -0.002637 0.003515 -0.004127 0.001331 -0.001091 0.001063 0.005845 0.002415 -0.002752 -0.003514 0.002150 0.002721 0.002690 -0.000453 0.000603 0.002327 -0.001924 -0.006401 -0.004679 -0.002450 0.003998 0.000205 0.001275 0.002828 0.000477 0.003700 0.000928 -0.001172 0.000333 0.000925 0.004773 -0.002428 0.001000 -0.004035 -0.004662 0.005497 0.000566 -0.003634 0.004856 -0.001661 0.007874
easy 0.001191 0.005224 0.004347 0.001381 -0.002924 0.007144 0.007265 -0.002799 0.000484 -0.005005 -0.001817 -0.002946 0.004297 -0.000269 0.000819 0.000452 0.005277 -0.003365 -0.002765 -0.000236 0.002809 -0.000994 -0.001323 0.000711 -0.001591 0.001636 -0.005479 -0.002667 -0.003451 0.000132 0.000161 0.004132 -0.003382 0.001914 0.000336 -0.000608 -0.000517 -0.001017 -0.004405 0.002809 -0.000182 0.002107 0.000704 0.002041 -0.002918 -0.000017 0.000383 0.003741 -0.004415 -0.003870 0.003130 0.006792 -0.003990 -0.001046 -0.000140 0.000225 0.002841 0.002772 -0.002017 0.004232 -0.004276 0.004345 0.005627 0.005543 -0.003449 0.000492 -0.000514 -0.003032 0.004439 0.001043 -0.003203 -0.001349 -0.006527 -0.000080 0.001918 -0.001810 -0.007851 0.001297 -0.006402 -0.000497 -0.001043 -0.000158 0.001784 0.000738 -0.001033 0.003021 0.001035 0.000100 -0.004557 0.000326 -0.002765 0.001729 -0.005459 -0.002165 0.004434 -0.002425 0.001867 0.005149 -0.000588 0.000278
disc -0.001847 -0.000844 0.003310 -0.001474 0.001550 0.002074 -0.001951 0.001368 -0.005253 0.006946 -0.004796 -0.001461 -0.005644 0.005165 0.004200 0.004717 0.003531 -0.004108 0.000572 -0.005604 -0.004259 -0.002580 0.004054 0.002757 -0.002977 -0.000619 0.010313 -0.008053 0.001240 -0.002139 -0.004202 0.002419 0.004634 -0.010285 -0.005760 0.000032 0.001203 -0.004263 0.003741 -0.010110 0.004280 -0.004620 -0.001312 0.004888 -0.003441 0.008021 0.014438 0.011028 -0.003437 0.001408 -0.000973 -0.001335 0.000591 0.000997 0.002778 0.007355 -0.001426 -0.001108 -0.001103 0.003193 0.005025 0.004056 -0.008120 -0.008085 -0.007888 -0.004087 -0.006411 -0.005966 0.004227 -0.002341 0.006459 -0.004494 0.000526 -0.008750 0.003812 -0.002600 -0.004287 -0.002242 -0.002717 -0.011658 0.000243 0.007703 -0.013525 0.007444 -0.000673 -0.005118 -0.001444 0.002735 -0.006814 0.007772 -0.004635 -0.004940 -0.010474 -0.005287 -0.004658 0.012082 -0.005077 -0.001449 -0.001300 0.005795
headphone -0.002091 -0.002024 0.000280 0.006807 0.001193 0.004665 -0.006156 0.000099 -0.009213 0.007168 -0.000734 0.001063 -0.005864 0.009070 0.000559 0.006125 -0.002499 -0.009914 0.003258 -0.004395 -0.001004 -0.009111 0.003911 -0.005786 -0.006309 -0.006730 0.012048 -0.004808 0.008097 -0.007216 -0.009504 0.010868 -0.001942 -0.018650 -0.013211 -0.001918 -0.007110 -0.006522 0.002287 -0.010349 -0.002061 -0.002057 -0.003968 -0.004468 0.001300 0.010740 0.012675 0.019999 0.002776 -0.003958 -0.005103 0.007713 -0.004114 0.006657 0.002563 0.003060 -0.001384 -0.008933 -0.001001 0.006767 0.011305 0.003811 -0.011603 -0.009255 -0.007464 0.006077 -0.015835 -0.011103 0.007344 0.000822 0.004865 -0.004503 -0.004262 -0.009333 0.000741 -0.003674 0.000735 -0.000946 -0.002598 -0.014789 0.000908 0.001988 -0.022102 0.000301 -0.006087 -0.007585 -0.001091 0.002252 -0.011115 0.001679 -0.002615 -0.005603 -0.012126 -0.013890 -0.009973 0.011591 -0.009335 -0.003836 -0.000477 0.002378
track 0.006502 0.006479 0.000014 0.005020 -0.000331 0.006326 -0.001758 -0.003889 -0.011530 0.009130 -0.002750 -0.011243 -0.008506 0.008567 0.005657 0.005707 0.002905 -0.011825 -0.001453 -0.002883 -0.000125 -0.013967 0.000452 -0.002324 -0.005822 0.000850 0.016919 -0.006549 -0.000110 -0.008914 -0.008849 0.007349 0.004086 -0.018807 -0.017061 0.003835 -0.003673 -0.002033 0.003436 -0.011854 0.001305 -0.006054 -0.003469 0.006508 0.006323 0.006286 0.015284 0.022424 0.000990 -0.004367 -0.004644 0.010616 -0.009739 0.001732 -0.001686 0.010812 0.001915 -0.001482 0.000109 0.005077 0.013833 0.001322 -0.014653 -0.005595 -0.006268 0.004728 -0.011709 -0.011327 0.001345 -0.007681 0.001718 -0.014537 -0.003921 -0.016590 0.002667 0.000801 -0.008654 0.005798 -0.002294 -0.015257 -0.003702 0.001727 -0.023060 0.003856 0.001604 -0.007714 -0.011027 0.009013 -0.009263 0.004014 -0.003064 -0.002635 -0.013563 -0.011090 -0.009787 0.012585 -0.001724 -0.004263 -0.008190 0.009737
portable 0.002473 0.005596 0.005668 -0.001108 0.002597 0.003056 -0.000428 -0.002309 -0.003967 0.003207 0.002594 -0.000305 -0.005923 0.000537 0.001754 0.009047 -0.000199 0.002123 -0.000047 -0.005499 -0.008040 -0.007717 -0.004072 0.000777 -0.000476 -0.000513 0.003580 -0.006784 0.001766 -0.010743 -0.002734 0.006848 -0.003493 -0.008528 -0.004306 -0.000193 -0.006359 -0.003363 -0.001509 0.001247 0.000740 -0.001740 -0.003084 -0.000715 -0.002833 -0.000028 0.012300 0.005262 -0.001179 0.002101 -0.005643 0.008435 -0.003667 0.000255 0.003973 0.007597 -0.000527 -0.001638 0.000191 0.002310 0.009422 -0.002512 -0.003241 -0.008401 0.000855 0.000909 -0.006269 -0.006645 0.006266 -0.005870 -0.003222 -0.007508 -0.005202 -0.007686 0.001208 -0.002375 -0.001357 -0.002406 -0.004826 -0.011765 0.000948 -0.001882 -0.009017 0.001041 -0.001914 -0.003694 -0.001913 -0.002378 0.000580 0.008416 0.001751 0.002058 -0.009387 -0.010826 0.001019 0.007108 -0.003120 -0.004342 0.001879 0.009417
money -0.001847 -0.001733 -0.001672 0.001605 -0.003667 0.005422 0.001382 0.000282 -0.004180 0.005186 0.002902 -0.001239 -0.008870 0.003502 -0.004426 0.006260 0.002337 0.001418 -0.003333 -0.004083 -0.005573 -0.004349 0.004906 0.001312 -0.007973 -0.001210 0.001612 -0.006639 -0.004835 0.000155 -0.006829 0.001983 0.001437 -0.000988 -0.007914 0.002982 0.002041 -0.005793 -0.002537 -0.001564 0.000907 0.000178 -0.000370 0.004058 0.005779 -0.000531 0.011454 0.012791 0.000830 -0.001337 0.001250 0.001347 -0.002841 -0.003422 0.007823 0.006082 0.003920 -0.002234 -0.000962 0.006481 0.002871 -0.002447 -0.006022 -0.002012 -0.007913 0.003685 -0.009080 -0.000492 0.002953 -0.006801 0.004236 -0.000283 -0.005146 -0.010076 0.005924 -0.003936 -0.003330 -0.001170 -0.002467 -0.010758 -0.000085 -0.003049 -0.005974 0.002353 -0.000035 0.001331 -0.002946 0.005803 -0.004600 -0.000276 -0.004976 0.001731 -0.002143 -0.006151 -0.001493 0.008763 -0.005638 0.003197 -0.001296 -0.002351
station -0.011094 0.003202 -0.002710 0.004956 0.002739 -0.004441 0.014547 -0.008870 0.009989 -0.014664 0.005740 0.006043 0.011218 -0.005273 0.002404 -0.013783 0.005346 0.001109 0.002034 0.007119 0.016323 0.012700 -0.013382 0.002547 -0.001426 0.001639 -0.017985 0.007280 0.002738 0.010912 -0.000409 -0.008647 -0.008121 0.013862 0.020837 -0.005536 0.004832 0.021565 0.000761 0.009312 -0.004701 -0.004052 0.000429 -0.015477 -0.004833 -0.009234 -0.027332 -0.023281 -0.002896 0.010114 -0.003025 -0.003378 0.010281 0.006819 -0.005089 0.000673 -0.000254 0.006156 -0.003332 -0.006807 -0.023929 0.005269 0.013867 0.007821 0.008572 -0.001781 0.021937 0.014217 -0.002197 0.009971 -0.013599 0.017796 0.001764 0.017272 -0.002053 -0.005999 -0.003638 -0.006615 -0.004529 0.022030 0.001242 -0.006166 0.023063 -0.011760 -0.001012 0.009543 0.012291 -0.007074 -0.000294 -0.011585 0.006420 0.008233 0.018692 0.008910 -0.008058 -0.013732 0.002921 0.001563 0.001290 0.003011
review 0.001655 -0.000086 0.000002 -0.000650 0.004004 0.000337 -0.008221 0.000774 -0.004822 0.003268 -0.006595 0.003027 -0.008122 0.002844 0.002240 0.010994 -0.000139 -0.008054 0.000714 0.000936 -0.005103 -0.007496 -0.003028 -0.000684 -0.008844 -0.005271 0.010194 -0.008746 0.000262 -0.014202 -0.004737 0.012717 -0.004839 -0.011506 -0.006165 -0.001021 -0.002184 -0.005747 -0.002644 -0.004178 -0.002656 -0.003469 -0.005905 -0.000343 -0.001264 0.010307 0.013682 0.014305 0.003573 -0.002987 -0.002272 0.010535 -0.003324 -0.004116 -0.000872 0.006989 -0.003279 0.000825 -0.005664 0.004550 0.014318 0.000962 -0.002112 -0.008794 -0.004428 0.001626 -0.005777 -0.002191 0.000271 0.003832 0.003941 -0.001972 -0.005233 -0.012485 0.001488 -0.005838 -0.000871 0.003798 -0.003498 -0.012505 0.002095 0.003094 -0.017374 0.001116 -0.008184 -0.002344 -0.002390 0.005763 -0.007846 0.006089 -0.000594 -0.002321 -0.013649 -0.006517 -0.009494 0.012920 -0.008555 -0.005972 0.002242 0.010307
volume 0.000169 -0.004323 0.007116 0.000222 0.003404 -0.004657 0.001453 -0.001802 0.002449 0.003453 0.003339 0.002598 -0.001611 0.001166 -0.003193 -0.001720 0.002371 -0.004583 -0.000297 0.001226 0.005360 0.001721 0.004869 0.003214 -0.002856 -0.000171 -0.001800 -0.002788 0.001236 -0.003298 0.000972 0.004253 -0.006119 -0.008288 -0.001093 0.000414 -0.003351 0.006540 -0.002548 0.000976 -0.007706 -0.002379 0.000285 -0.007178 -0.003038 0.002349 0.001433 0.000871 -0.001524 0.004309 -0.007654 0.004703 -0.001742 0.002910 -0.005909 -0.002397 -0.005989 0.003257 -0.002727 -0.001687 -0.000653 0.002312 0.004380 0.000087 -0.004863 0.005491 -0.001633 -0.002614 -0.003741 0.001312 -0.007215 0.005955 0.005397 0.002265 0.006892 -0.005793 -0.005395 -0.004413 -0.000240 -0.001215 -0.004133 0.005272 -0.007074 -0.000556 0.002784 0.003435 0.003371 -0.001568 -0.006628 -0.004240 0.000589 -0.001504 0.001211 -0.004910 -0.004369 0.000837 -0.007018 0.000285 -0.003861 0.002265
audio 0.000461 0.003984 0.011405 0.004387 0.009878 0.004304 -0.010119 0.003840 -0.009039 0.009779 -0.006591 -0.001538 -0.012356 0.013017 0.004496 0.013366 0.006497 -0.010394 -0.006373 -0.001758 -0.007982 -0.020707 0.003363 -0.001748 -0.011041 -0.006842 0.019144 -0.005404 0.007235 -0.015739 -0.015667 0.014808 -0.003477 -0.016159 -0.022234 -0.001628 -0.001311 -0.015578 0.000144 -0.007230 -0.003021 -0.004296 0.001453 -0.001757 0.000406 0.016240 0.030971 0.031656 -0.000869 -0.001029 0.000076 0.011200 -0.006013 -0.008686 0.003679 0.009527 -0.006524 -0.001304 -0.004467 0.005110 0.022711 -0.002159 -0.011234 -0.008872 -0.014905 0.005233 -0.022045 -0.013856 0.005675 -0.000795 0.001091 -0.016452 -0.010977 -0.019559 0.005397 0.000861 -0.004476 0.007337 -0.011456 -0.022983 0.004480 0.009722 -0.031255 0.000908 -0.009611 -0.005965 -0.006517 0.007410 -0.008851 0.010543 -0.015535 -0.003986 -0.024466 -0.021380 -0.010005 0.025440 -0.009963 -0.009260 -0.000694 0.012131
small -0.000538 -0.000341 0.002909 -0.000762 0.001395 -0.001774 0.005362 0.001568 0.002739 -0.002536 0.000790 -0.005146 -0.002043 -0.002335 -0.002266 -0.000555 0.003354 0.006626 0.001258 -0.003770 0.001565 0.005423 -0.001996 0.001000 0.003766 -0.000241 0.000611 0.003593 0.005071 0.003888 0.001317 0.001346 -0.002097 -0.002835 0.001054 -0.001940 -0.001643 -0.001127 -0.000570 0.003194 0.006081 0.001482 -0.001616 0.001465 0.004539 -0.005803 0.004519 0.003501 -0.002052 0.004925 0.000194 -0.002453 -0.002995 -0.003207 -0.003985 -0.001294 0.000208 -0.003887 -0.001738 -0.000066 -0.000371 0.001571 0.002060 -0.000279 -0.002810 0.004229 0.001699 -0.002970 -0.004024 -0.000154 -0.002758 -0.003334 -0.003617 0.003690 0.004648 -0.005377 0.002511 0.003560 0.000172 -0.004764 0.003150 0.002947 0.003078 0.000859 0.002381 0.001636 -0.001192 -0.003770 0.001152 0.003065 0.000623 0.000928 0.004528 -0.004627 0.000317 -0.001619 -0.004344 0.001581 0.006183 0.002908
model 0.005477 0.000610 0.007644 0.003194 -0.000785 0.000375 -0.004977 0.005071 -0.011001 0.008809 -0.005215 0.002015 -0.008579 0.002653 0.006264 0.002955 -0.000710 -0.001556 -0.001971 -0.008261 -0.009989 -0.007871 0.002290 -0.004119 -0.007295 0.001117 0.007976 -0.011277 0.005643 -0.014956 -0.010638 0.008284 0.002308 -0.008797 -0.006683 0.001869 -0.008474 -0.003056 -0.006558 -0.000239 -0.004192 0.000544 -0.002779 0.003066 0.003538 0.002719 0.018073 0.012268 -0.002860 -0.005541 0.000044 0.010735 -0.001445 -0.007120 0.003527 0.003979 -0.003690 -0.005174 -0.004166 -0.003314 0.016748 0.000333 -0.002433 -0.009443 -0.004051 0.004663 -0.006783 -0.008063 0.001745 0.003840 0.004024 -0.001000 -0.008445 -0.007357 -0.002126 0.002795 -0.008966 -0.000856 -0.008214 -0.009564 -0.001829 0.001983 -0.011190 0.001199 -0.005050 -0.006392 -0.009053 0.003181 -0.004360 0.012468 -0.001399 -0.004946 -0.015691 -0.011056 -0.007958 0.008534 -0.010341 -0.001251 -0.006184 0.007628
control -0.005111 -0.004205 0.002857 0.002950 0.001992 0.008436 0.005842 0.002139 -0.004871 -0.001416 -0.001028 -0.003786 0.001097 -0.001463 0.001136 0.006007 0.003319 -0.000301 0.004283 0.003249 0.004722 0.001793 -0.004257 -0.002504 -0.006727 -0.001668 0.003078 -0.005319 0.000971 -0.008424 0.002830 -0.001187 -0.004147 -0.001907 0.003338 0.000010 0.001854 0.007353 0.001623 -0.005624 0.000095 -0.000280 0.000207 0.001147 -0.001390 0.001072 0.004242 0.003954 0.002228 -0.001491 -0.001258 0.004245 0.003281 0.006383 -0.006527 0.006886 -0.004458 -0.004662 -0.005927 -0.003266 -0.002913 0.006814 0.000317 -0.000204 0.004646 0.003072 -0.000792 0.005054 0.002178 0.004296 -0.003231 0.000393 0.000364 -0.000931 0.002254 -0.007719 -0.003681 0.004168 -0.004741 -0.004264 -0.001947 0.008763 -0.006491 -0.000184 0.000435 0.007448 0.005893 0.000459 -0.008422 -0.001676 -0.006236 0.000420 0.001617 -0.000647 0.002331 -0.003511 0.002296 -0.001454 0.000806 -0.002491
display -0.001447 -0.004534 0.004847 -0.006400 0.002726 0.000636 -0.002272 -0.002948 0.002216 -0.000262 0.002438 0.003221 -0.000101 0.004149 0.002516 -0.004367 -0.002750 0.001855 0.004218 0.004321 0.002832 0.004932 -0.004787 0.003063 -0.003343 -0.001171 0.003271 -0.002334 -0.004611 0.002037 -0.001316 0.001168 -0.000997 0.006908 0.001676 -0.002036 -0.003230 -0.001127 0.005862 -0.004396 -0.004529 -0.002301 0.002427 0.000317 0.000034 -0.005517 -0.005578 -0.000681 0.002033 -0.001466 0.002649 0.004951 0.001465 -0.005309 0.003987 -0.004277 0.003514 -0.001470 -0.002347 0.003571 0.001041 -0.001195 -0.003740 -0.000280 -0.004594 0.001437 -0.000548 0.001471 0.001962 -0.001420 -0.000299 -0.003253 -0.001497 0.004136 -0.004580 0.004513 -0.004117 -0.002371 -0.001072 -0.003386 -0.004581 -0.000586 -0.004137 -0.001582 0.001326 0.000280 -0.002696 -0.004082 -0.005055 0.003394 -0.002142 -0.000637 0.002101 -0.001017 0.003219 0.003363 -0.004154 0.002591 0.005706 0.003135
hour 0.005575 0.003827 0.002374 -0.000979 0.001800 0.004506 -0.012875 0.004917 -0.015774 0.006969 -0.003057 -0.003767 -0.009124 0.016800 0.003959 0.013471 -0.000052 -0.011074 -0.001547 -0.006510 -0.011814 -0.013715 -0.001352 0.001479 -0.009406 -0.002133 0.008927 -0.004378 0.004177 -0.017838 -0.012942 0.005722 0.004420 -0.018742 -0.011737 0.001626 -0.009485 -0.010405 -0.007235 -0.005460 -0.008297 -0.006240 -0.002728 -0.006063 -0.004799 0.003499 0.027774 0.020533 -0.001372 -0.008948 -0.006280 0.012071 -0.010568 -0.008046 0.000802 0.008536 -0.002757 -0.013731 -0.004402 0.000364 0.012067 -0.000539 -0.008985 -0.007227 -0.008327 0.000136 -0.020414 -0.014912 0.003772 -0.008810 0.003672 -0.011343 0.000761 -0.015616 -0.000483 0.001501 -0.005591 0.000319 -0.006744 -0.023983 -0.002095 0.005892 -0.016163 -0.001262 -0.003913 -0.009244 -0.006732 0.002869 0.000014 0.009116 -0.003016 -0.005998 -0.021570 -0.013969 -0.008882 0.013035 -0.008698 -0.003362 -0.009013 0.003028
adapter 0.004041 0.011148 0.003663 0.010029 0.000996 0.007653 -0.012150 0.006299 -0.015838 0.007468 -0.006677 -0.003142 -0.015089 0.010720 0.005754 0.009548 0.005778 -0.016282 0.004961 -0.002768 -0.013726 -0.020925 0.001647 -0.002729 -0.018199 -0.000042 0.015387 -0.003224 0.007517 -0.019580 -0.021057 0.022710 -0.002342 -0.034262 -0.020956 -0.000859 -0.014844 -0.017939 -0.005223 -0.008788 -0.002763 -0.009361 0.001187 -0.001283 -0.004022 0.020283 0.031938 0.031804 -0.007614 -0.003428 -0.007404 0.010387 -0.016810 -0.008893 0.007709 0.005695 -0.006719 -0.009126 -0.007980 0.002710 0.024566 -0.000231 -0.017569 -0.018678 -0.016380 0.006844 -0.027660 -0.023893 0.005562 -0.002018 0.003013 -0.020921 -0.006398 -0.032204 -0.001423 0.000991 -0.011977 0.003580 -0.015238 -0.034269 -0.003338 0.011396 -0.028361 -0.004059 -0.009719 -0.012607 -0.014404 0.001869 -0.006070 0.015227 -0.007391 -0.002734 -0.021968 -0.029705 -0.008237 0.019927 -0.016339 -0.012575 -0.012008 0.010684
function 0.006767 0.006959 0.004044 -0.001586 -0.000383 0.003407 -0.003769 0.004976 -0.006794 0.002032 0.002862 -0.008626 -0.009669 0.006381 0.001270 0.005130 0.000925 0.002182 -0.002217 -0.002370 0.001860 -0.009840 0.001891 -0.000919 -0.008613 -0.003490 0.009364 -0.010370 0.002992 -0.012929 -0.003124 0.011318 -0.001219 -0.009467 -0.009249 -0.006746 -0.007298 -0.009382 0.002646 -0.005674 -0.005317 0.000110 0.003164 0.005504 0.007172 0.002390 0.013967 0.022658 -0.005032 -0.004546 0.002929 0.008932 -0.006450 -0.005350 -0.001755 0.006003 0.001613 -0.001972 -0.005052 0.001513 0.009076 -0.002260 -0.007074 0.000072 -0.003615 0.003390 -0.007561 -0.010621 0.002161 0.000062 0.001657 -0.007381 -0.003164 -0.010066 -0.001040 0.001175 -0.010695 -0.000091 -0.008584 -0.007208 -0.004599 0.006345 -0.012840 0.003071 0.003784 -0.001508 -0.003952 0.001509 -0.011809 0.006059 -0.005653 0.004832 -0.009392 -0.012083 0.002613 0.009825 -0.001324 -0.001831 -0.005362 0.008216
speaker 0.004248 -0.000491 0.002173 -0.001821 0.003213 0.008828 -0.001137 0.000282 -0.006511 0.004729 0.002370 0.000097 -0.002777 0.007983 -0.001340 0.011838 -0.002883 -0.009046 -0.000875 -0.004220 -0.006858 -0.013859 0.006658 -0.004515 -0.002449 -0.002944 0.009218 -0.010386 0.004270 -0.016861 -0.011713 0.008042 0.003434 -0.017822 -0.013362 -0.000026 -0.008751 -0.005309 -0.005814 -0.003739 -0.004866 0.002976 -0.002298 0.003961 0.000298 0.003584 0.021913 0.019241 0.002912 -0.001598 -0.008108 0.010643 -0.006906 -0.003838 -0.003605 0.005738 0.000723 -0.010951 0.000683 -0.002499 0.017137 -0.002682 -0.006087 -0.011230 -0.002641 -0.000614 -0.013380 -0.005037 0.005117 -0.002906 0.000372 -0.007260 -0.007913 -0.013710 -0.000827 0.000952 -0.006526 0.002719 -0.005951 -0.019452 0.001544 0.008608 -0.020492 -0.002995 -0.004514 -0.003648 -0.003415 0.005160 -0.004337 0.009899 -0.007829 -0.001426 -0.015908 -0.010852 -0.011018 0.014963 -0.007722 -0.005685 0.000407 0.004970
power 0.004092 -0.000341 0.002894 0.003300 0.003296 0.010115 -0.007465 -0.001854 -0.003816 0.008390 -0.002953 -0.005337 -0.007188 0.007201 0.000734 0.008533 -0.000227 -0.004403 0.000222 -0.003746 0.001125 -0.011537 0.006141 -0.002952 -0.007056 -0.005769 0.009084 -0.008107 0.005318 -0.014089 -0.005906 0.009115 -0.004912 -0.007053 -0.014818 0.003602 0.002976 -0.004925 0.002087 -0.007528 0.000408 -0.007685 -0.002230 0.003924 0.002759 0.006346 0.017501 0.019822 0.002654 0.000255 0.003068 0.005256 -0.003926 0.005058 0.002954 0.005800 0.001811 -0.009116 0.000710 0.008739 0.006194 0.003660 -0.011827 -0.007915 -0.000110 0.004734 -0.010022 -0.006120 0.002923 -0.002503 0.004602 -0.009278 -0.002997 -0.012999 -0.000646 -0.003195 -0.010359 0.005947 -0.001116 -0.013019 0.001736 0.001847 -0.017223 0.002880 -0.004588 0.002402 -0.003198 -0.002019 -0.008747 -0.002077 -0.008706 0.001132 -0.009482 -0.014014 0.002228 0.012346 -0.006384 0.001548 -0.005814 0.002167
cheap 0.003167 0.002890 0.004783 0.000902 0.005395 0.003313 -0.005443 0.004859 -0.007383 0.000287 0.000356 -0.001678 0.002262 0.004620 0.001569 -0.000263 0.002468 0.000079 -0.000081 -0.005105 0.000304 -0.001918 0.002723 0.001045 -0.001008 -0.001530 0.007284 -0.006583 -0.000687 -0.008274 -0.006422 0.005250 0.004242 -0.005796 -0.008926 -0.000099 -0.006974 0.001092 -0.000688 -0.003944 0.002014 -0.000054 0.002132 -0.003682 -0.001586 0.007844 0.002738 0.010452 -0.001075 -0.001347 0.003554 0.001229 -0.002726 -0.001350 0.005650 0.003393 -0.004884 -0.006886 0.000284 -0.001582 0.003486 -0.004205 -0.001338 -0.005454 -0.006537 -0.001371 -0.000659 0.001519 0.005811 0.000155 -0.002727 -0.002278 -0.004987 -0.001829 0.005151 -0.004651 0.003108 -0.003310 -0.006216 -0.003201 0.002191 0.002419 -0.001434 -0.001155 -0.002126 0.000622 -0.000755 -0.001633 0.001400 0.006871 -0.004439 0.000259 -0.004765 -0.006061 -0.005997 0.005400 -0.006218 0.000177 0.001257 0.006496
clock 0.001622 -0.002179 -0.003422 0.002645 -0.003827 -0.002913 0.007366 0.004308 -0.003507 -0.008543 -0.000524 -0.003887 -0.000810 -0.002679 0.001517 0.002080 -0.000082 0.001974 0.004487 -0.002353 -0.002560 -0.000224 -0.006457 -0.004222 -0.002361 -0.002632 -0.000061 0.005397 0.002087 0.006066 0.006302 -0.004094 -0.004121 0.006059 0.004433 -0.004209 -0.002717 0.003132 -0.004590 0.004103 0.000096 -0.003215 -0.005282 -0.003851 0.000901 -0.004747 -0.006341 0.002890 0.003427 -0.002535 -0.002577 0.002744 0.007256 -0.000704 -0.007006 0.002468 -0.000654 0.001880 0.000105 0.000345 -0.000733 0.001096 0.006319 -0.002324 0.001929 -0.001175 0.003850 0.000580 -0.003261 0.002813 -0.004358 0.002123 0.002552 0.007261 -0.004251 -0.000705 0.001307 0.000386 0.002806 0.005984 0.001787 0.002273 0.008941 -0.001947 -0.000083 -0.001472 0.000165 -0.002613 0.002241 -0.006252 0.004299 0.004054 0.006813 0.005451 0.002250 -0.008167 -0.000047 0.002927 -0.002488 -0.000321
bass -0.004099 0.002237 0.000539 0.000889 -0.002617 -0.003630 -0.004234 0.005367 0.003365 0.000060 0.004415 0.003237 0.001492 0.001953 -0.004940 0.005461 -0.004083 -0.006118 -0.001835 -0.001950 0.003761 -0.000932 0.006340 0.005244 -0.002133 -0.003739 0.001190 -0.001183 0.000783 0.001747 0.002956 0.007586 0.002230 -0.002284 -0.003435 0.004377 0.002820 0.003857 0.003882 0.000056 -0.004659 -0.003197 -0.003767 -0.000659 0.006760 0.001733 0.003598 0.005632 -0.006631 0.001424 0.001674 -0.003980 -0.000069 -0.002295 -0.005136 0.002718 -0.006037 -0.000116 -0.002686 -0.001735 0.002933 -0.001919 0.000552 0.003384 -0.003273 -0.003144 -0.004563 0.004679 -0.003041 0.003169 -0.004552 0.004074 0.002891 0.004463 -0.001384 -0.002062 0.001089 0.004003 -0.000304 0.000648 0.002518 0.005885 -0.004835 -0.003329 -0.002994 0.004188 -0.003966 -0.001126 -0.002093 -0.001484 -0.002640 0.003240 -0.003090 0.002213 -0.005232 0.000558 -0.000403 -0.003696 -0.000887 -0.004571
case -0.002514 -0.000145 0.000302 -0.001006 0.003344 0.003249 -0.004005 -0.003560 0.000626 -0.000249 -0.002573 -0.003023 -0.002482 0.005372 0.001608 0.003846 0.006565 -0.005439 -0.000989 -0.005587 0.000293 -0.006802 0.000003 -0.001942 -0.005573 -0.000462 0.006902 -0.001030 0.002035 -0.009386 -0.001576 0.006655 0.002485 -0.001113 -0.008035 -0.004242 -0.006178 -0.000428 0.000616 -0.006289 0.000304 0.003606 0.003153 -0.003653 -0.001581 0.007630 0.010466 0.005677 0.004633 0.003921 0.000938 0.005325 0.001608 -0.001648 0.002866 0.003092 -0.000971 -0.005806 -0.000035 0.003471 0.000926 -0.000635 -0.000445 -0.002511 0.000302 0.004393 -0.010015 0.001103 -0.002669 -0.002348 0.000105 0.000725 0.001769 -0.001096 0.002186 0.001109 -0.004073 0.003942 -0.009016 -0.008365 -0.003939 0.002584 -0.003236 0.002179 0.002912 0.003418 -0.005045 0.003249 0.000857 0.003183 -0.002110 -0.005584 -0.002329 -0.002058 0.000725 0.009462 -0.006099 0.000554 -0.002216 -0.000904
system -0.002169 0.004958 0.002742 0.003344 0.004315 0.001466 0.000787 0.000529 -0.000147 0.001801 -0.004425 0.004189 -0.002689 0.002550 -0.000702 0.005039 0.001259 -0.000883 0.001619 0.003045 -0.001087 0.003620 0.005104 0.001004 0.003385 0.000688 0.003439 -0.003454 0.005089 0.001393 -0.000910 -0.001670 -0.001537 0.002187 -0.006453 -0.000003 -0.003612 0.001279 0.001877 -0.003943 -0.004266 -0.002471 -0.005034 0.004587 0.001349 -0.001503 -0.000381 -0.000351 -0.003229 0.004708 0.000758 -0.003735 -0.005436 0.001983 0.003242 0.001471 0.002821 -0.000267 0.000411 -0.002780 -0.002019 0.001169 0.002518 -0.000816 0.003855 -0.002240 0.003103 -0.002823 -0.002800 0.000376 0.005082 0.003283 -0.004166 0.002674 -0.001745 0.002541 -0.005583 0.006040 0.003785 -0.003021 0.005171 0.005438 -0.004556 -0.000078 -0.001631 -0.003956 0.002289 -0.003035 0.000265 0.003530 -0.003696 0.000826 -0.001009 -0.005351 0.003349 0.006290 0.001732 0.002480 0.000351 -0.001889
tape 0.006784 0.003644 -0.000431 0.003261 0.006226 0.007309 -0.009466 0.003257 -0.011510 0.007954 -0.001228 -0.003187 -0.012274 0.008557 0.003564 0.008788 0.001196 -0.014041 -0.000814 0.003688 -0.010449 -0.011964 -0.000607 0.003571 -0.012328 -0.003574 0.011490 -0.000704 -0.002114 -0.017969 -0.005133 0.006228 0.004340 -0.016748 -0.009180 -0.000571 -0.002870 -0.014236 -0.004727 -0.010192 -0.007069 -0.008412 -0.004270 -0.007599 0.003014 0.013275 0.020163 0.025196 -0.004227 -0.001102 -0.001222 0.011979 -0.005890 -0.001312 0.003927 0.008979 -0.000710 -0.009497 -0.001742 0.006162 0.013641 0.003582 -0.013714 -0.014313 -0.009138 0.006161 -0.018865 -0.014916 0.005225 0.000301 0.001583 -0.012091 -0.008932 -0.014225 0.002061 0.002878 -0.003657 0.003121 -0.007977 -0.024916 -0.000732 0.008871 -0.022769 -0.002682 -0.009933 -0.009744 -0.006954 -0.000426 -0.010468 0.009464 -0.011005 -0.002125 -0.013935 -0.020498 -0.002712 0.011940 -0.012932 -0.005425 -0.003399 0.006200
file 0.007164 -0.001289 -0.000895 0.000396 0.004169 0.006821 -0.008588 0.000570 -0.003953 0.001915 -0.003415 0.000394 -0.012295 0.006896 0.004142 0.005712 0.000768 0.001100 -0.003764 0.002168 -0.004553 -0.009230 0.001043 0.003829 -0.007597 -0.000798 0.007831 -0.007203 0.003192 -0.011873 -0.008539 0.007536 -0.000493 -0.010823 -0.009839 -0.002560 -0.008337 -0.010692 -0.001072 -0.002891 -0.007430 -0.003767 0.004582 0.004919 0.001872 0.003766 0.020707 0.021785 -0.003630 -0.003249 0.001075 0.011442 -0.007721 -0.008250 0.004803 0.009068 -0.006295 -0.006682 -0.005687 0.000011 0.013971 -0.005099 -0.006307 -0.005036 -0.009047 -0.000821 -0.016063 -0.010584 0.006401 -0.004383 0.004666 -0.012332 -0.005552 -0.008462 0.000960 -0.003937 -0.003259 0.002160 -0.010791 -0.008564 -0.001674 0.006023 -0.015513 -0.000037 -0.000837 -0.002414 -0.010265 0.006452 -0.007407 0.002362 -0.001412 0.003379 -0.016693 -0.010038 0.001024 0.010913 -0.008613 -0.000667 -0.005765 0.009399
star 0.000348 -0.003447 0.003430 -0.002172 -0.001526 0.006454 0.002560 0.003312 -0.001763 -0.001071 -0.000752 -0.000681 -0.003419 -0.000098 0.001441 0.007406 0.004556 0.000957 -0.003263 0.003257 0.001809 -0.005445 -0.001403 0.000270 -0.007464 -0.001633 0.002907 0.002201 0.002428 -0.000876 -0.005329 0.006682 0.000424 -0.008167 -0.006904 -0.002587 0.001991 -0.001931 -0.004185 -0.005272 -0.004701 0.002764 0.003957 -0.003532 -0.002126 -0.002833 0.003918 0.003505 -0.001244 0.002545 0.002881 0.003363 -0.002907 0.000418 -0.003412 0.001265 0.003366 -0.004361 -0.003194 -0.001189 0.003502 0.004910 -0.004228 0.000693 0.002218 0.002634 -0.006070 -0.006264 -0.000553 -0.004136 0.001274 -0.002370 0.000883 -0.007080 0.001424 0.003647 -0.007350 -0.004443 -0.005339 -0.008275 -0.000634 0.002572 -0.000398 -0.002973 -0.005397 -0.000113 0.002740 0.001733 -0.000556 0.003658 -0.004624 0.004409 -0.000176 0.000124 -0.002555 0.006440 -0.001559 0.001859 0.001203 0.003444
tv 0.001431 0.000371 0.005867 0.005724 0.001397 0.003272 -0.003782 0.005063 -0.008382 0.007363 -0.002771 -0.007467 -0.007052 0.005962 -0.002189 0.011247 0.004600 -0.002716 0.001442 -0.001856 -0.000989 -0.004388 0.004388 -0.004815 -0.008975 -0.006034 0.014366 -0.008414 0.004269 -0.014935 -0.010795 0.010134 -0.005798 -0.013751 -0.008330 -0.003309 -0.002951 -0.005260 -0.002941 -0.005337 -0.000844 -0.001557 0.000485 -0.003070 0.003463 0.011827 0.014659 0.023841 -0.002300 0.001744 -0.009309 0.010308 -0.004252 -0.008043 -0.000465 0.006245 -0.000292 -0.007708 -0.002606 0.006219 0.012653 0.003644 -0.011732 -0.008327 -0.002615 0.005093 -0.009175 -0.002659 0.006153 0.004716 0.007573 -0.010685 -0.009945 -0.015162 -0.002301 0.005468 -0.010847 0.005813 -0.004852 -0.013528 -0.001003 0.002328 -0.020082 0.005564 -0.000850 -0.006638 -0.005025 -0.000449 -0.012651 0.010690 -0.004176 -0.003694 -0.008797 -0.015071 -0.007133 0.017729 0.001498 -0.001617 0.004348 0.011996
stereo -0.001370 -0.002163 0.003884 0.003127 0.003716 0.007398 0.001500 0.000781 -0.008180 0.002860 -0.006085 -0.000866 -0.005338 0.003236 0.000770 -0.000510 -0.001024 -0.004724 -0.003682 0.001524 -0.002626 -0.001974 0.004850 0.003692 -0.000667 -0.004138 0.000080 0.002060 0.000892 -0.006047 -0.006956 0.003670 0.002922 -0.004934 -0.004170 0.000019 0.001241 -0.007811 -0.007407 -0.004673 -0.003057 -0.003423 0.002803 -0.001420 -0.002976 0.006482 0.007202 0.011351 -0.002847 -0.001559 -0.003165 0.005639 0.001741 -0.001720 0.002184 0.003770 0.000372 -0.002979 0.002435 0.003414 0.006457 -0.000877 -0.001477 -0.001078 -0.000814 0.005595 -0.008068 -0.005444 0.003940 0.002142 -0.003760 -0.007962 -0.005977 -0.009605 0.001039 0.000194 0.000931 0.000018 -0.000730 -0.003234 0.003877 0.000957 -0.013772 -0.002756 0.002235 -0.000981 0.000615 -0.000862 -0.000684 0.006150 -0.008020 0.001458 -0.004448 -0.001269 -0.002220 0.008261 -0.003942 -0.001323 -0.001431 0.003836
room 0.005296 0.001981 -0.002846 0.000702 -0.001694 0.002778 -0.000649 0.002052 -0.003428 0.002981 0.004618 -0.000044 -0.003539 -0.003306 -0.003935 -0.002245 -0.004767 0.001695 -0.001332 -0.005510 -0.006490 -0.001782 0.002499 0.000941 -0.002722 0.002231 0.005616 -0.002198 -0.002381 -0.008106 -0.001709 0.006538 0.001735 -0.007129 -0.005678 0.002217 -0.001247 0.001546 -0.004704 -0.001856 0.002791 0.002236 -0.004064 0.004768 -0.000375 0.000019 0.006744 0.006083 0.002816 -0.003560 0.001473 0.003403 0.002574 -0.004154 -0.002894 -0.000963 -0.000162 -0.006532 0.003155 0.004035 0.005497 -0.001207 -0.005851 -0.006768 0.000942 0.002457 0.001065 0.002201 -0.003582 0.003921 0.000039 -0.005891 0.004792 -0.004939 -0.002986 0.002571 -0.003810 -0.000450 -0.000980 -0.005369 -0.000766 0.004751 -0.004554 -0.001052 0.002800 0.003224 -0.000689 -0.001981 -0.004228 0.003453 -0.001987 0.002354 0.001245 -0.003344 -0.004033 0.007068 0.000306 -0.005009 0.003241 0.005265
worth 0.003158 -0.000764 0.001692 -0.002664 0.005283 -0.002660 0.004006 -0.002661 -0.000497 0.004277 0.002707 0.002704 -0.001337 0.002356 0.004136 -0.000532 0.000822 -0.004767 -0.000519 -0.001021 0.002095 -0.004314 0.002435 0.000704 0.001265 -0.004334 -0.003797 -0.002681 -0.005866 0.001830 0.003810 0.000207 0.001624 0.000870 -0.002821 -0.000534 -0.000527 0.001906 -0.003742 -0.001237 0.002797 -0.000949 -0.004177 -0.002995 -0.003719 0.000710 0.002140 0.004304 0.004321 -0.002135 0.003526 -0.002435 -0.001272 -0.003381 -0.000084 -0.003241 -0.001052 -0.004076 0.005518 -0.000768 0.004949 0.001613 -0.000492 0.002233 0.001156 -0.001886 -0.001261 0.001374 -0.002116 -0.005437 -0.002064 0.002563 0.005072 -0.000316 -0.004799 0.002775 0.000593 0.002416 0.003385 0.003841 0.002202 0.003302 0.002635 0.002479 0.003260 0.003926 0.003285 -0.001056 -0.004019 0.004059 0.000950 0.000025 0.002941 -0.005152 0.003872 -0.003863 0.001546 0.000148 0.000891 -0.001578
size -0.000707 -0.003263 0.003407 -0.002798 0.001967 -0.000203 -0.005252 -0.000453 -0.005728 0.000133 -0.003387 -0.001904 -0.002849 0.001328 -0.003858 0.000657 -0.004667 0.002721 0.003991 0.003056 -0.005221 -0.002053 0.002288 0.004245 -0.004140 0.003904 0.003592 -0.006748 0.001191 -0.005157 0.001223 0.000798 0.002015 0.000710 -0.000470 -0.001902 -0.001130 -0.006595 -0.005595 -0.004139 0.002145 -0.000552 -0.004271 0.001488 0.003766 0.006323 0.010190 0.011609 0.000320 -0.003975 -0.004338 -0.000464 -0.000367 0.004715 -0.000874 -0.001413 0.001472 -0.005386 -0.000203 0.003525 0.008451 0.000499 0.001724 0.001168 -0.002988 0.002756 -0.004668 -0.005155 0.004743 -0.000358 0.002656 0.001995 0.000024 0.000924 0.001657 -0.003628 0.002449 0.004213 0.002250 -0.008740 0.001570 0.001196 -0.000521 0.000970 0.001732 -0.000797 -0.000783 -0.002822 0.000639 0.003891 -0.003661 0.002477 -0.003418 -0.000051 0.000134 0.007319 0.000261 -0.000486 0.004790 0.005929
cassette 0.007523 0.008557 0.006581 0.008587 0.010085 0.007039 -0.011685 0.003294 -0.020323 0.009225 0.003281 -0.009251 -0.007040 0.012698 0.003950 0.008957 -0.000532 -0.017870 0.001923 -0.003849 -0.007542 -0.014600 0.000564 0.000766 -0.015020 -0.008203 0.017012 -0.003283 0.005796 -0.020440 -0.013962 0.018216 -0.000646 -0.029596 -0.021950 -0.002455 -0.006632 -0.013621 -0.007420 -0.010977 -0.009266 -0.000728 -0.001308 -0.008317 0.003140 0.012072 0.024637 0.031976 -0.000856 -0.005712 -0.004899 0.007813 -0.014119 -0.004465 0.003070 0.004322 -0.010329 -0.008413 -0.000579 0.001643 0.017830 0.002628 -0.013023 -0.014451 -0.013645 -0.001048 -0.026287 -0.017218 0.001248 0.001304 0.003510 -0.012704 -0.010282 -0.019286 0.004101 0.000056 -0.004900 -0.001267 -0.007995 -0.025202 -0.000589 0.012678 -0.028711 -0.001723 -0.007734 -0.005175 -0.011492 0.006711 -0.005063 0.010481 -0.005942 -0.000809 -0.019221 -0.021350 -0.008252 0.015798 -0.011920 -0.004839 -0.011450 0.010858
box 0.005828 -0.002963 0.004513 0.002909 0.004747 0.003239 -0.003477 0.006158 -0.000662 0.005753 0.003420 -0.005206 0.000481 0.004894 0.003483 0.006942 0.005000 -0.006529 -0.000459 -0.001200 0.001100 0.001320 0.005426 -0.002238 -0.004358 0.003020 0.001687 -0.003898 0.001444 -0.005667 0.000645 0.002306 -0.004210 0.000835 -0.005537 -0.002294 -0.003668 -0.002207 0.001723 -0.000893 -0.004239 -0.003275 0.000002 0.004552 -0.000226 -0.001272 0.003572 0.007944 0.001687 -0.003575 -0.002083 0.005017 0.000746 -0.004495 0.001880 0.006498 -0.000203 -0.003327 0.001188 0.006652 0.008573 0.004536 -0.008245 -0.001380 -0.004872 0.003596 -0.003423 0.002825 0.001248 0.002894 0.000201 -0.001993 0.002415 -0.004762 0.001998 0.003251 -0.001553 0.001942 0.002945 -0.000873 0.002552 0.003897 -0.001665 -0.003320 -0.002457 0.000316 0.002577 -0.002730 0.000184 0.002542 -0.000832 -0.002632 0.000728 -0.001663 0.000055 0.000656 0.001121 -0.000762 -0.000300 -0.002634
loud 0.003142 0.003308 0.004617 0.002136 0.001221 0.002284 -0.002902 0.005972 -0.006626 0.006224 -0.001505 0.002523 -0.006249 0.007803 -0.002701 0.008985 -0.004196 -0.002646 0.003647 -0.003745 0.002948 -0.006681 0.004132 -0.002360 0.000732 0.003201 0.001268 0.001419 0.003734 -0.001284 -0.007295 0.001912 0.003393 -0.004879 -0.001721 0.003994 -0.005561 -0.006309 0.001756 -0.001021 -0.002463 0.005089 0.000687 -0.003885 -0.004249 0.007728 0.010044 0.008714 -0.005220 0.000807 -0.003667 0.003465 -0.005415 -0.000804 -0.001155 -0.001246 -0.001063 0.001018 -0.002225 0.005238 0.010995 -0.004792 -0.007139 -0.006059 -0.005879 0.003606 -0.007461 -0.004150 0.003145 -0.004037 0.001250 -0.000669 -0.001793 -0.001708 0.004570 -0.004013 -0.002494 -0.000519 -0.002249 -0.012030 -0.000968 0.001023 -0.009414 0.005039 -0.004522 -0.002755 -0.006031 0.002233 -0.006220 0.003490 -0.006040 -0.005686 -0.004043 -0.002912 -0.007734 0.004539 -0.005681 -0.006887 -0.002672 0.000669
reception -0.005498 0.000449 -0.001410 0.003361 -0.001195 0.000563 0.006851 0.000308 -0.000133 -0.006126 0.005637 -0.002041 0.005245 -0.002230 0.004442 -0.009775 0.004084 0.003049 0.005087 -0.002345 0.002367 0.005874 0.000049 0.002620 0.004558 -0.000619 -0.002789 0.001417 -0.000630 0.005835 0.001436 -0.003362 -0.002048 -0.000041 0.006171 -0.000985 0.006608 0.005140 -0.005526 0.004289 0.002315 -0.001563 -0.004210 -0.010597 -0.006652 -0.004070 -0.013445 -0.009691 0.004954 0.001295 -0.003053 -0.002951 0.001629 0.003665 -0.006665 -0.008039 -0.000228 0.004502 -0.005013 -0.007678 -0.011467 -0.001846 0.009582 0.001741 -0.002265 -0.000284 0.008024 0.003038 0.001932 -0.002052 -0.006505 0.010185 0.004368 0.002075 -0.002419 -0.005232 -0.003363 0.002087 -0.001046 0.009222 -0.006414 -0.004007 0.011503 -0.000285 0.001379 0.003246 0.006470 0.001015 0.001209 -0.003134 0.004650 0.005296 0.000602 0.009119 -0.002473 -0.012245 0.002169 0.000652 -0.004228 0.004724
disk -0.000725 0.004829 0.001578 0.003186 -0.000348 -0.001334 -0.006255 -0.000938 -0.007213 0.004116 0.002198 -0.002561 0.000347 0.003340 -0.003737 -0.000064 -0.003612 -0.003971 -0.004877 -0.000905 -0.001276 -0.001720 0.000594 0.003601 -0.000081 -0.006014 0.006744 -0.000963 0.004223 0.001060 -0.004907 -0.002435 -0.001621 -0.003830 0.000917 -0.004410 -0.002848 -0.005767 0.003765 0.003834 -0.004758 0.000895 -0.002403 0.005746 0.003363 0.002868 0.009996 0.001035 0.005627 -0.002708 -0.002241 0.007019 -0.000831 -0.005294 0.004973 0.003452 0.000778 -0.000554 -0.002631 0.001006 0.006397 -0.006273 -0.004941 0.001327 0.000582 0.000168 -0.005519 -0.005117 0.005725 -0.002134 -0.004622 0.002857 -0.002392 -0.000158 0.004960 0.000084 0.001608 0.000219 0.001669 -0.001223 -0.003267 0.004267 -0.002249 -0.003193 -0.002518 -0.001882 -0.005970 -0.003248 -0.002964 0.006644 0.000519 0.002660 -0.005104 -0.000828 -0.001369 0.003797 -0.006737 0.002780 0.003428 0.000956
life 0.006731 0.003517 -0.004474 0.003174 0.007196 0.009247 -0.014418 -0.001354 -0.007868 0.003880 -0.004858 -0.014889 -0.009210 0.015944 0.001957 0.016287 -0.001130 -0.012135 0.000140 0.002688 -0.010215 -0.011230 0.005440 -0.001677 -0.009576 -0.003588 0.017021 -0.001392 -0.001842 -0.012001 -0.009771 0.003207 0.005109 -0.016655 -0.019094 -0.000749 -0.009796 -0.010659 -0.001136 -0.008450 -0.004420 -0.008359 0.004336 -0.006880 0.001155 0.002240 0.018894 0.014171 0.002337 -0.000545 -0.000628 0.006412 -0.011989 -0.001544 0.001376 0.006011 0.004516 -0.014474 0.000450 0.009711 0.013813 0.001309 -0.009742 -0.012602 0.002726 -0.005940 -0.012711 -0.011756 0.008251 -0.009460 0.008039 -0.015085 -0.002034 -0.023438 -0.001791 0.003741 -0.001370 -0.000285 -0.013815 -0.023566 0.002747 0.007036 -0.014965 0.001043 -0.005859 -0.010276 -0.009225 0.009922 0.001765 -0.001499 -0.002711 -0.001432 -0.020506 -0.008562 0.000190 0.010350 -0.001314 0.003203 -0.003326 0.012455
piece 0.003255 -0.001259 0.004396 -0.004945 -0.003599 0.003484 0.001516 0.006114 0.001708 -0.001782 0.001486 0.001521 -0.002651 -0.001442 0.001238 0.002166 0.002772 -0.003324 0.001488 -0.003493 -0.000152 -0.006218 0.001246 -0.004487 0.001932 -0.003838 0.002895 -0.001641 -0.003535 0.001485 -0.003653 0.003724 -0.001176 0.003270 -0.004911 -0.002904 0.000363 -0.001321 -0.002981 -0.001434 0.002932 0.004348 -0.001466 -0.000021 -0.004689 -0.002639 -0.002275 -0.001109 -0.003475 0.000701 0.000724 0.005455 -0.000850 -0.004040 -0.001461 0.003989 -0.000435 -0.004899 -0.001928 -0.002380 0.000158 -0.003798 -0.001941 0.000421 0.001739 0.001165 0.003313 0.000723 0.001242 -0.001637 -0.002239 -0.003727 -0.003669 0.001030 -0.003128 0.002392 0.001235 0.001904 0.003857 -0.003346 0.002114 0.000645 0.001071 0.002104 0.002516 -0.002057 -0.002863 -0.001926 0.001918 -0.000147 0.001425 -0.003507 -0.005141 -0.001841 -0.000001 0.004031 0.003498 0.000942 -0.004831 0.000845
light 0.002285 -0.002580 0.000457 -0.001908 0.003726 -0.001216 0.004606 -0.001971 0.001610 0.000099 0.004451 -0.006147 0.003247 0.004697 -0.000215 -0.002255 -0.000784 -0.005457 0.001082 -0.001523 0.001793 0.002465 0.003179 0.002619 -0.003914 0.003334 -0.002368 -0.005610 0.003433 -0.005420 -0.002912 -0.002958 -0.001810 0.001111 0.003796 0.004191 0.000178 0.002690 0.001893 0.002989 0.001441 0.002004 0.003639 -0.000579 -0.003971 -0.001523 0.000261 0.002569 0.002653 0.002470 0.003889 0.002367 -0.003505 0.000233 -0.000572 -0.001501 -0.000088 0.000614 0.001496 0.000262 0.001322 -0.000215 0.000821 0.004899 0.000676 0.004312 0.000937 -0.003585 0.005112 -0.000595 -0.004032 0.000340 0.002507 0.002022 0.003386 0.003828 0.001722 -0.002562 -0.001394 0.000880 -0.005417 0.002125 -0.002678 0.004064 -0.004664 -0.003785 0.000267 -0.000259 0.002559 -0.002371 0.002927 0.001936 -0.003292 0.002349 0.002740 0.003175 0.001248 0.000772 0.004047 0.001197
minute 0.005411 0.000496 0.000844 0.002435 -0.002069 0.003982 -0.003573 0.002282 0.000034 -0.000137 0.003619 -0.000362 -0.001009 0.000044 -0.004197 0.000714 -0.003508 0.000953 0.000899 0.001978 0.000310 -0.005400 0.003508 0.000694 -0.005588 -0.003896 -0.000475 -0.000029 0.004701 0.003249 0.002251 -0.000550 0.000588 -0.004338 0.000376 -0.003819 0.002124 0.002460 0.000353 -0.005717 -0.001104 0.003136 -0.003316 -0.003787 0.002964 0.001545 -0.000933 0.009150 0.000157 0.000167 0.002901 0.005374 -0.004885 -0.002636 -0.001568 0.001022 -0.004910 -0.004380 -0.003264 0.005269 0.007623 0.003174 -0.006406 0.001863 -0.006617 -0.002585 -0.007152 -0.003887 0.002100 0.001452 -0.000648 -0.000026 0.002703 -0.005244 -0.003102 -0.001575 -0.002568 -0.001764 0.001452 -0.004263 0.003116 0.004730 -0.002844 0.000914 -0.004120 -0.001728 0.003391 -0.002116 -0.000231 0.001103 -0.004921 0.003575 -0.006803 -0.000086 0.005281 0.004826 -0.002767 -0.004531 0.001213 0.002832
big -0.004858 -0.002366 0.001578 0.004770 0.004055 0.003531 -0.002007 -0.003856 -0.001395 0.000879 -0.003623 -0.002603 -0.005359 0.003274 -0.001972 0.006135 0.001413 0.002879 0.002540 -0.003690 -0.001422 -0.008571 -0.002630 -0.002823 -0.004833 -0.002203 0.001264 -0.001687 0.001676 -0.002561 -0.002304 0.006323 0.004115 -0.009534 -0.003571 0.001948 -0.004549 0.002075 -0.003954 0.001968 -0.002810 -0.003546 -0.001333 0.001211 0.003863 -0.000028 0.011138 0.008375 -0.005898 -0.003144 -0.000766 0.002459 -0.004089 -0.003799 -0.000586 0.004966 -0.003352 -0.004663 -0.000484 0.005919 0.003774 0.002288 -0.006624 -0.008092 0.002593 -0.002374 -0.008124 -0.004371 -0.003582 -0.003067 0.003248 -0.004673 0.000024 -0.000882 -0.000047 0.001914 0.002853 0.005575 -0.003689 -0.002765 0.002524 0.003123 -0.008137 -0.002130 0.003327 -0.000384 0.000339 0.000903 -0.006559 0.004420 0.001096 -0.002956 -0.002224 -0.005188 -0.001268 0.000076 -0.003095 -0.003392 0.002215 0.000558
reason 0.004471 -0.005170 -0.003481 -0.001000 0.000509 0.002905 0.003227 -0.006648 0.001156 0.002339 -0.001858 -0.003886 0.000403 -0.004658 -0.002711 0.002080 -0.000906 0.001729 0.002395 0.000391 0.004500 0.004376 -0.001202 0.000129 0.002979 -0.003410 0.000888 -0.000245 0.002396 0.005619 0.002505 -0.000831 -0.001066 0.004709 0.004647 0.000068 -0.002799 0.002146 0.003658 -0.003238 0.003665 -0.004807 0.002325 -0.001940 -0.002317 -0.006556 -0.002211 -0.007762 0.005005 0.002495 0.005055 -0.005828 -0.001958 0.000508 -0.003142 0.003032 0.002662 0.001210 0.001745 -0.000381 0.001760 0.001644 -0.004353 -0.001959 0.004781 -0.005289 0.000293 0.001346 0.000968 -0.005813 -0.002224 -0.000777 -0.004108 0.006089 -0.004793 -0.003113 0.002664 0.004189 -0.000090 0.000812 0.003120 -0.000812 0.004837 0.001521 -0.001224 -0.004847 0.000144 -0.001900 0.002622 -0.005249 0.006238 0.002994 -0.001495 -0.002057 0.001207 -0.005067 -0.000672 0.002477 -0.000359 -0.005531
alarm 0.005974 0.000440 0.002742 0.000176 0.002859 0.007483 0.005173 0.002773 -0.006187 -0.004175 -0.001674 -0.005871 0.001369 0.000932 0.002143 0.001728 0.004043 -0.002002 0.001835 -0.000024 -0.000410 -0.006839 0.001537 -0.006591 -0.001065 -0.004877 -0.001313 0.000396 0.007617 0.000660 -0.001714 0.002042 -0.001024 -0.006193 -0.002923 -0.004692 0.004948 -0.000601 -0.002430 -0.003029 -0.002339 -0.001970 -0.003092 0.002181 0.003266 -0.000687 0.005435 0.003169 0.003696 -0.004973 0.003375 0.009617 0.002174 0.005017 -0.001033 0.001934 -0.007093 0.000836 -0.001595 0.005858 0.003930 0.006400 -0.004882 0.005478 -0.001001 0.003427 -0.002811 0.003159 -0.003442 0.002362 0.002568 -0.005148 -0.000998 0.002001 0.003280 -0.000342 -0.001700 -0.002577 -0.000924 -0.000063 -0.005621 0.002077 -0.008282 0.003841 0.001716 0.003235 -0.003299 -0.000029 -0.000527 -0.005977 0.003109 -0.003542 -0.006197 -0.000742 -0.004080 -0.001405 -0.000777 -0.004749 -0.001910 0.006062
noise -0.000889 0.001458 0.000358 0.003378 -0.000136 -0.001769 0.001543 -0.004114 -0.005246 0.003036 -0.001085 0.004773 -0.004272 -0.000230 0.000257 0.004067 0.001856 0.003390 -0.004892 -0.003552 -0.004307 -0.002053 0.002128 -0.000172 -0.000487 0.006040 0.000609 0.000386 -0.001758 -0.002345 0.002437 0.001175 -0.000570 0.000776 -0.002161 0.001496 0.000145 -0.005925 -0.000320 0.002691 -0.005083 -0.004431 -0.000923 0.004962 0.000536 0.002819 0.000564 -0.002767 -0.004857 0.000178 -0.001261 0.001454 -0.000559 0.004256 0.004950 0.004729 -0.002461 -0.003309 -0.004721 0.003102 -0.001015 0.004489 -0.000674 -0.002549 -0.001313 -0.003084 -0.006146 -0.000241 0.002716 0.001614 -0.003648 0.001862 -0.002037 -0.003849 0.003037 -0.002193 0.003949 0.002107 -0.002510 0.003602 -0.001482 -0.000201 -0.001972 -0.003481 -0.001187 0.004190 -0.004150 0.002061 -0.002494 -0.001508 -0.005727 0.002620 0.004058 -0.004799 0.000985 0.001160 0.000655 -0.004104 -0.002050 -0.002854
phone 0.004072 0.000503 0.005762 -0.000758 0.000007 0.000898 -0.007059 0.001885 -0.004501 0.004144 0.000567 -0.002400 -0.004651 0.006005 0.005191 0.006826 -0.003631 -0.003442 0.004173 -0.002389 0.000061 -0.005497 0.000329 -0.000371 -0.005679 0.000593 0.001870 -0.001798 -0.000440 -0.007169 -0.003917 0.004446 -0.002970 -0.007363 -0.001041 0.001754 -0.000862 -0.006572 -0.002192 -0.000098 0.001582 0.003174 -0.001036 0.002545 0.003866 0.000420 0.012184 0.010239 -0.002021 0.001030 0.001288 0.006357 -0.007491 0.002067 0.004432 0.002679 -0.004662 0.000120 -0.002519 0.004531 0.009255 -0.001032 -0.002482 -0.000230 0.000803 0.000995 -0.004109 -0.008821 0.001482 0.001966 0.000594 0.001002 0.001554 -0.007739 -0.001672 -0.005866 0.000374 0.004288 -0.002328 -0.011685 -0.001463 0.003550 -0.010751 0.004178 -0.006474 0.001581 -0.006767 0.000915 -0.000369 0.008066 -0.007992 -0.003885 -0.005185 -0.007168 -0.003383 0.008940 -0.008604 -0.001110 -0.005788 0.004589
machine 0.002129 -0.004349 -0.003237 -0.001946 0.002999 -0.000823 -0.004046 0.002788 -0.000227 0.004011 0.002316 0.003187 0.000618 0.002433 0.004314 0.003066 0.000968 -0.003148 0.000296 0.003531 -0.001470 -0.003756 -0.004661 -0.003876 -0.000863 -0.002646 -0.004229 -0.002471 -0.000727 0.001839 -0.002516 0.004710 0.003920 0.004071 -0.002388 0.004557 0.005252 0.000924 0.003828 0.003789 0.002163 0.002867 0.001678 0.000239 0.002173 0.002388 -0.001466 -0.002965 0.003913 0.005306 0.000671 0.004649 -0.004327 -0.002768 -0.001184 -0.003853 0.000524 0.003913 0.003236 0.001642 0.004976 0.004898 0.004875 -0.004529 -0.002090 -0.001982 -0.004398 -0.003124 0.003225 0.002143 0.000304 0.003801 -0.001448 -0.001958 0.003695 0.001656 -0.001907 0.004369 0.000909 -0.003841 -0.002103 0.001577 0.002188 -0.001806 0.004102 -0.003599 0.005323 -0.002882 0.002729 0.004465 0.004045 0.003284 0.003573 0.002888 -0.003311 0.001453 -0.001070 0.001731 -0.001511 -0.000231
hard 0.004024 -0.001119 0.000095 -0.000438 -0.003763 -0.002023 0.001475 0.001620 -0.002939 0.000626 -0.000344 0.004569 -0.004499 -0.000208 -0.002039 0.000469 -0.004041 0.000201 0.000499 0.000395 -0.000580 0.003141 -0.000024 0.000463 -0.001321 0.002281 0.004416 0.001052 -0.001876 0.001912 0.002880 0.001577 -0.000718 -0.004624 -0.004137 -0.003911 0.002149 -0.004844 -0.001494 -0.003250 0.003420 0.000384 -0.004090 0.000409 0.001892 0.000816 0.000177 0.003194 -0.004323 -0.001605 0.003997 -0.001784 -0.003497 0.004234 -0.002344 -0.002927 -0.004046 -0.001417 0.003965 -0.002294 -0.000582 -0.000592 0.003848 0.003892 0.002535 -0.000868 0.001281 0.001941 -0.004629 -0.001772 0.003388 0.001765 -0.003529 0.004050 -0.001334 -0.001138 0.003615 0.003027 0.002625 -0.002169 -0.002605 0.003067 -0.002063 -0.000990 0.004359 -0.001299 -0.002987 -0.002202 0.003523 0.006144 0.002384 0.004025 -0.004047 -0.003217 0.002521 -0.000450 -0.003959 0.004520 0.004234 -0.000324
purchase -0.001773 -0.003192 0.005624 -0.001474 0.004665 0.003856 0.002658 0.000961 -0.007404 0.001043 -0.001910 0.003573 -0.006406 0.002744 0.001175 0.001822 -0.001553 -0.003596 -0.003030 -0.002610 -0.002731 -0.007048 0.002723 0.002088 -0.002485 0.002391 0.007049 -0.005758 -0.000221 -0.004915 -0.001839 0.006198 0.000493 -0.004767 -0.000213 0.004446 -0.004067 0.001060 -0.001301 -0.005318 -0.002372 -0.002555 -0.001190 -0.003780 -0.001055 0.007104 0.009507 0.003969 0.001291 -0.000660 0.003179 0.003044 -0.003472 0.001796 0.003793 0.004813 -0.003822 0.001016 -0.000480 0.003463 0.002952 0.002767 0.001218 0.000222 -0.000168 0.005389 -0.003835 -0.001863 -0.002748 0.001914 0.002946 -0.004735 -0.000307 -0.008357 0.003340 -0.002854 0.002717 0.003866 -0.003794 -0.009664 0.003437 0.001681 -0.002744 -0.001028 -0.001941 0.002094 -0.006481 0.002823 -0.001732 -0.001116 -0.000076 -0.000549 -0.004162 -0.000915 0.000275 0.004719 0.000578 0.003414 0.000210 0.003272
ipod -0.002200 0.004970 0.003521 0.000884 0.005454 0.003175 -0.000188 -0.000104 -0.005454 -0.001613 -0.000664 0.003694 -0.003360 0.002874 -0.002247 -0.000220 0.001545 -0.007690 -0.003933 -0.003474 0.000719 -0.008636 -0.002139 0.000040 -0.002655 -0.003730 0.001828 -0.002519 0.005725 -0.004810 -0.005843 0.005166 0.005371 -0.007336 -0.004434 -0.001085 -0.006318 -0.007323 -0.000582 0.001639 -0.004449 0.002362 0.003103 -0.000396 -0.005440 0.005822 0.008165 0.006323 -0.003394 0.003400 0.001189 0.005047 -0.003474 0.003627 0.002605 -0.001301 -0.001916 -0.003169 -0.005555 -0.001701 0.009730 -0.002984 0.001302 -0.000191 -0.004390 0.005866 -0.002034 -0.005118 0.001105 0.001545 0.004124 0.000073 -0.007768 -0.004625 0.003211 0.002131 -0.000048 0.001386 -0.004465 -0.001949 0.003164 0.001561 -0.008234 0.002364 0.002702 0.001275 -0.005756 0.001976 -0.003656 0.006898 -0.008435 -0.002716 -0.004930 -0.008676 -0.005323 0.002653 -0.006780 -0.000830 -0.003378 0.005799
high 0.002326 -0.001871 0.005651 0.001575 -0.003233 0.001666 -0.004549 0.005168 0.003769 0.005448 0.002621 0.003819 0.003098 -0.005273 -0.002129 0.005602 -0.001462 -0.000463 0.002981 0.000069 0.000509 -0.005156 0.003662 0.002832 0.000524 -0.000055 0.001625 -0.003485 0.004242 -0.006209 -0.002014 -0.001342 -0.001422 0.001203 -0.002984 0.004561 -0.001750 0.003637 0.002557 0.004261 -0.003751 -0.001767 -0.003725 0.001421 0.004753 0.003816 0.004353 0.005759 -0.002752 0.004496 -0.000403 -0.003604 0.001250 0.005272 -0.004756 -0.002275 -0.005958 0.003740 0.002106 0.002777 0.002120 0.001703 0.003972 -0.000173 -0.005652 -0.003929 -0.005296 -0.002229 -0.003025 0.004729 0.000009 0.002286 0.002743 0.002461 -0.003400 0.000630 0.001180 0.004997 -0.000361 -0.001298 0.003131 -0.001855 -0.004434 0.002706 -0.004999 0.004468 0.000995 -0.001612 -0.003181 0.002735 -0.006160 -0.005113 0.000009 -0.003405 -0.005141 -0.000018 -0.004944 -0.004684 0.000529 -0.002198
fm -0.005610 0.002936 -0.000440 -0.000708 0.004757 -0.001385 -0.000236 -0.004919 0.002282 -0.001610 0.002935 -0.004390 -0.000430 0.001765 0.005332 0.001374 -0.000931 -0.004796 -0.003301 0.006978 0.006920 0.000478 -0.004505 -0.001490 -0.006067 0.000331 -0.001342 -0.002417 0.002114 -0.003810 -0.002706 0.006101 0.002064 -0.005099 0.000085 0.003286 0.004626 0.009400 -0.000978 0.005111 -0.002326 -0.004699 0.003465 -0.003479 -0.005633 -0.001392 -0.004235 -0.000935 0.002798 -0.002459 -0.002812 -0.004208 0.004274 0.004694 -0.004909 -0.004183 -0.005208 0.004385 -0.000241 -0.001661 -0.008283 -0.001735 0.005198 0.000888 -0.003465 0.001930 0.007876 0.005632 -0.000960 -0.002233 -0.004570 0.002672 0.002134 0.006771 -0.000126 0.000921 -0.003255 -0.000064 -0.004826 0.001775 0.002540 0.000677 0.007004 -0.006595 0.004117 -0.003368 0.005616 -0.003859 -0.004986 -0.008461 0.002024 0.001559 -0.001289 -0.001639 0.001065 -0.005054 0.002129 0.003034 0.000692 0.007360
play 0.002425 -0.001865 -0.002728 0.004204 0.000557 0.006758 -0.001507 0.001107 -0.008570 -0.000475 -0.002548 0.000176 -0.006030 0.000132 0.005281 0.008849 -0.002335 -0.003909 -0.005111 -0.000152 -0.004167 -0.004670 0.005531 0.003410 -0.004481 -0.000442 0.001314 -0.001946 -0.001413 -0.007974 0.001325 -0.000846 0.000092 -0.003272 -0.009503 -0.005425 -0.000426 -0.004979 -0.001324 0.001522 0.001917 -0.000627 -0.004842 -0.001155 0.004973 0.003231 0.006663 0.011777 -0.001942 0.000838 -0.003040 0.000640 0.000850 0.001347 -0.002807 0.007978 -0.001013 -0.004253 -0.000418 0.002745 0.000693 -0.003397 -0.001599 -0.005651 -0.007069 0.002798 -0.005533 0.001229 -0.003575 -0.003355 -0.002566 -0.001170 -0.004506 -0.002612 -0.000964 -0.005578 -0.005189 -0.001578 -0.004053 -0.005461 0.000442 0.001501 -0.007884 0.002599 -0.001600 0.000232 -0.000819 -0.001388 -0.001947 -0.001690 -0.005191 0.001516 -0.007938 -0.002774 -0.004298 0.005310 0.000129 0.003428 0.001008 0.005596
tuner -0.002668 -0.006176 -0.004706 -0.003823 -0.003109 0.001513 0.009562 0.001875 0.008596 -0.009244 -0.001361 0.000679 0.009869 -0.009919 -0.005879 -0.004525 0.003521 0.005897 0.002634 0.000100 0.010092 0.012619 -0.007482 0.000183 0.005255 -0.002779 -0.003899 0.000976 -0.000259 0.006486 0.001578 -0.000380 -0.007040 0.008873 0.014031 0.004439 -0.000181 0.012417 0.003605 0.004517 -0.001411 -0.003592 -0.001868 -0.010798 -0.000851 -0.003668 -0.013351 -0.010214 0.004984 0.007333 -0.000345 0.001144 0.010417 0.002283 -0.003719 -0.001890 -0.003784 0.001536 -0.000823 -0.000747 -0.014558 -0.001080 0.006007 0.005117 0.000462 0.003718 0.014340 0.010747 -0.007109 0.003248 -0.010103 0.003399 0.006617 0.009127 -0.004911 -0.004411 -0.002702 -0.006610 -0.002150 0.014806 -0.002070 0.001196 0.013604 -0.005220 0.002508 0.006569 0.008233 0.000232 -0.000442 -0.011818 0.000212 0.000184 0.004044 0.012970 -0.004166 -0.010881 -0.001037 -0.003468 0.004580 -0.004382
low -0.001556 -0.003334 0.002601 -0.000391 0.005241 0.000457 0.003261 -0.000551 0.003838 -0.002427 0.003315 0.000676 0.002814 -0.003654 -0.003485 -0.004689 0.002135 0.001192 0.003082 0.002489 -0.004438 -0.004842 0.002207 0.005804 -0.004657 0.005042 -0.003230 -0.002231 0.003523 -0.004467 -0.003332 -0.003500 0.001081 -0.000136 -0.004152 -0.003909 0.000170 -0.003697 0.002551 -0.002990 0.000245 0.003870 0.002723 -0.003459 0.002147 0.000924 0.004027 0.000500 -0.005209 0.002828 -0.003232 -0.002879 -0.004346 0.001634 0.005235 0.001949 0.001703 0.002977 0.000013 -0.003589 0.001789 0.001270 0.004686 0.000020 -0.003414 0.003428 -0.000832 -0.003107 0.000666 0.002405 0.000659 -0.004502 -0.003729 -0.000707 -0.004306 -0.005037 -0.001862 0.002918 0.002882 -0.004221 -0.000923 0.003586 0.002220 0.001646 0.000650 -0.000360 0.001028 -0.002028 -0.001923 -0.002420 0.003050 0.001319 -0.005002 0.003407 0.002448 0.000988 -0.001771 0.002189 0.003306 -0.003495
digital -0.001473 -0.007352 0.002501 -0.002861 0.002457 -0.002524 0.001017 -0.003589 0.002258 -0.002460 -0.003275 0.004405 0.003368 -0.009007 0.000006 -0.011818 0.000611 -0.001244 0.000329 0.003843 0.002076 0.004776 -0.005343 -0.000403 0.006804 0.001764 -0.011241 0.009544 -0.002116 0.000173 0.000403 -0.005448 -0.000718 0.002037 0.008156 -0.001016 0.004271 0.010481 0.004848 0.006930 -0.004496 0.003539 -0.000292 -0.010066 0.000132 -0.000618 -0.015621 -0.014407 -0.003012 -0.001271 -0.001328 -0.001637 0.002268 -0.001628 -0.004878 -0.003779 -0.005085 0.000070 0.002235 -0.008440 -0.012066 -0.003170 0.008595 0.007638 0.002483 0.001388 0.005989 0.007671 -0.003389 0.004731 -0.003307 0.011021 0.001105 0.007287 -0.003785 -0.000801 -0.002447 -0.002891 -0.000572 0.005586 0.000501 0.002839 0.015807 -0.008475 -0.000986 0.004656 0.003948 -0.001130 0.004503 -0.008702 -0.001985 0.005351 0.005017 0.005433 -0.005039 -0.010411 0.008095 -0.001776 0.006554 0.002267
boombox 0.000971 0.004333 -0.003362 -0.003092 0.000991 0.002812 0.001724 -0.001639 -0.006384 -0.000192 -0.002735 -0.005616 0.000521 0.005476 -0.000749 -0.001540 0.000973 0.001763 0.002767 0.002088 -0.000983 0.000631 -0.002829 -0.002623 0.001293 0.003509 -0.002210 -0.002358 -0.004387 -0.002588 -0.004129 0.002846 0.001980 -0.005946 -0.005559 0.003932 -0.001192 -0.000360 0.003860 0.001578 -0.001808 -0.004893 0.000049 -0.002941 -0.004555 0.004120 0.001218 0.003844 0.002216 0.003799 0.000231 -0.000706 -0.004484 -0.004174 -0.002243 0.002598 0.001291 -0.003593 -0.004722 -0.001512 0.001794 0.003235 -0.000494 -0.002782 0.000261 -0.002207 -0.000367 0.002766 0.001993 0.000197 -0.001815 0.002653 0.003805 0.000668 0.001121 -0.003867 -0.002841 -0.000600 -0.003199 -0.002789 0.000924 -0.001869 -0.004254 -0.004006 -0.002577 -0.000031 -0.000444 0.005676 0.003667 -0.000224 0.003908 -0.002371 -0.001501 -0.001442 0.002909 0.004766 -0.003868 -0.001370 -0.004113 0.001443
design 0.004223 0.004362 0.001377 0.004913 -0.002632 0.001131 -0.003623 0.003751 -0.000771 0.004712 -0.004395 -0.000899 -0.002956 0.003807 -0.004341 0.001200 -0.004424 -0.004142 0.002326 -0.003271 -0.000905 -0.003799 -0.001281 -0.001039 -0.006351 -0.005765 0.006761 -0.005533 -0.002360 -0.001340 -0.007505 0.005351 -0.001084 -0.009323 -0.006970 0.001685 0.002133 -0.005147 -0.002755 -0.003546 0.002257 0.001738 -0.003306 -0.000269 0.002804 0.002861 0.008326 0.004801 0.001174 -0.005418 -0.003083 0.002036 -0.001468 0.004468 -0.002098 0.003205 0.001631 -0.001535 0.001097 -0.002497 0.008529 -0.001196 -0.003304 -0.006812 -0.000831 0.004046 -0.005275 -0.007323 -0.002397 -0.004353 0.000559 -0.001845 -0.006602 -0.009763 0.006439 -0.002373 -0.002098 0.002331 -0.000157 -0.010929 -0.004377 0.006644 -0.008051 0.003021 0.000585 -0.001162 -0.006298 0.004840 0.001264 0.001687 -0.003038 -0.000630 -0.006582 -0.004051 -0.002610 0.002130 0.000637 -0.005919 -0.003253 0.005720
seconds 0.001091 -0.000483 0.002056 -0.005887 0.000307 0.000337 -0.002344 -0.000243 0.004154 -0.000982 0.004034 0.003492 0.002628 -0.004393 0.002555 0.004137 -0.003532 0.004206 -0.004472 0.000656 0.003965 -0.005080 0.004686 -0.003208 -0.000950 0.003666 -0.002894 0.002083 0.001582 -0.002813 0.002290 0.000064 -0.001769 0.002544 0.000123 0.000797 0.001375 0.003200 0.001895 0.000616 0.002219 0.003018 0.001867 0.001000 -0.003532 -0.003803 -0.001186 -0.000404 -0.003521 -0.003705 -0.002277 0.002069 0.002414 0.001713 0.005408 0.004127 0.002502 0.001124 -0.000979 0.001502 -0.000908 0.002248 0.002210 -0.001649 -0.004721 0.002303 -0.001597 0.003626 0.000703 0.003148 0.003001 -0.003589 0.002187 0.000759 0.003863 -0.002317 -0.003708 -0.004077 0.001264 0.000135 -0.002523 -0.001107 -0.002948 0.003803 -0.003215 -0.003553 0.002153 -0.004079 0.005061 0.005432 0.000277 -0.004497 -0.005162 0.003218 0.001243 0.002839 -0.001709 -0.005118 0.004048 0.000298
long -0.000129 -0.000936 0.001167 0.002037 0.004002 0.006699 -0.004339 0.003539 -0.003987 0.007970 -0.003477 -0.004018 -0.000918 0.006781 -0.000625 0.007971 -0.002754 -0.003900 -0.002078 0.000668 -0.006920 -0.003706 0.000189 -0.000722 -0.000395 0.000825 0.003347 -0.000322 -0.001253 -0.010331 -0.007026 0.009733 -0.001602 -0.011146 -0.008497 -0.005853 -0.001709 -0.003688 -0.003761 -0.002440 0.003026 -0.006650 -0.003239 0.003824 0.002332 0.009070 0.007334 0.016742 0.002674 -0.002705 -0.003632 0.007278 -0.001842 -0.002260 -0.002059 0.000704 -0.001616 -0.001991 -0.006674 0.002711 0.007787 -0.000984 -0.006889 -0.003620 -0.001748 0.004906 -0.009353 -0.007153 0.004879 -0.000566 0.000961 -0.006643 0.000224 -0.007179 0.000677 0.003238 -0.008238 -0.001365 -0.002281 -0.014335 0.000853 0.000081 -0.009953 0.000501 -0.006880 -0.000660 -0.006482 0.004415 -0.001860 0.008687 -0.001162 0.001625 -0.012735 -0.009520 0.001148 0.006947 -0.001262 -0.003765 -0.000700 0.002295
home -0.002535 0.007025 0.002739 0.001241 -0.001807 0.007433 -0.002026 -0.000772 -0.013214 0.009802 -0.006001 -0.005368 -0.010590 0.006678 -0.002600 0.004378 0.003303 -0.007811 0.002182 -0.002840 -0.002272 -0.015668 -0.000551 -0.000989 -0.003046 -0.003000 0.009057 -0.006909 -0.001841 -0.015475 -0.007780 0.011744 -0.003639 -0.014678 -0.012743 -0.006049 -0.001873 -0.007723 -0.001728 -0.005362 0.000505 0.000970 0.002132 0.000621 -0.000143 0.009493 0.013271 0.013623 0.002856 -0.006234 -0.003013 0.006211 -0.001547 -0.004722 -0.001086 0.004304 -0.001523 -0.003020 -0.001129 0.003439 0.012820 0.003712 -0.010567 -0.004957 -0.003993 0.000638 -0.011640 -0.004571 0.006172 0.000629 0.004204 -0.009162 -0.001561 -0.009826 -0.001547 -0.004474 -0.002265 0.003418 -0.008968 -0.014747 0.000748 0.003395 -0.016366 0.001234 -0.003031 -0.005347 -0.005983 -0.000972 -0.009099 0.008562 -0.003942 -0.003170 -0.012976 -0.008422 -0.008594 0.014451 -0.002044 -0.007100 -0.005965 0.009657
option 0.001702 0.002102 0.001049 -0.000211 0.001774 0.004121 -0.005698 -0.000031 -0.000306 0.003152 -0.001717 -0.004877 -0.002146 0.006992 -0.004516 0.004864 0.003965 0.000619 0.003761 0.003058 0.000850 -0.005461 -0.001149 -0.003815 -0.000599 -0.000843 0.001050 -0.002625 0.003606 -0.009006 -0.002859 -0.000295 0.003624 -0.006551 -0.005268 -0.003684 -0.000426 -0.003765 0.001761 0.000566 -0.000486 0.001181 -0.001254 -0.000849 -0.000264 -0.002818 0.007593 0.004423 -0.005120 -0.003590 -0.005677 -0.001387 -0.002081 0.001909 0.000765 0.003689 0.000606 -0.004976 -0.003849 -0.002886 0.008614 -0.002049 -0.000439 -0.000889 -0.005258 0.005105 -0.008061 -0.005551 0.003539 0.000637 0.001259 -0.000000 -0.000289 -0.007203 0.002052 -0.005116 -0.000232 0.003403 -0.000077 -0.005538 -0.002433 -0.002322 -0.001231 0.004534 -0.002449 -0.002324 -0.001156 -0.003267 -0.005692 0.005683 -0.001925 -0.001007 -0.007958 -0.006048 -0.001268 0.007897 -0.006101 0.000260 -0.002659 0.005085
cost 0.000066 0.003489 -0.005094 0.001190 0.000853 0.002562 0.001974 0.001585 0.000906 0.002388 0.003262 -0.003059 -0.002227 -0.005124 -0.004467 -0.004534 -0.001013 0.002653 -0.001528 0.000804 0.003687 0.006056 0.001584 0.003565 -0.000607 0.003749 0.002355 -0.004168 -0.001797 0.000843 0.002260 -0.001563 -0.002641 0.007465 -0.000383 0.002682 0.004329 0.005250 0.004707 0.003105 0.002053 0.000900 0.000361 -0.000769 -0.004695 0.001026 -0.004691 -0.005509 0.003407 0.001860 0.005064 -0.004920 0.000015 0.000430 -0.001680 -0.003319 0.000367 -0.003045 -0.003850 0.002753 -0.006958 0.002024 0.000973 0.006788 0.004142 -0.001780 0.001297 -0.002248 -0.001789 -0.003629 -0.002255 0.001636 0.005085 -0.001523 0.002356 0.004515 -0.001683 -0.003173 0.004605 -0.001865 -0.000153 -0.006075 0.007541 -0.004880 -0.002749 -0.001800 0.006092 -0.001030 -0.003264 -0.003929 0.001254 -0.000027 -0.001099 -0.001921 0.004819 -0.004932 -0.003186 -0.000582 -0.000587 -0.002294
walkman 0.002072 0.005278 -0.003271 0.005388 0.004015 -0.002302 0.001200 0.000980 -0.001378 0.002385 0.002465 -0.001934 -0.006361 0.005729 0.002074 0.005331 0.003608 -0.001671 -0.000628 -0.001481 -0.002275 -0.002148 -0.001611 0.003216 0.000243 -0.002339 0.002897 -0.001440 -0.003288 -0.007189 -0.006763 0.002245 0.003829 -0.000629 -0.002411 -0.001472 0.001302 0.002758 -0.000979 -0.004517 -0.000150 -0.004056 0.003226 0.000204 0.002522 0.004965 0.000630 0.003685 -0.004074 0.003390 0.002452 0.006400 -0.003818 -0.001896 0.000938 0.005077 0.000817 -0.005261 -0.000818 0.002993 0.004337 -0.001882 0.000034 -0.006318 0.003607 -0.003601 -0.000929 -0.005368 0.000494 -0.003454 -0.001212 -0.006644 0.001449 -0.005972 -0.000359 0.001341 0.003933 0.000656 -0.003304 -0.009180 -0.003546 0.000288 -0.001908 0.002803 0.001231 0.000034 -0.005747 -0.003734 -0.002658 -0.002831 -0.005159 -0.005959 -0.000855 -0.005061 -0.005841 -0.001590 -0.006522 -0.005067 -0.001762 -0.001354
decent -0.002923 0.001081 0.003946 0.001384 -0.001650 -0.000646 -0.004519 -0.004939 0.001237 0.003903 -0.000160 0.002225 0.005234 0.002598 -0.001328 -0.000520 -0.003525 -0.004991 0.000767 0.005418 0.002598 0.002635 -0.001607 -0.004055 -0.002640 -0.004812 -0.004846 0.001632 0.003106 -0.004305 -0.004348 0.003590 -0.003410 0.002535 0.004773 -0.001302 -0.000922 -0.000112 0.002100 0.000707 -0.000233 -0.000110 -0.004697 -0.006223 -0.000246 -0.003925 -0.001886 -0.004068 -0.002649 -0.001864 -0.002821 -0.001838 -0.003074 0.004725 -0.002634 0.000656 -0.001086 -0.000001 -0.004112 0.003785 -0.004234 0.003418 0.002921 -0.003563 -0.003637 0.004361 0.002811 0.005985 -0.003347 -0.000982 0.003256 -0.002359 -0.002062 0.006123 -0.004278 -0.005283 -0.001998 0.003294 0.003618 0.004836 -0.001111 -0.000819 0.004484 0.001350 -0.001186 -0.001114 0.002625 0.003381 -0.001166 -0.002808 -0.003295 -0.001915 0.002601 0.006721 -0.004191 -0.004562 0.002916 -0.001619 -0.001916 0.001668
ear 0.000248 0.000806 -0.001360 -0.003922 -0.003783 0.003872 -0.004220 0.001235 0.000331 0.001396 -0.003361 -0.004304 -0.004656 0.002534 -0.003839 0.009311 0.006223 -0.005148 -0.004205 0.003869 -0.002360 -0.006612 0.005711 -0.004851 -0.005659 0.000784 0.004270 -0.003341 -0.003285 -0.003130 0.000540 -0.000516 -0.002184 -0.003728 -0.001148 0.001360 -0.005383 -0.001553 -0.003265 -0.000877 -0.003514 -0.003710 -0.001024 0.003284 0.001249 0.006109 0.002223 0.014397 0.003744 0.001417 0.002601 0.004634 -0.003216 0.001573 0.001795 0.002183 -0.004315 -0.000218 -0.004769 -0.001951 0.008962 -0.002432 -0.001588 -0.004767 -0.001536 0.002363 -0.002224 -0.002907 0.005492 0.002479 0.000852 -0.000303 -0.003740 -0.007180 -0.002306 0.004485 -0.001468 -0.001799 -0.004286 -0.007677 -0.002506 -0.000684 -0.010515 0.004234 0.003617 -0.001086 -0.003727 -0.002145 0.002330 0.004266 0.000908 -0.006628 -0.007372 -0.005465 0.002538 0.009771 -0.007999 -0.006125 0.003416 -0.002348
poor 0.000053 -0.001178 0.002850 0.003933 -0.001611 0.007629 -0.002270 0.005435 -0.003321 -0.001265 -0.000731 0.003273 -0.007361 0.004121 -0.001369 0.002508 -0.002176 -0.006683 0.003575 0.002301 -0.000468 -0.010386 0.004169 0.001250 -0.003783 0.000613 -0.000427 -0.004826 0.002557 -0.001612 -0.008127 0.007431 0.004351 -0.007798 -0.001214 -0.000102 -0.003945 -0.001005 0.001166 -0.002614 -0.002245 -0.004273 -0.000624 0.003584 -0.003212 0.002235 0.005484 0.006822 0.000500 -0.000772 -0.002867 0.000326 -0.001729 0.001585 0.005017 0.004583 -0.004914 -0.003133 -0.005507 0.001026 0.008698 0.002197 -0.003743 -0.004124 0.000333 -0.001587 -0.004571 -0.006499 -0.002989 0.004674 -0.001193 -0.001184 0.001738 -0.000453 0.002227 0.000390 -0.004807 -0.002445 -0.005162 -0.003515 0.001821 0.001045 -0.003361 -0.000046 -0.003274 0.001172 -0.004204 -0.002177 -0.005177 0.003208 -0.000082 -0.002571 -0.009376 -0.001454 0.000928 0.006240 -0.007714 0.003135 -0.005477 0.004497
picture -0.003015 -0.003381 0.005731 -0.004136 -0.002894 0.001407 -0.002690 0.001726 0.000820 0.003694 -0.001685 0.000775 -0.003237 0.001738 0.004346 -0.001640 -0.002157 -0.001464 -0.003538 0.000485 -0.007140 -0.006014 -0.003346 0.004369 -0.001118 0.003564 0.002312 -0.001980 -0.003790 -0.005276 -0.003006 0.001307 0.004441 -0.008036 -0.007575 0.003488 0.002313 0.000756 -0.005029 0.000822 -0.000095 -0.001333 0.002896 -0.000409 -0.000754 0.003488 0.007653 0.009516 -0.001825 -0.002955 -0.004385 -0.000892 -0.000730 -0.004849 -0.002266 0.004056 0.003296 -0.004802 0.002412 0.004052 0.008357 0.004003 -0.007953 -0.007616 -0.008072 0.000796 -0.003623 -0.007928 0.003636 0.003953 -0.001980 -0.000171 0.001496 0.000766 0.002928 0.004795 0.002149 0.000473 -0.000743 -0.002072 0.001346 0.004520 -0.002035 -0.001416 0.003206 0.002956 -0.004909 -0.000797 -0.002184 0.004203 0.001481 -0.003348 -0.000244 -0.003183 -0.005747 0.001563 -0.000980 -0.000837 0.004801 -0.000621
book -0.003388 0.000458 0.002071 0.002253 -0.003225 -0.002063 -0.006232 -0.002582 -0.006265 -0.000425 -0.004157 -0.000576 -0.004039 0.000253 0.004555 0.003001 -0.001495 0.001248 0.001152 -0.004147 -0.003333 -0.006318 0.003208 0.004390 -0.004361 -0.005228 0.003398 -0.000669 0.000734 -0.001815 -0.001479 0.007534 -0.001255 -0.006550 -0.008108 -0.000462 -0.004907 -0.002079 0.003044 0.002267 -0.003973 0.000263 -0.000227 0.004041 -0.002188 0.004978 0.007338 0.008699 -0.000245 0.002034 0.002602 0.001804 -0.004684 0.004181 -0.000237 -0.002345 0.002786 -0.002634 0.000066 0.001513 0.004117 0.003826 0.001439 -0.004219 -0.003597 0.001778 -0.003524 0.000954 0.003681 0.003041 0.003532 -0.005945 -0.004813 -0.003766 0.006269 -0.003241 0.002009 -0.001674 0.000111 -0.008191 -0.003185 0.005778 -0.010549 0.002517 0.001388 -0.001724 -0.004608 0.003598 -0.005134 -0.002328 -0.005967 -0.002155 -0.003798 -0.004448 -0.003798 0.003486 -0.002582 -0.003828 -0.004230 0.006846
couple 0.002310 -0.001232 -0.002250 0.003946 -0.002074 0.005971 -0.005815 -0.000752 -0.002174 -0.003386 -0.002873 -0.001867 -0.003250 0.005786 -0.000882 -0.001517 -0.003023 -0.004580 0.003532 -0.000477 0.003097 -0.007726 -0.003818 0.000145 -0.001069 -0.005054 0.003977 -0.005411 0.004147 -0.005636 -0.005001 0.006955 0.004764 -0.008808 -0.001292 -0.002949 0.001714 -0.004478 0.004562 0.000015 0.003777 -0.000527 -0.003308 -0.001679 0.003558 -0.002185 0.002308 0.006811 0.001408 -0.000250 -0.001940 0.005396 -0.003179 0.000195 -0.000204 0.005288 -0.002144 -0.002410 0.000850 0.000705 0.000121 0.003312 0.000980 0.002289 0.002577 -0.003893 -0.003695 0.000968 0.000445 0.000937 0.003114 0.001859 0.000375 -0.003429 0.002783 -0.002733 -0.005162 0.001091 -0.003174 -0.007314 -0.001101 -0.001316 -0.008911 0.002233 -0.003650 -0.005221 0.000736 -0.002217 0.000818 -0.002414 -0.004692 -0.005688 -0.003412 -0.004081 0.001512 -0.001447 -0.005684 0.003013 0.001979 0.004974
cool -0.000344 0.002706 0.002212 -0.003928 0.005220 0.001419 -0.003468 0.004258 -0.003094 0.001414 0.000654 -0.004478 -0.002738 0.004778 0.001161 0.005541 0.002154 0.000988 0.003537 -0.004043 -0.004090 -0.008289 -0.001702 0.002103 -0.007183 -0.003854 0.006752 -0.002443 -0.001918 -0.003147 0.000785 -0.001409 0.001680 -0.003855 -0.000273 -0.003010 0.000249 -0.006181 -0.004773 -0.000752 -0.005883 -0.005797 -0.004840 -0.000895 0.003188 0.007401 0.003447 0.009697 0.002426 0.003105 -0.002864 -0.001302 0.000518 -0.000524 -0.000094 -0.002332 -0.005784 -0.003691 -0.003124 0.001397 0.008653 -0.000733 -0.005259 0.000937 -0.003811 0.005090 -0.001219 -0.001850 0.003737 -0.004282 0.002107 -0.005909 -0.002031 -0.007963 0.005060 -0.001059 -0.002595 0.002868 -0.006584 -0.005686 0.002802 0.003601 -0.008303 0.003154 0.002918 0.002788 0.000430 -0.001183 -0.003467 0.002947 -0.003444 -0.001502 -0.002554 -0.008730 0.003602 0.006436 0.001703 0.001941 -0.002181 0.007515
order 0.005576 0.002074 0.005987 0.004351 0.005343 0.008421 -0.003101 0.001095 -0.008049 0.001501 0.003541 0.001958 -0.006905 0.004744 -0.001486 0.007643 0.002217 0.001786 0.000170 -0.004980 -0.003166 -0.010152 0.003160 -0.003960 -0.006103 -0.002836 0.002235 -0.004464 0.003524 -0.002566 -0.002542 0.003299 -0.002944 -0.006053 -0.010586 -0.001395 -0.007228 -0.000812 -0.000370 -0.005145 -0.000778 -0.005809 -0.002288 -0.001437 0.001586 0.000298 0.009772 0.014520 -0.004435 0.001203 -0.005882 0.009245 -0.000007 -0.005834 0.002535 0.001088 -0.006472 -0.003074 -0.002151 0.008111 0.005200 -0.003356 -0.005130 -0.003090 -0.008065 0.000298 -0.008082 -0.000668 -0.001418 -0.000706 0.004131 -0.008434 -0.002356 -0.004308 -0.003299 -0.002372 -0.002259 0.002295 -0.002525 -0.004877 0.002096 0.001042 -0.008821 0.005655 0.000358 0.003407 -0.002582 0.003324 -0.007479 0.004798 -0.001396 0.000314 -0.007038 -0.003079 -0.001361 0.003745 -0.001136 -0.002109 -0.004212 0.006740
christmas 0.003895 -0.000696 -0.002895 -0.001147 0.000530 0.005250 -0.002896 -0.003795 -0.003368 -0.002298 -0.001550 0.002626 0.004900 -0.001320 0.002980 -0.004277 0.003204 0.004463 0.001366 -0.004393 0.000501 0.002721 0.001828 0.000462 0.004479 -0.001619 0.004249 0.001063 0.002038 -0.000641 -0.004523 -0.001829 0.001640 -0.004363 -0.000100 0.001772 -0.003088 -0.003341 -0.001533 -0.004087 -0.003510 0.004723 0.003827 -0.004557 -0.001582 0.001730 0.000079 0.005254 -0.005982 0.002468 -0.000747 -0.002063 0.003461 -0.005258 0.002685 0.004389 0.003610 -0.003694 -0.004007 0.005184 -0.002657 0.005224 0.002402 0.002970 0.000456 -0.002227 -0.000635 0.004516 0.001289 -0.001236 0.002516 0.002089 -0.004496 0.001932 0.002565 -0.001543 -0.005714 0.000574 -0.001700 -0.003807 0.000959 -0.000886 0.002703 0.004426 -0.000645 -0.004095 0.004709 -0.004214 -0.002697 -0.002427 -0.004070 -0.001522 0.000933 -0.000363 0.004137 -0.002703 -0.000880 -0.000485 0.000443 0.006157
usb 0.001482 0.001673 0.002717 0.005710 -0.001963 0.004405 -0.002316 -0.004358 -0.005969 0.003302 0.004612 -0.001038 -0.005490 -0.002848 0.000324 0.003836 0.001584 -0.005289 0.002847 -0.001588 0.002499 0.001472 0.004968 0.000411 -0.004288 0.003126 0.000739 0.001084 0.003774 -0.003427 -0.005286 0.001447 0.000340 -0.008036 -0.001822 0.002861 0.002690 0.004818 0.001056 -0.004046 -0.004164 0.001846 0.002625 -0.001497 0.004868 0.005748 0.005273 0.007999 -0.005496 0.000607 -0.003686 -0.000636 0.001872 0.005015 -0.000888 0.006120 0.002577 -0.003448 -0.006219 0.000499 0.005971 0.001289 -0.004156 0.002419 -0.003763 0.005904 -0.002570 -0.006544 0.002108 0.003145 0.001257 0.002984 0.003450 -0.001675 0.003188 -0.003954 -0.006592 0.003433 -0.003940 -0.008602 0.000555 0.006140 -0.002396 0.004243 0.001316 0.000705 0.002988 -0.003607 -0.000321 0.004271 -0.002240 -0.002138 -0.005501 -0.004737 -0.002008 0.005027 -0.007325 -0.002620 -0.003037 0.005321
service 0.003616 0.002122 -0.002983 -0.000086 0.000879 0.000208 -0.004266 -0.003444 0.000347 -0.001570 -0.001130 0.003527 0.001195 0.008233 0.004687 0.008203 0.005318 -0.001670 -0.005293 -0.005154 -0.004733 -0.007047 0.004666 -0.004525 -0.002799 -0.000860 0.003427 -0.000021 -0.004585 -0.002518 -0.001989 0.001371 0.003499 -0.001659 -0.008513 -0.006472 0.002023 -0.006672 -0.002254 0.000137 -0.005383 0.001347 -0.002735 0.002356 0.003370 0.005239 0.006855 0.010491 -0.005486 0.001872 -0.006248 0.009696 -0.006266 -0.005343 0.001462 0.001468 -0.005157 -0.001893 -0.001995 0.005051 0.001923 -0.005513 0.000605 -0.003752 -0.002917 0.001906 -0.009604 -0.000739 -0.001120 -0.001699 0.006982 -0.007582 -0.004494 -0.001502 -0.002162 0.000861 -0.005447 0.004070 -0.002820 -0.004495 -0.005984 -0.000631 -0.003327 0.006344 0.001021 0.005048 -0.002903 0.003064 -0.004344 0.002353 -0.003822 -0.002447 -0.010975 -0.010578 -0.001185 0.007766 -0.004335 0.003632 0.000153 0.005314
plastic 0.000490 -0.002770 -0.001423 0.004670 0.003973 0.001649 0.002357 -0.000778 -0.000474 -0.002458 0.000045 -0.000049 -0.005543 -0.000412 0.002932 0.006594 -0.003047 -0.001595 0.002141 0.002200 0.005356 -0.003025 -0.002217 -0.003067 0.000519 -0.003959 -0.000108 -0.003445 -0.002443 0.001561 0.000116 -0.004007 0.004912 0.000201 0.002428 0.004671 -0.005430 0.003131 0.002051 0.002370 -0.001169 0.002336 -0.001648 0.004336 -0.000510 0.000439 0.001006 0.001842 -0.002550 0.000671 -0.003473 -0.000971 -0.004472 0.001436 -0.003037 0.000710 0.002718 -0.004178 0.004339 -0.004476 0.006181 -0.001445 0.003149 0.002180 -0.004679 0.001097 -0.002826 0.000934 0.002307 -0.001300 0.001946 -0.003843 -0.003404 -0.006440 -0.000803 0.001934 -0.000720 -0.001469 -0.003785 0.002524 -0.002564 0.000535 -0.005916 0.004294 -0.002572 0.003712 -0.002743 0.004936 -0.001515 -0.003654 0.001683 0.003303 -0.005144 0.000716 0.001854 0.001098 -0.005913 -0.001080 -0.001175 0.004425
kind 0.005146 0.000051 0.003442 -0.001282 -0.000650 -0.002036 0.003973 0.005289 0.002865 -0.001247 -0.002501 0.002796 -0.004275 -0.002243 -0.004018 0.001065 -0.005226 -0.000806 0.004463 0.003058 -0.004592 0.002456 -0.002175 0.000128 -0.002971 -0.000140 -0.001304 -0.004244 -0.001331 0.002787 0.003542 0.003303 -0.003134 0.001822 0.002372 -0.004084 -0.002563 -0.003907 0.000133 -0.002156 0.002976 -0.001434 -0.000088 -0.002161 -0.003248 0.001510 -0.001792 0.001600 0.003954 -0.005307 0.004719 0.002231 0.000495 0.001482 0.004763 0.003849 -0.005269 0.003982 0.003216 0.004502 -0.000225 0.003151 -0.002817 -0.002091 -0.003762 -0.000756 0.002536 -0.000462 -0.003930 -0.002628 0.003795 -0.003539 0.000256 -0.003932 -0.002287 0.004243 0.004308 -0.003593 -0.001578 -0.002550 -0.000945 0.002205 -0.005220 -0.002724 -0.000282 -0.003146 -0.004066 -0.001147 -0.001330 -0.002424 0.003569 0.002720 -0.002339 -0.003970 0.002724 -0.003073 -0.002006 -0.001871 -0.002639 -0.003011
fact -0.003036 0.000291 -0.003520 -0.000547 -0.002960 0.002909 -0.006569 0.001419 0.000046 0.003213 0.003387 -0.000811 -0.001437 0.003592 0.003589 0.005767 0.002553 0.001609 0.000172 -0.000120 -0.006487 -0.007397 -0.000941 0.003619 0.000225 -0.001530 0.007582 -0.000715 0.005251 0.000361 -0.001135 0.001022 0.005069 0.000376 0.000467 0.002002 -0.002490 -0.001150 0.000006 -0.002104 -0.004909 0.001909 -0.001574 0.005268 0.000541 0.003047 0.003136 0.003206 0.003747 -0.003383 -0.002400 0.001317 -0.000329 0.000591 0.004052 -0.001244 0.000374 0.001163 -0.003873 -0.000561 0.006868 0.003825 -0.001087 -0.000210 0.000295 0.003142 -0.000301 -0.003666 -0.003519 -0.003063 0.004276 -0.006049 -0.005108 -0.006823 0.003437 -0.001204 0.002923 0.003465 0.000531 -0.009030 -0.003071 -0.003339 -0.004732 0.003330 -0.002322 -0.002191 0.002591 0.004703 -0.004580 0.005064 -0.005287 0.002140 -0.003960 -0.003587 -0.000300 0.007881 -0.003794 -0.002375 -0.001965 -0.002224
screen 0.003800 0.003578 -0.001094 0.000218 0.004244 -0.000641 -0.004027 0.004868 -0.005032 0.000673 0.004397 -0.006196 -0.001515 0.001926 0.005978 -0.000001 0.002877 0.002609 0.001999 -0.001163 0.001103 -0.003597 -0.002071 -0.002047 -0.001324 0.002807 0.009818 -0.000505 0.002934 -0.010194 0.000231 0.005270 -0.001609 -0.009961 -0.002736 0.001127 0.001110 -0.007408 0.003892 -0.008671 -0.004951 -0.003778 0.000555 -0.003144 -0.002837 0.000533 0.004557 0.014674 0.003742 -0.000807 0.003813 0.007862 -0.003713 0.001459 0.000606 0.002253 -0.000647 0.002469 0.002137 0.001706 0.010419 0.001275 -0.003644 0.001635 -0.006503 0.004893 -0.002446 -0.007911 -0.001719 -0.005249 0.004851 -0.002495 -0.000054 -0.004336 -0.001038 0.004092 -0.001644 0.005965 0.000242 -0.011295 0.002433 0.001521 -0.012900 -0.002915 -0.002860 -0.001678 -0.005596 -0.001897 0.000494 0.006190 0.000267 0.001016 -0.004738 -0.009731 0.003804 0.003066 -0.000340 -0.003265 -0.002302 0.002757
protection -0.002322 -0.004331 0.001895 0.000878 -0.001715 0.003123 -0.002206 0.002147 0.001348 0.000780 -0.000051 -0.004010 -0.006490 -0.001042 -0.002717 0.006512 0.000099 -0.003353 -0.003036 0.002639 0.000301 -0.007893 0.002431 -0.004052 -0.005502 0.001195 0.001241 -0.002836 0.004871 -0.000716 -0.002257 -0.000058 0.002661 -0.006051 0.001703 -0.002494 -0.000866 0.000076 -0.005043 -0.002881 -0.003453 -0.001062 -0.003646 -0.000599 -0.001792 0.003545 0.007234 0.003121 0.004265 -0.004187 -0.000310 0.005711 0.000249 -0.003418 -0.000976 0.000337 -0.001781 -0.003833 -0.003214 0.000056 0.006209 0.003747 -0.001480 -0.006534 -0.003661 0.002167 -0.000411 0.001135 -0.001681 -0.002784 -0.002111 -0.002139 -0.004694 -0.004129 0.001931 -0.003883 -0.005069 -0.002146 -0.003306 -0.006959 -0.001177 -0.002609 -0.001683 0.000666 -0.002532 -0.004811 -0.002328 0.001301 -0.004016 -0.001059 -0.004552 -0.002320 -0.005633 -0.005833 0.003436 0.004137 0.000918 -0.003011 -0.000819 -0.002541
support 0.005209 -0.002815 0.001390 -0.001794 -0.000662 0.003371 -0.007464 0.005629 -0.004225 -0.001392 -0.002137 -0.000413 -0.004617 0.000201 0.005749 0.005501 0.002053 -0.004816 -0.003069 0.002134 -0.001710 -0.011001 0.001673 0.001296 -0.007603 -0.004811 0.004603 -0.004489 0.002180 -0.007246 -0.005281 0.000209 0.002423 -0.006174 -0.011091 -0.005315 -0.000743 -0.006486 -0.001069 0.001214 -0.002645 -0.003709 -0.002849 0.001387 0.001778 0.008908 0.011374 0.007001 0.002629 -0.005562 -0.000764 0.001687 -0.003361 -0.003897 0.006299 0.005703 -0.005391 -0.001112 0.001265 0.002405 0.008169 0.004432 -0.004971 -0.004427 -0.003725 0.001483 -0.009699 -0.000339 -0.003496 0.000981 -0.002466 -0.002582 0.001183 -0.005704 0.000685 0.002467 -0.007139 0.004072 -0.007409 -0.011489 -0.002055 0.006691 -0.010119 -0.001627 -0.004071 0.003580 0.000720 0.004965 -0.002849 0.007637 -0.003583 -0.002896 -0.006366 -0.003239 -0.002786 0.011706 0.001420 0.001145 -0.003995 0.003702
customer 0.002209 0.004695 -0.002961 0.002229 0.001155 -0.000259 -0.003730 0.005723 -0.010561 0.007754 -0.004496 -0.001841 -0.005022 0.008633 -0.000688 0.006370 -0.003822 -0.004591 -0.000198 -0.000983 -0.001419 -0.011579 -0.003239 -0.003487 -0.008714 -0.000102 0.009960 -0.009349 0.002791 -0.010012 -0.007829 0.003831 -0.002850 -0.010089 -0.004256 -0.004619 -0.005199 -0.002231 -0.003999 -0.006602 -0.002444 0.000865 -0.001706 0.004571 -0.004857 0.004246 0.008355 0.015070 -0.003897 -0.003884 -0.006533 0.006403 0.000467 0.001945 0.000194 0.002030 -0.003323 -0.001846 0.001076 0.006296 0.006083 0.003851 -0.002208 -0.006180 -0.006390 -0.001058 -0.004806 -0.002801 -0.000775 -0.003639 0.006520 -0.010842 -0.008179 -0.004456 0.002383 0.003125 -0.003441 -0.004549 -0.008919 -0.011605 -0.000405 0.001001 -0.011622 -0.001348 -0.004643 -0.002300 -0.003205 -0.000428 0.001116 0.010343 -0.009127 -0.004258 -0.007599 -0.013535 -0.002904 0.005821 -0.009651 -0.001001 -0.001826 0.009598
kitchen -0.005137 -0.003510 0.003778 0.002848 0.002143 0.000716 -0.002197 0.001000 0.001653 0.000382 -0.004691 0.003551 0.001011 0.003975 0.003342 0.002791 0.000695 -0.003027 0.000136 0.004102 0.004113 -0.000996 -0.004658 -0.005166 -0.001041 0.001779 -0.004305 0.000371 0.000367 -0.001778 0.004393 0.002882 0.000069 -0.004304 0.002448 0.000256 -0.001132 0.000240 -0.003778 0.000567 -0.004784 0.002770 0.003642 0.002531 0.005169 -0.003064 0.001876 -0.000683 -0.000697 -0.001267 -0.001616 -0.004285 -0.001447 -0.001843 -0.002386 0.005031 -0.004870 0.003425 0.001701 -0.000258 0.001218 -0.002649 -0.003383 -0.003082 0.001044 0.003978 0.004700 -0.003177 -0.000343 -0.003466 -0.002397 -0.003746 -0.004281 0.003757 -0.001609 0.003337 -0.002748 0.005230 0.003071 0.000905 0.004611 0.005135 -0.004992 0.002408 -0.001439 -0.002479 -0.000638 -0.001141 -0.005651 -0.005621 -0.000767 0.001872 0.000049 -0.004617 -0.005277 -0.004650 -0.004101 -0.004201 -0.002589 0.000371
simple 0.000674 -0.001894 -0.000193 0.000115 0.001854 -0.002194 0.000742 0.006276 0.001566 -0.001481 0.000918 0.000970 -0.003673 0.001090 0.000766 -0.001733 -0.001681 -0.006366 0.002548 -0.005485 0.002396 -0.006898 0.005238 -0.002426 -0.005665 -0.004938 0.001514 -0.004362 0.005661 -0.008763 -0.002931 0.001443 0.000869 -0.003765 -0.005415 0.000639 -0.003196 -0.000497 0.002951 -0.004181 -0.002439 0.003893 -0.004620 -0.001433 -0.000858 0.001675 0.002251 0.007976 0.001487 0.001109 0.000165 0.008069 -0.001715 0.002121 0.003060 0.006105 -0.001347 -0.005712 0.003505 0.002918 -0.001312 0.002155 0.000506 -0.001409 -0.003301 0.001033 -0.001696 -0.003342 0.005628 0.003318 -0.001541 -0.003242 -0.001424 0.000761 0.005535 -0.002539 -0.005157 0.002592 -0.004360 -0.001005 -0.001008 0.003553 -0.004846 -0.000385 0.001582 0.000978 -0.001771 -0.001148 -0.005995 0.002841 -0.001413 -0.004756 -0.007977 -0.008292 -0.004928 -0.001191 -0.003734 0.003748 -0.003268 0.002413
panasonic 0.003057 0.004217 0.003855 -0.003537 0.003499 0.000042 -0.004540 0.005532 -0.003434 0.003965 0.001424 0.000302 0.000045 -0.002919 0.003227 0.000402 -0.004617 -0.005779 -0.002930 -0.000777 0.003992 -0.002478 -0.001364 -0.003797 0.001135 0.003743 -0.002414 -0.001108 0.000078 -0.007526 -0.005236 0.000024 0.003230 -0.005497 0.001706 0.000656 0.003782 -0.002514 0.002885 -0.002209 -0.002354 0.003120 -0.001605 0.000860 0.000694 0.005433 0.007687 -0.001242 -0.001036 0.003585 -0.003248 0.000340 -0.001359 -0.003269 -0.000987 0.003654 0.001725 -0.000349 0.002351 0.001108 0.000689 0.000082 -0.000563 -0.000789 0.000160 0.002594 0.000334 -0.002327 0.005269 0.001425 0.002949 -0.003174 0.000474 -0.006807 -0.002762 0.000131 -0.003725 -0.002493 -0.001539 -0.003665 -0.000596 -0.001662 -0.004452 0.002476 0.000422 0.003397 -0.004347 -0.000537 0.000733 0.003310 -0.004384 0.001209 0.001592 0.001254 0.002810 -0.002422 -0.004377 0.000057 0.000081 0.001062
clear 0.000704 -0.001011 -0.003679 -0.003823 -0.001167 0.002609 -0.002572 0.000108 -0.001793 -0.005716 -0.003269 0.000612 0.003843 -0.006316 -0.004347 -0.005048 -0.004209 0.004110 -0.002984 -0.000696 0.004213 -0.000164 0.001278 0.004971 0.005497 -0.001759 -0.006840 -0.001736 -0.003947 0.006805 -0.000643 -0.002264 0.002381 0.003803 0.008534 -0.003044 0.000543 0.006345 0.005137 0.006397 0.003007 -0.000431 0.001291 -0.005233 -0.006046 -0.002804 -0.001479 -0.009951 0.004317 -0.000807 0.002745 -0.007467 -0.001865 0.004351 -0.005623 0.000220 -0.005138 -0.003633 -0.000066 -0.007333 -0.009234 0.004525 0.008282 0.004789 0.004839 0.004159 0.006820 0.006874 0.001860 0.000191 -0.001265 0.002837 0.002445 0.004185 -0.001470 -0.004316 0.005559 0.001807 -0.001965 0.008743 -0.000458 -0.004304 0.006755 -0.006162 0.004010 -0.002802 0.000379 -0.000903 0.003907 -0.003338 0.004246 0.001069 0.006963 0.005135 -0.004416 -0.009872 0.004699 0.001596 -0.000634 -0.003153
part -0.001832 0.000906 0.005180 0.004302 0.000902 0.005360 -0.002022 0.000579 0.003178 0.000616 0.002208 0.005053 0.003105 -0.000676 0.001411 -0.001069 0.005406 -0.003880 -0.002621 0.003508 -0.004735 -0.007324 0.000653 -0.005600 -0.000778 -0.000183 -0.003032 0.002737 0.003869 0.002116 -0.002568 0.005815 0.000849 -0.001156 0.001713 -0.001451 -0.001279 -0.000472 -0.000888 0.003548 0.003647 0.000813 0.001386 0.001707 0.000119 0.004124 -0.001175 0.000586 0.000148 -0.000429 -0.000953 0.002577 -0.003605 0.001878 0.002531 -0.004072 -0.002153 0.000758 -0.005235 0.005167 0.001972 0.004888 0.001566 -0.003268 0.001839 0.004889 0.001476 -0.001590 0.001516 0.000381 -0.003992 -0.001309 -0.004922 -0.000880 -0.003581 -0.003824 -0.004145 0.003746 -0.001549 -0.002795 0.003616 0.004321 -0.004662 0.004070 -0.001881 -0.002770 0.001274 0.003278 0.001424 0.005458 -0.005660 0.000101 0.000552 -0.005194 0.000091 -0.001022 -0.002003 -0.001393 -0.004151 0.003459
lcd -0.000874 -0.004563 0.003910 -0.004899 -0.004124 0.002830 0.003874 0.002259 -0.003658 0.002425 -0.002803 -0.004905 0.001280 0.002732 0.003601 -0.000874 -0.004129 0.005076 -0.000607 -0.005191 0.004291 0.002993 -0.002334 -0.004040 0.000743 -0.002887 0.004111 -0.003560 -0.003211 -0.002659 -0.004679 0.004028 -0.003111 0.002120 -0.003387 -0.001117 -0.000129 0.004111 -0.005265 -0.003758 -0.003014 -0.004378 -0.001480 0.004766 0.000362 0.001269 -0.002432 0.004214 -0.001903 0.003027 0.000134 0.002792 -0.004620 0.004137 0.000286 -0.001125 0.001739 0.001837 -0.001133 0.005416 0.001790 -0.001406 0.003382 0.002491 -0.000928 -0.002833 0.002772 -0.001819 -0.000279 -0.003760 0.001130 0.003584 0.003132 0.001061 -0.004106 -0.004338 -0.003630 0.004345 -0.005267 -0.004305 0.001335 0.003885 -0.001604 0.002463 -0.001323 0.003393 0.000073 -0.000829 -0.001562 0.000298 0.001462 0.001114 -0.001478 -0.005079 0.000585 0.003566 -0.005326 0.002138 0.002234 -0.003058
buy 0.005493 -0.001749 -0.003828 -0.002308 0.000324 0.003111 0.002255 -0.004150 0.002844 -0.001629 0.004186 0.003889 -0.003323 0.004416 0.003377 0.005525 -0.001447 -0.000197 0.001633 0.001016 0.003328 0.002335 -0.001252 0.000553 -0.004845 -0.005168 0.003485 0.001202 -0.000021 0.002767 -0.000710 0.005102 0.004369 -0.004189 -0.003163 -0.003991 0.003501 0.004260 0.002918 0.000352 0.000488 -0.004219 0.004271 -0.003026 -0.004498 -0.000295 0.004334 0.002947 -0.000231 -0.000609 0.002333 -0.003217 -0.005673 -0.002467 0.004807 -0.004297 -0.000936 -0.003516 -0.000512 0.003566 0.000708 -0.004011 0.003547 0.001283 -0.001829 -0.000058 -0.001304 -0.001097 -0.001598 -0.002346 -0.001520 0.003356 -0.000542 -0.001709 -0.003949 -0.000825 0.001359 0.001085 -0.004704 -0.004399 -0.004124 -0.001702 0.002485 0.004540 0.002404 0.003609 -0.000950 0.002525 -0.004490 -0.000047 -0.000063 0.000183 -0.006094 -0.003721 -0.001774 0.002047 -0.002857 0.000488 -0.005022 -0.003331
extra -0.000366 -0.003306 0.000339 -0.002032 -0.001216 0.001538 0.000396 0.002494 0.000837 -0.002005 0.003621 0.001586 -0.000018 -0.001277 -0.003391 0.006619 -0.001433 -0.003898 -0.000405 -0.005106 -0.006298 0.001180 0.004277 0.004648 -0.004248 -0.001058 0.004094 -0.003462 0.000034 -0.002088 -0.002958 0.003471 0.001687 -0.007132 0.001144 0.000586 0.002199 -0.006069 0.002963 0.002901 0.002878 0.003270 0.001734 -0.001476 -0.000424 0.002551 0.005829 0.002089 -0.003098 -0.003128 0.002015 0.003895 -0.000714 -0.000543 -0.001699 -0.002983 -0.001742 -0.003523 0.004715 -0.003330 0.000062 0.001123 -0.005557 0.003011 -0.001930 -0.004673 -0.007970 0.002835 0.002483 -0.000772 0.002656 0.001537 0.002020 -0.002586 0.003173 -0.003534 0.001836 0.002112 0.002455 -0.005563 0.005069 -0.001434 -0.006430 0.004390 -0.002040 -0.006097 0.001966 0.004895 0.002907 -0.002900 0.002347 0.001807 -0.004553 -0.002564 0.004344 -0.000973 0.001661 -0.003324 0.000421 0.003007
playback 0.000713 -0.004350 -0.001018 0.003160 0.002058 0.004119 0.002194 0.002586 0.001716 0.000255 0.001569 -0.004077 -0.003262 0.002994 0.004887 0.000866 -0.001396 -0.001926 -0.000329 -0.000530 -0.002809 -0.005168 0.003163 0.003996 -0.004493 -0.001262 -0.001334 0.000046 -0.002425 0.002296 -0.001265 0.004198 0.000788 -0.002572 -0.001658 0.001069 0.000364 -0.006148 -0.004719 -0.005748 0.001587 -0.005679 -0.000569 -0.001458 0.000825 0.006416 0.006841 0.003945 -0.002093 -0.000511 -0.004238 0.005241 -0.002248 -0.005134 -0.000548 0.001312 0.003682 0.000591 -0.000332 0.003899 -0.000528 0.001229 -0.005361 -0.003288 -0.000861 0.002603 -0.007863 -0.003721 -0.002019 0.002190 0.006083 -0.002641 0.002579 -0.000425 -0.004308 0.003494 -0.002091 0.000328 -0.000560 -0.002638 0.003886 -0.001715 -0.002869 0.000212 -0.005726 -0.001035 0.002430 -0.001605 0.002704 0.005489 -0.000530 0.001339 -0.003275 -0.007089 -0.005343 0.008141 -0.003945 -0.005231 -0.002615 0.001805
line -0.003107 -0.002492 0.001136 0.004088 -0.000957 0.001263 -0.004570 -0.001819 -0.001738 0.008224 0.003387 0.001384 -0.003671 0.004901 0.001426 0.001677 -0.001151 -0.005628 0.001983 -0.003284 0.000148 -0.002665 0.002263 -0.004786 0.002960 -0.002227 0.001623 -0.003507 0.002475 -0.006415 -0.008385 0.005954 0.003240 -0.004520 -0.004710 -0.002421 -0.000173 -0.008306 0.001402 -0.005044 0.004088 0.003474 -0.005512 0.004327 -0.002460 0.005326 0.005597 0.008941 0.000280 -0.000352 0.000843 0.004408 0.001172 0.002324 0.006921 -0.002717 -0.003478 0.001037 -0.003331 0.002026 0.003726 0.001488 -0.004363 -0.003547 -0.001211 0.001705 -0.008499 -0.007750 0.005519 -0.001100 0.002958 -0.004014 -0.005669 -0.003389 0.003908 -0.003550 -0.004167 0.003890 -0.002225 -0.002049 0.002255 0.004534 -0.003318 -0.003296 0.003400 -0.002652 0.000865 -0.003769 0.000977 0.003921 -0.005961 0.002483 -0.003187 -0.008407 -0.004294 0.008149 -0.005419 -0.005669 0.003161 0.004445
kit 0.005865 0.000820 0.002170 0.007477 0.001164 0.008505 -0.005221 0.004896 -0.017748 0.007687 -0.002440 0.001659 -0.006939 0.009712 0.007204 0.008925 0.006690 -0.007064 -0.001624 -0.002198 -0.009241 -0.015381 -0.002481 -0.006196 -0.014321 -0.007529 0.012076 -0.009023 0.005508 -0.017463 -0.010845 0.007176 -0.003091 -0.021930 -0.015932 0.000948 -0.010416 -0.007699 -0.006772 -0.011311 0.000604 -0.003653 -0.004761 -0.004009 0.000045 0.011366 0.022488 0.018925 -0.003674 -0.003590 -0.000915 0.015717 -0.003200 -0.005423 0.003525 0.001436 -0.000554 -0.001822 -0.007546 0.001689 0.017643 0.002821 -0.003717 -0.011229 -0.014301 0.000661 -0.012482 -0.015909 0.007749 -0.000575 0.005319 -0.007558 -0.012940 -0.019869 0.003311 0.002865 -0.002101 -0.002815 -0.012337 -0.016624 -0.007300 0.011774 -0.024324 0.000775 -0.006715 -0.007215 -0.004097 0.005383 -0.008343 0.014689 -0.007727 -0.002941 -0.011438 -0.019784 -0.008003 0.015619 -0.014165 -0.006557 -0.006227 0.013770
