932 100
case -0.026626 -0.006141 -0.017109 0.007042 -0.007008 0.001484 -0.020832 -0.005366 0.004441 -0.013240 0.010215 -0.007805 -0.016373 -0.022648 -0.011956 0.008799 -0.011088 0.000579 -0.006596 -0.011138 -0.020860 -0.006730 -0.016734 0.012386 0.005212 0.034818 -0.001356 -0.017486 0.030325 -0.004530 0.000420 0.002687 0.016154 -0.023883 0.020207 -0.006674 -0.007836 0.021397 -0.011771 0.038184 0.018066 -0.000863 0.004285 0.019689 0.031749 -0.002713 0.011657 0.022096 -0.020234 0.002933 -0.017202 0.008980 -0.016795 0.020126 0.009094 -0.008376 0.000090 0.002906 0.002245 0.024599 -0.008230 -0.000342 -0.010747 -0.001198 0.011614 -0.003149 -0.029447 -0.008222 -0.007432 0.008374 -0.010142 -0.017142 -0.003767 -0.004279 -0.002475 0.009524 0.022169 0.047987 -0.003290 0.024010 -0.008259 0.003651 -0.000923 -0.011760 0.025938 -0.008849 0.022318 -0.002583 0.001560 0.026150 0.021910 -0.004715 -0.002048 -0.029682 0.003483 -0.012619 -0.024584 0.003442 0.009546 0.007610
screen -0.037226 -0.015917 -0.028742 -0.005771 -0.018774 0.008152 -0.030095 -0.002696 0.002901 -0.015864 0.014974 -0.012175 -0.019558 -0.046825 -0.028905 0.012704 -0.024020 -0.025421 -0.022097 -0.018470 -0.046323 -0.001922 -0.010065 0.027447 0.012733 0.065449 0.013624 -0.020083 0.052892 -0.021449 0.001352 -0.004193 0.012727 -0.029701 0.034306 -0.016282 -0.011527 0.039092 -0.002131 0.060966 0.046278 0.012715 0.011318 0.041536 0.048043 0.002689 -0.003724 0.036852 -0.028716 0.021652 -0.029543 0.013948 -0.031610 0.036593 0.022368 -0.014257 0.010131 0.013891 -0.002564 0.030468 -0.015863 -0.002304 -0.019935 0.000071 0.002780 -0.008663 -0.049744 -0.010565 -0.002560 0.014760 -0.033292 -0.034678 -0.025435 -0.028888 0.013149 0.018211 0.024422 0.077364 -0.008512 0.043076 -0.029369 0.009220 -0.001556 -0.016429 0.037675 -0.017306 0.038453 0.002051 0.010419 0.039848 0.033961 -0.012374 -0.011011 -0.061920 0.002484 -0.003107 -0.030607 0.002200 0.024199 0.023506
battery -0.016449 -0.005474 -0.009175 -0.008734 -0.010341 0.000433 -0.020052 -0.003559 0.004547 -0.001048 0.008071 -0.018455 -0.014117 -0.011826 -0.018458 0.011792 -0.016138 -0.023377 -0.019189 -0.007186 -0.031944 0.011178 0.000623 0.024980 0.009761 0.037407 0.007306 -0.032699 0.015282 -0.022252 -0.011641 -0.004336 0.006123 -0.027576 0.009898 -0.024188 0.012714 0.009805 0.000899 0.022930 0.013858 0.020756 0.020495 0.008739 0.021230 0.003327 0.007508 0.006478 -0.029215 0.024288 -0.022974 0.013183 -0.011533 0.022805 0.017133 -0.003449 0.018620 -0.000373 -0.013508 0.002640 -0.015308 0.002606 -0.007982 0.020552 0.009052 -0.003208 -0.013605 -0.003256 0.016176 -0.011458 -0.031689 0.001275 -0.015585 -0.017976 0.013636 0.018402 0.016735 0.040949 -0.009866 0.020327 -0.031812 -0.006877 0.007877 -0.003006 0.003754 -0.026811 0.035455 -0.009927 0.018855 0.011956 0.022515 -0.006757 -0.024378 -0.036007 0.010557 -0.007284 -0.025076 -0.002344 0.018832 0.030985
headset -0.007141 0.004609 -0.003946 -0.000704 -0.010237 0.004611 -0.006019 0.001673 -0.003184 0.001224 0.002063 -0.001140 -0.009041 0.001356 -0.002437 0.001768 -0.011415 -0.000350 -0.009330 -0.001799 -0.003870 -0.003710 0.005697 0.002092 -0.003136 0.008461 0.000529 -0.011317 0.004233 0.001584 -0.005010 0.000263 -0.004732 -0.002077 0.000029 -0.009585 0.001609 0.000029 -0.004650 0.000815 -0.002382 0.006506 0.004234 0.001220 0.010206 -0.002576 0.002271 0.003131 -0.013012 0.001921 -0.005698 -0.006258 -0.006086 0.004683 0.000196 -0.003825 -0.001951 0.008914 -0.004310 0.002142 -0.003558 -0.003116 -0.002408 0.005631 0.000418 -0.007349 -0.000712 -0.004292 0.008277 0.007905 -0.012485 0.001093 -0.008614 -0.008893 0.002663 0.001382 0.010523 0.015607 -0.003639 0.007100 -0.012613 0.002411 -0.002918 0.001944 -0.000679 -0.002829 0.012122 -0.002169 0.005444 0.007971 -0.001345 -0.007187 -0.002850 -0.012312 -0.000375 -0.001837 0.002649 -0.004853 0.003934 0.010387
iphone -0.014759 -0.004426 -0.019563 0.004128 -0.017367 -0.000971 -0.031551 -0.001190 -0.000874 -0.010697 0.009555 -0.005569 -0.018113 -0.021917 0.001687 0.004160 -0.018039 -0.002565 -0.002539 -0.014470 -0.017126 -0.003662 -0.012405 0.013191 0.000859 0.041083 -0.001237 -0.023944 0.025610 -0.006096 0.003087 0.004038 0.007801 -0.024556 0.028231 -0.012807 -0.001542 0.008902 -0.011352 0.034196 0.016121 0.000263 0.008110 0.014133 0.038038 -0.004977 0.009044 0.023468 -0.014914 0.003851 -0.015035 0.011498 -0.017775 0.032466 0.012858 -0.005349 -0.004586 0.010775 -0.001206 0.019379 0.001813 -0.009696 -0.008334 0.008215 0.007219 -0.000752 -0.021835 -0.008144 0.001800 0.019615 -0.014110 -0.018894 -0.002756 -0.006503 -0.011513 -0.002146 0.021313 0.052563 0.000691 0.018545 -0.012996 0.010451 -0.004015 0.002446 0.015547 -0.003725 0.014860 -0.002243 0.013915 0.034071 0.014407 -0.004927 0.000930 -0.027129 0.010486 -0.002323 -0.032425 0.002201 0.000290 0.009218
call 0.003015 -0.002271 -0.003172 0.000387 -0.001450 -0.002087 -0.006832 -0.001849 0.004258 -0.001285 0.003587 0.002297 -0.004421 -0.007079 0.000935 0.002247 -0.002742 -0.001258 -0.002216 -0.006234 -0.002067 -0.005210 -0.002527 0.000378 0.004582 0.007629 -0.004800 -0.005426 -0.001595 0.003356 0.004369 -0.001874 -0.002858 -0.001069 -0.003729 0.001260 0.003196 -0.002552 -0.006184 0.001726 -0.003512 0.000568 0.002309 -0.004045 0.008932 0.001053 0.002881 -0.002638 -0.003328 -0.004172 -0.005467 -0.002287 0.000228 0.001235 0.006717 -0.000382 -0.002175 0.005743 -0.003603 0.001187 0.003435 -0.005966 -0.003932 0.001253 0.001455 0.000704 0.000740 0.006496 -0.001324 0.004247 0.001106 -0.001998 -0.004639 0.001802 -0.003661 0.004298 0.004273 0.005766 0.004940 -0.000674 0.000373 0.006537 -0.002687 0.003992 -0.003535 -0.000989 0.005166 0.003484 0.000039 0.000212 0.005510 0.003999 0.000442 -0.002103 0.004557 0.002185 0.003804 -0.005119 -0.002075 0.003467
device -0.007998 0.002082 -0.014159 0.006169 -0.006232 0.003715 -0.015287 0.002117 -0.005081 -0.006222 -0.002262 -0.003852 -0.008947 -0.008685 0.003898 0.000075 -0.004781 -0.001429 -0.005186 -0.009510 -0.008787 0.005924 -0.001958 0.005217 -0.002287 0.010168 0.001361 -0.008827 0.009079 -0.000123 0.000289 0.001238 0.000786 -0.012136 0.006815 -0.009528 0.004656 0.006103 -0.005490 0.010312 0.003110 -0.004949 0.008650 -0.000218 0.009437 -0.002657 -0.001804 0.005929 -0.005023 -0.006481 -0.004883 0.001605 -0.004515 0.015544 0.004261 -0.003034 -0.003743 0.005747 0.000768 -0.000348 0.001624 -0.007456 -0.003144 0.003067 -0.004769 -0.004226 -0.003843 0.000609 0.010508 0.010379 -0.009774 -0.003871 -0.006627 0.002953 -0.000974 -0.005203 0.009341 0.017923 0.002086 0.004633 -0.008889 0.008432 0.004036 0.001547 0.004219 0.001318 0.011195 0.002432 0.006829 0.005381 0.010513 0.002456 0.000344 -0.010746 0.005303 0.002091 -0.012841 0.004002 0.004133 0.002324
charger -0.010686 -0.001486 -0.019699 0.002474 -0.015925 -0.003496 -0.020877 0.001082 -0.007729 -0.009513 0.003017 -0.000534 -0.011656 -0.015658 0.003970 -0.005793 -0.012841 0.006633 0.000041 -0.016246 -0.009546 0.001184 -0.001995 0.004798 -0.005872 0.025038 0.006977 -0.030190 0.017829 -0.005975 0.006853 0.004700 0.008130 -0.025534 0.019488 -0.011664 0.001506 0.001993 -0.012155 0.017444 0.004507 -0.011309 0.012076 -0.000348 0.023748 0.000551 0.002471 0.014836 -0.006805 -0.003730 -0.014842 0.005925 -0.000708 0.027104 0.006581 0.001847 -0.003561 0.003326 -0.000289 0.005685 0.007152 -0.010090 -0.001164 0.003509 -0.008186 0.002459 -0.018735 -0.000711 0.002421 0.015025 -0.013496 -0.020874 -0.008279 -0.002597 -0.010205 -0.004085 0.017916 0.038297 -0.004989 0.011402 -0.008140 0.011735 0.000546 0.008555 0.011991 -0.005528 0.015618 -0.002563 0.009527 0.023707 0.019161 0.002623 0.003770 -0.015257 0.012365 -0.002677 -0.023831 0.000714 -0.000415 0.001040
button -0.008654 -0.009899 -0.018235 0.003575 -0.008234 0.007422 -0.016175 -0.002202 -0.001605 -0.001806 0.005250 0.003846 -0.009731 -0.020531 -0.005376 0.001911 -0.003240 0.001205 -0.005913 -0.003847 -0.015157 0.001315 -0.011666 0.001992 0.011561 0.024622 0.008623 -0.006658 0.013779 0.002326 0.000274 -0.006987 0.004108 -0.020176 0.010995 -0.011344 -0.005203 0.009601 0.001408 0.016545 0.013882 -0.000668 -0.001477 0.012810 0.013770 0.002596 -0.008627 0.007298 -0.005567 0.004951 -0.012520 0.002479 -0.014393 0.018828 0.011418 -0.003600 0.003969 0.009846 0.005594 0.010842 -0.005876 -0.008307 -0.011926 0.006415 0.003059 0.005263 -0.019807 0.008852 0.010788 0.015151 -0.015017 -0.013922 -0.011319 0.002725 0.000589 0.005013 0.009662 0.025543 -0.001080 0.018567 -0.001414 0.010425 -0.005082 0.000355 0.005495 -0.000834 0.014700 0.000594 0.003841 0.010199 0.007100 0.006203 0.006023 -0.017986 0.009468 -0.009541 -0.004895 0.002084 0.013009 0.000247
sound 0.003421 0.000212 0.002097 -0.004503 0.004129 -0.001781 0.005791 -0.003084 0.001360 0.003625 0.002811 0.001605 -0.001585 0.003300 0.002719 0.000310 -0.002482 -0.006589 -0.003195 0.000727 0.004332 -0.004802 0.003222 0.002193 0.000318 -0.003705 -0.003481 -0.004131 -0.005857 0.002303 0.001174 0.000240 -0.000004 0.001612 -0.004233 -0.002150 0.003001 0.003344 -0.003252 -0.003586 0.001266 0.000601 -0.005695 -0.003556 -0.002770 0.000089 0.003454 0.003819 0.001765 -0.000646 0.001220 -0.003741 -0.002631 -0.002422 -0.000853 -0.002995 -0.001166 -0.004043 0.004155 -0.000466 0.004631 0.004512 -0.001188 0.004674 0.003523 -0.003353 0.000585 0.001700 -0.001730 -0.006733 -0.004418 0.006747 0.003964 -0.000881 -0.002141 0.004067 0.000334 0.002808 0.003954 0.005950 0.000008 0.002621 0.003574 0.000396 0.002308 0.003889 0.005913 -0.002117 -0.003898 0.001417 -0.000290 0.000266 0.001263 -0.005184 0.002192 -0.004982 0.003896 -0.000478 0.002217 0.000592
camera -0.008407 -0.000982 -0.005378 -0.002673 -0.003715 0.005341 -0.010668 -0.002415 0.004001 -0.007653 -0.001487 -0.008955 0.004942 -0.009747 -0.001817 0.003534 -0.000499 -0.003162 -0.000131 -0.002560 -0.007841 -0.001363 -0.002360 0.002312 0.007409 0.011639 0.002569 -0.002750 0.009077 0.001310 0.000672 -0.001078 0.009481 -0.008937 0.009035 -0.006399 -0.003130 0.002015 0.001567 0.007896 0.005414 -0.002598 0.009826 0.003560 0.003930 0.006592 -0.006362 0.008074 -0.006681 0.005239 -0.002130 0.005607 -0.006419 0.010751 0.004879 -0.008057 0.001686 0.005186 -0.003432 0.009550 -0.002381 -0.000466 -0.008767 -0.002484 -0.001049 0.001620 -0.012600 -0.002586 0.001530 0.005205 -0.009508 -0.009425 -0.003411 -0.005302 0.005774 0.002125 0.010344 0.008158 0.002143 0.001638 -0.004446 0.005213 -0.000133 -0.007213 0.012875 -0.006714 0.003928 -0.000170 0.005589 0.003963 0.005457 -0.001924 -0.004414 -0.016207 0.005104 -0.006340 -0.005612 0.007613 0.004292 0.004583
price -0.000363 0.003391 -0.003874 -0.004882 -0.000105 -0.003441 -0.004585 0.001350 0.001229 -0.000903 0.000496 -0.002278 0.002486 -0.001190 -0.006612 -0.002704 0.000414 -0.007134 -0.008541 0.002210 -0.004979 -0.002708 -0.000424 0.002152 0.001730 0.002699 0.001340 -0.007456 0.006295 -0.005043 -0.002686 0.001322 0.004846 -0.004875 0.004167 -0.004821 0.002040 -0.000996 0.003773 0.002847 0.002761 0.000943 0.005575 0.005076 0.001193 -0.001233 -0.003315 -0.000368 -0.003405 0.005511 -0.003076 -0.000247 0.001600 0.005761 0.000086 0.004051 0.002053 -0.003359 -0.001134 0.006261 -0.004588 -0.002321 0.001734 0.004292 0.005434 -0.003487 -0.005951 -0.005585 -0.001757 0.003036 -0.006875 0.001694 0.000667 0.001093 0.004775 0.004730 -0.000642 0.008471 -0.003630 0.002693 -0.003254 0.003339 0.002957 0.001893 0.000200 0.000314 0.002806 -0.001753 0.006583 -0.000051 0.001714 0.001757 0.001434 -0.003998 -0.003449 0.004221 -0.003136 0.002220 0.007077 0.002640
easy -0.009970 -0.006208 -0.008897 0.002221 -0.011109 0.005049 -0.013556 0.002643 0.000789 -0.000981 0.007461 -0.003650 -0.009530 -0.012472 -0.009927 0.006459 -0.009930 -0.003959 -0.008424 -0.000358 -0.016180 -0.006821 -0.010917 0.006504 0.004694 0.022077 0.003260 -0.011515 0.013330 -0.001528 -0.001582 -0.003186 0.009041 -0.009694 0.013414 -0.008776 0.001666 0.008370 -0.002721 0.021358 0.003518 -0.003663 0.004115 0.007343 0.014801 -0.003311 0.002853 0.013809 -0.014025 0.008805 -0.007823 0.008038 -0.007469 0.008156 0.001097 0.000338 -0.002356 -0.000040 -0.002238 0.009576 -0.001668 -0.002499 -0.001387 0.001609 0.007836 -0.003496 -0.011871 -0.000462 -0.001455 0.003729 -0.012130 -0.007811 -0.004965 0.000071 0.004491 0.002006 0.009114 0.024567 0.003088 0.013349 -0.005123 -0.001220 0.002033 -0.002476 0.009334 -0.008251 0.010269 -0.006441 0.007361 0.006380 0.011843 -0.006298 -0.004970 -0.014488 0.006300 -0.002855 -0.011915 0.004074 0.006153 0.003465
ear 0.006060 0.007917 0.005858 0.000782 0.002722 0.001014 0.011634 -0.007353 0.001585 -0.001565 0.001617 0.000457 -0.002265 0.008858 -0.002649 0.000428 -0.005450 0.001213 -0.004040 0.007245 0.001019 0.005931 0.002969 -0.003262 -0.005330 -0.008074 0.001671 0.001190 -0.006494 0.001163 -0.007740 0.001584 -0.011270 0.008793 -0.012136 -0.001450 0.006165 -0.000543 -0.002682 -0.014762 -0.006455 -0.000370 -0.003179 0.001596 -0.007581 -0.002010 0.003609 -0.000578 -0.002155 -0.004372 -0.001790 -0.006181 -0.005625 -0.002282 -0.004558 -0.000651 -0.001407 0.003009 0.000363 -0.001539 0.006862 0.008790 -0.001375 0.004355 0.000927 -0.003937 0.007073 0.003050 0.000326 -0.002693 0.002545 0.016330 0.000389 -0.004845 0.000847 0.000936 -0.009949 -0.017158 -0.002047 0.003998 0.005450 -0.007571 -0.000877 -0.001010 -0.010251 0.004056 0.001440 -0.003605 -0.006388 -0.012561 -0.012476 0.001081 -0.000911 0.002927 -0.009533 0.000406 0.014130 -0.002206 -0.002030 0.004784
feature -0.013395 -0.001935 -0.010407 -0.005572 -0.000111 -0.000632 -0.012305 -0.004080 0.003181 -0.001990 0.007046 -0.008505 -0.004970 -0.008549 -0.000671 0.008094 -0.007413 -0.007873 -0.010732 0.001220 -0.007486 -0.004220 -0.005507 0.005842 -0.000780 0.017584 0.004889 -0.012135 0.013082 -0.006960 -0.002547 0.004792 0.010731 -0.014495 0.005215 -0.003136 -0.000979 0.011223 -0.002009 0.019596 0.006485 -0.001772 0.009379 0.010599 0.004904 0.001335 0.000515 0.010122 -0.004952 0.001848 -0.006057 -0.000374 -0.003733 0.013153 0.003270 -0.008778 0.000242 0.006594 0.000992 0.008734 -0.005610 -0.005677 -0.001627 0.001096 -0.002274 -0.000034 -0.008225 0.001768 0.002171 -0.001155 -0.010722 -0.005613 -0.000888 -0.001126 0.001786 0.008057 0.006604 0.019368 -0.005186 0.009034 -0.002425 0.003005 0.003005 -0.009419 0.015253 -0.011033 0.010304 -0.005886 -0.001945 0.002468 0.011984 -0.001751 -0.007006 -0.019375 0.005874 -0.005299 -0.007205 0.006789 0.007548 0.010471
card -0.003613 -0.004627 -0.003931 -0.002932 -0.006874 0.005054 -0.011160 -0.003496 -0.005599 -0.008135 0.001642 0.000322 -0.007051 -0.004332 -0.003407 0.002765 -0.006364 -0.004698 0.000201 -0.004327 -0.014636 0.001875 -0.007557 0.004164 -0.000160 0.009911 -0.002646 0.000046 0.003997 0.002623 0.004027 -0.004751 0.007926 -0.002467 0.004703 -0.001330 -0.001318 -0.000704 -0.008275 0.011981 0.003424 0.003097 0.008156 0.000418 0.012076 -0.004817 0.001790 0.007656 0.001844 -0.002506 -0.010094 0.001836 0.000399 0.001665 -0.001441 0.002224 0.003397 0.006354 -0.001200 0.004111 -0.004097 -0.000547 -0.008502 0.005070 -0.006514 0.002555 -0.007428 0.000643 -0.001189 0.009069 -0.002566 -0.008264 -0.003806 -0.006752 -0.002766 0.004257 0.011285 0.008111 -0.001926 0.010115 -0.007657 -0.002655 0.001175 0.000035 0.007315 -0.002040 0.008603 0.001125 0.009910 0.013814 0.010992 -0.001624 -0.000806 -0.004941 0.008628 0.001995 -0.011415 0.006349 -0.004190 0.001141
car -0.005384 -0.005159 -0.010203 -0.000270 -0.004028 -0.005211 -0.012045 -0.004600 0.000373 -0.001333 0.002148 0.001392 0.001001 -0.007547 0.005843 0.000568 0.001593 -0.003551 0.002468 -0.001133 -0.007099 0.002106 -0.002153 -0.000219 -0.004295 0.007467 0.001928 -0.005355 0.000325 -0.005225 0.003525 0.003227 -0.001535 -0.002319 -0.000434 -0.006072 -0.002731 -0.003197 -0.005708 0.001473 -0.000381 -0.007068 0.005645 0.001023 0.001643 0.002047 0.000571 0.000122 -0.005773 0.000001 -0.003027 -0.000770 0.001654 0.009453 0.002995 -0.001185 0.000088 0.001671 0.003246 0.002514 -0.001847 -0.008384 -0.002582 0.005783 0.000946 -0.004861 -0.006106 0.001503 0.000752 0.000772 -0.000447 -0.006434 -0.003891 -0.003486 -0.006760 0.002929 0.002574 0.012413 -0.001522 0.000885 0.000209 0.005477 0.002758 0.006321 0.000295 -0.001482 -0.001477 0.002090 0.000827 0.003468 0.004354 0.003262 -0.002881 0.001089 0.001941 0.002767 -0.008770 0.001558 0.005187 0.000029
music -0.000893 0.000254 -0.001476 0.004728 -0.001832 -0.002214 0.002132 0.003467 -0.004028 0.004454 0.003592 -0.000429 0.002392 -0.004467 -0.003030 -0.000738 0.001372 0.000022 0.002102 -0.006346 -0.004494 -0.000423 -0.001436 0.000848 -0.006251 -0.003740 0.000661 0.000571 -0.004355 0.002563 -0.004660 -0.000855 -0.001338 -0.004262 -0.003423 -0.005168 -0.001817 -0.006678 0.002934 -0.005987 -0.003393 -0.003105 -0.000442 0.001507 0.002405 -0.003928 0.001009 -0.002061 -0.003131 0.002321 -0.003014 0.001462 -0.003094 0.003973 0.002489 -0.001521 0.004910 -0.001518 -0.004100 -0.003578 0.003679 -0.005676 -0.001127 -0.000907 0.000245 -0.004147 0.004315 0.005096 0.001864 0.005968 0.004026 0.002098 -0.004656 -0.003114 -0.001403 0.004040 -0.003316 0.005546 0.004463 0.002981 -0.004618 0.004489 0.003925 0.005215 0.005079 0.004734 0.001528 0.001308 -0.003162 0.001264 0.000873 -0.002639 0.002016 -0.001220 0.003384 0.004784 -0.002092 0.000473 0.002951 -0.003501
usb -0.016907 -0.008751 -0.022295 0.005269 -0.023902 0.001229 -0.039897 -0.005715 0.001483 -0.007792 0.013031 -0.007117 -0.011095 -0.026269 0.004721 -0.002108 -0.015198 0.005299 0.000941 -0.021469 -0.026302 -0.005943 -0.008706 0.016049 -0.005615 0.031725 0.003241 -0.038121 0.034630 -0.006543 0.009117 0.011066 0.009083 -0.032868 0.030982 -0.021128 -0.008727 0.005254 -0.017290 0.030541 0.004763 -0.012342 0.015583 0.007638 0.033031 0.002646 0.008839 0.025033 -0.008331 -0.005685 -0.014154 0.010916 -0.011690 0.033545 0.011876 -0.008342 -0.008246 0.012014 -0.000742 0.013288 0.006470 -0.020879 -0.008839 0.001118 -0.007179 0.001063 -0.028443 -0.000027 0.010911 0.023562 -0.009559 -0.031373 -0.002768 -0.007796 -0.019761 0.003463 0.016405 0.052683 -0.005824 0.017180 -0.014512 0.011052 0.000953 0.007663 0.023984 -0.003257 0.023069 0.002358 0.014054 0.034464 0.019968 -0.003580 0.002943 -0.018278 0.014117 -0.006534 -0.030009 0.007535 -0.002807 0.002330
cable -0.001067 0.002344 -0.012704 0.003595 -0.005125 -0.000182 -0.018900 -0.002993 -0.000074 0.000709 -0.000668 0.002667 -0.004727 -0.012031 0.002692 -0.004910 -0.011089 0.001446 0.006149 -0.008207 -0.005672 -0.001511 -0.006721 0.000172 -0.006193 0.016759 0.005209 -0.019898 0.009360 -0.003679 0.002560 0.003616 0.001392 -0.016018 0.008509 -0.014087 0.005828 0.000947 -0.010733 0.008575 -0.003311 -0.009767 0.003099 0.002027 0.015000 -0.000836 -0.001962 0.006728 0.003677 -0.008830 -0.004547 0.007598 -0.000775 0.009455 -0.001750 0.000860 -0.005814 0.006162 0.000228 -0.000503 0.004007 -0.011791 -0.001187 -0.000153 -0.007453 -0.000035 -0.003574 0.001528 -0.000160 0.007550 -0.004871 -0.012795 -0.000345 0.003312 -0.013988 -0.004999 0.004949 0.016174 0.005534 0.000894 -0.002478 0.011287 -0.000976 0.008559 0.006048 0.002899 0.010114 0.005210 0.004902 0.015086 0.011727 0.004751 0.004881 -0.000694 0.003556 -0.000113 -0.017585 0.005699 -0.002989 0.004600
review 0.000079 0.002386 -0.005464 0.001929 -0.006893 0.002563 -0.007170 0.003592 -0.003994 -0.000187 -0.001933 0.002188 -0.001114 -0.008714 -0.001818 -0.001268 -0.001416 0.001058 -0.000328 -0.000745 -0.004971 -0.004562 -0.000684 0.003660 0.001018 0.011040 0.001792 -0.003858 0.008631 -0.001902 -0.002673 -0.001139 0.002311 -0.009798 0.001916 0.000611 0.004514 0.008065 0.001596 0.010845 0.007624 -0.002626 0.006501 0.005391 0.005817 -0.003327 0.001553 0.005468 -0.001671 -0.000483 -0.000003 -0.002208 0.000321 0.005811 0.004988 0.003183 0.000037 -0.000359 0.003313 0.005279 -0.006520 0.003508 0.001298 0.005009 -0.004473 0.000509 -0.002447 0.003478 0.003500 0.001574 -0.002577 -0.000647 0.001664 -0.005010 0.003011 -0.000318 0.000929 0.008102 0.000313 0.003439 -0.007441 0.002086 0.004912 -0.004656 0.005851 -0.006186 0.007807 -0.000252 0.002241 -0.000169 0.000726 -0.000747 0.000922 -0.006517 0.000766 0.001132 -0.006490 0.002735 -0.001168 0.003498
headphone -0.007382 0.002170 -0.010033 0.000302 -0.000815 -0.001606 -0.003504 -0.005730 -0.001786 -0.003989 -0.001627 0.000114 -0.007361 -0.005988 -0.005499 0.000682 -0.002638 0.002191 -0.004304 -0.001225 -0.008359 -0.003415 -0.004169 0.006570 0.000156 0.011794 -0.001127 -0.012797 0.011224 -0.001050 0.002780 0.000057 0.004553 -0.010034 0.004282 -0.009288 0.000439 0.002965 -0.001146 0.013385 0.000949 -0.004044 0.003682 0.002225 0.009665 -0.001616 -0.001838 0.011204 -0.009230 0.003423 -0.004882 0.005844 -0.001994 0.007810 -0.000079 0.000861 -0.000246 0.007071 0.004530 0.000925 0.001683 -0.002990 -0.002784 0.006217 -0.002000 -0.003755 -0.004829 -0.000941 -0.002517 0.009716 -0.008509 -0.005640 -0.005275 -0.000690 -0.000929 0.004476 0.000508 0.012249 0.000406 0.001561 -0.003084 0.006154 0.001940 0.003171 0.005328 -0.000114 0.008778 -0.005348 0.000026 0.009243 0.006974 -0.003995 0.002264 -0.009192 0.003567 -0.000192 -0.001213 -0.003323 0.004694 0.004567
protector -0.010939 0.002403 0.002241 0.003649 0.001494 -0.007026 -0.001557 -0.000875 0.002573 -0.007847 0.016830 -0.007507 -0.001467 -0.019752 -0.016013 0.009032 0.005501 -0.000767 -0.009711 0.005298 -0.018028 -0.007243 -0.009071 0.004146 0.010296 0.014307 0.001131 0.004099 0.020114 -0.006421 0.007817 -0.006061 0.001997 0.000126 0.018182 0.001838 -0.010505 0.013182 -0.004551 0.019365 0.023039 -0.001689 0.001542 0.020725 0.014575 0.005562 -0.003779 0.012009 -0.006123 0.010175 -0.011179 0.013307 -0.008777 -0.003610 0.005243 -0.012785 0.000281 -0.007840 0.011525 0.018370 -0.007331 -0.001295 0.001846 -0.009521 -0.006152 0.004124 -0.022134 0.001244 -0.009658 0.003807 -0.000166 -0.016087 0.000161 -0.013866 0.004616 0.002138 0.002997 0.016052 -0.008879 0.002192 -0.001229 -0.009309 0.001005 -0.002909 0.007765 -0.009827 0.002205 0.001147 -0.004446 0.009523 0.008547 0.000830 0.004724 -0.023079 -0.006355 -0.000617 -0.011292 0.011968 0.008962 -0.003636
motorola -0.006215 -0.000625 -0.006026 0.000769 -0.001546 0.003579 -0.011327 0.004486 0.002745 -0.003929 0.004821 0.000031 -0.003125 -0.012004 0.004731 -0.002742 -0.008764 -0.000790 0.002867 -0.002181 -0.005207 -0.005920 -0.005767 0.002106 0.005624 0.014528 -0.003939 -0.007994 0.013676 -0.005035 0.000150 0.005177 0.007443 -0.007899 0.006921 -0.004651 0.002539 0.008990 0.000528 0.011228 0.004297 0.002381 0.001023 0.005687 0.014498 0.002448 0.001439 0.010087 -0.007529 -0.001553 -0.001480 0.002477 -0.008366 0.009453 0.000396 -0.004148 -0.001474 0.002435 -0.001057 0.008503 -0.000149 -0.005373 -0.001478 0.003427 -0.005461 0.004926 -0.006061 -0.003132 -0.001580 0.008563 -0.002386 -0.006675 -0.005200 0.003727 -0.000101 0.003256 0.009137 0.013455 0.001330 0.004132 -0.002416 0.002650 0.002038 0.000757 0.009472 -0.000049 0.005029 -0.004707 0.000247 0.005509 0.011105 -0.003933 0.001653 -0.004731 0.006913 -0.003074 -0.010403 0.005152 -0.003330 0.006504
small -0.003606 0.000787 -0.007723 -0.001729 -0.001748 -0.002297 -0.006641 -0.005252 -0.002021 -0.001636 0.001736 -0.000030 -0.000800 -0.010052 -0.005158 0.005957 -0.000675 -0.004654 -0.003685 0.001799 -0.010694 -0.004010 -0.005650 0.009828 -0.000166 0.014271 0.001855 -0.006806 0.013258 0.000614 0.000423 -0.006279 0.002600 -0.013268 0.006712 -0.005377 -0.001040 0.006963 -0.002107 0.014950 0.001989 0.002576 0.001341 0.010108 0.010285 -0.002610 -0.003567 0.008944 -0.008925 0.000839 -0.008945 0.006974 -0.002103 0.006929 -0.001375 -0.001651 -0.002241 0.002667 0.005866 0.013131 -0.006427 -0.001326 0.000602 0.000739 0.004184 0.001662 -0.009855 0.000293 0.004841 0.004981 -0.001995 -0.002911 0.000946 -0.004315 -0.000387 0.007854 0.006021 0.011129 0.002511 0.011577 -0.003296 0.002480 0.003256 -0.006614 0.008085 -0.005468 0.008024 -0.006224 0.001313 0.007277 0.007408 0.001695 -0.000466 -0.009936 0.002196 -0.004459 -0.005905 0.004371 0.002881 0.001034
life 0.012699 0.000323 0.006478 0.003361 0.005091 -0.004676 0.010356 -0.002387 -0.003201 0.000775 -0.000158 -0.000259 0.007724 0.006274 0.003669 -0.008025 0.006770 0.004195 -0.001919 -0.002510 0.008829 -0.004997 0.008185 -0.000012 -0.011172 -0.013924 0.004042 -0.004019 -0.011490 -0.002509 -0.000980 -0.005753 0.001472 0.004775 -0.005689 0.001516 0.001804 -0.008694 0.003261 -0.008219 -0.013497 0.011272 0.003819 0.000340 -0.007562 -0.006468 0.002363 -0.006238 -0.002286 0.010447 0.007363 0.004872 0.008923 0.001692 -0.009829 0.008088 0.010169 -0.015616 0.003426 -0.011582 0.009182 0.005547 0.000078 0.000795 -0.002097 0.001641 0.018029 0.002441 0.006234 -0.016925 -0.001922 0.019854 0.009996 -0.010415 0.005097 0.007786 -0.007293 -0.019803 -0.001551 -0.004003 -0.002105 -0.001802 -0.009220 0.007002 -0.005169 -0.012223 0.002582 0.004136 0.002507 -0.021647 0.000364 0.007637 -0.006900 0.004409 0.003069 0.005180 0.001921 0.004090 0.001473 0.008195
cell -0.001189 -0.000688 -0.002332 0.000281 0.004127 -0.002308 -0.000531 0.002703 -0.003020 0.004465 0.000310 -0.002678 -0.000605 -0.002164 0.002976 0.003466 0.002035 -0.002487 -0.004802 0.001336 0.005378 0.002544 0.003288 -0.000820 -0.001790 -0.001074 -0.001153 -0.000569 -0.004410 -0.000449 -0.001008 -0.001012 0.002343 -0.003658 -0.001947 -0.004034 0.002542 -0.002743 -0.001773 0.004234 0.001809 0.002129 0.003726 -0.002797 0.004394 -0.004799 0.005364 -0.003041 -0.004545 -0.002681 0.000448 0.004524 -0.004788 0.000955 0.002741 0.004669 0.005126 -0.001832 0.001721 -0.001548 -0.003100 0.002900 -0.002780 0.002405 0.003693 -0.003194 0.000938 -0.001500 -0.004013 0.002244 0.002668 0.002120 0.002813 -0.004207 -0.004598 0.000664 0.001862 0.003966 0.000803 0.001781 0.001111 -0.003608 -0.003780 -0.002956 0.003087 0.000889 0.001561 -0.003085 -0.001662 0.000967 -0.004060 0.002805 0.003080 -0.004798 -0.002948 0.000013 -0.003229 -0.003147 0.005197 -0.001567
app -0.000062 -0.000383 -0.002103 0.004606 -0.004969 0.002278 -0.005172 -0.004925 -0.004195 0.001999 0.005051 -0.001580 -0.005168 -0.007595 -0.000522 0.002346 -0.001463 -0.005212 0.000854 -0.002177 0.001484 0.003415 0.004979 0.002987 -0.001344 0.008796 -0.001397 0.000037 0.003237 0.000370 -0.003920 -0.001537 0.003142 -0.006576 0.003375 0.000689 0.004855 0.006184 0.001022 0.000942 -0.002329 0.003271 0.004798 -0.000959 0.006675 0.003420 0.001478 0.001926 -0.006120 0.001680 -0.003791 -0.002108 0.001591 0.008550 0.000433 0.002931 0.005526 -0.002119 -0.005698 0.000793 0.003010 -0.000117 -0.004594 0.005137 -0.001875 0.004503 -0.000050 -0.003473 0.002857 0.005045 -0.000560 0.003498 0.004517 0.002285 0.001850 -0.004307 -0.002251 0.006470 -0.000119 -0.000480 -0.001241 0.005510 0.003476 0.003569 0.004234 -0.001206 0.003995 -0.005914 0.006342 0.005310 0.001753 -0.003127 -0.003010 -0.003465 0.002242 0.001440 -0.008383 -0.001693 -0.001829 0.002765
charge -0.011045 0.002003 -0.009862 0.006391 -0.012166 0.002151 -0.014279 -0.001726 -0.002743 -0.006179 0.001398 -0.007011 -0.003937 -0.011820 -0.007182 0.004524 -0.005862 0.000025 -0.004576 -0.008960 -0.006320 -0.006340 0.001054 0.011574 -0.000186 0.015793 0.003935 -0.018780 0.016393 -0.008775 -0.001622 0.005688 0.009877 -0.015090 0.015765 -0.012215 0.003800 0.004420 -0.007095 0.011115 0.010815 0.000673 0.009525 0.007337 0.019394 -0.005844 0.007542 0.015004 -0.008404 0.009217 -0.011740 0.007681 -0.006367 0.017862 0.003015 0.000931 -0.002750 -0.002977 -0.005391 0.002890 -0.002744 0.000831 -0.007978 0.005819 0.001107 -0.002409 -0.014108 -0.003877 -0.000553 0.006412 -0.008826 -0.009041 -0.002014 -0.009396 0.002539 0.007143 0.010640 0.024773 -0.002447 0.011089 -0.004977 0.008922 -0.001976 0.001732 0.012843 -0.002058 0.013600 0.001280 0.005098 0.016187 0.014163 0.000273 0.001228 -0.011145 0.009219 -0.007623 -0.014929 0.007447 0.007081 0.005880
hour -0.012310 -0.004131 -0.006893 -0.001161 -0.003208 0.004647 -0.013130 -0.006129 0.002663 -0.001462 -0.000235 -0.004368 -0.004577 -0.005656 -0.004989 0.004866 -0.000548 -0.002314 -0.006064 -0.005703 -0.008635 -0.004116 -0.004172 0.005007 0.006254 0.017338 0.002601 -0.008021 0.011616 -0.009190 -0.001130 0.002558 0.009141 -0.016997 0.011137 -0.013207 -0.001040 0.006128 -0.006291 0.014227 0.004263 0.008048 0.011189 0.002009 0.007415 -0.003397 0.000689 0.011913 -0.008822 0.005927 -0.009701 0.001901 -0.008596 0.011353 0.001642 -0.003639 0.005114 0.000518 -0.006320 0.001958 -0.005335 0.003365 -0.002569 0.006133 0.005056 -0.002722 -0.012781 -0.002190 0.003677 -0.005395 -0.013719 -0.006954 -0.008030 -0.007892 0.007163 0.009181 0.001292 0.020533 -0.000293 0.008922 -0.011154 0.002176 -0.003782 -0.001396 0.005294 -0.011618 0.013139 -0.001799 -0.000064 0.001472 0.004386 -0.000677 -0.003782 -0.013489 0.005025 -0.006234 -0.013760 -0.000185 0.001426 0.011873
video -0.003343 0.001750 -0.004968 -0.006442 0.000496 0.003433 -0.004592 0.003290 0.002442 -0.002417 0.000912 -0.002575 0.002597 -0.011693 -0.000629 0.002414 -0.002137 -0.006174 -0.004947 -0.003165 -0.008388 0.004188 0.001546 0.008297 -0.000422 0.015793 0.000499 -0.000945 0.006838 -0.001329 0.001866 0.007143 0.003873 -0.006758 0.010334 -0.006668 -0.005214 0.001354 0.001402 0.010746 0.000076 0.004513 0.000317 0.003385 0.002763 -0.000824 0.001589 0.010324 -0.006842 0.002949 -0.002626 0.000752 0.001574 0.004269 0.005026 -0.005414 0.004459 0.001551 -0.006374 0.001123 -0.002483 0.000801 -0.000376 0.005527 0.001321 -0.003797 -0.002337 0.003016 -0.001396 0.003924 -0.002785 -0.010237 -0.001390 0.003819 0.004329 -0.002121 0.002259 0.008678 -0.000759 0.009005 -0.002845 0.006960 0.001276 0.000790 0.011196 0.003111 -0.001336 0.001001 0.005055 0.008909 0.007441 -0.006275 -0.006775 -0.007557 0.008811 -0.001038 -0.010191 -0.001018 0.000171 0.002020
side -0.006709 -0.004971 -0.012420 -0.000325 -0.008973 -0.001123 -0.012607 -0.001126 0.004940 0.002046 -0.001935 -0.003648 0.002078 -0.009979 -0.008627 0.006233 -0.001318 0.001153 -0.000623 -0.004556 -0.009656 -0.000936 -0.002558 -0.001605 0.007942 0.010033 0.005615 -0.004452 0.008182 0.002887 -0.000200 0.004613 0.001098 -0.016486 0.012394 -0.011814 -0.011545 0.002954 -0.003869 0.011289 0.001701 -0.006540 0.006332 0.011340 0.002657 0.006736 -0.008634 0.006641 -0.002154 -0.001805 -0.004603 0.006197 -0.005475 0.010025 0.002704 -0.002489 0.006291 0.002097 -0.002320 0.008678 -0.001517 -0.008967 -0.002692 -0.003761 0.003063 -0.004363 -0.010415 0.002084 0.009057 0.008349 -0.008963 -0.012122 -0.005149 0.003450 0.000190 0.005322 0.004211 0.015597 -0.004344 0.013323 -0.002234 0.005854 -0.007181 -0.005247 0.004324 -0.006165 0.012807 -0.001583 0.002672 0.004388 0.004520 0.005517 -0.001700 -0.017373 0.007948 -0.005964 0.000306 0.009930 0.004658 0.006313
service -0.008409 -0.002094 -0.003548 -0.004005 -0.006945 0.000191 -0.007568 -0.000683 -0.000977 0.003095 0.002235 -0.001247 -0.003142 -0.011732 -0.000500 -0.000535 -0.002060 0.001565 0.000187 -0.003071 -0.003044 -0.005809 -0.001496 0.009846 0.004513 0.015259 0.006338 -0.012848 0.008011 0.000914 0.003223 0.002556 0.004969 -0.009763 0.009241 -0.006183 0.001973 0.000085 -0.009642 0.012327 0.003496 -0.000311 0.001178 -0.002170 0.010709 0.004480 0.006038 0.002081 -0.001863 0.002227 -0.010964 0.007153 -0.008901 0.003798 0.000831 -0.004391 -0.000087 0.003448 -0.001908 0.000294 0.003093 -0.003830 -0.003057 -0.002262 0.004420 -0.003834 -0.008274 0.002211 0.001248 0.006577 -0.006142 -0.007602 0.001932 -0.003290 0.001381 0.004799 0.003131 0.018662 -0.003268 0.008004 -0.010653 0.000974 -0.002828 -0.005855 0.001757 -0.006206 -0.000211 -0.007786 0.000949 0.007007 0.001759 -0.003948 -0.001697 -0.007455 -0.003024 0.002136 -0.003656 0.002998 -0.000391 0.000272
volume -0.004260 -0.004424 -0.007681 0.002823 -0.003156 -0.001893 -0.002536 0.000334 0.000646 0.001533 -0.009654 0.004010 0.002109 0.002583 -0.002065 0.004687 0.006190 0.007560 0.000207 -0.002209 0.001449 0.003677 -0.000961 -0.007095 0.003697 -0.010851 0.002238 -0.001216 -0.007779 -0.002388 0.004080 0.003846 -0.004548 -0.005150 -0.004425 -0.003248 -0.001962 -0.005467 0.001657 -0.001040 0.000320 -0.005261 -0.002974 0.000198 -0.006211 0.002265 -0.006602 -0.006832 0.008445 -0.003691 0.000822 -0.005432 -0.002631 0.001350 0.003869 -0.005467 0.000844 0.003046 -0.002821 0.001003 0.001812 -0.002323 -0.006037 -0.000159 -0.003302 0.002287 -0.000635 0.009451 0.007555 -0.001190 0.000287 -0.000346 -0.001555 0.004611 0.000688 0.004731 0.002395 -0.004540 -0.004908 -0.002786 0.002350 0.006314 -0.003873 0.004934 -0.003192 0.001516 0.003356 0.001711 -0.003415 -0.003491 -0.001927 0.000442 0.003950 0.001654 -0.005199 0.002497 0.008231 0.006778 0.002716 0.000823
keyboard -0.005131 0.002252 -0.002616 -0.004039 0.001063 0.005097 -0.007698 0.001196 0.006267 -0.003659 -0.001712 -0.004184 -0.003702 -0.005046 -0.002829 0.003092 0.000727 -0.001974 -0.008004 -0.000790 -0.001697 -0.004488 -0.004590 0.004721 0.003373 0.012638 0.005392 -0.005888 0.005181 -0.004592 0.004486 -0.001582 0.006470 -0.007420 0.003839 -0.004581 -0.002407 0.008299 -0.002904 0.008551 0.003883 -0.000775 0.003777 0.005655 0.006235 0.005640 0.001899 0.006939 -0.007145 0.005604 -0.006172 -0.000946 -0.001098 0.008872 0.007557 0.000160 -0.002472 0.000976 0.004870 0.005262 -0.001101 -0.004619 -0.006442 0.001103 0.003343 0.000581 -0.008077 -0.000077 0.002724 0.003955 -0.006605 0.000320 -0.005133 -0.003710 0.005929 0.006978 0.004021 0.009772 -0.000593 0.004172 -0.007831 -0.002219 -0.004353 -0.002619 0.007872 -0.005555 0.003722 -0.002732 -0.000419 0.002397 0.006582 0.001831 -0.000970 -0.008736 0.004979 -0.005191 0.002687 -0.000124 0.004912 0.000003
light -0.006153 -0.004548 -0.007780 0.000176 -0.006141 -0.000041 -0.006065 -0.005262 0.004917 -0.003659 0.000678 -0.001734 -0.005307 -0.001762 -0.000551 0.006902 -0.004642 0.001683 -0.008495 0.000228 -0.005733 -0.001808 -0.006062 -0.000099 0.005030 0.005781 0.005847 -0.004704 0.006874 0.002825 0.003314 -0.003746 0.003016 -0.002135 0.004756 -0.002964 -0.006640 0.006893 0.002624 0.005798 0.002644 0.002170 -0.001267 0.009267 0.001729 -0.000950 0.003243 0.008630 -0.009179 0.006435 -0.001173 0.000770 -0.002148 0.008952 0.007264 -0.003683 -0.002412 0.004120 0.001457 0.010259 0.002243 -0.004196 -0.003692 0.001650 0.007029 0.000038 -0.011871 -0.004389 0.000898 0.004876 -0.006109 -0.000010 0.002471 -0.004853 0.002827 0.003950 0.005616 0.010711 -0.004055 0.010938 -0.002778 0.005855 0.004802 -0.008869 0.010655 0.000525 0.010996 -0.004199 -0.001251 0.010092 0.006221 -0.001450 -0.002783 -0.012666 0.002020 -0.006825 -0.004329 0.007399 0.000467 0.002618
text -0.002739 0.004411 0.006608 0.001902 0.002128 0.000024 -0.003805 -0.001731 0.000469 0.003886 -0.000831 0.004546 -0.001512 -0.003692 -0.001390 -0.003157 0.003431 -0.004835 0.002741 0.000633 -0.003681 0.002918 -0.002747 0.003063 -0.005238 -0.000771 -0.004317 0.000762 -0.003532 0.004292 0.003440 -0.000083 0.003530 0.005174 -0.006818 -0.000711 0.005817 0.000502 -0.005104 -0.004470 0.001026 0.003723 -0.001068 0.000562 -0.002209 0.002759 0.004123 0.001886 -0.002299 0.001038 -0.000856 0.004291 0.002765 0.001812 -0.004176 0.001023 -0.003599 0.001994 -0.004684 0.004088 0.005679 0.002114 0.000334 -0.003562 -0.004853 0.004159 0.006359 -0.001827 -0.001104 0.001822 0.003946 0.004596 0.006234 0.000284 -0.006747 -0.000815 0.002676 -0.002400 -0.003313 0.003039 -0.005457 0.001841 0.002030 0.000466 -0.002921 0.000508 -0.004339 -0.003283 -0.006160 -0.001255 0.004227 0.002269 -0.003310 0.000832 0.005066 0.000279 0.004027 0.001578 -0.004870 0.002573
droid -0.013041 -0.007465 -0.012665 0.004532 -0.003671 -0.001433 -0.010312 0.000236 0.000063 -0.007677 0.001570 -0.007898 -0.009280 -0.010087 -0.004932 0.005726 -0.004707 -0.001728 -0.005156 -0.004410 -0.007822 -0.002874 -0.006409 0.011050 0.002974 0.022535 -0.001779 -0.013710 0.018270 -0.008829 -0.000189 0.004135 0.007877 -0.013304 0.006901 -0.006644 0.002075 0.010649 -0.007316 0.019646 0.012249 -0.002386 0.009739 0.005558 0.017730 -0.002897 0.001573 0.009683 -0.006380 -0.000001 -0.007449 -0.001231 -0.007333 0.014559 0.008949 -0.001136 -0.002622 0.005353 0.000771 0.010286 -0.002086 -0.007450 -0.001962 0.004376 -0.001059 0.004336 -0.012278 0.001314 0.003812 0.007022 -0.008252 -0.007491 -0.002285 -0.001716 0.001322 -0.000810 0.003811 0.021638 -0.005628 0.010651 -0.012795 0.003989 -0.002347 0.002163 0.004617 -0.010553 0.015018 0.001889 0.009650 0.007572 0.011211 -0.001400 -0.004494 -0.013703 0.008404 -0.008624 -0.009167 -0.000223 0.003867 0.010004
voice -0.003426 0.000021 -0.007194 -0.002657 -0.006655 0.006028 -0.014122 0.003289 -0.004229 0.000035 0.002204 0.000238 -0.009554 -0.011819 0.001426 0.007083 -0.001960 -0.002811 -0.003135 -0.003426 -0.010550 -0.003535 -0.000831 0.002647 -0.000786 0.013512 0.004926 -0.015406 0.012430 -0.003616 0.000255 0.000528 0.009571 -0.012715 0.002361 -0.011119 0.001529 0.002971 -0.001656 0.008391 0.000265 0.002376 -0.001871 0.000913 0.018902 -0.001439 0.004104 0.010386 -0.006746 0.007760 -0.004373 0.001594 -0.006178 0.010269 0.001118 0.001862 0.004195 0.001343 -0.000862 0.003892 0.002209 -0.004595 -0.005250 0.001746 0.001690 -0.002149 -0.006853 0.001739 0.003061 0.008651 -0.007153 -0.008824 -0.004682 -0.004604 0.002948 -0.000859 0.013449 0.016550 -0.000811 0.013760 -0.010830 0.006920 0.001809 -0.004734 0.008749 -0.000883 0.004554 0.001186 0.000016 0.009937 0.002877 0.002147 -0.000627 -0.015055 0.001701 -0.004940 -0.006546 -0.002798 0.001872 0.001756
touch -0.010936 -0.005527 -0.002659 0.001837 -0.002914 0.003313 -0.007234 0.003604 0.005867 -0.007728 0.008288 -0.000986 0.000468 -0.008002 -0.009838 0.004610 0.003191 -0.004522 -0.011099 -0.003188 -0.014103 -0.004496 -0.011013 -0.000021 0.009580 0.011635 0.005873 -0.005756 0.010459 -0.001616 0.001487 -0.006653 0.001324 -0.000816 0.004387 -0.002092 -0.003041 0.008654 -0.005527 0.017127 0.011893 0.005280 0.001118 0.015319 0.013536 -0.001815 0.000602 0.003848 -0.003587 0.003637 -0.009087 0.002045 -0.001356 0.003670 0.001465 -0.005488 -0.002453 -0.001107 0.000862 0.007676 -0.006688 -0.000740 -0.002406 0.000805 -0.002063 -0.004413 -0.011270 -0.005329 -0.005970 0.008301 -0.003916 -0.005956 0.000398 -0.009118 0.003315 -0.000654 -0.000652 0.017249 -0.002753 0.007452 -0.002674 -0.004954 -0.001448 -0.005759 0.010963 -0.000819 0.000946 -0.000293 0.001749 0.007133 0.007880 -0.002731 0.002396 -0.017873 0.002665 -0.005204 -0.005870 0.004034 0.000635 0.006954
pocket -0.006786 -0.001012 -0.004765 0.002738 -0.009258 0.001327 -0.014321 0.001172 0.004107 -0.004522 0.001720 -0.003322 -0.001572 -0.011319 -0.007868 0.007778 -0.006832 -0.003886 -0.008330 -0.001180 -0.009951 -0.006908 -0.006621 0.009901 0.008111 0.015305 0.006028 -0.016350 0.009719 -0.006333 0.005037 -0.002864 0.005285 -0.010740 0.005068 -0.010355 -0.003652 0.011181 -0.003591 0.015019 0.010365 -0.000854 0.002145 0.003031 0.016513 0.004160 -0.000240 0.013046 -0.006608 0.002727 -0.007601 -0.001060 -0.009334 0.008649 0.003313 -0.006894 -0.004233 0.000825 -0.000392 0.003788 -0.001702 -0.004648 -0.000022 0.005760 0.001033 -0.003684 -0.008746 -0.003477 0.002493 0.010567 -0.010593 -0.005721 -0.007576 -0.005159 0.003253 -0.000435 0.003788 0.025899 0.000596 0.007308 -0.005027 0.004237 0.001097 -0.004967 0.011020 -0.002424 0.010508 -0.002381 0.010132 0.006578 0.010803 -0.005710 -0.007344 -0.016532 0.006974 -0.008224 -0.010879 0.002283 0.006275 0.007765
cheap -0.005362 -0.003351 -0.008058 -0.001691 -0.005302 -0.001491 -0.004704 0.004684 0.003086 -0.004801 0.005790 0.002618 -0.002394 -0.006443 -0.001197 0.002258 -0.001744 0.000647 0.001110 -0.001979 -0.007347 0.002205 0.000490 -0.002117 -0.002766 0.006149 0.003335 0.000065 0.004523 -0.000343 0.003451 -0.002731 0.005675 -0.002517 0.000083 0.003969 -0.002816 0.005365 0.002107 0.004602 0.001732 -0.005050 -0.002327 -0.000308 0.006419 0.001996 0.003920 0.007271 0.001009 0.000439 -0.004902 -0.001618 0.003236 0.003513 0.003613 -0.001502 0.003501 0.002344 0.002692 0.003765 -0.003675 -0.002739 0.001548 0.003986 0.000690 0.001340 0.000231 -0.005695 0.003524 0.005635 -0.001443 -0.002803 -0.002129 0.003365 -0.006572 0.004760 0.000057 0.001464 0.003285 -0.001252 0.001774 -0.002174 0.003568 -0.002455 0.001208 -0.005610 0.001706 -0.005034 0.004527 0.006309 0.002987 0.004628 -0.002734 -0.003194 -0.003532 0.002034 -0.001233 0.003021 -0.004525 0.004941
number 0.000577 0.001614 0.001585 -0.003302 -0.005351 0.004642 0.001482 -0.002151 -0.002777 0.003459 0.000708 0.000126 -0.003433 -0.002538 -0.000508 0.002834 -0.005490 0.002200 -0.004013 -0.004140 -0.005363 0.001481 -0.001799 0.002043 -0.004731 0.006000 0.000318 -0.007569 -0.001713 -0.006780 0.003375 -0.004824 -0.001135 -0.006934 -0.003052 -0.003274 -0.003142 0.007114 0.001806 0.002208 0.005400 0.003138 0.005297 -0.000206 0.008868 -0.001362 0.002582 0.007783 -0.007577 0.006851 -0.004648 0.002761 0.001126 0.005545 -0.000959 -0.000249 -0.003557 -0.001234 0.001071 0.000612 0.001207 -0.000505 -0.002268 -0.002477 -0.002215 0.003787 -0.001469 0.001149 -0.001091 0.002858 -0.007067 0.003826 0.001822 -0.000651 -0.002026 0.000143 0.001591 0.001633 -0.004653 0.000749 -0.000908 -0.003500 -0.002075 -0.007560 -0.000571 -0.006521 0.001157 0.003968 -0.002499 0.001735 -0.000805 -0.003092 0.000124 -0.007799 0.006098 0.002920 -0.002870 -0.006741 0.005623 0.004661
piece -0.007260 -0.000015 -0.001692 0.002948 0.002113 0.004979 -0.002114 -0.004242 -0.003144 -0.000557 0.006129 0.001825 -0.003088 0.000989 -0.003877 0.003013 -0.001649 -0.004200 -0.001635 -0.000453 -0.003615 0.000318 0.000722 0.000258 0.002497 0.004174 0.002186 -0.002334 0.007979 0.000718 0.004493 -0.005320 -0.005522 -0.004112 0.002573 0.000771 -0.003619 0.001394 0.002334 0.005834 0.001731 0.003142 0.000990 0.002078 0.004953 -0.002163 0.001182 0.003467 -0.001369 -0.004055 -0.004689 -0.003978 -0.008529 0.001762 0.003181 -0.006745 0.004194 0.005342 0.000668 -0.000327 -0.000304 0.004661 0.002290 0.000290 0.003998 -0.000373 -0.003467 -0.004846 0.004019 0.002071 -0.000652 0.005190 -0.000344 -0.002450 -0.002857 0.002436 -0.004964 0.000049 -0.005204 0.005526 0.001908 -0.000002 -0.000773 0.003466 -0.001045 0.001233 -0.000232 -0.004941 -0.002941 0.002397 -0.002804 0.002506 0.001645 -0.000510 -0.001509 -0.004614 0.001986 0.001183 0.004544 -0.002239
hard -0.006126 0.000527 -0.002155 0.003447 0.000706 -0.003912 -0.004530 0.000391 0.001239 -0.004624 0.003292 0.002209 -0.004623 -0.003322 -0.003122 0.004772 -0.005650 -0.001391 0.000260 -0.000607 -0.002770 0.002323 -0.002830 0.006713 0.006968 0.010820 0.001751 -0.001831 0.006236 -0.003484 0.003110 0.002827 0.005048 -0.008473 0.005223 -0.004125 -0.001736 0.003638 0.000769 0.013988 0.000446 -0.000908 -0.003643 0.008240 0.011585 0.002418 0.003893 0.008581 -0.005736 -0.001502 -0.005429 -0.001078 -0.005619 0.010475 -0.001022 -0.005545 0.002370 0.000116 0.004925 0.000845 0.001434 0.001823 -0.001789 0.006032 0.004640 0.003970 -0.002777 0.001869 -0.002820 0.006875 -0.002856 -0.007302 -0.001287 0.001387 -0.002516 0.005326 0.008941 0.011182 0.001836 0.010903 -0.000708 -0.002742 -0.003603 -0.005839 0.008733 -0.004783 0.007007 -0.002001 0.002067 0.004902 0.000708 0.003726 -0.001890 -0.008605 -0.000707 -0.003675 -0.008739 0.001087 -0.000817 -0.001858
money -0.006897 -0.004331 0.000504 0.000150 -0.002315 0.003510 -0.001497 0.001483 0.004149 -0.006187 -0.003233 -0.003123 0.001440 -0.001237 -0.003731 0.004962 0.003410 0.005388 -0.000717 -0.005624 0.000117 -0.002793 -0.004574 0.003166 -0.003073 0.001199 0.003382 0.001760 0.004610 0.003015 0.003200 0.001037 0.004385 -0.006799 0.001067 -0.006159 0.003672 0.006154 0.003288 0.003041 0.000938 -0.006359 0.006030 -0.000665 0.001242 -0.001596 -0.000328 0.001174 0.001518 0.000926 -0.002065 0.000920 -0.003713 0.004075 -0.004122 -0.005360 0.000013 -0.000020 -0.004257 0.001356 -0.003464 -0.004703 0.001356 0.003347 -0.003295 0.000728 -0.001288 -0.003163 0.003136 -0.000364 -0.006016 -0.000754 -0.005898 0.002242 0.000980 0.004669 -0.001397 0.001933 -0.000452 -0.002304 -0.000986 0.002403 0.002264 0.000811 -0.002434 0.001827 -0.000758 -0.001773 -0.002329 0.004399 0.001888 0.003128 0.004049 -0.007288 0.001836 0.002053 -0.001478 0.006343 -0.001615 -0.000547
picture -0.006607 -0.002906 -0.007511 -0.004299 -0.003264 -0.004753 -0.005992 0.003115 -0.005461 0.000081 -0.000381 0.001083 0.002471 -0.006747 -0.001294 -0.004642 -0.001493 0.001154 0.003572 -0.001406 -0.008499 0.001014 0.001095 0.002199 -0.003408 0.002569 -0.000228 -0.003009 0.007845 -0.004419 -0.000489 -0.000788 0.001298 -0.005713 0.004511 -0.008039 0.000049 -0.004056 -0.006471 0.000311 0.006994 -0.001480 0.006035 -0.001838 0.007676 0.000707 0.000079 0.002278 -0.004107 0.003255 -0.001808 0.006435 0.003681 0.007915 0.004933 -0.003069 0.000133 0.000893 0.000877 -0.000373 0.003394 0.002589 -0.003109 -0.000422 -0.002088 0.003592 -0.005490 0.004226 0.000651 -0.001221 -0.001356 -0.006403 -0.000564 0.000526 -0.003315 -0.001736 0.005297 0.010586 0.000061 0.002349 -0.005781 0.003370 0.000626 0.002255 0.006895 0.001114 0.004514 0.001965 0.001796 -0.000047 0.004830 0.000963 0.004178 -0.006303 0.000151 -0.003037 -0.010360 0.001663 -0.000426 0.000601
nokia 0.000414 -0.006878 -0.008747 0.003678 -0.003632 0.001672 -0.002760 -0.000521 0.002161 0.002308 0.004867 -0.005322 -0.004865 -0.006242 -0.005246 0.003447 -0.003587 -0.001176 -0.006112 -0.001733 -0.006478 -0.005937 -0.005240 0.001883 -0.000160 0.014240 0.000158 -0.005438 0.003155 0.000432 -0.005674 0.002843 -0.000941 -0.009211 0.001418 -0.002158 -0.005489 0.003344 -0.000774 0.007379 0.005510 -0.000475 0.001072 0.006148 0.011969 0.003024 0.003781 0.003038 -0.005946 0.004039 -0.001792 0.007186 -0.004309 0.012195 -0.002638 0.001243 0.003958 -0.001940 -0.004907 0.005139 -0.000983 0.000955 -0.001620 0.000596 -0.000839 -0.003186 -0.006777 0.002154 -0.001041 0.000736 -0.009401 -0.005653 -0.000694 0.000231 0.001704 -0.002577 0.008331 0.008674 -0.002786 0.003056 -0.000314 0.000586 0.004110 -0.006387 0.003608 -0.007958 0.009498 -0.000416 0.002977 0.009104 0.004309 0.001232 0.000561 -0.011018 0.000916 -0.000710 -0.008894 0.005552 0.003550 0.006410
clear -0.005891 -0.001282 -0.006040 0.001001 -0.001437 0.004266 -0.000404 -0.003604 0.001184 0.002280 0.003161 0.001357 0.004562 -0.005496 -0.005187 0.001300 0.001932 0.003790 0.000684 0.001147 -0.004469 -0.000016 -0.002229 0.002444 0.000429 -0.003517 -0.002153 -0.000062 0.000144 0.001412 -0.003580 0.004060 0.005519 0.002028 -0.003561 -0.005327 -0.007177 0.004031 -0.003060 -0.003065 0.001108 -0.002554 -0.002606 -0.000201 0.000157 0.005151 0.000867 0.003276 -0.004146 0.001470 0.001694 -0.004227 0.003500 0.005791 0.005833 0.001899 0.004838 0.001485 0.001900 0.000197 0.002574 -0.004238 -0.002664 -0.002898 0.000298 0.002172 -0.003534 0.002596 0.002966 -0.003062 0.000892 -0.004452 0.004142 -0.004089 -0.001293 -0.000341 0.005702 0.001027 -0.002774 -0.001667 -0.000825 0.005046 0.001398 -0.006353 0.003296 0.003565 0.004766 0.001108 -0.002050 0.003415 -0.002245 0.001924 -0.001311 -0.002251 -0.004036 -0.003058 0.005318 0.000862 -0.001245 0.003806
speaker 0.002106 0.001849 -0.000780 0.003723 0.001765 -0.003043 -0.003076 -0.001963 -0.002814 0.000110 0.005545 -0.005190 0.004042 -0.000786 -0.001333 -0.001479 -0.005892 -0.004416 0.001634 -0.000617 -0.001373 0.002383 -0.002056 0.004281 -0.002560 -0.001793 0.003681 0.003096 0.003082 0.001709 -0.001354 0.003397 -0.000955 -0.004249 -0.004467 0.000076 0.002537 -0.000843 -0.002474 -0.000324 -0.001259 0.002531 -0.002198 -0.001143 0.005299 -0.002336 -0.003700 0.004872 0.000016 -0.000006 0.000279 -0.004749 -0.003174 -0.000963 0.000581 -0.004692 -0.004452 0.002244 0.004132 0.000252 -0.001429 0.001275 -0.004319 -0.002138 -0.003085 -0.004906 -0.006957 -0.002783 -0.004373 0.003181 0.000184 -0.000792 -0.002192 0.002929 0.000103 0.001005 0.004582 -0.000409 0.004015 0.000638 0.000014 0.001878 -0.001860 -0.002457 0.001250 0.000838 -0.001337 0.002899 0.002528 0.000353 0.006431 0.000416 0.001517 -0.003332 0.002530 -0.001168 -0.000071 0.000552 -0.001291 -0.001796
contact -0.003751 -0.005676 0.000292 -0.003515 -0.001542 0.001343 -0.000864 -0.003620 0.000873 0.002085 0.007862 -0.001757 -0.006097 -0.004164 -0.003960 0.004695 -0.002839 -0.006832 -0.001543 0.004377 0.000785 -0.007314 -0.000491 0.005034 -0.000581 0.003932 -0.001141 0.001465 0.004363 0.003678 0.000922 0.004876 0.004280 0.002379 0.004010 -0.003523 0.000023 0.006956 -0.005223 0.005464 0.000920 0.005128 0.004862 0.002302 -0.000351 -0.001892 0.000835 0.000721 0.000316 0.000154 0.002340 -0.002186 -0.005111 -0.001521 0.003320 -0.004530 -0.001946 0.000363 -0.002107 0.002698 0.000820 -0.004637 -0.004254 -0.004625 0.001986 -0.001782 -0.002519 -0.005401 -0.004276 0.002997 -0.001712 0.003119 0.002963 0.000255 -0.002941 -0.003268 0.001618 0.004427 0.000408 0.002184 0.003394 -0.001184 -0.000502 -0.006417 -0.000262 -0.005519 0.005596 -0.000619 0.002731 0.007341 -0.002254 0.000777 -0.001801 -0.004430 0.004720 0.000691 -0.007525 -0.002542 -0.000628 -0.000855
user -0.007297 -0.004487 -0.002859 0.005423 0.000881 0.000783 -0.006924 0.000474 0.001812 -0.000125 0.001467 -0.003052 -0.000145 -0.002660 -0.002693 0.004930 -0.002332 -0.000198 -0.006924 0.001099 -0.006616 -0.000831 0.004069 -0.001256 0.001783 0.008236 0.003828 -0.009672 0.003808 0.001665 -0.000370 0.001900 0.006429 -0.003244 0.005384 -0.001373 0.001317 0.001699 -0.006753 0.010531 0.006177 0.000815 0.003173 0.005945 0.001319 0.000084 0.001399 0.000407 -0.002026 0.000014 -0.005598 0.006241 -0.003661 0.003897 -0.001341 -0.001915 -0.001644 0.001316 -0.002946 0.001517 -0.002592 0.002375 0.001676 0.004893 -0.002032 -0.002055 0.000172 -0.002250 -0.002578 0.004740 -0.001365 -0.001640 0.000966 -0.000072 0.003467 0.003232 0.004953 0.004997 0.002687 0.008701 -0.000833 0.000014 0.004868 -0.005363 0.004921 -0.003899 0.004075 0.003011 -0.001884 -0.001606 0.004456 0.003437 -0.001952 -0.002030 0.003795 0.001350 -0.001506 -0.005916 0.002258 0.005425
comfortable 0.004797 0.005726 -0.002756 -0.002499 -0.003197 0.002753 0.000108 0.002732 -0.003947 -0.001671 0.005886 0.003064 -0.002599 0.004156 -0.005218 0.000702 0.000487 0.001441 -0.000808 0.001861 0.001123 -0.004390 -0.004384 0.003649 -0.000982 0.005442 -0.002791 0.000368 -0.003040 0.000326 -0.006145 -0.000437 0.002983 0.002938 -0.003099 -0.003182 0.006602 0.000548 0.002877 -0.003764 0.001832 0.006133 0.000101 0.004390 0.002172 0.000420 -0.001386 0.004199 -0.003152 0.005122 -0.005880 0.000935 -0.002461 -0.004552 -0.004942 -0.004363 -0.001444 0.000574 0.004113 -0.003153 -0.003033 0.002386 0.001881 -0.002136 0.000573 0.001295 -0.002911 0.002436 0.003513 -0.000033 -0.001076 -0.000891 -0.000072 -0.002575 0.002985 -0.003625 0.001094 0.003708 0.005358 -0.002405 0.003653 -0.002615 -0.002320 0.002811 0.001502 0.002387 -0.001767 -0.001425 -0.003052 -0.001670 0.000647 -0.004034 -0.002723 0.004290 -0.002557 0.002442 0.003532 0.004246 -0.001712 0.004869
star 0.003713 0.001805 -0.002040 0.004338 -0.001198 -0.003115 0.002639 0.001421 0.005306 -0.000574 -0.004507 0.002548 -0.002725 0.003349 0.001864 -0.000691 -0.003914 -0.003706 0.003464 0.001004 -0.003029 0.002597 0.000148 -0.002145 -0.000223 -0.001719 -0.003182 0.002738 0.001891 -0.002995 0.002388 -0.004380 0.003605 0.001511 0.003654 -0.003011 -0.002018 -0.000608 0.001712 0.001634 -0.001877 0.004250 -0.004219 -0.004070 0.000751 0.002968 -0.002309 0.002855 -0.004121 0.002428 -0.000835 0.002796 -0.005109 0.003872 -0.000729 -0.004866 0.003782 -0.002971 -0.001411 0.004344 0.001041 -0.002613 -0.001457 0.000362 -0.004944 0.004713 -0.002224 0.002315 0.001681 0.001184 0.002122 0.002342 -0.004138 -0.004948 0.001289 0.001857 -0.005092 -0.002195 0.003872 -0.003120 0.001422 -0.003480 0.000150 -0.003723 0.000745 -0.001752 -0.002125 0.004948 0.003951 0.002884 -0.005230 -0.001455 -0.003354 0.003353 -0.001507 0.004235 -0.001071 0.005028 -0.003534 -0.002566
evo -0.001345 0.001442 -0.000097 0.001615 -0.004229 0.004200 0.005537 -0.005235 0.002901 0.002263 0.001769 -0.001573 -0.001410 0.000303 0.000079 -0.001420 -0.001828 -0.007681 -0.002540 -0.002322 -0.005370 0.003932 -0.001962 0.005917 0.004552 0.005680 -0.002195 -0.002160 0.001221 -0.002047 -0.002897 -0.003215 -0.001011 -0.001076 0.000483 -0.003476 0.003724 -0.002599 -0.004634 -0.001647 0.001522 0.004045 -0.001203 -0.003636 -0.000719 0.004838 0.004906 0.005421 -0.008273 0.004346 0.000491 0.005059 -0.000385 0.002854 -0.002515 -0.000196 0.002578 0.001491 -0.000807 -0.002204 0.001277 0.005965 0.000815 0.000151 0.003514 -0.003012 0.003817 -0.006979 -0.004156 -0.006976 0.000510 0.003716 -0.000238 -0.003211 -0.000614 -0.002921 -0.000814 0.004480 0.002625 0.003933 -0.001393 -0.003687 -0.000850 -0.001649 -0.001002 -0.006730 0.003275 0.002032 0.000394 0.002370 0.002830 -0.000732 0.001394 -0.006330 -0.000639 -0.003569 -0.004332 -0.004364 0.007623 0.004834
software -0.002223 -0.000640 -0.001318 -0.001560 0.000421 0.005399 -0.001288 0.001708 0.003257 -0.002207 -0.000253 -0.000291 -0.000199 -0.004236 -0.001713 -0.002956 -0.006799 0.002658 -0.005899 -0.000044 -0.006232 -0.001331 0.000413 -0.002484 0.003524 0.009032 -0.003024 -0.004410 0.001668 -0.004968 -0.002319 0.002040 0.007028 -0.002993 0.007913 -0.000583 -0.004122 0.006099 0.004369 -0.000905 0.001645 0.005232 0.006066 -0.000787 -0.000087 0.000073 -0.003057 0.001088 0.002324 -0.000996 0.001013 -0.002384 -0.000077 -0.000842 -0.002288 0.001516 -0.002138 -0.000189 0.004100 0.000957 0.003837 0.000212 0.001428 0.003507 -0.002839 0.002056 -0.005103 0.001307 0.002754 0.000834 -0.001519 -0.005179 0.004349 -0.002433 0.000733 -0.002395 0.004450 0.001777 -0.004566 0.007786 -0.003423 -0.000387 -0.002022 -0.000451 -0.000397 -0.002132 0.004946 0.001420 0.006013 0.006666 -0.001063 0.002071 0.004342 -0.002386 0.005524 0.001615 0.000623 0.000873 0.001867 0.004578
size -0.006981 0.001003 -0.002003 -0.001773 -0.000169 0.001389 -0.008841 -0.004959 -0.000895 0.001723 0.005530 -0.004991 -0.005871 -0.002404 0.000173 0.004797 -0.008520 -0.004186 -0.000112 0.000627 -0.005922 0.003609 -0.000643 0.001307 0.001481 0.014246 -0.004024 -0.004750 0.003664 -0.000060 -0.005311 0.000878 0.003875 -0.001150 0.004108 -0.000094 -0.003979 0.002688 0.000636 0.010559 0.001919 -0.001519 0.004262 0.004704 0.003211 0.003905 -0.003831 0.009196 -0.005671 0.001606 -0.008340 -0.000299 -0.005471 0.000622 0.002470 0.002699 0.003814 -0.000063 -0.001879 0.004551 -0.001149 -0.003416 0.001506 0.002194 0.001244 -0.001949 -0.011741 -0.004512 -0.001055 0.003191 -0.006041 0.002463 -0.008234 -0.005781 -0.000021 0.004644 0.007577 0.013609 0.002043 0.002278 -0.007382 0.001476 0.003451 -0.005178 0.007223 -0.002854 0.005043 0.003476 0.003541 0.005472 0.002718 -0.003855 -0.002280 -0.008012 -0.002588 -0.001722 -0.000942 0.004230 0.005741 0.006557
email -0.004852 -0.003738 0.002738 -0.001918 -0.000985 -0.004145 0.001557 0.000558 0.002769 -0.003565 0.001605 -0.002792 -0.005927 -0.000168 0.000342 -0.004347 -0.001280 -0.002506 -0.000634 -0.002630 0.000468 -0.002137 0.004044 0.004016 0.003615 0.002728 0.004075 -0.004934 0.000021 -0.002310 0.002634 -0.002570 -0.000643 0.004063 0.005700 0.002072 -0.003165 0.001405 -0.006077 0.003427 -0.000176 -0.004133 -0.001025 0.002422 -0.000522 0.003739 0.004224 -0.002705 0.001463 0.004448 -0.004877 0.002989 -0.001791 0.005745 -0.001391 0.005135 -0.005473 0.000236 -0.001160 -0.001894 0.001363 -0.000023 0.003983 -0.002242 0.004106 0.004602 -0.002060 -0.004607 -0.002591 0.001262 0.002985 -0.005370 0.002366 0.005465 0.001207 -0.005024 -0.000640 0.001583 0.000219 0.005859 -0.002821 0.002387 -0.001435 -0.000026 0.003321 0.004515 -0.005388 0.001469 -0.002351 0.004687 0.000121 0.001596 -0.003925 0.000239 0.005148 -0.003461 -0.005155 -0.007101 -0.002276 -0.005144
power -0.002037 0.003368 -0.004647 0.006319 0.001838 -0.002358 -0.007078 0.004759 0.001236 0.004477 -0.002256 0.002162 0.000089 -0.000318 0.003614 -0.002693 0.001832 0.004539 0.004958 -0.001638 -0.004668 0.004321 -0.004685 -0.003211 0.003504 0.002426 0.000823 -0.005402 -0.002249 -0.002423 -0.002645 -0.001743 -0.003878 -0.004033 0.004842 -0.000913 -0.005849 -0.004682 -0.001781 0.003588 0.002647 -0.004629 -0.002244 -0.001104 -0.003099 -0.001033 -0.002078 0.003273 0.001897 0.001974 -0.002137 -0.000191 -0.004599 0.002101 0.004445 -0.003677 -0.004274 0.000744 -0.002325 -0.003225 -0.003298 -0.005156 0.001477 0.002850 0.001839 0.001595 -0.002210 0.005007 0.005070 -0.000698 0.003618 -0.004585 0.003644 -0.003268 -0.001745 -0.002478 -0.002953 0.004524 0.004895 0.000524 -0.003066 0.002151 -0.000832 0.002858 0.003091 -0.004319 0.005307 -0.001882 -0.001148 0.002734 0.003299 0.004753 0.006652 -0.001762 0.001879 0.001611 0.002470 0.000474 0.003174 -0.005214
home -0.005285 0.002596 -0.005507 -0.004836 -0.006857 -0.000995 -0.009107 -0.003011 -0.001944 -0.001871 -0.001103 -0.004600 -0.003916 -0.006107 -0.001090 -0.000029 -0.001246 0.000249 -0.001141 -0.004278 -0.005192 -0.006045 0.002190 0.005707 0.006167 0.013127 0.002714 -0.006745 0.006976 -0.005131 -0.003248 0.002140 0.004842 -0.009848 0.007382 -0.007636 -0.003398 0.008544 -0.006181 0.009409 0.006242 0.000903 -0.001853 0.004844 0.007367 0.002089 -0.001704 0.007441 -0.006079 0.000144 -0.005377 0.000657 -0.002391 0.004612 0.005697 -0.000871 0.002313 0.001662 0.005084 0.009516 -0.000952 -0.006063 -0.000711 0.002451 -0.000002 0.000676 -0.008990 -0.003797 0.001065 0.001645 -0.002581 -0.000645 -0.007132 -0.001507 -0.002947 -0.000685 0.008959 0.009092 0.002931 0.007353 -0.008213 -0.000240 -0.002670 0.001935 0.007715 -0.004539 0.002332 -0.000118 0.004873 0.001617 0.008385 0.002081 -0.004567 -0.009887 0.004388 -0.001035 -0.006873 0.002078 -0.001131 0.001600
message -0.001605 -0.001230 -0.001115 0.001708 -0.000936 -0.001675 -0.004848 0.001638 0.000223 0.002524 0.004089 -0.005347 0.003219 -0.002472 -0.004810 -0.001244 -0.000581 -0.003977 -0.001914 0.000780 -0.000891 -0.001292 -0.004912 0.000295 0.004807 0.000563 0.004612 0.001191 0.007569 0.000378 -0.003999 0.002846 0.001202 -0.003735 0.001712 0.000627 -0.001603 0.004381 -0.002685 0.007731 0.002924 -0.000799 0.000969 -0.003591 -0.003024 0.003274 -0.002185 0.007387 0.003606 -0.004045 -0.005969 0.001768 -0.005313 0.005345 -0.004134 0.000963 -0.000252 -0.004441 0.002822 0.001059 0.003094 0.001704 0.001310 0.000644 0.000577 0.001689 -0.001705 -0.001926 -0.004017 -0.000745 0.001352 -0.005707 0.004833 -0.001852 -0.001679 -0.001648 0.001117 0.007112 -0.002422 0.007271 0.002455 0.005644 0.003708 -0.000139 0.001684 -0.002951 -0.003570 -0.005336 -0.003874 0.001941 0.005139 -0.003385 0.004150 -0.004887 0.001400 -0.000428 -0.002595 -0.001277 -0.002263 -0.003854
plastic -0.005140 0.003089 -0.004726 0.001292 -0.005719 -0.002111 -0.005006 0.004902 -0.000961 -0.003919 0.003374 0.003065 -0.003300 -0.007102 -0.000493 -0.002041 -0.002934 0.000131 -0.003308 -0.000017 -0.000518 0.004207 -0.001860 0.005276 0.001388 0.009879 -0.001676 -0.006399 0.004639 0.003998 -0.003498 -0.001426 0.005626 -0.002813 0.004997 0.001060 -0.006116 0.001202 0.002660 0.005746 -0.001642 -0.000857 -0.003502 0.002224 0.005680 -0.002797 0.004017 0.000798 -0.002871 0.004859 0.000635 0.004431 -0.008128 0.008351 -0.001042 -0.002126 0.000223 0.005240 0.001330 0.004838 -0.002908 -0.003753 0.002999 0.001007 0.001248 0.003545 -0.005782 -0.003092 -0.004075 0.005395 -0.003399 -0.000168 0.004358 0.003440 -0.004499 0.005692 0.002143 0.012566 0.001691 0.003272 -0.003582 0.000813 -0.003267 -0.006033 0.005664 -0.004926 0.004861 0.002222 0.004358 0.007897 0.000839 0.002137 -0.004944 -0.009260 -0.001627 -0.001494 -0.005091 0.001105 0.004146 0.001369
cord -0.004724 0.000516 -0.001731 0.004592 -0.003853 0.001574 -0.000226 0.001590 -0.003339 -0.002162 0.005100 -0.003167 -0.000963 0.000176 0.004845 -0.004363 -0.000617 0.002908 0.004257 -0.006058 -0.002869 0.000023 0.004788 0.004385 0.002440 0.004103 0.002570 -0.007587 0.000780 0.002549 0.000770 0.000164 0.000082 -0.005218 -0.000004 -0.001351 0.005240 -0.000658 -0.005516 0.002057 0.004142 -0.002502 -0.003955 -0.005046 0.000272 -0.002209 -0.001955 0.000980 0.003762 -0.001474 -0.003265 -0.001606 -0.002131 0.005200 -0.002727 -0.005287 -0.002041 0.004328 -0.004553 -0.002715 -0.002306 -0.004492 0.003360 -0.000307 -0.004850 -0.000342 -0.000174 -0.003038 0.003352 -0.001816 -0.002333 0.002344 0.003991 -0.003762 -0.004109 -0.004688 -0.000661 0.008504 0.000305 0.002203 -0.005469 -0.001993 0.002827 0.004769 0.003260 0.001036 0.004024 0.001701 0.000336 0.005846 0.002659 0.001168 -0.004549 0.003155 0.000015 -0.003965 -0.002733 -0.001816 -0.003872 0.003876
long -0.001189 0.000444 -0.004516 -0.005391 -0.001775 0.000325 0.004545 -0.004237 -0.002197 -0.003946 0.001182 -0.002478 0.000340 0.000977 0.002391 -0.002708 0.000296 -0.002295 -0.004844 0.004062 0.000102 -0.000918 0.002220 -0.000412 -0.001852 -0.003363 -0.001855 0.000100 0.003866 -0.005373 -0.001568 0.003607 -0.003840 -0.000908 -0.004168 0.004473 -0.002211 -0.003943 -0.001591 -0.003478 0.003709 -0.000161 0.005497 -0.003506 -0.000694 0.002039 -0.003084 0.003762 -0.000919 0.006367 0.000459 0.005133 0.003196 -0.002924 -0.001434 -0.005286 0.000923 0.000432 -0.001843 -0.000645 0.000169 0.000815 0.002903 -0.001842 0.006681 -0.000577 0.001951 -0.002389 -0.002013 -0.004059 0.001035 0.002221 -0.003139 0.000790 0.002364 -0.001974 0.002471 -0.004653 -0.000665 0.002888 0.001778 -0.004386 0.002388 -0.002945 0.002024 -0.002370 0.002135 -0.000974 -0.004221 -0.004971 0.003610 -0.001377 -0.001966 -0.001776 -0.001150 -0.000594 -0.003647 -0.000168 0.003263 0.005180
cover -0.008949 -0.005793 -0.002395 -0.001556 -0.000950 0.002329 -0.009086 0.000742 -0.002256 -0.001577 -0.000659 -0.000371 -0.006171 -0.009229 -0.001520 0.002071 -0.004694 0.001086 0.002657 -0.000352 -0.008800 -0.000835 -0.004880 0.002578 0.005553 0.004068 -0.003360 0.000444 0.011192 0.001280 -0.000536 -0.001149 0.006240 -0.005063 0.007846 -0.002392 -0.005931 0.000738 0.002077 0.010212 0.004683 0.001419 0.005842 0.008893 0.007866 0.004095 -0.004014 0.004147 -0.002959 0.004170 -0.005025 -0.002697 0.001047 0.003649 0.002653 -0.006286 0.001552 -0.004024 0.002296 0.005996 -0.004250 0.002236 -0.004284 -0.000980 0.001406 0.002245 -0.002494 0.001803 -0.003121 -0.002708 -0.006694 0.000597 0.000367 -0.002214 0.003724 0.006145 -0.000646 0.013842 0.000653 0.008357 -0.000879 -0.000771 -0.000015 0.000485 0.003723 -0.003963 0.006424 0.003485 -0.000095 0.007567 0.003675 0.002185 0.000102 -0.009780 -0.000172 -0.006900 -0.000383 0.003344 0.003064 0.002080
full -0.005463 0.002016 -0.002497 -0.000101 -0.006617 0.004406 -0.005500 -0.005339 0.001728 -0.004146 0.000587 0.001417 -0.003941 -0.008675 -0.000700 0.003220 0.003690 -0.002255 0.002040 -0.001580 -0.008993 0.004190 -0.001266 0.002200 0.001713 0.006554 0.003269 -0.002657 0.002644 -0.001937 -0.003299 0.000137 -0.000982 -0.003025 0.008910 -0.008441 -0.004788 0.002772 -0.005256 0.011366 0.000671 -0.002489 0.008775 0.000470 0.003432 -0.003011 -0.005264 0.007972 -0.004789 0.004474 -0.006686 0.004731 -0.004250 0.008718 -0.002024 -0.000235 -0.002561 0.001855 -0.002368 0.005123 -0.001811 -0.001501 -0.004627 -0.000404 -0.000743 -0.004450 -0.002167 0.000149 0.000894 -0.001710 -0.008096 -0.003708 0.001779 0.001320 0.004451 0.002032 -0.001541 0.012021 0.003028 -0.000571 -0.006161 0.002183 -0.001645 0.004757 0.009381 -0.006465 0.002848 0.000234 0.002069 0.003453 0.008472 -0.004595 0.003012 -0.008029 0.005203 -0.004640 -0.003029 0.006489 0.003158 -0.001753
free -0.007040 0.002995 -0.007558 -0.001254 -0.003694 0.000487 -0.005083 -0.003495 -0.004471 -0.005400 0.000096 -0.003159 -0.003121 -0.009830 0.004832 -0.003558 -0.009954 -0.004855 -0.005223 -0.008795 -0.005214 0.001930 0.000853 0.003263 -0.000602 0.014736 0.003008 -0.005963 0.005558 0.000630 0.001045 -0.002078 0.000312 -0.006085 0.009146 -0.003846 -0.004436 0.007692 -0.005550 0.005094 0.001238 -0.003227 0.007839 -0.000869 0.011048 0.002892 0.004320 0.006424 -0.007827 0.001426 -0.008117 0.002156 -0.009550 0.010313 0.000420 -0.004999 -0.002522 0.001825 -0.001426 0.004072 0.002637 -0.001503 -0.004339 -0.001227 0.005592 0.001416 -0.005363 -0.000428 -0.002184 0.010273 -0.008876 -0.003027 0.002631 -0.002681 -0.002415 0.003910 0.006050 0.018180 0.002374 0.008611 -0.009724 0.004551 0.003533 -0.005568 0.009922 -0.005737 0.000458 -0.001913 0.006368 0.004840 0.000543 0.002259 0.004016 -0.005101 -0.001550 0.000271 -0.008456 0.004452 -0.003240 0.006975
part -0.009513 -0.003817 -0.007107 -0.002283 -0.003064 0.004689 -0.015368 -0.004118 0.001502 -0.001798 0.007578 -0.005969 -0.002883 -0.008459 -0.008436 0.001295 -0.011022 -0.001832 -0.010791 -0.001962 -0.014547 -0.003414 -0.007126 0.005877 0.000562 0.018035 0.004874 -0.011790 0.013103 -0.006500 -0.000978 -0.000484 0.008730 -0.005350 0.010181 -0.005805 0.002136 0.010407 -0.002984 0.014414 0.013983 -0.003109 0.003196 0.012331 0.012393 -0.002326 0.005652 0.007573 -0.010396 0.002384 -0.011431 0.004732 -0.008563 0.016077 0.003310 -0.007524 -0.001712 0.004526 0.004142 0.011158 -0.000646 -0.006017 -0.008253 0.002755 0.004805 -0.000346 -0.016830 -0.005178 0.004152 0.003952 -0.008638 -0.008954 0.000165 -0.006045 0.000648 0.002433 0.006658 0.017492 -0.004959 0.005830 -0.011262 -0.001777 -0.003520 -0.004908 0.013825 -0.007198 0.006646 -0.006930 0.001352 0.013390 0.008391 -0.001234 -0.000047 -0.012298 0.003320 -0.004706 -0.012351 0.002791 0.001530 0.001351
blackberry -0.001045 -0.005051 0.000955 -0.002437 0.001669 -0.000302 -0.007806 -0.000926 -0.002930 0.001936 -0.004029 0.001335 -0.003517 -0.007556 0.001007 -0.004841 -0.001336 -0.005249 -0.002207 -0.000481 -0.006928 -0.004495 -0.002674 0.000960 0.003498 0.006456 -0.002811 0.001902 0.001265 -0.006905 -0.002499 -0.001726 0.002912 -0.006687 0.000079 -0.002671 0.000469 0.004004 0.003593 0.007719 -0.001221 0.003449 0.000860 -0.003695 0.004765 0.003109 -0.002142 -0.000886 -0.005114 -0.003255 -0.002674 0.002174 -0.004405 -0.001169 0.000957 -0.002009 -0.004407 -0.001069 0.002283 -0.002450 -0.001021 -0.005192 0.002148 0.002355 -0.002108 0.000209 -0.007097 0.000674 -0.001814 0.003619 0.000268 0.001237 -0.002932 -0.002540 -0.003461 0.001085 -0.001364 0.004150 -0.001101 -0.002114 -0.000719 0.004576 0.004146 -0.005588 -0.000528 -0.001128 -0.000725 0.001294 0.005503 0.001208 -0.001466 0.001955 -0.003624 -0.005764 -0.004252 -0.001857 0.001083 -0.003612 0.005430 0.004768
color -0.003167 -0.003826 -0.005612 0.002959 -0.000433 -0.001033 -0.008219 -0.000253 0.005035 0.000815 0.006795 -0.002960 -0.006418 -0.001379 0.002751 -0.000127 -0.006337 0.003353 0.000384 -0.000592 -0.003713 0.004678 -0.004839 0.005870 0.004419 0.011603 0.002573 -0.002424 0.010110 -0.003351 -0.002171 0.002078 0.004770 -0.000553 -0.000113 0.002467 0.001620 0.006542 -0.003744 0.004023 0.010490 0.000838 0.000477 0.007079 0.008769 0.001691 0.004872 0.001314 -0.001488 0.004580 -0.005931 0.002855 -0.002662 0.009402 0.005165 -0.007535 0.001781 0.005135 -0.004825 0.008089 0.002419 -0.002106 -0.000675 0.002627 0.005653 -0.004336 -0.010278 0.002134 -0.000593 0.004574 -0.006252 -0.007281 -0.003901 -0.000268 -0.001087 0.006294 0.003816 0.006131 0.000483 0.003298 -0.005750 0.004043 0.000417 -0.006771 0.008435 -0.001964 0.006282 0.001660 0.005891 0.008186 0.009712 -0.004407 -0.000020 -0.003158 0.002568 -0.000684 -0.008157 0.003750 -0.002988 0.001593
ipod -0.006324 -0.002887 -0.007990 0.002195 -0.003639 -0.004794 -0.009657 0.002497 -0.002255 -0.001275 -0.001659 0.002327 -0.001629 -0.006152 0.000442 0.003729 -0.008314 -0.002606 -0.005248 -0.006551 -0.003850 -0.000803 0.001131 0.004010 0.004659 0.010099 -0.002194 -0.005934 0.010355 -0.001913 -0.003154 -0.002361 -0.000883 -0.003704 0.004267 -0.008688 -0.002239 -0.000319 0.002145 0.004544 0.001010 0.003723 -0.001735 0.003328 0.012417 -0.000104 0.005356 0.006221 -0.003864 0.004092 -0.007126 -0.000895 -0.003508 0.006728 0.005246 -0.005822 0.005522 -0.000755 -0.001788 0.008682 0.001142 0.001600 -0.001918 0.000858 -0.002283 -0.001062 -0.009424 -0.004508 -0.000266 0.004058 -0.009261 -0.004007 -0.002231 -0.003559 0.002789 -0.002112 0.008507 0.010945 0.003980 0.007549 -0.002608 0.003902 -0.005277 -0.003631 0.010731 -0.007951 0.008736 0.003576 0.000587 0.007849 0.009519 -0.001798 -0.001414 -0.011952 0.001090 0.003653 -0.008210 0.002448 0.005320 0.005449
hand -0.002622 -0.003407 -0.008351 0.003192 -0.000920 0.004919 -0.011215 -0.003444 -0.004251 -0.007056 0.005049 -0.000706 0.001104 -0.007714 -0.000673 0.003759 0.001022 -0.003716 -0.003637 -0.003421 -0.010621 -0.001413 -0.000703 -0.000291 -0.001990 0.011810 -0.004073 -0.006946 0.003202 0.001131 -0.003141 0.001598 0.000272 -0.005190 0.002214 -0.003452 0.000511 0.007163 -0.006954 0.005157 0.006276 0.002681 0.000878 0.004933 0.013038 0.004793 0.002250 0.008988 -0.007444 -0.002912 -0.005056 0.003799 0.001016 0.009173 0.003537 -0.007345 0.003432 -0.000177 0.001052 0.001718 -0.000358 -0.004674 -0.000981 -0.002374 -0.004119 0.003209 -0.003525 -0.004926 -0.004891 0.003647 -0.004439 -0.009411 -0.001089 -0.002527 -0.006783 -0.001552 0.008177 0.015983 0.002017 0.000034 -0.004167 0.001079 -0.002365 0.000911 0.005169 -0.001016 0.000907 -0.005770 0.005428 0.012292 0.005778 0.003488 -0.003565 -0.010253 -0.000654 -0.005836 -0.010810 -0.000598 -0.000272 0.005414
verizon -0.004107 0.000926 -0.001468 0.000497 0.000324 0.003755 -0.005546 -0.000766 0.001711 0.003934 -0.003586 -0.000908 -0.003298 -0.002287 0.003724 0.002615 -0.004466 0.000985 -0.002448 0.001498 0.000765 -0.000640 -0.002833 0.006262 -0.001330 0.004459 0.002628 -0.006508 0.003227 0.003207 -0.004408 -0.000504 0.003385 -0.007795 0.000616 -0.000131 -0.004798 0.002834 -0.003896 0.007896 0.006265 -0.005285 0.003054 0.004977 0.003851 0.004332 0.003538 -0.002211 0.001369 -0.002074 -0.003488 -0.002899 -0.006666 0.004559 -0.000830 -0.005147 -0.002508 -0.002362 0.000138 0.006009 0.001413 -0.003370 -0.006170 -0.000960 -0.001090 -0.003986 -0.003448 0.001705 0.004531 0.003727 0.000674 -0.005347 -0.004059 -0.005375 0.003193 -0.000835 -0.000459 0.003996 -0.004949 0.002330 -0.004307 0.001826 0.003839 -0.002849 -0.000024 -0.004793 0.004767 -0.004263 0.003230 0.007244 0.000832 -0.002803 -0.002471 -0.006427 0.002694 -0.002350 -0.002334 0.001018 -0.000638 -0.000589
adapter -0.002022 -0.004579 -0.008988 -0.000727 -0.006916 0.002882 -0.005627 -0.004477 0.001705 -0.004262 0.008398 0.000793 -0.001036 -0.005359 -0.001141 0.003319 -0.010273 -0.001761 -0.000961 -0.006284 -0.008133 -0.003728 0.001045 0.000956 0.003502 0.011874 -0.000492 -0.015407 0.008704 -0.005114 -0.001266 -0.000288 0.006626 -0.009046 0.004920 -0.003181 -0.003965 0.004704 -0.009312 0.011177 -0.000268 0.001459 0.001020 0.007148 0.012078 -0.005340 0.007753 0.006103 0.001074 -0.000549 -0.009306 0.005206 -0.004664 0.006132 -0.003166 -0.000609 0.001808 -0.001248 0.005201 -0.000682 0.006133 -0.007922 -0.000701 -0.002534 0.004127 -0.003587 -0.008350 -0.000169 0.000977 0.006298 -0.004298 -0.006152 -0.003385 -0.003104 -0.011248 0.001227 0.004922 0.016456 0.000880 0.001635 -0.002348 0.005888 -0.002667 -0.003064 0.005757 -0.001061 0.006064 0.001866 0.005840 0.013406 0.005228 -0.000848 -0.000916 -0.003824 -0.001489 0.002899 -0.011222 -0.002106 0.002907 -0.001416
samsung -0.005079 -0.008180 -0.007898 0.002572 -0.006237 0.004914 -0.006739 0.004027 -0.001890 0.000165 0.001770 -0.007009 -0.003025 -0.006291 0.001753 -0.001078 -0.008952 -0.002416 -0.005712 -0.001839 -0.006008 0.002531 -0.000534 0.006223 0.003997 0.009726 -0.001800 -0.010733 0.007569 -0.002093 0.005115 -0.003363 0.005181 -0.006036 0.008223 -0.009694 0.000464 0.008119 -0.002675 0.009422 0.002787 0.003060 0.001002 0.005823 0.014751 -0.002726 0.004693 0.004279 -0.003661 -0.003683 -0.002072 -0.000835 -0.003533 0.010282 0.004928 0.001080 0.000607 0.002214 0.001554 0.002007 0.001532 -0.002268 -0.000801 0.000819 0.001809 0.003133 -0.009230 0.000958 0.006312 0.005331 -0.001559 -0.011994 -0.003701 -0.001757 -0.006080 0.000148 0.009233 0.020435 0.003720 0.012310 -0.005141 0.004362 0.003970 0.001381 0.009809 -0.005944 0.010850 -0.005782 0.006408 0.009806 0.009898 -0.001179 -0.002153 -0.005688 0.003985 -0.003302 -0.006553 -0.003209 0.005842 0.001479
internet -0.001441 -0.005343 -0.008383 0.003474 -0.000596 0.000407 -0.007408 0.002253 -0.001040 0.002774 0.004573 -0.004721 -0.001733 -0.000246 -0.000197 -0.000009 0.000605 0.003886 -0.006933 -0.006197 -0.000791 -0.005329 0.000065 0.002999 0.000416 0.004732 0.000973 -0.008603 0.006791 -0.003849 0.004597 -0.001139 0.005414 -0.004525 0.007461 -0.002877 -0.002161 -0.001696 -0.001161 0.007153 0.006142 -0.001249 0.003254 0.003317 0.001952 -0.000889 -0.001747 0.000315 -0.005623 0.003616 -0.005713 0.002644 -0.003343 0.005627 -0.001361 -0.004636 -0.001094 0.000711 0.004259 0.005321 -0.003705 -0.000037 -0.005055 -0.002892 -0.001344 -0.001141 -0.002605 -0.004670 0.004498 0.000593 0.001457 -0.001195 -0.001934 -0.004696 -0.004102 -0.002050 0.003818 0.013062 -0.000329 0.009907 -0.005809 0.005646 -0.004737 0.000367 0.000544 -0.002659 0.000092 0.001408 0.006455 0.001582 0.000458 -0.002232 0.001153 -0.005846 0.006476 0.000094 -0.005028 -0.000637 0.006293 0.001241
stylus -0.007522 -0.000449 -0.009711 -0.002909 0.001905 -0.001645 -0.004849 0.004104 0.001671 -0.004259 -0.001639 -0.005918 -0.004800 -0.007213 -0.002606 0.005488 0.000448 -0.004784 0.002105 -0.000069 -0.009501 0.000629 0.001910 0.000499 0.001342 0.010651 0.004572 -0.001724 0.004970 0.002191 -0.004023 0.000550 0.002395 -0.005112 0.004833 -0.006709 -0.004116 0.001300 -0.001622 0.011927 0.004789 -0.004841 -0.001664 0.002944 0.006997 -0.000197 -0.004193 0.002345 -0.007065 0.000996 -0.007745 -0.002565 -0.004972 0.009826 -0.002613 -0.006593 0.001145 0.005262 -0.002143 0.001975 -0.005850 -0.006726 -0.001370 0.004790 0.004428 0.004338 -0.010264 -0.001878 0.004051 0.000031 -0.002044 -0.005499 -0.001063 -0.005603 -0.005782 -0.000826 0.003893 0.009171 0.001780 0.008513 -0.004600 0.005341 -0.002513 -0.005369 0.005596 -0.006024 0.002942 -0.001019 0.001641 0.002977 0.007313 -0.001614 0.002045 -0.010499 -0.002598 -0.004368 -0.007218 0.001717 -0.001301 0.002386
big -0.006770 0.000823 -0.006331 -0.002055 0.001274 0.005641 -0.008423 0.002861 0.002947 0.001806 0.003370 0.002714 0.001257 -0.006124 -0.002083 0.004472 -0.004310 0.000902 0.002451 -0.006119 -0.007853 -0.004496 -0.006381 0.007515 0.004440 0.009827 -0.004027 0.001072 0.004228 -0.003831 -0.004643 0.001528 0.005249 0.000634 0.008570 -0.002110 0.003269 0.005713 -0.001159 0.010873 0.003936 -0.000020 -0.003559 -0.001125 0.000595 -0.003436 0.000980 0.007932 -0.002785 0.001991 0.000941 0.002994 -0.001341 -0.000354 0.005685 -0.004247 0.002875 -0.002288 0.003740 0.000507 -0.001481 0.001756 0.003153 -0.003481 -0.002090 -0.001894 -0.009107 -0.003324 -0.005518 -0.002435 -0.004156 -0.001165 0.001189 -0.003495 0.002213 0.002109 0.005757 0.011401 0.001309 0.000458 0.001377 0.003406 0.002166 -0.002751 0.007734 -0.004492 0.005052 -0.001289 0.006330 0.004029 0.005728 0.000341 -0.003531 -0.005286 -0.003412 0.003764 -0.003416 -0.000830 0.006074 -0.001536
memory 0.003186 0.001723 -0.004776 -0.004650 -0.004318 -0.003782 -0.002461 -0.004484 -0.001666 -0.004442 -0.001604 0.002292 -0.001759 -0.002423 0.002011 0.002713 -0.003739 0.003797 0.000581 -0.000336 -0.002012 0.004932 -0.003036 0.004247 -0.005882 -0.002524 -0.001165 0.001533 0.001119 -0.002582 0.001752 0.003932 0.004906 0.003134 -0.000929 0.001378 -0.001492 -0.004685 -0.003570 0.002835 0.002883 0.000973 -0.001921 0.003222 -0.000764 -0.002474 0.003419 -0.003090 -0.001646 -0.004605 0.000309 0.001201 0.001680 -0.003590 -0.000431 0.005953 -0.001237 -0.001937 0.003967 0.000067 -0.003023 -0.001463 -0.003082 -0.001003 -0.006585 0.000765 0.001462 -0.004922 -0.000767 0.006952 0.001046 -0.003052 -0.003980 0.005310 -0.004043 -0.007403 -0.000930 0.006433 0.004224 0.004424 0.004363 0.004967 0.003973 -0.001586 0.003466 -0.002974 -0.004788 -0.001846 0.002616 -0.002152 -0.000966 0.001503 0.002505 0.000550 0.003733 0.003722 0.001392 0.003210 0.002267 0.002655
purchase -0.002222 -0.000987 -0.002137 0.003253 0.000331 0.002665 -0.002899 -0.004691 -0.004350 0.000515 0.000764 -0.004786 0.001847 -0.004838 0.002726 -0.001281 0.001225 0.000023 -0.001023 0.003080 -0.004990 0.000016 -0.003296 -0.001301 0.000459 0.004175 0.004226 -0.003498 0.003280 -0.001491 0.002192 -0.000362 0.000501 0.004196 -0.001344 -0.000768 0.003546 0.002271 -0.001416 -0.002780 -0.003824 -0.001818 -0.003457 -0.003272 0.000621 0.004188 0.004488 0.004035 0.000159 -0.000289 -0.002025 0.001443 0.001972 -0.004351 -0.004720 -0.004181 -0.004910 -0.001896 0.001725 0.005720 0.002862 -0.001911 -0.005073 -0.004172 0.000854 0.000100 -0.003581 -0.001191 -0.002154 0.000689 0.004422 0.002901 -0.001225 -0.004330 -0.003915 0.001211 -0.000951 -0.001974 0.000997 0.002280 0.002155 0.001343 -0.002091 0.003394 0.001727 -0.004173 -0.001629 -0.002177 0.000587 0.004088 0.001352 -0.004972 0.004212 -0.005246 -0.000821 0.000275 0.001558 -0.001650 -0.003092 -0.000316
function -0.003398 -0.004817 -0.003420 -0.000161 0.000964 -0.004494 -0.003235 -0.001599 -0.001287 -0.003441 0.003987 0.000819 0.004217 0.002991 0.000319 -0.000806 0.001375 0.002314 -0.001975 0.003746 -0.001913 -0.002944 -0.002991 -0.004448 0.004175 0.004944 -0.002740 -0.001310 0.004407 0.001076 -0.000016 0.004131 -0.004209 0.001085 -0.003622 -0.001984 -0.000254 0.003879 0.004298 0.003161 0.004823 0.003888 0.004435 0.003624 0.004646 -0.001336 0.000310 -0.001607 -0.003137 -0.005005 -0.002065 -0.000628 -0.005440 -0.002879 0.001373 0.004569 0.002846 0.001645 -0.001582 -0.001747 -0.004967 0.001651 0.003092 0.003428 0.003890 0.002307 0.001850 -0.000898 0.002976 -0.003003 0.001315 0.002031 -0.004794 -0.000082 0.003523 0.003252 0.000381 0.005757 0.003939 -0.000990 0.003403 0.003562 0.002810 0.004860 0.004135 0.004355 -0.002959 -0.004403 -0.003309 -0.000910 -0.002757 0.000477 0.003600 -0.003850 -0.001443 -0.001600 0.002405 0.000917 0.004399 -0.002365
port -0.006079 -0.003335 -0.004988 0.002446 -0.002494 0.002474 -0.003528 0.004170 -0.000703 -0.001003 0.003177 -0.005253 -0.004417 -0.004954 0.002647 0.001041 -0.004465 0.001831 0.003535 -0.000249 -0.001898 0.001935 -0.000177 -0.003797 0.003475 0.008493 -0.002632 -0.005826 0.004266 -0.000227 0.000178 0.005165 0.002462 -0.008600 0.004636 -0.005651 -0.004604 -0.000974 -0.006439 -0.000696 -0.000786 0.001632 0.004694 -0.005385 0.007833 -0.002323 -0.002590 0.000415 0.000080 -0.002440 -0.000750 -0.002287 -0.001603 0.005848 0.003406 -0.000984 0.001666 0.000701 0.004313 -0.001403 0.000188 -0.001466 0.000807 -0.000979 -0.001433 0.002209 -0.007325 0.001293 0.003677 0.007293 -0.003699 -0.002770 0.001683 -0.003167 -0.007716 0.002794 0.001166 0.008310 0.000462 -0.000021 -0.002189 0.006972 -0.000823 0.001338 0.007329 -0.000251 0.000155 -0.003908 0.000418 0.001252 -0.001483 -0.000929 -0.002013 -0.003090 0.004019 0.003093 -0.006103 -0.001488 0.001987 0.002272
htc -0.002653 0.003562 0.000237 0.005474 0.004912 -0.000531 -0.001499 -0.003129 -0.003842 0.003437 0.001293 0.004084 -0.004520 -0.001753 0.005625 -0.000449 0.000472 -0.002494 0.001647 0.000080 -0.000118 0.001888 -0.002593 0.000367 -0.004912 -0.001690 -0.004504 0.002575 -0.002871 -0.001904 0.002016 -0.004001 0.000269 0.000612 -0.002091 0.001489 0.004373 -0.001173 0.001706 0.003251 -0.001930 -0.002924 0.001632 -0.001932 0.001964 0.003362 -0.003682 -0.001939 -0.002736 0.005104 0.004919 -0.000842 0.000377 0.002545 0.000479 -0.000838 0.000747 0.003789 0.000957 -0.001734 0.004367 -0.001815 0.005436 -0.002176 0.002497 0.002591 0.006075 0.000689 -0.002442 -0.000949 0.003063 0.004812 -0.003834 0.004839 -0.003340 -0.001441 0.001321 0.003218 -0.003806 0.003625 -0.005083 0.000270 -0.000253 0.003606 -0.004980 -0.004438 0.001567 -0.003026 0.004735 -0.000874 0.003893 0.002245 -0.001370 0.002587 -0.003896 0.001945 0.005070 -0.005414 -0.000451 -0.003957
design -0.000175 0.004628 -0.003705 0.000250 0.001808 0.004048 0.002271 0.001578 -0.000564 0.003872 0.001955 -0.004440 -0.003898 -0.002659 -0.005048 -0.001840 -0.001734 -0.000643 -0.003579 0.001467 0.003186 0.004455 0.002855 0.004408 -0.001707 0.003783 0.004763 -0.005324 -0.000903 -0.002736 -0.001297 0.000185 -0.003139 0.004236 -0.003480 0.001622 0.004677 0.004904 0.005492 0.001512 0.001018 0.003046 0.000064 -0.000241 -0.005554 0.002517 -0.000668 -0.001881 0.001215 0.002878 0.002912 -0.004581 -0.003227 0.000774 -0.001570 -0.001467 0.000743 -0.004622 -0.004960 0.002726 -0.005409 0.004095 -0.000312 0.006051 0.005003 -0.001502 -0.000164 -0.004905 -0.000669 -0.004237 -0.002541 0.003110 0.003319 -0.005008 0.004643 0.005990 -0.003794 -0.003090 0.002900 -0.002717 -0.001171 -0.006552 0.002870 -0.006101 -0.003445 -0.003874 0.006067 -0.001464 -0.004375 -0.004553 -0.001779 -0.000847 -0.005764 -0.006329 0.002507 -0.003178 -0.003359 -0.001937 0.000586 0.001409
extra -0.003166 -0.000695 0.000863 0.000697 0.001214 0.003165 0.001738 0.003423 0.002149 -0.002361 0.004922 -0.003644 -0.002556 -0.001235 0.001134 0.005031 0.001731 -0.003775 -0.000611 0.002497 -0.001258 -0.003842 -0.002469 0.001656 0.001166 0.003452 0.000039 0.002399 -0.002207 0.002602 0.001806 -0.004155 0.002915 -0.003908 -0.000284 -0.003604 0.003968 0.001803 0.003875 -0.001182 0.002665 -0.001998 0.002810 0.002330 0.002861 -0.004724 -0.003831 0.000666 0.002767 -0.002736 -0.002025 0.003799 0.003186 0.003608 0.003188 -0.001761 -0.002554 -0.004572 -0.002515 0.003776 0.002565 0.002507 -0.000861 0.002969 0.002296 -0.004788 0.000885 -0.004728 0.004326 0.004976 -0.002422 -0.002497 0.003421 -0.000179 0.002106 -0.001977 -0.002485 0.009703 0.000883 0.006427 -0.005635 -0.000084 -0.002685 0.001351 -0.001665 -0.000132 -0.003212 -0.000763 0.002074 -0.002252 -0.000007 0.001967 -0.003583 0.000597 0.001987 -0.004897 0.001245 0.004250 -0.004032 -0.003979
minute 0.002223 0.003586 -0.000949 0.003563 -0.001211 0.000226 -0.003759 -0.000753 -0.004250 0.002682 -0.001611 -0.003566 0.000090 -0.000382 0.001589 0.001502 -0.004025 -0.004942 -0.003622 -0.000804 -0.004793 -0.002225 -0.003948 0.003955 -0.002927 0.009140 -0.004507 -0.004371 -0.001144 0.003738 -0.004717 -0.000567 -0.001892 -0.006844 -0.001217 -0.000397 0.003787 -0.000306 -0.004491 0.003180 0.004608 0.002995 0.002059 -0.000513 0.001744 -0.004342 0.003040 0.005245 -0.005382 0.004859 -0.006012 -0.002563 -0.001154 0.001159 0.001647 -0.004893 -0.000437 -0.003639 -0.001639 0.002228 0.000674 -0.000288 -0.000960 0.005873 -0.003698 0.000842 -0.003491 -0.004178 0.004008 -0.000974 0.000200 -0.005946 -0.001185 -0.006014 -0.002137 0.001742 0.005367 0.008872 -0.000778 0.005538 -0.005773 -0.002039 -0.002284 -0.000737 0.003634 0.003946 -0.001665 0.002914 -0.000225 0.005822 0.003223 0.002241 0.000002 -0.005114 -0.002152 0.003037 -0.006449 0.000165 -0.000158 0.002435
difficult -0.002904 -0.000947 -0.000381 -0.004164 -0.001961 0.000687 -0.005840 -0.000774 0.004911 -0.003663 0.007048 0.001910 0.000362 -0.009525 0.000774 0.005023 -0.005343 0.003335 -0.006667 -0.000348 0.000439 -0.006385 0.000739 -0.000259 0.000399 0.010334 -0.002750 -0.001349 0.007024 -0.004519 0.002116 -0.000098 -0.000207 -0.000366 0.005440 -0.000913 0.001485 0.007567 -0.001316 0.006953 0.005445 0.003046 0.002194 0.003574 0.002290 -0.004082 -0.000599 0.002988 -0.006525 -0.001378 -0.006437 0.004023 0.000373 0.006827 0.004950 0.002291 0.002316 0.001588 -0.000175 0.004990 -0.002550 0.002355 0.001587 -0.001054 -0.003324 0.002126 -0.005786 0.002808 -0.000801 0.005813 0.000515 -0.005224 0.002226 -0.001151 0.003020 -0.001532 -0.000884 0.004771 -0.000092 0.004573 -0.005036 0.000214 -0.001988 0.001691 0.000022 -0.004377 0.006134 -0.004893 0.005499 0.008933 0.003321 -0.004243 -0.004693 -0.001801 0.001545 0.000299 -0.005663 -0.003399 0.004998 0.002218
place 0.003829 -0.002232 0.003081 -0.003708 0.003848 -0.004600 0.004535 -0.001931 -0.002687 0.003554 0.000079 0.001975 0.002814 0.000026 -0.003276 0.002607 0.002746 -0.004150 -0.002312 -0.001442 0.001216 0.003846 -0.001825 0.004870 0.002260 0.002275 0.003440 -0.002387 0.003862 0.001964 -0.004316 0.000108 0.001924 0.002856 0.002454 0.003044 0.002074 0.003482 0.003707 0.002784 0.004058 0.000079 -0.000308 0.002050 0.000936 -0.001621 -0.003879 0.000787 0.001480 -0.004746 0.002286 -0.002619 0.002562 0.001062 -0.003119 -0.000957 -0.003711 -0.004306 0.002453 0.001254 0.000001 -0.004405 0.003241 -0.003670 -0.002852 -0.004950 -0.002192 -0.004551 0.001153 -0.003569 0.004247 -0.001165 -0.002449 -0.005531 -0.003167 0.004336 0.002575 0.000066 -0.003179 -0.002232 0.003303 0.004473 0.003423 0.002768 0.003293 0.000398 0.001119 -0.004641 -0.005224 0.002901 -0.000117 -0.003875 -0.000650 -0.004645 0.000062 -0.001072 -0.001120 0.003893 0.003439 -0.003961
option -0.003393 -0.003002 -0.003893 0.001434 -0.002726 0.001299 0.003312 -0.004279 0.005020 -0.004490 0.004429 0.004296 0.005016 0.000439 -0.002457 0.000837 -0.002590 0.003861 -0.005664 -0.002918 0.001024 -0.000963 -0.004167 0.000896 0.004466 -0.001912 -0.003426 0.002891 0.003886 0.001918 0.001376 0.000216 -0.002522 -0.005029 0.002892 -0.003799 -0.006292 -0.000630 0.005202 0.007169 -0.001790 0.004349 0.000754 0.004107 -0.000843 0.004956 -0.006378 0.001826 -0.003284 -0.003244 -0.005362 0.002386 0.000424 -0.002290 -0.000379 -0.003044 -0.000062 -0.001129 0.002347 0.002422 -0.000274 -0.001537 -0.003054 -0.000002 -0.001947 0.003673 -0.005887 0.004182 0.003353 0.000564 -0.003678 -0.000157 0.002128 0.003061 0.006218 -0.003265 -0.003084 -0.000749 -0.000588 0.002437 -0.001550 0.000261 -0.003339 0.003178 0.002458 -0.005137 0.001244 0.000112 -0.004082 0.005008 -0.002397 0.003798 -0.000714 -0.000697 -0.002610 -0.000853 -0.002741 0.002902 0.005899 -0.000479
person -0.001079 -0.001409 0.005513 0.001849 0.000899 -0.002752 -0.001390 -0.004493 -0.002710 0.005117 0.000903 -0.001126 0.002756 0.001895 0.002428 -0.003364 0.003901 -0.002331 0.004835 0.004653 0.005559 -0.003388 0.001218 -0.002315 -0.003576 0.000634 0.002866 0.003966 -0.007533 0.003093 -0.004079 0.001897 -0.000095 0.003627 -0.005726 -0.002192 -0.003571 -0.005033 0.004144 -0.004821 -0.004344 -0.004206 -0.006247 -0.001729 -0.004291 0.004286 0.002949 -0.005572 -0.003592 -0.002471 0.003811 -0.002074 -0.000242 -0.003373 -0.000081 -0.003173 -0.001730 0.003017 0.000380 -0.005409 -0.003091 -0.001035 -0.004065 -0.000263 -0.001688 0.003667 -0.001383 -0.001551 -0.001579 -0.005966 0.001256 0.003094 0.003022 -0.003617 0.000969 0.002144 -0.000209 -0.003346 -0.004067 0.002739 -0.002083 0.000689 0.000047 -0.004358 -0.003147 0.005924 -0.005751 -0.001925 0.001561 -0.004610 -0.006643 0.003314 -0.002944 0.001470 -0.001404 0.000419 0.006576 -0.002737 0.002649 -0.000515
signal -0.000616 -0.005063 -0.007275 0.002547 -0.001226 0.000613 -0.000730 0.004474 0.001496 -0.000543 0.000255 0.000856 -0.002955 -0.002451 0.002695 -0.003668 -0.003621 -0.000403 -0.006129 0.000829 0.002088 -0.000750 -0.001085 -0.000612 0.001256 0.004859 0.005579 0.002050 0.007403 -0.004668 -0.000831 -0.002944 0.001706 0.000993 0.006522 -0.000991 -0.003862 -0.000607 -0.002018 0.008592 -0.000847 0.000228 0.001373 -0.000569 0.001581 -0.001980 -0.000382 0.006916 -0.006645 0.006456 -0.005600 0.002893 -0.005746 0.000991 -0.002437 -0.002713 0.002535 0.000154 0.005001 0.006723 -0.001150 -0.003374 -0.005685 0.004545 -0.001904 0.001093 -0.004994 0.001788 0.003921 0.004085 -0.003562 -0.002307 -0.000792 0.002520 -0.002124 0.000918 -0.001164 0.000880 -0.003300 -0.000650 -0.006060 0.004589 -0.001726 0.002549 0.006002 -0.000786 -0.000549 0.001988 -0.003399 0.006824 0.002097 0.003274 0.003722 -0.005550 -0.002543 0.000864 -0.004192 0.003320 0.005745 0.000750
deal -0.006224 -0.001695 -0.002900 0.001750 -0.003366 0.002482 -0.009924 -0.005125 0.004474 -0.001609 0.005855 -0.001172 -0.000963 -0.002063 -0.003756 -0.002963 -0.001428 -0.004037 0.002351 -0.002433 -0.008508 0.003045 0.000284 0.008451 -0.001203 0.012745 -0.000107 -0.006064 0.008413 -0.003533 -0.002580 0.005155 -0.002314 -0.005045 0.008511 -0.006209 -0.004801 0.006032 -0.006718 0.004605 -0.001711 -0.003350 -0.000557 0.002785 0.010438 -0.000422 0.002155 0.005899 -0.002333 -0.000048 -0.008142 0.001957 -0.000278 0.004512 0.002244 -0.000566 0.001306 0.002066 0.002926 0.003295 -0.002838 -0.000879 -0.000999 0.001079 0.005248 0.004641 -0.006452 -0.002556 0.002604 0.007062 -0.007860 -0.002349 0.003181 -0.005670 -0.002550 0.005433 0.002559 0.008515 0.000024 0.003639 -0.002134 0.006402 -0.000393 -0.003603 0.006549 -0.001970 0.009504 0.002156 -0.000515 0.007320 0.006830 0.004058 -0.004177 -0.007372 0.006918 -0.004287 -0.004131 0.003467 0.005981 0.003817
noise -0.001959 -0.002935 -0.003090 0.001426 -0.004484 -0.000431 -0.000617 0.000064 0.004830 -0.005297 0.002712 -0.000491 -0.007159 -0.007611 -0.002448 0.004125 -0.003417 0.003787 0.002703 0.003449 0.002946 0.003836 -0.002405 0.001864 -0.003939 0.009224 -0.002856 -0.006366 0.000157 -0.000738 0.000202 0.000417 0.001118 -0.004681 0.002567 0.003137 -0.002015 -0.000516 -0.006487 0.003346 0.004046 -0.002625 -0.002227 0.005259 0.008172 -0.003337 0.005917 0.005942 -0.003416 -0.002463 0.002535 -0.000733 -0.002507 0.004277 0.003454 -0.005087 0.000955 -0.002614 -0.002950 0.002142 0.001829 -0.004999 -0.000142 0.004555 -0.000072 -0.004912 -0.003948 0.004684 0.002455 0.005274 0.003280 -0.003518 -0.004132 0.001749 0.003667 0.003800 0.000969 0.010557 0.002739 -0.001695 0.001006 0.005922 -0.000568 -0.003162 0.001309 -0.003501 0.006864 -0.001818 -0.000586 0.005677 0.006399 0.004095 -0.004128 0.000409 0.002151 0.003092 0.001410 -0.003146 0.001613 0.001803
customer -0.012247 -0.006871 -0.008058 -0.001801 -0.002356 0.004859 -0.006167 0.000906 -0.002337 -0.003082 0.001402 -0.001340 0.000451 -0.010266 -0.001876 0.005012 -0.000760 -0.000074 0.001376 -0.001013 -0.006195 0.001906 -0.007576 0.000364 0.000320 0.008729 0.002145 -0.009476 0.007167 -0.005314 0.004039 -0.004180 0.002933 -0.009224 0.010930 -0.006321 -0.003130 0.008216 -0.001490 0.008940 0.006623 0.001509 0.005703 0.007336 0.003649 0.002079 -0.001005 0.003748 -0.003730 -0.001761 -0.004518 0.004147 -0.002441 0.012275 -0.000540 -0.002047 0.000400 -0.002137 -0.003780 0.000838 -0.006204 0.000765 -0.002309 0.001343 0.005801 0.001685 -0.009980 0.005643 0.005009 0.006691 -0.006745 -0.005823 -0.001583 -0.000522 -0.000090 -0.001223 0.003699 0.015340 -0.003465 0.006627 -0.005422 0.008743 -0.005490 -0.002235 0.007584 0.001477 0.010414 -0.002571 -0.002776 0.006720 0.003535 -0.000255 0.003586 -0.009795 0.006515 -0.008335 -0.000121 0.001254 0.004811 -0.002631
end -0.003053 -0.002115 -0.004133 -0.003362 -0.006173 -0.003475 -0.005353 -0.000579 0.000753 -0.002347 0.004766 -0.002439 -0.001077 -0.004781 -0.005892 0.003981 -0.006804 -0.003201 -0.002538 0.003149 -0.006364 -0.002084 -0.004636 -0.002470 0.000586 0.002076 0.000847 -0.002866 0.003818 0.001220 -0.001167 -0.001411 -0.000365 -0.005359 0.001478 -0.002279 0.001762 0.006955 -0.003540 0.004988 0.001354 -0.002880 0.000028 0.001364 0.007326 -0.001510 0.000641 0.006283 -0.005905 0.005251 0.001080 0.004152 0.002316 0.002107 -0.001477 -0.004538 0.003357 -0.000137 -0.000647 -0.000820 0.004921 -0.002293 -0.004893 0.004682 -0.001912 -0.003662 -0.007430 -0.002003 0.005653 0.004639 0.002775 0.001800 -0.002971 -0.000558 0.001740 0.003271 0.007180 0.009755 -0.000794 0.006590 0.001392 0.002370 -0.000817 -0.003197 0.008340 -0.003092 0.003124 0.004076 -0.000196 0.001533 0.005076 -0.003140 -0.005706 -0.001249 0.002437 -0.003973 -0.007619 0.003169 -0.000542 0.002110
fit 0.000388 0.004540 -0.003381 0.000761 -0.003289 -0.000532 -0.003801 -0.003077 -0.001665 0.003753 -0.000039 -0.003860 -0.000161 -0.006322 -0.004895 -0.000033 -0.006088 0.002376 -0.001773 -0.003111 0.001959 -0.002603 -0.002037 0.006295 0.003528 0.001844 -0.001957 0.003281 0.007783 -0.001228 0.002595 -0.003576 -0.000252 -0.001053 0.003474 0.002976 -0.003467 0.002793 0.000820 0.005385 0.002516 0.000777 -0.002358 -0.001143 -0.002721 -0.003827 0.000800 0.003066 -0.004604 -0.000223 -0.003741 0.000140 -0.005980 0.002996 0.002383 -0.005261 -0.003143 0.003366 0.004283 0.005523 -0.000448 0.002707 -0.005401 0.001383 0.001604 -0.000777 -0.004330 -0.006339 -0.005031 0.004496 -0.003781 0.002492 0.001000 -0.002907 0.003073 -0.000990 0.005695 -0.001576 -0.003619 -0.002104 -0.002902 -0.001304 -0.002656 0.001418 0.000955 0.001611 0.004568 0.000723 -0.001338 0.002600 -0.002762 -0.000134 0.001300 -0.002107 -0.001810 0.003200 -0.001730 -0.002393 0.003302 0.004319
type -0.010570 -0.003890 -0.005658 -0.002816 -0.005320 0.003629 -0.004902 0.004587 -0.000686 -0.000341 0.002315 0.001410 -0.005283 -0.008699 -0.006268 0.002884 -0.005389 -0.004203 -0.000086 -0.004938 -0.010316 -0.000966 -0.007917 0.007545 -0.001821 0.012533 0.004910 -0.009752 0.012504 0.000295 0.001274 -0.002322 0.005027 -0.010536 0.007778 -0.002334 -0.003022 0.009271 -0.002051 0.012559 0.005642 -0.004479 0.003355 0.005109 0.007962 0.000664 0.000104 0.008175 -0.006315 -0.001291 -0.010311 0.001093 -0.008687 0.009630 0.006999 -0.001529 0.001140 0.003378 0.004744 0.002372 -0.006203 0.000699 -0.001002 -0.003157 -0.001054 -0.004859 -0.012676 0.000365 -0.003119 0.005248 -0.007354 -0.005731 -0.004808 -0.005226 0.000021 0.002951 0.009623 0.009030 0.001771 0.004907 -0.002405 0.003626 -0.003295 -0.005515 0.005033 -0.004307 0.003430 -0.005673 -0.002883 0.003754 0.003216 0.000297 -0.001977 -0.007152 0.005645 -0.004004 -0.002426 0.005309 0.005575 0.006235
mode -0.005520 0.002835 -0.003140 -0.000094 0.001047 0.000970 -0.001872 -0.002505 -0.002359 -0.004923 0.001282 0.002932 -0.001866 -0.003549 -0.003951 -0.002225 -0.002273 -0.006018 -0.005832 -0.005080 0.000456 -0.003327 -0.003203 0.003593 0.000604 0.003056 -0.000734 -0.004668 0.007636 0.000157 -0.002303 0.000105 0.006304 -0.005249 0.002125 -0.004143 -0.003536 -0.001986 0.000519 0.008111 -0.000547 0.002636 0.004963 0.003206 -0.000717 0.001307 -0.000126 0.000326 -0.005671 0.006597 0.000495 0.002599 -0.001880 0.010036 0.003477 -0.004791 0.001519 0.000387 -0.004752 -0.000147 0.003304 -0.004367 0.002271 0.004883 -0.001637 0.002875 0.001246 -0.000067 0.001878 0.003819 0.000106 0.002134 -0.007159 -0.000448 0.001794 0.003538 0.006069 0.008625 -0.001740 0.009147 0.000510 0.000385 0.000411 0.001734 0.008081 0.001547 0.001521 -0.000193 0.000448 0.005891 -0.001500 -0.000428 -0.000448 -0.008520 -0.000196 -0.003871 -0.007446 0.002323 0.000757 0.003817
mobile 0.001223 0.003939 0.001008 -0.000765 0.002844 0.002470 0.000374 -0.000917 0.003512 0.005050 -0.000782 -0.004541 -0.004545 0.001215 -0.002541 -0.001756 0.002571 0.000299 -0.003754 0.001688 0.004012 -0.001814 -0.002865 -0.004232 0.002072 -0.003178 -0.000636 0.002497 0.000266 -0.005322 0.004809 -0.000793 -0.004396 0.000465 0.004310 0.004536 -0.001287 -0.002421 -0.005007 0.003337 -0.003551 0.001249 0.003253 0.002816 0.003575 -0.004345 0.005228 0.000067 -0.003802 0.004589 0.002781 -0.002571 -0.004121 -0.002126 0.000493 0.002052 -0.001830 -0.002870 0.004564 -0.003254 -0.003366 0.001984 -0.002254 0.003588 0.005638 -0.000780 -0.000372 0.000159 0.001598 -0.002094 -0.000971 0.002834 0.002215 0.006728 0.001043 -0.003223 -0.003052 0.002858 -0.003059 0.001557 0.004572 0.003920 -0.002781 0.000023 -0.001033 0.005331 -0.001182 0.001327 -0.003056 0.002795 -0.002064 -0.006122 0.002426 0.000167 -0.002523 -0.004409 0.001543 -0.001197 -0.003319 0.000841
datum 0.002470 0.001605 -0.007234 0.003606 -0.003205 0.005931 -0.007174 -0.002999 -0.004072 -0.001664 -0.002765 0.000886 -0.000340 -0.001176 0.003018 -0.001390 0.000320 -0.002078 0.002366 -0.000420 -0.006881 -0.005024 -0.005927 -0.001969 -0.000110 0.003037 -0.004949 -0.002454 0.002164 0.001292 0.000239 0.000094 0.001198 -0.003369 0.006057 -0.002974 0.003989 -0.002351 0.000373 0.001256 0.002622 -0.004490 0.001846 -0.003879 0.010698 0.004180 0.005038 0.007585 -0.006315 -0.003039 -0.005474 0.002440 0.001929 0.009212 0.003444 0.002028 0.003674 0.001425 -0.002835 -0.001832 -0.003840 0.001999 -0.005096 -0.001284 0.003682 -0.001701 0.002060 -0.004426 0.000240 0.000986 0.002106 -0.004111 -0.001292 -0.000466 0.002468 -0.004665 0.005008 0.011463 -0.004734 0.003920 -0.004896 0.005582 0.000621 0.001140 0.001990 0.000026 0.001109 -0.005505 0.002473 0.002523 0.002948 0.002551 -0.001269 -0.006093 0.001251 0.003781 0.000170 0.002185 0.005000 -0.001104
front -0.006236 0.002423 0.000469 -0.003194 -0.006981 0.002216 -0.004935 0.004781 0.005561 -0.002942 0.002925 -0.003367 0.001757 -0.001185 -0.000852 0.000499 -0.001380 0.000527 -0.001164 -0.004724 -0.009368 -0.004185 -0.000247 0.004947 -0.002281 0.011373 0.003932 -0.005846 0.009776 -0.002646 -0.000389 -0.001072 -0.001414 -0.006397 0.004396 0.003334 0.001366 0.003583 -0.006418 0.004527 0.007384 0.001915 -0.003379 0.005813 0.001384 0.004859 0.000494 0.004730 -0.003194 0.000922 -0.003041 0.003236 -0.006011 0.004835 0.000484 -0.002162 -0.005221 -0.001087 0.001142 0.002040 0.000833 -0.002510 -0.002608 0.000652 0.001509 0.003192 -0.005741 -0.004755 -0.004196 0.001206 0.002348 -0.002579 -0.004078 -0.003830 0.000984 0.005802 0.000175 0.010272 -0.000476 0.006293 -0.004885 0.003302 0.002846 -0.000226 0.003682 -0.004486 0.002880 -0.002956 -0.002154 0.005956 0.005833 -0.003120 -0.000426 -0.003369 -0.002988 0.002303 -0.005110 -0.002080 -0.002318 0.002489
reason -0.002948 -0.003205 -0.004688 0.000026 0.001023 -0.002976 -0.004454 -0.000886 -0.002262 0.000061 -0.002559 -0.004660 -0.000667 -0.007289 -0.005067 0.002586 -0.003893 -0.001214 -0.004458 0.002736 -0.003750 0.003663 0.003664 0.001505 0.003665 0.006903 0.005380 -0.003200 0.004091 -0.003938 0.004386 -0.000410 0.000750 -0.007720 -0.000692 -0.006997 -0.005578 0.001327 -0.003561 0.005789 0.001321 0.002601 0.002230 0.004587 0.001053 0.000788 0.000626 0.002620 0.000050 0.002497 -0.000122 0.003625 -0.004156 0.001652 -0.003190 -0.001909 0.003199 0.001931 0.001380 0.004885 -0.001180 -0.005355 -0.002952 0.002529 0.002266 0.002595 -0.001579 0.003275 0.003564 -0.004002 -0.003650 -0.005876 0.001689 0.000650 0.000803 0.003185 0.003439 0.000643 0.003395 0.006305 0.002042 0.002051 0.001443 -0.001737 0.005118 -0.000395 0.000588 -0.004374 0.000838 -0.002065 0.004576 -0.003904 -0.000788 -0.001100 0.000242 -0.000680 -0.001430 0.001530 -0.001457 0.002949
top -0.000406 -0.006549 -0.006220 0.003583 -0.005084 -0.002461 -0.004318 -0.004638 0.001103 -0.003214 -0.000319 0.003235 0.002158 -0.000823 -0.002320 0.005511 0.002071 -0.000857 -0.004936 0.002984 -0.007035 -0.003256 -0.006137 -0.003152 0.002133 0.007670 0.005006 -0.003040 0.007805 -0.000245 -0.001211 0.004057 -0.001979 -0.003637 -0.001890 -0.003768 -0.006834 0.001279 -0.001626 0.008017 0.000945 -0.002082 0.003342 0.001430 0.002627 0.000874 0.000611 0.003651 -0.003113 -0.000711 -0.001401 -0.002865 -0.002916 0.004952 0.005470 0.001592 -0.000720 0.000848 -0.004280 0.000762 -0.004986 -0.003292 -0.002618 -0.000609 0.003708 -0.001774 -0.004609 -0.001550 0.002098 0.004417 -0.001285 0.001100 -0.004301 -0.002196 0.004491 0.000551 -0.000690 0.008103 -0.005359 0.001260 -0.004569 -0.003748 -0.005040 -0.006834 0.002638 0.003535 0.003375 0.002910 -0.004154 -0.002399 0.004298 -0.003905 0.003085 -0.003905 -0.003696 0.000078 -0.006006 0.003050 -0.001023 -0.000908
radio 0.004471 0.001969 0.000606 0.001304 0.000242 -0.001355 0.002837 -0.002568 -0.004259 -0.001523 -0.004169 0.004379 -0.003995 0.003846 0.005349 0.001587 0.003243 -0.001056 -0.000047 -0.005409 0.004400 -0.001866 0.000130 0.000502 0.000466 -0.000543 0.000814 -0.003431 -0.005102 -0.005488 0.003349 0.004144 0.002727 0.001775 -0.004011 0.002945 0.004890 -0.002304 0.001513 -0.005043 -0.003069 0.003377 0.003811 0.002861 0.001904 -0.001809 0.004321 -0.002744 0.000397 -0.000392 -0.002871 -0.004793 -0.004497 0.002092 0.002709 -0.004604 0.005271 -0.000845 -0.000007 0.000965 0.004114 0.002442 -0.001344 -0.003924 -0.004196 -0.001219 0.005788 0.004607 -0.001025 -0.001648 0.004428 0.000295 -0.003275 0.000214 -0.001507 0.001341 0.003723 0.003459 0.003826 0.003201 -0.000935 0.002317 0.003445 -0.003020 0.000711 -0.001537 -0.002984 0.002032 -0.000500 -0.000397 -0.003647 -0.004015 0.003419 -0.002349 -0.002637 -0.001587 -0.004394 -0.002319 -0.000993 0.003400
