822 100
oven -0.008220 -0.021284 -0.001819 0.012850 -0.019821 0.012991 -0.013288 -0.013544 0.026200 -0.015699 0.007276 0.010287 -0.010533 -0.039422 -0.004062 -0.029236 -0.025190 -0.016596 0.010392 -0.002331 0.030240 -0.025133 -0.037969 -0.001165 -0.014784 -0.016011 0.003667 0.005392 0.006261 -0.002441 -0.018744 -0.005841 0.028189 0.035893 -0.003557 -0.034661 0.014470 -0.014184 0.001902 0.000549 -0.025189 -0.003300 -0.010112 0.012279 -0.007528 -0.007418 0.017832 0.020312 0.030154 0.019658 -0.016328 -0.005474 0.014939 -0.018772 0.012864 -0.003791 0.003545 -0.003821 0.024035 0.036854 0.033487 -0.003500 -0.040431 -0.017972 -0.014201 0.009591 -0.008157 0.040255 0.021629 0.016003 -0.032429 -0.025280 -0.004538 -0.024268 -0.003585 0.002303 0.013770 0.015432 -0.026232 -0.027132 -0.003012 0.026406 0.008737 0.018143 0.021324 0.025010 0.020414 0.035858 0.014785 -0.005603 0.028150 -0.021528 0.015824 0.007891 -0.011016 0.004317 -0.013997 -0.018909 0.003885 -0.001015
door -0.013530 -0.042650 0.016695 0.042207 -0.035124 0.029699 -0.044852 -0.043737 0.062538 -0.022541 -0.004494 0.030321 -0.006697 -0.047744 -0.001415 -0.069577 -0.046664 -0.002088 0.032852 0.001666 0.030025 -0.044366 -0.076459 -0.008135 -0.038604 -0.033291 0.026215 -0.019699 0.021310 -0.016149 -0.023016 0.012979 0.024435 0.037509 0.004863 -0.073663 -0.000038 -0.004987 -0.027720 -0.015416 -0.063765 -0.012961 -0.010005 0.033210 -0.004874 0.020319 0.002948 0.025852 0.048851 -0.010867 0.004425 0.001742 0.041165 -0.008634 0.017289 -0.006343 -0.038319 0.011814 0.046286 0.057532 0.060907 -0.026142 -0.070342 -0.059481 -0.021774 0.043600 -0.014646 0.057655 0.020820 0.035450 -0.046170 -0.055745 0.016084 -0.048703 -0.035761 0.006533 0.004077 0.022982 -0.052234 -0.048818 -0.027961 0.031049 0.025455 0.037354 0.051240 0.032433 0.046320 0.083279 -0.001469 0.015539 0.074190 -0.051714 0.033993 0.032641 -0.025072 -0.003788 -0.029539 -0.015045 -0.029075 0.016554
button -0.002579 -0.034668 0.012878 0.037314 -0.006645 0.019050 -0.059875 -0.044545 0.047365 -0.029811 -0.027469 0.043358 -0.016954 -0.040998 -0.006819 -0.080805 -0.042602 -0.020033 0.031778 0.012896 0.046859 -0.042650 -0.083376 -0.026665 -0.032373 -0.022111 0.038866 0.000855 0.007664 -0.029028 -0.029517 -0.006312 0.033990 0.038891 -0.004766 -0.069940 0.010969 -0.003939 -0.027920 -0.016680 -0.069378 -0.017877 -0.021975 0.038534 -0.004371 0.010149 -0.012700 0.008087 0.047761 -0.011326 0.005036 0.016145 0.057371 -0.014383 -0.006401 0.007675 -0.042580 0.006450 0.046207 0.045516 0.049958 -0.016011 -0.070621 -0.052594 -0.012693 0.052243 -0.017153 0.042196 0.002576 0.022640 -0.050148 -0.056947 0.013046 -0.036459 -0.057139 -0.000898 0.003134 0.028335 -0.034838 -0.042423 -0.029358 0.031556 0.015836 0.037821 0.051848 0.034259 0.036634 0.079399 -0.008637 0.024378 0.083659 -0.039338 0.034771 0.045440 -0.035406 -0.002690 -0.040033 -0.011589 -0.010826 0.018821
panasonic -0.010998 -0.022989 -0.002025 0.017401 -0.025399 0.014429 0.005931 -0.010731 0.017903 -0.006472 0.009500 0.013866 -0.019712 -0.029821 -0.015886 -0.018885 -0.018315 -0.000250 0.003848 -0.006409 0.021036 -0.026067 -0.026926 -0.002575 -0.016862 -0.013734 -0.003325 -0.004849 -0.001528 0.001912 -0.014429 0.000729 0.020096 0.035508 -0.003539 -0.024098 0.017549 -0.012779 0.001470 0.000392 -0.022496 0.000296 -0.009146 0.017090 0.006168 -0.004336 0.022401 0.023731 0.018242 0.010130 -0.008491 -0.006074 0.006098 -0.008255 0.018027 0.004292 0.005049 -0.003429 0.023664 0.034296 0.022056 0.000689 -0.032614 -0.014120 -0.015466 0.012415 -0.013805 0.038415 0.018589 0.006789 -0.019847 -0.008220 -0.004125 -0.030187 0.011876 -0.004345 0.009865 0.007430 -0.023067 -0.025974 -0.001396 0.013504 0.012425 0.014802 0.025936 0.027141 0.014234 0.033421 0.016525 -0.010677 0.025074 -0.017305 0.023474 0.002077 -0.005398 0.002234 -0.017922 -0.006188 0.000525 -0.000785
power -0.017087 -0.046465 0.020666 0.042785 -0.014391 0.019457 -0.031789 -0.045904 0.028541 -0.046112 -0.019755 0.046746 -0.033171 -0.053629 -0.015752 -0.086677 -0.044153 -0.016920 0.016960 -0.004627 0.070170 -0.052524 -0.086034 -0.022016 -0.022688 -0.034046 0.015937 0.020924 0.005732 -0.021183 -0.037240 -0.018418 0.059300 0.070289 -0.007223 -0.072009 0.032419 -0.021829 -0.009683 -0.018693 -0.077049 -0.000516 -0.027094 0.023995 0.008338 -0.001022 0.021381 0.012122 0.041956 0.012536 -0.017510 0.001535 0.048843 -0.027515 0.002179 0.012427 -0.020133 -0.016131 0.051442 0.063115 0.060807 0.003698 -0.085892 -0.048001 -0.011517 0.041299 -0.033741 0.062051 0.010969 0.020993 -0.065066 -0.055438 0.001641 -0.049917 -0.035705 -0.006374 0.021562 0.038548 -0.049731 -0.054989 -0.023712 0.029227 0.022063 0.029545 0.066819 0.053540 0.031960 0.085609 0.026436 -0.001715 0.078215 -0.051550 0.039838 0.026446 -0.028237 -0.004080 -0.034185 -0.018223 0.013633 0.011536
easy -0.007101 -0.016654 0.003067 0.014849 -0.020503 0.018259 -0.012451 -0.022521 0.020504 -0.007445 -0.006533 0.011190 -0.016897 -0.029802 -0.007457 -0.037493 -0.018479 -0.010816 0.013291 0.002925 0.024993 -0.023142 -0.039436 -0.005152 -0.007456 -0.010094 0.012588 -0.003879 -0.003305 -0.013942 -0.011549 -0.000073 0.012661 0.024328 -0.005473 -0.037074 0.009635 -0.006006 -0.005290 -0.000410 -0.021398 0.001391 -0.004410 0.019166 -0.006515 0.008240 -0.003131 0.006217 0.029644 0.000320 -0.001524 0.000354 0.024575 -0.010285 0.006579 0.000757 -0.008648 0.008230 0.027160 0.025818 0.026017 -0.001489 -0.040181 -0.016872 -0.002050 0.020383 -0.010020 0.034053 0.016277 0.018552 -0.023311 -0.027751 0.005053 -0.020501 -0.017149 -0.003874 0.009012 0.013023 -0.021783 -0.018712 -0.002220 0.021208 0.008889 0.017959 0.022765 0.015006 0.020432 0.028207 -0.000626 0.009571 0.037367 -0.021356 0.019019 0.016512 -0.015881 0.002505 -0.014979 -0.017192 -0.010479 0.014036
food -0.004388 -0.013847 0.003587 0.011410 -0.002923 0.009755 -0.022093 -0.013713 0.016674 -0.018953 -0.004635 0.016759 -0.010577 -0.018323 0.003882 -0.036014 -0.010223 -0.016481 0.010156 0.009626 0.021422 -0.020656 -0.038006 -0.006358 -0.007276 -0.015690 0.009329 0.011971 -0.001016 -0.005354 -0.015356 -0.014583 0.022456 0.026493 0.003253 -0.020185 0.009123 -0.010041 -0.009541 -0.006225 -0.021415 -0.003893 -0.006593 0.018188 -0.010523 0.003412 0.002777 0.006107 0.014501 0.003126 -0.008254 0.008527 0.025001 -0.009895 0.004836 -0.001945 -0.010580 -0.006594 0.021810 0.023395 0.020002 -0.003548 -0.036295 -0.024159 -0.007748 0.021283 -0.015223 0.018037 0.009447 0.011121 -0.017169 -0.020645 -0.002612 -0.023830 -0.023008 -0.000585 0.007861 0.023069 -0.013967 -0.011318 -0.014080 0.018918 0.010184 0.012617 0.026337 0.012579 0.013217 0.029300 -0.000838 0.003780 0.028521 -0.019993 0.010388 0.019727 -0.008036 -0.005819 -0.016565 -0.015585 0.005542 -0.000432
cooking -0.005151 -0.021574 0.004972 0.011258 -0.002059 0.003307 -0.023618 -0.018595 0.007112 -0.019023 -0.010451 0.022666 -0.012944 -0.021322 -0.003719 -0.042861 -0.012896 -0.018170 0.009436 -0.001417 0.033540 -0.026468 -0.042281 -0.011360 -0.011649 -0.016237 0.013878 0.016301 -0.003913 -0.015613 -0.014668 -0.009609 0.028941 0.029359 0.000157 -0.023766 0.014900 -0.013205 -0.002091 -0.014047 -0.037308 -0.007192 -0.017412 0.020682 0.001040 -0.003654 0.008590 0.007745 0.020143 0.006151 -0.005211 0.005754 0.023506 -0.009637 -0.001650 0.008371 -0.010507 -0.006468 0.021549 0.028917 0.020234 0.001065 -0.042854 -0.025484 -0.008911 0.027821 -0.014718 0.021473 0.002761 0.012103 -0.026330 -0.021605 -0.000539 -0.023678 -0.026897 0.007248 0.007499 0.023935 -0.013238 -0.019057 -0.012744 0.016597 0.002757 0.009955 0.023647 0.020329 0.013593 0.036853 0.003900 0.005902 0.037485 -0.016387 0.021071 0.018469 -0.006693 0.000115 -0.018102 -0.008184 0.010206 -0.004473
feature 0.000231 -0.012362 0.002960 0.007420 -0.007860 0.012071 -0.010099 -0.013799 0.006502 -0.010250 -0.003033 0.014060 -0.006583 -0.012396 -0.002620 -0.018251 -0.008864 -0.009449 0.001455 0.007657 0.016854 -0.020347 -0.023186 -0.001232 -0.009479 -0.002922 0.009532 0.012437 0.002979 -0.002434 -0.010599 -0.011275 0.018971 0.020055 -0.003130 -0.018744 0.000759 -0.009142 -0.002395 -0.000829 -0.017548 -0.005972 -0.005638 0.014148 -0.003800 -0.007028 0.004797 0.008272 0.012482 0.010366 -0.000323 0.001939 0.008791 -0.006226 0.006091 0.005625 -0.003408 -0.002868 0.013308 0.012760 0.017138 0.004728 -0.024207 -0.005893 -0.001183 0.014173 -0.009508 0.017578 0.008973 0.004037 -0.018665 -0.019201 0.002048 -0.009464 -0.014398 0.004019 0.000105 0.015458 -0.006498 -0.004330 -0.000599 0.008891 -0.004003 0.005382 0.011161 0.015158 0.006764 0.015456 0.007794 0.005795 0.016460 -0.011400 0.013047 0.013288 -0.008543 -0.002569 -0.005235 -0.012088 0.002508 0.002479
model -0.000581 -0.015747 -0.000673 0.011060 -0.014953 0.011921 -0.007734 -0.008265 0.009007 -0.011270 0.000294 0.007168 -0.009056 -0.013107 -0.004946 -0.019439 -0.014334 -0.007073 0.008565 -0.001125 0.019888 -0.019916 -0.022397 -0.000965 -0.006652 -0.012845 0.001485 -0.000527 0.005691 -0.004295 -0.010464 0.003650 0.016159 0.012994 0.000039 -0.018477 0.009636 -0.009356 0.006396 -0.001533 -0.010778 -0.001572 -0.012166 0.004357 0.004951 -0.006487 0.006194 0.013168 0.013517 0.006928 -0.007659 0.001666 0.005795 -0.007389 0.006893 0.003263 -0.001436 -0.003134 0.013678 0.017775 0.010648 0.004821 -0.016161 -0.003975 -0.003362 0.003575 -0.007920 0.024714 0.007961 0.009514 -0.009756 -0.004688 -0.000394 -0.014270 0.001476 -0.003859 0.000258 0.006255 -0.013746 -0.015874 -0.003123 0.008931 0.000243 0.009140 0.010943 0.009417 0.010723 0.015385 0.011880 -0.007118 0.011440 -0.016492 0.010473 0.001439 0.000444 -0.004758 -0.010860 -0.002675 0.004288 0.003750
review -0.006619 -0.018211 0.006468 0.011202 -0.013092 0.004780 -0.000750 -0.009317 0.012765 -0.009170 -0.002990 0.012432 -0.008191 -0.019421 -0.010475 -0.015280 -0.012309 0.002873 -0.000390 0.001976 0.023379 -0.021649 -0.027704 -0.002195 -0.014024 -0.004332 0.002602 -0.000628 0.002842 -0.005343 -0.007675 -0.001803 0.011455 0.023481 -0.004231 -0.027680 0.014346 -0.000609 -0.002972 -0.003753 -0.026109 -0.002253 -0.009960 0.014183 -0.001633 0.002582 0.012774 0.019397 0.015112 0.008926 -0.005383 -0.009975 0.006800 -0.003763 0.003705 -0.001598 0.002446 -0.004164 0.019011 0.030580 0.027400 0.002412 -0.025971 -0.018561 -0.010979 0.004465 -0.010490 0.030350 0.008625 0.007399 -0.021004 -0.010776 0.001788 -0.017018 -0.000296 0.004877 0.011052 0.003264 -0.023767 -0.018485 -0.003302 0.013920 0.011169 0.008006 0.022374 0.015037 0.016948 0.022543 0.015151 -0.001582 0.029365 -0.019714 0.020653 0.001023 -0.002475 0.002240 -0.009588 -0.004228 -0.005177 0.005514
size -0.000457 -0.014754 0.006033 0.003060 -0.007582 0.011185 -0.008513 -0.003581 0.004288 -0.007519 0.002796 -0.000808 -0.009737 -0.011570 -0.003992 -0.011085 -0.010223 -0.012315 0.003437 -0.000955 0.014621 -0.008737 -0.020943 0.004547 -0.000086 -0.006378 0.003585 0.007391 -0.005727 -0.003726 -0.006525 0.002167 0.013093 0.020957 0.001161 -0.014915 0.005154 -0.000016 0.005840 -0.001047 -0.010869 -0.004952 -0.007011 0.002215 -0.005562 -0.007454 0.011526 0.004412 0.012461 0.004817 -0.007334 0.000431 0.008010 -0.005225 0.007917 -0.001545 -0.006191 -0.002558 0.007692 0.012448 0.013431 0.007148 -0.019115 -0.001509 -0.005523 0.008420 -0.002115 0.023896 0.012304 0.006636 -0.014090 -0.006936 -0.001780 -0.012307 0.002048 0.000892 0.005583 0.005768 -0.015390 -0.010548 0.001028 0.017610 0.000988 0.008712 0.007734 0.007455 0.010859 0.012123 0.004492 -0.001523 0.005695 -0.006217 0.003051 0.009964 -0.002912 -0.002713 -0.005719 -0.011146 -0.002099 0.000608
minute -0.012436 -0.023085 0.006419 0.020227 -0.009081 0.015855 -0.031795 -0.024488 0.029851 -0.023328 -0.018506 0.024285 -0.009770 -0.025838 -0.001523 -0.048065 -0.027218 -0.007457 0.014474 0.007394 0.025684 -0.026259 -0.049901 -0.007161 -0.014312 -0.017165 0.019337 0.003343 0.007774 -0.016716 -0.024821 -0.000143 0.026838 0.033104 -0.003182 -0.045049 0.005314 -0.004193 -0.016501 -0.016499 -0.037725 -0.003868 -0.015203 0.019481 -0.008078 0.001456 -0.004649 0.004127 0.028805 0.006011 -0.005825 0.000241 0.033433 -0.016840 -0.001011 0.005269 -0.016820 -0.001688 0.029334 0.036172 0.033188 -0.009728 -0.047490 -0.033966 -0.006042 0.026510 -0.015333 0.031300 0.006664 0.012236 -0.035765 -0.030851 0.002780 -0.030387 -0.028026 0.001513 0.002917 0.025492 -0.031071 -0.031340 -0.024267 0.019522 0.018474 0.015914 0.035101 0.015196 0.014467 0.050412 0.000731 0.007895 0.045442 -0.032995 0.012189 0.025442 -0.017102 0.002359 -0.019397 -0.015097 -0.000768 0.005966
small -0.002269 -0.027776 0.000960 0.018176 -0.011744 0.019883 -0.015722 -0.014683 0.017894 -0.011659 0.002249 0.018808 -0.017014 -0.034517 -0.004952 -0.033158 -0.017639 -0.009230 0.007937 0.002581 0.021089 -0.016667 -0.042195 -0.008444 -0.005330 -0.004851 0.015874 0.010193 0.001442 -0.002748 -0.015793 -0.007073 0.022710 0.027140 -0.000277 -0.030203 0.009741 -0.002164 0.002090 -0.013822 -0.024860 -0.000116 -0.016002 0.019003 -0.003929 -0.001854 0.003968 0.010896 0.022979 0.014154 -0.010488 -0.001423 0.014627 -0.007852 0.013079 0.001324 -0.006346 0.002971 0.027592 0.029349 0.024030 -0.002830 -0.040324 -0.015383 -0.006974 0.022465 -0.011802 0.039342 0.019028 0.019478 -0.034886 -0.022476 -0.005439 -0.015284 -0.011128 0.002531 0.007817 0.012883 -0.022096 -0.012030 -0.000046 0.025656 0.004814 0.018387 0.017244 0.024641 0.021580 0.036905 0.010277 0.004166 0.027177 -0.016802 0.022781 0.013083 -0.006312 -0.006345 -0.011579 -0.015144 0.004074 0.002271
price -0.003976 0.000521 -0.005010 0.003454 0.005066 -0.000451 0.007878 -0.000915 -0.006596 0.005651 0.005094 -0.001847 0.006168 -0.001880 -0.002509 0.005214 0.000988 0.000317 -0.005280 -0.005263 -0.006679 0.001026 0.003192 0.004789 -0.003125 0.000111 -0.001163 0.000776 -0.000487 0.000122 0.005580 0.005931 0.002639 -0.003397 0.004326 0.006494 0.004481 -0.003724 -0.001969 -0.001664 -0.003123 0.002171 -0.004518 0.003591 -0.002030 0.004116 0.002102 0.006126 0.003599 0.000895 -0.006190 -0.002272 -0.008225 0.002576 -0.000116 -0.005702 -0.001381 0.005757 -0.003329 -0.003555 -0.003729 0.002474 -0.000334 -0.002787 0.002702 -0.003949 0.000762 0.003228 0.004298 -0.003334 -0.003366 0.001031 0.003891 -0.001155 0.004230 -0.005291 0.001708 0.000374 -0.002721 0.000258 -0.000861 0.004395 -0.005049 0.004348 -0.005976 0.002707 -0.002894 -0.000857 0.005993 0.001364 -0.006344 -0.001187 0.003211 -0.001310 -0.002697 -0.001746 0.003821 0.002918 0.002803 0.000646
kitchen 0.000176 -0.014409 -0.000158 0.004058 -0.003181 0.006298 -0.007573 -0.003830 0.014047 -0.009631 0.001467 0.005816 -0.003684 -0.018810 -0.002862 -0.006049 -0.011279 0.000532 0.003340 0.000861 0.009504 -0.008448 -0.017863 -0.002858 -0.008153 -0.003607 -0.000799 0.002456 0.003792 -0.003918 -0.007386 0.003498 0.010740 0.007841 0.005997 -0.016321 0.003575 0.003613 -0.002806 -0.005328 -0.014364 0.003071 -0.009234 0.010783 0.001020 0.007555 0.005442 0.005215 0.004919 0.001590 -0.001348 0.001717 0.001427 -0.010033 0.013934 -0.006946 -0.003629 -0.001771 0.011933 0.014151 0.007078 -0.002964 -0.010466 -0.009812 -0.003282 0.007041 -0.005778 0.018803 0.007514 0.009593 -0.011023 -0.001670 0.002787 -0.007664 -0.007116 -0.006977 0.002677 0.002094 -0.008302 -0.007199 0.000324 0.011050 0.001234 0.009993 0.004561 0.008709 0.006811 0.019430 0.004131 -0.002742 0.011118 -0.005715 0.011235 0.003234 -0.000614 -0.006478 -0.002300 -0.008110 -0.005141 0.003377
popcorn -0.000084 -0.033630 0.009649 0.025131 -0.010319 0.024172 -0.027934 -0.016041 0.032499 -0.014078 -0.006324 0.016784 -0.010058 -0.033100 0.002685 -0.042945 -0.018622 -0.022744 0.012513 0.005448 0.035064 -0.015961 -0.043260 -0.018459 -0.016372 -0.005096 0.019477 0.004396 0.002157 -0.016652 -0.015378 -0.013814 0.022137 0.045685 -0.004922 -0.044598 0.008599 -0.004054 -0.006163 -0.008320 -0.039593 -0.008982 -0.014005 0.032420 -0.007520 0.002111 -0.005935 0.015154 0.033180 0.006931 -0.007781 0.002239 0.033625 -0.015803 0.009686 0.005073 -0.011988 -0.001017 0.039684 0.041348 0.040507 0.003115 -0.052880 -0.026568 -0.010872 0.030498 -0.014445 0.044003 0.016805 0.023812 -0.037799 -0.037517 0.002404 -0.031276 -0.022997 0.007817 0.007765 0.019267 -0.020475 -0.018467 -0.006460 0.031309 0.018761 0.014638 0.028490 0.023595 0.028942 0.038868 0.014443 0.012106 0.049011 -0.029566 0.031741 0.023271 -0.016537 -0.004639 -0.015900 -0.014830 -0.009125 0.008713
cook 0.004838 -0.006928 0.005629 -0.000021 0.003390 0.001882 -0.016514 -0.004416 -0.003834 -0.009223 -0.008603 0.006186 -0.011398 -0.007094 -0.004444 -0.021477 -0.001081 -0.005470 0.007946 0.004615 0.013273 -0.013611 -0.021838 -0.007003 -0.008311 -0.005276 0.010980 0.013124 -0.004420 -0.012103 -0.009234 -0.002231 0.011287 0.013561 0.000482 -0.007338 0.004395 -0.010469 0.001740 -0.009018 -0.018303 -0.004725 -0.001037 0.009259 -0.002264 -0.007810 0.006282 0.002185 0.002010 0.003180 -0.001129 0.006140 0.014791 -0.012129 -0.006525 0.001899 -0.004687 -0.007350 0.008200 0.004741 0.009854 -0.004452 -0.019767 -0.008574 0.001909 0.012281 -0.004759 -0.000098 -0.003133 -0.003145 -0.009202 -0.005179 -0.006610 -0.008013 -0.018974 0.001537 -0.002303 0.014301 -0.007997 -0.003489 -0.010140 -0.000027 -0.004804 0.006487 0.012589 0.011843 0.000647 0.013231 0.001640 0.008573 0.016719 -0.009731 0.008657 0.004276 -0.001974 0.002058 -0.006710 -0.003695 0.012444 -0.008761
space -0.009448 -0.016737 0.004404 0.015069 -0.016970 0.008738 -0.018426 -0.008757 0.021448 -0.012964 0.004442 0.016613 -0.010284 -0.022839 -0.008667 -0.021535 -0.023942 -0.012644 0.008668 -0.002284 0.025584 -0.022546 -0.031582 0.003497 -0.013125 -0.016787 0.008176 0.003241 0.003930 -0.002249 -0.010159 0.005965 0.025221 0.025213 -0.003701 -0.025796 0.008021 -0.001728 -0.000726 -0.007448 -0.030981 -0.006050 -0.015418 0.013583 0.004162 -0.000233 0.011545 0.017468 0.014225 0.008657 -0.003906 -0.003889 0.016757 -0.013856 0.006225 -0.001147 -0.012705 -0.002459 0.019464 0.024301 0.025413 -0.005892 -0.030566 -0.014808 -0.012690 0.011610 -0.013454 0.035481 0.009247 0.018505 -0.031103 -0.012370 0.003976 -0.013323 -0.015126 -0.001450 0.008507 0.014200 -0.022064 -0.016843 -0.003377 0.025189 0.003071 0.010851 0.017973 0.022953 0.010992 0.031926 0.008733 0.001091 0.025747 -0.015510 0.012977 0.015177 -0.012495 -0.004277 -0.012932 -0.014120 -0.002536 -0.000555
ge 0.000285 -0.025955 0.003058 0.019743 -0.015807 0.014811 -0.009516 -0.010269 0.024464 -0.012440 -0.004528 0.011270 -0.004901 -0.027417 -0.002714 -0.027711 -0.019742 -0.013407 0.009113 0.003393 0.024222 -0.025244 -0.030386 -0.006737 -0.011631 -0.011081 0.002077 -0.001573 0.002325 -0.001905 -0.007651 0.001695 0.016007 0.023842 -0.002787 -0.021257 0.008814 -0.004886 -0.000159 -0.005233 -0.029924 -0.004619 -0.014000 0.017585 0.002864 0.001388 0.013493 0.012286 0.018296 0.006464 -0.003697 0.001246 0.011538 -0.011938 0.010509 0.006305 0.002940 0.000962 0.017186 0.030963 0.027241 0.001753 -0.030408 -0.013921 -0.005470 0.016314 -0.009394 0.038913 0.011291 0.019899 -0.028889 -0.020267 -0.001471 -0.024766 -0.000670 -0.003719 0.006709 0.004013 -0.018835 -0.016288 -0.003368 0.015231 0.010825 0.011514 0.024441 0.021144 0.017012 0.024066 0.012442 -0.006022 0.022121 -0.021751 0.016747 0.007689 -0.002353 -0.003363 -0.007921 -0.011067 0.003322 0.000139
sensor 0.011116 -0.002052 -0.004156 -0.006430 0.015219 -0.004982 -0.011596 -0.002473 -0.015868 -0.005977 -0.000565 -0.000740 -0.002088 0.001845 -0.002573 -0.005015 0.010145 -0.011865 0.005205 0.004909 0.002515 0.005354 0.005843 -0.005524 -0.001648 -0.002386 0.008832 0.015371 -0.000266 -0.001573 0.002614 -0.017975 0.000453 -0.009252 0.001288 0.003248 -0.000530 -0.007300 -0.003879 0.006234 0.008094 0.003261 -0.005797 0.000843 -0.003142 -0.007895 -0.013007 -0.017095 0.000145 -0.006658 0.010074 0.009332 0.009633 0.000618 -0.004468 0.006022 -0.008946 -0.006738 -0.002548 -0.011279 -0.014814 0.001073 0.002247 0.004237 0.004595 0.009375 -0.009033 -0.018946 -0.002221 -0.006033 0.013726 0.001927 -0.003486 0.002493 -0.009197 0.000853 -0.005821 0.006741 0.012050 0.015386 -0.004126 -0.006088 -0.006275 0.000174 0.001713 -0.003497 -0.011673 -0.002999 0.000493 0.009509 0.001725 0.012568 -0.003337 0.009683 0.002899 0.000852 -0.002401 -0.000803 0.003470 -0.005658
stainless -0.004308 -0.010129 -0.018680 -0.013630 -0.021179 0.020687 0.004789 -0.001503 0.012905 0.006101 0.007568 0.004178 0.006523 -0.006148 0.017239 0.011406 -0.013570 0.015882 0.000924 0.000972 -0.009441 0.001538 0.016495 0.001646 -0.005450 0.001824 0.000409 -0.016546 0.013573 0.016887 -0.010415 -0.005138 -0.014374 -0.011067 0.019476 -0.012336 -0.020588 -0.013337 -0.008174 0.003026 0.015673 0.006547 0.014234 -0.009970 -0.003584 0.010192 0.006082 -0.000299 0.010986 0.006678 0.003081 -0.003400 0.000915 -0.013450 0.026435 -0.017394 0.015205 0.010535 -0.006683 -0.012194 -0.011477 -0.014569 -0.000720 -0.001944 0.006847 -0.014442 -0.009780 0.017522 -0.000539 0.011498 0.012998 -0.007591 -0.000539 -0.007069 0.008617 -0.012405 -0.006065 -0.011165 0.005409 0.012427 0.022790 0.000318 0.011773 -0.004965 -0.002429 -0.001705 -0.004125 0.007505 0.007374 0.003028 -0.017276 0.002274 0.003119 -0.015256 0.007969 0.011015 -0.005453 -0.009275 -0.015265 0.004520
large -0.002134 -0.019132 0.005448 0.015734 -0.015056 0.019123 -0.005753 -0.015495 0.019584 -0.005987 -0.003263 0.007592 -0.010867 -0.031825 0.001542 -0.019024 -0.017925 -0.004953 0.003611 0.002325 0.020302 -0.013284 -0.029423 0.000150 -0.010072 -0.002837 0.011366 0.001448 0.002220 -0.009611 -0.012431 -0.007278 0.015264 0.026031 0.001511 -0.028360 0.008794 -0.001362 0.002752 -0.003784 -0.020349 -0.002025 -0.013764 0.014261 -0.006562 -0.001441 0.009622 0.014703 0.025563 0.009570 -0.008143 -0.002966 0.013475 -0.009830 0.018005 -0.000695 -0.006393 0.003844 0.023648 0.028964 0.021983 0.000027 -0.029199 -0.019146 -0.003305 0.011746 -0.007784 0.037355 0.017513 0.019232 -0.020345 -0.021969 0.000574 -0.020816 -0.008940 0.002225 0.009480 0.015259 -0.022868 -0.014485 0.002812 0.021753 0.007570 0.018038 0.021685 0.016810 0.015726 0.033044 0.015976 0.006753 0.023328 -0.014287 0.011915 0.009158 -0.009520 -0.004601 -0.015830 -0.008695 -0.007662 0.006123
dial 0.000301 -0.006263 0.000535 0.013235 -0.008716 0.005305 -0.010571 -0.007787 0.015738 -0.005573 -0.009829 0.009541 -0.004426 -0.010059 -0.005361 -0.018545 -0.014101 -0.004000 0.008500 0.001168 0.009821 -0.006113 -0.019267 -0.005873 -0.009899 -0.009660 0.009530 -0.005386 -0.002560 -0.000187 -0.012948 -0.000782 0.005400 0.007711 -0.002407 -0.014660 0.005473 -0.003031 -0.007168 -0.002816 -0.008935 0.002501 -0.005668 0.011547 -0.000394 0.004945 -0.002805 -0.000505 0.011049 -0.004931 -0.000338 -0.001789 0.013772 0.002351 0.000417 0.000520 -0.004042 0.003385 0.014495 0.006965 0.015012 -0.005074 -0.016178 -0.015728 -0.000161 0.013326 -0.005667 0.007968 -0.000424 0.002854 -0.009746 -0.009808 -0.003807 -0.016515 -0.004369 -0.004388 0.001258 0.008322 -0.007436 -0.012245 -0.007673 0.013083 0.004792 0.011934 0.014290 0.006990 0.003425 0.022464 0.004249 0.004840 0.017705 -0.009901 0.006887 0.007800 -0.006878 -0.001497 -0.007000 -0.008786 -0.007247 0.009455
sharp -0.000970 -0.001341 0.000815 0.006134 -0.010699 0.008176 0.003646 0.002045 0.003801 0.002222 0.004485 0.006316 0.000802 -0.010664 -0.005163 -0.003237 -0.010400 -0.004508 0.006533 0.000105 0.005148 -0.002241 -0.003475 0.003821 0.000859 0.002116 -0.003754 -0.006918 -0.001699 -0.002714 -0.002716 -0.002974 0.004652 0.010966 -0.002883 -0.006866 0.004196 -0.004418 0.005179 -0.005546 -0.008579 -0.003688 -0.005755 0.004212 0.000884 0.004322 0.002153 0.009621 0.004891 0.006546 -0.003918 -0.008597 0.004265 -0.001388 0.009437 0.001352 -0.002165 0.002815 0.003931 0.008260 0.010066 0.004978 -0.003899 -0.007311 -0.001954 0.002076 0.002141 0.013192 0.000496 0.005155 -0.009100 -0.002521 0.000216 -0.011224 0.006174 -0.005593 0.002268 -0.001278 -0.003869 -0.004387 -0.002882 0.006868 0.001543 -0.000506 0.008817 0.006525 -0.001506 0.011126 0.001648 -0.003023 0.009646 -0.008400 0.005695 -0.001488 -0.001333 -0.000249 0.001396 -0.002602 -0.005863 0.005697
light -0.002053 -0.008549 0.005159 0.007581 -0.012495 0.009035 -0.007748 -0.010228 0.019030 -0.004433 -0.002098 0.012207 0.001427 -0.017866 0.001690 -0.022048 -0.017069 -0.006484 0.008652 0.005390 0.003956 -0.012955 -0.026065 -0.007459 -0.007763 -0.009867 0.012126 -0.008906 0.001339 -0.000139 -0.004805 0.000316 0.004606 0.013053 -0.000170 -0.020261 -0.004660 -0.000199 -0.004457 -0.006097 -0.013206 -0.006933 -0.001773 0.012518 0.002524 0.010883 -0.002524 0.000764 0.014684 0.003491 0.000382 0.002572 0.012153 0.003223 0.005708 0.001309 -0.011621 0.005371 0.017323 0.015943 0.012189 -0.002172 -0.019873 -0.016460 0.000995 0.013864 0.001017 0.018968 0.002730 0.009790 -0.013842 -0.011773 0.000306 -0.011296 -0.006671 0.004975 0.004315 0.003577 -0.018766 -0.007724 -0.007405 0.007497 0.007974 0.012903 0.010348 0.008018 0.009870 0.019697 -0.002376 0.007336 0.018442 -0.017247 0.008138 0.012234 -0.007059 -0.001706 -0.011921 -0.007398 -0.003211 0.007089
big -0.000989 -0.015335 -0.001701 0.009983 -0.010780 0.015713 -0.011243 -0.014482 0.013678 -0.011046 -0.001074 0.011436 -0.001885 -0.020070 0.001265 -0.022639 -0.011059 -0.000417 0.007395 -0.002445 0.014216 -0.009666 -0.020981 -0.002090 -0.002702 -0.008594 0.008268 0.002437 0.004237 -0.003362 -0.012908 -0.002565 0.015149 0.016342 0.000991 -0.018911 0.001706 -0.005390 -0.003218 -0.008074 -0.020412 0.003435 -0.002724 0.006541 -0.003712 0.003146 0.003779 0.012738 0.009885 0.008375 -0.005025 -0.004136 0.014647 -0.011914 0.010922 0.001601 -0.001940 -0.002230 0.010887 0.024087 0.013837 0.002490 -0.019587 -0.009880 -0.003864 0.007016 -0.006813 0.029198 0.011266 0.010231 -0.014697 -0.010073 -0.003960 -0.012601 -0.002998 -0.001760 -0.000748 0.008785 -0.017074 -0.015107 -0.001960 0.013604 0.011910 0.013777 0.014073 0.008315 0.016679 0.020244 0.003940 -0.002584 0.015457 -0.016356 0.012704 0.008590 -0.001849 -0.005739 -0.008736 -0.008120 -0.002961 0.007632
control -0.001304 -0.018458 0.001072 0.006570 -0.006772 0.005291 -0.009967 -0.009560 0.016729 -0.014694 -0.003975 0.014092 -0.016895 -0.013927 -0.011710 -0.025506 -0.011240 -0.005288 0.008684 -0.002311 0.018445 -0.021487 -0.033493 -0.001706 -0.009673 -0.008762 0.001931 0.006627 -0.000472 -0.010487 -0.012628 0.000982 0.016527 0.015067 -0.003411 -0.020241 0.005581 -0.002974 -0.000604 0.001865 -0.025643 0.000703 -0.003785 0.016302 -0.002421 0.000837 0.010503 0.011596 0.017534 -0.000999 -0.001141 0.008635 0.007961 -0.002297 0.003882 0.007826 -0.011033 0.001716 0.012579 0.019714 0.017446 0.001715 -0.021336 -0.009696 -0.006229 0.019281 -0.011865 0.016196 0.010936 0.009858 -0.013748 -0.012008 -0.003578 -0.016663 -0.006263 0.000102 0.004011 0.008555 -0.012412 -0.015136 -0.005469 0.014384 0.005253 0.016763 0.020273 0.012329 0.011258 0.021665 0.004748 0.005161 0.026810 -0.009807 0.009557 0.009050 -0.006362 -0.002969 -0.013719 -0.012997 0.005423 -0.000475
service -0.007627 -0.007332 -0.002412 0.015790 -0.013629 0.012335 0.001107 -0.002301 0.015148 -0.011070 -0.006755 0.006281 -0.007193 -0.019521 -0.007557 -0.012433 -0.015682 -0.000282 0.005809 -0.001195 0.019304 -0.017624 -0.024137 -0.010335 -0.006581 -0.004711 0.000476 -0.002373 0.007692 0.003667 -0.010564 -0.003655 0.008754 0.015587 0.005454 -0.021442 0.003986 -0.006396 -0.002803 -0.002477 -0.022185 0.004941 -0.008240 0.011616 0.003067 0.006916 0.010694 0.011089 0.012286 0.005068 -0.005474 -0.011019 0.004179 -0.000982 0.011054 0.001185 -0.003851 -0.003405 0.021107 0.024380 0.014918 0.001097 -0.021222 -0.009384 -0.012475 0.003381 -0.009762 0.014694 0.007986 0.005106 -0.016361 -0.014201 -0.003985 -0.018152 -0.003814 -0.005285 0.006930 0.014244 -0.012764 -0.020130 -0.005445 0.015685 0.006546 0.006438 0.023373 0.015420 0.002512 0.023821 0.016126 -0.000417 0.016317 -0.016951 0.012862 0.004049 -0.002403 -0.002984 -0.013549 -0.001806 -0.003269 0.006282
warranty -0.003267 -0.011699 0.004834 0.008143 -0.008288 0.007687 -0.001077 -0.003746 0.010038 0.001881 0.002757 0.006773 -0.002622 -0.013994 -0.004829 -0.008002 -0.006899 -0.005353 0.005907 -0.001041 0.003968 -0.010452 -0.007119 -0.000626 -0.008461 0.002163 0.002987 -0.002389 0.003508 0.004829 -0.009778 0.000909 0.006461 0.013946 0.001892 -0.013515 0.001373 0.000914 0.001615 -0.002747 -0.011182 -0.001141 0.000043 0.001358 -0.006574 -0.002053 0.007563 0.008399 0.003087 0.002197 -0.002100 -0.000776 0.004166 -0.002955 0.002428 -0.005511 -0.002576 0.001740 0.003590 0.009281 0.012917 0.001080 -0.007671 -0.007426 -0.002923 0.006165 -0.000093 0.010720 0.009418 0.009017 -0.006074 -0.000600 0.002694 -0.008273 -0.002750 0.002350 -0.002731 0.005395 -0.007940 -0.010296 0.004852 0.011808 0.003174 0.004205 0.008212 0.003799 0.003157 0.013581 0.000287 0.001914 0.011211 -0.005789 0.001227 -0.002534 0.002544 -0.000378 -0.001246 -0.002936 -0.007733 0.001826
level 0.006172 -0.008064 0.007697 -0.006260 0.001984 -0.007755 -0.020939 -0.006866 -0.014666 -0.008262 -0.006603 0.012933 -0.006588 0.005766 0.000207 -0.017796 -0.001626 -0.011126 0.001000 -0.005714 0.008365 -0.010743 -0.015193 -0.000318 -0.004896 -0.006073 0.002267 0.019847 0.006760 -0.011666 -0.012120 -0.014082 0.011117 0.003961 0.002098 0.000873 -0.000339 -0.012444 -0.008461 -0.001731 -0.016048 -0.008538 -0.014821 -0.006952 -0.004182 -0.015910 0.008353 -0.006192 0.005239 -0.006594 -0.008220 0.016734 0.011180 -0.014008 -0.012999 0.008951 -0.009342 -0.015929 0.001738 -0.003335 -0.005188 -0.000400 -0.014919 0.001353 -0.004323 0.012485 -0.013212 -0.006731 -0.002714 -0.005599 -0.003990 -0.010706 0.008312 0.001215 -0.021140 0.003024 -0.001319 0.010055 0.002382 -0.004316 -0.012864 -0.005199 -0.003240 -0.000094 0.006805 0.004602 0.003869 0.005638 0.002223 0.005957 0.010524 -0.003882 -0.002550 0.008495 -0.012232 -0.001294 -0.005100 -0.006199 0.006363 -0.013700
top -0.005910 -0.010748 0.005449 0.012934 -0.010138 0.013493 -0.006906 -0.007197 0.017601 -0.004940 0.003434 0.011627 0.000592 -0.015840 -0.001120 -0.014767 -0.005919 -0.006067 0.002849 0.005193 0.006569 -0.015123 -0.015734 -0.007062 -0.005038 -0.004597 0.001145 0.003526 0.006835 0.003036 -0.006998 0.003760 0.008636 0.013522 0.004741 -0.016161 0.000667 -0.000114 -0.002587 0.001001 -0.007219 -0.000510 -0.002346 0.009297 -0.001373 0.003108 -0.000892 0.003226 0.012467 0.004747 -0.002144 -0.000646 0.005695 -0.002322 0.008464 -0.007124 -0.003136 0.001662 0.005889 0.018889 0.011206 0.001579 -0.014541 -0.012053 -0.001005 0.010934 0.000025 0.016940 0.009226 0.009399 -0.016992 -0.011334 -0.002828 -0.009154 -0.008978 -0.002689 0.002010 0.009143 -0.010031 -0.010118 0.003373 0.012794 0.003418 0.010742 0.007664 0.006600 0.012134 0.019915 0.007124 0.005098 0.008080 -0.009214 0.012034 0.002159 -0.002984 -0.004967 -0.005799 -0.007841 -0.006880 0.003970
plate -0.008579 -0.016646 0.007951 0.013745 -0.011312 0.011222 -0.009263 -0.009346 0.012393 -0.007049 0.004543 0.007377 -0.015153 -0.023263 -0.002830 -0.022692 -0.016139 -0.014232 0.001098 0.004924 0.016915 -0.010498 -0.027783 -0.008987 -0.004981 -0.009352 0.002276 0.003897 0.002839 -0.006710 -0.010340 0.003507 0.020814 0.025793 0.000403 -0.014946 0.007302 0.001586 0.002061 -0.009401 -0.013646 -0.001388 -0.002583 0.014473 -0.005417 0.001483 0.004350 0.013215 0.015723 0.010413 -0.001890 0.003954 0.006835 -0.008220 0.004414 -0.002251 -0.006078 -0.001058 0.019707 0.017143 0.017147 0.006418 -0.021717 -0.010597 -0.006198 0.018528 -0.003912 0.019187 0.013878 0.012858 -0.020419 -0.014746 -0.003228 -0.013197 -0.003870 0.005532 0.009373 0.004403 -0.014292 -0.006854 -0.000476 0.020609 0.004919 0.006984 0.012843 0.015463 0.014211 0.026719 0.010390 0.005937 0.024194 -0.012361 0.015043 0.004264 -0.003122 -0.000193 -0.014289 -0.009644 0.000913 0.006237
setting 0.003222 -0.003325 0.003894 -0.001917 -0.003396 0.000350 -0.007269 -0.005468 0.004578 -0.003551 -0.005369 0.002395 -0.005659 0.002476 0.005767 -0.002711 -0.001272 -0.008054 0.000840 -0.002771 0.006608 0.001445 -0.002681 -0.006687 0.001814 0.002252 -0.000408 0.008643 0.000229 -0.002610 -0.003000 -0.010039 0.001175 0.008652 -0.003557 0.000070 -0.000182 -0.006110 -0.004606 0.004274 -0.006146 0.000081 -0.006568 0.001845 -0.005605 0.000257 -0.003934 -0.000894 0.003695 0.004404 0.002602 0.007041 0.004556 -0.003401 -0.000404 0.000893 0.000066 -0.004759 0.003603 -0.000257 0.000169 -0.001332 -0.006740 0.002501 -0.001154 0.000381 -0.005639 -0.001988 0.001552 -0.002140 0.001708 -0.009754 -0.002835 -0.002733 -0.009924 0.001813 -0.002867 0.000222 0.003753 0.000325 -0.004358 -0.001868 -0.003443 0.002510 0.004670 0.002171 0.005208 0.002382 -0.003267 -0.002506 0.002808 -0.000688 0.003459 0.003642 -0.005953 -0.000949 0.003549 -0.004242 -0.003740 -0.005972
counter -0.003353 -0.016097 0.010873 0.011050 -0.003978 0.005130 -0.006593 -0.010716 0.009936 -0.006039 0.001267 0.007262 -0.011156 -0.020864 -0.007078 -0.022808 -0.014990 -0.003856 0.002174 0.003749 0.022096 -0.016697 -0.029168 -0.001794 -0.008434 -0.011612 0.007023 0.009954 -0.001610 -0.004220 -0.012234 0.001562 0.020546 0.025271 -0.002141 -0.025153 0.006663 -0.005053 0.001052 -0.010946 -0.025285 0.001493 -0.011618 0.010774 -0.001395 -0.008245 0.012082 0.014634 0.009839 0.010569 -0.007388 0.005237 0.013653 -0.009716 0.008695 0.001659 -0.007965 -0.001306 0.018035 0.025322 0.019624 0.000980 -0.025472 -0.017653 -0.008936 0.016833 -0.004723 0.023712 0.011410 0.005253 -0.025768 -0.015773 0.000145 -0.011030 -0.005586 0.002007 0.001881 0.013747 -0.013712 -0.015398 -0.003590 0.015563 -0.003222 0.009203 0.016098 0.017528 0.011878 0.028675 0.003656 0.003877 0.019193 -0.019874 0.014713 0.010113 -0.005947 -0.008878 -0.005341 -0.011801 0.008440 0.001002
inverter 0.002557 -0.007820 0.002180 0.005799 -0.008505 0.007541 0.002091 -0.009483 0.004732 -0.001494 -0.002244 0.009496 -0.012141 -0.021170 -0.000126 -0.020000 -0.005349 -0.011487 -0.002009 0.003482 0.016137 -0.007652 -0.012187 -0.010659 0.000773 -0.000320 0.007266 0.001790 -0.000961 -0.004264 -0.003752 -0.010771 0.005846 0.024288 -0.003878 -0.015460 0.011453 -0.009305 0.007742 0.004688 -0.007884 -0.001634 -0.007370 0.003720 -0.003557 -0.003108 0.000758 0.002933 0.006542 0.013542 -0.009291 -0.001702 0.007774 -0.002457 0.003715 0.004740 0.002122 -0.002354 0.014132 0.012497 0.010971 0.007410 -0.017799 -0.006249 -0.005021 0.009351 -0.011041 0.023218 0.015802 0.004666 -0.011715 -0.016146 -0.001006 -0.015852 -0.007077 0.005388 0.004744 0.004379 -0.005048 -0.002000 0.003591 0.015395 0.011769 0.002102 0.011655 0.015882 0.009594 0.011882 0.013922 -0.000868 0.020468 -0.011862 0.009587 0.007218 -0.009014 -0.003192 -0.012177 -0.011112 0.000456 0.003177
seconds -0.003254 -0.010956 0.003098 0.011743 -0.005679 0.005175 -0.014146 -0.009072 0.005611 -0.005768 -0.001169 0.008333 -0.004232 -0.015533 -0.005009 -0.019178 -0.006348 -0.010751 0.001896 0.005579 0.016170 -0.011031 -0.012301 0.003265 -0.011553 -0.009739 0.006190 -0.000962 0.001385 -0.007803 -0.008192 -0.002578 0.004092 0.006839 -0.003824 -0.013557 -0.001732 -0.001807 0.002683 -0.008518 -0.010663 -0.003193 -0.007400 0.010184 -0.005200 -0.005751 -0.000790 0.002840 0.010298 0.003985 -0.004920 -0.000017 0.016203 -0.009978 0.008282 -0.002023 -0.002951 -0.003301 0.011290 0.012404 0.005652 0.001234 -0.012001 -0.008144 -0.006794 0.007147 -0.004805 0.010299 0.005304 0.008744 -0.015708 -0.015024 -0.001910 -0.014972 -0.008565 -0.005427 -0.001414 0.008291 -0.008254 -0.007578 -0.010656 0.006470 0.005789 0.004041 0.016539 0.001791 0.005893 0.014300 0.001359 0.003409 0.013929 -0.005738 0.005252 0.000453 -0.008949 0.005928 -0.011546 -0.007555 -0.005124 0.005574
knob 0.002751 -0.008124 0.001598 0.010772 -0.002976 0.002437 -0.008799 -0.010283 0.009991 -0.008832 -0.002872 0.003960 -0.007261 -0.008322 0.003962 -0.015573 -0.005932 -0.004224 0.002691 0.006839 0.002065 -0.002379 -0.014946 -0.000204 -0.006846 -0.007426 0.001503 -0.002501 -0.003317 -0.004303 -0.005145 -0.001747 0.008451 0.005050 -0.001158 -0.011954 0.004606 -0.001278 -0.006712 -0.000253 -0.012624 0.003254 -0.001020 0.005572 -0.003140 0.004316 0.000837 -0.001488 0.004720 -0.004364 0.003565 0.003367 0.014383 -0.004979 0.000920 0.002238 -0.010185 0.004766 0.008948 0.004234 0.004525 -0.003013 -0.016677 -0.007355 -0.005450 0.008783 -0.003975 0.011989 0.004340 0.003190 -0.013174 -0.005785 -0.001210 -0.010989 -0.010973 0.000822 -0.002299 0.001620 -0.011082 -0.007463 0.000820 0.009289 0.001545 0.012463 0.010220 0.003117 0.008343 0.014221 -0.002898 0.005185 0.013236 -0.005252 0.009187 0.007889 -0.007469 -0.000286 -0.011341 0.000309 -0.001133 0.007276
appliance -0.003069 -0.008373 -0.004242 0.001951 -0.005215 0.009956 0.001099 0.001978 0.005482 -0.001282 0.005495 -0.000485 -0.001319 -0.006962 0.005494 -0.003754 -0.002744 0.001257 0.003657 -0.000462 0.005545 -0.006895 -0.002567 0.001920 -0.002565 -0.001968 0.001258 0.002956 0.002762 -0.002617 -0.004025 -0.005129 0.000212 0.008739 0.001732 -0.006735 -0.000636 0.002713 0.002234 -0.004166 0.001771 -0.000242 -0.001014 -0.000382 -0.006063 -0.002411 -0.003248 -0.001921 0.004114 0.002948 -0.003086 0.002285 0.002241 -0.002382 0.001716 -0.004025 0.005694 0.004830 0.006042 0.008017 0.006920 0.000146 -0.002410 -0.002131 -0.003818 -0.003535 -0.005944 0.003592 0.001449 0.005991 -0.004207 -0.000031 -0.004601 -0.002946 -0.005870 -0.000316 0.004852 0.001879 0.000096 0.000680 -0.001394 0.007147 -0.001030 0.004900 0.005920 -0.001366 -0.000991 0.006684 0.007506 0.005160 -0.002771 -0.002974 -0.002663 0.000177 0.001024 0.000583 0.003023 -0.003865 -0.001930 -0.002050
heat -0.001493 -0.005731 0.001270 0.007458 -0.000369 0.003215 -0.003057 -0.002040 0.010017 -0.008805 -0.002696 0.009393 -0.002115 -0.013179 -0.005096 -0.008933 -0.002783 -0.006521 0.002614 -0.000147 0.007507 -0.007400 -0.015651 -0.000244 0.001122 -0.000664 0.003145 0.007631 -0.000314 -0.006992 -0.000887 -0.004524 0.010369 0.009961 -0.003069 -0.007050 0.005041 -0.000428 0.001890 -0.004607 -0.014606 0.004168 -0.006794 0.009727 -0.004767 0.002085 0.006337 0.007189 0.003482 -0.001195 -0.002686 0.001632 0.003208 -0.001929 0.003499 -0.000296 -0.004941 0.000979 0.012959 0.012166 0.009959 -0.005255 -0.011701 -0.008434 -0.003356 0.007317 -0.001116 0.013056 0.007205 0.006701 -0.013410 -0.010941 -0.002280 -0.007869 -0.008818 0.004237 -0.002830 0.006875 -0.006854 -0.004749 -0.003397 0.001871 0.002093 0.001133 0.011677 0.003738 0.004355 0.011652 -0.003210 -0.001393 0.009936 -0.009328 0.005135 0.003499 0.000006 -0.003089 -0.000558 -0.007592 0.005309 -0.002697
steel 0.016658 0.015432 -0.001738 -0.020986 0.010917 -0.011330 -0.004585 0.010880 -0.029793 0.014454 0.015293 -0.011627 0.008641 0.010535 -0.001219 0.007835 0.007921 0.003485 -0.001532 -0.014637 -0.006253 0.002710 0.033837 0.003248 0.006244 0.001483 -0.000303 0.012759 0.007829 -0.003173 0.005690 -0.010055 -0.017341 -0.013924 -0.002779 0.020022 -0.012904 -0.011706 0.000907 0.007706 0.018108 -0.001736 0.003181 -0.024941 0.001859 -0.015007 -0.001817 -0.012339 -0.002804 -0.005960 0.007309 0.007537 -0.000228 -0.007422 -0.011478 -0.002737 0.010497 -0.009363 -0.021381 -0.024612 -0.034698 -0.002533 0.011880 0.013297 0.011831 -0.004098 0.003554 -0.028764 -0.005259 -0.012752 0.020997 0.006803 -0.002226 0.020383 0.006789 -0.002811 -0.001501 -0.003474 0.021436 0.019067 0.004985 -0.022180 -0.013804 -0.007532 -0.023570 -0.009819 -0.014235 -0.030422 -0.002572 0.001212 -0.034032 0.027895 -0.015686 -0.010693 0.011238 -0.005142 0.015388 0.003281 0.010963 -0.013601
function 0.002199 -0.015615 -0.001934 0.009729 -0.004696 0.008389 -0.009376 -0.003243 0.010166 -0.006319 -0.004017 0.009332 -0.007963 -0.012519 0.005110 -0.023872 -0.009953 -0.009149 0.001062 0.004214 0.019604 -0.009668 -0.017950 -0.008494 -0.004395 -0.002761 0.013037 0.010680 0.004923 -0.009476 -0.006588 -0.011504 0.010508 0.019047 0.002519 -0.013483 0.001186 -0.006659 -0.004437 0.002111 -0.016428 -0.002583 -0.006654 0.006898 -0.005186 -0.002818 -0.001783 0.007842 0.008417 0.008018 -0.005514 0.004646 0.007764 -0.008424 -0.002034 0.001139 -0.003245 -0.001653 0.017815 0.015972 0.011849 -0.003242 -0.023582 -0.005009 -0.004361 0.012340 -0.008223 0.014844 0.010124 0.010575 -0.013510 -0.016132 -0.000843 -0.006353 -0.014327 0.000282 0.000086 0.003491 -0.009702 -0.010187 -0.008255 0.013584 0.001501 0.010734 0.013796 0.008966 0.005700 0.017015 -0.000537 0.009324 0.017722 -0.006178 0.014171 0.006482 -0.009822 0.001237 -0.009100 -0.004651 0.002975 0.000979
plastic -0.008177 -0.017904 0.000099 0.013983 -0.013712 0.021132 -0.015553 -0.019347 0.028747 -0.009290 -0.003842 0.011312 -0.005027 -0.025485 -0.002696 -0.031970 -0.014968 0.001523 0.010480 -0.002994 0.013920 -0.016443 -0.025471 -0.003347 -0.010830 -0.014702 0.014708 -0.001377 0.011381 -0.003781 -0.019346 0.002492 0.016769 0.019599 0.002669 -0.034787 -0.002815 -0.002445 -0.003055 -0.002703 -0.025391 0.002178 -0.001284 0.013543 -0.003620 0.007939 0.001839 0.010171 0.019748 0.008103 -0.000591 0.001469 0.021141 -0.006322 0.015809 -0.004734 -0.010431 0.000059 0.018583 0.025204 0.026381 -0.007895 -0.036205 -0.024201 -0.001989 0.009537 -0.011862 0.027854 0.017250 0.011072 -0.015172 -0.022578 0.001232 -0.024800 -0.010367 -0.001891 0.006645 0.014383 -0.017915 -0.020464 -0.001991 0.018272 0.009064 0.019018 0.019654 0.014857 0.021066 0.033906 0.007154 0.008544 0.025934 -0.023094 0.012939 0.003406 -0.010487 0.000258 -0.015166 -0.013601 -0.006756 0.007436
interior -0.002031 0.003036 0.002027 -0.002417 0.002705 -0.001645 -0.000732 -0.000676 -0.007139 0.000154 -0.002402 0.003834 0.001250 -0.002629 0.000232 0.006769 -0.002943 0.000377 -0.000590 -0.002447 0.001097 -0.002623 -0.002303 0.003244 -0.003936 0.000826 -0.004589 -0.000252 0.002589 -0.003090 0.005028 0.006350 0.003934 0.002447 -0.006082 0.005899 0.000647 -0.003414 0.005835 -0.001882 0.005273 -0.003290 0.005700 -0.006743 0.001503 -0.002874 0.003523 0.002770 0.001676 0.000696 -0.002638 -0.001524 -0.000373 0.007540 0.000582 -0.002652 0.002687 -0.002697 -0.005410 -0.001137 -0.000375 0.002811 0.002851 0.001592 -0.004623 0.000044 0.004334 0.001968 0.002148 0.002005 -0.004356 0.000122 0.005476 0.002317 0.006677 0.000384 -0.002131 -0.001018 0.003468 0.001138 0.001670 -0.001048 -0.002360 0.002482 -0.001614 0.004184 0.005276 -0.002176 0.004179 0.000633 -0.002386 -0.000017 0.000012 -0.005068 -0.004129 -0.002983 0.000471 0.003027 0.002004 -0.000845
box -0.003591 0.001661 -0.004931 -0.004483 0.003320 0.003923 -0.003193 0.001715 0.002274 0.001263 -0.003835 0.003161 0.007139 0.004334 0.003845 -0.001867 0.003263 0.004939 -0.003097 -0.002222 -0.004052 0.000599 0.004408 0.000409 0.005534 -0.001240 -0.003840 -0.001222 0.000809 -0.000103 -0.002944 -0.001402 0.002564 -0.003328 -0.000210 -0.004580 0.002508 -0.000730 -0.005137 0.003194 0.008938 0.001359 -0.000545 0.002025 -0.005346 0.002987 -0.002630 -0.000361 0.002007 0.003220 0.003929 -0.003908 -0.003123 -0.003074 -0.002921 -0.000960 -0.000163 -0.002821 -0.002727 -0.004486 -0.004308 -0.004102 -0.001398 0.000680 0.003822 -0.004132 0.004736 0.001911 0.004100 0.004190 0.003544 0.002671 -0.004410 -0.002554 -0.001587 -0.002482 0.000050 -0.004786 -0.000988 -0.001956 0.000138 0.002930 -0.002905 -0.002792 -0.007685 -0.000887 0.003338 0.004230 0.001536 -0.002195 -0.006146 0.001307 0.002814 -0.000568 -0.002147 0.000697 0.000211 0.003098 -0.006728 -0.001939
part -0.004816 -0.009524 -0.005593 0.009025 -0.002078 0.004482 -0.001017 -0.001029 0.008359 0.002547 -0.002964 0.003435 -0.003693 -0.010437 -0.004107 -0.007106 -0.002304 0.001008 0.003569 -0.003572 -0.001505 0.001907 -0.004149 0.001395 0.002085 -0.001500 -0.000455 -0.004796 -0.000040 -0.004625 -0.008392 -0.006547 -0.002742 0.007841 0.002110 -0.001290 0.002451 0.004449 -0.004143 -0.002377 -0.005561 0.005472 0.002399 0.002105 -0.001467 -0.002064 0.006122 0.001853 0.001682 0.005106 -0.001927 -0.006952 0.000990 -0.007053 0.005877 -0.000325 -0.003351 -0.001416 0.006056 0.003579 0.000782 0.002177 -0.000979 0.001319 0.001745 -0.003786 0.000107 0.007699 0.005911 -0.001075 -0.003641 -0.002106 -0.001231 -0.010282 0.001543 -0.005475 0.004343 0.005875 -0.000885 -0.007770 0.002637 0.000379 0.007163 0.003318 -0.002018 0.001401 -0.001437 0.005129 0.000579 0.000557 0.003967 -0.006738 0.001107 -0.001930 -0.004754 0.004736 0.002189 -0.007260 -0.005365 -0.001478
star -0.000072 -0.007383 0.005048 0.007149 -0.008826 0.013880 -0.007590 -0.009201 0.014347 -0.011565 0.001190 0.011994 -0.004813 -0.019177 -0.000093 -0.020757 -0.010801 -0.006724 0.003283 -0.001822 0.013030 -0.009245 -0.018826 -0.005002 -0.005993 -0.004848 0.003214 -0.004375 0.004768 -0.004173 -0.013085 0.000851 0.009887 0.017717 0.001754 -0.016025 0.000940 0.004051 -0.001666 -0.002951 -0.017674 0.002576 -0.004007 0.013912 0.000107 0.003844 0.004819 0.007000 0.009707 0.003670 -0.000686 0.000854 0.005214 -0.010317 0.007792 -0.003595 -0.008105 0.000054 0.008449 0.017469 0.015486 -0.001759 -0.021988 -0.016429 0.000206 0.005303 -0.002756 0.011869 0.006282 0.006615 -0.013178 -0.009499 -0.002724 -0.017463 -0.003755 -0.003447 0.005640 0.009830 -0.010135 -0.008793 -0.005245 0.013963 0.011913 0.008356 0.012617 0.008171 0.009285 0.017777 0.006426 0.007635 0.012858 -0.009725 0.004886 0.008340 -0.001242 -0.003360 -0.002470 -0.000534 -0.000579 0.006898
turntable 0.001206 -0.006469 0.000863 0.003455 -0.003676 -0.001203 -0.002327 0.000540 0.003351 -0.002612 0.001922 0.002038 -0.003951 -0.009387 -0.001969 -0.003749 -0.005048 -0.002918 0.004653 -0.001259 0.011541 -0.008845 -0.011871 0.002923 0.000066 -0.006872 -0.001609 0.001168 0.001992 -0.006130 -0.001290 0.006445 0.012085 0.014400 -0.006483 -0.002862 -0.000226 -0.001164 0.003741 -0.005054 -0.010000 -0.004458 -0.000716 0.007307 -0.003652 -0.005189 0.004400 0.009222 0.009983 0.003077 -0.002908 -0.003132 0.006550 -0.003333 0.004304 -0.001837 -0.003785 0.002590 0.002753 0.012097 0.010307 0.000895 -0.012604 -0.006817 -0.007597 0.006504 -0.000823 0.012640 0.008608 0.009744 -0.005239 -0.007768 -0.004172 -0.010289 -0.001308 -0.001369 0.001039 0.004301 -0.011182 -0.004485 -0.003171 0.003328 0.004587 0.001737 0.007802 0.004272 0.007540 0.011031 0.000489 -0.001594 0.008009 -0.004748 0.008574 -0.000119 0.001486 0.001447 -0.007477 -0.003500 0.005111 0.000181
cabinet -0.003047 -0.014662 0.005076 0.003974 -0.009063 0.007151 -0.003142 -0.003222 0.011943 -0.002969 -0.001927 0.006335 0.000926 -0.009773 0.002230 -0.016687 -0.002848 -0.000390 -0.000898 -0.001484 0.007991 -0.013154 -0.009224 0.004140 -0.001698 -0.000610 0.002937 0.004365 0.002636 -0.004308 -0.002378 -0.004566 0.004330 0.013920 0.000554 -0.009227 0.007949 -0.000076 -0.002493 0.000841 -0.008313 0.004211 -0.011038 0.001568 -0.000538 0.003431 0.001025 0.002627 0.011838 0.001322 -0.008717 -0.004335 0.007710 -0.006538 0.006371 -0.006603 0.002440 -0.003436 0.011155 0.017500 0.008353 0.000867 -0.014121 -0.012148 -0.006372 0.001806 0.000216 0.021272 0.007539 0.005899 -0.008943 -0.007652 -0.003651 -0.007208 -0.002127 0.002812 0.006652 0.001384 -0.012989 -0.006253 -0.002123 0.013861 0.001370 0.006029 0.003738 0.003541 0.010388 0.018389 0.000207 -0.003151 0.008432 -0.012830 0.004904 -0.002057 -0.006206 -0.005620 0.002173 -0.011234 0.001857 0.001589
front -0.005334 -0.014585 0.005669 0.015685 -0.013734 0.014155 -0.009400 -0.013863 0.020116 -0.013795 -0.001476 0.012512 -0.012073 -0.017111 -0.009401 -0.020480 -0.013297 -0.000747 0.013809 -0.002067 0.016553 -0.017680 -0.023942 -0.003655 -0.009330 -0.006860 0.006288 0.004394 0.007457 -0.004077 -0.012786 0.003562 0.014489 0.023329 0.003540 -0.029267 -0.000709 -0.007933 -0.003492 -0.004438 -0.024045 0.002381 -0.009484 0.006736 -0.000641 -0.004074 0.009092 0.012295 0.023100 -0.000772 -0.003085 -0.000415 0.010174 -0.007757 0.004805 -0.000972 -0.009334 -0.000214 0.010239 0.022347 0.011671 -0.010398 -0.029888 -0.016675 -0.011179 0.013037 -0.007815 0.025993 0.012998 0.011324 -0.013451 -0.009790 0.003102 -0.022145 -0.004343 0.003997 0.000304 0.009962 -0.014013 -0.009703 -0.003955 0.009784 0.011504 0.016045 0.015437 0.019287 0.011949 0.031478 0.007358 -0.001849 0.020846 -0.013088 0.013440 0.008121 -0.008986 -0.004210 -0.010617 -0.012558 -0.003008 0.003330
heating -0.004262 -0.007383 -0.001121 0.002756 -0.002462 0.003358 -0.005660 -0.007028 0.013315 -0.006347 -0.004660 0.001925 -0.001959 -0.013497 -0.004908 -0.011619 -0.010566 0.000735 0.004287 -0.002340 0.007202 -0.004794 -0.018642 0.000935 -0.000724 -0.004177 0.002987 0.004275 -0.001509 -0.005262 -0.003382 -0.001273 0.011665 0.009544 0.002208 -0.013813 0.000139 0.000287 -0.002072 0.001136 -0.009006 0.003974 -0.001818 0.002892 -0.002957 0.006531 0.004073 -0.001213 0.011933 0.004479 -0.000672 -0.003723 0.007530 -0.006775 0.008985 0.002906 -0.001271 -0.001040 0.010663 0.013577 0.013676 -0.005143 -0.017670 -0.013046 0.000578 0.007160 -0.001268 0.013428 0.003137 0.005927 -0.005683 -0.009093 -0.004433 -0.006894 -0.001936 0.002361 0.000979 0.006829 -0.012041 -0.008235 0.000916 0.010747 0.008174 0.009697 0.010383 0.002133 0.005948 0.010200 0.004404 0.000045 0.012761 -0.010490 0.003309 0.001017 -0.006666 -0.003939 -0.008285 -0.005037 -0.006709 0.003876
display 0.003154 -0.003234 -0.001708 0.000886 -0.008466 0.001912 -0.009541 -0.006805 0.006544 -0.008536 0.001399 -0.001200 -0.002560 -0.011497 0.003911 -0.012797 -0.010481 -0.003619 0.003383 0.004191 0.010212 0.000858 -0.006073 -0.003605 -0.005556 -0.002082 0.003014 -0.002029 -0.003820 -0.004033 0.001638 -0.001316 0.002123 0.007346 0.001196 -0.004475 -0.003470 -0.002854 -0.006394 0.003705 -0.004153 -0.001848 -0.007068 0.001735 -0.002028 0.002244 -0.005231 -0.000030 0.009017 0.005346 -0.000942 0.002577 0.011206 -0.003894 0.006949 0.004285 0.000229 0.004142 0.003568 0.002269 0.005403 0.001936 -0.014284 -0.002816 0.002954 0.000995 -0.001027 0.009203 0.005025 0.008733 -0.009239 -0.011531 -0.004052 -0.011203 -0.005532 -0.001592 0.004269 0.000298 -0.002310 -0.003334 0.001259 0.010461 0.003305 0.003137 0.006174 0.005373 0.010491 0.003763 -0.003904 -0.000257 0.013062 -0.009754 0.005026 -0.000372 -0.008105 -0.003354 -0.007405 -0.005836 -0.001625 0.002883
replacement -0.002932 -0.005302 0.001172 0.005021 -0.007199 0.005972 0.000408 -0.003482 0.006952 -0.000029 -0.001048 0.007181 -0.002606 -0.005352 0.001623 -0.002618 -0.007161 -0.005329 0.001513 0.004424 0.007719 -0.005398 -0.004876 -0.001354 -0.004857 -0.001877 -0.001895 -0.003038 0.004125 -0.000709 -0.006544 0.003593 0.008219 0.011227 -0.001253 -0.004992 0.006636 -0.002934 -0.003965 -0.005070 -0.008681 -0.003438 -0.001212 0.007722 -0.003735 0.002126 -0.001495 0.003803 0.005812 0.001370 -0.006228 0.000030 -0.002213 -0.005738 -0.000763 -0.003193 -0.002577 0.002657 0.005784 0.011119 0.010961 0.000707 -0.006045 -0.001537 -0.002729 0.006002 0.000823 0.012303 0.002710 0.007681 -0.005947 -0.002250 -0.003925 -0.008627 -0.000374 -0.000580 0.005324 0.003597 -0.006957 -0.001843 0.004330 0.009330 0.000585 0.003808 0.004593 0.002677 0.004126 0.008715 0.008472 -0.004005 0.010461 -0.007008 0.004263 0.005257 -0.004084 0.002611 -0.000258 -0.000801 -0.005306 0.002880
previous -0.003287 -0.010538 0.005094 0.007864 -0.008052 0.000450 -0.003040 -0.004129 0.002331 -0.001097 0.004482 0.002935 -0.001491 -0.006983 0.002687 -0.008138 -0.006631 0.000349 -0.000557 0.004083 0.002388 -0.004347 -0.014947 -0.001255 -0.001202 -0.000135 0.004382 0.003106 0.003451 -0.005818 -0.002568 -0.001718 0.001174 0.005570 0.003530 -0.014106 0.005522 -0.005176 -0.004214 -0.001655 -0.006319 0.000637 -0.008030 0.002165 -0.004805 0.005205 -0.002211 0.005773 0.011071 0.005325 -0.002538 -0.004417 0.008705 -0.007879 0.002959 0.003151 0.001699 -0.004708 0.008111 0.013870 0.013388 0.003428 -0.016104 -0.010002 -0.005463 0.009669 -0.005874 0.015826 0.001639 0.004944 -0.004029 -0.007209 -0.000902 -0.005228 -0.004055 -0.005501 -0.000466 0.008977 -0.008122 -0.006704 -0.003643 0.011492 0.003505 0.003189 0.007338 0.001689 0.001621 0.015609 0.005423 -0.001660 0.010651 -0.005877 0.005361 -0.001880 -0.002794 0.001158 -0.004845 -0.004744 0.000695 0.000741
repair -0.005606 -0.008065 -0.002349 0.009593 -0.010667 0.003070 0.001981 0.002658 0.008996 -0.002207 0.003242 0.008935 0.000475 -0.014000 -0.005952 -0.006510 -0.003952 -0.003919 0.004478 -0.005190 0.004160 -0.001332 -0.009081 -0.002310 -0.008796 -0.002005 0.000716 -0.006961 0.005004 0.006686 -0.006897 -0.004958 0.002003 0.013395 0.004032 -0.009529 -0.004684 -0.002367 -0.002455 -0.002622 -0.004515 0.000576 -0.002537 0.009321 -0.006743 0.003119 0.005946 0.006870 0.004562 0.009509 -0.000861 -0.008689 0.006062 -0.006119 0.006289 -0.000988 0.000587 0.000129 0.010053 0.004545 0.007279 -0.002321 -0.011390 -0.007830 -0.008734 0.003402 -0.004175 0.014410 0.007283 -0.000215 -0.003703 0.001087 -0.005418 -0.008795 0.005804 0.002528 0.001637 0.007653 -0.008808 -0.010660 0.004713 0.002103 0.010026 0.000474 0.008687 0.009799 0.007355 0.012712 0.012816 0.001627 0.008162 -0.010101 0.004490 -0.002105 -0.005040 0.002641 -0.009199 -0.001099 -0.006466 0.005730
watt 0.002933 0.001264 0.002624 -0.007110 -0.002103 -0.004912 0.005820 0.004036 -0.009387 -0.002170 -0.000951 -0.005103 0.004717 -0.001123 -0.004883 0.001778 -0.001383 -0.002855 -0.005628 -0.002637 0.004301 -0.002479 0.008274 -0.003500 -0.001654 0.003796 0.000347 0.003114 -0.003714 0.002544 -0.000780 0.001095 0.000822 0.002358 -0.003617 0.006904 0.005698 0.001748 0.006730 -0.003908 0.003353 0.001690 0.003973 -0.006001 0.003598 -0.005470 -0.002409 -0.004015 -0.001205 0.003573 0.002448 -0.001539 -0.006373 -0.000164 -0.001251 -0.000183 0.002415 -0.006811 -0.004842 -0.003695 -0.001333 0.007487 -0.000498 0.001617 0.001007 -0.003217 -0.000797 0.001070 -0.000836 0.001879 -0.001715 0.001147 -0.003487 0.005573 -0.002571 0.001437 0.000745 -0.004592 0.003953 0.000931 0.003017 -0.007808 0.002518 -0.005932 0.002530 -0.005368 -0.007438 -0.000272 0.005578 -0.001638 -0.001116 -0.000669 -0.005068 -0.004379 0.005392 0.001806 -0.001307 -0.000158 0.008416 -0.006717
reheat 0.007104 0.001376 0.001956 -0.003541 0.007108 -0.006338 -0.005004 0.006980 -0.004185 0.000058 0.003594 0.003741 -0.004702 0.004133 -0.001448 -0.003551 -0.001121 0.000208 -0.000101 0.004812 0.001902 -0.004261 -0.006944 -0.004732 -0.002963 0.002947 0.004593 0.001812 -0.004432 -0.003799 -0.002484 -0.006988 0.002079 0.001642 0.000085 0.009408 0.005069 -0.004878 -0.000272 0.000571 0.000402 -0.002040 -0.003238 0.005646 -0.005721 0.001703 -0.000949 -0.000708 -0.003059 0.002888 -0.000389 0.002244 0.000496 0.001669 -0.004370 0.006731 0.002521 -0.003369 -0.002261 -0.002077 -0.005842 0.004847 0.001144 0.002587 -0.004425 -0.001071 0.004004 0.000891 0.003603 -0.002668 0.006544 -0.006477 -0.004080 -0.003260 -0.000465 0.005857 -0.006554 0.006128 0.007885 0.002861 0.003020 -0.004488 -0.010014 -0.004589 0.002983 0.000030 0.002825 -0.006986 -0.005184 0.001654 0.003245 0.001922 0.002288 0.001205 -0.002268 -0.003863 0.003823 -0.003655 0.006533 -0.009895
hard 0.000054 -0.011720 0.001260 0.003402 -0.009056 0.008763 -0.006231 -0.002754 0.006603 -0.009787 -0.004408 0.002184 -0.003724 -0.013202 -0.003049 -0.011815 -0.008926 -0.001427 0.002766 -0.000879 0.012851 -0.009615 -0.017337 -0.006084 -0.007429 -0.006116 0.002071 0.003418 0.003327 0.000442 -0.000622 0.005189 0.003948 0.004680 -0.001177 -0.008936 0.002211 -0.001560 -0.004785 -0.004538 -0.011013 0.001065 -0.008172 0.005775 -0.002225 0.000739 -0.003431 0.004668 0.006186 -0.001751 0.001101 0.000341 0.009397 -0.004892 0.004070 0.001380 -0.006231 -0.001128 0.012046 0.013689 0.007651 -0.001041 -0.016063 -0.005502 -0.005072 0.007137 -0.003393 0.007954 -0.000759 0.010468 -0.014502 -0.010744 0.005948 -0.006209 -0.004281 0.005873 0.004772 0.005509 -0.010014 -0.010206 -0.006180 0.010537 0.006053 0.007035 0.007405 0.003784 0.006318 0.011189 0.000102 0.000177 0.014678 -0.013205 0.011273 0.010504 -0.006540 0.000962 -0.006094 -0.008413 0.000172 0.000033
powerful -0.002602 0.001910 0.002402 0.004901 0.001535 0.002931 0.000418 -0.001896 0.001905 0.000098 -0.002463 0.005694 -0.004780 -0.001247 -0.002405 -0.000674 -0.002367 -0.003222 0.003223 0.002992 0.003354 0.001083 -0.001721 -0.000476 0.001938 -0.001126 0.002722 -0.002309 0.004242 0.000747 -0.001320 -0.002964 0.003719 0.008787 -0.005191 -0.004652 -0.002155 0.000582 0.002094 -0.004096 -0.008753 -0.002505 -0.005957 0.006759 0.000515 -0.003050 -0.000630 -0.000989 0.000389 0.005078 -0.000881 -0.003372 -0.002400 0.000444 0.004763 0.000308 0.001812 -0.001877 0.004662 0.000974 0.000802 0.001347 -0.002570 -0.003259 0.003245 -0.000394 0.002347 0.002477 -0.000784 0.002084 -0.000135 0.002269 -0.002217 0.000447 -0.004492 0.002852 -0.002466 0.007291 0.000789 -0.005796 0.003268 0.008192 -0.000668 0.001653 0.002869 -0.000820 0.005326 0.001963 0.003299 0.003123 0.003156 -0.001594 0.003999 -0.001609 0.001714 0.004209 -0.001436 0.001059 0.000706 -0.002538
number -0.002742 -0.012110 -0.000590 0.012191 -0.003596 0.008364 -0.004066 -0.008196 0.011634 -0.010607 -0.001819 0.008082 -0.009193 -0.014408 0.001821 -0.010183 -0.011521 -0.004963 0.006558 0.003291 0.016177 -0.011439 -0.019290 -0.006046 -0.004363 -0.008622 0.003045 -0.000530 -0.000728 0.001241 -0.007038 -0.007827 0.013760 0.014651 0.003639 -0.010719 -0.001095 -0.000232 0.000078 0.000523 -0.013220 0.001382 -0.006665 0.013361 -0.002828 0.000108 0.000830 0.004717 0.006368 0.004270 -0.005265 -0.003119 0.005086 -0.004279 0.002602 -0.000905 -0.000891 -0.003816 0.015760 0.008119 0.016276 -0.002828 -0.012778 -0.005663 -0.008114 0.007927 -0.007482 0.016485 0.009114 0.005656 -0.008719 -0.013178 -0.003775 -0.015137 -0.008480 0.001688 0.003044 0.004894 -0.012421 -0.003178 -0.003978 0.008249 0.000578 0.011161 0.008305 0.013168 0.005241 0.020082 0.004057 -0.002190 0.016975 -0.006545 0.003344 0.006821 -0.000863 -0.001553 -0.011883 -0.005979 -0.002795 0.006284
start -0.000770 -0.019095 0.007227 0.016962 -0.009651 0.007708 -0.020059 -0.010902 0.015391 -0.015199 -0.005024 0.015611 -0.001089 -0.015152 0.002033 -0.032453 -0.009695 -0.003252 0.005422 0.005815 0.014161 -0.011084 -0.031043 -0.006399 -0.009821 -0.007555 0.008265 -0.000770 0.007358 -0.007981 -0.016026 -0.006387 0.017969 0.014771 -0.000547 -0.023020 0.007441 -0.007175 -0.012118 -0.002835 -0.020762 -0.000893 -0.010513 0.010197 -0.000140 0.005305 -0.005058 0.006299 0.012504 -0.001815 0.003265 -0.000106 0.023062 -0.006783 0.002940 -0.003115 -0.012600 0.003051 0.020331 0.020520 0.020278 -0.004042 -0.030944 -0.022773 -0.003904 0.013028 -0.013054 0.022902 0.001760 0.012008 -0.016299 -0.021409 0.004226 -0.017375 -0.016045 0.000828 0.004210 0.014681 -0.014941 -0.020290 -0.006600 0.009877 0.011993 0.013589 0.021648 0.011732 0.016567 0.033358 -0.004085 0.003059 0.029785 -0.013812 0.014913 0.012768 -0.010122 -0.005186 -0.010747 -0.009888 -0.006672 0.000874
high -0.005761 -0.013863 0.003545 0.003996 -0.003255 0.008401 -0.006051 -0.005784 0.001355 -0.008553 -0.001358 0.009391 -0.004634 -0.012311 -0.001455 -0.013694 -0.005935 -0.005706 0.008452 0.002157 0.014121 -0.007597 -0.021116 -0.005340 -0.008419 -0.007244 0.003595 0.003301 0.000338 -0.007598 -0.004406 -0.007965 0.010390 0.014378 0.002801 -0.011303 0.004031 -0.001728 -0.000100 -0.007463 -0.013295 0.000621 -0.005677 0.006158 -0.004660 -0.004044 0.004807 0.001082 0.010304 -0.000197 -0.004059 0.003682 0.012819 -0.004668 -0.002075 0.002802 -0.005792 -0.007337 0.004953 0.007041 0.004385 0.003978 -0.015846 -0.008060 0.000514 0.010982 -0.007112 0.016489 0.006360 0.007632 -0.012228 -0.008095 0.002219 -0.007505 -0.008765 -0.004508 0.001619 0.008972 -0.009495 -0.008068 -0.005160 0.011949 -0.001440 0.005870 0.011736 0.014184 0.011461 0.014230 -0.000907 0.002539 0.010216 -0.008981 0.010639 0.007653 -0.001413 -0.004761 -0.001485 -0.009093 0.003861 -0.006364
open -0.001131 -0.020440 0.003257 0.020640 -0.014364 0.005549 -0.020481 -0.021324 0.021181 -0.013123 -0.006770 0.018660 -0.000717 -0.015993 -0.004539 -0.024554 -0.015028 -0.005559 0.009137 0.007325 0.013462 -0.020878 -0.037354 -0.012001 -0.013692 -0.009168 0.017094 -0.005422 0.009161 -0.007501 -0.011650 0.007488 0.009895 0.015975 -0.006753 -0.031887 -0.003453 -0.002067 -0.010663 -0.005079 -0.028304 -0.008777 -0.004610 0.013225 -0.000301 0.005071 -0.000970 0.008835 0.019614 -0.005410 0.001023 -0.001067 0.019217 -0.000303 0.006056 0.003447 -0.016932 0.003071 0.014464 0.021213 0.019507 -0.010376 -0.031420 -0.022896 -0.005758 0.018932 -0.005111 0.020401 0.007222 0.016635 -0.021294 -0.018516 0.002235 -0.018846 -0.011233 0.001642 0.000701 0.012055 -0.023329 -0.022028 -0.016706 0.006890 0.002827 0.009185 0.020676 0.019171 0.017025 0.035368 -0.005937 0.002166 0.035856 -0.023791 0.017605 0.015290 -0.016793 0.001267 -0.017671 -0.004739 -0.009493 0.005328
clean 0.001668 0.006153 -0.002529 -0.004477 0.003180 -0.002737 -0.003200 -0.002650 -0.007196 0.009352 0.005834 -0.005072 -0.000618 0.008532 0.002432 0.011472 0.010022 -0.003739 -0.005665 0.003106 0.000447 -0.000053 0.009659 0.008073 0.006502 0.001622 -0.004879 0.001662 0.002225 -0.000069 0.008261 -0.001120 -0.000549 -0.012222 -0.005367 0.011904 0.000422 -0.004317 0.001195 0.000781 0.009613 0.000025 0.009402 -0.010681 -0.004872 -0.010439 0.002971 -0.007195 -0.001538 -0.007825 0.003706 0.011484 -0.005298 -0.003036 -0.010723 0.006148 0.003125 -0.004363 -0.013884 -0.016471 -0.012546 -0.002277 0.002831 0.012650 0.007732 -0.001763 0.005575 -0.009138 -0.007453 -0.004105 0.008574 0.009367 -0.005441 0.002953 0.003201 0.002785 0.000766 -0.004424 0.004108 0.006272 0.000780 -0.001479 -0.009532 -0.007823 -0.004376 -0.010056 -0.000868 -0.015448 -0.004688 -0.000938 -0.008403 0.007844 -0.006315 0.000526 0.003314 0.002750 0.004134 0.001834 0.007999 -0.007937
convection 0.001264 -0.004275 -0.000783 0.004720 0.000321 0.001422 -0.001636 0.000452 0.002036 -0.002806 0.002636 0.007167 -0.001150 -0.012574 -0.002598 -0.004413 -0.003459 0.000152 -0.001856 0.004138 0.002860 -0.006744 -0.006219 0.003506 -0.005502 -0.006772 -0.002243 0.000911 -0.003719 -0.003127 0.003267 0.006700 0.009460 0.008253 -0.005056 -0.003857 -0.000202 -0.003710 0.004298 0.002608 -0.009532 -0.004738 0.000478 0.004820 -0.001790 -0.002676 0.003612 0.008143 0.009150 -0.002053 0.000600 0.003144 -0.001504 0.002299 0.005576 -0.004378 0.000765 0.003497 0.005826 0.007765 0.008311 -0.003181 -0.009003 -0.009652 0.000235 0.003494 -0.001210 0.004813 0.004279 0.006610 -0.010572 -0.003423 -0.000963 -0.008329 -0.001540 0.002595 0.005608 0.005487 -0.010055 -0.006880 0.000441 0.000622 -0.002676 0.007679 0.012422 0.000080 -0.000089 0.004863 -0.000848 -0.001486 0.004333 -0.003507 0.002142 0.000426 0.002737 -0.003299 -0.001448 -0.000627 0.001948 -0.002868
purchase -0.003038 -0.008181 -0.004382 0.002368 -0.000772 0.003337 0.002637 0.001174 0.006502 -0.000192 0.003205 0.004641 -0.004094 -0.005033 0.001420 -0.005763 -0.003525 -0.002279 0.002417 0.001260 0.005000 -0.000037 -0.010531 -0.003083 -0.003686 -0.003461 -0.002268 0.004803 -0.000778 -0.001206 -0.004931 0.000574 0.007684 0.007738 0.001386 -0.008702 0.004331 -0.001019 -0.002509 0.001491 -0.008917 -0.003716 -0.003406 0.006072 -0.000868 0.004764 0.005771 0.006397 -0.001274 -0.002730 -0.002111 -0.004596 0.003601 0.001171 0.005414 0.000851 0.000357 -0.002241 0.006164 0.009571 0.000465 -0.003301 -0.004522 -0.002964 -0.005097 0.005462 -0.005940 0.005313 0.001175 0.001926 -0.008534 0.000326 -0.003761 -0.008268 0.002406 -0.003899 0.000445 0.003379 -0.000810 -0.000337 0.002740 0.004343 0.000174 0.003891 0.002022 -0.001249 -0.000445 0.002418 0.004714 0.002944 0.003248 -0.001546 0.001286 0.001343 -0.005326 -0.000219 0.000515 0.001677 -0.003033 -0.001958
larger -0.005422 0.000862 -0.004220 0.000063 -0.003876 0.007221 -0.002216 -0.000173 0.002296 -0.006377 0.002168 -0.000663 -0.004835 -0.002616 0.000738 0.000022 -0.006303 -0.006799 0.004062 0.002814 -0.001742 0.000103 -0.008182 -0.002398 0.000975 0.004246 -0.001932 -0.000956 -0.000714 0.000137 -0.001377 0.001429 0.003231 0.007706 -0.002521 -0.008137 0.006267 0.000343 -0.004262 -0.004292 -0.000908 0.002833 0.001042 0.002561 -0.000183 0.003435 0.005735 0.007101 0.002305 0.007208 -0.005506 0.002544 0.002168 0.000878 0.005854 -0.002410 0.003750 -0.001105 0.000206 0.007774 0.008652 0.005170 -0.006637 -0.003763 -0.004254 0.001506 0.003915 0.007346 0.001360 -0.000076 -0.000969 -0.000981 0.001576 -0.002715 0.001649 -0.004906 0.000283 -0.002459 -0.005297 -0.001246 -0.003583 0.009453 0.000231 -0.001486 -0.001463 0.000247 0.004716 0.009552 0.005964 -0.001045 0.006774 0.000146 -0.000982 -0.000553 0.000393 -0.002640 0.002001 -0.005141 0.002071 0.001236
side -0.003782 -0.006374 0.000832 0.004897 -0.006606 0.001723 -0.004808 -0.001494 0.005446 -0.006100 0.001179 0.006750 -0.006275 -0.006299 -0.003174 -0.013516 -0.005252 0.003169 0.002577 0.002142 0.006178 -0.004917 -0.010836 -0.004519 -0.008044 -0.008262 0.000680 -0.003365 0.004940 -0.001641 -0.008083 -0.006441 0.004346 0.005644 0.005620 -0.009894 -0.004400 -0.006580 -0.003777 0.001048 -0.003235 0.004285 -0.005719 0.001905 -0.005573 -0.004469 -0.002927 0.006965 0.011702 0.001376 0.000230 0.001603 0.010435 -0.001952 0.007047 -0.006021 -0.001218 -0.002782 0.003199 0.007110 0.000911 -0.000220 -0.014639 -0.004169 -0.006499 0.008691 -0.002001 0.010149 0.002212 0.005341 -0.005390 -0.005416 0.003314 -0.008772 -0.001417 0.004695 0.001451 -0.000102 -0.003873 -0.004877 -0.004359 0.006494 -0.001171 0.006168 0.001132 0.001622 0.010235 0.006819 -0.002705 0.001553 0.005101 -0.006505 0.008501 -0.002431 0.001075 -0.000795 -0.001788 -0.000354 -0.003189 -0.003627
inside 0.005571 0.004954 -0.001362 -0.004892 0.006033 -0.007768 0.002886 0.002511 -0.009221 0.000893 0.005255 -0.006087 -0.000854 0.007330 -0.003774 0.011372 -0.001097 0.005411 -0.000693 0.002765 -0.006262 0.000910 0.001204 0.002914 0.007784 -0.004015 -0.004271 0.000936 -0.002388 0.000192 0.006777 0.004638 -0.007089 -0.007212 0.000227 0.009513 -0.005987 -0.002796 -0.000826 0.005060 0.008322 0.002919 0.000571 -0.007797 0.002710 0.001812 -0.000033 -0.004621 -0.006260 -0.002283 0.001395 0.002177 -0.001586 0.006905 0.000349 0.002853 -0.001207 0.005126 -0.008713 -0.002819 -0.000874 -0.003855 0.009430 0.002188 0.004910 -0.000307 0.007316 -0.010682 -0.005332 -0.004294 0.002662 0.006511 -0.000910 0.005756 0.005464 0.003575 0.003694 -0.005033 -0.001262 -0.000942 0.004454 0.000335 0.001458 -0.003725 -0.004195 -0.008495 0.001450 -0.008874 -0.007011 0.000189 -0.004322 0.004216 0.001037 0.002003 0.002323 -0.000863 -0.000271 0.004625 0.003826 0.002527
full 0.003880 -0.008331 0.003756 -0.001402 -0.000168 0.002661 -0.003401 -0.004341 0.005488 0.000538 -0.001360 0.007762 -0.000791 -0.003873 -0.002167 -0.015350 0.000568 -0.008613 -0.003663 -0.003003 0.014813 -0.007449 -0.014404 0.000513 -0.006786 0.000025 0.002353 0.010762 -0.001816 -0.008325 -0.001844 -0.000013 0.010343 0.012266 -0.000656 -0.002093 0.010167 -0.007513 0.001902 -0.005773 -0.005384 -0.004528 -0.010503 0.006741 -0.001233 -0.001059 -0.001551 -0.002091 0.009438 0.007791 -0.008888 0.004023 0.006339 -0.008192 -0.000788 0.001666 -0.006809 -0.003058 0.008310 0.011299 0.000416 0.005946 -0.011580 -0.000329 -0.001779 0.010828 -0.003735 0.005773 0.009157 0.006523 -0.012761 -0.001442 -0.004317 -0.005074 0.000090 0.003391 0.004008 0.005353 -0.005933 0.001008 0.001191 0.009711 0.000050 0.000159 0.007856 0.008488 0.005126 0.007949 0.006904 0.002487 0.011087 -0.007333 0.001042 0.006979 -0.003374 -0.003329 -0.004123 -0.003298 0.006116 0.001422
loud -0.004634 -0.014154 0.000257 0.004432 -0.004975 0.008528 -0.009131 -0.011741 0.014173 -0.006548 0.002198 0.008968 -0.004058 -0.018066 0.004142 -0.018194 -0.006756 0.003293 0.005352 -0.001549 0.012385 -0.004752 -0.014738 -0.002565 -0.004508 0.000023 0.000408 -0.003844 -0.000877 0.002752 -0.008664 0.001899 0.006391 0.006767 0.003445 -0.015250 0.005484 -0.003166 -0.003367 -0.004091 -0.006154 0.001969 -0.001983 0.004125 0.000443 0.003198 -0.001324 0.001990 0.010382 0.001468 0.001562 -0.006350 0.009934 -0.004407 0.005845 0.004286 -0.008084 -0.003024 0.010805 0.013887 0.014714 -0.005838 -0.011704 -0.013939 -0.003469 0.004987 -0.004592 0.016768 0.005893 0.005339 -0.007564 -0.009982 0.002767 -0.008076 -0.010141 0.003636 -0.002966 0.003095 -0.014202 -0.012142 -0.003817 0.013451 0.010473 0.003218 0.015318 0.011234 0.008636 0.015651 0.002509 0.004011 0.019537 -0.013695 0.010383 0.003095 -0.009499 0.001213 -0.006592 -0.002674 -0.008256 0.000739
panel -0.001539 -0.013793 0.007086 0.006895 -0.006413 -0.002564 -0.006478 -0.010583 0.012666 -0.005167 0.002203 0.008511 -0.008164 -0.009334 -0.008600 -0.017646 -0.007621 -0.003300 0.005940 0.002096 0.016617 -0.009741 -0.013746 0.002144 -0.008186 -0.006954 0.000869 0.001839 0.001448 -0.002103 -0.004002 0.003183 0.003084 0.006519 -0.003017 -0.013154 0.000932 0.002082 -0.002829 -0.003373 -0.018827 -0.005191 -0.003405 0.001699 -0.001909 -0.002685 0.003987 0.003358 0.008060 0.003748 -0.006775 0.004910 0.005981 -0.002505 -0.003318 -0.002462 -0.009033 0.003541 0.007985 0.011378 0.006936 -0.000974 -0.013013 -0.008679 -0.008773 0.014536 -0.005178 0.011646 -0.000027 0.007472 -0.013742 -0.003998 0.007006 -0.005455 -0.000260 -0.002817 0.000096 0.002022 -0.006000 -0.007189 -0.006624 0.009041 -0.001792 0.006917 0.015340 0.011768 0.013591 0.013130 -0.003138 -0.005200 0.017338 -0.009586 0.010254 0.002644 -0.002484 -0.002474 -0.009700 -0.003410 -0.002311 -0.000862
glass -0.002663 -0.008771 0.006737 0.010920 -0.008914 0.001369 -0.009623 -0.010444 0.006731 -0.009820 0.003758 0.007148 -0.002482 -0.004443 -0.004004 -0.009975 -0.004845 -0.000135 0.004369 0.005005 0.007354 -0.005374 -0.015539 -0.005394 -0.009913 -0.001444 0.006297 -0.000016 0.005285 -0.006772 -0.008103 -0.000723 0.008972 0.014430 0.002351 -0.012202 -0.002089 0.003976 0.002779 -0.000899 -0.012303 -0.004606 -0.004418 0.011111 -0.000122 -0.003092 0.002852 0.006102 0.008974 -0.000424 -0.002365 -0.005066 0.008780 -0.000823 -0.000850 -0.006714 0.000423 0.005203 0.004133 0.011546 0.015473 -0.000488 -0.016224 -0.005464 -0.007466 0.012394 0.001543 0.016358 0.005426 0.008572 -0.008854 -0.007539 -0.004515 -0.006480 -0.007434 -0.002893 0.000430 0.005059 -0.011141 -0.011378 0.002244 0.007164 0.007106 0.007877 0.013432 0.004346 0.010300 0.015078 0.001170 0.004409 0.009132 -0.013339 0.005522 0.008484 0.001496 -0.003486 -0.006358 -0.000877 -0.000388 0.002561
huge -0.000104 -0.000367 0.002497 0.002019 -0.001185 -0.000284 -0.005036 -0.001558 0.003754 -0.000287 -0.000654 -0.002656 0.003617 -0.009289 0.004818 -0.005311 0.001354 -0.002598 -0.003338 0.002298 0.001339 -0.006052 -0.000767 -0.003940 0.001822 -0.004935 0.002864 -0.001748 -0.000118 -0.005285 0.002817 0.003162 0.001769 0.008780 -0.001170 -0.009407 0.000698 -0.002777 -0.003832 0.001130 -0.003636 -0.000136 -0.002599 0.007772 0.000051 0.002340 0.004972 0.004142 0.000184 -0.002218 0.001886 0.004402 0.001832 -0.005268 0.005678 0.001129 0.003822 0.002556 0.001629 0.000863 0.001679 -0.001449 -0.003785 -0.004560 0.002072 0.002976 0.001646 0.004218 0.002228 -0.001902 -0.004769 0.001669 0.001557 -0.008972 0.004223 0.001565 0.005246 0.001147 -0.008157 0.001199 -0.000158 0.001476 0.000380 0.001767 0.000670 -0.000845 0.000837 0.004442 -0.002580 0.001406 0.002380 0.001626 0.006682 -0.003602 -0.004467 -0.002422 -0.006731 -0.007124 -0.003414 -0.000880
dinner -0.003217 -0.011483 0.006546 0.007195 -0.006839 0.013905 -0.013838 -0.013733 0.009872 -0.008823 0.001105 0.007703 -0.011890 -0.015676 0.003621 -0.017538 -0.015366 -0.006282 0.008057 0.000285 0.022043 -0.018596 -0.021591 -0.006590 -0.013568 -0.004914 0.007920 0.003030 -0.001883 -0.007597 -0.011775 -0.003312 0.010945 0.022716 -0.005651 -0.021893 0.004238 -0.007769 -0.004947 -0.001505 -0.024891 0.001365 -0.003044 0.009453 0.001198 -0.006189 0.006393 0.010632 0.014906 0.005995 -0.003510 -0.001648 0.017524 -0.012203 0.008880 -0.005593 -0.009105 -0.003644 0.019201 0.019454 0.016041 0.002406 -0.021427 -0.017126 -0.009219 0.016219 -0.008907 0.023940 0.004034 0.012814 -0.018273 -0.014492 -0.005327 -0.009020 -0.013209 -0.002187 0.008644 0.010868 -0.011818 -0.016902 -0.004199 0.016203 0.010085 0.010033 0.012618 0.016430 0.014783 0.024714 0.001975 0.008137 0.027181 -0.016608 0.006953 0.013521 -0.002109 0.001358 -0.015008 -0.005359 -0.004848 0.004174
black 0.000433 -0.005094 -0.001746 -0.000373 -0.001239 -0.002288 -0.002728 -0.003691 -0.003477 0.003787 0.004866 0.004298 0.000817 0.003580 0.004981 0.002874 -0.002690 0.001817 0.001044 -0.006001 -0.000879 -0.000389 0.006213 -0.001519 -0.001252 0.004904 -0.004428 -0.001562 0.001624 0.001950 0.002905 -0.003425 0.001388 -0.000647 0.000372 0.001726 0.000132 -0.003131 0.004781 -0.003695 0.006513 -0.004110 -0.002966 0.001319 -0.005458 -0.000965 0.003003 0.002541 0.003638 -0.002285 0.001480 0.001136 -0.004045 -0.004903 -0.002880 -0.002813 0.002395 -0.002098 -0.005009 0.000166 0.000793 0.002382 -0.003323 0.002869 -0.004159 -0.000034 0.002763 -0.004162 -0.002196 -0.000848 -0.002017 0.003341 -0.004279 0.001122 -0.003600 -0.006145 0.000306 -0.004618 -0.001753 -0.002277 0.003323 0.002578 0.003825 -0.005309 -0.002839 -0.002975 -0.005126 -0.005667 0.002616 -0.004815 -0.006065 0.003590 -0.001726 -0.006117 0.005229 -0.003497 0.002610 -0.005471 0.005332 -0.001159
design 0.003123 -0.001394 -0.001319 0.005560 -0.000030 0.005838 -0.000664 -0.005247 -0.001517 -0.004341 -0.002653 0.004202 0.001884 -0.003884 0.001118 -0.003262 0.001616 -0.000233 0.002750 0.003380 0.001559 -0.007507 -0.001202 0.003889 -0.002031 -0.001875 -0.003513 -0.001177 -0.001468 0.002293 -0.005609 0.001073 0.001284 -0.001479 0.002564 -0.000562 -0.002024 -0.001458 -0.004310 -0.003533 -0.000371 -0.003304 -0.004703 0.003028 -0.005076 0.000555 0.003323 0.003188 0.000764 0.002411 -0.006216 -0.002549 -0.001012 -0.002699 0.004323 -0.000139 -0.003467 -0.003925 0.002135 -0.002075 0.004150 -0.000212 -0.007765 0.002626 -0.001956 0.005987 -0.006198 0.008719 -0.001377 0.006719 -0.003915 0.000488 0.001701 -0.000760 0.001171 -0.004821 -0.002361 0.004725 0.000835 0.001287 -0.004571 -0.001889 -0.003627 0.005007 0.001427 0.004664 -0.000440 0.006600 0.001118 0.004759 -0.000357 -0.006273 0.001550 0.002217 -0.004108 0.000527 0.001157 -0.006329 0.002667 -0.000543
bag -0.004618 -0.013905 -0.004040 0.004575 -0.010272 0.011253 -0.009193 -0.000102 0.016975 -0.007885 0.001539 0.007908 -0.003243 -0.018639 0.001436 -0.012286 -0.008730 -0.007518 0.003776 0.001340 0.005946 -0.001098 -0.012522 -0.010995 -0.006914 0.002892 0.012613 0.003765 0.000399 -0.004037 -0.003342 -0.011309 0.011332 0.016090 -0.003984 -0.011009 0.003546 0.005055 0.001567 -0.001466 -0.010944 -0.005137 -0.008216 0.008994 -0.002517 0.005670 -0.001343 0.010409 0.013436 0.008490 -0.006531 -0.004978 0.014628 -0.005491 0.007940 -0.000913 0.002375 0.001971 0.017543 0.014476 0.010957 -0.000542 -0.014755 -0.004282 -0.002340 0.007074 -0.000194 0.012426 0.011928 0.011197 -0.015386 -0.013611 -0.003313 -0.008255 -0.011657 0.005545 -0.000163 0.000800 -0.005015 -0.010366 0.001986 0.011774 0.012333 0.002824 0.007484 0.001706 0.008677 0.007652 0.010226 0.005088 0.017090 -0.005916 0.007450 0.004997 -0.011412 0.001796 -0.002399 -0.002082 -0.010967 0.012665
job 0.001230 -0.003897 -0.003380 0.004384 -0.002272 -0.001659 0.001092 0.001676 -0.000049 -0.004539 0.002012 0.001807 -0.002987 0.000767 -0.000254 -0.004951 0.001171 -0.001824 -0.000199 0.001094 0.002326 -0.003261 -0.002902 -0.001641 -0.002296 0.002369 0.000531 -0.001378 -0.004266 0.003992 0.002379 -0.000904 0.006432 0.000901 0.000370 0.003268 -0.000027 -0.002557 -0.000640 -0.003689 0.002780 -0.003883 -0.005822 0.002724 -0.001277 0.002114 0.004549 -0.002287 -0.000288 -0.003646 0.002823 -0.000367 0.000246 -0.000135 -0.002602 0.005322 0.000090 0.001913 -0.000780 0.002000 0.002005 -0.000257 0.001769 0.001295 -0.000663 0.005011 0.001678 0.004040 0.000156 0.002016 -0.000977 -0.002449 -0.000364 -0.000931 -0.001043 0.000450 -0.000449 -0.001509 -0.001111 0.001682 -0.003561 0.005813 -0.004208 -0.004202 0.003435 0.000118 0.001975 0.002697 0.004600 0.000485 -0.003121 0.001795 0.003503 0.003103 -0.001883 -0.004872 -0.004205 0.002737 0.005231 0.000857
technology 0.001146 -0.004219 -0.000321 0.006234 -0.009428 0.004727 -0.000170 -0.001903 0.008876 -0.001226 0.006201 0.000083 -0.007010 -0.002032 0.001782 -0.005595 -0.001312 -0.003663 0.003421 0.004080 0.004143 -0.000210 0.000755 -0.000899 0.001849 -0.001898 -0.004253 0.002041 0.006086 -0.001385 -0.004765 -0.001278 0.004817 0.002571 0.000695 -0.005364 -0.003307 -0.005023 -0.001186 -0.000097 -0.005288 0.007312 0.001372 0.001007 -0.003478 0.001698 0.005765 0.000425 0.007751 -0.001379 -0.008720 0.000658 -0.002205 -0.007095 0.002891 -0.006280 0.002243 -0.001816 0.008815 -0.000234 0.000918 0.001538 -0.001315 -0.006274 -0.005226 0.001975 -0.002622 0.010360 0.008202 0.000956 0.003932 -0.004668 -0.001599 -0.011628 0.004114 0.003739 -0.002357 0.000713 -0.000776 -0.008834 0.006878 0.005292 0.000293 -0.002678 -0.002521 -0.003024 0.002994 0.011734 0.002529 0.001334 0.008645 -0.005699 0.005908 -0.003098 -0.004549 0.005831 -0.006912 0.002023 -0.004705 0.004054
hot 0.003688 -0.000303 0.001494 -0.002964 -0.003740 0.000636 -0.000707 -0.004499 -0.003111 -0.002755 -0.000506 0.005003 0.001282 -0.006152 0.000686 -0.000636 -0.003208 -0.001562 -0.001161 0.001293 0.004639 -0.004719 -0.001874 -0.002998 0.002655 -0.001346 -0.003212 0.007049 0.002624 -0.000268 0.003698 0.003171 0.001560 0.000933 0.002729 0.002690 0.002278 -0.007486 -0.003967 -0.005893 -0.005619 -0.004904 -0.003968 0.004192 -0.001824 -0.005674 0.002669 0.004878 0.006086 0.001395 -0.002262 -0.001265 0.006138 -0.005205 -0.003375 0.006446 -0.001094 -0.003890 0.003792 0.003314 0.000314 0.001965 -0.006071 0.000308 -0.000873 0.000107 0.001563 -0.004623 -0.001526 -0.000375 -0.000223 -0.000668 -0.002997 -0.001120 -0.004452 0.001759 0.002447 -0.000644 -0.002225 -0.006218 -0.002927 0.004487 -0.005289 -0.001889 0.007430 0.002741 0.002223 0.006117 -0.005848 -0.001206 0.003895 -0.001296 -0.000220 0.001708 0.001727 -0.002669 0.001471 -0.003611 0.005640 -0.000401
long -0.002692 -0.001858 0.002122 0.003492 0.003438 -0.003854 -0.002205 0.003281 0.002775 -0.005109 0.001556 0.002751 0.001117 0.000393 -0.004906 0.000101 -0.003493 -0.002221 0.001371 0.004771 0.000537 0.001758 -0.002923 -0.002545 0.003346 -0.005617 0.002341 0.002175 -0.000406 0.001807 0.002548 0.005052 -0.001011 -0.000766 -0.001230 -0.002926 0.005277 -0.002689 0.000540 0.003212 -0.001670 -0.002146 0.002802 -0.001325 -0.002602 -0.000541 0.001143 -0.002493 0.000444 -0.003987 0.002768 0.002059 0.000799 -0.000813 -0.000436 0.000609 0.001301 -0.001010 0.002457 0.007355 0.000756 -0.003826 -0.000766 -0.003332 -0.004964 0.002942 -0.003460 0.005571 -0.001047 -0.002261 -0.003483 -0.002273 0.000546 -0.002316 -0.002087 0.001821 0.002526 -0.001568 -0.001740 -0.003705 -0.004881 0.005993 -0.002952 -0.000632 0.006864 0.006145 0.001069 0.005860 0.003208 -0.001136 0.001108 -0.005834 -0.001334 0.004936 0.003192 -0.004150 0.001688 0.000224 0.004283 -0.001789
frozen -0.000308 -0.002495 0.002323 0.005998 -0.000976 0.003508 -0.002530 -0.008634 0.010202 -0.005389 -0.005550 -0.000811 -0.002149 -0.004707 0.004437 -0.009646 -0.001340 -0.008700 0.004819 0.002959 0.002933 -0.003663 -0.006724 -0.006018 -0.003240 -0.002555 0.002490 0.005025 0.000959 -0.007258 -0.002993 -0.000759 0.004251 0.008769 0.003293 -0.008611 0.001167 0.002613 -0.002804 -0.005602 -0.002697 -0.003742 -0.002841 0.006650 0.002669 -0.000426 0.000460 -0.001435 0.007452 0.001478 -0.003625 -0.001657 0.008420 -0.004625 0.004639 0.002959 -0.004742 0.000480 0.008498 0.005146 0.007493 0.005272 -0.011696 -0.008021 -0.001879 0.003446 -0.006072 0.008728 -0.001150 0.004047 -0.007676 -0.002931 -0.004716 -0.001916 -0.003602 -0.003364 0.003501 0.009229 -0.008037 0.000575 0.002208 0.002548 0.001518 0.002776 0.005786 0.002623 0.006794 0.012367 -0.001905 0.003801 0.006909 -0.005473 0.006092 0.001574 -0.001634 0.002800 -0.002717 -0.007963 -0.001907 -0.002459
timer -0.003473 -0.003444 0.003036 0.005690 0.003111 0.007775 -0.005146 -0.006098 0.002988 -0.000933 -0.001637 0.005106 0.002223 -0.000602 0.000218 -0.000928 0.001939 -0.000405 0.002667 0.006260 0.003058 0.002004 -0.006273 -0.004313 0.005100 0.005552 0.001439 0.005133 0.000943 0.000043 -0.005336 0.000174 0.004125 -0.001160 -0.002121 0.000180 0.003207 0.002699 0.002847 -0.004288 -0.005631 -0.001013 -0.000904 0.006456 -0.002680 0.004084 -0.007627 0.002965 0.006440 -0.002040 0.001511 0.000081 0.003582 0.002528 -0.002335 -0.004430 -0.005932 -0.003053 0.004719 -0.001409 -0.000569 0.003305 -0.005848 -0.005731 0.006023 0.005347 -0.002592 0.001997 0.003326 0.001114 0.001079 -0.007015 -0.004254 -0.003552 -0.005137 -0.002812 -0.004512 -0.001838 -0.005155 0.005043 0.002301 -0.002159 0.000010 -0.000248 0.001677 0.000846 0.001292 -0.000437 -0.002043 0.003627 0.005634 -0.001647 -0.002628 -0.002847 -0.002535 0.003046 -0.000462 0.002007 -0.006791 0.003137
instruction -0.004205 -0.004177 -0.002979 -0.002689 0.002465 0.003700 0.001636 0.002135 -0.006708 0.001760 0.004248 -0.000398 0.002151 0.002990 -0.002885 -0.004828 0.003645 0.000492 0.000754 -0.001175 0.002422 -0.001416 -0.000294 0.004669 -0.000699 0.002444 -0.000585 -0.001980 -0.003808 0.003086 0.002389 -0.002094 0.006474 0.005377 -0.002373 -0.004375 0.002852 -0.002264 0.002135 0.002528 0.003204 0.004492 -0.001541 -0.004565 -0.001256 -0.001504 0.003911 0.000026 0.001112 -0.002635 0.002110 -0.000970 -0.004366 -0.004224 -0.006296 -0.001888 0.001200 0.002181 0.002090 -0.003155 0.004164 -0.000891 0.001005 -0.001550 0.002762 -0.003544 -0.004759 0.003211 -0.004241 -0.002295 0.001299 0.003415 0.004247 -0.003374 0.003093 0.001634 -0.003306 0.002531 -0.002284 -0.002080 0.003653 -0.003390 0.001906 0.001933 -0.001894 0.000037 -0.001185 -0.003559 0.000077 -0.000901 0.002766 -0.004485 0.005355 -0.000274 -0.004382 -0.003212 0.001459 -0.004278 -0.000369 0.003019
customer -0.005748 -0.014139 0.002124 0.016892 -0.013597 0.006561 -0.000027 -0.005062 0.013122 -0.003308 0.006702 0.010015 -0.007451 -0.025390 -0.011279 -0.018372 -0.011137 -0.003139 0.007039 -0.005510 0.009381 -0.015905 -0.025706 -0.002285 -0.013992 -0.012200 0.003829 0.000021 -0.002506 -0.000904 -0.012997 -0.000517 0.009390 0.016745 -0.003571 -0.023002 0.005235 -0.008982 0.004275 -0.007426 -0.018484 -0.003195 -0.006681 0.013595 0.000979 -0.003476 0.008248 0.008722 0.010385 0.007780 -0.007765 0.000781 0.004619 -0.003698 0.010497 -0.000672 0.001534 -0.001705 0.013482 0.017531 0.019397 -0.005636 -0.022423 -0.014289 -0.007074 0.006707 -0.002676 0.027454 0.011581 0.014866 -0.010489 -0.007761 -0.004869 -0.020938 -0.000773 0.003980 0.001889 0.012135 -0.010685 -0.012508 -0.006097 0.016214 0.012377 0.015319 0.019828 0.018304 0.013386 0.024362 0.003929 -0.000338 0.020373 -0.016160 0.015430 0.004343 -0.003136 0.005207 -0.010486 -0.008385 0.000510 0.000332
machine -0.006057 -0.002259 0.003217 0.008176 -0.007413 0.003076 -0.003093 -0.003702 0.010114 -0.006801 -0.002931 0.001776 -0.007435 -0.009268 0.001451 -0.011068 -0.000044 0.001578 -0.002201 0.001260 0.003760 -0.002611 -0.013219 0.001047 0.001393 0.000876 -0.001840 0.004639 -0.003307 -0.002085 0.001999 -0.003515 0.005830 0.001461 -0.002546 -0.004357 0.005901 -0.004342 -0.003792 0.002221 -0.006510 0.003305 -0.001572 0.003468 0.001442 -0.001945 0.002194 0.003304 0.009596 0.006293 0.000480 -0.003421 0.002944 0.001310 0.002440 -0.000518 0.000950 0.001306 0.006192 0.006219 0.009677 -0.002222 -0.005297 -0.005554 -0.002082 0.002151 -0.005570 0.007704 0.007085 0.005109 -0.005757 -0.002766 -0.003006 -0.003026 -0.002299 -0.004623 0.006422 0.005430 -0.003338 -0.008263 -0.003993 0.002233 -0.000231 0.008733 0.003944 0.001235 0.003015 0.006178 -0.002777 0.000434 0.010892 -0.009735 0.001026 0.001766 -0.000547 0.004506 0.000632 -0.002295 0.001466 -0.001169
keypad -0.000385 -0.002178 0.003755 0.010144 -0.006655 0.010928 -0.011777 -0.010720 0.006867 -0.007925 -0.009246 0.004704 -0.003154 -0.012213 0.004935 -0.014402 -0.009492 -0.003832 0.002171 0.004342 0.007845 -0.008971 -0.009822 -0.004681 -0.003347 -0.002303 0.002988 -0.004325 -0.002247 -0.003273 -0.010945 -0.002192 0.005598 0.006433 0.002428 -0.009010 0.002588 -0.000436 -0.007195 0.001808 -0.010112 0.001184 0.001270 0.002884 -0.007262 0.009110 -0.000012 -0.002793 0.005132 0.004993 -0.004307 -0.004633 0.009706 -0.002437 0.003027 -0.000060 -0.002940 0.006678 0.013702 0.004302 0.006822 0.001048 -0.008210 -0.013965 0.000434 0.006470 -0.009854 0.014389 0.003986 0.006910 -0.006889 -0.005997 0.004438 -0.011543 -0.007017 0.000665 -0.003301 0.009067 -0.008521 -0.010693 -0.002709 0.004513 0.002881 0.009202 0.008236 0.009025 0.000739 0.015604 0.001694 0.003765 0.012851 -0.008133 0.007051 0.005778 -0.006648 -0.004982 -0.005326 -0.003419 -0.008658 0.002378
money 0.000002 -0.000073 0.000206 0.000895 -0.001439 0.005892 0.003754 -0.001937 0.000138 -0.000955 0.001167 0.000184 -0.001612 -0.006295 -0.001536 -0.001090 -0.003120 -0.002555 -0.003417 -0.003570 0.008699 -0.000108 -0.002901 -0.000951 0.000266 -0.004803 -0.003267 -0.003924 0.001705 0.000679 -0.000505 -0.004794 0.005695 0.000861 0.004113 -0.003985 0.000236 -0.005039 0.000348 -0.004013 -0.005929 0.001293 0.002307 0.000511 0.001559 0.000237 -0.002720 0.007729 0.002905 -0.000351 -0.001720 -0.001974 0.007281 -0.000552 -0.001941 -0.002477 0.000453 0.002281 0.006113 0.005871 0.002694 0.001968 -0.007765 -0.001586 0.001528 -0.000761 -0.002758 0.011415 0.001905 0.000726 -0.006654 -0.007245 0.000859 -0.002916 -0.005314 -0.005084 0.003225 0.005156 -0.006340 -0.004683 0.000550 0.006461 0.003295 0.007424 0.007974 0.007488 0.004265 0.009661 0.006104 -0.002738 0.001553 -0.004504 0.006829 0.005463 -0.006343 0.000735 -0.000135 0.000565 -0.005891 0.005768
beep -0.012343 -0.024396 0.009263 0.016438 -0.011570 0.007170 -0.011942 -0.017724 0.025626 -0.018636 -0.007038 0.014196 -0.016144 -0.024871 -0.007392 -0.040039 -0.018632 -0.008166 0.010961 -0.001194 0.026155 -0.023533 -0.034992 -0.004401 -0.007919 -0.013352 0.015217 -0.001728 0.003295 -0.009974 -0.014072 -0.006137 0.019055 0.030073 0.003587 -0.028812 0.006156 -0.004221 -0.011107 -0.005630 -0.031081 -0.005846 -0.007724 0.021481 -0.005078 0.009179 0.005349 0.005748 0.021316 0.007113 -0.008161 0.002672 0.018352 -0.004221 0.003616 0.009641 -0.016107 -0.002030 0.024754 0.024799 0.029275 -0.004332 -0.031255 -0.027032 -0.003279 0.023934 -0.014455 0.023526 0.008139 0.011723 -0.022548 -0.025551 0.000305 -0.017926 -0.010112 -0.004122 0.002755 0.011812 -0.023418 -0.019124 -0.011633 0.018412 0.007998 0.016557 0.030245 0.022135 0.011610 0.039853 0.002925 0.005983 0.036178 -0.020736 0.013201 0.011998 -0.007345 -0.006232 -0.020168 -0.013045 -0.005477 0.002481
complaint 0.000974 -0.009467 -0.000024 0.009073 -0.005989 0.000529 0.001309 -0.003911 0.007300 -0.000545 -0.000843 0.003805 0.000240 -0.007373 0.002502 -0.007437 -0.006658 0.001060 0.007257 0.003660 0.004378 -0.008416 -0.012346 -0.000210 -0.001100 -0.003925 -0.001684 -0.001384 -0.002131 0.002204 -0.007002 0.002965 0.001694 0.003446 -0.005488 -0.006362 0.002786 -0.003597 0.002974 0.003795 -0.008735 -0.002622 -0.000882 0.002848 -0.003297 0.003373 0.002481 0.005727 0.002122 0.001418 0.001400 0.001296 0.007348 -0.004407 0.006895 0.004234 -0.006345 0.003701 0.010091 0.003051 0.009089 0.001740 -0.006003 -0.006955 -0.000900 0.000610 -0.002411 0.003790 0.005582 0.006482 -0.008671 -0.001469 0.004202 -0.002266 -0.003665 0.002984 0.007067 0.004805 -0.004451 -0.003513 0.002262 0.009220 -0.000041 0.009545 0.004603 0.003940 0.002956 0.004291 0.003674 0.003583 0.012381 -0.000884 0.005241 0.004107 -0.000131 -0.001367 -0.007452 -0.003326 -0.004380 0.005605
kit 0.003688 -0.006197 -0.000708 0.006057 -0.002974 0.002450 -0.001963 -0.002598 0.003582 -0.003957 0.004710 0.002349 0.004788 -0.006222 0.004667 -0.007385 -0.000201 0.004996 0.002934 -0.003838 -0.000290 -0.004020 0.000004 0.002286 -0.006754 -0.002128 0.003852 -0.004851 0.001581 0.000133 0.000967 -0.006225 0.001196 0.003225 0.002568 -0.003317 -0.005214 -0.001589 -0.002360 0.004495 -0.005813 0.001615 0.000531 0.005517 0.000312 -0.001135 0.000969 -0.000785 0.001650 0.002937 0.003701 0.001841 0.005083 0.001180 0.000010 -0.000341 0.004004 -0.003926 0.005955 0.000006 0.006021 -0.004862 -0.006617 -0.005362 -0.004296 0.002698 0.002004 0.006027 0.004220 0.000683 -0.003548 0.000633 0.004960 -0.007748 -0.001079 0.001780 0.001004 -0.002122 -0.002563 -0.001044 0.000933 0.004621 -0.002564 0.004904 0.002351 -0.004022 0.004838 0.008601 0.003655 -0.003291 0.003642 0.001836 -0.002002 -0.001936 0.003814 0.004300 -0.001358 0.000551 -0.001731 0.003872
room -0.005327 -0.007687 0.000000 0.000789 -0.005816 0.006684 -0.002277 0.002198 0.002977 0.000186 -0.002469 0.006400 -0.004884 -0.008054 -0.002307 -0.005697 -0.005352 -0.003108 0.005396 -0.003452 0.002604 -0.002166 -0.012308 0.001365 -0.006531 -0.000758 0.006955 -0.003285 0.003772 0.001726 -0.001575 -0.002928 0.005745 0.001236 0.002551 -0.005339 0.000000 0.002774 -0.000325 -0.000088 -0.007235 -0.004888 -0.000909 0.003029 -0.001791 -0.000273 0.000781 0.005139 0.003877 -0.001237 -0.006398 -0.002261 -0.000506 0.000988 0.006667 0.001291 0.000079 0.002689 0.008693 0.002150 0.001132 0.000046 -0.006766 -0.008410 -0.003678 -0.000795 -0.005034 0.010004 0.001553 0.006770 -0.009974 -0.007253 -0.003817 -0.004838 -0.003671 0.001678 0.006033 -0.001797 -0.001280 -0.004418 0.000874 0.008797 -0.002816 0.000974 0.002951 0.003135 0.002659 0.002856 -0.003215 -0.001453 0.004185 -0.003294 0.003505 0.005718 0.002483 -0.003460 0.001930 0.000583 0.000972 0.004759
micro -0.000502 -0.000843 -0.002501 -0.003631 0.001998 0.003582 0.001812 -0.004648 0.000289 0.002633 -0.001131 -0.001655 0.003356 -0.000538 0.004733 0.001804 0.001550 -0.003983 0.002450 0.004254 0.005271 -0.005960 -0.003310 0.002953 0.002649 -0.001589 -0.002136 0.006897 0.004783 -0.000028 -0.003133 0.001713 0.002885 0.001364 0.002676 -0.005841 -0.004007 -0.003813 0.003694 -0.005436 0.002040 -0.004070 -0.002316 0.000065 0.004480 -0.001095 -0.002765 0.002463 -0.002933 -0.002389 0.000018 0.002108 0.006420 0.003306 0.004393 -0.000433 -0.003545 -0.003720 -0.000169 0.004969 0.000996 0.002512 0.001970 0.004492 -0.003341 -0.001398 -0.004928 0.001181 0.003904 0.002781 0.002118 0.001091 -0.002815 -0.000776 0.000265 -0.001323 -0.001454 0.000128 0.002289 -0.002634 0.001652 -0.003222 -0.000502 0.005543 -0.002480 0.005785 -0.001868 0.002080 0.002604 0.002464 -0.001993 -0.003109 0.004669 0.002896 -0.005434 0.003756 0.003466 -0.003943 0.005045 -0.005751
place 0.000065 -0.001750 -0.002073 -0.000309 -0.007559 0.001327 -0.005970 -0.003348 0.004753 0.002095 -0.001360 -0.000151 -0.000331 -0.006176 -0.004430 -0.001548 -0.006661 -0.005118 0.003775 0.003402 0.004427 -0.007962 -0.004575 -0.002590 -0.001783 -0.002124 0.002628 0.004283 -0.001054 0.003095 -0.005639 0.004566 0.006476 0.003687 -0.000175 -0.008826 0.004914 -0.005556 -0.001760 0.001699 -0.003795 0.002133 -0.004266 0.005945 -0.000243 -0.003613 0.006120 -0.000239 0.005596 0.001946 -0.003630 -0.001244 0.000282 -0.004743 -0.001711 -0.003446 0.003549 -0.004798 0.005454 0.006709 0.005444 -0.000763 -0.002160 0.001458 -0.006034 0.007147 -0.005912 0.003027 0.002660 0.002862 -0.002009 -0.003001 0.003745 -0.004706 0.001962 0.004671 -0.001922 -0.002628 -0.005158 -0.003003 -0.002834 0.000187 0.001622 -0.001518 0.004858 0.001477 0.004723 0.003001 -0.001994 -0.003053 0.007563 -0.000141 -0.001680 -0.002983 0.000937 -0.003054 -0.001222 -0.006942 -0.004852 -0.001523
quick -0.000510 -0.006172 0.005624 0.006904 -0.008267 0.007949 -0.012121 -0.013486 0.011442 -0.005811 -0.008183 0.011491 -0.007273 -0.006523 -0.000673 -0.011575 -0.004742 0.000592 0.003934 0.002036 0.010377 -0.006420 -0.014956 -0.002428 -0.007436 -0.006489 0.001414 -0.001109 0.005308 -0.002387 -0.009267 -0.001808 0.008308 0.014442 0.004983 -0.012111 0.000782 0.001125 -0.001117 -0.006245 -0.009938 -0.005195 -0.005648 0.003952 -0.005339 0.005144 -0.003622 0.002148 0.005580 0.001622 -0.003828 -0.001200 0.013595 0.000183 -0.001547 -0.001564 -0.009875 0.003706 0.005643 0.015406 0.008265 -0.000164 -0.010578 -0.007689 0.000626 0.006457 -0.008182 0.014722 -0.002032 0.010565 -0.014695 -0.014133 0.001589 -0.014508 -0.003978 -0.003954 -0.003409 0.010945 -0.008803 -0.010909 -0.004338 0.006354 0.007571 0.008405 0.014078 0.003869 0.004221 0.021070 -0.000231 0.001921 0.014395 -0.011166 0.002961 0.007209 -0.000602 -0.005053 -0.010417 -0.006563 -0.002856 0.006696
samsung -0.001149 -0.007074 0.001322 0.008856 -0.005510 0.008493 0.001485 -0.003523 0.005814 -0.001462 -0.005451 0.007022 -0.004097 -0.013047 0.000598 -0.009149 -0.001862 -0.004673 0.006070 0.003077 0.006363 -0.009964 -0.008541 -0.002348 -0.004098 -0.001750 0.006813 0.005158 0.003387 -0.001953 -0.007309 0.002985 0.002741 0.011735 0.002394 -0.007768 -0.001322 -0.005109 -0.003851 -0.005907 -0.006569 0.005595 -0.000488 0.001490 0.003700 0.000959 -0.000822 0.007015 0.002727 0.002430 -0.006052 0.001287 0.007589 -0.007023 0.002394 0.003481 -0.006154 -0.004814 0.011093 0.006804 0.008205 -0.000241 -0.009735 -0.004915 -0.006452 -0.000553 -0.000402 0.009061 0.002879 0.001206 -0.008870 -0.001285 -0.000362 -0.010851 -0.003251 -0.004739 0.006993 0.008174 -0.006378 -0.006879 -0.002535 0.006255 0.001040 0.001116 0.008159 0.010228 0.006864 0.012818 0.003416 -0.004274 0.010087 -0.009559 0.004098 -0.002397 0.001447 0.001180 -0.001815 -0.003007 0.000569 -0.003079
home -0.005074 -0.006576 0.004256 0.002625 0.000312 0.001571 0.001928 -0.005563 0.004896 -0.005344 0.004592 -0.002716 -0.005782 -0.002430 -0.005457 -0.000165 -0.000343 -0.001410 0.004050 0.003169 0.004199 -0.008354 -0.006629 0.005070 -0.002728 0.002334 0.003597 0.002818 -0.001937 0.002314 -0.004626 -0.000308 0.000444 -0.000981 -0.003795 0.000271 -0.000397 -0.001333 -0.002906 -0.005842 -0.006879 0.000828 0.001654 0.002094 0.002893 -0.005782 0.002423 0.006164 -0.000209 0.001825 0.000912 0.004340 -0.003615 -0.000075 -0.002439 -0.002530 0.002881 0.001252 -0.002134 0.000845 0.004269 0.001039 -0.001518 -0.001974 -0.004274 0.003932 -0.001543 -0.000919 -0.001725 0.000521 0.000104 -0.004399 0.003006 -0.002120 0.001909 0.005132 0.004876 -0.000870 -0.002182 0.000483 -0.003806 -0.001242 -0.003073 -0.001946 0.004820 -0.000551 0.005336 0.001466 0.005708 0.001667 0.004482 0.002977 0.005642 0.005077 -0.002484 0.002875 0.002448 -0.001619 -0.003216 -0.003881
sticker -0.001388 -0.012279 -0.000008 0.010884 -0.009726 0.005198 -0.012499 -0.008529 0.013045 -0.007527 -0.000277 0.007886 -0.005542 -0.006805 -0.004346 -0.019841 -0.013294 0.002610 0.004986 0.003000 0.014434 -0.014628 -0.015945 -0.001197 -0.006449 -0.008755 0.000865 0.003921 0.004422 -0.007443 -0.011661 0.003698 0.011985 0.004841 -0.004901 -0.019031 -0.001950 0.002031 -0.008651 -0.006524 -0.009373 -0.007360 -0.003735 0.004137 0.004853 0.000556 -0.001278 0.005895 0.013743 -0.003919 0.001525 0.000476 0.007664 -0.000338 -0.002398 -0.001153 -0.008161 -0.004272 0.004949 0.010572 0.011986 -0.006628 -0.017547 -0.010300 0.001091 0.008007 0.001144 0.016435 0.002146 0.003624 -0.014337 -0.011298 -0.000560 -0.009161 -0.010667 -0.001226 0.004570 0.007849 -0.007583 -0.014570 -0.000514 0.002978 -0.000375 0.002737 0.009383 0.005614 0.009346 0.015618 -0.001445 0.002920 0.018616 -0.010396 0.005332 0.003085 -0.003697 -0.003443 -0.003806 -0.005425 0.000894 -0.001229
dish 0.001657 -0.003946 0.006554 0.003657 -0.006028 0.001739 -0.004806 0.001843 0.001999 0.001920 0.000525 -0.000079 -0.009055 -0.008926 -0.006416 -0.005915 -0.004980 0.000034 0.005624 -0.003323 0.007209 -0.007243 -0.010504 0.002550 -0.002637 -0.004011 -0.001107 0.007408 -0.005800 -0.000161 -0.005665 0.002120 0.006686 0.014391 -0.006123 -0.008720 0.008775 -0.000577 -0.000744 -0.007223 -0.009833 -0.005386 -0.006733 0.008064 0.002974 -0.000356 0.004351 0.008626 0.005883 0.002310 -0.005957 0.005103 0.003190 -0.003419 -0.001167 0.004602 -0.002272 -0.003270 0.008064 0.005359 0.003999 0.004971 -0.007340 -0.003576 -0.006021 0.006634 -0.000588 0.007841 -0.000203 0.007809 -0.009157 -0.001748 -0.003098 -0.004367 -0.002432 0.000752 -0.000350 0.001421 -0.010375 -0.006768 0.000773 0.008157 0.002753 -0.001058 0.007788 0.005399 0.003171 0.004270 -0.000583 0.002819 0.013409 -0.000858 0.003511 0.006292 -0.002306 0.002298 -0.004221 -0.003791 0.005347 -0.004534
smaller 0.002598 -0.000998 -0.001194 0.000686 -0.001686 -0.004138 -0.001088 -0.001694 0.004504 0.003175 0.000450 0.002006 -0.002858 -0.001344 -0.002747 -0.001645 -0.001045 -0.005420 0.002860 0.004396 -0.001631 -0.000658 0.002459 -0.001099 0.002038 -0.000223 -0.001898 0.003991 -0.001434 -0.000060 0.005323 0.004440 -0.000875 -0.000573 0.001290 -0.000855 0.003620 0.002163 0.004295 -0.002896 0.005214 0.000062 -0.005649 -0.003602 0.000526 -0.001277 0.005632 0.006177 -0.000021 -0.000780 -0.001095 -0.002151 0.000859 -0.000717 0.004499 -0.004052 -0.000981 0.000931 0.001292 0.000583 0.004923 0.004801 -0.000774 -0.000246 -0.001880 -0.003912 0.004309 0.000614 -0.001062 0.001175 -0.002592 -0.003947 -0.000052 0.002039 0.001592 -0.004001 -0.002594 -0.004401 0.000253 -0.003776 0.000561 -0.001661 -0.002049 0.001439 -0.002039 0.004529 -0.000257 0.004087 0.004030 -0.004917 -0.004556 -0.003900 0.001828 0.001749 0.003246 -0.000606 0.002682 -0.000033 0.000291 0.000447
shipping -0.003491 -0.001589 -0.000671 0.002707 -0.000731 0.000305 0.000435 -0.001388 0.000282 0.005992 0.005106 0.000572 0.000366 0.003220 0.001863 0.001852 0.000061 -0.002836 0.000731 -0.001670 0.000078 0.002793 0.005156 -0.001794 0.006042 0.000132 -0.004134 -0.001902 0.002212 -0.001295 -0.004029 0.003486 0.000371 -0.002128 0.000255 0.000028 0.000666 -0.004646 0.002641 -0.002137 0.006342 0.004084 -0.003826 0.002045 -0.003103 0.002320 -0.000463 0.003241 -0.001188 0.001506 0.002213 0.002457 0.001062 0.003925 0.005563 -0.004253 -0.002327 0.002665 -0.005295 -0.000868 -0.003570 0.002470 0.001954 0.001932 0.002076 -0.002149 -0.003192 -0.006399 0.005071 -0.001865 0.003201 0.000879 -0.004198 0.002614 0.005318 -0.004485 -0.004360 0.001708 0.000427 0.004920 0.004107 0.001983 0.003866 -0.006176 0.001771 -0.002432 0.002510 -0.006654 0.002180 -0.001343 -0.007135 0.006373 -0.001244 -0.005111 -0.000255 0.002859 -0.001869 -0.005069 0.003947 0.001003
couple 0.000902 -0.000788 0.000122 0.006932 -0.001252 -0.000358 -0.002390 -0.003927 0.000673 -0.001090 0.004776 -0.003256 0.002972 -0.004375 -0.000483 -0.006631 -0.007832 -0.004682 0.003362 -0.001005 0.004756 -0.000155 -0.006157 0.002569 -0.005099 -0.005223 0.003953 0.002754 0.002772 0.001250 -0.002939 0.003084 0.001735 0.001719 -0.004580 -0.005029 0.005017 -0.002674 -0.001690 -0.002165 -0.005839 0.002954 -0.003955 0.000249 0.003686 -0.002385 -0.002114 0.006801 0.005099 0.001690 -0.001315 -0.006523 -0.001175 -0.003476 0.002018 -0.004918 -0.004293 0.001194 0.008795 0.003774 0.003784 0.001487 -0.007886 -0.005128 -0.005026 -0.003324 -0.006089 0.004274 -0.001358 0.005732 -0.003047 -0.003474 -0.001804 -0.000380 -0.000600 0.000622 0.004213 -0.000794 0.000016 -0.004130 0.000549 0.006433 -0.000334 0.001106 0.003783 0.004505 -0.000490 0.007844 0.005792 -0.001618 0.009503 -0.003301 0.005264 -0.000527 0.001445 -0.000792 -0.002430 -0.001149 -0.003195 -0.001466
cheap -0.000463 0.002937 -0.003882 0.000548 -0.003665 -0.001553 -0.003551 -0.001331 -0.000729 0.000625 0.001765 0.005260 0.000459 -0.005290 0.004246 -0.000314 0.002207 0.002730 0.005109 -0.003388 0.004505 0.002162 -0.003655 0.003368 -0.005725 0.002245 -0.001968 -0.002767 0.002332 0.003203 0.001094 -0.003427 -0.003619 0.005032 -0.002119 -0.000006 -0.003103 0.002404 -0.003579 -0.003899 -0.003490 0.003569 0.001214 0.004871 -0.002283 -0.003610 -0.000056 -0.001107 0.003071 -0.004201 0.002970 0.000405 0.002267 -0.001439 -0.000821 -0.002289 0.002022 0.005130 -0.000267 0.000056 0.001011 0.001135 0.001362 -0.002635 0.003388 -0.002132 0.000111 0.000802 0.001229 0.002850 -0.002925 -0.000058 0.004945 -0.001241 -0.003189 0.001230 0.005229 -0.002874 -0.004110 0.001780 -0.002001 -0.002620 -0.003154 0.002730 0.003343 0.004693 0.000566 -0.000870 0.000215 0.001862 -0.002385 -0.000423 0.002872 -0.000861 -0.001961 0.004620 0.000548 0.003973 0.000728 -0.000756
