1025 100
music 0.004868 0.016577 0.011721 -0.014987 -0.002305 -0.006356 -0.010327 -0.020991 -0.030582 0.043569 -0.007068 -0.035944 -0.003703 0.031115 0.045421 0.039226 0.023147 0.039462 -0.057233 -0.003655 -0.009416 0.065124 -0.029352 0.013406 0.029513 -0.029887 0.017023 0.014332 0.028897 -0.016637 0.021707 0.008695 0.025446 -0.004944 -0.008737 0.039539 -0.029887 -0.059046 -0.103788 -0.052378 -0.006108 -0.008470 -0.011055 0.046356 0.026821 0.032277 -0.061341 -0.016664 0.003453 -0.023610 -0.045917 -0.024577 0.042652 -0.026868 0.000081 -0.003001 0.037470 -0.007797 -0.043204 0.036125 0.028381 -0.039297 0.022091 -0.014596 -0.031892 0.022718 -0.013956 0.092398 -0.018039 0.009618 -0.000956 -0.056855 0.004238 -0.031003 0.071151 -0.028990 -0.018327 0.015266 0.020915 -0.059746 0.014820 -0.005855 -0.005688 0.010678 -0.018707 -0.039463 -0.008536 -0.009793 -0.033864 0.003068 -0.039302 -0.015465 0.025743 0.040579 0.015863 0.007324 -0.037696 -0.023212 0.013583 -0.027745
song 0.015004 0.001785 -0.003648 0.014787 0.016211 -0.000551 -0.001353 -0.017601 0.001940 0.013333 -0.009470 -0.034500 0.022859 0.026675 0.031238 0.011707 0.000338 0.024152 -0.026979 0.001118 -0.013243 0.047244 -0.018670 -0.005077 0.023770 -0.020412 0.019115 0.008245 0.026306 0.002875 0.003784 0.004346 0.019597 0.000042 -0.009475 -0.000290 -0.003024 -0.024217 -0.025842 -0.024378 0.009316 0.017686 -0.023150 0.027752 0.034670 0.014597 -0.039651 -0.026195 0.002198 -0.018737 -0.036574 0.006160 0.009312 -0.002354 -0.002480 -0.002168 0.031213 -0.016543 -0.014711 0.014054 0.004547 -0.010930 0.001093 0.025294 0.004357 0.011230 0.001887 0.052798 -0.008201 0.012283 -0.000687 -0.025468 0.005243 -0.011283 0.020205 0.003866 0.015980 -0.008410 0.028661 -0.027509 0.007509 -0.008011 0.004674 0.023445 0.004654 -0.018257 0.020457 -0.013958 -0.029839 -0.002601 -0.033507 -0.027611 0.019754 0.014677 0.014797 0.005152 -0.013801 -0.027011 0.014629 -0.009580
sound 0.008978 -0.001043 0.019635 -0.022872 0.007280 -0.015204 0.000197 -0.008209 -0.011171 0.031839 -0.007372 -0.019377 -0.007057 0.017263 0.026665 0.034722 0.017681 0.017827 -0.029958 0.006428 0.003955 0.031391 -0.018577 0.010346 0.009589 -0.015598 0.023683 -0.002059 0.021312 -0.021003 0.022192 0.016821 0.007390 -0.004528 -0.000827 0.029620 -0.013250 -0.031807 -0.067168 -0.038386 -0.009309 -0.017892 0.006453 0.034040 -0.001451 0.013884 -0.036833 0.003322 0.005064 -0.008122 -0.029307 -0.033524 0.030405 -0.029728 -0.002190 0.008906 0.015083 0.007294 -0.023652 0.030656 0.014162 -0.022825 0.010942 -0.023409 -0.035054 0.019354 -0.004087 0.045422 -0.013059 0.008806 0.001591 -0.055071 0.002615 -0.027888 0.036622 -0.017738 -0.015052 0.014745 0.009318 -0.046628 0.003358 -0.010154 -0.002305 -0.013279 -0.016240 -0.032995 -0.015764 -0.004933 -0.023807 0.016991 -0.016752 -0.005798 0.016456 0.026892 0.022988 0.010097 -0.030563 -0.006639 0.019256 -0.011379
battery 0.011695 -0.044986 0.090009 -0.069726 -0.002843 0.000736 -0.013985 -0.028701 -0.026238 0.068303 -0.009319 0.009663 -0.029143 0.018922 0.137163 0.061769 0.054906 0.060701 -0.123748 -0.067367 -0.065317 0.099018 -0.019640 0.000760 -0.015531 -0.027895 0.086246 -0.064603 0.071061 -0.091598 0.037938 0.019562 -0.022072 -0.034297 0.036701 0.083409 0.028852 -0.121560 -0.230156 -0.137795 -0.005236 -0.074667 0.026310 0.088110 -0.029402 0.038498 -0.080822 0.063059 0.052747 -0.002920 -0.059625 -0.107179 0.112267 -0.137409 -0.045096 0.112704 -0.017842 -0.026118 -0.060162 0.087304 0.040994 -0.095148 0.017117 -0.060861 -0.148065 0.055083 -0.008764 0.160767 -0.060973 -0.032985 0.021541 -0.137305 0.048794 -0.060243 0.127591 -0.052015 -0.064505 0.106666 0.026842 -0.139053 0.067446 -0.069076 -0.073695 0.000087 -0.097151 -0.110681 -0.090897 -0.047907 -0.063571 0.035004 -0.034819 0.017541 0.051699 0.100160 0.055248 0.019039 -0.099561 0.009067 0.012482 -0.004421
ipod 0.005811 -0.012294 0.030352 -0.021396 -0.002451 -0.013108 0.009037 -0.013886 -0.007445 0.038769 -0.013561 -0.017761 -0.017203 0.011613 0.023669 0.036538 0.017027 0.014817 -0.032928 0.012226 -0.009176 0.028850 -0.009208 0.011665 0.013065 -0.005507 0.032485 0.003429 0.031426 -0.016276 0.024651 0.013421 -0.006825 -0.011357 0.012665 0.029582 -0.002649 -0.040168 -0.077688 -0.028538 -0.006098 -0.013705 0.013891 0.025859 -0.014060 0.017196 -0.041758 0.012415 -0.000615 0.003089 -0.031001 -0.019296 0.031139 -0.034945 -0.003323 0.017786 0.017481 0.003308 -0.014977 0.025887 0.019313 -0.027805 0.016693 -0.028508 -0.044196 0.025749 -0.009527 0.053611 -0.021925 -0.000378 -0.011641 -0.054559 0.006893 -0.026467 0.043727 -0.011390 -0.017180 0.019905 0.020860 -0.058420 0.001668 -0.004435 -0.008524 -0.007819 -0.029301 -0.022181 -0.019572 -0.012729 -0.014361 0.018988 -0.014953 -0.010909 0.005818 0.033365 0.029018 0.003525 -0.035234 -0.009684 0.024824 -0.018103
device 0.007956 0.003711 0.018025 -0.020161 0.005653 -0.015997 -0.003920 -0.020269 -0.028677 0.033683 -0.007451 -0.029700 -0.006650 0.025853 0.023251 0.034950 0.019065 0.032774 -0.040750 -0.000358 -0.006153 0.047386 -0.024322 0.006793 0.018877 -0.022868 0.018643 0.002020 0.021632 -0.009478 0.014941 0.004737 0.010853 -0.011521 -0.005682 0.030847 -0.020966 -0.048599 -0.088698 -0.033432 -0.011808 -0.009962 -0.005447 0.032842 0.011448 0.018956 -0.047253 -0.005213 0.002420 -0.017800 -0.036197 -0.021802 0.028975 -0.023533 -0.000285 0.000883 0.034379 -0.005734 -0.035784 0.034053 0.020578 -0.029936 0.016591 -0.020504 -0.030079 0.019922 -0.017138 0.061428 -0.013651 0.007410 0.002614 -0.052133 0.007318 -0.024385 0.054291 -0.022951 -0.012046 0.018359 0.027061 -0.053039 0.014435 0.002919 -0.002700 0.005787 -0.021466 -0.029899 -0.005942 -0.011725 -0.036973 0.010943 -0.024505 -0.014729 0.016078 0.033840 0.021402 0.005013 -0.036322 -0.018683 0.018476 -0.018713
easy -0.000391 0.005657 0.020191 -0.021689 0.009098 -0.013850 -0.008339 -0.020892 -0.023336 0.036683 -0.008239 -0.019468 -0.012979 0.022753 0.029569 0.038727 0.019038 0.027209 -0.039463 0.002281 -0.009688 0.044547 -0.026943 0.009316 0.007220 -0.024702 0.020244 0.000418 0.021520 -0.016947 0.022500 0.005817 0.005417 -0.007488 0.000783 0.027207 -0.010727 -0.040841 -0.084589 -0.035817 -0.011014 -0.017069 -0.005686 0.031799 0.004437 0.021952 -0.034140 -0.006398 -0.003687 -0.013118 -0.034775 -0.031433 0.032990 -0.030230 -0.006301 0.007931 0.027712 -0.003859 -0.032656 0.030377 0.018729 -0.027559 0.010094 -0.021959 -0.033689 0.022399 -0.016703 0.052188 -0.008876 0.004127 -0.000073 -0.053262 0.007510 -0.023455 0.052672 -0.018237 -0.012682 0.017708 0.022669 -0.057917 0.009583 -0.011337 -0.007256 -0.005724 -0.021380 -0.029956 -0.012949 -0.011680 -0.031537 0.016095 -0.027972 -0.010936 0.016427 0.031351 0.018880 0.001777 -0.029148 -0.012855 0.014663 -0.020447
software 0.002227 0.017639 0.012102 -0.020318 -0.005293 -0.009154 -0.013191 -0.019323 -0.043592 0.039402 -0.007536 -0.033115 -0.011308 0.034663 0.039357 0.046791 0.021601 0.042761 -0.041897 -0.006018 -0.012008 0.060927 -0.023288 0.012044 0.028760 -0.037478 0.010489 0.011213 0.018523 -0.015822 0.024999 0.000909 0.026147 -0.009679 -0.009846 0.034238 -0.027520 -0.058483 -0.104084 -0.046495 -0.012264 -0.007336 -0.013949 0.039677 0.017193 0.022109 -0.053000 -0.006578 0.002386 -0.027848 -0.042794 -0.024732 0.045583 -0.028560 -0.001025 -0.007780 0.034299 -0.009864 -0.049381 0.031009 0.030372 -0.034164 0.010402 -0.020341 -0.035796 0.029420 -0.028436 0.084434 -0.015665 0.004777 0.000217 -0.058820 -0.000597 -0.025758 0.072258 -0.032186 -0.014732 0.013934 0.025133 -0.064160 0.016709 0.003833 0.000844 0.010909 -0.017974 -0.049640 -0.013338 -0.006784 -0.040948 0.004552 -0.030677 -0.011401 0.030966 0.046242 0.011498 0.009065 -0.035567 -0.023886 0.012727 -0.027067
cd 0.008437 0.005196 0.011959 -0.022202 0.009826 -0.009186 -0.005487 -0.015563 -0.025803 0.037467 -0.012432 -0.031924 -0.001272 0.031724 0.032595 0.038930 0.017594 0.033327 -0.035205 0.011227 0.004953 0.046657 -0.021173 0.011380 0.019913 -0.021253 0.021145 0.008419 0.020360 -0.014049 0.023494 0.006188 0.018697 -0.013061 -0.012315 0.026839 -0.017575 -0.044408 -0.079946 -0.034986 -0.013931 -0.012267 0.000676 0.037042 0.011431 0.022127 -0.053414 -0.010941 -0.002792 -0.023150 -0.043598 -0.029843 0.035395 -0.031471 0.001605 0.004790 0.034031 -0.000421 -0.036004 0.032590 0.020120 -0.030816 0.016966 -0.010462 -0.027118 0.027424 -0.015400 0.073512 -0.011835 0.009487 -0.002173 -0.051501 0.003821 -0.023629 0.062789 -0.022499 -0.010071 0.019275 0.024845 -0.056854 0.002594 0.003353 -0.008977 0.002387 -0.022636 -0.033513 -0.004276 -0.006025 -0.035429 0.011801 -0.033890 -0.016223 0.022193 0.038219 0.015948 0.012100 -0.026493 -0.019822 0.019456 -0.024261
file -0.001289 0.022998 0.002292 -0.017782 -0.001615 -0.015906 -0.004057 -0.022990 -0.035838 0.040093 -0.005167 -0.031041 -0.009150 0.027323 0.010778 0.053335 0.008055 0.027399 -0.027274 0.008810 -0.004923 0.043632 -0.022691 0.011979 0.028155 -0.027640 0.006857 0.013662 0.009794 0.000259 0.013751 -0.000831 0.013933 -0.008421 -0.014211 0.031403 -0.031751 -0.045610 -0.082303 -0.033828 -0.024962 -0.003978 -0.006021 0.032228 0.008354 0.024185 -0.043170 -0.005907 -0.005086 -0.024707 -0.038447 -0.024045 0.031412 -0.009554 0.007646 -0.009559 0.042022 0.005663 -0.035509 0.022011 0.018150 -0.024555 0.021246 -0.012344 -0.023953 0.022137 -0.026534 0.058373 -0.007001 0.000719 -0.006444 -0.054686 -0.011258 -0.027426 0.061682 -0.022338 -0.015197 0.009636 0.023096 -0.054077 0.004587 0.012932 -0.005589 0.005073 -0.009176 -0.033472 -0.005654 0.002977 -0.027654 0.003854 -0.029894 -0.007173 0.016013 0.028621 0.007519 0.004722 -0.029261 -0.024189 0.015745 -0.024918
radio -0.000336 0.001851 0.003694 -0.025907 0.011196 -0.020178 -0.019899 -0.012979 -0.027737 0.025927 -0.009844 -0.038524 -0.011106 0.029757 0.029876 0.044133 0.023413 0.026891 -0.038538 -0.000967 0.010153 0.052322 -0.034078 0.017034 0.012651 -0.021410 0.010674 0.001446 0.017921 -0.024682 0.015618 0.014286 0.021796 -0.006861 -0.009275 0.024368 -0.007616 -0.049685 -0.075763 -0.042284 -0.014857 -0.001533 -0.006550 0.035936 0.006480 0.025652 -0.037807 0.010361 -0.020087 -0.015610 -0.042190 -0.018985 0.033978 -0.029359 0.000996 -0.001610 0.035383 -0.015159 -0.025502 0.033718 0.024753 -0.011610 -0.000749 -0.009853 -0.036147 0.016868 -0.032081 0.061661 0.003755 0.012097 0.008968 -0.045646 -0.004263 -0.019659 0.047617 -0.011803 -0.027960 0.028284 0.038946 -0.057224 0.000425 -0.008708 0.003027 -0.011263 -0.016728 -0.039320 -0.009233 -0.002491 -0.035884 0.002280 -0.028782 0.004492 0.029356 0.030101 0.001119 0.016350 -0.012387 -0.024482 0.008919 -0.004791
screen 0.007639 -0.006062 0.032088 -0.032664 0.002807 -0.007935 -0.003770 -0.012701 -0.019901 0.045965 -0.012097 -0.016788 -0.019690 0.023291 0.052783 0.029364 0.028203 0.028491 -0.041587 -0.008294 -0.007090 0.049852 -0.018492 0.004234 0.006843 -0.012319 0.033298 -0.001344 0.036661 -0.021861 0.028251 0.012525 -0.001748 -0.005307 0.009030 0.028663 -0.000215 -0.053410 -0.093671 -0.044277 -0.001034 -0.015817 0.000135 0.032021 0.005449 0.023478 -0.047894 0.007577 0.013516 -0.004707 -0.039875 -0.029942 0.039450 -0.040234 -0.000192 0.016098 0.013671 -0.001030 -0.034103 0.038406 0.021050 -0.033128 0.018744 -0.030009 -0.054724 0.029355 -0.012281 0.061238 -0.025045 0.001238 0.004083 -0.059017 0.012715 -0.026887 0.054644 -0.022258 -0.027749 0.031615 0.020561 -0.060861 0.019317 -0.018969 -0.012315 -0.000304 -0.030135 -0.040681 -0.024149 -0.009651 -0.018927 0.023494 -0.023931 -0.007095 0.011245 0.043397 0.026082 0.002451 -0.032932 -0.013526 0.018801 -0.027902
price 0.000468 0.004762 0.003676 -0.005313 -0.003911 -0.004863 -0.000794 -0.007320 -0.003409 0.008462 -0.004391 -0.003120 -0.002597 0.003126 0.014568 0.005765 0.008951 0.006618 -0.010895 0.000260 -0.001719 0.015711 -0.008220 0.005102 -0.000296 -0.001054 0.005707 0.004266 0.010716 -0.003771 0.003443 0.007300 0.000539 -0.009842 0.001170 0.014118 -0.009394 -0.016728 -0.029437 -0.010358 -0.000164 -0.010975 0.002558 0.014023 -0.002033 0.012600 -0.017807 -0.003535 -0.002474 -0.004317 -0.013199 -0.016954 0.009038 -0.011984 -0.000978 0.000386 0.006419 0.001519 -0.014349 0.011450 0.005962 -0.011497 0.004047 -0.008886 -0.014698 0.009600 -0.003924 0.016884 -0.006031 0.002818 -0.002189 -0.022752 0.006685 -0.014119 0.015772 -0.006807 -0.010287 0.008728 0.004214 -0.022361 0.002378 -0.002334 0.001939 -0.005796 -0.010355 -0.016582 -0.009185 -0.004571 -0.005981 0.004474 -0.002796 -0.002897 0.010424 0.011296 0.006599 0.000728 -0.016224 -0.007088 0.000849 -0.010680
small 0.004423 -0.002816 0.008752 -0.020514 0.003519 -0.003600 -0.002014 -0.009599 -0.022353 0.032207 -0.001073 -0.019752 -0.009050 0.018752 0.024815 0.028748 0.019143 0.024644 -0.026392 0.008069 -0.001994 0.028701 -0.014872 0.006484 0.011853 -0.016363 0.008170 0.003593 0.011374 -0.013818 0.019883 0.009652 0.005827 -0.010704 -0.006727 0.025607 -0.009061 -0.038134 -0.066552 -0.022149 -0.002649 -0.012648 -0.004493 0.026064 -0.003111 0.018353 -0.034699 0.003393 -0.004751 -0.012120 -0.030688 -0.024351 0.022804 -0.020684 0.000308 -0.001207 0.025430 0.002463 -0.024566 0.025020 0.012387 -0.019329 0.011934 -0.023675 -0.025860 0.022354 -0.009733 0.039446 -0.004805 0.006293 0.001167 -0.034441 0.001813 -0.024154 0.037975 -0.019067 -0.013231 0.012845 0.011798 -0.034827 0.006258 0.000299 -0.004545 -0.001275 -0.020872 -0.020315 -0.015456 0.000895 -0.012284 0.013603 -0.013148 -0.000631 0.016740 0.028677 0.004577 0.002845 -0.015376 -0.014395 0.015608 -0.011906
headphone 0.009581 -0.005175 0.021841 -0.020466 0.009272 -0.011505 0.008656 -0.005857 0.006067 0.018499 0.000103 -0.006501 -0.003806 0.001922 0.024383 0.021825 0.013624 0.005499 -0.022911 0.005689 -0.005095 0.024337 -0.016751 0.003154 -0.002807 -0.013773 0.032830 -0.010925 0.019644 -0.018936 0.017466 0.004226 -0.007698 -0.010176 0.003346 0.018939 0.001522 -0.019823 -0.045140 -0.031069 -0.001626 -0.014729 0.003653 0.027236 -0.006615 0.002692 -0.024184 -0.003554 0.005782 -0.003644 -0.022682 -0.022842 0.016220 -0.025800 -0.002586 0.022541 0.010006 0.005077 -0.006486 0.025125 -0.002038 -0.020659 0.005817 -0.012469 -0.017139 0.008909 -0.002569 0.030382 -0.015873 -0.000773 0.004558 -0.035530 0.010934 -0.020946 0.021711 -0.012128 -0.006195 0.004713 0.008772 -0.032458 -0.001533 -0.005975 -0.006583 -0.009491 -0.006273 -0.013155 -0.007659 -0.006591 -0.017526 0.021142 -0.011073 -0.009355 0.012686 0.020695 0.019398 0.001311 -0.024414 -0.005381 0.009300 -0.003709
feature 0.006929 -0.003161 0.011532 -0.007883 -0.004155 -0.008754 -0.005447 -0.004893 -0.016891 0.017921 -0.001387 -0.011585 -0.001430 0.012744 0.018436 0.018079 0.008246 0.014708 -0.025496 0.001179 -0.003687 0.021682 -0.014307 0.009922 0.012753 -0.013070 0.007780 0.004595 0.009725 -0.011939 0.003626 0.005452 0.012569 -0.009375 0.002527 0.013119 -0.001598 -0.020814 -0.041876 -0.025001 -0.000229 -0.004601 -0.007260 0.021271 0.006686 0.012022 -0.021604 -0.000480 -0.002149 -0.005596 -0.023191 -0.017281 0.023071 -0.011665 -0.007467 -0.000885 0.019155 -0.006408 -0.019002 0.015076 0.010703 -0.016179 0.002008 -0.003629 -0.013687 0.006197 -0.013879 0.032880 -0.003595 -0.000982 0.003806 -0.022013 -0.000712 -0.013295 0.023620 -0.013593 -0.006788 0.006422 0.017371 -0.029164 0.002379 -0.001420 -0.001836 0.001389 -0.014598 -0.014615 -0.006490 -0.002581 -0.018429 0.001398 -0.013962 -0.003505 0.015546 0.018009 0.010250 0.009344 -0.012784 -0.013795 0.002435 -0.008155
computer 0.005343 0.006138 0.019997 -0.020678 0.005705 -0.006146 -0.009921 -0.018132 -0.025234 0.035515 -0.006360 -0.024211 -0.003202 0.016144 0.024134 0.035114 0.010089 0.026783 -0.030456 -0.007886 -0.007480 0.044535 -0.021748 0.003593 0.014868 -0.021246 0.015668 -0.002755 0.019769 -0.015677 0.019758 0.003250 0.003819 -0.001359 -0.000812 0.025541 -0.007745 -0.043250 -0.078860 -0.038285 -0.010832 -0.007808 -0.005002 0.033180 0.009229 0.011721 -0.041993 0.004877 0.007083 -0.017148 -0.026154 -0.024326 0.024721 -0.027912 0.002958 0.007303 0.020841 -0.004515 -0.028654 0.021148 0.015617 -0.022525 0.014911 -0.011787 -0.035219 0.016906 -0.017384 0.061015 -0.013058 -0.005480 0.002985 -0.046851 0.009591 -0.026695 0.043913 -0.013185 -0.009474 0.016441 0.014655 -0.053148 0.008926 -0.000298 -0.006972 0.001207 -0.019361 -0.034161 -0.008862 -0.008959 -0.032109 0.005356 -0.021770 -0.011379 0.023946 0.025662 0.012744 -0.002764 -0.030043 -0.019107 0.012868 -0.017003
button 0.005384 0.000905 0.009065 -0.016064 0.001685 -0.008547 -0.003616 -0.010929 -0.001031 0.021225 -0.007923 -0.008921 -0.009979 0.013632 0.014878 0.014403 0.010786 0.005581 -0.013000 0.009452 -0.002448 0.020718 -0.008228 0.002637 0.005567 -0.008109 0.014228 0.002908 0.011972 -0.009911 0.019521 0.011447 -0.000991 -0.007280 0.004348 0.012615 -0.002497 -0.014402 -0.038131 -0.022399 0.003366 -0.010072 -0.002206 0.013237 0.004188 0.014022 -0.017595 0.003398 0.000411 -0.009032 -0.015828 -0.021295 0.022894 -0.015734 0.000589 0.001075 0.010638 0.004641 -0.014326 0.016498 0.012099 -0.008820 0.008087 -0.012001 -0.021419 0.005677 0.000973 0.024536 -0.012485 0.001962 0.001207 -0.037414 0.003449 -0.011131 0.027308 -0.016693 -0.012296 0.006236 0.008410 -0.031631 0.005756 -0.008630 -0.006066 -0.003042 -0.014056 -0.015443 -0.008209 0.001805 -0.006328 0.009059 -0.015220 -0.009795 0.006570 0.020055 0.012900 0.003735 -0.012170 -0.003358 0.006498 -0.011924
fm 0.009910 0.002628 0.025937 -0.026429 0.005476 -0.015432 -0.012686 -0.018299 -0.036714 0.051420 -0.020623 -0.038642 -0.017888 0.032214 0.043949 0.049981 0.023328 0.026400 -0.051405 0.003773 -0.007446 0.052727 -0.035612 0.018896 0.011085 -0.017969 0.011273 -0.001797 0.024268 -0.020101 0.016087 0.008273 0.010632 -0.012552 -0.006139 0.044373 -0.002386 -0.065926 -0.120499 -0.049071 -0.009502 -0.001251 0.000759 0.038264 0.002004 0.020516 -0.050314 0.014489 -0.006626 -0.001894 -0.052586 -0.037549 0.047762 -0.048367 -0.001265 0.005401 0.033084 -0.020352 -0.041678 0.047485 0.025404 -0.027264 0.013434 -0.019773 -0.058225 0.032550 -0.031695 0.071301 -0.004173 -0.001981 0.006015 -0.072937 0.006606 -0.040965 0.068000 -0.020661 -0.022931 0.035761 0.027795 -0.066134 0.003546 -0.016862 -0.012865 -0.004328 -0.031573 -0.034175 -0.029549 -0.002533 -0.038509 0.017737 -0.025098 -0.004686 0.030796 0.045575 0.016679 0.019373 -0.040267 -0.028388 0.021887 -0.024648
sansa -0.004230 -0.000176 -0.002268 -0.000296 -0.000689 0.002240 0.000367 -0.005666 -0.017074 0.009715 -0.009122 -0.011863 -0.002265 0.011710 0.001983 0.007805 -0.002212 0.014861 -0.007011 0.004540 0.006250 0.020535 -0.001878 0.013730 0.012833 -0.011904 -0.010922 0.010021 -0.001049 0.001816 0.000178 -0.000114 0.012473 0.003489 -0.002741 0.005016 -0.004561 -0.017691 -0.025423 -0.007320 -0.006390 0.000257 -0.005187 0.005283 0.003615 0.009820 -0.014911 -0.001080 -0.005141 -0.012830 -0.010179 -0.001019 0.014761 0.001547 -0.000008 -0.008662 0.017173 -0.001859 -0.004811 0.007317 0.008970 -0.005320 0.007051 0.000173 0.001521 0.013350 -0.012614 0.018723 0.003426 0.007466 -0.005035 -0.013287 -0.007399 -0.007500 0.013028 -0.005894 0.000560 0.000481 0.015497 -0.007099 0.006390 0.000225 -0.005631 -0.003577 0.003299 -0.007314 0.003915 -0.002111 -0.004282 0.000467 -0.013668 0.003783 0.012612 0.018097 -0.002318 0.004788 -0.001684 -0.007722 0.002556 -0.002857
clip -0.001818 -0.004606 -0.002222 0.008706 -0.001806 0.004898 0.000809 -0.007746 -0.005940 0.001853 -0.004227 -0.005271 -0.000599 0.002628 0.004241 0.010464 -0.004340 0.010597 -0.004752 0.000374 0.000429 0.009557 -0.007428 0.007686 0.007381 -0.010881 -0.001591 0.007301 0.005615 0.004908 0.004173 -0.000117 -0.001726 0.002220 -0.000713 -0.001305 -0.003652 -0.013671 -0.014229 -0.008941 -0.003075 -0.001044 -0.007019 0.002308 -0.000818 0.006445 -0.005691 -0.002148 -0.006957 -0.006787 -0.011146 0.001872 0.001011 0.004098 -0.003566 -0.004943 0.011397 0.000853 -0.005183 0.006392 0.006577 -0.010689 0.008048 0.004933 0.005965 0.006772 -0.005942 0.017515 -0.006800 0.008015 -0.003502 -0.001584 0.002404 -0.004541 0.005947 -0.006119 0.003749 0.000690 0.007069 -0.014743 -0.004356 -0.002524 0.005271 0.004973 0.005810 0.000285 0.006080 -0.005894 -0.008843 0.007590 -0.004031 -0.001692 0.005152 0.012241 -0.002073 0.010303 -0.001483 -0.005012 -0.000406 0.002470
card 0.002153 0.007472 -0.003500 -0.013534 -0.002793 0.011179 -0.011414 -0.012591 -0.020244 0.018681 0.003825 -0.007622 0.006266 0.018361 0.039176 0.015946 0.014789 0.029102 -0.033936 -0.013139 -0.005205 0.035107 -0.015800 0.000456 0.003822 -0.012372 0.003552 0.006212 0.017781 -0.016892 0.015382 0.002603 0.004495 -0.007248 -0.006706 0.016333 -0.016551 -0.035032 -0.058064 -0.024970 0.007914 -0.010726 0.001695 0.034844 0.019524 0.027772 -0.034330 -0.014569 0.010891 -0.017088 -0.026999 -0.019622 0.034581 -0.025650 -0.004320 0.005150 0.020314 -0.001322 -0.028236 0.020480 0.012430 -0.027401 0.013635 -0.003516 -0.028009 0.005172 -0.006405 0.053961 -0.012321 0.010237 0.011638 -0.040989 -0.000240 -0.014134 0.044866 -0.003682 -0.005891 0.011997 0.013035 -0.026748 0.010554 -0.008369 -0.003313 -0.001731 -0.014260 -0.035619 -0.017252 -0.009416 -0.013215 -0.003261 -0.017998 -0.002954 0.007785 0.032219 0.019127 0.013039 -0.022079 0.000301 0.001800 -0.015382
usb -0.004383 -0.004001 0.005168 -0.016573 0.003294 -0.009243 -0.012725 -0.014369 -0.023516 0.025325 0.001327 -0.018574 0.002973 0.007072 0.014563 0.021725 0.010602 0.015825 -0.011651 -0.005029 -0.007347 0.034393 -0.012907 0.004882 0.010922 -0.016850 0.003334 -0.008371 0.010215 -0.005762 0.009137 -0.003695 0.012769 -0.007027 -0.001428 0.010801 -0.003479 -0.028640 -0.048714 -0.015746 -0.012862 0.002217 -0.010604 0.026255 0.004598 0.004064 -0.029608 0.003804 0.001007 -0.023076 -0.014493 -0.005709 0.016421 -0.008466 0.001331 0.005713 0.016976 0.000030 -0.018289 0.004970 0.013292 -0.006434 0.009003 -0.006761 -0.023127 0.011534 -0.015285 0.039311 0.007794 -0.007015 -0.000329 -0.022524 0.007422 -0.016476 0.030146 -0.012474 -0.004997 0.008512 0.019301 -0.027810 0.009539 0.008833 -0.008929 0.006854 -0.013443 -0.013840 0.001800 -0.003939 -0.013294 -0.000364 -0.014346 -0.002889 0.015280 0.019567 0.001501 -0.002788 -0.007662 -0.013641 0.009668 -0.006728
hour 0.011256 -0.013902 0.043409 -0.034768 0.003641 -0.003800 0.001600 -0.015796 -0.001594 0.036309 -0.010003 -0.001286 -0.006151 0.000151 0.058020 0.020443 0.021694 0.007681 -0.051697 -0.015872 -0.031080 0.034111 -0.020250 -0.009338 -0.001721 -0.013042 0.054051 -0.026475 0.030639 -0.029377 0.027995 0.006737 -0.018091 -0.010817 0.020117 0.034512 0.005520 -0.046840 -0.092291 -0.058505 -0.000753 -0.032749 0.011500 0.042041 -0.000891 0.019147 -0.039350 0.009159 0.018961 0.007546 -0.033618 -0.036686 0.036863 -0.050993 -0.013456 0.046990 -0.002370 -0.006975 -0.011862 0.039962 0.004159 -0.029563 0.008937 -0.030572 -0.051856 0.023423 0.006956 0.064948 -0.031268 -0.010690 0.000240 -0.061272 0.021795 -0.028787 0.048855 -0.013697 -0.021294 0.031193 0.005215 -0.058639 0.019624 -0.028360 -0.021108 -0.000690 -0.036147 -0.039971 -0.031996 -0.025191 -0.031852 0.025513 -0.020885 -0.012299 0.014238 0.038287 0.036767 0.002252 -0.050199 -0.000675 0.021987 -0.009440
review -0.003386 -0.003924 0.005811 -0.005373 0.001737 0.003643 -0.000796 -0.003289 -0.004384 0.002969 -0.000684 -0.005088 0.001216 -0.000655 0.004521 -0.003099 0.004835 -0.001401 0.002885 0.004079 -0.002750 -0.001503 -0.004657 0.003162 0.003514 0.003031 -0.001059 0.004070 -0.002168 0.002457 0.002034 -0.002669 -0.003364 -0.002510 0.001128 0.004606 -0.001860 -0.006218 -0.006626 -0.003819 0.003221 0.000931 -0.003270 -0.003660 -0.003876 0.004250 -0.004335 0.002951 0.006027 -0.004846 0.000268 -0.002293 0.002325 0.003018 0.003498 0.001251 0.006858 -0.001144 -0.001435 0.004670 0.000500 0.002512 0.002588 -0.004376 -0.003923 -0.003169 0.000591 0.006252 0.003545 0.002674 0.000500 -0.002136 -0.000796 -0.000637 0.007500 -0.000457 -0.004051 0.004689 -0.004338 -0.001156 -0.000438 0.000311 0.001621 0.000908 -0.003785 -0.003535 0.001942 -0.000212 -0.005012 0.003374 0.000891 -0.001955 -0.000235 0.005975 -0.003975 0.000360 -0.000973 -0.004362 -0.002344 0.001197
video 0.002213 0.009985 0.024472 -0.031349 0.002631 -0.015137 -0.007386 -0.017016 -0.023752 0.045363 -0.015447 -0.020515 -0.014152 0.017563 0.036134 0.038430 0.023782 0.025428 -0.042635 0.000109 -0.011703 0.048657 -0.017206 0.006942 0.019732 -0.021722 0.013699 -0.001623 0.023626 -0.018686 0.019933 0.003593 0.003893 -0.005493 0.000627 0.033018 -0.015329 -0.049897 -0.091744 -0.035103 -0.019336 -0.008987 -0.000369 0.031486 0.003273 0.020441 -0.048076 0.000157 0.005672 -0.018305 -0.041861 -0.026501 0.033463 -0.028138 0.003013 0.006790 0.029358 -0.006921 -0.031880 0.034940 0.024024 -0.032735 0.020809 -0.022653 -0.040710 0.025470 -0.023577 0.067126 -0.016607 0.006486 -0.008046 -0.049526 -0.000300 -0.030588 0.062540 -0.020434 -0.019986 0.025734 0.014658 -0.055319 0.014701 0.001265 -0.006136 -0.000168 -0.020315 -0.029249 -0.017703 -0.012115 -0.027996 0.011566 -0.029501 -0.008539 0.016106 0.032941 0.014956 0.005129 -0.036716 -0.018952 0.020226 -0.030020
memory 0.004625 0.010608 0.006140 0.003646 -0.003051 0.000530 -0.001191 -0.009783 -0.015565 0.010309 -0.001715 -0.005607 0.000579 0.011941 0.023423 0.009129 0.003441 0.006574 -0.022005 -0.008630 -0.012055 0.026182 -0.008377 -0.008198 0.006375 -0.014316 -0.000686 0.010824 0.014131 -0.007296 0.009477 -0.002917 0.004106 0.000661 -0.007098 0.015304 0.001366 -0.018597 -0.033045 -0.012221 0.006260 0.005948 -0.003154 0.020091 0.004628 0.018580 -0.017441 -0.009409 0.007089 -0.004015 -0.022680 -0.001519 0.004533 -0.016214 0.008804 -0.000002 0.010691 -0.008490 -0.019972 0.020107 0.006876 -0.015615 -0.002947 -0.001960 -0.011560 0.010956 -0.007537 0.023449 -0.000776 0.003400 0.005982 -0.018245 0.005914 -0.016146 0.026416 0.001998 -0.002771 0.000654 -0.000759 -0.020357 0.007581 0.000387 0.008726 0.007244 -0.006671 -0.022426 -0.003072 -0.007227 -0.009157 -0.007261 -0.015767 -0.003850 0.007856 0.013563 0.015611 -0.001348 -0.008168 -0.008851 0.005476 -0.013558
zune 0.003517 0.009614 0.030065 -0.034977 -0.001675 -0.010304 -0.005832 -0.032217 -0.026795 0.049415 -0.012974 -0.030987 -0.017351 0.027638 0.042388 0.060169 0.030934 0.036585 -0.047293 0.006002 -0.010954 0.072089 -0.029064 0.015266 0.020316 -0.032740 0.029485 0.004812 0.031939 -0.023705 0.025003 0.012184 0.006859 -0.009167 0.003354 0.037224 -0.021892 -0.062587 -0.130319 -0.049207 -0.016867 -0.014828 0.001781 0.049185 0.008846 0.027014 -0.068042 0.004415 0.000127 -0.016785 -0.057764 -0.038067 0.047235 -0.040205 -0.005021 0.011081 0.031112 -0.001957 -0.051708 0.046705 0.026715 -0.043207 0.015329 -0.030227 -0.050217 0.026795 -0.020541 0.088170 -0.021487 0.001645 -0.004245 -0.077572 0.013281 -0.033305 0.082580 -0.028796 -0.028383 0.026915 0.033281 -0.088906 0.007105 -0.002393 -0.007313 0.002106 -0.022536 -0.054874 -0.019005 -0.005257 -0.045581 0.018223 -0.027327 -0.022575 0.034338 0.048266 0.031822 0.005365 -0.042547 -0.020768 0.024937 -0.034597
life 0.019340 -0.035988 0.068691 -0.053202 0.025720 -0.004231 -0.001244 -0.026009 0.008516 0.050583 -0.016528 0.002495 -0.025839 -0.009854 0.083880 0.032947 0.041708 -0.002053 -0.080672 -0.034245 -0.046964 0.029802 -0.030058 -0.020410 -0.008863 -0.002197 0.092616 -0.045821 0.042639 -0.054886 0.040038 0.018340 -0.044558 -0.021857 0.038965 0.054269 0.031770 -0.066880 -0.133881 -0.079310 0.000016 -0.061042 0.032947 0.055568 -0.026829 0.004413 -0.052142 0.033285 0.016980 0.015645 -0.046009 -0.062835 0.055128 -0.097239 -0.022010 0.080358 -0.017809 -0.001328 -0.004034 0.057988 -0.004874 -0.048384 0.017571 -0.051816 -0.095429 0.021244 0.021369 0.073373 -0.048848 -0.026011 -0.011426 -0.100538 0.051136 -0.052302 0.054952 -0.025016 -0.039771 0.057123 0.003979 -0.098363 0.025006 -0.042863 -0.035086 -0.019831 -0.046790 -0.050352 -0.048687 -0.039208 -0.049761 0.046616 -0.013469 -0.021023 0.005581 0.038894 0.062975 0.000303 -0.082704 0.018002 0.027374 -0.001661
money 0.001937 -0.000870 -0.001534 -0.009241 0.001942 0.003337 0.002279 -0.008003 -0.000676 0.002516 -0.005879 -0.003509 0.000079 0.010417 0.008240 0.004929 0.000096 0.006587 -0.010027 -0.000005 0.006564 0.013265 -0.006454 0.005203 0.005254 -0.000073 0.002275 0.005927 0.003367 -0.006845 0.002486 0.002012 0.004970 -0.006545 -0.002722 0.009814 -0.009587 -0.008803 -0.019905 -0.004418 0.001469 -0.004735 -0.000059 0.006633 -0.001713 0.006369 -0.015079 -0.002520 0.002216 -0.002807 -0.006502 -0.004109 0.009593 -0.005078 -0.005429 -0.004008 0.005169 0.000413 -0.005766 0.010652 -0.001164 -0.005760 0.004923 0.001478 -0.005027 0.002776 -0.003874 0.011559 0.002777 0.002448 0.002795 -0.015570 -0.002933 -0.003645 0.007492 -0.001344 -0.004231 -0.002525 0.002607 -0.012884 0.005574 -0.005635 -0.000227 0.001005 -0.006917 -0.010105 -0.001729 0.005724 -0.004538 -0.001369 -0.001450 -0.003949 0.004999 0.004322 -0.002422 0.004714 -0.003408 0.002067 0.003046 -0.000452
size 0.005279 -0.002016 0.014970 -0.017421 -0.003419 -0.007093 0.001728 -0.006538 -0.009518 0.016730 -0.005788 -0.013314 -0.001306 0.001965 0.014467 0.014630 0.007174 0.004725 -0.023916 0.001196 -0.000693 0.016973 -0.003196 -0.003680 0.001139 -0.003950 0.018579 -0.000447 0.010634 -0.007086 0.010301 0.004809 0.001094 0.000754 0.000741 0.014875 0.000961 -0.017549 -0.037220 -0.021999 -0.003127 -0.003605 0.005699 0.014911 0.003850 0.009551 -0.026539 -0.004841 0.005125 -0.001460 -0.013463 -0.015592 0.009308 -0.017635 0.000380 0.005900 0.009528 -0.004456 -0.014155 0.015613 0.008009 -0.008321 0.003675 -0.014525 -0.018980 0.010364 -0.006902 0.031532 -0.006296 0.005068 -0.005733 -0.030551 0.000564 -0.009928 0.019934 -0.005081 -0.007050 0.002897 0.010503 -0.027435 0.008956 -0.006556 -0.001160 -0.004592 -0.006827 -0.019839 -0.014155 -0.001046 -0.008165 0.008481 -0.006692 -0.010543 0.005546 0.014183 0.015781 0.003586 -0.019221 -0.007990 0.016258 -0.016899
ear 0.009587 -0.006407 0.027929 -0.027453 -0.000777 -0.017059 0.009144 -0.018175 -0.013425 0.040103 -0.009132 -0.006642 -0.004282 0.015190 0.040079 0.038109 0.024761 0.006900 -0.033242 0.005082 -0.014403 0.036565 -0.024144 -0.000011 -0.005337 -0.016093 0.041793 -0.014412 0.026657 -0.027049 0.024796 0.013340 -0.012756 -0.005237 0.011919 0.021004 -0.005824 -0.039698 -0.081407 -0.036541 -0.016037 -0.017568 0.005668 0.040961 0.001804 0.017810 -0.038594 -0.004789 0.016459 0.002350 -0.029615 -0.029767 0.027027 -0.040533 -0.004761 0.026882 0.017667 0.001805 -0.024640 0.034296 0.005970 -0.025274 0.020409 -0.025136 -0.042795 0.021116 -0.008714 0.047539 -0.013710 -0.007275 -0.008106 -0.057090 0.011379 -0.029139 0.052372 -0.020629 -0.012914 0.007805 0.014486 -0.058333 0.010215 -0.001702 -0.011550 -0.009551 -0.031327 -0.032479 -0.025328 -0.012815 -0.018574 0.016122 -0.013323 -0.015888 0.007268 0.037856 0.022768 0.007150 -0.031240 -0.008887 0.019032 -0.014620
car 0.003339 -0.002692 0.029748 -0.029915 0.008218 -0.013919 -0.000493 -0.014937 -0.019530 0.042370 -0.007708 -0.021860 -0.012815 0.015585 0.030085 0.041267 0.019141 0.022325 -0.043898 0.004549 -0.006538 0.040089 -0.018653 0.007761 0.005032 -0.019789 0.026448 -0.003071 0.019488 -0.019246 0.019392 0.011849 0.003505 -0.003665 0.001272 0.025546 -0.005405 -0.043720 -0.085055 -0.043571 -0.014582 -0.013550 0.002694 0.037352 -0.002477 0.013779 -0.035123 0.013331 0.000305 -0.004867 -0.034942 -0.029408 0.036933 -0.039759 0.001058 0.016970 0.013840 -0.000708 -0.025995 0.037017 0.017692 -0.028221 0.014533 -0.029243 -0.046560 0.027758 -0.012175 0.057131 -0.012573 -0.006827 -0.003844 -0.056574 0.009812 -0.026005 0.057231 -0.021293 -0.025988 0.030109 0.018029 -0.059613 0.010874 -0.005376 -0.017749 -0.010307 -0.027400 -0.031725 -0.022626 -0.002550 -0.029402 0.018763 -0.022029 -0.010491 0.017954 0.036695 0.019161 0.001196 -0.030371 -0.013753 0.022957 -0.017189
hard 0.005257 0.003073 -0.000537 -0.002231 -0.005711 0.006243 -0.008669 -0.000324 -0.006678 0.006456 -0.001266 -0.001845 -0.001931 0.014669 0.008634 0.018801 0.003484 0.010211 -0.006793 0.005565 0.005013 0.012144 -0.008280 0.002337 0.010179 -0.007398 0.000961 0.001346 0.000779 0.000921 0.002602 -0.002842 0.010397 -0.000068 -0.000057 0.009689 -0.006254 -0.008217 -0.022957 -0.008808 -0.006102 -0.009207 0.004372 0.016424 -0.002419 0.012464 -0.022125 -0.006691 0.006209 -0.001450 -0.005271 -0.009139 0.021964 -0.010738 -0.002783 0.002304 0.011504 -0.002640 -0.021457 0.007872 0.007666 -0.010594 0.002518 -0.000644 -0.005160 -0.000538 -0.009058 0.019521 -0.007456 -0.001023 0.005571 -0.021012 -0.000943 -0.005249 0.026426 -0.016007 -0.006998 0.010917 -0.002535 -0.015729 0.008091 -0.002482 0.002196 -0.003479 -0.005573 -0.007352 0.000342 0.005413 -0.001928 0.005382 -0.009524 -0.006376 0.000888 0.007239 -0.003027 0.009880 -0.002498 0.002229 -0.003220 -0.016493
case -0.004119 0.000349 0.007157 -0.009681 0.006177 -0.006716 -0.006157 -0.012456 -0.007434 0.018149 -0.008191 -0.014349 -0.004492 0.008896 0.011296 0.018375 0.009356 0.015163 -0.011479 0.007771 0.004724 0.021382 -0.005200 0.008441 0.005031 -0.010796 0.012226 0.003562 0.002398 -0.004916 0.006445 0.003077 0.001143 -0.000257 -0.002592 0.006563 -0.002684 -0.021001 -0.040885 -0.010625 -0.007536 -0.003377 0.004769 0.015264 0.004708 0.011348 -0.019433 -0.003134 -0.003223 -0.007775 -0.015675 -0.017944 0.018138 -0.016342 0.003481 -0.002216 0.008728 -0.000227 -0.014761 0.009643 0.003541 -0.012917 0.006216 -0.012744 -0.010089 0.010548 -0.008166 0.022903 -0.005852 0.004180 -0.000350 -0.025974 -0.000700 -0.008895 0.022583 -0.012824 -0.012646 0.010116 0.010834 -0.029438 0.004162 -0.001424 -0.005667 -0.007994 -0.007728 -0.015273 -0.008634 -0.000401 -0.012395 0.011659 -0.002576 0.002428 0.009819 0.019583 0.001137 0.005358 -0.015393 -0.009841 0.010176 -0.001902
volume 0.000471 -0.004311 0.008338 -0.009788 -0.001608 0.003292 0.007214 -0.001852 0.005078 -0.000942 0.002089 -0.001718 -0.001796 0.004924 0.006232 -0.007017 0.006203 -0.000741 -0.008890 -0.002379 -0.002549 -0.000124 -0.003190 0.002775 0.000878 -0.002271 0.015641 -0.004175 0.007678 -0.011715 0.006174 0.004403 -0.000153 0.000978 0.008478 0.002445 -0.000907 0.003757 -0.006533 -0.012202 0.003196 -0.009011 0.004565 -0.001668 0.002535 0.006487 0.003625 -0.000717 0.000617 0.005875 -0.001870 -0.013461 0.005362 -0.003105 -0.006987 0.012801 -0.005304 0.001392 -0.000669 0.007284 -0.004509 -0.002581 -0.000551 -0.006843 -0.007019 -0.005143 0.011636 -0.000684 -0.001711 -0.006328 0.006575 -0.012109 0.003801 0.000346 0.000862 -0.005740 -0.005081 0.008443 -0.005832 -0.001407 0.000651 -0.005705 -0.003842 -0.006741 -0.004892 -0.006723 -0.000355 -0.004584 -0.005601 0.010642 -0.001915 -0.002160 -0.006378 0.007408 0.000697 0.002676 -0.010348 0.003608 0.005002 -0.003345
touch -0.006467 -0.003281 0.004207 -0.007293 0.002715 0.004045 0.007455 -0.001060 0.007044 -0.002492 -0.003033 0.002784 -0.010517 0.007341 0.005857 -0.003280 0.005306 0.001869 0.003832 0.003703 -0.001092 0.002192 -0.004086 0.007420 0.001720 0.005025 -0.001861 0.003285 0.002625 -0.006242 0.001047 0.004485 -0.006925 -0.000871 0.004903 0.002328 0.003202 0.003158 -0.007003 0.007407 0.003068 -0.003442 0.003259 -0.003645 -0.006706 0.004313 -0.010883 -0.001647 0.005466 0.008059 0.002319 -0.008572 0.015439 0.000112 -0.001147 0.000983 0.001585 0.000956 -0.004300 0.005803 -0.002393 0.008056 0.006892 -0.001963 -0.004461 -0.002068 -0.004556 0.000428 -0.001273 -0.007898 0.006067 -0.008209 -0.004713 0.004883 0.007827 -0.004144 -0.008532 -0.002763 -0.005371 0.004096 0.002790 0.000790 -0.005101 -0.002024 -0.002017 -0.000889 -0.001635 0.005958 0.004157 0.007908 0.004108 -0.006234 -0.003295 0.007296 0.008702 -0.002707 0.003414 -0.001867 0.001296 -0.011166
audio 0.008585 0.001227 0.009608 -0.019559 0.005694 -0.012749 -0.004095 -0.009935 -0.019496 0.022455 -0.001286 -0.019257 -0.008709 0.015712 0.012852 0.034003 0.005455 0.022597 -0.022416 0.005764 -0.002468 0.025275 -0.018563 0.008626 0.013185 -0.020973 0.010628 0.000577 0.013125 -0.011985 0.017027 0.008768 -0.000779 -0.009766 -0.001058 0.022494 -0.013278 -0.033461 -0.059821 -0.020225 -0.006435 -0.004972 -0.003000 0.020024 0.005912 0.016249 -0.028148 -0.002438 -0.000935 -0.011399 -0.023074 -0.017192 0.025857 -0.016922 0.003167 0.006892 0.011849 0.004291 -0.026337 0.022430 0.017118 -0.025201 0.012734 -0.015211 -0.020418 0.017999 -0.007068 0.034545 -0.010785 0.000324 -0.002771 -0.036151 0.002930 -0.015712 0.039417 -0.011143 -0.007132 0.009814 0.005788 -0.044059 0.007276 0.004589 0.001146 -0.006459 -0.013544 -0.028036 -0.004573 -0.005593 -0.025030 0.009678 -0.012177 -0.005496 0.017496 0.027935 0.011631 0.001574 -0.024726 -0.007813 0.013283 -0.008471
sony 0.000597 -0.002933 0.004358 -0.017561 0.002034 -0.009941 -0.000158 -0.014828 -0.012726 0.027481 -0.008070 -0.015677 -0.003598 0.013031 0.017280 0.030050 0.007264 0.015763 -0.023124 0.000899 -0.002026 0.025350 -0.017204 0.012089 0.006744 -0.015172 0.009472 0.000416 0.016079 -0.011736 0.016580 0.000852 0.007280 -0.007501 -0.004704 0.016420 -0.007320 -0.032647 -0.056903 -0.024956 -0.012333 -0.006357 -0.006135 0.026819 0.006254 0.014181 -0.025955 0.004666 0.002781 -0.010204 -0.027773 -0.017674 0.021881 -0.017649 0.005662 -0.001470 0.018942 -0.004626 -0.023424 0.026197 0.010627 -0.019973 0.007543 -0.017181 -0.022846 0.016674 -0.011994 0.042084 -0.004361 0.005159 0.001773 -0.037745 0.007394 -0.020614 0.034703 -0.015050 -0.010546 0.011269 0.010840 -0.032179 0.006775 0.003237 -0.003446 -0.001823 -0.014213 -0.024612 -0.008132 -0.006418 -0.022287 0.006775 -0.019619 -0.006309 0.019334 0.027189 0.006581 0.005322 -0.022285 -0.014873 0.009198 -0.010774
zen 0.001299 0.005235 0.007969 -0.021995 0.001624 -0.002714 -0.003661 -0.008358 -0.017007 0.021007 -0.006418 -0.015071 -0.009872 0.017299 0.016161 0.024519 0.010981 0.014212 -0.019447 0.004257 -0.000697 0.030738 -0.012146 0.005953 0.013633 -0.021119 0.010392 -0.006965 0.022034 -0.010849 0.010020 0.006274 -0.000192 -0.009585 -0.000226 0.025358 -0.008879 -0.026351 -0.065657 -0.019738 -0.007321 -0.004949 0.005220 0.021493 -0.000589 0.011033 -0.028702 0.009149 0.000517 -0.010770 -0.027551 -0.014218 0.029671 -0.019886 -0.004012 0.005389 0.014939 -0.002960 -0.028403 0.020615 0.011543 -0.020010 0.004515 -0.018909 -0.023673 0.011695 -0.019760 0.041523 -0.005335 0.001823 -0.001672 -0.041713 0.000149 -0.013388 0.037641 -0.017846 -0.011162 0.008706 0.009767 -0.039089 0.002829 -0.005977 -0.001468 0.000880 -0.019141 -0.023829 -0.009715 -0.007675 -0.016664 0.004741 -0.014144 -0.010789 0.009324 0.020457 0.018614 -0.001493 -0.022280 -0.005187 0.006193 -0.019844
creative -0.000812 -0.002766 0.016447 -0.019831 0.002065 -0.005962 -0.000950 -0.004817 -0.008922 0.018930 -0.007796 -0.015345 -0.012760 0.015073 0.020714 0.020364 0.015432 0.013987 -0.017045 -0.005563 -0.002748 0.031767 -0.009913 0.003263 0.002075 -0.007137 0.011395 -0.006836 0.017583 -0.016420 0.015116 0.000561 0.006058 -0.008348 0.006636 0.022490 -0.000892 -0.032405 -0.056825 -0.026422 -0.008130 -0.007821 -0.004813 0.018150 0.004387 0.010517 -0.021814 0.000680 0.008214 -0.001333 -0.021588 -0.016152 0.026781 -0.025213 -0.003002 0.011262 0.012087 -0.006378 -0.018386 0.020615 0.009198 -0.014797 0.011660 -0.008919 -0.024714 0.017962 -0.007682 0.041739 -0.009510 -0.003377 0.002032 -0.038287 0.006103 -0.013920 0.029973 -0.011067 -0.011986 0.010508 0.006645 -0.027190 0.007990 -0.005834 -0.006089 0.003081 -0.020527 -0.023825 -0.009493 -0.007181 -0.019465 0.004166 -0.006095 -0.007230 0.016980 0.026642 0.017511 0.004063 -0.022941 -0.012635 0.007965 -0.014490
media -0.007786 0.010755 -0.009878 -0.000403 -0.003125 -0.004381 -0.006237 -0.003405 -0.014319 -0.002024 0.002587 -0.014234 0.007065 0.003565 -0.002852 0.008752 0.001452 0.011371 0.002200 -0.000465 0.005780 0.018138 -0.007653 0.009657 0.013733 -0.000397 -0.005240 0.000685 -0.005531 0.008790 0.002858 0.004405 0.004592 -0.003743 -0.010366 -0.003186 -0.008535 -0.004134 -0.005538 0.001664 -0.011121 0.001234 -0.012176 0.004217 0.017020 0.002430 -0.002997 -0.008069 -0.000425 -0.015226 -0.006493 -0.000394 0.005813 0.001621 -0.000551 -0.013685 0.008168 0.004763 -0.002662 -0.005259 0.011691 0.006629 0.004138 0.002625 0.002071 0.004759 -0.014241 0.017657 0.006043 0.000701 0.003148 0.001353 -0.004965 0.002797 0.011271 -0.006938 0.000625 -0.002234 0.009570 0.001196 0.004068 0.011138 0.005295 0.002298 0.007747 -0.004273 0.009763 -0.002138 -0.003640 -0.004525 -0.009282 0.002402 0.002509 0.004890 -0.005306 -0.006928 0.006144 -0.003538 -0.004565 -0.000698
drive -0.003587 0.010711 0.006294 -0.009070 -0.007591 -0.001580 -0.004492 -0.015850 -0.026724 0.028451 -0.006815 -0.021595 -0.009585 0.018498 0.018896 0.039897 0.016364 0.024420 -0.029096 0.000584 -0.009404 0.024183 -0.011765 0.004448 0.015282 -0.022253 0.003902 0.006993 0.010729 -0.001607 0.019415 -0.003128 0.011209 0.002136 -0.002916 0.016241 -0.005161 -0.031848 -0.063544 -0.024719 -0.008258 -0.004789 0.001965 0.027961 -0.004321 0.013284 -0.030745 -0.003403 0.006286 -0.012711 -0.028897 -0.023859 0.018744 -0.020972 0.006379 -0.000964 0.024876 -0.001857 -0.023528 0.019213 0.014803 -0.025806 0.008357 -0.021508 -0.020269 0.021285 -0.019587 0.046211 -0.005903 -0.002407 -0.005031 -0.033701 -0.004036 -0.014268 0.043665 -0.020835 -0.011070 0.009909 0.010447 -0.039592 -0.002156 -0.001268 -0.008026 0.002139 -0.020782 -0.022362 -0.008132 -0.004557 -0.011175 0.001269 -0.012437 -0.001058 0.012882 0.029546 0.009873 0.003912 -0.018166 -0.008606 0.005174 -0.012121
long 0.008737 -0.011819 0.022854 -0.018714 0.001950 -0.009231 0.001940 -0.011154 -0.003127 0.021027 -0.003006 -0.007109 -0.006383 0.010886 0.028020 0.022443 0.010522 0.008425 -0.023605 -0.011252 -0.011594 0.021722 -0.012251 0.001450 -0.002279 -0.013218 0.022549 -0.006763 0.019666 -0.019265 0.018216 0.009585 -0.009702 -0.009199 0.007186 0.019377 0.006588 -0.026631 -0.049639 -0.035265 0.000292 -0.021239 0.001593 0.026785 0.000411 0.004926 -0.020253 0.004730 0.009888 -0.001347 -0.023934 -0.018663 0.027527 -0.033845 -0.011151 0.024824 -0.001195 -0.002311 -0.010676 0.016702 0.006328 -0.020226 0.001995 -0.011353 -0.035423 0.013716 -0.003324 0.032147 -0.015365 -0.002725 0.002399 -0.035777 0.015272 -0.020510 0.026111 -0.012537 -0.009606 0.020873 0.004708 -0.035109 0.007096 -0.015645 -0.015579 -0.007851 -0.018239 -0.024893 -0.019064 -0.007788 -0.020355 0.014589 -0.007153 -0.001476 0.006204 0.017654 0.020938 0.002539 -0.027769 -0.005113 0.004414 0.000563
firmware 0.004778 0.003160 0.007487 -0.007310 0.000088 -0.005390 -0.006236 -0.006362 -0.013275 0.012430 -0.001955 -0.008080 0.000940 0.003895 0.015071 0.016805 0.005666 0.009835 -0.017770 -0.007758 -0.007522 0.014546 -0.004166 0.007953 0.006999 -0.012183 0.003363 -0.002711 0.007479 -0.007030 0.003765 0.004435 0.003715 -0.006699 -0.005448 0.007885 -0.008346 -0.016151 -0.034243 -0.017517 -0.005633 -0.005802 -0.006311 0.012175 0.002058 0.001827 -0.012457 0.003589 0.006762 -0.006262 -0.013164 -0.005770 0.010770 -0.014207 0.001213 -0.001061 0.005423 -0.004469 -0.014429 0.006111 0.007111 -0.016365 -0.000678 -0.005256 -0.007537 0.009212 -0.006328 0.019955 -0.000196 0.004216 0.004317 -0.013532 -0.002692 -0.008195 0.017137 -0.008106 -0.001537 0.001399 0.012130 -0.015539 -0.000748 -0.005513 0.000909 0.002347 -0.008488 -0.013626 -0.006365 -0.002386 -0.015627 0.006038 -0.002045 0.000067 0.006535 0.008566 0.006238 0.004523 -0.010358 -0.003072 0.005672 -0.004258
track -0.002067 0.000173 0.004642 -0.001654 0.002363 0.000383 -0.000584 -0.008684 0.002700 0.001457 -0.003148 -0.006148 0.005508 0.010214 0.004375 0.006462 0.005393 0.003209 -0.005349 0.005418 0.003893 0.015410 -0.011199 0.006615 0.003556 -0.005319 0.002366 0.004900 0.006660 -0.009101 0.002588 0.004961 0.000718 -0.002952 -0.000934 0.004874 -0.006386 -0.003901 -0.019107 -0.010019 0.001775 0.000562 -0.006660 0.014158 0.011098 0.005533 -0.011931 -0.004201 -0.003057 -0.004049 -0.011497 -0.009656 0.009585 -0.002849 -0.000416 -0.003633 0.007022 -0.001819 -0.003576 0.003977 0.006268 -0.009254 0.003390 -0.000028 -0.008087 0.008013 0.002605 0.017295 -0.001710 -0.000295 -0.002323 -0.012102 0.001962 -0.002870 0.014751 -0.003802 -0.002215 -0.003030 0.007334 -0.016820 0.006943 -0.003126 0.006401 -0.004503 -0.002765 -0.013524 0.004232 0.002353 -0.011957 0.008840 -0.001748 -0.007897 -0.000688 0.004296 -0.000307 0.003337 -0.004541 -0.008708 0.003016 -0.005224
big 0.000668 -0.000404 0.002111 -0.007050 -0.000111 -0.001670 0.003028 0.000038 -0.010570 0.004244 0.002563 -0.000068 -0.009131 0.005504 0.001940 0.009762 0.005711 -0.000493 -0.009175 0.006908 0.002948 0.014553 0.000023 -0.002998 -0.000487 -0.008528 0.006790 0.004440 0.008724 0.000385 0.000845 0.001518 -0.000487 -0.004444 0.005801 0.002692 -0.002064 -0.007353 -0.024611 -0.008218 -0.004439 0.004089 0.004259 0.012836 0.001053 0.003995 -0.011468 0.005156 -0.000173 -0.006128 -0.012334 -0.004496 0.001389 -0.008670 0.003108 0.005923 0.001407 -0.003305 -0.009014 0.005620 0.005422 -0.005138 0.008255 -0.004713 -0.014128 0.011083 -0.003101 0.010823 0.002658 0.001820 -0.000252 -0.012785 0.005794 -0.007703 0.009411 -0.000302 -0.004736 0.007615 0.007964 -0.020561 -0.004243 0.004414 -0.005697 -0.002273 -0.010829 -0.011694 -0.001406 0.001751 -0.005067 0.004764 -0.003551 -0.007627 0.004920 0.004452 0.008067 0.003176 -0.004800 -0.003948 0.004407 -0.008241
menu 0.005184 0.000409 -0.001149 -0.004076 0.003278 0.004043 0.000582 0.000087 0.000594 0.009196 -0.004289 -0.012794 -0.003365 0.011879 0.012932 0.001871 0.008614 0.008012 -0.007032 0.007914 0.000363 0.017290 -0.007536 -0.003083 0.006424 -0.006618 0.006000 0.002910 0.003924 -0.000720 0.005353 0.001550 0.002064 0.001822 0.002950 0.001151 0.001076 -0.004040 -0.013973 -0.011467 0.003825 -0.000020 -0.001186 0.008318 0.005877 0.003300 -0.015915 0.000087 -0.006102 -0.006667 -0.010843 -0.008044 0.010373 -0.000550 -0.003357 0.002309 0.006264 0.002872 -0.007981 0.006158 0.004198 -0.002531 -0.002002 0.001154 -0.008565 0.003378 0.002194 0.017223 -0.005337 0.002930 -0.000295 -0.017528 -0.005198 -0.005252 0.014644 -0.000733 0.002404 0.002489 0.004199 -0.010266 -0.001363 -0.002208 -0.001213 0.003027 -0.002270 -0.007382 0.003225 -0.004247 -0.005431 0.008520 -0.010407 -0.009546 0.005172 0.007746 0.001193 0.002509 0.000482 -0.006599 0.001305 -0.009971
control 0.004347 0.001243 0.011346 -0.017742 0.000215 -0.000754 0.003121 -0.005603 -0.005020 0.021724 -0.005348 -0.012545 -0.003712 0.008588 0.020384 0.021423 0.015567 0.007614 -0.021744 -0.004496 0.000297 0.020828 -0.006271 0.002933 0.003427 -0.009663 0.020659 -0.007054 0.011746 -0.006293 0.017054 0.007566 -0.002235 -0.007796 0.006546 0.015928 -0.005308 -0.019832 -0.041799 -0.023434 -0.007176 -0.013044 0.003924 0.011233 0.000755 0.006563 -0.021692 0.002290 0.005035 -0.005692 -0.020612 -0.017442 0.020606 -0.018332 -0.006674 0.009046 0.010412 0.004721 -0.015099 0.021155 0.012438 -0.010512 0.005999 -0.011026 -0.023774 0.011675 -0.004611 0.029151 -0.009193 -0.000920 0.003796 -0.033356 0.000361 -0.016892 0.020781 -0.007844 -0.011619 0.011127 0.004941 -0.026976 0.007791 -0.001184 0.000165 -0.008113 -0.010270 -0.022333 -0.006519 -0.007267 -0.012892 0.010234 -0.009421 -0.000980 0.008809 0.017002 0.006576 -0.001901 -0.017682 -0.010116 0.010820 -0.009707
playlist 0.006083 0.002634 0.006169 -0.002830 0.005186 -0.005203 0.002531 -0.002912 0.003329 0.000077 -0.007197 -0.009760 0.004188 0.009709 0.011230 0.000345 0.002942 0.004255 -0.009387 0.006032 -0.004633 0.015625 -0.002319 -0.005285 0.004573 -0.004633 0.009667 -0.001529 0.010704 -0.004515 -0.001389 0.001462 -0.001169 0.001105 0.000939 0.003539 -0.003950 -0.004392 -0.004771 -0.010173 0.000672 0.007754 -0.007070 0.007104 0.009493 0.008587 -0.010251 -0.005529 0.000244 0.000905 -0.007787 0.000281 0.001664 -0.003782 -0.003888 -0.000069 0.007249 -0.001461 -0.002337 0.002542 -0.002165 -0.005008 0.000636 0.000524 0.001430 0.005284 0.001722 0.016914 0.001670 0.002494 0.003586 -0.002716 -0.001759 -0.007209 0.007996 0.002288 0.000312 0.001600 0.006867 -0.009157 -0.001938 0.000107 0.004857 0.002031 -0.001817 0.001660 0.006342 -0.008650 -0.001538 0.001241 -0.012439 -0.009198 0.006221 0.001150 0.009168 -0.003586 -0.001059 -0.009398 0.001135 -0.001301
portable 0.003102 0.003087 0.004995 -0.008090 0.003220 -0.000205 -0.000260 -0.003725 -0.005961 0.017185 -0.002619 -0.011047 -0.008116 0.001587 0.009646 0.010589 0.007907 0.010480 -0.016584 -0.000387 0.001139 0.018243 -0.005465 0.005701 0.000657 -0.003966 0.015490 -0.006558 0.009789 -0.011716 0.008077 0.006326 -0.003518 -0.001095 -0.000362 0.014094 0.001348 -0.013576 -0.028670 -0.014981 -0.002316 -0.004940 0.000469 0.012038 -0.004135 0.009439 -0.016560 0.000563 0.004844 -0.000810 -0.009969 -0.015421 0.012804 -0.013830 -0.003322 0.005979 0.004920 -0.005545 -0.014574 0.017160 0.001544 -0.008904 0.004902 -0.005346 -0.012772 0.007078 -0.003872 0.019083 -0.007945 -0.002244 -0.002848 -0.020974 0.008883 -0.015059 0.022073 -0.002299 -0.010004 0.006444 0.008753 -0.028193 0.002322 -0.008781 -0.000359 -0.007483 -0.012505 -0.016827 -0.002395 -0.005628 -0.016322 0.004448 -0.007518 -0.004885 0.003462 0.008726 0.013549 -0.000677 -0.019662 -0.005489 0.007625 -0.006301
rio 0.000187 -0.000796 -0.003458 0.003102 -0.000810 -0.005790 0.001212 -0.000397 0.004436 -0.003885 0.004273 0.001667 0.001633 -0.000449 -0.012637 -0.004399 -0.003122 -0.002490 0.006993 0.004399 0.008304 -0.001629 0.006697 0.003284 -0.000188 0.001874 -0.009235 0.004008 -0.005843 0.006818 -0.001817 -0.000613 -0.002104 -0.004340 -0.004667 -0.005166 -0.005949 0.011610 0.012020 0.009258 -0.005690 0.000115 -0.000086 -0.009405 -0.002668 -0.003133 0.003660 -0.003581 -0.006172 0.002937 -0.000252 0.007445 -0.007452 0.009037 -0.002889 -0.010052 -0.002377 0.006682 0.002028 -0.006314 -0.003880 0.006438 0.001323 0.002897 0.003991 -0.000571 -0.001144 -0.010212 0.000661 0.002273 -0.001407 0.012756 0.001427 0.008156 -0.002210 -0.002313 -0.001918 -0.007687 0.000175 0.009551 -0.005250 0.007044 0.000798 -0.000112 0.009135 0.005992 0.007748 0.000484 0.000132 -0.009395 0.005179 0.002355 -0.000031 -0.008615 -0.004641 -0.002701 0.003061 0.003131 -0.005052 0.000760
sandisk 0.001942 0.002140 -0.003650 0.001892 -0.003710 -0.001181 -0.000401 -0.002151 -0.001632 -0.001496 0.003757 -0.002886 -0.000314 0.001058 0.004100 0.001674 -0.004260 0.001313 0.000321 -0.000615 0.003760 0.002078 -0.003023 -0.001520 0.001311 -0.006306 -0.010199 0.004968 0.000599 -0.001318 -0.005318 -0.003784 -0.002279 0.003092 -0.000655 -0.000741 0.003057 -0.005063 0.001069 -0.000725 -0.000837 0.007650 -0.002702 -0.002561 0.002811 -0.000461 0.003609 0.000328 0.004355 0.003764 -0.001664 0.005541 -0.001190 -0.001510 0.004457 -0.001584 0.000031 -0.002292 0.002090 0.000842 0.001295 -0.003464 -0.000277 0.003113 0.004885 0.000362 -0.003821 -0.003764 -0.001895 0.003753 -0.007392 0.006492 -0.005474 -0.002412 -0.003161 0.005016 -0.003578 -0.000443 -0.003072 0.005156 -0.002556 0.002057 0.000523 0.000850 -0.001733 0.005873 -0.002817 0.001949 0.003307 -0.003053 -0.003568 0.001001 0.002763 0.001394 0.000350 -0.000941 0.005640 0.003798 -0.001376 0.005356
support 0.005092 -0.000311 -0.006803 0.001477 -0.003301 0.002464 0.000762 -0.003681 0.000192 0.000668 0.001573 -0.008142 -0.005710 0.002746 -0.000178 0.005850 0.002910 0.009047 -0.000909 -0.003371 0.001076 0.005599 -0.007867 0.007001 -0.000977 -0.007183 0.000743 0.003055 0.001779 -0.004549 -0.000493 0.003282 0.008564 -0.007039 -0.005109 0.002659 -0.004242 -0.006285 -0.010111 0.001845 -0.003783 -0.001872 -0.007727 -0.003851 0.002770 -0.003195 -0.006083 0.006187 -0.002712 -0.004373 -0.004053 0.000189 -0.000844 -0.003426 0.004784 0.000715 0.008608 -0.002545 -0.003552 0.000677 -0.001782 0.002635 -0.001569 -0.004487 -0.005149 0.004067 -0.008352 0.000321 0.004814 0.001710 0.006051 -0.003408 0.001864 -0.003447 0.001011 -0.004555 -0.005869 -0.001235 0.000740 -0.005538 0.004902 -0.007102 0.000905 -0.002870 -0.004577 -0.008619 -0.005815 -0.003914 -0.003297 -0.005602 -0.002176 0.009719 0.008098 0.003007 -0.005651 -0.001634 0.005434 -0.002712 -0.003773 0.000590
user 0.004359 -0.005348 0.012184 -0.008966 -0.003319 -0.005018 -0.005724 -0.004493 -0.013796 0.013751 -0.000958 -0.012057 -0.000156 0.011480 0.019550 0.013420 0.014436 0.018882 -0.022674 0.000331 -0.006371 0.028608 -0.013521 0.006959 0.008098 -0.007804 0.005696 -0.001970 0.013840 -0.009559 0.005970 -0.000735 0.010485 -0.009236 0.000695 0.017126 0.000858 -0.027463 -0.046289 -0.016040 -0.000958 -0.001955 -0.004604 0.011945 0.004238 0.012563 -0.024337 0.005564 -0.004466 -0.008790 -0.013278 -0.015758 0.021381 -0.017453 -0.000356 0.000084 0.013357 -0.001464 -0.012070 0.015718 0.011443 -0.011673 -0.000048 -0.013242 -0.018247 0.006880 -0.013951 0.034861 -0.007431 0.002916 0.004924 -0.028379 0.005453 -0.013804 0.025561 -0.008448 -0.006538 0.013715 0.010344 -0.031568 0.010654 -0.006001 0.000658 0.001497 -0.010481 -0.020918 -0.002487 0.001945 -0.020083 0.000795 -0.009835 0.001921 0.015741 0.017813 0.006170 -0.000984 -0.011808 -0.011671 0.003191 -0.012228
windows -0.004495 0.008160 0.000092 -0.003972 -0.000924 -0.002200 -0.000995 0.002125 -0.005154 0.003041 0.001667 -0.003929 0.005110 0.002654 -0.004997 0.004137 -0.004546 0.003012 -0.007581 0.000229 -0.003401 0.008880 0.003503 -0.004706 0.008665 -0.005555 0.005703 -0.000939 -0.000971 0.006204 0.000959 -0.003671 -0.000116 0.005623 0.001706 0.003567 -0.009634 -0.001253 -0.012252 0.001914 -0.006755 0.006132 -0.007620 -0.002443 0.008614 0.005353 0.001744 0.000579 0.005386 -0.011131 -0.004345 0.008768 -0.002391 0.005084 0.006377 -0.008971 0.007486 0.004413 0.001498 0.000376 0.003742 0.002451 0.007009 -0.001375 -0.001014 0.006658 -0.004644 0.004271 0.006033 -0.003330 0.001363 -0.007549 -0.007569 -0.004000 0.006282 -0.005203 -0.003118 -0.007750 -0.000501 -0.003675 0.002804 -0.000613 0.005832 0.006856 0.000268 -0.002407 -0.000604 -0.001938 -0.008878 0.000292 -0.004118 0.003734 0.000320 0.000255 0.004871 -0.002659 -0.000204 -0.006783 0.009191 -0.009960
folder 0.008349 0.008480 0.004631 0.002022 -0.000967 0.002183 0.002799 -0.007804 -0.012567 0.016582 -0.007812 -0.011723 0.005963 0.007381 0.020269 0.011963 0.007534 0.018122 -0.019323 -0.001689 -0.011263 0.024293 -0.011517 -0.000976 0.015463 -0.008338 0.007467 0.007409 0.010767 -0.001164 0.003251 0.003190 0.012196 0.002545 0.002880 0.009974 -0.007098 -0.017587 -0.027632 -0.015856 -0.002902 0.005321 -0.004447 0.015887 0.011065 0.006196 -0.023750 -0.010829 0.004124 -0.003471 -0.019677 -0.003238 0.006590 -0.008894 -0.002301 -0.000470 0.013919 -0.006034 -0.018071 0.016683 0.003398 -0.008956 0.007995 0.001652 -0.002667 0.005891 -0.000746 0.032143 -0.010846 0.005080 -0.004557 -0.012657 0.001132 -0.009478 0.015530 -0.010527 -0.001399 0.007169 0.007778 -0.020896 0.008070 -0.006515 0.000836 0.011840 -0.007608 -0.007479 0.002392 -0.010050 -0.010430 0.002841 -0.016341 -0.007010 0.012365 0.011023 0.009698 0.000492 -0.015096 -0.008395 0.003757 -0.010104
gb 0.002811 0.003908 0.001167 0.000459 -0.004742 0.000759 -0.004359 0.003533 -0.007132 0.007234 -0.000841 -0.007898 -0.006408 0.003013 -0.002220 0.005728 -0.000222 0.010480 0.002309 -0.003260 0.000867 0.004827 -0.002023 0.006551 0.003797 -0.003691 -0.006893 0.008149 -0.005283 0.002996 -0.001847 0.001785 0.003451 0.006037 -0.006761 -0.000888 0.001011 -0.005357 -0.009308 -0.007375 -0.002553 -0.001485 -0.003928 0.006178 0.005585 0.005676 -0.005680 0.001933 -0.000690 -0.004353 -0.005637 0.003558 0.003533 0.000248 -0.001227 -0.000193 0.004655 -0.003524 -0.003259 -0.001072 -0.000046 0.002325 0.003625 0.000595 -0.004004 0.003449 -0.003667 0.005444 -0.003964 0.006234 0.000637 -0.001375 -0.004978 -0.001078 0.004390 -0.003182 -0.004903 -0.002243 -0.001405 -0.004360 0.002306 0.002036 0.001721 -0.004648 0.001436 -0.002864 -0.003545 -0.001697 -0.003390 0.001641 0.002421 0.005012 0.001871 0.008333 -0.000600 0.005310 -0.000175 -0.001526 0.003458 -0.006514
speaker 0.001892 0.002161 0.013075 -0.010416 0.000674 -0.001604 -0.004819 -0.009239 -0.001222 0.017118 -0.005133 -0.003200 -0.004274 0.007703 0.019056 0.017432 0.008682 0.007482 -0.018042 -0.000075 0.000470 0.021415 -0.011296 -0.000908 0.006746 -0.010607 0.013794 -0.000344 0.011396 -0.009848 0.005465 0.007604 -0.000730 -0.001601 0.003430 0.008784 -0.000445 -0.019078 -0.030857 -0.019174 0.001989 -0.005010 0.003704 0.018358 -0.002421 0.011021 -0.018988 -0.002655 0.004530 -0.005909 -0.019078 -0.018878 0.011794 -0.017247 0.003792 0.002206 0.002815 0.002344 -0.011058 0.012200 0.006990 -0.015531 0.006593 -0.008837 -0.013627 0.007553 -0.004431 0.022815 -0.002896 0.004271 0.001602 -0.025908 0.006964 -0.016418 0.016991 -0.008266 -0.002201 0.007487 0.009427 -0.025403 -0.000893 0.001664 -0.005072 -0.006637 -0.006858 -0.016132 -0.007226 -0.001282 -0.016280 0.007929 -0.013243 -0.004870 0.003518 0.014318 0.011262 0.000999 -0.010734 0.000120 0.009938 -0.008209
option 0.003362 0.002936 -0.006633 0.002214 0.002497 0.000594 -0.003776 -0.000917 0.003079 -0.001462 0.001562 -0.003001 -0.002579 -0.005075 -0.001490 -0.008667 -0.002755 -0.001862 0.007601 -0.000734 -0.001798 -0.008920 0.006651 -0.004913 -0.001639 0.001182 -0.000757 0.000791 -0.006044 0.007984 -0.001271 -0.005001 0.004329 0.005611 -0.002629 -0.004978 -0.002128 0.010006 0.015276 0.008080 0.006220 -0.000026 0.001945 -0.009439 0.001758 0.000981 0.003985 -0.005412 0.000973 0.000221 0.004299 0.003790 -0.006552 0.012400 0.003126 -0.003305 -0.002928 -0.004155 0.004888 -0.007644 -0.001945 0.007669 -0.002339 0.007735 0.012109 -0.005773 -0.000628 -0.010706 0.002367 -0.000191 -0.002565 0.006150 -0.002346 0.008200 -0.004866 -0.000390 0.005193 -0.002785 -0.000108 0.012970 -0.003938 0.001947 0.000825 0.002409 0.005564 0.011145 0.001405 0.003992 0.008901 -0.007386 0.004461 0.002452 -0.005387 -0.006849 -0.005183 0.000928 0.006101 -0.004336 0.000999 0.001241
version 0.002118 -0.002893 0.002908 -0.005242 -0.001478 -0.006547 -0.007761 -0.003124 -0.012144 0.010752 -0.006005 -0.013450 -0.004152 0.009720 0.017317 0.017149 0.011710 0.010165 -0.013672 0.000250 0.002033 0.021199 -0.006905 0.005899 0.009792 -0.008501 0.004812 -0.001688 0.014718 -0.008238 0.013119 0.002770 -0.001863 -0.001308 0.004927 0.007922 -0.002759 -0.016888 -0.040570 -0.018467 -0.004997 0.002689 -0.000637 0.011259 -0.000106 0.014340 -0.015475 -0.000877 0.003574 -0.007851 -0.014532 -0.004809 0.017471 -0.016434 -0.000008 0.003773 0.009665 0.002151 -0.016764 0.014855 0.010974 -0.015352 0.004872 -0.008647 -0.015953 0.005203 -0.010303 0.023414 -0.002876 -0.002643 0.003978 -0.024169 0.005842 -0.008365 0.018745 -0.011536 -0.010986 0.007522 0.009147 -0.025921 0.000346 0.000688 -0.006900 0.001241 -0.008728 -0.014399 -0.007285 -0.007198 -0.013383 0.010700 -0.004702 -0.006537 0.011101 0.015551 0.013066 0.005471 -0.014633 -0.011337 0.010862 -0.012146
shuffle 0.000039 0.003402 0.001986 0.001792 0.004079 0.003993 -0.002970 0.004025 0.003521 -0.007800 -0.000413 0.006477 0.004423 -0.003183 0.001156 -0.010695 -0.003023 -0.004666 0.005554 -0.000012 -0.000621 -0.009295 0.007060 0.001479 -0.003517 0.000824 -0.003276 0.005732 -0.000046 0.002835 -0.000745 -0.000918 0.005872 0.005995 -0.001996 -0.003761 0.004219 0.011679 0.013793 0.007485 0.003443 0.008316 0.005040 -0.003762 0.004939 0.004709 -0.000739 -0.008056 -0.003751 0.004596 0.000818 0.008346 -0.003490 0.011232 0.000074 0.001211 0.000801 -0.002902 0.004567 -0.006351 -0.005607 0.002063 0.001784 0.010144 0.006811 0.002022 0.006426 -0.010466 -0.000802 -0.000019 -0.000878 0.002188 0.001298 0.001826 -0.009234 0.006934 0.006587 -0.002391 -0.001017 0.004109 0.001056 0.001784 0.005130 0.000900 -0.000827 0.006383 -0.001967 0.005855 0.001722 -0.001055 -0.002970 0.001144 0.000929 -0.008344 -0.005416 0.002301 0.008258 0.001173 0.003292 0.001911
customer -0.002242 0.001133 0.001844 -0.018717 -0.005469 -0.008965 -0.005436 -0.006846 -0.009579 0.010579 0.002684 -0.012440 -0.006247 0.006066 -0.004794 0.022937 -0.002648 0.009688 -0.008540 0.009267 -0.000678 0.015486 -0.012258 0.001541 0.004661 -0.017630 0.002079 -0.000442 0.004515 -0.001172 0.005151 0.001349 0.000750 -0.008888 -0.004057 0.011360 -0.003723 -0.007713 -0.038031 -0.008717 -0.008762 -0.008773 -0.003642 0.008937 0.007033 0.002210 -0.010566 0.007096 -0.007754 -0.003317 -0.005079 -0.005348 0.018658 -0.012877 -0.001744 -0.005928 0.012750 0.001791 -0.015750 0.003594 0.016504 -0.013856 -0.002053 -0.004505 -0.013034 0.001597 -0.016885 0.016322 0.006430 0.006449 0.006915 -0.014123 -0.002063 -0.005727 0.023592 -0.006517 -0.001838 0.011631 0.004451 -0.016566 0.005472 0.003302 -0.001027 -0.007927 0.000453 -0.015885 -0.003506 0.007970 -0.013915 0.000403 -0.001210 -0.004478 0.000919 0.016666 0.005470 -0.006481 -0.014908 -0.004010 0.000183 -0.004792
phone 0.003397 0.000225 0.007385 -0.015031 0.000399 -0.007231 -0.006223 -0.003650 -0.009191 0.023017 -0.005037 -0.012914 -0.007154 0.016196 0.019916 0.019007 0.010760 0.014465 -0.017620 -0.004338 -0.000310 0.028487 -0.016164 0.009270 0.004055 -0.009268 0.008893 -0.001389 0.013549 -0.010370 0.014002 0.006785 -0.000265 -0.003796 0.004606 0.019017 -0.007296 -0.020879 -0.052567 -0.026751 -0.014213 -0.006122 -0.002660 0.015314 0.001571 0.011379 -0.026730 0.000765 0.007692 -0.013535 -0.023065 -0.014601 0.018753 -0.016673 -0.001297 0.010866 0.012600 -0.003325 -0.020913 0.015819 0.013345 -0.013092 0.003101 -0.020072 -0.018319 0.013928 -0.008700 0.038348 -0.003881 -0.002146 0.005370 -0.028770 0.005629 -0.017444 0.027713 -0.010995 -0.011231 0.012567 0.011442 -0.035510 0.006140 0.000022 -0.006360 -0.011116 -0.017497 -0.024171 -0.016384 -0.002845 -0.009037 0.003678 -0.014192 0.003257 0.011834 0.024311 0.002202 0.003762 -0.012912 -0.006520 0.002605 -0.004197
manual -0.000210 0.003093 0.002713 -0.002356 0.001509 0.000636 -0.001724 -0.005922 -0.008822 0.006140 -0.003071 -0.003720 0.001754 0.001991 0.010817 0.006987 0.007338 0.011319 -0.002441 -0.000476 0.002383 0.009682 -0.000661 -0.000451 0.001188 -0.004140 0.001516 0.004411 0.007889 -0.009657 0.009450 0.000702 0.000537 -0.005124 -0.005279 0.002493 -0.005576 -0.009174 -0.015095 -0.006320 0.001706 -0.007670 0.000982 0.011108 -0.001107 0.006109 -0.005345 -0.003178 0.005215 -0.001144 -0.007616 -0.006787 0.014127 -0.006199 -0.003845 0.002933 0.004641 0.002936 -0.004326 0.009851 0.006414 -0.007733 -0.002938 -0.001975 -0.009117 0.002750 0.000251 0.011785 0.000337 0.000990 0.006701 -0.012926 0.000427 -0.004440 0.014869 -0.000192 -0.002303 0.004979 0.007448 -0.014405 0.007416 -0.002651 -0.004929 -0.004998 -0.005832 -0.005297 -0.005954 -0.001338 -0.003959 0.004608 -0.008482 -0.003137 0.004011 0.006975 0.000593 -0.000191 -0.008237 -0.005581 0.000499 0.002057
storage 0.005176 0.005706 -0.003288 0.001932 0.004507 0.003722 0.001794 -0.004009 -0.003067 0.005403 0.003023 0.002048 0.002773 0.000297 0.006349 -0.000962 0.006870 -0.001131 -0.009545 0.000580 -0.002410 0.004095 -0.005632 0.002144 0.003648 -0.003980 0.003357 0.001351 -0.000335 0.001025 -0.000287 -0.003008 0.003942 -0.004249 0.001383 0.000670 0.000104 -0.006401 -0.004642 -0.008767 0.000437 -0.007537 0.004193 0.009782 -0.002879 0.005053 -0.002375 0.003698 0.005244 0.002874 -0.000178 -0.006426 0.004200 -0.004376 -0.003066 0.002833 -0.000249 -0.000284 -0.007083 0.004432 0.003824 -0.001269 0.001285 -0.005368 -0.005530 0.000902 0.005670 0.007358 -0.004003 0.005850 -0.000111 -0.008428 0.005026 -0.007395 0.008481 -0.002123 0.001752 0.000006 -0.004854 -0.001229 0.005578 -0.003464 -0.003902 -0.001636 -0.000285 -0.009195 -0.003524 0.002165 0.000044 -0.003504 -0.001623 0.000829 -0.002525 0.002766 0.001118 -0.000184 -0.005273 0.002694 -0.002422 -0.004872
earphone 0.003402 -0.008521 0.023252 -0.009951 0.009370 -0.001072 0.003673 -0.004778 -0.000337 0.016693 -0.004519 -0.003193 -0.004230 0.004886 0.023469 0.015763 0.011176 0.001066 -0.020381 -0.004005 -0.006485 0.019497 -0.013964 -0.001476 -0.003204 -0.010943 0.023515 -0.006148 0.020355 -0.015374 0.011990 0.004786 -0.004098 -0.009204 0.007766 0.012191 -0.001316 -0.023330 -0.044260 -0.028249 -0.007042 -0.009272 -0.000451 0.019433 -0.003126 0.009892 -0.026097 0.007215 0.007910 -0.002580 -0.024134 -0.012613 0.020028 -0.028343 0.000283 0.023305 0.001151 -0.007569 -0.008891 0.019739 0.008796 -0.014662 0.004780 -0.015734 -0.026527 0.010479 -0.003530 0.031118 -0.013135 0.002798 -0.003043 -0.034646 0.010698 -0.012806 0.025677 -0.008485 -0.004729 0.007161 0.010728 -0.038616 0.002863 -0.009187 -0.002374 -0.004349 -0.009759 -0.019722 -0.015003 -0.006390 -0.020232 0.016821 -0.015802 -0.014168 0.007148 0.017411 0.022673 0.007592 -0.026383 -0.004473 0.016955 -0.008910
light 0.003070 -0.002044 0.011043 -0.010858 0.003508 -0.006125 0.003730 -0.006367 -0.007194 0.015762 -0.006356 -0.009044 -0.006117 0.002384 0.016221 0.019112 0.010657 0.004858 -0.019361 0.002730 -0.000365 0.015367 -0.003566 0.003456 0.006368 -0.009941 0.009054 -0.008214 0.012076 -0.007711 0.007955 0.009129 0.000041 -0.006019 0.005737 0.007622 -0.001849 -0.021244 -0.040887 -0.012477 0.001057 -0.006215 -0.001633 0.012347 0.005502 0.012231 -0.015812 0.004956 0.006487 -0.007150 -0.017581 -0.016923 0.009343 -0.014341 0.000108 0.003598 0.005032 0.003117 -0.015971 0.020367 0.004233 -0.010369 0.011391 -0.015809 -0.022673 0.014592 -0.008189 0.024538 -0.008449 0.001232 -0.003285 -0.021874 0.000343 -0.012557 0.021449 -0.005236 -0.011189 0.004243 0.013780 -0.024480 0.010087 -0.002494 -0.006078 0.004172 -0.006785 -0.013093 -0.009326 -0.007995 -0.014937 0.012290 -0.010025 -0.006274 0.006054 0.016260 0.009026 0.002346 -0.020779 -0.010093 0.008962 -0.003749
album -0.001229 0.003877 -0.000571 -0.001545 0.004634 -0.003777 0.000713 -0.005603 -0.001309 0.006660 -0.005499 -0.015557 0.008855 0.017028 0.012750 0.008496 0.006657 0.013579 -0.006965 -0.001069 -0.006797 0.017084 -0.012201 0.001447 0.004661 -0.004359 0.001280 0.010644 0.013625 -0.001036 0.006987 -0.002406 0.009474 -0.003501 -0.008182 0.005427 -0.011346 -0.010679 -0.023758 -0.014055 0.003833 0.003740 -0.010420 0.012916 0.014483 0.002907 -0.014931 -0.009729 0.004162 -0.012458 -0.019941 -0.006942 0.012100 -0.003356 -0.000774 -0.003383 0.015218 -0.003644 -0.013977 0.008964 0.006010 -0.011526 0.001561 0.006838 -0.002167 0.010268 0.003107 0.026471 -0.004287 0.002312 0.001457 -0.017221 0.004353 -0.008750 0.013288 -0.009158 0.004469 -0.005436 0.010269 -0.015388 0.006535 0.002396 0.001337 0.011504 -0.006129 -0.010378 0.003784 -0.006973 -0.010841 0.004881 -0.011786 -0.009530 0.010334 0.007437 -0.001890 -0.001017 -0.004290 -0.010587 0.008713 -0.008475
model 0.006762 -0.004032 0.006570 -0.004558 0.004794 -0.004979 -0.000371 -0.008353 -0.010007 0.006981 -0.006245 -0.009730 -0.008094 0.008369 0.005567 0.015412 0.005035 0.007455 -0.007163 0.002754 0.000960 0.010832 -0.005565 -0.001827 0.001913 -0.008586 0.004700 -0.005085 0.006475 -0.008320 0.001363 0.006939 -0.004395 -0.002737 -0.001094 0.007816 -0.000538 -0.012920 -0.024417 -0.012120 -0.000617 0.000068 0.003621 0.007326 -0.001575 0.004550 -0.016491 0.005736 0.002488 -0.005694 -0.010098 -0.005658 0.011765 -0.010400 -0.004442 0.002920 0.001272 0.000831 -0.009597 0.005141 0.008012 -0.010511 0.001167 -0.004363 -0.009705 0.005055 -0.005468 0.016104 -0.003596 0.005047 0.000969 -0.013602 0.006255 -0.008385 0.016250 -0.010116 -0.003652 0.006705 0.007686 -0.014059 0.003989 -0.002548 -0.007215 -0.004104 -0.010437 -0.010206 -0.007521 0.001195 -0.008720 0.007789 -0.009103 0.000720 0.008175 0.009758 0.006177 0.005644 -0.012519 -0.005966 0.000302 -0.008164
station -0.001803 -0.002905 0.008011 -0.014715 -0.000121 -0.007189 -0.008557 -0.005572 -0.015429 0.017068 -0.008501 -0.008119 -0.009806 0.012626 0.011276 0.015770 0.014139 0.007449 -0.021715 -0.004595 0.005401 0.022981 -0.007897 0.009279 0.008615 -0.001907 0.009852 -0.004670 0.006984 -0.013023 0.010903 0.009078 0.009299 -0.002037 -0.001771 0.012259 -0.004182 -0.027722 -0.047515 -0.015253 -0.005643 -0.002046 0.000735 0.009670 0.005604 0.007968 -0.015034 0.004185 -0.003487 -0.000500 -0.013253 -0.016834 0.016395 -0.012005 -0.000259 0.006937 0.014731 -0.000653 -0.012823 0.015897 0.007162 -0.006195 0.004848 -0.010384 -0.024559 0.007081 -0.008304 0.024440 -0.003795 0.001984 0.006463 -0.028141 0.005876 -0.009899 0.023088 -0.009553 -0.014553 0.007666 0.017722 -0.021768 0.003764 -0.009933 -0.002304 0.003568 -0.017151 -0.018713 -0.007283 -0.004656 -0.016809 0.005197 -0.008239 -0.001320 0.008994 0.014762 0.009120 0.007278 -0.015045 -0.008126 0.008927 -0.011981
cheap 0.005448 -0.000313 0.004370 -0.011775 0.005075 -0.004853 -0.005302 -0.007333 -0.004500 0.012769 -0.004336 -0.012011 -0.003402 0.010942 0.011485 0.016675 0.005697 0.004149 -0.014019 0.004673 -0.005623 0.016375 -0.004213 0.001135 -0.001449 -0.008210 0.013393 0.000304 0.007719 -0.006260 0.008281 0.000466 0.002462 -0.004325 -0.003380 0.011889 -0.005622 -0.019732 -0.031906 -0.016123 -0.004832 -0.009083 0.003326 0.010785 0.001029 0.003852 -0.017894 -0.000583 0.004020 -0.001464 -0.012501 -0.011853 0.010673 -0.012439 -0.001672 0.002639 0.011395 -0.004790 -0.008345 0.016909 0.006689 -0.009091 0.006021 -0.010293 -0.011888 0.007204 -0.001370 0.019765 -0.001624 -0.002564 0.004158 -0.024938 0.006737 -0.016156 0.016445 -0.005332 -0.004714 0.005572 0.001166 -0.024331 0.005138 -0.001131 -0.001859 -0.001342 -0.010208 -0.015044 -0.010521 0.002361 -0.005292 0.002786 -0.003866 -0.002520 0.004469 0.018047 0.010835 0.001716 -0.009824 -0.001645 0.009459 -0.002240
cable 0.003320 0.000390 -0.005370 0.008209 -0.003128 0.000230 -0.008258 -0.001070 -0.007816 0.004305 0.004308 -0.000562 -0.003389 -0.006928 -0.002443 0.005238 -0.003705 0.004518 -0.001426 -0.006305 -0.006815 0.000766 -0.005086 0.004024 0.000670 -0.001078 -0.001102 -0.007738 -0.001642 0.002084 -0.000777 -0.002949 -0.003713 0.002872 -0.001295 -0.001078 0.007720 -0.004107 0.000996 -0.003753 -0.002666 0.007177 -0.008584 -0.001194 0.003814 -0.005523 -0.004092 0.002131 0.006728 -0.007597 0.003266 -0.002073 -0.003547 -0.001479 0.005992 0.002355 -0.001729 -0.009003 -0.000707 0.002063 -0.000483 0.003981 -0.003799 0.001773 -0.002370 0.003683 -0.003789 -0.003913 0.003823 -0.005570 0.006183 -0.003881 0.001845 0.000349 0.003460 -0.003124 0.004019 -0.004547 -0.002016 0.006316 0.005578 -0.001835 0.003220 -0.001950 0.000595 -0.004541 0.007884 0.000678 -0.001245 -0.006170 0.003331 0.000729 -0.002739 -0.003554 -0.001804 -0.005378 -0.002843 -0.005622 -0.005432 0.003697
star 0.005027 -0.001290 0.010176 -0.005511 -0.000168 -0.005565 0.002574 -0.007752 -0.003827 0.003233 0.002713 -0.008077 -0.004842 0.006119 0.005789 0.012307 0.006802 0.009093 -0.004186 0.003486 -0.003420 0.012435 -0.004727 0.006689 -0.001196 -0.005841 0.008916 -0.003889 0.001830 -0.006643 0.004516 0.001396 0.004593 -0.006806 -0.000191 0.003937 -0.002587 -0.005492 -0.018483 -0.004354 -0.005463 -0.007986 0.002885 0.008163 0.001522 0.007856 -0.009913 0.005459 0.003481 0.001142 -0.006089 -0.005325 0.011264 -0.009438 0.003747 0.002805 0.006742 -0.005037 -0.008644 0.004074 -0.000228 -0.005763 0.000139 -0.001530 -0.009234 0.004890 0.001813 0.008962 -0.004265 -0.003200 0.000373 -0.013697 0.004426 -0.005920 0.012668 -0.001197 -0.008327 0.008422 0.002725 -0.015275 0.004980 -0.003748 -0.002678 0.000195 -0.001753 -0.011720 -0.002435 0.002719 -0.009372 0.007221 -0.002960 -0.000121 0.006279 0.012296 -0.000605 0.001418 -0.011355 -0.000197 -0.001898 -0.005485
apple 0.005597 -0.006049 0.009313 -0.010382 -0.003382 0.001944 -0.001174 -0.010141 -0.001630 0.013876 -0.003285 -0.003710 -0.006010 0.008743 0.013574 0.013938 0.011193 0.014090 -0.015787 -0.000761 -0.001178 0.019433 -0.006106 0.000181 0.008785 -0.008183 0.007615 -0.000329 0.007506 -0.003870 0.004330 0.004724 -0.000297 -0.007417 0.000732 0.008258 -0.001020 -0.020097 -0.029136 -0.016025 -0.003125 -0.008235 -0.002097 0.013090 0.003454 0.011895 -0.014585 0.001914 0.004928 -0.007540 -0.010669 -0.012880 0.016909 -0.008610 -0.006825 0.003032 0.003278 -0.004125 -0.011212 0.007157 0.009702 -0.014318 0.003073 -0.010337 -0.010386 0.010927 -0.005323 0.025601 -0.010381 0.006052 0.003547 -0.016929 0.001454 -0.014079 0.017293 -0.009775 -0.010348 0.003290 0.008547 -0.021545 0.001439 -0.002628 -0.004099 0.000920 -0.005979 -0.015998 -0.003926 0.000617 -0.014180 0.000795 -0.006994 -0.005356 0.008821 0.013031 0.010312 0.003481 -0.009931 -0.005112 0.000184 -0.004698
minute 0.004921 0.000025 0.007747 -0.007749 0.005453 -0.001331 -0.005858 -0.006983 0.003115 0.013889 -0.004802 -0.001553 -0.002355 0.001142 0.011942 0.005465 0.002451 0.004288 -0.009268 -0.002729 -0.004950 0.010767 -0.010781 -0.005380 -0.001503 -0.002196 0.017695 -0.008996 0.009075 -0.008726 0.007625 0.003660 -0.002398 -0.005805 0.004506 0.003583 0.004829 -0.011246 -0.030034 -0.013627 -0.005208 -0.008255 -0.002901 0.013761 0.004298 0.005860 -0.014592 0.000917 0.007757 -0.004437 -0.008495 -0.004591 0.011193 -0.015759 -0.005814 0.008682 0.000356 0.000103 -0.006694 0.008375 0.003828 -0.010550 0.003649 -0.007783 -0.016349 0.006959 0.002693 0.019971 -0.010019 -0.005315 -0.000521 -0.019564 0.009502 -0.004743 0.009135 -0.007074 -0.005582 0.003444 0.009264 -0.020762 0.007152 -0.000825 -0.003720 0.003301 -0.008441 -0.008023 -0.002008 -0.000577 -0.011286 0.007746 -0.002343 -0.001449 0.008481 0.014176 0.007396 0.000061 -0.016096 -0.000371 0.004178 -0.001176
simple -0.003032 0.000123 0.004869 -0.002193 -0.003249 -0.002443 0.000076 -0.005687 -0.002714 0.007785 -0.004662 -0.008163 -0.005546 0.004009 0.000962 0.006352 0.000408 0.005303 -0.012057 0.003549 -0.000788 0.008952 -0.005370 0.006216 0.002872 -0.006036 0.004472 0.000498 0.007709 0.000375 0.002402 -0.000608 0.006735 0.003312 0.003654 0.004705 -0.009845 -0.010252 -0.020635 -0.005034 0.001176 0.000576 0.003735 0.010878 0.000418 0.007379 -0.010341 -0.005207 -0.003588 0.000714 -0.003575 -0.010560 0.004253 -0.006217 0.001689 -0.003848 0.008045 0.003090 -0.009368 0.006120 0.007867 -0.009871 0.004034 -0.003751 -0.009123 -0.001223 -0.003312 0.013627 -0.003442 0.004148 0.000062 -0.009365 0.004126 -0.008847 0.007135 -0.003911 0.001047 -0.002514 0.000568 -0.014596 0.002122 0.003997 0.002511 0.001405 -0.004726 -0.011851 0.002298 0.001443 -0.009798 -0.002855 -0.001881 -0.000202 0.003510 0.001922 0.001257 -0.001428 -0.009262 -0.000164 0.007677 -0.007116
micro 0.001164 -0.003220 -0.000167 -0.006827 -0.003634 0.008453 -0.007624 -0.004960 -0.011670 -0.000881 -0.003216 0.001942 -0.006006 0.010799 0.011201 0.002976 0.001789 0.002210 -0.008780 -0.007004 -0.010193 0.014121 -0.008899 -0.002980 -0.000116 -0.003215 -0.004352 0.004451 0.000130 -0.002686 0.003801 -0.007125 0.007715 0.003979 -0.004711 0.010343 0.000798 -0.015739 -0.023198 -0.004360 0.001378 0.002551 0.005179 0.003326 0.006122 0.004108 -0.010852 -0.002284 0.011533 -0.002396 -0.009984 -0.008073 0.014096 -0.013121 -0.004011 0.005633 0.007599 -0.001699 -0.012630 0.005778 0.000071 -0.001033 -0.003458 0.005312 -0.013753 0.002720 -0.005328 0.017212 -0.003422 0.002033 0.006580 -0.011587 -0.000504 -0.006513 0.014118 0.002807 0.001434 -0.002751 -0.003836 -0.001411 0.002486 -0.008955 -0.002059 0.003261 -0.007108 -0.008657 -0.002236 0.000146 0.002456 0.000458 -0.000601 -0.001477 0.002111 0.010796 0.007052 0.006328 -0.007336 0.002000 -0.005277 -0.009664
service -0.003627 -0.007267 -0.000672 0.001685 -0.002973 0.001916 -0.000225 -0.003534 0.000900 -0.001551 0.009513 0.005138 -0.004993 -0.010575 -0.006415 -0.001300 -0.003857 -0.007074 0.003532 -0.001447 0.000014 -0.013706 0.005562 0.001647 -0.007048 -0.001545 -0.005654 0.000850 -0.000964 0.007028 -0.004720 0.002049 0.000658 0.001548 0.002478 -0.004965 0.005556 0.010360 0.003854 0.006186 0.001242 0.005375 0.004655 -0.005992 -0.004491 -0.007173 0.007994 0.001572 0.004526 0.000478 0.011035 -0.002046 -0.011478 -0.002601 0.002784 -0.002855 -0.007537 -0.002536 0.000801 -0.004689 -0.001006 -0.006100 -0.010842 -0.005762 0.004821 -0.006355 -0.000599 -0.013897 -0.001535 0.004221 0.000626 0.012550 0.002562 0.005355 -0.014142 -0.000910 -0.000188 0.001990 -0.005598 0.007223 0.005544 -0.004034 0.001010 -0.003848 -0.001566 -0.003800 0.005789 0.000012 0.006012 -0.002231 -0.000412 0.009242 0.000218 -0.006672 -0.000133 -0.002625 -0.003617 -0.000020 -0.007420 0.002755
warranty -0.002729 -0.003960 0.002886 -0.003595 -0.006670 -0.002989 0.005768 0.002169 -0.003852 0.005672 -0.001188 0.002170 0.000706 -0.002807 0.002262 0.004823 0.000644 -0.002691 0.001642 -0.002539 0.002018 0.005847 0.004557 0.001234 -0.001881 -0.006411 -0.005376 0.004200 -0.002816 -0.000341 -0.003353 -0.000328 -0.004975 -0.000149 -0.003750 -0.002493 -0.004665 -0.004373 -0.008578 0.004123 0.002182 -0.001461 0.003301 -0.004371 -0.002231 0.002138 -0.002484 0.000414 0.004937 -0.005707 0.003710 0.003515 0.005078 -0.001648 0.002409 -0.002442 0.000780 -0.004800 -0.001908 0.002629 0.000859 0.003692 -0.002424 0.003437 -0.004092 0.002922 -0.004657 -0.001861 0.002071 0.004144 -0.000663 0.001715 0.000021 -0.002309 0.007392 0.004785 -0.000860 -0.003811 -0.002183 0.000383 0.001004 -0.003355 0.004293 0.004917 0.000923 0.002185 0.004102 -0.003216 0.000760 -0.002172 0.003365 -0.001517 0.000645 -0.002812 0.006327 -0.005220 0.002464 0.002662 -0.000706 -0.006024
iriver 0.003051 -0.002280 0.000401 -0.008992 -0.004011 0.002893 -0.000832 0.001926 -0.009303 0.002191 -0.005853 -0.010857 -0.001654 0.002846 0.005256 0.011026 0.003597 0.009048 -0.010456 -0.001759 0.004215 0.010868 -0.006729 0.000303 0.002298 -0.006498 -0.001438 0.004693 0.005034 0.000104 0.007721 0.006135 0.001527 -0.007356 -0.002060 0.010073 -0.002812 -0.010054 -0.020426 -0.010141 -0.002090 0.002687 -0.006382 0.006745 0.000622 0.004166 -0.013889 -0.000200 -0.004113 -0.005778 -0.006539 -0.006428 0.008748 -0.009191 0.001320 0.000410 0.006747 -0.003898 -0.005143 0.009443 0.002635 -0.004279 -0.000864 0.000108 -0.008309 0.001648 -0.005085 0.010532 -0.006081 0.006297 -0.002090 -0.011636 0.004642 -0.002710 0.012936 -0.000165 -0.001639 0.005105 0.003191 -0.013897 0.000446 0.003513 0.002590 0.000367 -0.006157 -0.013973 -0.004215 -0.004155 -0.007183 -0.000835 -0.005645 -0.005162 0.009159 0.012226 0.001565 0.003904 -0.005476 -0.008237 0.004291 -0.006633
pocket 0.005088 -0.003759 0.005667 0.001240 -0.004463 -0.001371 0.004280 -0.004266 -0.005450 0.007495 0.003136 -0.005423 -0.003662 -0.000476 0.000524 0.005784 0.007775 0.006229 -0.009977 0.001661 0.000411 0.007985 0.002105 -0.003252 0.004861 -0.003552 0.002428 -0.003879 0.007978 -0.000297 0.003645 -0.002002 0.002029 0.000930 0.005090 0.004384 0.000276 -0.008820 -0.015818 -0.001876 0.000429 -0.002193 -0.002368 -0.000289 -0.000811 -0.000270 -0.001729 0.002105 0.004710 -0.000509 -0.006849 -0.004811 0.001991 -0.004934 -0.003698 0.005243 -0.000550 0.002535 -0.003295 0.007413 -0.001522 -0.003462 0.002472 -0.009665 -0.008204 0.001300 -0.004125 0.002246 0.002601 -0.002581 0.004420 -0.004649 0.003787 -0.003340 0.003148 -0.000293 0.000852 -0.000330 -0.000215 -0.012224 0.004355 0.001857 -0.004938 0.003109 -0.007878 -0.006932 -0.002421 -0.004250 -0.002841 0.003421 -0.002450 -0.002314 -0.000333 0.008350 0.007399 -0.001663 -0.005900 -0.003257 -0.000192 -0.007392
hd 0.007779 0.007469 0.018518 -0.025871 -0.004709 -0.003090 -0.001266 -0.023141 -0.017079 0.043397 -0.014017 -0.028634 -0.009940 0.021407 0.042058 0.037014 0.024472 0.025798 -0.042224 -0.001332 -0.007621 0.046162 -0.022653 0.011372 0.007896 -0.016814 0.019958 -0.001858 0.026137 -0.020942 0.023497 0.010161 0.008851 -0.010842 0.000981 0.032147 -0.010590 -0.053883 -0.094683 -0.047072 -0.011030 -0.009326 -0.004559 0.039567 0.003894 0.022600 -0.048177 0.002986 0.006759 -0.013080 -0.035795 -0.035971 0.036256 -0.029429 -0.008622 0.013600 0.026211 -0.009691 -0.031608 0.035365 0.020145 -0.026605 0.015721 -0.025676 -0.035692 0.016587 -0.012294 0.069575 -0.019687 0.000038 -0.002472 -0.049731 0.006456 -0.032559 0.055323 -0.023198 -0.021367 0.016915 0.023501 -0.056936 0.016321 -0.006681 -0.009316 0.003613 -0.022911 -0.041874 -0.015181 -0.006801 -0.029584 0.014551 -0.028160 -0.007234 0.024198 0.040963 0.017569 0.013369 -0.035868 -0.018165 0.016678 -0.017664
adapter 0.001656 -0.006029 0.016746 -0.019944 -0.002990 -0.011667 -0.002259 -0.009530 -0.006276 0.018911 -0.009366 -0.014529 -0.010466 0.007268 0.021512 0.026491 0.017883 0.014657 -0.024072 0.001360 -0.004083 0.027604 -0.014985 0.006961 0.005199 -0.012861 0.013935 0.001665 0.011604 -0.014603 0.010653 0.002186 0.003333 -0.001221 0.006440 0.016472 -0.005419 -0.023387 -0.056179 -0.022781 -0.008016 -0.005418 0.002241 0.024157 0.002791 0.010921 -0.021055 0.001139 0.000628 -0.007163 -0.026015 -0.021643 0.024448 -0.019655 0.001072 0.009172 0.011202 0.002261 -0.013396 0.020521 0.006237 -0.021859 0.003105 -0.018602 -0.028676 0.010687 -0.004047 0.037867 -0.013587 -0.004352 0.002933 -0.037650 0.004483 -0.022969 0.036618 -0.014132 -0.013470 0.013377 0.006339 -0.031898 0.005306 -0.008674 -0.006248 -0.004564 -0.020730 -0.025313 -0.011069 -0.002010 -0.020379 0.008701 -0.008157 -0.008998 0.007788 0.022680 0.015339 0.005055 -0.019070 -0.001556 0.015264 -0.011102
earbud 0.006215 -0.004681 0.006625 -0.003793 -0.001329 0.000804 -0.004128 -0.003275 -0.002076 0.002643 0.001840 -0.003660 0.002405 0.005934 0.012986 0.009318 0.004044 0.006923 -0.011610 -0.003801 -0.001014 0.006508 -0.004964 -0.001977 -0.003397 -0.007167 0.009262 -0.004311 0.008230 -0.009629 0.006618 0.005634 -0.001547 -0.004275 0.002895 0.001612 0.004920 -0.003040 -0.017412 -0.012005 -0.006589 -0.005791 0.000011 0.005212 -0.005392 0.002690 -0.009666 -0.002172 0.000673 -0.001501 -0.002951 -0.007966 0.005075 -0.007072 -0.002906 0.011784 0.002098 0.000958 -0.005628 0.004650 -0.001233 -0.010682 0.000995 -0.005992 -0.010641 0.008164 0.000855 0.013799 -0.008776 0.000161 -0.000986 -0.011604 0.001950 -0.005220 0.008557 -0.005257 -0.002422 -0.000274 0.006393 -0.015331 0.003579 -0.002316 -0.006749 0.001325 -0.005611 -0.011535 -0.009896 -0.002409 -0.002268 0.009053 -0.002304 0.002220 0.003153 0.008475 0.008755 0.003318 -0.009964 0.003641 -0.000533 0.000955
book 0.003678 -0.000012 0.011235 -0.008219 0.007574 -0.003024 -0.003527 -0.004895 -0.007796 0.013960 -0.007073 -0.010055 -0.001822 0.006885 0.019296 0.016314 0.009134 0.012162 -0.012851 -0.002136 -0.003197 0.014379 -0.005157 -0.000854 0.007212 -0.005471 0.017789 -0.004532 0.010133 -0.013660 0.009134 0.006483 0.000203 -0.009224 0.001454 0.010579 -0.002558 -0.014964 -0.034181 -0.015742 -0.008475 -0.004063 -0.003414 0.021691 -0.003968 0.012692 -0.012348 -0.001007 0.003747 0.002128 -0.017500 -0.014614 0.015514 -0.015760 0.001541 0.003788 0.001908 -0.000649 -0.010227 0.013667 0.007559 -0.016223 0.008766 -0.006738 -0.015791 0.004345 -0.001466 0.020712 -0.003236 0.003124 0.000209 -0.027057 0.010444 -0.018054 0.023909 -0.005200 -0.009612 0.005270 0.006641 -0.021199 0.001762 -0.005657 -0.007784 -0.003300 -0.013729 -0.019401 -0.003399 -0.006946 -0.013261 0.011695 -0.006648 -0.002617 0.008585 0.013524 0.004990 -0.000863 -0.021739 -0.003196 0.008200 -0.006012
display -0.002987 -0.003482 0.007633 -0.012545 0.003248 -0.001658 0.000835 -0.008186 -0.003201 0.017190 -0.002493 -0.010548 -0.004759 0.007157 0.010778 0.015015 0.004246 0.004440 -0.007891 0.003087 0.002929 0.013621 -0.007422 -0.001296 0.001909 -0.002075 0.003127 -0.005583 0.009240 -0.011591 0.003814 0.004878 -0.003259 -0.001004 0.005739 0.008413 0.000483 -0.014153 -0.028074 -0.008165 -0.002601 -0.004939 -0.002009 0.010048 -0.001732 0.009811 -0.008373 0.003189 0.001465 0.001722 -0.009824 -0.011931 0.009861 -0.011277 -0.004624 0.003996 0.003031 0.002433 -0.005400 0.012500 0.005334 -0.006232 -0.000307 -0.008628 -0.014574 0.012253 -0.008037 0.019642 -0.004768 -0.001493 -0.003116 -0.016569 -0.001854 -0.008220 0.019678 -0.008554 -0.009070 0.004851 0.004447 -0.012521 0.007189 -0.007141 -0.000066 0.001395 -0.004799 -0.012500 -0.010850 -0.004008 -0.003819 0.007037 -0.005567 0.002791 0.009145 0.010907 0.006448 0.003227 -0.012224 -0.008660 0.006825 -0.006236
format -0.000473 0.000249 -0.001511 -0.002784 0.001783 -0.004171 -0.005054 -0.007886 -0.010867 0.006555 -0.004273 -0.003708 -0.002019 0.008149 0.000940 0.009803 0.002511 0.008787 -0.012011 -0.003027 0.001661 0.010832 -0.008949 0.001875 0.003558 -0.008564 -0.000482 0.008010 -0.000650 -0.006024 0.002794 0.001491 0.009545 0.000277 -0.004259 0.008698 -0.007546 -0.006352 -0.015133 -0.008784 -0.000821 -0.000318 -0.005829 0.004077 0.008353 0.004611 -0.014590 -0.006259 -0.005255 -0.006939 -0.013257 -0.001627 0.005033 -0.002580 -0.002715 0.000897 0.011576 0.000924 -0.012870 0.008515 0.007468 -0.008047 -0.001262 -0.000899 -0.007705 0.007622 -0.000221 0.019968 -0.001698 -0.000550 -0.001349 -0.016132 0.000565 -0.008768 0.018985 -0.009149 -0.005432 0.005319 0.005395 -0.016049 0.003870 0.003576 -0.003897 0.002281 -0.003046 -0.008318 -0.005234 0.002385 -0.004393 0.000180 -0.004397 -0.003538 0.002153 0.009893 -0.000099 0.006328 -0.008755 -0.006675 0.005935 -0.004714
function 0.004012 0.003853 0.004210 -0.010870 0.000924 -0.005112 -0.005365 -0.002665 -0.008894 0.009992 -0.000237 -0.011912 -0.001131 0.009977 0.014224 0.010111 0.006017 0.012220 -0.012072 -0.001463 -0.004830 0.016065 -0.007942 0.005380 0.002527 -0.007419 0.009515 -0.004316 0.009288 -0.010086 0.011819 0.003992 -0.002319 -0.007686 0.003423 0.015323 0.000527 -0.014622 -0.032726 -0.015484 -0.005053 -0.006308 -0.001362 0.010575 0.006493 0.012184 -0.011376 -0.002583 0.003518 -0.003035 -0.012523 -0.009601 0.017466 -0.011187 -0.004757 0.001012 0.010927 -0.002202 -0.015949 0.006685 0.006496 -0.005667 0.002069 -0.004827 -0.018206 0.004533 -0.008003 0.024017 -0.002560 0.004840 0.003900 -0.020054 0.003154 -0.006535 0.019653 -0.011233 -0.001377 0.009669 0.010105 -0.019641 0.001887 0.001042 -0.001213 0.000896 -0.011953 -0.012685 -0.003564 -0.003112 -0.006369 0.007869 -0.011604 -0.001104 0.006430 0.009433 0.003283 0.005697 -0.014456 -0.008900 0.006576 -0.010810
company 0.002484 0.001602 0.001270 -0.009971 0.000462 -0.007049 0.001839 0.000840 -0.001200 0.003126 0.002852 -0.000726 -0.004880 0.006708 0.007785 0.005905 -0.001244 0.003876 -0.008312 -0.002230 0.000262 0.011928 -0.005851 -0.001137 -0.001720 -0.006158 0.005036 -0.000714 0.009575 -0.009145 0.001549 0.001510 -0.002436 -0.001283 -0.001820 0.009409 -0.000954 -0.005122 -0.020622 -0.010834 0.002701 0.001146 -0.003150 0.007291 -0.004061 0.009126 -0.003063 -0.000569 0.001206 0.001634 -0.009261 -0.008641 0.004487 -0.009634 0.002088 -0.000618 0.004183 0.004081 -0.002120 0.002061 0.003330 -0.007840 0.003114 -0.005936 -0.007830 0.002167 -0.005089 0.007198 0.001732 0.002140 0.001391 -0.015400 -0.000480 -0.001290 0.011190 -0.000400 -0.007146 0.008663 -0.002281 -0.007873 0.002511 -0.000467 -0.004096 0.000487 -0.003108 -0.006772 0.000549 0.000970 -0.001428 0.002624 0.000852 -0.005425 0.007846 0.009023 0.006634 -0.001080 -0.003969 -0.006687 0.004366 -0.009210
system -0.004938 -0.002196 0.000964 -0.007143 -0.003498 -0.000759 0.002033 -0.002122 -0.002506 0.002101 0.000907 -0.007614 0.001348 0.008811 -0.000083 0.007264 -0.002411 0.007776 -0.003903 0.003346 0.006286 0.004791 -0.006280 0.002300 -0.001105 -0.002570 0.001428 0.003567 -0.000944 -0.000664 0.007520 0.006414 0.004587 -0.001637 -0.003697 0.007190 -0.007176 -0.001787 -0.010314 -0.009597 0.001586 -0.004705 0.003342 0.008749 0.000847 0.002481 -0.003647 -0.005473 -0.006238 -0.008548 -0.004658 -0.007526 0.010956 0.000654 0.003676 -0.005021 0.007900 0.002217 -0.010115 0.005614 0.001640 -0.004260 0.002742 -0.004523 -0.006131 0.006345 -0.001613 0.011046 -0.005768 0.001165 -0.003063 -0.007025 0.000732 -0.004643 0.007402 -0.006404 -0.006117 0.005877 0.003300 -0.008346 -0.004425 -0.001986 -0.006885 -0.005808 0.002934 -0.001927 0.001210 0.002915 -0.010008 0.003635 -0.003557 -0.005958 0.000010 0.008917 -0.003066 -0.002960 -0.001165 -0.000901 -0.001234 -0.001184
nano 0.000574 -0.000886 -0.001385 -0.003814 -0.003773 -0.002397 0.003664 0.001762 0.000272 -0.001497 0.003239 0.006584 -0.004192 -0.000264 0.000185 -0.002718 0.002944 0.000905 0.000555 0.006673 -0.000787 -0.004724 0.000003 0.004007 0.004111 0.009139 0.000448 0.001883 -0.000403 0.004795 -0.003676 0.000403 -0.000165 0.004379 -0.000864 0.002266 -0.001056 0.002752 0.000166 0.003071 0.000301 -0.007907 0.005826 -0.001750 -0.004621 0.000667 -0.003417 0.002188 -0.000874 0.002656 0.006876 -0.000121 0.006199 -0.002791 -0.000073 -0.002014 0.002560 -0.001395 -0.003592 -0.001973 -0.000637 0.007814 0.003017 -0.004320 -0.001530 0.001851 -0.000459 -0.009689 -0.004063 -0.005693 0.002309 -0.002065 0.001393 0.005981 -0.002764 0.004663 0.003446 0.002689 0.002171 0.009205 0.004667 0.001789 -0.005149 -0.000216 0.004271 0.000444 0.000141 -0.001231 0.010007 0.000492 0.001524 -0.003738 0.001008 0.000401 0.000975 -0.002324 -0.002431 -0.001264 0.001418 -0.000058
instruction -0.002038 0.000174 -0.001042 -0.004086 -0.000554 0.002557 -0.000386 -0.006954 -0.006172 0.010995 0.002903 -0.004964 0.003517 0.000400 0.003288 0.008753 0.006754 0.010935 -0.008523 0.000309 -0.005550 0.011091 -0.005470 0.006526 0.002262 -0.010103 -0.001402 0.000967 0.002900 -0.003084 0.000032 0.005235 0.008229 0.001095 -0.006441 0.002857 -0.007776 -0.008125 -0.021590 -0.013800 -0.000799 -0.004348 -0.004265 0.004841 0.001925 0.009036 -0.007948 0.001958 -0.002810 -0.002810 -0.006192 -0.011266 0.013539 -0.002934 0.003614 0.004851 0.010459 -0.000139 -0.006204 0.004875 0.007436 -0.009841 0.001290 -0.006671 -0.009240 0.006223 -0.004421 0.015656 -0.000707 -0.002260 0.004107 -0.013243 0.005174 -0.010135 0.009459 -0.006427 0.000487 0.003671 0.001989 -0.014555 0.001655 0.002309 0.001217 -0.004175 -0.003146 -0.006414 -0.000532 -0.000928 -0.007338 0.002982 -0.008224 0.002295 0.004121 0.009680 -0.002697 0.000349 -0.002312 -0.003803 0.000116 0.001739
voice -0.004938 -0.000591 -0.008164 0.015362 0.000449 0.002820 0.001425 0.002948 0.001330 -0.019945 -0.000528 0.009155 -0.001134 -0.008003 -0.015153 -0.018209 -0.010244 -0.002610 0.013030 -0.004405 0.008720 -0.019398 0.004907 -0.004001 -0.001094 0.003947 -0.017342 0.004699 -0.010274 0.008175 -0.009800 -0.008369 0.006089 0.009131 -0.003060 -0.015059 0.010150 0.010766 0.031987 0.013797 -0.002526 0.012862 -0.001434 -0.019782 0.004496 -0.004994 0.022378 -0.002920 -0.003977 0.006655 0.012336 0.010368 -0.010710 0.009729 -0.001046 -0.004325 -0.001528 -0.006192 0.010444 -0.009419 0.001331 0.013441 -0.010781 0.008372 0.019657 -0.011171 -0.003597 -0.018551 0.002101 -0.002199 -0.003612 0.018543 -0.003286 0.009528 -0.021075 0.004633 0.008012 -0.003114 -0.007479 0.015825 -0.006238 -0.004259 0.006122 -0.000542 0.014067 0.018634 0.006135 0.007881 0.015004 -0.013904 0.009625 0.004548 -0.001561 -0.016228 -0.009869 0.000239 0.017298 0.003494 -0.002513 0.008233
charger 0.005389 -0.006028 0.016248 -0.016512 -0.001319 -0.000867 -0.000062 -0.005491 -0.010482 0.020877 0.000158 -0.007334 -0.002234 0.011454 0.020122 0.015812 0.005370 0.007578 -0.016911 0.000746 -0.006532 0.021487 -0.006289 0.004140 0.005784 -0.004719 0.009599 -0.006130 0.009004 -0.010835 0.006651 0.001966 -0.004956 0.000296 0.001668 0.013509 0.004256 -0.020858 -0.050880 -0.023161 -0.005826 -0.010124 0.007318 0.019843 -0.003450 0.009388 -0.020026 0.005527 0.007005 -0.007368 -0.019706 -0.014186 0.015081 -0.023481 -0.003205 0.009807 0.008627 -0.001175 -0.014323 0.020515 0.010619 -0.020962 0.002898 -0.009309 -0.028416 0.016638 -0.008770 0.027012 -0.006312 -0.008075 0.000201 -0.027517 0.004800 -0.015831 0.031801 -0.005421 -0.009112 0.018250 0.010585 -0.028875 0.007698 -0.002560 -0.014044 -0.003092 -0.019258 -0.016586 -0.015026 -0.003834 -0.009213 0.006926 -0.013887 -0.007205 0.012237 0.022393 0.010931 -0.000061 -0.015177 -0.008827 0.009737 -0.009151
interface 0.002909 0.001949 0.008129 -0.012681 0.002525 0.000476 0.004264 -0.005142 -0.010264 0.013012 -0.001714 -0.010465 -0.001834 0.007019 0.012489 0.016195 0.007580 0.008730 -0.017929 -0.004721 0.001719 0.020431 -0.004492 0.005041 0.006535 -0.008812 0.004511 -0.004757 0.010020 -0.006360 0.009515 -0.000667 0.003146 -0.009231 0.005404 0.012226 -0.004487 -0.020267 -0.029472 -0.017384 -0.002780 -0.004218 0.003711 0.008267 0.004357 0.005863 -0.020171 0.005984 0.000827 -0.006725 -0.013043 -0.012121 0.019862 -0.011831 -0.006269 0.002558 0.008885 0.000993 -0.008108 0.011505 0.003858 -0.007529 0.003456 -0.004720 -0.011143 0.004353 -0.004869 0.028380 -0.007236 -0.002357 -0.000471 -0.022834 0.004139 -0.007687 0.014388 -0.011389 -0.005497 0.010648 0.005676 -0.020563 0.005180 -0.001809 -0.003177 0.004465 -0.005453 -0.009666 -0.003967 0.000043 -0.007624 0.001215 -0.013704 -0.003428 0.010047 0.017068 0.001648 0.002973 -0.007232 -0.002502 -0.000065 -0.001180
power 0.007993 0.000449 0.011025 -0.009990 0.001049 -0.001663 0.002213 -0.000666 -0.002259 0.005030 -0.006402 -0.005726 0.002677 -0.000661 0.017421 0.011272 0.002648 0.004635 -0.015703 -0.007873 -0.001643 0.008216 -0.006594 -0.005255 -0.004733 -0.005797 0.016029 -0.002136 0.004256 -0.004118 0.007872 0.002400 -0.007402 -0.006235 0.001460 0.005778 -0.000765 -0.015657 -0.018320 -0.008554 -0.005585 -0.003728 0.004650 0.008984 -0.001069 0.007814 -0.006429 0.002691 0.007209 -0.002755 -0.006523 -0.007349 0.005052 -0.011986 -0.000705 0.010291 0.001083 -0.007042 -0.008272 0.004966 0.001136 -0.004506 0.003801 -0.003115 -0.011452 0.007579 -0.000023 0.016653 -0.009592 -0.006551 -0.000015 -0.012223 0.005818 -0.012672 0.013988 -0.004563 -0.009250 0.006276 0.003919 -0.018870 0.005629 -0.000373 -0.003913 -0.001834 -0.011465 -0.010399 -0.003620 -0.001189 -0.009930 0.000054 -0.009863 -0.005175 0.001890 0.007789 0.004118 0.004660 -0.011216 -0.006300 0.001853 -0.001048
decent 0.000073 -0.003225 0.013440 -0.013453 0.008033 -0.007762 -0.003090 -0.009456 -0.005580 0.015520 -0.001027 -0.005268 -0.005551 0.002852 0.015017 0.009127 0.008306 0.007214 -0.016531 -0.004227 -0.009117 0.014137 -0.011252 0.002751 -0.004946 -0.008251 0.018103 -0.003249 0.009962 -0.007859 0.011866 0.004607 0.000692 -0.006724 0.000703 0.014554 -0.002448 -0.015460 -0.035954 -0.018189 -0.004995 -0.013859 0.006159 0.017430 -0.000414 0.010393 -0.014560 0.002679 0.007159 -0.004565 -0.013027 -0.014176 0.012227 -0.021580 -0.000676 0.010780 0.004625 0.003910 -0.003865 0.015270 0.002922 -0.010692 0.000557 -0.009982 -0.014543 0.008708 0.001135 0.018318 -0.007625 0.002365 -0.000222 -0.022053 0.009839 -0.010137 0.021371 -0.002561 -0.004669 0.008236 0.001227 -0.018127 0.005801 -0.011998 -0.002458 -0.005158 -0.007911 -0.010811 -0.013727 -0.007961 -0.011870 0.013905 -0.006717 -0.006175 0.003237 0.017507 0.013704 0.005311 -0.012889 -0.001833 0.005497 -0.002609
pc -0.002717 0.002031 0.011572 -0.010208 0.000948 -0.006321 0.002701 -0.010835 -0.003823 0.016218 -0.005001 -0.011868 0.000620 0.006728 0.010713 0.018565 0.009434 0.009257 -0.016216 -0.005986 -0.008683 0.020981 -0.011909 -0.000491 0.002153 -0.010328 0.013553 0.004182 0.006771 -0.006372 0.010453 0.001046 0.003131 -0.005796 -0.000431 0.015144 -0.004696 -0.015647 -0.037013 -0.019751 -0.006757 -0.004609 -0.003225 0.011891 0.006818 0.010344 -0.017789 -0.000506 0.003604 -0.003369 -0.016694 -0.009526 0.014575 -0.010528 -0.003036 0.000580 0.009371 -0.004096 -0.013328 0.007360 0.009291 -0.007584 0.007602 -0.008590 -0.015037 0.013325 -0.006829 0.023818 -0.003844 -0.002982 -0.002781 -0.020910 0.002663 -0.006224 0.022987 -0.009910 -0.007538 0.011915 0.005207 -0.024092 0.003760 0.001044 -0.004933 0.001502 -0.010725 -0.012151 -0.007380 -0.001783 -0.014438 0.001799 -0.007846 -0.001268 0.008910 0.012633 0.006769 0.000015 -0.009016 -0.002832 0.011810 -0.010007
piece -0.002258 0.001987 0.007877 -0.015017 0.005634 -0.005007 -0.002916 -0.012608 -0.006460 0.018527 -0.003802 -0.007980 -0.003160 0.003982 0.014832 0.015115 0.008264 0.012565 -0.015685 -0.002423 -0.006847 0.016160 -0.009683 -0.000359 0.004432 -0.010476 0.007917 -0.001070 0.010637 -0.008949 0.010903 0.001390 -0.002222 -0.007142 0.001394 0.015715 -0.009546 -0.022889 -0.040157 -0.018324 -0.003044 -0.004282 -0.004521 0.020231 0.003984 0.013526 -0.015429 -0.003884 0.003802 -0.000066 -0.019181 -0.011193 0.017308 -0.020232 -0.002097 0.009079 0.006267 -0.004325 -0.018662 0.013452 0.005683 -0.018470 0.001257 -0.004923 -0.015793 0.014202 -0.008146 0.025759 -0.008361 0.005790 -0.002582 -0.021446 0.003910 -0.016274 0.021374 -0.006956 -0.011066 0.005622 0.009799 -0.025057 0.001248 -0.007240 -0.002166 0.001887 -0.010287 -0.019548 -0.003098 -0.000213 -0.014871 0.010468 -0.006566 -0.004932 0.004255 0.020429 0.015037 0.001191 -0.012758 -0.006029 0.005994 -0.005027
design -0.001646 -0.001052 0.004004 -0.012736 0.005520 -0.009367 -0.002412 -0.009262 -0.011526 0.014595 -0.006771 -0.005674 -0.003388 0.007275 0.014082 0.013247 0.010021 0.006777 -0.014649 -0.002057 0.001860 0.017472 -0.008247 -0.000478 0.004876 -0.010346 0.012443 0.001476 0.004104 -0.010304 0.011337 0.002669 0.002938 -0.002920 0.005120 0.012106 -0.000520 -0.020518 -0.033122 -0.021287 -0.009576 -0.006336 -0.002871 0.019460 0.004066 0.010973 -0.016805 0.000985 0.001834 -0.004355 -0.010265 -0.015759 0.013815 -0.008886 -0.000700 0.008387 0.009822 0.001856 -0.014536 0.016638 0.004484 -0.009957 0.001637 -0.014761 -0.016606 0.014131 -0.008096 0.022056 -0.010110 0.002829 0.001164 -0.019706 0.002002 -0.015408 0.017057 -0.004325 -0.005874 0.012304 0.011568 -0.025219 0.005051 0.001315 -0.004341 -0.006962 -0.010733 -0.014198 -0.009813 0.001623 -0.011062 0.008932 -0.004848 0.000277 0.011996 0.016098 0.013980 0.005143 -0.015619 -0.000569 0.011361 -0.009902
fact 0.000396 0.002211 0.012465 -0.008601 0.006133 -0.000858 -0.002397 -0.005554 -0.004588 0.012546 -0.000793 -0.008101 -0.003224 0.006293 0.011006 0.016644 0.011008 0.014380 -0.014002 -0.001480 -0.001485 0.018204 -0.005927 -0.002058 0.006471 -0.004383 0.010984 -0.000195 0.006465 -0.003912 0.005198 0.003981 0.003030 -0.008470 0.004274 0.013949 0.000094 -0.016616 -0.034281 -0.017644 -0.001012 -0.003606 0.003838 0.016938 0.004159 0.006347 -0.013548 -0.000043 -0.000536 -0.008660 -0.018618 -0.009214 0.016297 -0.012230 -0.006804 0.012394 0.001613 0.002505 -0.014677 0.015118 0.009152 -0.012833 0.007099 -0.004393 -0.020672 0.013316 -0.001988 0.028466 -0.002212 -0.005466 -0.001943 -0.020100 0.007470 -0.008249 0.021783 -0.004683 -0.004618 0.004663 0.008168 -0.021186 0.007467 -0.005332 -0.003758 -0.004474 -0.005943 -0.013815 -0.001477 -0.004298 -0.012928 0.004678 -0.011162 -0.007194 0.005152 0.013909 0.006420 0.001730 -0.015802 -0.006525 0.010022 -0.003839
full -0.003157 0.004764 -0.003031 -0.004119 -0.000910 0.003750 -0.003346 0.000144 -0.003970 -0.001852 0.000135 -0.003723 -0.003600 0.004036 0.005349 0.006482 -0.000632 -0.001372 -0.001662 0.001066 -0.007024 0.006381 -0.003987 -0.001657 0.003018 0.001498 -0.000280 -0.001158 0.001231 -0.000598 0.002411 0.001323 0.000101 0.001760 -0.001781 0.000364 0.003400 -0.004248 -0.013923 -0.008178 0.000953 0.002203 0.002761 0.003331 0.001865 0.005425 0.000867 0.003598 0.001427 0.003102 -0.006963 0.001704 0.003097 -0.001380 0.002713 -0.000102 0.004971 -0.004007 -0.008133 0.006928 0.005640 -0.000100 -0.001108 -0.004061 -0.005693 0.002269 0.003771 0.006699 -0.003750 -0.002792 0.004031 -0.003632 0.003269 -0.001702 0.006548 -0.006650 -0.002651 -0.002159 -0.001267 -0.003811 -0.002598 0.001973 -0.002141 -0.004262 -0.006216 -0.007429 0.000355 0.002472 -0.000123 -0.000157 0.000366 0.002913 -0.002302 0.001973 0.005132 -0.001671 -0.000228 -0.003024 0.004425 -0.002889
reason 0.001536 -0.000635 0.013819 -0.004457 0.001857 -0.005130 0.000237 -0.009373 -0.001464 0.017291 0.001528 -0.006490 -0.001561 0.005655 0.016327 0.016322 0.008373 0.004459 -0.012131 -0.005992 -0.008733 0.019383 -0.003637 0.003653 0.005440 -0.005619 0.011938 -0.001109 0.010013 -0.004920 0.010608 0.007338 -0.000402 -0.001652 0.003852 0.008438 -0.002597 -0.020233 -0.028807 -0.017159 0.002072 -0.001102 0.001877 0.017490 0.005661 0.010287 -0.012880 -0.001510 0.001243 -0.001740 -0.015454 -0.013940 0.011594 -0.015295 -0.005618 0.012164 0.010137 -0.003766 -0.007954 0.016859 0.002938 -0.011779 0.007026 -0.006519 -0.021130 0.003993 -0.003866 0.021331 -0.006284 -0.004056 -0.002638 -0.025849 0.001844 -0.009553 0.015173 -0.003612 -0.006639 0.006244 0.001870 -0.018257 0.004964 -0.000308 -0.006111 -0.001602 -0.012817 -0.017197 -0.010449 -0.002220 -0.011396 0.004748 -0.004328 0.000984 0.010237 0.011305 0.011599 0.000730 -0.010966 -0.002915 0.002742 -0.009932
