899 100
button -0.049377 0.009996 -0.046964 0.089229 -0.040522 0.060181 -0.042429 0.030773 -0.062619 0.044761 0.013330 0.021476 -0.061471 -0.033093 -0.021930 0.045012 0.016270 -0.001563 -0.038936 -0.017690 -0.017134 0.027342 -0.073431 0.044848 -0.019783 0.051597 -0.015799 -0.055841 0.032814 0.010792 0.030926 0.000073 -0.045396 -0.013249 0.039368 -0.000655 0.060057 0.033863 0.015758 -0.020548 0.005135 0.037529 -0.051520 0.002800 -0.015406 -0.015893 -0.025194 0.075514 0.021756 -0.024000 0.034899 -0.069432 -0.064472 0.005145 0.051986 0.000045 -0.023914 -0.072698 0.010191 0.054710 -0.003033 0.037243 -0.046399 -0.010565 -0.022928 0.020446 -0.036677 -0.071387 0.067188 -0.017565 0.003534 -0.020266 0.013186 0.043546 0.072520 -0.063783 0.009060 -0.016368 -0.017318 0.062071 0.063808 0.006678 0.056843 -0.049544 0.011624 -0.009210 0.043977 0.025107 0.049486 0.046685 0.031266 0.054265 -0.030980 -0.088663 -0.079498 -0.059734 -0.038036 0.018297 -0.058680 0.057157
tv -0.166456 -0.000164 0.051999 0.274117 -0.086034 0.181914 -0.090008 0.117084 -0.074519 -0.080308 0.014892 0.007563 -0.117775 -0.053720 -0.039452 0.052467 -0.002519 0.045581 -0.045833 0.090409 -0.003798 0.196825 -0.071436 0.028316 -0.018091 0.172748 -0.044328 0.019499 0.016180 0.093847 0.109383 -0.113221 -0.074470 -0.033174 0.097028 -0.052675 0.019150 0.143756 -0.022250 0.028223 0.083802 -0.015046 -0.135738 0.103075 0.064681 0.071504 0.026197 0.070023 0.032294 0.111119 -0.114450 -0.075210 -0.078613 0.132738 0.127947 0.005209 -0.080954 0.022607 0.022918 0.050521 0.037887 -0.020865 -0.032190 0.001226 0.138106 -0.020608 0.044260 0.004472 0.111931 0.143239 -0.065088 0.100226 -0.065393 0.099685 0.081833 -0.074344 0.004201 0.136863 0.074365 0.057378 -0.005784 0.096625 -0.055372 -0.010924 -0.082347 0.076994 -0.165253 0.093258 0.129803 0.120658 0.072893 0.214711 -0.079607 0.035847 -0.202029 -0.077523 0.032451 0.072379 -0.022388 0.151134
device -0.053401 0.011589 -0.007371 0.059520 -0.022362 0.053788 -0.025803 0.029231 -0.042417 0.009096 0.009345 0.009698 -0.034052 -0.013604 -0.020534 0.024265 0.022715 0.003324 -0.026028 0.010873 -0.007744 0.038871 -0.040992 0.030299 -0.012654 0.044288 -0.013021 -0.030789 0.027675 0.009051 0.023165 -0.013981 -0.004346 -0.012471 0.041184 -0.008427 0.033144 0.042591 0.019154 -0.006105 0.014159 0.013471 -0.036895 0.009026 -0.009102 -0.005332 -0.003344 0.040741 0.000678 0.012514 0.003830 -0.036831 -0.042663 0.022830 0.036297 -0.001839 -0.021599 -0.033006 0.007499 0.042344 -0.003665 0.001485 -0.023831 -0.000739 0.009374 -0.002708 -0.024323 -0.026779 0.044608 0.016591 -0.013099 0.003652 0.008860 0.038120 0.036539 -0.027626 0.005781 0.029007 -0.007619 0.037248 0.023968 0.017189 0.022487 -0.005530 0.003015 0.010475 -0.006214 0.027597 0.040485 0.059045 0.009777 0.054249 -0.016935 -0.029901 -0.065852 -0.027345 -0.019566 0.022623 -0.019669 0.043678
easy 0.013462 0.006527 -0.012179 -0.034710 0.009854 -0.018705 0.014700 -0.016634 -0.004158 0.015403 0.000039 0.000112 0.012308 0.008611 0.008942 -0.000485 0.005983 -0.008440 0.002386 -0.008953 0.000322 -0.016363 -0.003674 0.011303 -0.001145 -0.016849 0.004123 -0.009205 0.003059 -0.017513 -0.012631 0.015356 0.010124 0.004887 -0.001372 0.006241 0.002440 0.001189 0.011117 -0.001472 -0.004547 0.002480 0.010453 -0.015582 -0.019800 -0.016533 -0.002948 0.000198 -0.006088 -0.012371 0.017069 0.005310 -0.002971 -0.022008 -0.008571 -0.005141 0.009761 -0.005533 -0.005116 0.009800 -0.006780 0.003873 -0.001380 0.001388 -0.018081 -0.000432 -0.016431 -0.002487 0.000611 -0.024997 0.008498 -0.012730 0.015354 -0.014250 -0.012407 0.013994 0.001502 -0.016946 -0.016190 -0.000869 0.003142 -0.014887 0.007321 0.009926 0.015013 -0.011745 0.023136 -0.014580 -0.009674 0.005106 -0.013580 -0.024032 0.008181 -0.012454 0.016528 0.006442 -0.013751 -0.006072 -0.002995 -0.003455
harmony -0.020393 0.007002 0.003013 0.019657 -0.003828 0.025407 -0.003504 0.007175 -0.025703 0.009563 0.011868 0.008149 -0.015244 -0.003501 -0.011303 0.015653 0.012119 0.006205 -0.010734 0.004682 0.002007 0.008841 -0.018002 0.015594 -0.000857 0.022773 -0.002087 -0.017050 0.018092 0.001119 0.010104 -0.002644 0.001731 -0.001491 0.020787 0.000283 0.022661 0.020029 0.018343 -0.005118 0.007244 0.010560 -0.023461 -0.004327 -0.003570 -0.006131 0.000325 0.017589 -0.006803 0.001350 0.004666 -0.018849 -0.030104 0.007313 0.011356 -0.008759 -0.007733 -0.011322 0.000382 0.023579 -0.007294 0.003329 -0.016406 -0.001682 -0.001705 -0.001667 -0.013392 -0.004485 0.021395 0.007471 0.000319 -0.002754 0.002270 0.011271 0.013150 -0.014111 0.009274 0.013124 -0.008973 0.021032 0.015553 -0.003085 0.011816 0.000679 0.012316 -0.000318 0.000708 0.010297 0.013739 0.033998 0.008451 0.025215 -0.002326 -0.015192 -0.030377 -0.015600 -0.015133 0.011580 -0.021392 0.016068
receiver -0.131168 0.013476 0.032381 0.199118 -0.068071 0.154231 -0.064357 0.078740 -0.073207 -0.037485 0.012215 0.014216 -0.087376 -0.038717 -0.040555 0.055765 0.020438 0.044304 -0.036406 0.063266 -0.009151 0.145508 -0.070159 0.040008 -0.014758 0.136820 -0.028067 -0.014322 0.031955 0.069800 0.079959 -0.080280 -0.034432 -0.033414 0.089209 -0.034612 0.025017 0.121671 0.005284 0.007485 0.060867 0.011854 -0.104596 0.058645 0.029106 0.032138 0.021014 0.072520 0.013685 0.078333 -0.068486 -0.065237 -0.074923 0.094671 0.097141 0.000430 -0.077713 0.012299 0.028019 0.066850 0.015036 -0.020722 -0.039361 -0.014572 0.087790 -0.019659 0.013338 -0.007348 0.098695 0.096056 -0.042009 0.061197 -0.030371 0.075581 0.062388 -0.064374 0.023977 0.108866 0.036454 0.060873 0.013474 0.073785 -0.015253 0.001195 -0.038238 0.055015 -0.102334 0.082583 0.094754 0.128712 0.041265 0.159285 -0.050765 0.007942 -0.157428 -0.066530 0.006794 0.049661 -0.032388 0.121523
battery -0.083826 0.028834 0.010717 0.098742 -0.044344 0.110223 -0.024729 0.026765 -0.079517 0.007873 0.018057 0.014298 -0.054754 -0.007024 -0.023893 0.049429 0.023094 0.020513 -0.029263 0.028520 0.006573 0.097083 -0.060088 0.054121 -0.018634 0.089165 -0.022458 -0.036036 0.046378 0.028099 0.032574 -0.057852 0.003540 -0.016602 0.054169 -0.002386 0.032673 0.103423 0.045888 -0.017563 0.024655 0.038235 -0.067001 0.005075 0.002152 -0.015720 0.001701 0.059938 -0.012728 0.025334 -0.007598 -0.051604 -0.070071 0.050326 0.069845 -0.011335 -0.049176 -0.013020 0.012934 0.056686 -0.017905 -0.009077 -0.049685 -0.021716 0.028608 -0.002217 -0.018507 0.002008 0.064152 0.038199 -0.026048 0.013011 0.004906 0.035236 0.034536 -0.042263 0.034918 0.067794 -0.011493 0.069981 0.032860 0.034744 0.011847 0.021393 0.013176 0.030882 -0.040654 0.060421 0.061230 0.120593 -0.004626 0.099959 -0.032293 -0.012583 -0.095688 -0.054892 -0.018145 0.035444 -0.032560 0.087170
dvd -0.143239 0.013209 0.038556 0.226766 -0.073678 0.164289 -0.059699 0.090882 -0.042035 -0.070326 0.005335 -0.003059 -0.090927 -0.036504 -0.044028 0.061991 -0.000926 0.057910 -0.033525 0.089921 -0.016247 0.149239 -0.072861 0.035971 -0.013153 0.154623 -0.032752 -0.003342 0.016068 0.057287 0.084803 -0.078443 -0.027453 -0.027069 0.070356 -0.054688 0.022673 0.134033 -0.025988 -0.000431 0.069730 0.003166 -0.105008 0.073451 0.051638 0.067655 0.024326 0.068535 0.010762 0.086332 -0.092562 -0.047484 -0.072215 0.095257 0.097407 0.023401 -0.067968 0.028481 0.020990 0.064649 0.011264 -0.028749 -0.016766 -0.019198 0.097998 -0.035487 0.024621 -0.005871 0.100344 0.119798 -0.059096 0.067344 -0.050809 0.079669 0.066037 -0.075083 0.026270 0.111181 0.033784 0.028075 0.006381 0.105319 -0.037235 0.014020 -0.058623 0.063262 -0.152354 0.078018 0.099306 0.119447 0.040876 0.166412 -0.048574 0.028422 -0.164781 -0.083948 0.025884 0.047839 -0.003455 0.118693
camera -0.068636 0.042190 -0.001942 0.058934 -0.039518 0.101331 -0.014159 0.007908 -0.076425 0.030762 0.002266 -0.002493 -0.034572 -0.008473 -0.008758 0.062752 0.031687 0.021178 -0.007968 0.014991 -0.004703 0.061924 -0.063499 0.064228 -0.016296 0.078648 -0.030004 -0.071347 0.044303 0.015159 0.027282 -0.040053 0.021394 -0.027404 0.056690 0.010712 0.043559 0.077616 0.066435 -0.039306 0.005851 0.043288 -0.042797 -0.015091 -0.015458 -0.019865 -0.019360 0.083542 -0.014963 -0.002650 0.027755 -0.057370 -0.074809 0.035346 0.049590 -0.021579 -0.047209 -0.023645 0.012189 0.080301 -0.029880 0.007579 -0.065221 -0.030808 -0.005221 0.003085 -0.055534 -0.021231 0.063052 0.011684 -0.013497 -0.028055 0.017509 0.022710 0.031022 -0.045433 0.048586 0.018564 -0.036154 0.062957 0.040420 0.025591 0.026844 0.006703 0.050753 0.008443 -0.005518 0.040542 0.053350 0.127370 -0.013754 0.069093 -0.021648 -0.055572 -0.069772 -0.060180 -0.039524 0.031427 -0.055399 0.076088
cable -0.138384 0.047092 0.071946 0.181198 -0.066359 0.179113 -0.026401 0.049034 -0.113422 -0.016026 0.001292 -0.002368 -0.090965 -0.032339 -0.028374 0.106223 0.024862 0.063429 -0.038370 0.078743 -0.001479 0.164926 -0.086094 0.089983 -0.027253 0.173598 -0.041806 -0.033758 0.042637 0.051751 0.076191 -0.115478 -0.002363 -0.041542 0.106155 -0.024947 0.040038 0.180815 0.066317 -0.005699 0.062762 0.026386 -0.120241 0.032443 0.022431 0.002513 0.029776 0.093736 0.012843 0.072521 -0.049926 -0.075413 -0.099728 0.103075 0.109783 0.002181 -0.097844 0.033457 0.035062 0.103668 -0.014223 -0.016230 -0.050064 -0.033851 0.101119 -0.024595 -0.007542 0.024114 0.108906 0.112471 -0.040570 0.035750 -0.021418 0.060384 0.037866 -0.049505 0.067252 0.133956 -0.008041 0.092469 0.017126 0.063679 -0.037579 0.049765 0.012258 0.053038 -0.119221 0.095550 0.122592 0.193398 0.024062 0.192616 -0.058454 0.010360 -0.161717 -0.093380 -0.021641 0.079450 -0.056284 0.146760
function -0.035846 0.007792 -0.010755 0.051220 -0.014800 0.043723 -0.013799 0.020545 -0.021034 0.003779 0.001205 0.009156 -0.024604 -0.010306 -0.007023 0.017272 0.006709 0.003842 -0.008693 0.005892 -0.010510 0.029396 -0.032307 0.021432 -0.013699 0.035721 -0.009712 -0.023219 0.012781 0.003988 0.020961 -0.013429 -0.005762 -0.014282 0.017293 -0.004831 0.023672 0.025737 0.004626 -0.003602 0.013479 0.013294 -0.022550 0.005510 -0.006875 -0.005517 0.000462 0.033306 -0.003799 0.006501 -0.001942 -0.026611 -0.028741 0.015237 0.026107 -0.004432 -0.014192 -0.019835 0.003704 0.031390 -0.001212 0.008960 -0.018630 -0.010180 -0.000673 0.000556 -0.012455 -0.020166 0.034983 0.006730 -0.005679 -0.002562 0.005447 0.028407 0.021574 -0.021579 0.003854 0.018170 -0.010033 0.022121 0.024084 0.011558 0.012449 -0.003579 0.002516 0.011020 0.001820 0.017566 0.027428 0.034580 0.006831 0.028470 -0.007069 -0.028674 -0.047859 -0.023672 -0.011446 0.013936 -0.012066 0.029598
box -0.145175 0.051399 0.061025 0.162789 -0.061838 0.187000 -0.038319 0.078090 -0.099499 -0.030431 0.021392 0.020488 -0.100426 -0.016308 -0.037483 0.109131 0.008445 0.059765 -0.019977 0.081746 0.000748 0.140079 -0.089686 0.057402 -0.012980 0.157526 -0.051686 -0.041914 0.056930 0.072364 0.093236 -0.116978 0.007581 -0.046413 0.108500 -0.034942 0.051764 0.155639 0.058114 -0.010870 0.062846 0.050773 -0.092361 0.026099 0.024284 0.000953 0.018374 0.072018 0.007396 0.082713 -0.054138 -0.092199 -0.100735 0.110559 0.090343 0.006632 -0.083300 0.030739 0.007208 0.092788 -0.011429 -0.010636 -0.062275 -0.020009 0.110315 -0.022987 -0.007392 0.002976 0.103171 0.083403 -0.050191 0.046339 -0.044908 0.066318 0.055141 -0.058918 0.042452 0.111855 -0.009792 0.098808 0.012492 0.046231 -0.043726 0.031528 0.000907 0.047213 -0.125606 0.086219 0.122045 0.176965 0.042696 0.196741 -0.034564 0.016175 -0.172771 -0.072098 -0.014922 0.043412 -0.065955 0.144542
player -0.176859 0.020685 0.059976 0.242569 -0.082889 0.207592 -0.077906 0.096131 -0.116819 -0.028586 0.013550 0.018538 -0.126321 -0.036652 -0.037530 0.085500 0.026601 0.063118 -0.040158 0.076690 0.001800 0.201061 -0.096284 0.068200 -0.028058 0.193784 -0.048125 -0.021374 0.058846 0.091803 0.105458 -0.108729 -0.040950 -0.033436 0.117027 -0.044318 0.045507 0.164894 0.033298 0.003772 0.074371 0.030450 -0.141114 0.057677 0.041213 0.031990 0.021217 0.107244 0.015654 0.095300 -0.076988 -0.090070 -0.113439 0.126632 0.140350 -0.010039 -0.104716 0.013534 0.030397 0.089640 0.012366 -0.025941 -0.048992 -0.023008 0.099714 -0.018241 0.001815 -0.013725 0.122683 0.125589 -0.053352 0.074707 -0.035679 0.101479 0.073173 -0.088444 0.028294 0.148112 0.039081 0.095837 0.036289 0.078531 -0.020904 0.009899 -0.031577 0.061575 -0.130650 0.112157 0.134586 0.190244 0.045444 0.217007 -0.078296 0.005153 -0.210953 -0.096481 0.007625 0.067047 -0.050634 0.156312
system -0.079839 0.022521 0.019452 0.096898 -0.036710 0.095585 -0.028647 0.042918 -0.059597 -0.008004 0.015170 0.010838 -0.055832 -0.020058 -0.017096 0.042910 0.012877 0.029189 -0.022183 0.038913 -0.001841 0.089811 -0.047023 0.050047 -0.013319 0.087286 -0.023323 -0.029650 0.030895 0.036346 0.036903 -0.049986 0.003657 -0.017948 0.050760 -0.007996 0.020752 0.079699 0.031858 -0.010158 0.024031 0.022265 -0.064996 0.017559 0.009952 0.002213 0.014043 0.045898 -0.005019 0.039803 -0.017867 -0.036298 -0.060758 0.054086 0.051563 -0.008062 -0.045423 0.006585 0.014761 0.053329 -0.006193 -0.017450 -0.022998 -0.006017 0.035597 -0.009310 -0.017395 -0.003081 0.058043 0.054871 -0.025569 0.024178 -0.005845 0.047228 0.024837 -0.031271 0.020594 0.066467 -0.002198 0.051021 0.013216 0.038702 -0.005038 0.004097 0.003665 0.018938 -0.044135 0.052342 0.061015 0.106144 0.010944 0.092795 -0.031273 -0.007252 -0.091970 -0.043601 -0.011016 0.030606 -0.024780 0.074039
price -0.009094 0.001574 0.001162 -0.000181 -0.003318 0.008027 -0.002073 -0.000570 -0.010361 0.003280 -0.001031 0.004484 -0.007397 0.000288 -0.006518 0.005107 0.006581 -0.000925 -0.004885 -0.001451 0.004948 0.005570 0.000483 0.010552 0.003595 0.012857 0.001696 -0.010189 0.002883 -0.001305 0.003822 0.001906 0.007190 0.000442 0.004262 -0.001010 0.001294 0.004818 0.002958 0.000389 0.000487 0.006388 0.000249 -0.007558 0.001341 -0.007118 0.002504 0.006589 -0.005712 0.004181 0.007863 -0.007476 -0.010150 0.007447 0.005734 0.001285 -0.002174 0.002821 0.003121 0.006157 -0.007162 0.000996 -0.004463 -0.004988 -0.004149 -0.005179 -0.002577 -0.005370 0.003454 0.003863 0.001784 -0.006386 0.004903 0.003789 -0.003083 -0.005303 0.001978 -0.001080 -0.001260 0.010377 0.002677 -0.002688 0.005226 0.008238 0.001074 -0.001466 0.001125 0.001662 0.000249 0.015113 0.001137 0.004254 -0.002067 -0.004923 -0.001337 -0.003514 -0.007495 0.004609 -0.001437 0.003016
component -0.030099 0.010844 -0.000669 0.027647 -0.010998 0.036406 -0.011393 0.015008 -0.021495 -0.004548 0.007414 0.001768 -0.023595 -0.001134 -0.005796 0.019485 0.003465 0.003792 -0.002242 0.012750 -0.007511 0.028043 -0.019577 0.015977 -0.001048 0.031846 -0.010341 -0.011340 0.012060 0.010309 0.011634 -0.012414 0.000456 -0.004211 0.014673 -0.006114 0.015481 0.026775 0.004448 -0.007961 0.010187 0.014672 -0.016415 0.005375 0.002203 0.002134 0.006996 0.020281 -0.004721 0.014595 -0.008450 -0.012741 -0.020458 0.018009 0.021634 -0.005954 -0.011117 -0.004813 -0.001120 0.021098 0.001896 0.001078 -0.013636 -0.005690 0.008206 -0.002862 -0.002279 -0.002671 0.018424 0.009566 -0.002293 0.006902 0.000407 0.016111 0.012354 -0.015443 0.004762 0.014511 -0.003839 0.021031 0.001623 0.015826 0.000992 -0.000346 -0.001546 0.002693 -0.008822 0.021940 0.022436 0.032938 0.007620 0.031772 -0.011626 -0.006438 -0.029282 -0.017675 -0.001556 0.004396 -0.008396 0.022174
setup 0.006746 0.006717 0.001761 -0.019524 0.008231 -0.008748 0.003769 -0.005665 -0.004619 0.011089 0.002684 -0.000314 0.010162 -0.001482 0.007102 -0.000293 0.007998 -0.001114 -0.000311 -0.001999 -0.000206 -0.012311 0.004428 0.003387 0.004096 -0.010138 0.003876 -0.009344 0.003235 -0.009319 0.000879 0.009486 0.008295 0.006415 -0.001866 0.001680 0.002501 -0.003282 0.006431 -0.002954 -0.004486 0.002861 0.002103 -0.005491 -0.007244 -0.006654 0.004142 0.000431 -0.009017 -0.009628 0.012408 0.009212 -0.001618 -0.011814 -0.002396 -0.004302 0.006698 0.000393 -0.001872 -0.000535 -0.006531 -0.004242 0.003216 0.000236 -0.005659 -0.000048 -0.007119 0.001942 -0.002404 -0.013381 0.003078 -0.000665 0.007559 -0.008433 -0.003110 0.007403 0.006664 -0.001174 -0.013916 0.008644 -0.000216 -0.010889 0.004154 0.002036 0.008517 -0.008955 0.012768 -0.004810 -0.008174 0.009124 -0.006366 -0.004277 0.009044 -0.006892 0.003599 0.001790 -0.011499 -0.007265 -0.005376 -0.008834
logitech 0.001392 0.001849 -0.002426 -0.021916 0.002222 -0.004014 0.009749 -0.007999 -0.001657 0.005485 -0.002990 0.005775 0.007442 0.004100 0.005799 0.002408 0.004980 0.005938 0.011605 -0.000935 0.007547 -0.014466 0.000992 0.003164 -0.002360 -0.011967 -0.004256 -0.011424 0.004880 -0.012980 -0.003397 0.004889 0.009664 -0.000852 0.004349 0.002417 0.002423 -0.000484 0.008270 -0.006203 -0.005238 0.009208 0.011250 -0.015098 -0.010803 -0.014104 -0.002543 -0.003187 -0.005358 -0.006098 0.010010 -0.000064 0.003913 -0.009314 -0.009030 -0.007304 0.001232 0.005909 -0.001045 -0.001234 -0.006676 -0.005271 -0.002067 -0.005315 -0.011108 0.001888 -0.015519 0.010702 0.001613 -0.003040 0.002084 -0.007221 0.000052 -0.010752 -0.006590 0.006012 0.002041 -0.004287 -0.007910 0.000950 -0.004743 -0.011828 -0.000754 0.009048 0.009722 -0.004638 0.009617 -0.001700 -0.002600 0.014507 -0.004490 -0.010322 0.007440 0.001232 0.005925 0.003206 -0.004660 -0.008626 0.002445 -0.006336
software -0.010117 0.009208 0.006069 -0.004348 -0.002459 0.013062 0.008541 0.000098 -0.018416 0.008231 0.007010 0.001596 -0.000908 0.002442 0.001396 0.011769 0.008700 0.008804 0.005095 -0.004432 0.003581 -0.000624 -0.004808 0.015425 0.001366 0.006874 -0.001618 -0.015446 0.008920 0.001224 0.003532 -0.006839 0.010198 -0.004330 0.011933 0.001379 0.015428 0.013372 0.016693 -0.002654 0.006492 0.007537 -0.010976 -0.016333 -0.012267 -0.014536 -0.003597 0.007759 0.003542 -0.000209 0.007402 -0.009733 -0.015015 0.003575 0.001427 -0.008890 -0.006640 -0.000412 -0.002784 0.011119 -0.009491 -0.002864 -0.002717 -0.002874 -0.003170 -0.000785 -0.013022 0.000127 0.013727 -0.007841 -0.000893 -0.001489 0.006645 -0.002601 -0.002880 -0.003336 0.007209 0.012462 -0.013090 0.019308 -0.001766 -0.012539 0.005330 0.009926 0.017831 -0.002951 0.007343 0.004371 0.007554 0.026013 0.003152 0.012803 -0.005424 -0.001278 -0.008261 -0.007906 -0.009343 0.003156 -0.018157 0.010858
universal -0.025228 0.009477 0.002182 0.024529 -0.013624 0.027468 -0.007244 0.007737 -0.021392 -0.005443 0.003171 0.006663 -0.018258 -0.006218 -0.005952 0.019514 0.003440 0.013037 -0.007359 0.012106 -0.001929 0.029043 -0.019820 0.018107 -0.009578 0.023475 -0.008816 -0.007328 0.012305 0.005406 0.014898 -0.012233 0.004830 -0.001148 0.016561 -0.001967 0.008051 0.023302 0.009157 -0.000375 0.013563 0.011192 -0.022814 0.008514 -0.001753 -0.003273 0.006473 0.014319 -0.004554 0.008175 -0.003856 -0.014017 -0.018388 0.009572 0.017919 0.001963 -0.014884 -0.004445 0.009289 0.017451 -0.004253 -0.003514 -0.012921 -0.005656 0.006629 -0.003679 -0.004817 -0.006246 0.019302 0.017930 -0.005615 0.005970 -0.006030 0.018375 0.008127 -0.017316 0.005993 0.025591 0.001713 0.024286 0.011692 0.012602 0.002987 0.001497 0.006123 0.003483 -0.018446 0.013872 0.019066 0.029676 0.002153 0.033244 -0.005816 -0.003303 -0.029334 -0.012495 -0.000627 0.013465 -0.007344 0.027848
room -0.034339 0.006977 0.023024 0.056691 -0.022494 0.045445 -0.012871 0.028311 -0.022003 -0.016719 0.007618 0.005652 -0.021177 -0.015031 -0.014073 0.013855 -0.006737 0.008527 -0.004456 0.025508 0.001917 0.051403 -0.006459 0.012242 -0.000223 0.040668 -0.011734 0.001389 -0.000735 0.020185 0.027349 -0.037513 -0.009118 -0.003826 0.020461 -0.011342 0.001821 0.032449 0.005898 0.003577 0.016214 -0.010868 -0.035057 0.023246 0.015832 0.015312 0.011141 0.014323 0.008397 0.035801 -0.029216 -0.021466 -0.010419 0.037381 0.030435 0.002761 -0.025881 0.017977 0.001586 0.010715 0.013108 -0.002480 -0.001758 -0.000268 0.040523 -0.005364 0.017808 0.012969 0.019654 0.039659 -0.019321 0.023270 -0.015113 0.014118 0.013045 -0.014119 0.002773 0.036328 0.018898 0.017383 -0.015698 0.019484 -0.022060 -0.001258 -0.011295 0.020007 -0.046763 0.028311 0.023314 0.028475 0.023094 0.046908 -0.014258 0.015605 -0.041164 -0.014138 0.012173 0.015451 -0.011762 0.037223
feature -0.017676 0.010543 -0.011302 0.009999 -0.004886 0.014952 -0.003018 -0.000331 -0.012277 0.009806 -0.000118 -0.002248 -0.013889 0.002631 -0.002911 0.007520 0.012717 0.004736 -0.001520 -0.003866 -0.008225 0.008004 -0.015751 0.013531 -0.007015 0.018383 -0.003059 -0.017439 0.017489 -0.000702 0.007618 -0.004643 0.004998 -0.006252 0.009243 0.002512 0.013936 0.019137 0.017911 -0.013785 0.003931 0.012286 -0.008944 0.001795 -0.010947 -0.012131 -0.000965 0.021986 -0.005340 -0.010649 0.016703 -0.014672 -0.015874 0.003053 0.004875 -0.004083 -0.003719 -0.008881 0.005688 0.017269 -0.005026 0.008017 -0.014758 -0.009186 -0.005555 0.005387 -0.019846 -0.010490 0.017081 0.001636 -0.002180 -0.003694 0.009303 0.011806 0.015040 -0.009220 0.011901 0.001673 -0.013273 0.020681 0.020713 0.000447 0.015073 0.005658 0.015976 0.001534 0.010886 0.011332 0.007900 0.029289 -0.006394 0.014784 -0.003084 -0.015768 -0.017229 -0.018655 -0.016006 0.003528 -0.014276 0.019626
screen -0.000589 -0.002197 -0.019361 0.013673 -0.003241 0.008584 -0.006196 0.007389 -0.016073 0.017059 0.007867 0.008137 -0.013014 -0.004493 -0.000599 0.001943 -0.000137 -0.004532 -0.005397 -0.009468 -0.008614 0.001884 -0.018376 0.004400 -0.000285 0.006596 0.003864 -0.016993 0.006458 0.004324 0.000514 0.005135 -0.011637 -0.000429 -0.001095 0.002183 0.013922 0.002417 -0.001721 -0.002893 -0.003578 0.010015 -0.008680 0.005690 -0.010308 -0.006023 -0.011414 0.011846 -0.001042 -0.013624 0.008885 -0.008255 -0.012880 -0.002330 0.011970 -0.006152 -0.001292 -0.012435 0.003878 0.005423 -0.006907 0.011361 -0.009218 -0.001577 -0.007415 0.005900 -0.005572 -0.014326 0.015347 -0.010086 0.006646 -0.000151 0.005664 0.003358 0.012181 -0.014038 -0.001555 -0.011212 -0.005793 0.009483 0.018567 -0.003992 0.013582 -0.014148 0.000520 -0.003065 0.017218 0.003109 0.012153 0.008618 -0.000507 0.003420 -0.000371 -0.021601 -0.011495 -0.013450 -0.009754 -0.002562 -0.008021 0.005870
code -0.043125 0.013208 0.009338 0.047954 -0.013105 0.051770 -0.017827 0.022729 -0.026568 0.003442 -0.000217 -0.000613 -0.024027 -0.004630 -0.017209 0.028204 0.013075 0.017733 -0.009529 0.011784 -0.008866 0.033639 -0.034651 0.022025 -0.002966 0.045053 -0.011617 -0.013295 0.012683 0.009520 0.019541 -0.015860 0.001586 -0.014758 0.029614 -0.010750 0.021169 0.041187 0.017404 -0.004124 0.013790 0.010078 -0.035015 0.001836 -0.003689 -0.004610 -0.000275 0.033131 -0.001779 0.008348 -0.011179 -0.016126 -0.030531 0.018685 0.025968 0.002280 -0.025357 -0.004764 0.013301 0.033728 -0.008685 -0.003186 -0.014487 -0.005918 0.008512 -0.010407 -0.012995 -0.007622 0.033237 0.020263 -0.012148 0.013355 0.000465 0.019628 0.019865 -0.018983 0.015342 0.025864 -0.007960 0.022764 0.015782 0.014433 0.006910 0.002732 0.000923 0.014337 -0.023096 0.025591 0.029716 0.057239 -0.000153 0.040452 -0.010482 -0.006883 -0.041596 -0.021973 -0.013093 0.012813 -0.011588 0.042379
small -0.012912 0.005461 -0.006362 0.013795 -0.005155 0.022778 -0.005534 -0.003880 -0.019893 0.017774 0.005529 0.008866 -0.008514 -0.000971 -0.004215 0.018766 0.008294 0.002717 -0.004416 0.002762 0.000048 0.007857 -0.021176 0.015769 -0.001792 0.017374 -0.006446 -0.014121 0.014158 0.000929 -0.000977 0.002748 0.003785 -0.008520 0.005564 0.008473 0.016180 0.015068 0.018363 -0.014406 -0.005343 0.014363 -0.008236 -0.001223 -0.008259 -0.006662 -0.011361 0.024833 0.001139 -0.012609 0.015898 -0.015893 -0.019400 0.003889 0.008182 -0.008864 -0.010969 -0.020111 0.004359 0.014882 -0.009807 0.009477 -0.017742 -0.009937 -0.005293 0.006703 -0.018061 -0.011421 0.017292 -0.006005 0.005438 -0.012973 0.003471 0.006179 0.008797 -0.015842 0.001843 -0.006609 -0.017985 0.024944 0.021124 -0.004221 0.013523 -0.005227 0.014599 -0.001399 0.012729 0.003441 0.008726 0.025067 0.000358 0.010642 -0.007419 -0.026158 -0.017917 -0.010977 -0.011207 0.007927 -0.020423 0.014552
input -0.081212 0.008288 0.018597 0.135522 -0.041336 0.094490 -0.047097 0.052376 -0.035102 -0.033121 0.000172 0.002187 -0.063768 -0.014985 -0.028589 0.034127 0.012965 0.020257 -0.021631 0.041031 -0.001895 0.087768 -0.042696 0.018885 -0.013185 0.083494 -0.021089 -0.000654 0.021089 0.036902 0.041687 -0.054387 -0.030442 -0.020742 0.043712 -0.022293 0.022632 0.074384 -0.009978 0.005793 0.032400 0.003701 -0.065177 0.040225 0.025852 0.026603 0.008701 0.038775 0.002459 0.049717 -0.044050 -0.046757 -0.043887 0.061321 0.056944 0.003569 -0.039790 0.002654 0.013770 0.031589 0.011648 -0.001850 -0.024687 -0.010597 0.055682 -0.008970 0.020654 -0.014800 0.054813 0.061308 -0.031081 0.038538 -0.015344 0.047391 0.039521 -0.039733 0.007376 0.062708 0.031770 0.032333 0.013509 0.050861 -0.010214 0.005100 -0.028836 0.027066 -0.074772 0.055401 0.062273 0.066705 0.021863 0.097425 -0.041532 0.004457 -0.102331 -0.049858 0.009218 0.028680 -0.011822 0.075640
sony -0.058939 0.011934 0.013823 0.080004 -0.021963 0.067993 -0.023788 0.027811 -0.035359 -0.012238 0.003861 0.002142 -0.035886 -0.009737 -0.008567 0.025855 0.011496 0.019126 -0.018291 0.029237 -0.008022 0.062426 -0.036343 0.021195 -0.007560 0.058995 -0.015163 -0.008526 0.016744 0.027054 0.036399 -0.025999 -0.013247 -0.013338 0.036037 -0.008231 0.018374 0.055089 0.013937 -0.005179 0.022515 0.011889 -0.041904 0.023542 0.010343 0.014922 0.008536 0.036055 0.001516 0.028717 -0.017809 -0.026637 -0.034984 0.033412 0.037041 -0.002726 -0.034742 0.003181 0.012945 0.030153 -0.001364 -0.003056 -0.016494 -0.002704 0.022169 -0.010274 -0.007241 -0.003694 0.038964 0.041492 -0.017140 0.020024 -0.014262 0.035016 0.023344 -0.034178 0.015243 0.045130 0.000976 0.032389 0.018288 0.030226 -0.000194 0.004597 -0.004850 0.019466 -0.036155 0.034677 0.042288 0.057342 0.013279 0.066872 -0.017709 -0.001770 -0.063011 -0.034057 -0.000432 0.023620 -0.012466 0.055291
activity -0.053170 -0.000023 -0.002507 0.087209 -0.029977 0.058044 -0.027240 0.035699 -0.032659 -0.010877 0.008109 0.008105 -0.042089 -0.014358 -0.015219 0.019987 0.010854 0.009252 -0.021665 0.019072 -0.006575 0.051611 -0.036194 0.019594 -0.012032 0.055801 -0.013043 -0.014571 0.012458 0.027164 0.031988 -0.026467 -0.014106 -0.012894 0.034280 -0.009078 0.019087 0.043794 -0.002283 -0.004142 0.025041 0.004222 -0.049322 0.022368 0.005644 0.013361 0.006643 0.031415 0.003455 0.016428 -0.012788 -0.031539 -0.037376 0.032528 0.037566 0.004629 -0.025061 -0.009552 0.004999 0.030364 0.006599 -0.002008 -0.015651 -0.001710 0.022522 0.000884 0.002212 -0.012322 0.043580 0.030740 -0.015224 0.015807 -0.005223 0.035293 0.032355 -0.030825 0.003799 0.031127 0.009577 0.028962 0.011111 0.031917 -0.000593 -0.012322 -0.011121 0.014621 -0.025774 0.032777 0.043632 0.049371 0.009511 0.063354 -0.020834 -0.011871 -0.068191 -0.038307 -0.009235 0.024882 -0.011756 0.050168
home -0.005693 -0.006463 0.009494 0.016534 0.000698 0.015087 -0.011384 0.006228 0.002249 -0.006461 0.008282 -0.002223 -0.013227 0.007360 0.007276 0.001458 -0.010891 0.014154 0.004978 0.015191 0.005250 0.029063 -0.001016 0.011842 0.001373 0.016042 0.001166 0.004514 0.005487 0.004693 -0.002632 -0.007902 0.008944 0.003218 -0.002586 0.006258 -0.000866 0.018104 -0.003187 -0.004197 0.014888 -0.001367 -0.014098 0.014953 0.014832 0.011940 0.014367 -0.010558 -0.003288 0.019344 -0.017940 0.003535 0.000283 0.023114 0.009557 -0.008937 -0.005703 0.022100 -0.006912 0.009458 0.010071 -0.012628 0.005430 0.007339 0.022508 -0.015246 -0.006740 0.019306 0.006110 0.026638 -0.014414 0.006240 -0.011139 0.008777 -0.013280 0.011116 0.003701 0.015205 0.005160 0.002308 -0.016971 0.022517 -0.008380 -0.003109 -0.000204 0.004978 -0.010749 0.011879 0.017110 0.020295 0.014329 0.010670 -0.003355 0.023474 -0.010199 0.002423 0.000474 0.008436 -0.004182 0.006891
channel -0.049250 0.002449 0.003818 0.058458 -0.022308 0.055029 -0.019598 0.018641 -0.034185 0.005850 0.012006 0.006966 -0.040213 -0.016842 -0.012567 0.031123 0.009527 0.008043 -0.015469 0.019455 -0.001598 0.040047 -0.031320 0.029198 -0.013920 0.050020 -0.013631 -0.014053 0.023500 0.021140 0.024999 -0.017347 -0.007777 -0.009263 0.032403 -0.008097 0.022327 0.050178 0.009793 -0.003877 0.014567 0.023161 -0.029784 0.014365 -0.000342 -0.000652 0.001846 0.032693 0.001401 0.010681 -0.002405 -0.034560 -0.041330 0.021840 0.037968 -0.006394 -0.027560 -0.008630 0.007808 0.028564 -0.001615 -0.006299 -0.025430 -0.012763 0.014716 -0.004868 -0.008565 -0.016037 0.035830 0.027941 -0.011727 0.013540 -0.001184 0.029617 0.021729 -0.031500 0.007297 0.029771 -0.000587 0.033170 0.024959 0.016461 0.005122 -0.002609 -0.003034 0.008265 -0.011940 0.028459 0.037565 0.058406 0.003317 0.055514 -0.017568 -0.016497 -0.054448 -0.029004 -0.012623 0.014898 -0.020757 0.042432
volume -0.047784 0.008630 -0.002522 0.068667 -0.020908 0.055380 -0.025796 0.025617 -0.034917 -0.007620 0.001294 0.003847 -0.040929 -0.013511 -0.008521 0.024341 0.008335 0.006683 -0.019844 0.011714 -0.006209 0.051631 -0.031339 0.024482 -0.015766 0.043294 -0.014562 -0.006554 0.019435 0.020162 0.020573 -0.021782 -0.016019 -0.010768 0.029114 -0.006671 0.021793 0.045111 0.008281 -0.000248 0.019161 0.011651 -0.032708 0.015207 0.001809 -0.000828 -0.001380 0.033554 0.002489 0.009919 -0.008325 -0.031859 -0.032890 0.031649 0.035846 -0.002457 -0.026066 -0.008629 0.009993 0.024586 0.002290 0.000928 -0.022680 -0.005267 0.014361 -0.004693 -0.003374 -0.016649 0.040762 0.025017 -0.016068 0.016172 -0.007936 0.031505 0.028673 -0.030686 0.010838 0.025958 0.005919 0.025869 0.012542 0.021822 0.010402 -0.004882 -0.006021 0.017553 -0.012995 0.032160 0.036778 0.039653 0.018992 0.053463 -0.020543 -0.018578 -0.056780 -0.022291 -0.009343 0.022595 -0.014667 0.044545
ir -0.033445 0.008260 0.013268 0.037138 -0.019051 0.037066 -0.010455 0.008483 -0.018962 -0.010640 0.006433 0.003578 -0.016623 0.000769 -0.015203 0.020820 0.009039 0.014941 -0.003772 0.009985 0.005100 0.037804 -0.015380 0.014757 -0.000809 0.032652 -0.011987 -0.011997 0.012178 0.013013 0.013302 -0.022751 0.001447 -0.005900 0.022575 -0.006329 0.008688 0.035966 0.011660 0.000945 0.012781 -0.001870 -0.025815 0.002892 0.008383 -0.001653 -0.001299 0.016502 0.004043 0.023497 -0.010051 -0.014818 -0.017430 0.024348 0.018827 0.001751 -0.022020 0.005642 0.009729 0.020177 -0.004695 -0.007868 -0.009171 0.000119 0.024227 0.000790 -0.004811 -0.001969 0.021799 0.025787 -0.016362 0.008777 -0.005390 0.009975 0.003417 -0.005805 0.017279 0.029940 0.006866 0.020769 -0.005830 0.014145 -0.008959 0.004073 -0.001842 0.005906 -0.021064 0.024396 0.024818 0.033905 0.007609 0.038873 -0.017028 0.006710 -0.032384 -0.015271 -0.003458 0.019411 -0.008645 0.028557
model -0.017933 0.012997 0.008391 0.004850 0.000359 0.023588 0.004346 0.007380 -0.020732 0.006939 0.008568 0.008977 -0.013783 -0.004751 -0.009941 0.020447 0.005739 0.010458 -0.006102 0.009526 -0.002683 0.007137 -0.010624 0.012201 -0.004673 0.020608 -0.008006 -0.010802 0.008618 -0.000837 0.009130 -0.014170 0.008323 -0.000373 0.017817 -0.003298 0.012718 0.024799 0.020124 -0.003948 0.002922 0.016290 -0.015475 -0.010177 -0.004775 -0.010321 0.002799 0.014294 -0.006165 -0.001812 0.000387 -0.012951 -0.019311 0.008137 0.011810 -0.009267 -0.010992 -0.001674 0.001805 0.017415 -0.006134 0.004200 -0.009226 -0.006492 0.003807 -0.006067 -0.011864 -0.005761 0.019256 0.001821 0.002268 -0.004257 -0.004342 0.010883 0.000366 -0.003687 0.010903 0.012262 -0.010328 0.026408 0.006901 -0.005819 0.002828 0.004459 0.011786 -0.000053 -0.004176 0.008398 0.010872 0.032380 -0.004681 0.023915 -0.003650 -0.010237 -0.014216 -0.014407 -0.011064 0.007885 -0.015982 0.017367
review 0.003729 0.006225 0.004446 -0.017668 0.006040 -0.006045 0.004054 -0.004658 -0.000225 0.005995 -0.002900 0.003983 0.001910 0.000565 0.006591 -0.000005 0.002263 -0.000873 0.002939 -0.002486 -0.003102 -0.001448 0.005557 -0.000258 0.003451 -0.002811 -0.004592 -0.008478 0.003766 -0.007136 -0.005856 -0.002746 0.003328 0.002520 -0.000149 0.005548 -0.000914 -0.002698 0.009130 0.002200 -0.007793 0.005347 0.006035 -0.008536 -0.007493 -0.009613 -0.002578 -0.001818 -0.001757 -0.006179 0.000893 -0.000094 -0.002450 -0.000152 -0.001585 -0.001928 0.004900 -0.002950 0.001632 0.002961 -0.001048 -0.002949 0.001816 0.003063 -0.005096 0.001421 -0.008523 0.005361 -0.005142 -0.001046 -0.003309 0.001338 -0.002442 -0.006704 -0.004009 0.007010 0.001331 0.002156 -0.009579 0.006760 0.002786 -0.000804 0.002811 0.003887 0.008978 0.000918 0.006996 -0.006225 -0.002314 0.003617 -0.007467 -0.004405 0.000494 -0.004416 0.002610 0.004439 -0.006360 -0.003213 -0.000617 -0.005792
equipment -0.030724 0.010127 0.003980 0.026564 -0.015838 0.036471 -0.010588 0.008861 -0.023750 0.005230 0.007971 0.002922 -0.015443 -0.003146 -0.003799 0.022701 0.011306 0.012127 -0.007444 0.010835 -0.004530 0.022427 -0.021521 0.022501 -0.004366 0.028222 -0.003233 -0.011508 0.017751 0.013908 0.014767 -0.019658 0.008494 -0.001861 0.025615 0.001248 0.011774 0.034173 0.018107 -0.004947 0.003823 0.011991 -0.023857 0.004624 -0.000075 -0.004456 0.000675 0.017783 0.003175 0.006876 -0.002676 -0.016831 -0.020890 0.017563 0.022978 -0.006363 -0.017153 0.001024 0.001426 0.021150 -0.002238 0.002309 -0.012320 -0.003935 0.012067 -0.000180 -0.004999 -0.000959 0.017531 0.010236 -0.004784 -0.001231 -0.003047 0.009229 0.011468 -0.014358 0.017914 0.025074 -0.003409 0.018374 0.005077 0.003131 0.002021 0.008652 0.007065 0.005187 -0.007351 0.020810 0.018881 0.044251 -0.002839 0.036292 -0.009813 -0.004850 -0.027863 -0.013369 -0.011800 0.010192 -0.016426 0.022640
minute -0.024003 0.004100 0.007567 0.023700 -0.005413 0.027429 -0.009671 0.008364 -0.019581 -0.002165 -0.001106 -0.001081 -0.020157 -0.005317 -0.005124 0.016891 0.013662 0.003256 -0.002140 0.008882 0.003394 0.017295 -0.022791 0.022101 -0.004510 0.025749 -0.012758 -0.010670 0.016631 0.010654 0.008962 -0.014664 0.003799 -0.008287 0.014554 -0.003051 0.014446 0.029834 0.016877 -0.007580 0.009623 0.013804 -0.017419 0.000666 -0.005379 -0.009126 0.001468 0.019225 -0.006673 0.006522 -0.000100 -0.008568 -0.016819 0.014864 0.021597 -0.000577 -0.017243 -0.000274 0.002349 0.023347 -0.006012 -0.004639 -0.009678 -0.009584 0.010818 -0.004325 -0.006927 0.000146 0.022634 0.010588 -0.006028 0.003917 0.003398 0.009095 0.010855 -0.006167 0.013095 0.020948 -0.003005 0.015032 0.005065 0.006524 0.006436 0.011918 0.009350 0.004452 -0.004475 0.013337 0.019156 0.031245 -0.003400 0.024146 -0.008507 -0.005688 -0.023778 -0.017197 -0.011716 0.009323 -0.006606 0.021940
sound -0.032306 0.001340 0.006025 0.052797 -0.012922 0.037861 -0.019026 0.018564 -0.018582 -0.012298 0.003237 0.003180 -0.024247 -0.011780 -0.007472 0.016284 0.008519 0.007326 -0.012935 0.016316 -0.003880 0.033682 -0.017310 0.019148 -0.007846 0.036061 -0.007157 -0.007571 0.010148 0.018933 0.017307 -0.015559 -0.007455 -0.013953 0.019616 -0.012389 0.008010 0.029391 0.004336 0.001247 0.010894 0.009779 -0.024165 0.012842 0.004395 0.007257 0.003554 0.022228 -0.002697 0.012355 -0.017553 -0.021777 -0.023187 0.020357 0.023213 0.003624 -0.016083 -0.001309 0.004870 0.020250 -0.001254 -0.005769 -0.009079 -0.006871 0.013258 -0.003830 0.003304 -0.007609 0.025595 0.026843 -0.007962 0.011644 -0.005735 0.021569 0.017434 -0.018583 0.003947 0.024384 0.006947 0.010321 0.012824 0.024167 -0.005844 0.003057 -0.011076 0.017605 -0.024192 0.021960 0.028698 0.032371 0.006745 0.034483 -0.009398 0.002868 -0.041132 -0.022316 0.000826 0.015638 -0.003440 0.027025
support -0.018691 0.004405 0.013669 0.007459 -0.004394 0.019078 -0.002249 -0.001929 -0.018928 0.001416 0.007189 0.009936 -0.007728 -0.005479 0.001122 0.013026 0.010017 0.008617 0.002918 0.003063 -0.002790 0.008407 -0.014259 0.013215 -0.001767 0.012011 -0.004301 -0.006354 0.014254 0.003818 0.013243 -0.011290 0.006151 0.003508 0.019010 0.008557 0.012339 0.029541 0.016603 -0.006785 0.005114 0.006727 -0.006845 -0.002324 -0.006186 -0.005215 0.002812 0.017451 -0.011395 0.005953 0.001330 -0.006707 -0.011117 0.005457 0.011352 -0.004293 -0.014460 -0.006135 0.000941 0.021299 -0.009861 -0.006383 -0.009045 -0.005788 0.001071 -0.004321 -0.009871 -0.001856 0.020606 0.008903 -0.006942 -0.000915 -0.000796 0.005288 0.003404 -0.010570 0.015462 0.019924 -0.005269 0.021037 0.003242 0.004311 0.003003 0.007657 0.011095 0.004719 -0.003767 0.012014 0.005947 0.034823 -0.003417 0.019399 -0.005597 -0.003148 -0.015423 -0.002828 -0.008422 -0.000005 -0.007417 0.016468
hour -0.029446 0.006878 0.008890 0.034937 -0.018813 0.042189 -0.012231 0.015268 -0.022230 0.009511 0.008031 0.006404 -0.016763 -0.010704 -0.009473 0.025550 0.008077 0.013500 -0.003703 0.012158 0.000485 0.027090 -0.020263 0.024403 -0.004559 0.033855 -0.009289 -0.020189 0.019676 0.004523 0.014136 -0.021025 0.000946 -0.003622 0.022155 0.004006 0.014078 0.039448 0.019511 -0.003409 0.006078 0.011620 -0.027045 0.004257 0.003318 -0.000071 0.001552 0.028185 -0.006437 0.012595 0.000317 -0.023539 -0.025300 0.019627 0.018341 -0.008969 -0.023936 -0.001386 0.008453 0.028331 -0.005815 -0.002845 -0.011381 -0.006871 0.004247 -0.007701 -0.017086 -0.004200 0.024018 0.018605 -0.007502 0.005030 0.004513 0.019825 0.007109 -0.015425 0.014094 0.026825 -0.007156 0.026361 0.013910 0.007843 0.005026 0.005554 0.003823 0.011365 -0.009332 0.016858 0.020746 0.049962 -0.003954 0.030971 -0.007930 -0.010879 -0.039186 -0.022603 -0.012949 0.008904 -0.014474 0.026722
computer -0.013457 0.006712 0.005970 -0.003502 0.000915 0.010217 0.007135 0.001684 -0.007284 0.003465 0.003147 0.005640 -0.006087 0.004891 0.000608 0.013155 0.003918 0.002387 0.005677 0.003963 0.006665 0.007365 -0.011536 0.010706 -0.001943 0.008796 -0.006110 -0.013712 0.010371 -0.004616 0.002568 -0.003606 0.012874 0.000462 0.012468 0.003322 0.011985 0.011514 0.012757 -0.006418 0.002216 0.002747 -0.003013 -0.004663 -0.004196 -0.001542 0.001894 0.004289 -0.005699 0.002501 0.005397 -0.005821 -0.012301 0.001861 0.004774 -0.003715 -0.006704 0.002807 0.005511 0.013046 -0.000991 -0.005219 -0.007208 0.001634 0.005951 0.002900 -0.010882 0.005887 0.013960 0.005722 0.000884 -0.004236 -0.003189 0.006654 -0.003073 0.000600 0.003815 0.005502 -0.011579 0.013816 0.006416 0.003416 0.003758 0.007432 0.007409 -0.000046 -0.001976 0.001958 0.006731 0.026167 -0.001009 0.008725 -0.004465 -0.008076 -0.013932 -0.002703 -0.004885 0.005305 -0.009230 0.005345
dvr -0.051375 0.014914 0.019960 0.066886 -0.024039 0.060831 -0.019229 0.025026 -0.031396 -0.003011 0.004722 0.002714 -0.034851 -0.013040 -0.015599 0.032419 0.008336 0.017660 -0.018904 0.021033 0.001260 0.047954 -0.037055 0.024002 -0.011049 0.050683 -0.020026 -0.014746 0.022880 0.026178 0.025929 -0.030707 0.001176 -0.013135 0.037784 -0.010030 0.023188 0.054212 0.017833 -0.007695 0.024999 0.015076 -0.042033 0.014055 0.006125 0.004912 0.003583 0.036069 -0.000396 0.021014 -0.010853 -0.026654 -0.039558 0.036628 0.032963 -0.003365 -0.029998 -0.000510 0.003457 0.035218 -0.001494 -0.002541 -0.018605 -0.003750 0.029216 -0.005058 -0.001835 -0.005465 0.035513 0.031817 -0.014748 0.014381 -0.009516 0.030414 0.020772 -0.028259 0.011453 0.039706 -0.000220 0.038927 0.008574 0.021907 -0.006885 0.000508 0.005870 0.012606 -0.034875 0.035074 0.041143 0.065631 0.009661 0.068848 -0.013424 -0.007238 -0.057926 -0.027942 -0.005555 0.020986 -0.020402 0.054662
programming -0.001874 0.009593 -0.000308 -0.006271 0.005128 0.002810 0.005993 -0.003092 -0.006358 0.009242 -0.000276 0.006852 -0.002195 0.005153 0.000398 0.009620 0.003693 0.000931 0.004037 0.001279 0.000484 0.003288 0.000199 0.006677 0.003416 0.000945 0.000927 -0.011186 0.010145 -0.000867 -0.001097 -0.002158 0.004808 0.003765 -0.000418 0.002513 0.001143 0.006468 0.011988 -0.005174 -0.005068 0.003587 -0.004777 -0.001689 -0.005899 -0.009796 -0.003669 -0.000267 -0.005049 0.000443 0.007319 -0.005322 -0.009631 -0.000456 0.003195 -0.004623 0.002541 -0.004627 0.000797 0.002791 -0.006699 0.001466 0.000635 -0.001123 0.001782 -0.003241 -0.004698 -0.000396 0.000856 -0.005773 0.005797 0.001960 0.000346 0.002849 -0.004935 0.003731 -0.000975 0.006014 -0.003533 0.006471 0.007981 -0.000506 0.003566 0.002673 0.007558 -0.007157 0.011444 -0.004991 0.003371 0.012595 -0.003057 0.002159 0.002933 -0.008172 0.001820 0.004079 -0.005099 0.002318 -0.005320 -0.001126
tivo -0.018323 0.002441 0.007284 0.031657 -0.006026 0.027490 -0.003717 0.011423 -0.007792 -0.004913 0.005373 -0.001616 -0.017010 -0.002334 -0.010538 0.006737 0.003637 0.011545 -0.001604 0.009648 0.003528 0.019730 -0.015175 0.008490 0.003142 0.024301 -0.004979 0.000441 0.004601 0.009394 0.009622 -0.014660 -0.000362 -0.002735 0.016419 -0.005994 0.004891 0.017693 0.003424 0.002469 0.009021 -0.000387 -0.017041 0.004504 0.002176 0.002842 0.003069 0.011717 -0.001567 0.016489 -0.011614 -0.005141 -0.008982 0.015240 0.011167 -0.004577 -0.011278 0.002676 0.002049 0.011991 -0.001690 -0.005174 -0.005333 -0.008365 0.011435 -0.007197 -0.002835 0.003743 0.011212 0.014803 -0.004055 0.014135 -0.007975 0.011541 0.004624 -0.005959 0.005385 0.016045 0.005856 0.012617 -0.002607 0.008140 -0.002907 0.010229 -0.000862 0.007978 -0.020054 0.013331 0.018369 0.027551 0.000384 0.021774 -0.009766 0.004713 -0.024483 -0.012796 -0.003722 0.009754 -0.003355 0.019215
simple -0.006151 -0.001514 0.002872 -0.005555 0.003202 0.006126 -0.004387 0.003046 -0.000569 0.006410 -0.003356 0.005429 0.000565 -0.000997 -0.001294 0.003121 -0.000233 0.000110 0.004482 0.003265 0.004141 -0.000549 -0.004071 0.007337 0.004118 0.001595 -0.002603 -0.002784 0.003651 -0.000224 0.000083 -0.003411 0.005189 0.004036 0.002318 -0.002197 0.002782 0.003095 0.002322 0.002426 0.003592 -0.002649 -0.002385 -0.005342 -0.005704 -0.001498 0.004505 0.001045 -0.000777 -0.002154 0.003548 0.000355 -0.003168 0.000177 0.000696 -0.000243 -0.004547 -0.004720 0.001486 -0.000229 0.000980 -0.003598 -0.002754 0.000176 0.002176 0.001515 -0.001852 0.004013 0.001946 0.005006 -0.004660 0.002580 0.001625 -0.001443 -0.001274 0.000016 -0.000741 0.004649 -0.007795 0.007695 0.000359 0.002605 -0.001326 -0.001228 0.005639 0.000062 -0.002416 -0.003998 0.002989 0.008409 0.002376 -0.001372 0.000783 0.002804 -0.003061 0.000231 -0.002165 0.004411 -0.007311 0.005528
macro -0.015417 0.008657 0.001784 0.014982 -0.002668 0.016164 -0.001869 0.003474 -0.018147 0.009120 0.003406 0.000383 -0.011651 -0.002271 -0.004741 0.013344 0.008858 -0.001833 -0.005020 0.003644 -0.008275 0.004979 -0.014376 0.009640 -0.006339 0.013358 -0.001192 -0.008761 0.011359 0.001452 0.002252 -0.001388 0.005579 -0.003275 0.006468 0.003678 0.010234 0.017835 0.011124 -0.003024 0.003966 0.004987 -0.014254 -0.003314 -0.000520 -0.004118 0.002442 0.012447 -0.008643 -0.002080 0.008106 -0.007139 -0.018618 -0.000519 0.005487 0.002864 -0.005250 -0.005417 -0.000273 0.016783 -0.004458 -0.000053 -0.010605 -0.000916 -0.002403 -0.002573 -0.013002 -0.001757 0.016071 0.003695 -0.003242 -0.000818 0.005385 0.006271 0.002882 -0.006839 0.008630 0.006510 -0.010005 0.011662 0.008472 0.005505 0.007452 -0.000502 0.008549 -0.000512 -0.000093 0.002665 0.013226 0.018466 -0.001310 0.013995 -0.007860 -0.011363 -0.013350 -0.009924 -0.014303 0.005932 -0.003191 0.011037
rf -0.031195 0.003936 0.013002 0.034968 -0.015040 0.034477 -0.011172 0.012363 -0.025697 -0.008143 0.001018 -0.000567 -0.017883 -0.002073 -0.011249 0.010581 0.004939 0.011098 -0.007527 0.014491 0.005971 0.035413 -0.012205 0.014074 -0.002660 0.022402 -0.002266 -0.011033 0.014675 0.015101 0.017133 -0.021642 -0.006512 -0.006506 0.025119 -0.003153 0.011972 0.026993 0.011577 0.005524 0.012137 -0.002167 -0.025024 0.004866 0.005221 -0.000097 -0.002482 0.019497 0.003270 0.018875 -0.011521 -0.013205 -0.015188 0.023249 0.016926 -0.006623 -0.016875 -0.000087 0.004341 0.017778 0.004239 -0.000262 -0.006743 0.003777 0.016835 0.001618 -0.004115 0.001202 0.019856 0.022293 -0.014537 0.003295 -0.009120 0.015626 0.003812 -0.013047 0.003965 0.020515 0.007732 0.019697 -0.003527 0.011297 0.003475 0.001316 -0.001962 0.005485 -0.012102 0.015512 0.019384 0.029764 0.013910 0.033392 -0.011157 0.001346 -0.027850 -0.012476 -0.005793 0.016705 -0.016004 0.030031
power -0.056706 0.013582 0.006465 0.069029 -0.029088 0.070218 -0.015740 0.027663 -0.040632 0.005482 0.002913 0.009760 -0.041285 -0.017469 -0.016754 0.030375 0.014968 0.010938 -0.023111 0.014650 -0.002709 0.052525 -0.035807 0.025887 -0.015647 0.061806 -0.014388 -0.019685 0.025409 0.024704 0.027370 -0.032111 -0.000385 -0.012499 0.040378 -0.007421 0.029478 0.059338 0.015091 -0.005519 0.015799 0.013450 -0.042978 0.006545 0.001986 -0.000919 0.003458 0.044039 0.005034 0.020638 -0.002344 -0.038651 -0.043770 0.034387 0.038753 0.002610 -0.033889 -0.015085 0.008620 0.035391 -0.002604 0.004154 -0.028385 -0.011177 0.018771 -0.001423 -0.007291 -0.013151 0.046742 0.027384 -0.016114 0.006895 -0.004490 0.030633 0.028711 -0.033202 0.017766 0.038370 -0.003924 0.036886 0.016374 0.020976 0.009338 0.005236 0.006935 0.014150 -0.020287 0.031295 0.047284 0.064847 0.008736 0.067921 -0.022049 -0.021052 -0.063630 -0.033568 -0.017522 0.023499 -0.023137 0.049205
instruction -0.015503 0.013114 0.003509 0.015741 -0.004673 0.022870 -0.003686 0.003779 -0.021722 0.002047 0.000418 0.000537 -0.011498 -0.001504 -0.007686 0.019974 0.007808 0.002109 -0.006539 0.007466 -0.001165 0.021961 -0.020015 0.016076 -0.003826 0.020266 -0.008965 -0.015757 0.009706 0.009831 0.005998 -0.014865 -0.000546 -0.007896 0.018701 0.002173 0.009337 0.024228 0.018127 -0.008752 0.007452 0.012467 -0.010573 -0.001777 -0.005084 -0.006252 -0.001633 0.017158 -0.001222 0.008976 0.004637 -0.009882 -0.019160 0.009495 0.019539 -0.001808 -0.009904 -0.006911 0.003836 0.021498 -0.006408 -0.001256 -0.012414 -0.007018 0.002747 -0.005204 -0.005187 -0.004070 0.015139 0.001982 -0.002468 0.004170 -0.002435 0.009121 0.002090 -0.008267 0.014534 0.017450 -0.006221 0.021057 0.012659 -0.000676 0.004884 0.003655 0.006982 0.000544 -0.003521 0.008750 0.018888 0.028005 0.004212 0.021883 -0.010123 -0.008607 -0.024331 -0.017770 -0.004600 0.011681 -0.014066 0.018402
command -0.018496 0.003118 -0.002082 0.019414 -0.008767 0.022229 -0.003584 0.008280 -0.011561 0.002482 0.000522 0.007047 -0.018411 -0.010653 -0.002021 0.008723 0.003656 0.000184 -0.010421 0.001944 -0.005094 0.013123 -0.019730 0.013194 -0.001487 0.012767 -0.004655 -0.011970 0.013532 -0.001217 0.005308 -0.003393 -0.003414 -0.005925 0.015986 -0.005520 0.018397 0.017989 0.009867 -0.005046 0.008659 0.008782 -0.019164 -0.001350 -0.009435 -0.008279 -0.003241 0.018656 -0.003392 -0.001733 0.000762 -0.014846 -0.022682 -0.000971 0.010583 -0.003991 -0.012631 -0.017345 0.000886 0.011496 -0.000473 -0.000062 -0.010995 -0.005043 0.000660 0.002415 -0.005072 -0.005628 0.021455 -0.001628 -0.002744 0.002792 -0.000082 0.014884 0.018137 -0.007505 0.002909 0.011430 -0.005015 0.016463 0.013894 -0.000317 0.009638 -0.008074 0.006304 -0.001593 0.001326 0.008468 0.014703 0.022727 0.004933 0.021795 -0.001891 -0.017284 -0.024369 -0.011567 -0.010692 0.002905 -0.009915 0.019082
setting -0.029276 0.012025 0.005152 0.041849 -0.018337 0.043344 -0.010344 0.020191 -0.025799 -0.005672 -0.001245 0.000518 -0.019416 -0.010837 -0.004151 0.022138 0.004975 0.009508 -0.014125 0.008576 0.002296 0.031497 -0.026798 0.013279 -0.011812 0.033786 -0.004514 -0.009506 0.008694 0.016175 0.019406 -0.019272 -0.008613 -0.012099 0.020936 -0.006738 0.010485 0.029145 0.013645 0.000510 0.006192 0.009532 -0.022550 0.005853 0.001355 0.005071 0.004770 0.025487 0.004707 0.009515 -0.004371 -0.019916 -0.029084 0.021272 0.026617 -0.001929 -0.018852 -0.010782 0.002806 0.017951 -0.002514 0.002795 -0.014448 -0.002896 0.014604 -0.001055 -0.005529 -0.005977 0.023775 0.012549 -0.010368 0.009846 -0.001463 0.014094 0.018981 -0.019247 0.004474 0.020997 0.000173 0.016696 0.011369 0.019077 0.003872 -0.000997 -0.003468 0.008811 -0.014851 0.024346 0.022746 0.035773 0.001071 0.035239 -0.016003 -0.010621 -0.044012 -0.018001 -0.006493 0.010084 -0.015982 0.034016
number -0.038578 0.015917 0.003453 0.039243 -0.016089 0.055314 -0.006147 0.009804 -0.043409 0.007141 0.007494 0.005209 -0.026059 -0.000663 -0.013240 0.036990 0.017509 0.014954 -0.016797 0.006363 -0.009208 0.032484 -0.037721 0.028948 -0.011843 0.046565 -0.013746 -0.028813 0.022523 0.011302 0.012635 -0.018753 0.007631 -0.008145 0.031487 -0.001336 0.021298 0.041255 0.022479 -0.006551 0.007133 0.028001 -0.023713 0.003140 -0.008976 -0.007975 -0.000319 0.031163 -0.006010 0.001103 0.004920 -0.034963 -0.040701 0.015380 0.030537 -0.005222 -0.018682 -0.014581 0.008813 0.029319 -0.010524 0.007263 -0.020463 -0.016037 0.004667 -0.004982 -0.023722 -0.014655 0.036252 0.005515 -0.007464 -0.000256 0.000442 0.015809 0.018029 -0.021538 0.019874 0.019010 -0.012782 0.036423 0.017684 0.006974 0.014762 0.009240 0.019304 0.002918 -0.002772 0.027758 0.028154 0.056055 0.002583 0.040360 -0.011755 -0.023113 -0.040212 -0.029169 -0.012060 0.017310 -0.025291 0.044055
mode -0.060667 0.009364 0.005366 0.079313 -0.024572 0.076778 -0.018354 0.034185 -0.044273 -0.001321 0.001779 0.001112 -0.045749 -0.007942 -0.014884 0.038216 0.014872 0.012969 -0.017176 0.026188 -0.001446 0.059528 -0.045701 0.027412 -0.015228 0.060283 -0.022432 -0.026815 0.018396 0.027913 0.029881 -0.034591 -0.004342 -0.013565 0.043846 -0.011748 0.018785 0.058000 0.012210 -0.012223 0.019102 0.014078 -0.045412 0.016907 0.005315 -0.001151 0.002666 0.043708 -0.003869 0.018114 -0.015079 -0.040050 -0.046635 0.039259 0.045158 0.001989 -0.030806 -0.004731 0.005059 0.037736 -0.000231 -0.000812 -0.029035 -0.014307 0.020623 -0.003180 -0.013178 -0.011853 0.049977 0.032321 -0.019000 0.017164 -0.007829 0.030066 0.026964 -0.028098 0.020837 0.040905 -0.000422 0.032676 0.022715 0.024251 0.001088 -0.002757 -0.000289 0.012672 -0.036582 0.038041 0.043960 0.073281 0.006885 0.071183 -0.019883 -0.015473 -0.071415 -0.041679 -0.009599 0.024085 -0.026569 0.060928
ipod -0.022782 0.009869 0.000659 0.025373 -0.007623 0.025866 -0.004709 0.010283 -0.015944 0.002343 0.008250 0.003782 -0.016840 -0.001523 -0.009585 0.018619 0.004894 0.006604 -0.007028 0.014133 -0.002189 0.031746 -0.010719 0.017439 -0.009261 0.025562 -0.004852 -0.010079 0.014651 0.010316 0.005912 -0.010717 0.002607 -0.001393 0.013438 -0.004507 0.006605 0.024379 0.019059 -0.000337 0.003529 0.015105 -0.020969 0.005434 0.000858 -0.008253 -0.000983 0.018626 -0.006866 0.012339 -0.002725 -0.011882 -0.015536 0.020314 0.017840 -0.005664 -0.013376 -0.003592 0.001597 0.020632 0.000282 -0.002939 -0.014371 0.001321 0.009905 -0.001943 -0.009962 -0.003690 0.022953 0.016032 -0.001167 0.006530 -0.000037 0.013941 0.005168 -0.013245 0.003384 0.020607 -0.006327 0.025491 0.010960 0.011855 0.004117 0.010532 0.006298 0.008342 -0.011965 0.017802 0.013567 0.029409 -0.004049 0.030964 -0.013371 0.001004 -0.029183 -0.011669 -0.006344 0.007769 -0.013215 0.023706
key -0.028790 0.007468 -0.001300 0.038157 -0.013204 0.045287 -0.010270 0.012027 -0.023189 -0.004225 -0.000794 0.005893 -0.022739 -0.001886 -0.007236 0.018481 0.001852 0.003740 -0.015207 0.010132 0.004325 0.036572 -0.024143 0.017881 -0.003127 0.037163 -0.009087 -0.007714 0.011875 0.009958 0.013432 -0.020862 -0.001096 -0.012876 0.019461 0.000805 0.006981 0.032367 0.008433 -0.001555 0.013051 0.008530 -0.024193 0.005123 -0.001346 -0.000577 -0.005874 0.020893 0.004542 0.012935 -0.004852 -0.020597 -0.022105 0.023270 0.021575 -0.006055 -0.019252 -0.005856 0.005441 0.027906 -0.008707 0.000961 -0.014426 -0.001226 0.014967 -0.003743 -0.005630 -0.008128 0.030831 0.015495 -0.005420 0.000995 -0.006762 0.017921 0.010862 -0.014322 0.009303 0.013226 -0.002685 0.020927 0.014969 0.007430 0.003700 0.002140 -0.002623 0.005244 -0.015475 0.024692 0.027751 0.031589 0.011619 0.035835 -0.012652 -0.015024 -0.043204 -0.016815 -0.006012 0.018170 -0.013227 0.033449
theater -0.100967 0.019473 0.023963 0.129564 -0.037187 0.122732 -0.034572 0.056742 -0.077171 -0.014363 0.018239 0.008863 -0.072278 -0.027779 -0.028964 0.048936 0.019009 0.023938 -0.035157 0.040375 -0.005715 0.106367 -0.051198 0.059162 -0.016176 0.092700 -0.020629 -0.021247 0.033201 0.047015 0.053770 -0.057819 -0.007716 -0.021459 0.054690 -0.021589 0.024744 0.088325 0.030292 -0.006666 0.030556 0.025605 -0.077116 0.022018 0.006542 0.003535 0.022298 0.058010 -0.005116 0.048178 -0.024940 -0.048720 -0.066378 0.059055 0.068541 -0.013193 -0.056442 -0.004172 0.019102 0.056472 -0.003708 -0.021365 -0.027750 0.000254 0.045175 -0.019261 -0.009868 -0.012238 0.072840 0.057147 -0.023683 0.024939 -0.006059 0.062479 0.041158 -0.042182 0.015782 0.078431 0.000179 0.058298 0.017404 0.049065 -0.004049 0.007326 -0.000360 0.024444 -0.058863 0.068719 0.063047 0.120583 0.012868 0.101444 -0.040634 -0.010718 -0.109141 -0.054363 -0.010707 0.033958 -0.036703 0.088252
lcd -0.018264 -0.002083 0.002368 0.027598 -0.009967 0.022150 -0.010053 0.014222 -0.003991 -0.006976 0.003317 0.003328 -0.009563 0.000021 -0.007238 0.008417 0.005769 0.001287 -0.010871 0.003666 -0.004134 0.012947 -0.016329 -0.000088 0.001887 0.017592 -0.000096 -0.006913 0.002856 0.010188 0.009393 -0.012290 -0.006522 -0.000518 0.003901 -0.005149 0.006384 0.014635 -0.004874 0.002221 0.005306 0.007623 -0.011751 0.010598 0.008405 0.000023 0.004577 0.005775 0.003392 0.005470 -0.009153 -0.013929 -0.005277 0.012163 0.008113 0.002849 -0.012178 -0.001188 -0.001181 0.005312 -0.003197 0.001369 -0.005475 0.000337 0.007776 -0.005482 0.003553 -0.010367 0.009323 0.013580 -0.004155 0.008091 -0.000027 0.007719 0.011451 -0.014352 -0.002255 0.012435 0.004110 0.008594 0.007022 0.005019 -0.002850 -0.001218 -0.001007 0.010926 -0.016493 0.009377 0.014397 0.012764 0.006309 0.018540 -0.004175 -0.007124 -0.017388 -0.014492 -0.000849 0.004550 -0.009924 0.019969
signal -0.035932 0.010769 0.006788 0.036805 -0.022042 0.046728 -0.012317 0.013626 -0.024588 -0.002682 0.001296 -0.000309 -0.024964 -0.006656 -0.014483 0.028051 0.013641 0.008427 -0.012993 0.019340 0.000676 0.034304 -0.018136 0.015075 -0.009250 0.037794 -0.010112 -0.014073 0.011906 0.014823 0.021795 -0.028863 -0.001578 -0.008313 0.030453 -0.002184 0.010858 0.040261 0.015040 -0.001819 0.010012 0.006605 -0.027829 0.007028 0.002264 -0.000793 -0.002972 0.029051 0.005832 0.017005 -0.001595 -0.021495 -0.026530 0.026674 0.023356 -0.002619 -0.024503 -0.001648 0.003290 0.021098 -0.000383 -0.003973 -0.014982 -0.006347 0.018785 -0.001996 -0.003511 -0.001122 0.031396 0.023036 -0.011193 0.009377 -0.004428 0.014501 0.008061 -0.012060 0.013108 0.023776 -0.004015 0.025529 0.005184 0.010159 -0.002151 0.006206 0.009025 0.008572 -0.019424 0.018679 0.031519 0.044923 0.009710 0.037941 -0.014602 -0.004654 -0.035385 -0.016742 -0.011371 0.010385 -0.013530 0.029847
program 0.005076 0.001055 0.000667 -0.009631 0.007031 -0.004911 0.007440 -0.006689 -0.003667 0.009688 0.003229 0.004978 0.002507 0.002842 0.005480 0.002677 0.004272 -0.002072 0.000151 -0.002632 0.003249 -0.009189 -0.000452 0.003975 0.001233 -0.006941 -0.002299 -0.007337 -0.002885 -0.000699 0.003390 0.002830 0.001510 0.001442 -0.000013 0.000214 0.004807 0.004779 0.002870 -0.002398 0.002523 0.001211 -0.005531 -0.007697 -0.008770 -0.005711 0.000856 0.004891 0.003954 -0.005702 0.007755 -0.001457 -0.003972 -0.007705 -0.002181 -0.004944 -0.000827 -0.006112 0.006389 0.003492 0.002346 0.003083 -0.000441 0.001983 -0.001058 -0.002393 -0.005369 0.004462 0.000066 -0.010453 -0.000080 0.001385 0.006761 -0.001215 -0.006021 0.004751 0.003247 0.003460 -0.002023 0.009571 0.004449 -0.002033 0.006136 0.003210 0.009541 0.000539 0.012757 -0.004990 -0.004283 0.008792 0.000421 0.000087 0.005601 -0.007812 0.005504 -0.004493 -0.002969 -0.000026 -0.002474 -0.001748
light 0.008217 -0.002588 -0.009686 0.001023 0.000187 -0.005301 -0.001909 -0.004154 -0.001476 0.011152 -0.001490 -0.002299 0.000497 0.001357 0.002189 0.003702 0.002897 -0.000368 0.003115 -0.003265 -0.005393 0.000406 0.002225 -0.000378 -0.001616 -0.002022 0.000761 -0.010871 0.002286 0.001562 -0.005572 0.008192 0.000145 -0.001732 -0.001571 0.003811 0.003553 0.000974 0.002383 -0.004555 -0.001698 0.004809 0.003498 -0.003751 -0.007184 -0.001926 -0.004727 0.007804 -0.003530 -0.009472 0.007974 -0.003652 -0.001663 -0.001548 -0.004633 -0.002481 -0.002430 -0.006646 -0.004637 -0.002249 -0.000747 -0.000757 0.000541 0.000592 -0.004110 0.001620 -0.001469 -0.008539 -0.003274 -0.011134 0.007388 -0.000560 0.008624 -0.003106 0.004363 -0.007629 -0.004185 -0.013185 -0.002436 0.003554 0.008977 0.002199 0.010091 -0.002241 0.001320 -0.005669 0.012974 -0.001206 -0.005738 -0.001034 -0.001465 -0.008557 -0.002017 -0.009897 0.001348 -0.000716 -0.005535 -0.004714 -0.003999 0.000377
money 0.003410 -0.001219 -0.001243 -0.000713 0.002180 -0.005661 -0.001097 0.004932 -0.001714 0.001611 0.000266 -0.001381 0.001854 -0.000018 0.001288 0.001768 0.000335 -0.000319 0.001311 -0.001867 0.004439 -0.000015 0.001633 0.003163 0.004173 -0.002930 -0.001172 -0.000036 0.002328 -0.004751 0.000848 0.006080 0.003806 0.004752 -0.005534 0.004991 -0.005563 0.000577 0.000560 -0.002857 -0.003169 -0.003903 0.003251 0.003343 -0.002868 -0.003334 -0.001946 0.003315 0.003194 -0.000825 0.001762 -0.003552 0.003317 -0.000128 0.000222 -0.002607 -0.002114 0.002116 -0.003107 0.000687 0.003324 -0.000180 -0.001510 -0.000661 -0.004795 0.001355 0.002609 -0.000690 0.001884 0.004214 0.003152 -0.005260 -0.002316 -0.002274 -0.001050 -0.002810 -0.003259 -0.000384 -0.002845 0.001121 -0.001651 -0.004639 0.004089 -0.004729 -0.000626 -0.002624 0.002777 0.001668 -0.003521 -0.000925 -0.000991 -0.000700 0.002654 -0.003769 0.004297 0.002978 -0.001774 0.001371 0.004833 0.000305
picture -0.007209 0.002550 -0.004731 0.006900 -0.006794 0.004505 -0.004204 0.000840 -0.002159 -0.001338 -0.002539 -0.001397 -0.004522 -0.003714 0.003574 -0.000147 0.004118 0.003718 0.001455 0.003475 -0.005669 -0.001067 -0.009516 0.007518 0.003237 0.004034 -0.003682 -0.007080 0.000878 -0.004313 0.002672 -0.005614 -0.001705 -0.000162 0.001866 0.004205 0.005223 0.000306 0.001763 -0.003615 -0.004830 0.004281 0.000420 -0.001663 -0.004398 -0.002206 -0.006439 0.006608 -0.006614 0.002667 -0.001164 -0.002105 -0.009653 0.004620 0.004310 -0.003612 0.000609 -0.001537 0.005611 0.003685 -0.003176 0.002554 -0.008945 -0.001176 -0.001587 0.003402 -0.009983 -0.002800 0.005269 -0.000967 0.004232 -0.007507 0.001273 0.001812 -0.001263 -0.005178 0.002800 0.001020 -0.003039 0.006553 0.001167 -0.001999 0.004627 -0.002424 0.005250 0.000989 -0.002650 -0.001838 0.003713 0.013798 -0.006874 0.004708 -0.004091 -0.006400 0.000188 0.000510 0.001363 0.001380 -0.004419 0.003380
star -0.000817 -0.001105 -0.006956 0.000208 -0.000420 -0.002815 0.003634 -0.001462 0.002228 0.000668 0.003981 -0.003393 0.002042 -0.002253 0.005249 0.004823 0.005395 0.004888 0.001052 0.001288 -0.002512 -0.005916 0.001136 0.000469 0.002270 0.003985 0.001655 -0.001399 0.001330 -0.006610 0.000464 0.002084 0.007781 0.003675 0.001426 0.001386 -0.000395 0.000463 0.001095 -0.005891 -0.005944 0.007888 -0.004776 -0.005849 -0.004869 -0.007485 -0.003249 0.007704 0.001095 -0.003152 0.007107 -0.003711 -0.003076 -0.003656 0.002361 -0.001148 0.004220 -0.000891 0.001985 0.005182 -0.002887 -0.001095 -0.003048 -0.003546 -0.008312 -0.001210 -0.007509 -0.004717 -0.002043 0.000192 0.002713 -0.004281 0.000004 0.005206 -0.001682 0.001077 0.006475 -0.002887 -0.009728 0.006179 0.005278 -0.002497 0.004377 -0.002634 0.010243 0.002062 0.000214 0.000485 -0.002216 0.005305 0.001104 0.001025 0.002981 -0.008135 -0.002900 0.000769 -0.004039 -0.000928 -0.004553 0.003859
extender -0.021353 0.004777 0.013302 0.013792 -0.010677 0.030333 -0.003770 0.004244 -0.019774 0.004583 0.003278 0.004054 -0.009773 -0.001967 -0.008308 0.019069 0.006975 0.008776 0.000540 0.008788 0.001350 0.016222 -0.010827 0.013317 -0.004778 0.025216 -0.002766 -0.012418 0.010764 0.009900 0.009506 -0.014864 0.008068 -0.006533 0.018947 0.002932 0.003040 0.028346 0.013775 -0.002777 0.004440 0.003763 -0.019499 -0.003976 0.006268 0.000069 0.001960 0.013305 -0.000274 0.013302 -0.008035 -0.007454 -0.013839 0.014674 0.017954 0.001576 -0.009964 0.003051 0.005543 0.019966 -0.003884 -0.004149 -0.006850 0.001439 0.011113 -0.001291 -0.006043 0.002083 0.011529 0.007197 -0.002190 0.001880 0.000836 0.001672 0.006491 -0.005293 0.015514 0.020043 -0.001010 0.012267 -0.000918 0.006667 -0.006868 0.002989 0.003193 0.001937 -0.010529 0.009569 0.019755 0.034777 0.007321 0.026075 -0.005996 0.000170 -0.020027 -0.007789 -0.002953 0.004438 -0.006821 0.017495
hard 0.004083 0.001565 -0.009901 0.004621 -0.006761 0.002278 -0.004310 0.003953 -0.004625 0.004604 0.002836 -0.000624 -0.001582 -0.007465 0.003362 0.004507 -0.001719 -0.001719 0.000134 -0.008878 -0.000906 -0.003771 -0.001987 0.007390 0.000455 -0.002867 0.004929 -0.007734 0.004356 -0.004965 0.003071 0.003992 -0.006737 -0.003560 -0.006198 -0.003129 0.005615 -0.000372 0.002183 -0.003982 0.001370 0.005715 0.003271 0.000931 -0.005262 -0.002591 -0.001166 0.009279 0.002724 -0.010947 0.007128 -0.001935 -0.006171 -0.000129 -0.001073 0.005539 0.002628 -0.015331 0.005189 0.005025 -0.003197 0.005406 -0.006822 -0.002787 -0.010471 -0.000563 -0.008218 -0.014250 0.006977 -0.002396 0.004551 -0.007660 -0.001752 0.000503 0.011754 -0.001869 0.000390 -0.003934 -0.005936 0.006891 0.006705 -0.000865 0.013556 -0.012036 -0.001674 -0.002423 0.015226 -0.000826 0.001805 -0.003259 0.005914 -0.004418 0.001356 -0.016489 -0.005821 -0.003603 -0.003802 0.002076 -0.006354 0.001276
radio -0.043128 0.013952 0.009698 0.047329 -0.018404 0.059578 -0.018686 0.015153 -0.039215 -0.000388 0.006374 0.002512 -0.030625 -0.009145 -0.011267 0.030142 0.014168 0.014148 -0.012286 0.021384 -0.004453 0.047324 -0.033796 0.034035 -0.010899 0.049562 -0.017793 -0.021862 0.022668 0.014665 0.021876 -0.025367 0.008002 -0.013193 0.034480 -0.002969 0.012480 0.046012 0.025799 -0.014402 0.008295 0.023309 -0.033681 0.004540 -0.000608 -0.000233 0.004670 0.035592 -0.006406 0.018298 -0.007614 -0.023832 -0.038126 0.028640 0.028342 -0.008224 -0.023772 -0.009884 0.009195 0.030107 -0.005178 -0.005984 -0.020640 -0.004355 0.014465 -0.010223 -0.018655 -0.008811 0.041244 0.017724 -0.008682 0.006602 -0.002329 0.024187 0.013887 -0.024815 0.013767 0.032228 -0.007731 0.031723 0.018456 0.014775 0.004894 0.012034 0.006653 0.010690 -0.019952 0.026444 0.027960 0.065235 -0.001233 0.045116 -0.018462 -0.008698 -0.047896 -0.032583 -0.008919 0.015131 -0.019276 0.042044
original -0.018765 0.000632 -0.000014 0.024929 -0.007324 0.019068 -0.007084 0.010069 -0.014988 0.007134 0.007172 0.006865 -0.014850 -0.006832 -0.005953 0.010845 0.002151 0.006871 -0.009360 0.008929 -0.004575 0.016009 -0.009938 0.008619 -0.005217 0.015182 -0.000883 -0.006547 0.004834 0.007962 0.009796 -0.006621 0.003207 -0.007654 0.013045 -0.005632 0.010718 0.015224 0.010375 0.002962 0.005231 0.002687 -0.013955 0.004464 -0.000447 -0.006556 0.003282 0.015125 -0.001357 0.008323 -0.000434 -0.007111 -0.012699 0.008880 0.009177 -0.001351 -0.006861 -0.006686 0.005367 0.008584 0.001615 0.003893 -0.005631 -0.000134 0.002831 -0.004859 -0.007675 -0.000542 0.014343 0.011826 -0.000141 -0.001413 0.002639 0.014195 0.010248 -0.011477 0.003219 0.015078 0.002098 0.013250 0.008543 0.000869 -0.001370 -0.003999 0.004325 0.007390 -0.006808 0.007083 0.014865 0.019571 0.008942 0.015402 -0.002473 -0.002914 -0.017965 -0.013761 -0.002918 0.004904 -0.005464 0.016547
house -0.029476 0.011570 0.008485 0.034543 -0.016942 0.038495 -0.007683 0.016576 -0.022766 -0.001418 0.007797 0.002102 -0.021955 -0.005860 -0.004178 0.016266 0.004020 0.007522 -0.002597 0.013100 -0.000271 0.025476 -0.017846 0.017546 -0.006508 0.033446 -0.005255 -0.005963 0.013787 0.011579 0.017417 -0.022347 0.003716 -0.003099 0.023226 0.001476 0.010714 0.029221 0.014663 -0.007239 0.010857 0.006001 -0.020424 0.009079 0.006128 -0.000785 0.002006 0.013854 0.000194 0.014417 -0.003791 -0.014046 -0.017032 0.018715 0.020069 -0.002645 -0.013504 0.000795 -0.000471 0.014504 -0.003110 -0.004008 -0.015698 -0.007338 0.013552 0.001735 -0.004556 -0.005928 0.025073 0.017637 -0.006723 0.010071 -0.008103 0.011467 0.005536 -0.016767 0.004806 0.017760 -0.000804 0.023553 0.002374 0.004726 -0.001166 0.003630 0.001756 0.005454 -0.016386 0.013736 0.022599 0.032793 0.004133 0.031254 -0.009242 -0.004324 -0.029939 -0.015464 -0.005291 0.013434 -0.012562 0.030348
video -0.058962 0.006555 0.014939 0.082574 -0.029214 0.064533 -0.026572 0.029014 -0.033859 -0.015816 0.000216 0.005330 -0.040079 -0.008812 -0.019417 0.027826 0.008429 0.018396 -0.016925 0.023489 -0.003388 0.051490 -0.030038 0.017396 -0.003389 0.053760 -0.015690 -0.011610 0.018284 0.022158 0.026376 -0.035241 -0.009719 -0.015470 0.037373 -0.013201 0.012502 0.050068 0.000788 0.002404 0.021575 0.012439 -0.038450 0.019695 0.016595 0.009708 0.005221 0.036555 0.004679 0.027703 -0.018775 -0.028685 -0.032150 0.042198 0.036962 0.000314 -0.033111 -0.003655 0.011903 0.030065 -0.002552 -0.009113 -0.015949 -0.012217 0.027156 -0.007942 -0.000102 -0.010651 0.041001 0.032254 -0.020524 0.014652 -0.005408 0.029977 0.026736 -0.025647 0.007275 0.037001 0.010675 0.021909 0.012945 0.031397 -0.007357 0.004762 -0.012305 0.020140 -0.044434 0.030474 0.040119 0.055088 0.008938 0.063046 -0.026380 -0.007544 -0.063294 -0.026007 -0.002073 0.017142 -0.008499 0.050401
customer -0.016202 0.002882 0.000905 0.013302 -0.007201 0.024528 0.001570 0.001455 -0.014317 0.012849 0.004182 0.001554 -0.004909 -0.009555 -0.008549 0.007960 0.012141 0.008452 -0.008000 0.002674 -0.002279 0.015977 -0.016356 0.009552 -0.002545 0.022843 -0.001041 -0.019592 0.010760 0.004542 0.008579 -0.013066 0.000842 -0.005625 0.019984 0.006039 0.016008 0.013076 0.007771 -0.009939 0.002182 0.008411 -0.007052 0.001007 -0.000239 0.000869 -0.000702 0.021635 -0.001681 0.002145 0.006444 -0.014135 -0.020501 0.000042 0.007259 -0.003290 -0.015406 -0.011308 0.008512 0.020467 -0.006613 -0.006092 -0.008968 -0.004910 0.000305 -0.001098 -0.014164 -0.006282 0.016265 -0.001996 -0.007329 -0.008023 0.002436 0.011301 0.002641 -0.010942 0.011060 0.012442 -0.006811 0.009703 0.004768 -0.000753 0.008247 0.001195 0.004063 0.006527 -0.002099 0.008019 0.011733 0.035923 -0.003377 0.020511 -0.008176 -0.014299 -0.012552 -0.007932 -0.013973 0.005391 -0.006842 0.014565
transmitter -0.024700 0.008393 -0.000803 0.020196 -0.006848 0.025039 -0.000159 0.002876 -0.017443 0.005006 0.009267 0.005363 -0.020012 0.001272 -0.004552 0.019044 0.004121 0.005856 -0.004157 0.009719 0.002615 0.027548 -0.014666 0.010558 -0.006341 0.022568 -0.009698 -0.011465 0.010749 0.003649 0.012380 -0.008134 0.000031 -0.007639 0.012809 -0.000899 0.004864 0.028326 0.016375 -0.003045 0.006089 0.013595 -0.013515 0.004640 -0.002685 -0.005079 -0.004233 0.017611 -0.005799 0.009853 0.002332 -0.017781 -0.019253 0.016473 0.012745 0.002122 -0.012283 -0.002192 0.005470 0.021061 0.000353 -0.005489 -0.013488 -0.008695 0.008185 -0.006759 -0.010567 0.000069 0.017925 0.009205 -0.006804 0.005689 0.000400 0.012718 0.003951 -0.017330 0.002570 0.016795 -0.005011 0.022668 0.008783 0.005950 0.002623 0.000151 0.006878 0.008924 -0.010723 0.008841 0.018030 0.027614 0.002921 0.021054 -0.010536 -0.001013 -0.020609 -0.012043 0.000740 0.006770 -0.006862 0.019369
menu -0.017673 0.002424 -0.004928 0.017871 -0.008739 0.018561 -0.006310 0.007928 -0.007705 0.002509 0.002649 -0.001839 -0.014372 -0.008377 -0.003498 0.008972 0.005817 0.000206 -0.009234 0.006880 0.001143 0.008299 -0.017918 0.012843 -0.002482 0.021915 -0.006669 -0.010166 0.010380 -0.001188 0.005330 -0.003793 0.001926 -0.004906 0.014674 0.001117 0.009806 0.020033 0.002886 -0.001466 0.007481 0.007536 -0.007165 -0.000791 -0.003883 -0.000225 0.002592 0.019789 0.003602 0.004828 -0.003007 -0.010159 -0.019055 0.003145 0.008833 0.005132 -0.005995 -0.010135 0.008669 0.013532 0.001186 0.005691 -0.012145 -0.004208 0.003646 0.004412 -0.007723 -0.004873 0.021163 0.006836 -0.001853 0.002955 -0.000006 0.012975 0.011552 -0.011649 0.004322 0.008625 -0.008178 0.011474 0.006145 0.004124 0.005295 0.001923 0.006485 -0.000584 -0.005737 0.011777 0.016367 0.023739 0.005186 0.012527 -0.008295 -0.010520 -0.020680 -0.017498 -0.008256 0.007388 -0.011586 0.014427
case -0.004330 0.006627 -0.002255 0.003059 -0.000367 0.010221 0.003315 0.004815 -0.012090 0.002933 0.003632 0.003184 -0.002338 0.002444 -0.003051 0.004345 0.003719 -0.000290 -0.000754 0.001940 -0.003743 0.005483 -0.001472 0.005490 -0.007877 0.008894 -0.002885 -0.012428 0.009264 -0.000606 0.006182 -0.002808 -0.003128 -0.004703 0.004085 0.004165 0.002148 0.006234 0.011502 -0.003528 -0.003508 0.000475 -0.002291 0.002982 -0.000556 -0.000521 -0.000278 0.012269 -0.006167 -0.004385 0.006698 -0.002105 -0.006039 -0.001819 0.007897 0.001746 -0.007563 -0.008194 -0.000323 0.010551 0.000983 0.001815 -0.009123 -0.002929 -0.006392 0.004832 -0.005304 -0.003015 0.006329 -0.004162 -0.002639 -0.006810 0.005072 0.003403 0.000096 -0.007550 0.001927 -0.000852 -0.006215 0.005559 0.006956 -0.003544 0.003202 0.001769 0.010429 0.003118 0.000870 0.000070 0.000967 0.016055 -0.003296 0.007922 -0.004073 -0.012293 -0.004612 -0.002518 -0.009131 0.001626 -0.001348 0.002694
cd -0.053362 0.016684 0.010743 0.078660 -0.032097 0.069449 -0.019711 0.032488 -0.042401 -0.012290 0.006275 0.002301 -0.043913 -0.014279 -0.012212 0.029438 0.013736 0.022640 -0.012445 0.027088 -0.007625 0.062809 -0.033497 0.032778 -0.010118 0.057458 -0.014992 -0.012560 0.014189 0.020493 0.033394 -0.036373 -0.001982 -0.011873 0.034419 -0.008681 0.014159 0.055169 0.015814 -0.002194 0.020948 0.016712 -0.044010 0.013565 0.011834 0.008012 0.007109 0.037561 -0.001426 0.023869 -0.019437 -0.029137 -0.043457 0.034823 0.039673 0.002060 -0.035705 0.002422 0.014485 0.038593 -0.002154 -0.003733 -0.021322 -0.005027 0.028160 -0.005928 -0.003188 -0.001501 0.047572 0.037798 -0.014498 0.016338 -0.009236 0.033716 0.024390 -0.024232 0.019921 0.049567 0.003811 0.037902 0.010342 0.026615 -0.009342 0.004302 -0.003656 0.024145 -0.039171 0.031534 0.040071 0.068693 0.014717 0.069156 -0.018062 -0.002880 -0.062886 -0.031609 -0.003470 0.022374 -0.019047 0.051451
nikon -0.009154 0.007590 0.006323 0.004207 -0.000979 0.015683 -0.003812 -0.001103 -0.015812 0.009517 0.000863 -0.003643 -0.001831 0.000079 -0.006421 0.009100 0.000061 0.007424 0.002824 -0.000942 0.002726 0.010135 -0.011369 0.007198 -0.001496 0.010058 -0.006008 -0.010107 0.007075 -0.000002 0.008665 -0.005889 0.000439 0.001109 0.007424 0.003269 0.005684 0.009881 0.006310 -0.008277 0.000743 0.005480 -0.005700 -0.001093 -0.001239 -0.007668 -0.005702 0.015216 -0.001809 -0.002250 0.009309 -0.012023 -0.014642 0.002406 0.009735 -0.004238 -0.005479 -0.002269 0.000950 0.007003 -0.005286 0.002156 -0.004378 -0.001405 -0.004581 -0.003027 -0.011854 0.003314 0.007536 -0.003263 -0.000993 -0.005516 0.005347 -0.000936 -0.000931 -0.001902 0.008224 0.004231 -0.009117 0.004067 0.002808 0.005597 0.004217 -0.000504 0.005635 -0.003343 -0.000267 0.004629 0.001101 0.019011 -0.001695 0.006366 0.003678 -0.008504 -0.013172 -0.011956 -0.007390 0.001059 -0.007175 0.007910
multiple -0.025590 0.005133 -0.001266 0.033257 -0.017682 0.039722 -0.008380 0.009960 -0.026658 0.005047 0.009109 0.008695 -0.021696 -0.007387 -0.005541 0.023575 0.003855 0.005046 -0.010498 0.008256 -0.005989 0.031005 -0.023615 0.019704 -0.007447 0.027177 -0.007638 -0.018594 0.013332 0.005843 0.017947 -0.018814 -0.003543 -0.008872 0.025341 -0.001407 0.016497 0.029557 0.009602 -0.004485 0.010180 0.009205 -0.020559 0.001503 -0.000138 -0.000832 0.005473 0.026733 -0.002430 0.004884 -0.001617 -0.020956 -0.023323 0.018042 0.019156 -0.002435 -0.020108 -0.008891 0.000255 0.026371 -0.001783 -0.001690 -0.019474 -0.002384 0.012140 -0.004260 -0.008652 -0.008511 0.025797 0.015100 -0.004104 0.003883 -0.001342 0.021249 0.014783 -0.017527 0.006889 0.018372 -0.001327 0.024032 0.010543 0.014812 0.010451 -0.005561 0.000259 0.010763 -0.010753 0.021085 0.020541 0.037500 0.008514 0.031847 -0.013645 -0.016815 -0.035030 -0.016884 -0.012539 0.014013 -0.017461 0.030281
front -0.052358 0.022072 0.011564 0.069746 -0.028887 0.073477 -0.018136 0.021420 -0.052962 0.008585 0.003796 0.001706 -0.034464 -0.007616 -0.012832 0.040859 0.012359 0.014287 -0.016136 0.022166 -0.005600 0.055006 -0.045011 0.036911 -0.013976 0.065223 -0.024563 -0.029381 0.022121 0.024805 0.025023 -0.036965 -0.004402 -0.020041 0.037924 -0.001932 0.026771 0.058215 0.022995 -0.011130 0.020806 0.023597 -0.041418 0.005081 -0.000425 -0.007300 0.000586 0.048917 -0.004599 0.022322 -0.009103 -0.041882 -0.045076 0.032016 0.041083 -0.011214 -0.035186 -0.012695 0.007462 0.044939 -0.007026 0.000239 -0.030254 -0.007615 0.015335 -0.002453 -0.019222 -0.011139 0.049383 0.021896 -0.012349 -0.000585 -0.001762 0.021084 0.022722 -0.030156 0.024093 0.037854 -0.008170 0.045054 0.013099 0.019387 0.003791 0.002007 0.011449 0.018208 -0.031686 0.038727 0.039198 0.080561 0.009525 0.067188 -0.018827 -0.019002 -0.068362 -0.034059 -0.018925 0.021767 -0.030056 0.057624
service -0.043409 0.000416 0.003848 0.050853 -0.012515 0.046558 -0.016001 0.015662 -0.027070 0.005446 0.000150 0.007752 -0.030249 -0.012609 -0.013742 0.018406 0.011071 0.014936 -0.007443 0.008017 -0.006229 0.044074 -0.024813 0.024962 -0.002764 0.038976 -0.012300 -0.016976 0.017651 0.008707 0.015457 -0.027116 -0.009782 -0.005414 0.028318 0.001244 0.017090 0.045378 0.009946 -0.006908 0.010312 0.017752 -0.023984 0.004160 0.002952 -0.004669 0.008173 0.027067 -0.004400 0.016265 -0.007289 -0.028068 -0.029527 0.017660 0.030899 -0.002538 -0.028521 -0.005948 0.009781 0.024591 -0.008581 -0.002289 -0.011531 -0.001591 0.017342 -0.008139 -0.005387 -0.004470 0.031781 0.017207 -0.010444 0.011228 -0.003119 0.015968 0.017405 -0.026657 0.013822 0.033922 0.003724 0.023008 0.013747 0.009453 0.008811 0.003938 -0.004662 0.010950 -0.022704 0.023289 0.024019 0.050487 0.003391 0.041746 -0.015892 -0.008452 -0.049891 -0.016247 -0.000455 0.008739 -0.015265 0.031476
watch -0.072450 0.001554 0.017982 0.106897 -0.031161 0.076810 -0.035896 0.044014 -0.030231 -0.018378 -0.001737 0.009878 -0.047262 -0.012400 -0.017245 0.034676 0.006636 0.014629 -0.019953 0.036163 -0.002106 0.066231 -0.046041 0.012169 -0.007948 0.072385 -0.022401 -0.007577 0.015439 0.032457 0.044655 -0.036269 -0.019804 -0.020335 0.043505 -0.020852 0.018783 0.056614 -0.007351 0.000766 0.023135 0.013873 -0.045855 0.032565 0.023837 0.014676 0.011161 0.033020 0.006102 0.032735 -0.033371 -0.042025 -0.042127 0.043609 0.046946 0.010475 -0.039664 0.005778 0.008919 0.030825 0.007933 -0.006902 -0.024380 -0.012494 0.043124 -0.002463 0.016057 -0.015868 0.046311 0.040064 -0.025490 0.023766 -0.020113 0.043364 0.036421 -0.032462 0.004382 0.052874 0.022347 0.028092 0.018202 0.042938 -0.015087 0.002203 -0.022781 0.019357 -0.055712 0.039430 0.045115 0.051005 0.021504 0.084685 -0.026096 -0.006502 -0.088479 -0.045084 -0.003111 0.016966 -0.019331 0.059209
pc -0.020504 0.006787 0.007201 0.018222 -0.007456 0.029468 -0.009469 0.012713 -0.020231 -0.000748 -0.000351 0.002731 -0.009950 0.001697 -0.003594 0.016027 0.007957 0.010252 -0.001873 0.006648 0.006438 0.017427 -0.012452 0.010991 -0.007230 0.022442 -0.008598 -0.007037 0.011217 0.006333 0.010420 -0.016076 0.007919 -0.004199 0.022007 -0.004113 0.011634 0.022136 0.018493 -0.001843 0.010428 0.010202 -0.014344 0.004196 -0.002642 -0.004391 0.004307 0.009691 -0.000809 0.007131 -0.003965 -0.019147 -0.019402 0.018294 0.020102 -0.000186 -0.018021 0.000335 0.002082 0.014907 -0.006969 -0.000911 -0.005449 -0.000635 0.015744 -0.000199 -0.010028 -0.003803 0.017691 0.014662 -0.007912 0.008870 0.001045 0.012191 0.000452 -0.006188 0.007346 0.018714 -0.003408 0.014789 0.000996 0.000424 -0.000575 0.003991 0.003934 0.007541 -0.014799 0.013359 0.020206 0.032022 0.005544 0.030636 -0.006869 -0.002591 -0.028822 -0.013038 -0.005175 0.010313 -0.016826 0.025129
option -0.012195 0.004668 -0.005822 0.012010 -0.001452 0.012738 -0.000708 -0.001493 -0.011800 0.009906 -0.000851 0.001573 -0.004787 0.002552 -0.004708 0.013375 0.003516 0.002255 -0.002617 -0.002680 -0.003253 0.004838 -0.011580 0.010435 -0.002246 0.006102 0.001735 -0.007443 0.006875 -0.000105 -0.000372 -0.004594 0.000925 -0.004326 0.001812 -0.000968 0.006372 0.009142 0.006379 -0.001716 0.001862 0.003823 -0.008014 0.001195 0.000043 0.000640 -0.000142 0.013735 -0.004303 -0.004217 0.009472 -0.011531 -0.009448 -0.002739 0.003965 -0.005142 -0.009717 -0.007285 0.002129 0.005737 -0.003814 -0.000088 -0.011428 -0.000006 -0.005453 -0.001441 -0.010910 -0.003033 0.006875 0.002847 -0.000412 -0.000927 -0.000407 0.002506 0.008940 -0.010931 0.004341 0.001559 -0.005855 0.005775 0.011059 0.004416 0.006458 -0.000889 0.011012 0.000921 0.004954 0.000847 0.010780 0.017223 -0.001896 0.011777 0.002806 -0.010358 -0.012702 -0.003271 -0.010768 0.005400 -0.008291 0.008633
foot -0.033209 0.010448 0.008338 0.025768 -0.009680 0.037676 -0.003294 0.013277 -0.022762 0.000579 0.004106 -0.000113 -0.024260 0.000597 -0.006318 0.026512 0.005572 0.013468 -0.007799 0.010389 0.000673 0.032385 -0.025403 0.023579 -0.001399 0.038398 -0.016034 -0.019572 0.018367 0.005237 0.016844 -0.025123 0.009119 -0.004802 0.019605 -0.000699 0.013783 0.036350 0.022290 -0.005369 0.004574 0.011966 -0.026492 0.000065 -0.003718 -0.011095 -0.000116 0.026217 -0.003679 0.009332 0.000208 -0.020739 -0.027069 0.022249 0.025727 -0.004574 -0.026054 -0.005127 0.010635 0.029011 -0.012544 0.001415 -0.018359 -0.012031 0.015023 -0.001777 -0.011387 0.001797 0.027132 0.010600 -0.003280 0.006475 -0.004270 0.013430 0.006002 -0.011701 0.015883 0.016525 -0.009705 0.028926 0.007574 0.009392 0.007867 0.010741 0.007018 0.008408 -0.019790 0.025627 0.022095 0.045707 0.003940 0.039466 -0.014301 -0.008887 -0.030664 -0.018586 -0.014085 0.007828 -0.019752 0.034329
couple -0.010761 0.001314 0.003786 0.013122 -0.004450 0.011585 -0.005735 0.000623 -0.014263 0.007014 0.004517 0.004429 -0.007731 -0.006040 -0.006884 0.004311 0.007880 -0.000989 -0.006180 0.005840 0.005101 0.006647 -0.003592 0.012957 -0.007381 0.007091 -0.000851 -0.009411 0.005221 0.000270 0.005414 -0.005925 -0.003698 -0.006595 0.006128 0.001083 0.002699 0.013362 0.012107 -0.006273 0.004460 0.003625 -0.008760 0.002889 -0.001634 -0.007817 -0.001079 0.008981 -0.001016 0.001394 0.001781 -0.005825 -0.005623 0.001697 0.011417 -0.003748 -0.003647 -0.004806 0.004733 0.008692 -0.006206 0.002246 -0.002622 -0.000413 -0.001543 -0.000069 -0.004551 -0.003118 0.010063 0.006149 -0.006646 -0.003747 0.000381 0.001860 0.003718 -0.007955 0.002329 0.008273 -0.000607 0.013432 0.001212 -0.001295 0.002605 -0.000334 0.008774 -0.002661 0.000328 0.003274 0.005398 0.019738 0.000334 0.016634 -0.001835 -0.009768 -0.015002 -0.001748 -0.007971 0.002618 -0.010407 0.014303
press -0.063538 0.014756 -0.002952 0.079825 -0.030029 0.071082 -0.020556 0.032281 -0.053172 0.002679 0.006768 0.013059 -0.052334 -0.017508 -0.015149 0.044133 0.009595 0.011180 -0.021912 0.019202 -0.006525 0.055442 -0.049791 0.040274 -0.014436 0.067799 -0.021618 -0.027866 0.028732 0.014557 0.028477 -0.033870 -0.007667 -0.017132 0.040969 -0.007138 0.032444 0.057211 0.021353 -0.009443 0.020038 0.022589 -0.043723 0.010384 0.002325 -0.003075 0.001376 0.051836 -0.001499 0.007973 -0.000072 -0.049640 -0.054075 0.034828 0.045262 -0.004757 -0.028695 -0.015169 0.005826 0.041893 -0.005633 -0.000100 -0.039406 -0.016862 0.014709 -0.001094 -0.015822 -0.015231 0.051242 0.018255 -0.013241 0.008332 -0.004637 0.036440 0.039120 -0.035087 0.014236 0.027625 -0.005564 0.043302 0.025581 0.027864 0.016508 -0.004440 0.003634 0.014238 -0.016236 0.036572 0.050233 0.070338 0.011774 0.070580 -0.019890 -0.026395 -0.076786 -0.042272 -0.021013 0.018860 -0.031411 0.064800
usb -0.057045 0.022321 0.015305 0.053660 -0.028116 0.062366 -0.009771 0.025051 -0.042745 0.004411 0.009109 0.011071 -0.032512 -0.009756 -0.016786 0.041775 0.010044 0.019800 -0.006088 0.025321 0.003709 0.047089 -0.038476 0.031530 -0.004044 0.055803 -0.015418 -0.021480 0.028111 0.014516 0.029778 -0.035993 0.005566 -0.013493 0.043373 -0.005189 0.020210 0.057566 0.026787 -0.005851 0.017810 0.017593 -0.034071 0.001291 -0.000135 -0.000085 0.003076 0.041641 0.000124 0.021899 -0.009319 -0.035990 -0.039831 0.036353 0.034646 -0.005802 -0.031668 -0.000050 0.009213 0.039405 -0.008562 -0.007194 -0.025094 -0.005540 0.027345 -0.008548 -0.017272 -0.000508 0.039319 0.022583 -0.017553 0.009443 -0.001287 0.023081 0.015015 -0.024832 0.023749 0.040058 -0.004767 0.039458 0.010487 0.012536 0.000182 0.003965 0.012262 0.009244 -0.029301 0.033819 0.042770 0.075886 0.013301 0.066855 -0.013096 -0.009106 -0.065039 -0.025786 -0.016066 0.022619 -0.022896 0.055454
long -0.035111 0.016263 0.009275 0.032625 -0.010451 0.042384 -0.002040 0.014249 -0.025120 0.001559 0.008367 0.003663 -0.021970 -0.006332 -0.008873 0.020118 0.008026 0.010714 -0.004285 0.006875 -0.001676 0.027205 -0.025752 0.024186 -0.008249 0.028494 -0.013253 -0.017440 0.014904 0.005969 0.011715 -0.024710 0.006255 -0.013096 0.023978 0.000495 0.013262 0.040590 0.017323 -0.006119 0.007207 0.011516 -0.024550 0.001117 0.000698 -0.006811 -0.000622 0.023506 0.000698 0.006186 -0.003541 -0.017588 -0.028396 0.023198 0.025311 -0.009685 -0.023623 -0.002050 0.009677 0.023632 -0.008008 -0.006768 -0.014024 -0.011688 0.005292 -0.004167 -0.014127 -0.005001 0.021593 0.008019 -0.009757 -0.002701 0.000566 0.007987 0.011903 -0.016659 0.013612 0.022408 -0.001974 0.027122 0.009396 0.007367 -0.001564 0.003138 0.011837 0.011297 -0.009039 0.020920 0.024705 0.049468 -0.004823 0.036493 -0.006220 -0.007853 -0.030596 -0.017550 -0.008661 0.013607 -0.019863 0.033641
manual -0.020239 0.005472 0.004154 0.013329 -0.010363 0.021794 -0.005944 0.005366 -0.014824 0.005911 0.002466 0.003936 -0.008863 -0.003761 -0.000565 0.012870 0.006196 0.006480 -0.005076 0.001552 0.003813 0.017414 -0.019455 0.017128 -0.004287 0.017225 -0.003875 -0.010348 0.006661 0.005938 0.003716 -0.013392 -0.004081 -0.002442 0.010810 -0.002567 0.012492 0.021889 0.008703 0.000336 0.004742 0.008661 -0.010122 0.001052 -0.001417 -0.003763 0.002755 0.012381 0.001916 0.002461 -0.000173 -0.007535 -0.016866 0.008126 0.008938 -0.006195 -0.010927 -0.008514 0.007812 0.016160 -0.002774 -0.002604 -0.012041 -0.007514 0.004282 -0.004653 -0.007533 -0.006581 0.017816 0.003654 -0.004555 -0.000032 0.005929 0.001474 0.010684 -0.005891 0.009115 0.005874 -0.002468 0.016792 0.006148 -0.000774 0.006890 0.003424 0.010356 -0.000717 -0.007586 0.005243 0.008238 0.024462 0.004659 0.015894 -0.005280 -0.008932 -0.021127 -0.011440 -0.007025 0.008490 -0.011480 0.018388
hand -0.002203 0.008139 -0.006649 0.000580 -0.004557 0.007138 -0.001191 -0.004210 -0.004586 0.008699 0.004901 0.001931 -0.003215 -0.001342 0.002663 0.009296 0.005504 -0.002050 -0.005726 -0.000392 -0.002777 0.005753 -0.006463 0.012171 -0.000565 0.010739 -0.000647 -0.007262 0.011577 -0.001728 -0.000650 -0.000217 0.004124 -0.005359 -0.000191 0.002895 0.007458 0.011647 0.005394 -0.001433 0.000156 0.006677 0.001077 -0.004242 -0.004174 -0.002808 -0.006237 0.008226 -0.004320 -0.002490 0.007986 -0.004709 -0.004846 -0.004889 0.007268 -0.003528 -0.007493 -0.009145 0.000662 0.007352 -0.000817 0.003759 -0.005994 -0.004884 -0.008997 -0.003056 -0.008827 -0.007627 0.005389 -0.008700 0.005633 -0.001420 0.007034 0.002350 0.005734 -0.002519 0.008010 0.002246 -0.011466 0.008164 0.013629 -0.003387 0.011887 0.005399 0.011099 -0.006340 0.003589 0.000899 0.007792 0.015775 -0.003852 0.007165 -0.000420 -0.009830 -0.006000 -0.011382 -0.004514 -0.000794 -0.008649 0.011475
learning -0.004981 0.004714 0.001916 0.001789 -0.006274 0.009974 0.002457 0.000766 -0.012717 0.007088 0.001460 0.002924 -0.007828 -0.002260 -0.001527 0.005294 0.003793 0.006390 -0.004106 -0.000331 0.003026 0.002650 -0.003984 0.009023 -0.002858 0.008096 -0.005937 -0.010929 0.007174 -0.001182 -0.001145 0.002889 0.007227 -0.005162 0.007905 0.003416 0.010697 0.010618 0.010708 0.001776 -0.003482 0.002149 -0.009124 -0.003135 -0.005259 -0.001442 -0.000534 0.007427 0.001126 -0.003502 0.007897 -0.004374 -0.004115 0.002119 0.003440 0.002417 0.001118 -0.005678 0.002139 0.012614 -0.006574 0.002854 -0.004271 -0.001392 -0.001592 0.002435 -0.010191 -0.000033 0.005000 0.003489 0.001405 -0.007415 -0.001100 0.000779 -0.000876 -0.001296 0.005562 0.005555 -0.006300 0.007066 0.001023 0.001395 -0.000046 -0.001809 0.008193 0.002713 0.005937 0.003415 0.006802 0.012777 0.001438 0.008244 -0.002602 -0.002983 -0.006284 -0.007423 -0.004122 0.001008 -0.008999 0.002673
website 0.002621 -0.002013 -0.000720 -0.015893 0.004944 -0.009750 0.007142 -0.009061 0.000101 0.002539 0.003680 0.006605 0.003433 -0.002296 0.003364 -0.002360 0.003799 0.000975 0.006282 -0.005606 0.003808 -0.009181 -0.000739 0.000021 0.000640 -0.006934 0.002776 0.002437 -0.004457 -0.005974 -0.001227 0.009210 0.002813 -0.000494 0.003605 0.005619 0.004291 0.000438 0.001969 0.002982 -0.004938 -0.006242 -0.000099 -0.007726 -0.007434 -0.007402 -0.003464 0.002004 0.000215 -0.005667 0.007264 0.008052 0.001139 -0.002988 -0.005398 -0.006110 0.002766 -0.002385 -0.002803 -0.002206 0.003167 -0.002459 0.004208 -0.001550 -0.001768 -0.003632 -0.006576 0.004851 -0.005887 -0.009694 0.001680 -0.006075 -0.000874 -0.006744 0.000817 0.005318 0.000301 -0.000628 -0.002499 0.000036 -0.000385 -0.013794 0.000589 0.002894 0.007073 -0.009150 0.004376 -0.001386 -0.008001 -0.003043 0.002338 -0.008750 0.003364 -0.001826 0.007325 0.006557 -0.003528 -0.003479 0.000187 -0.006663
iphone -0.010874 0.007170 0.007512 0.009093 -0.007221 0.017897 -0.005650 0.002825 -0.015652 0.002737 0.003632 0.000552 -0.010699 0.002291 0.001044 0.014809 0.001112 0.005014 0.000251 0.005861 0.003065 0.015913 -0.011690 0.011881 -0.005979 0.017520 -0.008026 -0.005970 0.006654 0.003786 0.004113 -0.010300 0.002318 -0.004062 0.015931 0.002804 0.007517 0.014736 0.012755 -0.000585 0.007388 0.011549 -0.010273 0.000791 0.002039 -0.009421 0.003735 0.012738 -0.005165 0.007349 0.003972 -0.006138 -0.017099 0.011882 0.012822 -0.003662 -0.012323 0.001823 0.001850 0.017562 -0.001709 -0.002499 -0.009112 0.000362 0.009145 -0.001733 -0.005475 -0.003892 0.011781 0.009969 -0.002393 0.003257 0.002805 0.004092 -0.002714 -0.010384 0.010483 0.014529 -0.005599 0.011727 0.004190 0.003909 -0.000089 0.008430 0.002334 0.006782 -0.009088 0.009376 0.014646 0.029471 -0.005355 0.015290 -0.003387 -0.005146 -0.014282 -0.005001 -0.010381 0.007189 -0.012855 0.016825
phone -0.004266 0.007609 -0.004083 0.006418 0.002154 0.014483 -0.000446 0.000149 -0.014349 -0.000786 0.003831 -0.001729 -0.003512 0.004584 0.003132 0.008325 0.003844 0.001423 0.000779 -0.001302 0.003543 0.002389 -0.009650 0.010122 -0.006834 0.004075 -0.003265 -0.005015 0.010073 -0.000048 0.004867 -0.003937 0.010537 -0.003782 0.006571 0.000635 0.008546 0.010128 0.009096 -0.005529 0.001164 0.002899 -0.007755 -0.006496 0.001374 -0.004224 0.002043 0.011146 -0.003816 0.001930 0.001515 -0.009279 -0.008230 0.001870 0.005096 -0.004239 -0.006515 0.000160 0.005471 0.011820 -0.007844 0.002792 -0.002749 -0.005955 0.003464 0.002143 -0.008456 0.001032 0.005726 -0.002024 0.001462 0.000702 0.004808 -0.001213 0.004610 0.000542 0.009241 0.001914 -0.007820 0.009881 0.000830 0.001263 0.000906 0.003397 0.004834 0.003957 0.003862 0.004413 0.003208 0.013670 -0.004621 0.007456 -0.004674 -0.005650 -0.006738 -0.001220 -0.000698 0.006595 -0.004968 0.008550
shot -0.042419 0.020939 0.004765 0.033698 -0.021817 0.051041 -0.008711 0.007478 -0.033456 0.011047 0.003931 -0.002260 -0.020159 -0.004110 -0.012768 0.031017 0.015976 0.009441 -0.003100 0.013362 -0.002802 0.036955 -0.031062 0.026359 -0.006144 0.038203 -0.015385 -0.030045 0.020361 0.013939 0.014977 -0.020599 0.003929 -0.014578 0.031489 0.000524 0.013024 0.041208 0.028653 -0.017537 0.004688 0.019930 -0.024402 0.001764 -0.003032 -0.011187 -0.002836 0.030292 -0.002868 0.001309 0.002719 -0.031647 -0.033489 0.016813 0.023741 -0.010547 -0.020683 -0.006823 0.007126 0.030846 -0.008836 -0.001376 -0.020641 -0.012297 0.001718 -0.005271 -0.023522 -0.005841 0.027866 0.010237 -0.006539 0.001900 -0.000760 0.012484 0.012651 -0.024895 0.018356 0.019638 -0.009746 0.027662 0.012378 0.018152 0.008217 0.007734 0.012682 0.009440 -0.015853 0.022553 0.028428 0.063988 -0.000566 0.038568 -0.010956 -0.014435 -0.045892 -0.031961 -0.012728 0.018889 -0.021668 0.039488
range -0.018254 0.007891 0.006823 0.019732 -0.009216 0.028972 -0.001374 0.006889 -0.018934 0.006245 0.003205 0.002406 -0.016153 0.000907 -0.010144 0.015021 0.007096 0.006364 -0.000129 0.001483 0.002973 0.022092 -0.014332 0.012547 -0.001155 0.023029 -0.007917 -0.011549 0.014993 0.008569 0.007739 -0.014324 0.005359 -0.007083 0.019390 -0.000432 0.006460 0.022250 0.015688 -0.001112 0.002653 0.011755 -0.015898 -0.003595 -0.000486 -0.008004 -0.001145 0.014759 -0.001833 0.006637 -0.001254 -0.018264 -0.015725 0.016330 0.010222 -0.006926 -0.012979 -0.002555 0.006661 0.012643 -0.000265 0.001591 -0.007419 -0.006715 0.005101 -0.004750 -0.003484 0.001725 0.012234 0.008386 -0.002425 0.003642 0.004306 0.006703 0.011640 -0.012657 0.009150 0.011610 -0.009072 0.015914 0.001531 0.001738 0.007789 0.003870 0.005121 0.000364 -0.005840 0.009749 0.013508 0.025776 0.002543 0.024244 -0.007833 -0.006384 -0.022038 -0.012942 -0.001715 0.003587 -0.015571 0.016075
audio -0.043367 0.008995 0.011467 0.066087 -0.020768 0.044656 -0.019270 0.028677 -0.024579 -0.014391 -0.001330 0.005154 -0.031169 -0.005633 -0.009305 0.019470 0.006373 0.010221 -0.008824 0.018524 0.002030 0.048950 -0.023707 0.006198 -0.007593 0.037906 -0.015269 -0.003972 0.007767 0.027472 0.025378 -0.028848 -0.008570 -0.010597 0.024455 -0.008333 0.004036 0.031924 0.002490 -0.001445 0.022534 -0.000772 -0.033529 0.014075 0.009629 0.016499 0.007990 0.023783 0.000769 0.022001 -0.026580 -0.023948 -0.017981 0.032583 0.026330 0.002196 -0.019133 0.005423 0.004816 0.013641 0.006584 -0.001379 -0.007645 -0.000421 0.026435 -0.006242 0.007689 -0.002810 0.027419 0.034531 -0.014712 0.025804 -0.013059 0.025210 0.021617 -0.022728 0.010518 0.031127 0.014983 0.010502 0.006192 0.024393 -0.003285 0.005315 -0.011808 0.013992 -0.040664 0.025648 0.026641 0.040082 0.012151 0.054425 -0.020798 0.000581 -0.046314 -0.023775 0.006013 0.019435 -0.005445 0.041156
expensive -0.002730 0.004437 -0.001097 0.002933 -0.004436 0.005866 -0.004103 -0.005861 -0.002562 0.003296 0.002027 -0.004247 -0.005383 0.001294 0.001105 0.003428 0.003740 -0.002991 -0.004004 -0.003330 -0.003995 0.001116 0.002000 0.002613 -0.004087 -0.002244 0.000828 -0.005991 -0.000412 -0.001760 0.001679 0.000429 0.000002 -0.000471 0.005250 -0.001894 0.000509 0.002269 0.007381 -0.004047 -0.000036 0.007282 -0.002961 -0.000338 -0.005692 0.001838 0.002595 0.004952 -0.000477 0.002527 -0.001646 -0.007074 -0.003223 0.000017 0.004797 0.002316 -0.004617 -0.006224 0.004875 0.006847 -0.004679 -0.003219 0.000864 0.000735 0.002287 0.001669 -0.004896 -0.006296 0.001981 -0.000779 -0.004467 0.000011 -0.002476 -0.003953 -0.003770 0.001388 0.005073 -0.004291 -0.001347 0.006556 0.003460 -0.004726 0.002958 0.003158 0.006035 0.004805 0.003542 0.003840 0.003024 0.000057 -0.004215 -0.000162 -0.000124 -0.001826 -0.003480 -0.005005 0.001207 -0.003288 0.002244 0.004815
easier 0.000316 -0.002796 -0.000568 0.001150 -0.002950 0.004373 0.000736 -0.001757 -0.000751 0.007772 -0.000845 0.003755 0.003198 -0.003812 0.003363 0.004819 -0.001366 0.002227 0.004382 -0.003310 -0.003257 -0.001366 0.001735 0.004356 -0.002039 0.001213 -0.004794 -0.005086 -0.000973 -0.003152 0.001248 0.004868 0.002681 -0.005209 -0.003721 -0.002796 0.003618 0.003210 0.004966 0.000491 -0.002974 0.003347 -0.003827 -0.001096 -0.007809 -0.002504 -0.004301 0.007044 0.002436 -0.004324 0.003555 0.002357 -0.007906 0.001148 0.001111 0.001692 0.003792 -0.003489 0.002538 -0.001743 -0.003442 0.005155 -0.004460 0.000408 -0.006361 0.004334 -0.003274 -0.002682 0.006091 -0.005788 -0.000582 -0.001880 0.004406 0.001103 0.002774 0.003000 -0.000362 -0.002812 -0.004503 0.007494 0.001221 -0.000375 -0.000266 0.005807 0.002294 -0.004996 0.007248 -0.000502 0.003251 0.007803 0.001083 -0.002593 -0.001091 -0.007624 -0.001220 -0.003209 -0.002870 -0.004711 -0.002111 0.003936
reason -0.001882 -0.001770 -0.002096 0.003433 -0.001149 -0.002493 -0.004328 0.004484 -0.003174 0.001029 -0.004368 0.005747 0.000735 0.000088 0.003097 0.003498 -0.004124 0.001418 -0.001732 -0.002831 0.002802 0.000921 0.002289 0.000651 0.003519 0.001232 -0.003900 -0.000295 0.002563 0.001598 -0.001995 -0.001960 -0.004002 0.002417 0.000350 -0.005420 -0.000374 -0.003236 0.003861 -0.003848 -0.003736 0.002274 -0.006231 -0.002319 0.004100 0.000516 0.004648 0.001282 0.001445 0.001295 -0.002882 -0.005028 0.000039 0.000684 0.002945 -0.003207 0.003513 -0.001859 -0.001209 0.005833 0.002926 0.002612 0.000301 -0.000284 -0.002498 0.000227 -0.003233 -0.004117 0.000437 0.002091 -0.004294 0.000515 0.000033 0.001576 0.003206 -0.005087 0.005618 0.000321 0.005084 0.003090 0.002062 0.002495 -0.004442 -0.003239 0.004749 -0.004519 0.002799 0.004758 0.000095 0.003807 0.005767 0.001641 -0.000939 -0.002822 -0.002126 0.004184 -0.001533 0.000871 0.001665 0.002672
online 0.020323 0.001116 -0.006523 -0.022716 0.010345 -0.019798 0.008943 -0.005356 0.011603 0.004537 -0.005933 -0.005533 0.016112 0.006954 0.003251 -0.007795 -0.004226 -0.000367 0.000466 -0.008572 0.005450 -0.022059 0.007134 -0.012023 0.000652 -0.023750 0.003987 0.000799 -0.005419 -0.007387 -0.007018 0.015966 0.008799 0.009103 -0.014299 0.000982 -0.005063 -0.016780 -0.007675 -0.001044 -0.006202 -0.002472 0.012456 -0.007352 -0.008802 -0.002591 0.001430 -0.009810 -0.004595 -0.003499 0.001002 0.012345 0.007235 -0.013288 -0.012596 0.000890 0.007111 -0.001216 -0.004356 -0.009395 -0.001605 0.000440 0.003936 0.005388 -0.010649 -0.001450 -0.000687 0.006458 -0.012637 -0.014397 0.009203 -0.002682 -0.001400 -0.005130 -0.003180 0.013455 -0.002278 -0.005963 -0.005924 -0.012961 -0.003278 -0.009370 -0.004018 0.001736 0.002436 -0.002912 0.006146 -0.015823 -0.008419 -0.017563 -0.007103 -0.022791 0.007207 0.005238 0.019771 0.010607 -0.002344 -0.001644 0.006532 -0.021932
point -0.021255 0.010757 0.001014 0.016633 -0.009375 0.024193 -0.000637 0.008423 -0.013778 0.003778 -0.001415 -0.001550 -0.016873 -0.003030 -0.001567 0.011884 0.003663 0.010809 -0.003242 0.005311 0.000908 0.020615 -0.016865 0.015693 -0.002040 0.021068 -0.009867 -0.006604 0.005092 0.003228 0.004105 -0.015021 0.001936 -0.007504 0.009204 -0.003534 0.006872 0.025288 0.007915 -0.009226 0.007871 0.006396 -0.013769 0.000116 -0.003691 -0.002170 0.000195 0.010749 -0.006638 0.001998 -0.002603 -0.011443 -0.012941 0.009341 0.010248 -0.007864 -0.016576 -0.003684 0.001202 0.011820 0.001235 -0.001200 -0.015019 0.000322 0.002722 -0.003198 -0.003898 0.002816 0.013820 0.010378 -0.003645 -0.001634 -0.000661 0.004859 0.003967 -0.007044 0.009482 0.016674 -0.005846 0.017460 0.002904 0.010827 0.001244 0.007311 0.002346 0.000294 -0.010638 0.012162 0.017599 0.027433 0.001289 0.023974 -0.001676 -0.007055 -0.025173 -0.010727 -0.004171 0.010274 -0.006906 0.016134
piece -0.012231 0.006828 0.005029 0.013631 -0.006902 0.017009 0.004486 -0.001386 -0.013516 0.005919 -0.001668 0.000496 -0.006095 -0.002222 -0.001688 0.006067 0.004375 0.008921 -0.000978 0.006590 0.002844 0.008221 -0.012670 0.013225 -0.004679 0.011167 -0.002967 -0.005462 0.007918 -0.001993 0.000055 -0.011983 0.010300 -0.002328 0.009121 0.001731 0.009491 0.019948 0.007509 -0.010767 -0.002256 0.006794 -0.003482 -0.007499 -0.004899 -0.006613 -0.001378 0.007569 -0.006586 0.004916 0.000871 -0.005176 -0.007587 0.000187 0.009377 -0.003717 -0.008833 0.005172 -0.000737 0.009697 -0.005468 0.003061 -0.011587 -0.005467 0.003872 -0.004982 -0.010536 0.005483 0.014050 0.002803 0.000943 0.000601 0.001698 0.008775 -0.002477 -0.006637 0.006088 0.006924 -0.005661 0.014933 -0.000959 0.005826 -0.001040 0.007736 0.004363 0.005172 -0.005829 0.011363 0.005579 0.023429 -0.007391 0.014889 0.001423 -0.001557 -0.010333 -0.012631 -0.008496 0.003176 -0.007348 0.014651
size 0.000350 0.003531 -0.001497 -0.008374 0.003428 -0.001134 -0.001432 -0.008210 -0.003630 0.008589 0.001642 -0.001938 -0.002056 0.005117 0.003429 0.005746 -0.002983 -0.002585 0.002505 -0.000243 0.002888 0.000475 0.000551 -0.000701 0.000210 0.002438 -0.004556 -0.003044 -0.000592 -0.000549 -0.007685 0.003999 0.006771 0.003599 -0.002007 0.007273 -0.002583 -0.001959 0.008984 0.001265 -0.005568 0.001231 0.003963 -0.005250 -0.008585 -0.002162 -0.008102 0.005927 -0.001929 -0.005205 0.005264 -0.004578 -0.003014 -0.006376 -0.001240 0.003529 0.004324 -0.005945 -0.003909 0.003054 -0.003902 0.000992 -0.000027 -0.000260 -0.003308 0.000945 -0.009216 -0.005474 -0.002136 -0.005961 0.001020 -0.001666 -0.001494 -0.002652 -0.000270 0.002557 0.005627 -0.002993 -0.003224 0.001047 0.000573 -0.002903 0.006834 -0.004039 0.009078 -0.002384 0.006471 0.003611 0.000230 0.001420 -0.003539 -0.005723 0.000072 -0.005380 0.000544 -0.002468 0.000252 0.003597 -0.002876 0.002962
line -0.019541 0.004752 0.007161 0.027191 -0.008638 0.021928 -0.007450 0.013342 -0.016538 0.002355 0.006011 0.004967 -0.009925 -0.002739 -0.000865 0.013090 0.000594 0.004055 -0.005837 0.004822 -0.003666 0.015228 -0.016651 0.018513 0.000820 0.020744 -0.010565 -0.007492 0.005620 0.005832 0.014566 -0.015391 0.002832 -0.004788 0.010064 -0.006065 0.006175 0.026489 0.005818 -0.008125 0.004790 0.011840 -0.017722 0.005010 0.000879 0.000254 -0.004142 0.013583 -0.005158 0.002437 -0.005872 -0.011657 -0.011310 0.011198 0.019492 0.001869 -0.008734 0.002888 0.005511 0.016524 -0.008088 -0.004043 -0.010494 0.001249 0.003989 -0.002991 -0.004149 0.000143 0.013670 0.010986 -0.000371 0.006570 0.000215 0.011544 0.002601 -0.009989 0.003422 0.010428 -0.002970 0.009439 0.001285 0.003122 0.002298 0.000296 0.004683 0.005781 -0.007165 0.014504 0.010687 0.034170 -0.003919 0.026624 -0.004608 0.000535 -0.027451 -0.012488 -0.004182 0.008496 -0.006371 0.016936
shutter -0.053084 0.019844 0.007656 0.059500 -0.027963 0.067443 -0.018645 0.016222 -0.044763 0.001457 0.004267 0.007411 -0.035715 -0.006328 -0.008278 0.035359 0.013761 0.019867 -0.012543 0.022514 -0.007817 0.053529 -0.039261 0.032193 -0.011551 0.057197 -0.023840 -0.027251 0.019061 0.020220 0.023075 -0.036808 -0.002286 -0.013418 0.032356 0.000284 0.026857 0.052361 0.027869 -0.010775 0.017734 0.015289 -0.036727 0.009818 0.003771 -0.007729 -0.004781 0.049147 -0.000785 0.011549 -0.004392 -0.041517 -0.038192 0.035500 0.033157 -0.000648 -0.031887 -0.010111 0.009836 0.037194 -0.012529 0.005502 -0.034339 -0.012159 0.011782 -0.002626 -0.014069 -0.007226 0.038388 0.019776 -0.010723 0.001645 -0.002564 0.022458 0.026087 -0.031630 0.026340 0.027678 -0.007742 0.034339 0.023048 0.024224 0.007683 0.002101 0.013473 0.017692 -0.021991 0.030596 0.039854 0.072273 0.001459 0.062036 -0.015668 -0.020128 -0.057601 -0.035177 -0.014566 0.022630 -0.024675 0.057487
deal 0.006597 -0.000073 0.001538 -0.004777 0.004722 -0.001996 0.003199 -0.006247 0.008445 -0.000219 -0.006776 -0.005207 0.005576 0.002960 0.002596 -0.006445 -0.003383 -0.006800 -0.002246 -0.005884 0.004891 -0.009575 -0.002230 -0.002553 0.000460 -0.009190 0.003554 -0.002262 -0.004461 -0.007376 -0.005160 0.000698 0.003480 0.002000 -0.003711 0.004518 -0.004881 -0.002781 0.000042 0.001043 -0.000191 0.000184 0.001279 -0.004228 -0.001471 0.000736 -0.004959 -0.002096 -0.001704 -0.002527 0.007159 0.006653 0.002373 -0.007320 -0.005363 0.002272 0.005516 -0.003360 -0.002105 -0.001770 -0.000376 -0.001584 0.001367 -0.004216 -0.002630 0.000502 -0.003069 -0.004717 -0.003943 -0.008027 0.001626 -0.005749 0.002595 -0.007725 -0.000209 0.003359 -0.004136 -0.006725 0.003366 0.000181 0.000205 0.002432 0.000842 -0.002230 0.005063 -0.005604 0.001224 0.002043 -0.009309 -0.005572 -0.000516 -0.007669 -0.001919 -0.004910 0.002854 0.000324 0.001369 -0.000990 -0.000645 -0.004802
music -0.030499 0.007410 0.005770 0.041320 -0.014918 0.034455 -0.006126 0.017228 -0.025344 0.003930 0.007863 0.002988 -0.018413 -0.010672 -0.011080 0.017030 0.008627 0.009502 -0.006648 0.007493 -0.006291 0.029562 -0.022504 0.017061 -0.010604 0.027657 -0.008298 -0.009566 0.008063 0.012824 0.011459 -0.019148 -0.003901 -0.010543 0.018183 -0.007014 0.009724 0.025118 0.014141 -0.009279 0.008392 0.007504 -0.023870 0.008863 0.004162 -0.003924 0.002163 0.019297 -0.004102 0.011996 -0.009565 -0.015420 -0.027030 0.019027 0.023768 -0.003584 -0.013127 -0.005331 0.003221 0.017715 -0.000352 -0.005963 -0.013465 -0.007129 0.011304 -0.006315 -0.002794 0.000672 0.024896 0.020074 -0.003169 0.008243 -0.006273 0.012141 0.012352 -0.011726 0.004464 0.025100 0.003208 0.021911 0.005986 0.015514 0.005076 0.005939 0.004370 0.011894 -0.013982 0.019201 0.017405 0.038332 0.002729 0.031741 -0.007159 -0.006994 -0.031849 -0.013908 -0.005576 0.010345 -0.008021 0.024288
