1018 100
sound 0.069253 -0.051847 -0.031725 0.055993 -0.014088 0.064195 0.007013 -0.020103 0.013338 -0.099023 0.010699 0.013321 -0.073764 -0.076250 0.036638 -0.005750 0.099505 0.019915 0.018944 0.027682 -0.019558 -0.042849 -0.091707 -0.007157 0.038891 0.077625 -0.050089 0.019032 -0.038857 -0.064548 0.021529 -0.000365 -0.046616 0.021260 -0.048890 -0.033496 0.071694 -0.042792 -0.062481 0.075416 -0.028110 -0.042419 -0.039068 0.068955 0.004313 0.018180 0.019573 0.024123 -0.036795 0.047972 -0.034344 -0.012646 0.016301 0.000772 0.039753 -0.018752 -0.017390 0.059994 0.095523 0.040383 -0.072804 0.035944 0.038356 -0.041179 -0.024182 0.117257 0.022669 0.139040 0.046337 0.129669 -0.046392 0.023113 -0.055470 0.061671 0.041979 0.030794 -0.014732 -0.018290 -0.027307 -0.075208 -0.007572 0.073060 -0.052235 0.072892 -0.008318 0.017103 0.005149 -0.064114 -0.020917 0.071678 0.052413 -0.005099 -0.029843 -0.042090 0.053793 -0.009558 0.105317 -0.011032 -0.063401 0.047517
price 0.012603 -0.015032 -0.000898 0.014016 -0.008206 0.012946 0.000855 -0.007262 -0.005773 -0.021277 0.006028 0.000875 -0.015094 -0.023580 0.013558 0.007805 0.021197 0.006466 0.000572 0.012346 -0.002292 -0.010973 -0.019032 -0.007494 0.004357 0.016978 -0.005283 0.012371 -0.004094 -0.007404 0.001588 0.001398 -0.008258 0.006152 -0.015160 -0.009197 0.021641 -0.009461 -0.009595 0.016173 -0.003458 -0.001017 -0.001570 0.016954 -0.007051 -0.004263 0.006546 0.005857 -0.012065 0.013341 -0.007552 -0.007537 0.002249 0.001487 0.014841 -0.007789 -0.001428 0.016714 0.014443 0.012295 -0.020342 0.011562 0.008305 -0.007725 -0.001224 0.029592 0.010072 0.030740 0.016320 0.035167 -0.009569 0.004114 -0.020388 0.011279 0.008238 0.004256 0.004869 -0.000070 0.002247 -0.015503 0.004632 0.021753 -0.015844 0.017383 0.001097 0.010519 0.001988 -0.004172 0.003697 0.023869 0.017156 0.001782 -0.008967 -0.008644 0.010154 0.004936 0.022350 -0.003934 -0.021036 0.017816
system 0.043610 -0.016292 -0.011562 0.026768 -0.021541 0.061333 0.002777 -0.024293 -0.001026 -0.073185 0.005357 0.001119 -0.026864 -0.052227 0.018548 -0.000367 0.066850 0.023637 0.004154 0.003484 -0.001456 -0.035014 -0.057754 -0.000676 0.028246 0.047184 -0.015347 0.021294 -0.030033 -0.034268 -0.005807 0.011336 -0.013956 0.026750 -0.045176 -0.029054 0.054717 -0.043340 -0.029096 0.031306 -0.010968 -0.008675 -0.010319 0.052081 0.005143 0.005084 0.009585 0.034858 -0.034203 0.030504 -0.032030 -0.008693 -0.002355 -0.009575 0.017749 -0.023215 -0.010448 0.030772 0.059228 0.026518 -0.052508 0.026803 0.025326 -0.035866 -0.023459 0.067676 0.022239 0.072636 0.030668 0.071830 -0.031711 -0.006512 -0.029041 0.020749 0.030250 0.021448 0.000696 -0.000771 0.005932 -0.065479 0.007798 0.033588 -0.039184 0.056014 0.008764 0.024119 -0.006946 -0.037765 -0.020337 0.050233 0.028482 -0.012194 -0.019255 -0.028638 0.033705 0.004313 0.073579 -0.001168 -0.047225 0.045103
music 0.045355 -0.029220 -0.006866 0.027372 -0.025874 0.059875 0.007140 -0.037092 0.008773 -0.077121 -0.010430 -0.003363 -0.027139 -0.069755 0.028840 -0.008185 0.076069 0.034076 0.000367 0.011307 -0.000570 -0.032269 -0.054404 0.005527 0.037006 0.046277 -0.014546 0.025890 -0.032482 -0.036207 0.009583 0.008436 -0.025779 0.028328 -0.043889 -0.030970 0.053726 -0.046829 -0.040581 0.042078 -0.024738 -0.016931 -0.017244 0.055098 0.005208 0.005661 0.018852 0.032425 -0.030994 0.029961 -0.021515 -0.013537 0.005608 -0.009540 0.035543 -0.018509 -0.011428 0.030203 0.070061 0.032729 -0.047827 0.023064 0.021257 -0.025159 -0.013286 0.080609 0.037080 0.079033 0.030069 0.078405 -0.040994 -0.003620 -0.037909 0.024623 0.025036 0.023433 0.000615 -0.010130 -0.011275 -0.054712 0.006181 0.046946 -0.038694 0.052407 0.005639 0.027330 0.000582 -0.042927 -0.014837 0.049063 0.031240 0.001259 -0.014376 -0.034931 0.043967 0.003100 0.076076 -0.006556 -0.041772 0.045541
volume 0.028830 -0.016989 -0.006333 0.020842 -0.011365 0.029368 0.009224 -0.017033 -0.000495 -0.042925 -0.002472 -0.010140 -0.012772 -0.029741 0.001433 0.001144 0.029338 0.017217 -0.000425 0.010420 -0.007821 -0.021771 -0.018875 0.023982 0.021722 0.031818 -0.009400 0.015639 -0.024088 -0.023185 -0.001653 -0.001489 -0.009291 0.012301 -0.023191 -0.018990 0.014809 -0.008392 -0.020503 0.011472 -0.014390 -0.020982 -0.010090 0.023308 0.008025 -0.000666 -0.000163 0.016113 -0.016655 0.015973 -0.013037 0.000317 0.000836 -0.004796 0.026175 0.003407 -0.019508 0.015802 0.035985 0.027744 -0.021876 0.016197 0.014018 -0.016447 -0.004446 0.045657 0.018855 0.041481 0.013378 0.021261 -0.013670 -0.006557 -0.023634 0.006959 0.008620 0.015078 -0.008564 -0.008580 -0.009639 -0.030092 -0.001527 0.014422 -0.014080 0.027149 0.001566 0.002283 -0.004059 -0.023091 -0.010399 0.019254 0.005949 0.012229 0.001673 -0.020915 0.019938 -0.005306 0.043018 0.003306 -0.017720 0.028817
bass 0.024721 -0.013594 -0.001274 0.009996 -0.011233 0.014701 -0.001777 -0.006792 0.000420 -0.028681 0.005995 -0.003339 -0.022004 -0.020640 0.005877 0.002654 0.020046 -0.000279 0.008468 0.010967 -0.014633 -0.012953 -0.021695 0.004524 0.008334 0.020371 -0.016702 0.007490 -0.019623 -0.011825 0.005288 0.006017 -0.012749 0.005017 -0.010425 -0.007787 0.014160 -0.016346 -0.019645 0.015939 0.000344 -0.012440 -0.002719 0.015122 0.001569 -0.001023 0.003468 0.011452 -0.009383 0.018604 -0.009659 -0.000433 0.006202 -0.000927 0.012374 -0.008959 -0.016870 0.008821 0.028782 0.019851 -0.018186 0.015548 0.004030 -0.013027 -0.001602 0.031697 0.003763 0.033595 0.008732 0.027817 -0.007670 0.002874 -0.014280 0.014139 0.006914 0.006114 -0.010782 0.000613 -0.001767 -0.023690 -0.007142 0.022253 -0.010523 0.020241 0.005637 0.007244 0.004216 -0.008790 0.000239 0.016018 0.016243 0.006377 -0.002376 -0.009413 0.018183 -0.004420 0.026295 -0.002641 -0.011454 0.016324
ipod 0.041622 -0.033103 -0.010636 0.034062 -0.024695 0.087958 0.001460 -0.042147 -0.000259 -0.109832 -0.007882 -0.003297 -0.022591 -0.084380 0.033844 -0.002708 0.104106 0.040558 0.020046 -0.008423 0.006504 -0.042321 -0.066951 -0.000655 0.047942 0.054830 -0.017924 0.029329 -0.040417 -0.054560 0.006987 0.012075 -0.024842 0.045225 -0.054854 -0.029312 0.067992 -0.070330 -0.038508 0.051919 -0.016423 -0.016485 -0.031660 0.070185 0.007869 0.006611 0.023331 0.046165 -0.037752 0.043828 -0.035784 -0.016174 0.002401 -0.007674 0.031372 -0.023403 -0.003353 0.039903 0.080704 0.047250 -0.076449 0.030390 0.043873 -0.031971 -0.033527 0.101528 0.035169 0.085695 0.029427 0.102727 -0.040149 -0.009970 -0.029863 0.027168 0.051939 0.035848 -0.003003 -0.009826 0.002305 -0.087265 0.005625 0.046119 -0.044201 0.068727 0.009498 0.035656 -0.002801 -0.063011 -0.032351 0.072358 0.027361 -0.023256 -0.020792 -0.053661 0.052922 0.003936 0.105813 -0.007417 -0.052818 0.051381
small 0.018985 -0.013413 -0.007266 0.018967 -0.006486 0.027079 0.000015 -0.018887 0.002128 -0.032334 0.002264 0.006224 -0.026998 -0.035144 0.017873 0.001612 0.032464 0.005434 0.003986 0.009284 -0.005891 -0.015501 -0.037311 -0.000423 0.010057 0.026438 -0.019328 0.016369 -0.013900 -0.017165 0.001531 -0.001548 -0.013201 0.013944 -0.023205 -0.010547 0.026987 -0.019675 -0.019813 0.026392 -0.010176 -0.015210 -0.004956 0.024506 0.002783 0.004056 0.001807 0.012587 -0.017823 0.020549 -0.007857 -0.007154 0.002927 -0.000992 0.016062 -0.012642 -0.011800 0.018648 0.032562 0.016907 -0.019192 0.011560 0.016808 -0.021902 -0.004243 0.040116 0.016780 0.045060 0.010455 0.038674 -0.015950 0.009997 -0.023443 0.022197 0.005257 0.010521 0.001425 0.001211 -0.008535 -0.025510 -0.005051 0.026472 -0.021164 0.033470 -0.001381 0.007284 0.003354 -0.021595 -0.001494 0.029220 0.021174 0.003899 -0.009207 -0.012062 0.015537 0.003430 0.041622 -0.006844 -0.020752 0.015033
room 0.010052 -0.010070 -0.003065 0.004982 0.003366 0.013028 -0.007568 -0.000764 0.011022 -0.010686 -0.003757 0.007517 -0.011103 -0.013675 0.004159 0.001879 0.010579 -0.000308 0.006905 0.012003 -0.000569 -0.008479 -0.019660 0.008677 0.013947 0.015328 -0.012697 0.007949 -0.006460 -0.012882 0.000866 -0.004601 -0.005125 0.008510 -0.011126 -0.011860 0.012594 -0.007101 -0.012282 0.019763 -0.004494 -0.012043 -0.000468 0.007107 -0.000655 0.007403 0.006790 0.004886 -0.008408 0.004282 -0.000957 -0.000982 0.003803 0.000572 0.005302 -0.001595 -0.010364 0.004996 0.015483 -0.000787 -0.008755 0.003608 0.006785 -0.008917 0.000759 0.019767 0.006409 0.028866 0.003220 0.024469 -0.013711 0.007490 -0.012737 0.009780 0.005603 0.004737 -0.007297 -0.001280 -0.007788 -0.007670 -0.000463 0.016878 -0.012292 0.010587 0.003630 0.004177 -0.006265 -0.017174 -0.002355 0.010554 0.014411 -0.002239 -0.003665 -0.000609 0.004937 -0.003174 0.019203 0.002506 -0.015547 0.014528
computer 0.033268 -0.028208 -0.016622 0.025393 -0.022279 0.054861 -0.001505 -0.020379 0.007409 -0.064557 -0.005225 0.001672 -0.033276 -0.060806 0.025283 -0.002340 0.063704 0.021510 0.005866 0.000407 -0.007181 -0.025795 -0.062210 -0.001293 0.032972 0.042388 -0.016928 0.018179 -0.030825 -0.035530 0.011166 0.008571 -0.024703 0.026843 -0.034932 -0.029465 0.046352 -0.044360 -0.034812 0.041070 -0.018082 -0.018701 -0.013899 0.049307 0.002422 0.003413 0.015922 0.031121 -0.029127 0.027491 -0.021166 -0.015806 0.007156 0.002077 0.027670 -0.018305 -0.011741 0.031036 0.054341 0.033262 -0.052718 0.026856 0.031158 -0.024943 -0.021511 0.073780 0.026302 0.076518 0.031149 0.081202 -0.037303 0.004057 -0.026745 0.031518 0.032078 0.022450 -0.002341 -0.002730 -0.010788 -0.062706 0.005517 0.037545 -0.033681 0.055664 0.007395 0.024783 -0.000774 -0.040706 -0.015066 0.054665 0.026293 -0.005634 -0.020603 -0.031282 0.030755 0.003891 0.075166 -0.007604 -0.038943 0.040567
phone 0.012278 -0.015090 -0.005565 0.010739 -0.001321 0.020201 -0.000584 -0.005567 0.007301 -0.032789 0.003755 0.003395 -0.011708 -0.020940 0.012130 -0.009440 0.030139 0.008863 0.012107 -0.007292 0.007192 -0.009939 -0.011962 -0.005338 0.013549 0.010640 -0.004028 0.000765 -0.005736 -0.021542 0.000098 0.000506 -0.001841 0.008020 -0.019271 -0.008792 0.017684 -0.017885 -0.007598 0.007872 -0.003960 0.001453 -0.018858 0.021683 -0.000339 0.003791 0.006017 0.014987 -0.009923 0.012675 -0.008732 0.002674 -0.002664 0.007295 0.011911 0.002188 0.002779 0.010590 0.027608 0.014139 -0.028065 0.009605 0.017672 -0.006830 -0.009764 0.025686 0.010823 0.027934 0.014437 0.040223 -0.014331 -0.003435 -0.007011 0.013701 0.022134 0.012677 -0.002733 -0.001368 -0.000911 -0.022552 0.006535 0.014602 -0.012523 0.018203 0.003746 0.011678 -0.005865 -0.023713 -0.013912 0.024078 0.010397 -0.011365 -0.012748 -0.020333 0.007236 -0.005294 0.026668 0.004595 -0.024624 0.015733
review 0.003275 -0.006642 0.001372 0.002672 -0.000819 0.006299 0.004923 -0.005508 0.004379 -0.015272 0.002938 0.005344 -0.008193 -0.005946 0.008104 0.001418 0.014119 0.000048 0.007081 0.003190 0.003911 -0.001547 -0.011639 -0.002692 0.005082 0.005122 -0.003900 -0.001672 -0.001711 -0.010936 0.000325 0.004546 -0.000795 0.007403 -0.005978 -0.000552 0.014744 -0.010841 -0.005330 0.004630 -0.002549 -0.007684 -0.000343 0.011534 -0.000653 0.005892 0.005237 0.000692 -0.008627 0.007871 -0.003458 -0.000501 -0.002723 -0.001793 0.002718 -0.004405 -0.000669 0.010919 0.014376 0.006679 -0.007180 0.001875 0.001291 -0.001318 -0.000372 0.017353 0.002728 0.018493 0.009820 0.021815 -0.002884 -0.000508 -0.009457 0.008922 0.001882 0.007529 -0.005253 -0.003615 -0.002427 -0.009766 0.003806 0.012776 -0.005959 0.012282 -0.000227 0.002578 -0.000492 -0.010350 -0.004978 0.015516 0.006993 -0.003543 -0.008320 -0.012319 0.002729 0.003140 0.013987 0.000393 -0.010740 0.003740
high 0.008548 -0.008158 0.003073 0.006727 -0.011605 0.001180 0.006989 -0.006266 -0.002067 -0.009518 0.002229 -0.002791 -0.010252 -0.008841 -0.001487 0.002289 0.006328 0.000268 -0.002218 0.011625 -0.009983 -0.008986 -0.002402 -0.000313 0.000841 0.006966 0.000250 0.006765 -0.001286 0.002364 -0.002339 0.000177 -0.004397 0.003420 -0.006948 0.000787 0.002335 0.003395 -0.007894 0.002068 0.002175 -0.004611 0.008883 0.003252 -0.005344 -0.006618 -0.000892 0.003302 -0.006106 -0.000707 -0.000087 -0.003005 0.001188 0.003585 0.008112 0.001153 -0.013071 -0.000814 0.013617 0.009805 -0.002594 0.010819 -0.005723 -0.010421 0.001944 0.010643 -0.000395 0.000062 0.002076 0.004068 -0.006386 0.000950 -0.005783 0.001822 -0.006941 -0.001791 -0.003923 -0.006908 -0.004789 -0.010932 -0.007226 0.004693 -0.000939 0.007827 -0.001792 -0.004239 0.005010 0.004148 0.000800 -0.000673 0.001037 -0.000767 0.003720 0.005166 0.008013 0.004022 0.006310 -0.004063 -0.000390 0.009290
bose 0.021295 -0.016438 -0.003917 0.014874 -0.005957 0.027870 -0.000239 -0.012618 0.002964 -0.041418 -0.001477 0.002138 -0.016378 -0.025481 0.016768 0.002976 0.043837 0.013398 0.014223 0.005115 -0.000879 -0.019248 -0.026843 -0.009193 0.013222 0.015159 -0.006523 0.005744 -0.007080 -0.021784 0.003144 0.001041 -0.016311 0.012636 -0.027059 -0.009449 0.030747 -0.029953 -0.014810 0.018328 0.003386 -0.009185 -0.005062 0.027968 -0.002363 0.004537 0.005645 0.013829 -0.019080 0.010420 -0.013873 -0.003730 -0.004610 -0.002544 0.011574 -0.010770 -0.002441 0.023537 0.033623 0.017971 -0.033647 0.012087 0.014195 -0.023041 -0.012001 0.036349 0.013076 0.039194 0.013151 0.045278 -0.020273 0.003623 -0.015481 0.016196 0.016014 0.015408 -0.008464 0.000584 -0.002282 -0.036567 0.004944 0.022946 -0.022517 0.025950 0.006231 0.009404 -0.000136 -0.020184 -0.013628 0.035571 0.010887 -0.008604 -0.013921 -0.017388 0.024049 0.004396 0.042536 -0.005131 -0.023973 0.021481
battery 0.006535 -0.009425 -0.004218 0.009693 -0.012302 0.023721 0.005267 -0.016287 0.001326 -0.033012 -0.003872 -0.001279 -0.012318 -0.028720 0.007003 0.001832 0.029205 0.015339 0.011303 0.000464 0.006063 -0.004008 -0.020306 -0.005535 0.005368 0.013772 -0.006478 0.002090 -0.006801 -0.014274 0.002552 0.005610 -0.007316 0.009315 -0.011980 -0.001176 0.011677 -0.025019 -0.015034 0.009533 0.007514 -0.008714 -0.012611 0.027294 0.006224 -0.007775 0.010370 0.013597 -0.009886 0.005555 -0.007615 -0.007562 -0.000510 0.001061 0.009113 -0.013426 0.000924 0.004031 0.016924 0.015801 -0.018142 0.004677 0.011187 -0.006843 -0.012537 0.020855 0.008733 0.027392 0.011833 0.029161 -0.004945 -0.000003 -0.009622 0.007144 0.019428 0.014912 0.000289 0.005807 -0.001564 -0.031845 0.004888 0.018487 -0.011431 0.019973 0.001928 0.006505 0.009520 -0.014678 -0.009794 0.025549 0.011498 -0.004988 -0.012088 -0.014666 0.016106 0.008234 0.029082 -0.006090 -0.013733 0.011456
audio 0.007214 -0.004088 -0.005202 0.009949 -0.005296 0.015669 0.004757 -0.004502 0.003238 -0.019686 -0.001188 0.004037 -0.003109 -0.019937 0.000534 0.000696 0.022102 0.007831 0.001857 -0.003171 -0.003913 -0.006614 -0.018650 -0.002483 0.010592 0.012273 -0.003447 0.007756 -0.004439 -0.015550 0.007167 0.003806 -0.001063 0.003497 -0.014824 -0.003809 0.011473 -0.011147 -0.005214 0.005305 -0.005593 -0.001311 -0.006114 0.020776 -0.003164 0.001461 0.007498 0.011850 -0.010040 0.003641 -0.008690 -0.003202 -0.002547 0.004149 0.008145 -0.005141 -0.001745 0.011089 0.022767 0.011725 -0.012805 0.001029 0.009883 -0.010504 -0.007979 0.019508 0.010684 0.023918 0.012702 0.025848 -0.013531 -0.001930 -0.008770 0.009157 0.005558 0.014038 -0.004326 0.002347 -0.005422 -0.016827 -0.000690 0.004876 -0.008469 0.011296 0.006717 0.003086 -0.002574 -0.008187 -0.010301 0.010907 0.005589 -0.009004 -0.006474 -0.014427 0.015014 -0.001483 0.020500 -0.005910 -0.008911 0.005174
home 0.052503 -0.034739 -0.013847 0.031528 -0.019543 0.059908 0.003278 -0.039260 0.011816 -0.080758 0.005904 0.005734 -0.044807 -0.068712 0.030935 -0.001266 0.077566 0.020521 0.008254 0.006217 -0.006745 -0.038828 -0.067571 -0.006663 0.036931 0.056918 -0.033171 0.019470 -0.033134 -0.035403 0.008406 0.001708 -0.032532 0.032938 -0.053538 -0.019422 0.061490 -0.051345 -0.047711 0.039624 -0.018042 -0.014822 -0.015591 0.048963 0.012622 0.003396 0.018271 0.025349 -0.037071 0.027435 -0.037826 -0.016827 0.004923 -0.007584 0.034819 -0.018850 -0.018018 0.041740 0.065856 0.035238 -0.054400 0.026272 0.020491 -0.036073 -0.014724 0.083464 0.031978 0.092400 0.027064 0.087102 -0.035457 0.010499 -0.044589 0.034934 0.026319 0.034253 0.000126 -0.010369 -0.003028 -0.073557 0.004800 0.055211 -0.045341 0.069304 -0.004558 0.018921 0.009030 -0.039168 -0.020152 0.054421 0.036885 -0.000723 -0.019166 -0.036172 0.044294 0.008955 0.088478 -0.012807 -0.049587 0.054231
easy 0.009781 -0.003651 -0.002964 0.015122 -0.004537 0.019799 -0.001916 -0.007327 0.001615 -0.021071 -0.005053 -0.001599 -0.005786 -0.020146 0.010838 -0.002936 0.025305 0.010475 0.005201 -0.000812 -0.005353 -0.004091 -0.019562 -0.005669 0.012095 0.013314 -0.001401 0.005989 -0.011276 -0.013471 -0.004631 0.004058 -0.009438 0.010041 -0.010610 -0.006764 0.009204 -0.023506 -0.009900 0.012224 -0.000189 -0.009344 -0.008881 0.018097 -0.004379 -0.002190 0.003226 0.013883 -0.009356 0.013497 -0.011528 -0.005868 -0.003769 -0.003396 0.013483 -0.011106 -0.008972 0.007870 0.018475 0.009540 -0.020234 0.006451 0.009323 -0.008364 -0.005941 0.024098 0.010921 0.023751 0.010980 0.019149 -0.007120 -0.004148 -0.003788 0.000191 0.008204 0.006886 -0.001082 0.000286 0.002523 -0.021626 -0.002033 0.012869 -0.011341 0.020096 0.005347 0.004473 0.004101 -0.014358 -0.009238 0.022877 0.009395 -0.000304 0.000376 -0.013892 0.012203 0.006224 0.024675 -0.002235 -0.009406 0.006683
cable 0.022642 -0.021304 -0.010589 0.019258 -0.016772 0.050462 0.003414 -0.022293 -0.002717 -0.045738 -0.000173 0.005698 -0.024539 -0.050204 0.019122 -0.006394 0.051329 0.021415 0.008526 0.000226 -0.006617 -0.013291 -0.047035 -0.014076 0.023320 0.030135 -0.006332 0.016640 -0.012690 -0.020642 0.001356 0.003581 -0.016234 0.016681 -0.023040 -0.017721 0.031671 -0.034593 -0.013390 0.018599 0.000206 -0.010305 -0.020353 0.041494 0.000062 -0.002376 0.008153 0.015974 -0.013508 0.026482 -0.022514 -0.015399 0.004437 0.002829 0.018545 -0.011637 -0.001466 0.026989 0.047016 0.024066 -0.039052 0.016762 0.013306 -0.014865 -0.012305 0.058368 0.018100 0.055660 0.023486 0.060956 -0.029701 0.003252 -0.025507 0.026229 0.020637 0.020415 0.003473 -0.002389 -0.009026 -0.036358 0.005619 0.032371 -0.024736 0.039564 0.000766 0.022231 0.006071 -0.021682 -0.013693 0.039695 0.013482 -0.008387 -0.007833 -0.026463 0.032178 0.003427 0.050276 -0.008344 -0.022195 0.018109
loud 0.013526 0.001032 -0.006446 0.004323 -0.004158 0.001000 0.000271 -0.004306 0.007862 -0.008023 0.007966 -0.003601 -0.007459 -0.008936 0.002441 -0.001163 0.007240 -0.002234 0.002060 0.005805 -0.006226 -0.001480 -0.008547 0.007128 0.008953 0.012469 -0.010702 0.006266 -0.007115 -0.001715 -0.003055 -0.002976 -0.005691 -0.004151 -0.001880 -0.002467 0.009036 0.002372 -0.013303 0.008125 -0.008269 -0.003714 -0.002930 0.000189 -0.003162 0.000171 -0.004532 0.002252 -0.003596 0.002574 0.001132 -0.000645 0.003083 0.004361 0.006129 -0.000698 -0.003748 0.005382 0.006446 0.003179 -0.000579 0.003460 0.005375 -0.001110 0.002960 0.009028 -0.002061 0.018888 -0.002202 0.006876 -0.007298 0.004052 -0.003420 0.009593 0.005214 0.002724 -0.002368 -0.003342 0.000217 -0.009603 -0.001281 0.000263 -0.008594 0.000621 -0.005557 0.002266 -0.005042 -0.009552 0.007255 0.000872 0.002416 0.010379 0.001577 -0.000943 0.003551 -0.005437 0.008233 -0.006129 -0.007537 0.010775
monitor 0.000234 -0.004865 -0.003726 -0.001694 -0.004683 0.007875 -0.002192 -0.008569 -0.006162 -0.007536 -0.003411 -0.006374 0.001590 -0.008130 0.006081 0.000114 0.016603 0.002323 0.006065 -0.001195 0.003944 -0.004471 -0.007341 -0.007756 -0.001695 0.003825 -0.002318 0.002030 0.000762 -0.007800 0.004221 0.003669 -0.002381 0.008022 -0.012523 -0.007243 0.005604 -0.010497 -0.010354 0.002153 0.005925 -0.006787 -0.006009 0.014995 0.002820 -0.005671 0.005348 0.003308 -0.004388 0.004418 -0.008626 -0.001464 -0.000292 0.001138 0.005128 -0.003234 0.002468 0.005233 0.009297 0.003572 -0.001979 -0.000586 0.005895 -0.006426 -0.008166 0.013759 0.008000 0.010222 0.002014 0.010708 -0.010776 0.001445 -0.009569 0.001765 0.004903 0.007290 0.006755 0.002639 -0.009451 -0.010213 -0.004744 0.011594 -0.000061 0.013045 0.004406 0.005027 0.003133 -0.006465 -0.009335 0.007453 0.004168 -0.001352 -0.004316 -0.011213 0.004819 0.007503 0.012541 -0.005455 -0.009818 -0.000123
power 0.017505 -0.015380 -0.002379 0.009043 -0.009487 0.035670 0.005374 -0.012486 0.007906 -0.041459 -0.005234 -0.004273 -0.018779 -0.030302 0.012279 -0.003129 0.045047 0.018681 0.008315 -0.000152 0.003764 -0.009907 -0.028170 -0.000497 0.012719 0.031877 -0.009320 0.005796 -0.012555 -0.023416 0.005183 0.002405 -0.009527 0.008763 -0.018612 -0.012595 0.025208 -0.028057 -0.021416 0.012311 -0.012149 -0.013805 -0.017710 0.029506 0.005317 0.001726 0.012501 0.009520 -0.009671 0.019580 -0.014975 -0.008939 0.009081 -0.003860 0.019602 -0.006234 -0.003301 0.013705 0.032838 0.021374 -0.028015 0.013786 0.018439 -0.005751 -0.007280 0.044303 0.022636 0.046204 0.010731 0.040720 -0.021340 -0.006996 -0.017705 0.017248 0.014661 0.013901 0.000328 -0.007409 -0.010200 -0.028508 0.003093 0.019566 -0.019640 0.027576 -0.003005 0.010309 0.001566 -0.024530 -0.013227 0.027090 0.017025 -0.004575 -0.001846 -0.014851 0.026052 0.007719 0.035672 -0.006171 -0.020741 0.017639
wire 0.000320 -0.003556 0.005758 0.006214 -0.006125 0.002636 0.003763 -0.010848 -0.001464 -0.005772 -0.005395 0.001051 -0.004317 -0.005101 0.005995 0.003706 0.010240 -0.003048 -0.007524 0.003780 -0.007039 -0.008673 -0.005296 -0.013084 -0.005581 -0.004954 0.005047 0.008969 0.002953 0.003901 -0.010010 0.008341 -0.006166 0.009723 -0.010223 0.000427 0.008958 -0.015487 0.002613 0.002979 0.001359 -0.004528 0.006095 0.007433 -0.002270 -0.002581 0.005619 0.003127 -0.000616 0.007602 -0.002009 -0.003815 0.000972 -0.008855 0.000787 -0.007297 -0.006759 0.006552 0.007678 0.005296 -0.000470 0.004045 -0.003808 -0.009570 -0.009312 0.009122 0.002923 -0.003005 0.005683 0.010216 -0.002582 -0.001198 -0.008050 -0.004497 -0.002882 0.002635 0.009848 0.003524 -0.003197 -0.009563 0.001679 0.010191 -0.007841 0.005398 -0.003885 -0.000307 0.005324 0.007163 0.000756 0.008114 -0.001707 -0.003433 -0.005874 -0.010660 0.004704 0.007688 0.002902 -0.007127 -0.000885 0.003078
low 0.003086 -0.003984 -0.000903 -0.001038 0.007233 -0.003271 -0.004728 0.006454 0.002083 -0.002924 0.009804 0.002688 -0.010932 -0.001683 -0.003272 -0.002097 -0.001348 0.001448 0.002274 0.007911 -0.003165 -0.003141 -0.006057 0.006742 0.004144 0.013429 -0.007032 0.000340 -0.011445 -0.001937 -0.001143 -0.009632 -0.002590 -0.002782 0.005164 -0.002781 -0.000209 0.013192 -0.009555 -0.003557 -0.006491 0.000007 -0.006433 -0.005541 -0.000250 0.007140 0.003582 -0.002844 -0.000369 0.002450 0.000891 0.001002 0.004614 0.003267 0.008941 0.009148 -0.004638 0.007864 0.013218 0.001886 0.002136 -0.001738 0.002080 -0.000024 0.000370 0.005028 0.002290 0.012521 0.005299 0.009876 -0.003885 0.004376 -0.010081 0.011548 0.002875 -0.005409 -0.001240 -0.004966 -0.002174 0.006188 0.003295 0.002292 0.003906 0.001938 -0.004752 -0.009298 0.003940 -0.005762 0.004073 -0.005864 0.008280 0.010781 0.001959 -0.003199 0.007925 -0.001304 0.008448 -0.004022 0.005543 -0.002833
size 0.014437 -0.010465 -0.003345 0.012842 -0.008662 0.025400 0.000930 -0.014046 -0.006097 -0.033858 -0.004901 0.002911 -0.016531 -0.034410 0.014823 0.005330 0.029248 0.007098 0.002329 0.001111 -0.002777 -0.015362 -0.028912 -0.002257 0.007321 0.022772 -0.012806 0.012194 -0.008593 -0.018321 0.002953 0.006489 -0.009592 0.018393 -0.019859 -0.007502 0.022565 -0.023159 -0.012212 0.016785 -0.003341 -0.009945 -0.003660 0.017255 -0.001292 -0.003460 0.009096 0.012947 -0.009407 0.017965 -0.014437 -0.009789 0.004581 0.001450 0.014234 -0.013876 -0.002454 0.011357 0.021102 0.015431 -0.021494 0.015179 0.011806 -0.014496 -0.013519 0.032664 0.016252 0.038233 0.016340 0.036632 -0.021001 0.003526 -0.009990 0.012800 0.013501 0.009666 -0.001809 -0.002572 -0.001238 -0.027402 0.000622 0.020739 -0.019005 0.030329 -0.001247 0.012509 0.007732 -0.017032 -0.000616 0.028281 0.010470 -0.003920 -0.008927 -0.019966 0.013573 0.000272 0.034223 -0.002317 -0.018759 0.014380
laptop 0.014263 -0.011018 -0.006231 0.015208 -0.009849 0.022524 0.000422 -0.014772 0.002771 -0.035370 -0.005641 -0.004532 -0.016950 -0.030997 0.014255 -0.006013 0.027874 0.010098 0.006795 0.002468 0.001005 -0.011569 -0.026136 0.002226 0.010421 0.015691 -0.012195 0.013614 -0.006031 -0.020767 0.003091 0.007602 -0.007536 0.015568 -0.012450 -0.015430 0.018757 -0.023308 -0.011542 0.014434 -0.012272 -0.005055 -0.011495 0.020004 0.002512 0.005821 0.004891 0.015131 -0.009907 0.008669 -0.012507 -0.005837 0.008004 -0.005649 0.017325 -0.010616 -0.003528 0.017240 0.023542 0.011440 -0.019369 0.014437 0.016679 -0.015714 -0.004120 0.033298 0.009556 0.035899 0.011561 0.033401 -0.017416 0.005299 -0.019232 0.014125 0.009736 0.010565 0.005395 0.001241 -0.002926 -0.029749 0.003389 0.015049 -0.013152 0.026363 -0.002140 0.011778 0.003219 -0.014059 -0.006257 0.025032 0.012555 -0.003538 -0.009049 -0.014555 0.013216 0.001312 0.037573 -0.004260 -0.018333 0.014308
player 0.020537 -0.011398 -0.000029 0.014970 -0.017049 0.039546 0.000983 -0.022668 0.001947 -0.048842 -0.005388 -0.007318 -0.011943 -0.041067 0.010786 -0.004769 0.040777 0.020715 -0.001185 -0.003525 0.000953 -0.023954 -0.039963 -0.008018 0.023346 0.025415 -0.007615 0.014722 -0.017919 -0.020294 0.004856 0.013201 -0.010706 0.014502 -0.024317 -0.019557 0.033107 -0.034064 -0.015719 0.021051 -0.008403 -0.012367 -0.006754 0.035990 0.004069 0.005829 0.012329 0.023841 -0.019421 0.021914 -0.017215 -0.007717 0.005225 -0.000309 0.016630 -0.015440 -0.006652 0.011923 0.039078 0.024387 -0.032484 0.021446 0.016828 -0.015339 -0.011037 0.041667 0.017226 0.046474 0.013404 0.052032 -0.017464 -0.001480 -0.019173 0.015429 0.018663 0.021266 -0.003004 0.001587 -0.000950 -0.041616 0.005799 0.023877 -0.023453 0.039381 0.002767 0.016898 -0.001142 -0.018552 -0.009149 0.038014 0.013220 -0.011634 -0.013232 -0.027254 0.027624 0.000124 0.046831 -0.005422 -0.028177 0.023150
radio 0.031118 -0.031054 -0.008348 0.025557 -0.016409 0.065949 0.006371 -0.034400 -0.004992 -0.075618 -0.002572 -0.003092 -0.020565 -0.057258 0.035012 -0.003024 0.080002 0.030486 0.016266 -0.001819 -0.003408 -0.029230 -0.048076 -0.013002 0.034792 0.033750 -0.010994 0.018404 -0.026979 -0.037344 0.006200 0.018273 -0.021876 0.031611 -0.041987 -0.019670 0.048556 -0.060219 -0.031487 0.038624 0.000836 -0.017450 -0.027384 0.059218 -0.001824 0.001429 0.010421 0.037697 -0.033224 0.026309 -0.035035 -0.013336 -0.005859 -0.001385 0.021064 -0.019483 -0.003318 0.032879 0.059522 0.037768 -0.057163 0.028623 0.029644 -0.036802 -0.026347 0.077768 0.034934 0.058456 0.028699 0.076183 -0.030116 0.003548 -0.018013 0.011198 0.031244 0.024130 0.005836 -0.008501 -0.003328 -0.060402 0.008827 0.042735 -0.034301 0.061695 0.001226 0.032427 -0.001412 -0.038282 -0.018237 0.065736 0.025217 -0.015230 -0.012076 -0.041965 0.030690 -0.000220 0.080289 -0.007902 -0.040259 0.040187
iphone 0.022828 -0.024232 -0.008082 0.025494 -0.011943 0.054244 0.004093 -0.024448 0.000580 -0.070622 -0.010408 -0.004174 -0.011746 -0.043194 0.022705 -0.003807 0.066001 0.028645 0.006887 -0.007168 0.002306 -0.023730 -0.035674 -0.000979 0.025669 0.027344 -0.002276 0.015004 -0.019595 -0.033412 0.000022 0.013344 -0.012978 0.030043 -0.037020 -0.022859 0.039413 -0.044279 -0.025161 0.029012 -0.004923 -0.009586 -0.025918 0.049518 0.001937 -0.000588 0.007248 0.023205 -0.027287 0.017974 -0.021179 -0.008881 -0.003655 -0.001174 0.014820 -0.011099 -0.006016 0.018618 0.050005 0.026173 -0.042038 0.024096 0.023385 -0.018202 -0.020263 0.057771 0.027442 0.049314 0.014447 0.060284 -0.022324 -0.006379 -0.017445 0.017242 0.032083 0.020317 0.003631 -0.011160 0.005253 -0.049460 0.009144 0.029296 -0.034498 0.046232 0.006695 0.022801 -0.007715 -0.039687 -0.023881 0.048343 0.018323 -0.015247 -0.012982 -0.036992 0.025818 0.004927 0.065521 -0.000706 -0.040076 0.039795
portable 0.021083 -0.010376 -0.010609 0.019078 -0.008546 0.038118 0.002056 -0.013769 0.001777 -0.041095 -0.000718 -0.003200 -0.020604 -0.039240 0.010953 -0.004573 0.040496 0.016236 0.004306 0.001646 0.002556 -0.013551 -0.031964 0.003052 0.016710 0.029055 -0.006144 0.007017 -0.016524 -0.025265 0.003017 0.006405 -0.016120 0.019974 -0.025688 -0.012688 0.031760 -0.021870 -0.014790 0.024929 -0.007067 -0.008636 -0.012662 0.028196 -0.003231 0.005976 0.006776 0.015477 -0.014261 0.018746 -0.011487 -0.010500 0.001414 -0.000446 0.013408 -0.012575 -0.005263 0.013179 0.029412 0.023000 -0.035673 0.016958 0.015954 -0.011275 -0.008294 0.041357 0.014906 0.042021 0.013287 0.042461 -0.022162 0.000620 -0.014302 0.012299 0.021783 0.018848 -0.003854 -0.006805 0.000834 -0.040873 0.002536 0.018178 -0.019432 0.025926 -0.000477 0.010438 0.004164 -0.025312 -0.014886 0.028809 0.014684 -0.006045 -0.014144 -0.025498 0.024347 -0.000914 0.040757 -0.004191 -0.025677 0.022776
subwoofer 0.002476 -0.007617 -0.005127 0.006242 -0.001600 0.002661 0.004350 -0.003452 -0.001264 -0.009830 -0.002654 -0.003181 -0.007612 -0.005682 0.001853 0.003345 0.008425 0.001249 0.000767 0.003122 0.000257 -0.005681 -0.009315 0.002126 0.001753 0.008740 -0.008135 0.000050 0.001277 -0.006759 0.001282 0.004549 -0.001290 0.004089 -0.006277 -0.002475 0.008623 -0.003244 -0.009598 0.006989 0.004563 -0.007338 0.003107 0.002559 0.004704 -0.004889 0.001680 0.000233 0.000442 0.000055 -0.002597 -0.007590 0.001193 -0.000595 0.006652 -0.000148 -0.007991 0.004108 0.009354 0.006905 -0.003529 -0.000318 0.002975 -0.004537 -0.004176 0.013772 0.001786 0.012509 0.004857 0.008940 -0.003236 0.005294 -0.000189 0.006413 0.003123 -0.002410 -0.005859 -0.001528 -0.009345 -0.006108 -0.006499 0.007118 -0.004755 0.012379 -0.003978 -0.002136 0.006005 0.000590 0.002870 0.001738 0.003893 -0.001392 -0.002546 -0.002401 0.009098 -0.003718 0.009182 -0.003408 -0.004446 0.007342
usb 0.020432 -0.012781 -0.011285 0.019305 -0.009427 0.050584 0.002846 -0.018817 -0.004196 -0.055967 -0.005314 -0.003542 -0.016154 -0.040637 0.023881 -0.004269 0.051726 0.022179 0.010501 -0.006753 0.003831 -0.022197 -0.042380 -0.005677 0.014230 0.022165 -0.008858 0.016740 -0.009562 -0.025458 0.010012 0.007634 -0.010573 0.020165 -0.022335 -0.018530 0.034436 -0.038048 -0.021223 0.019414 -0.004259 -0.016997 -0.025079 0.033285 0.009832 0.001603 0.016202 0.024740 -0.016297 0.023552 -0.022540 -0.016426 0.007160 -0.003071 0.019861 -0.016453 -0.006695 0.021029 0.045870 0.027698 -0.038030 0.019441 0.023403 -0.020132 -0.007863 0.054535 0.022477 0.052008 0.018689 0.048193 -0.020870 0.005680 -0.018521 0.014233 0.022972 0.023146 0.007987 -0.006063 -0.011086 -0.038296 -0.001392 0.027389 -0.023604 0.036299 -0.000744 0.023786 0.008031 -0.026034 -0.016936 0.037867 0.012871 -0.007310 -0.014266 -0.028459 0.025353 0.012575 0.056487 -0.000604 -0.023206 0.024707
stereo 0.021622 -0.009773 -0.002771 0.018662 -0.009317 0.026154 -0.002047 -0.009776 0.008572 -0.036566 -0.002643 0.001570 -0.008284 -0.027491 0.007510 0.001322 0.035258 0.014833 0.003336 0.005223 0.001595 -0.017052 -0.030857 0.002864 0.021283 0.017777 -0.004119 0.003424 -0.016093 -0.023065 0.009397 0.000286 -0.010409 0.011826 -0.023089 -0.016135 0.021202 -0.015644 -0.017051 0.017941 -0.003901 -0.009932 -0.014714 0.021045 0.006363 0.007783 0.005045 0.017488 -0.012445 0.012904 -0.011023 -0.008615 0.000696 -0.002431 0.010621 -0.010189 -0.008794 0.012503 0.026807 0.010345 -0.025670 0.008811 0.017543 -0.010041 -0.009464 0.033190 0.016258 0.037800 0.013354 0.043645 -0.020323 -0.000586 -0.018918 0.013688 0.020437 0.009463 -0.008451 -0.000753 -0.001549 -0.033972 0.005621 0.018251 -0.016824 0.021118 0.004503 0.012942 -0.002462 -0.021575 -0.005719 0.019689 0.015634 -0.007618 -0.011696 -0.021132 0.019258 -0.004169 0.034158 -0.001166 -0.018928 0.022613
control 0.017144 -0.017580 -0.001365 0.012198 -0.006290 0.036298 0.008702 -0.015821 -0.003150 -0.041720 -0.002665 0.003874 -0.019618 -0.032733 0.011415 -0.004148 0.037983 0.013526 0.001515 -0.000143 -0.003323 -0.019931 -0.026061 0.007442 0.017268 0.030695 -0.003207 0.004469 -0.019306 -0.021347 0.003784 0.007467 -0.011719 0.010902 -0.017447 -0.009512 0.020004 -0.018099 -0.021383 0.010718 -0.011604 -0.014916 -0.013686 0.022680 0.002388 0.006473 0.011909 0.012794 -0.013051 0.018099 -0.008931 -0.003375 0.000857 0.002734 0.020535 -0.001417 -0.007615 0.019811 0.035539 0.024523 -0.027002 0.017908 0.018972 -0.009983 -0.008074 0.045935 0.015560 0.040041 0.008746 0.042691 -0.015587 -0.004677 -0.014267 0.008635 0.018946 0.010442 0.003130 -0.000866 -0.006816 -0.038102 0.008176 0.017654 -0.017178 0.023589 0.000220 0.013826 -0.006312 -0.022753 -0.008680 0.024170 0.015668 -0.001655 -0.007719 -0.016054 0.021900 0.002798 0.043289 0.002383 -0.020902 0.020532
device 0.005836 -0.009528 -0.004738 0.013824 -0.004874 0.023397 -0.002753 -0.011899 0.007859 -0.028580 -0.001493 0.002435 -0.004415 -0.018361 0.003716 -0.003672 0.026219 0.006279 0.009523 0.001634 0.004176 -0.004846 -0.023844 0.006261 0.010961 0.013700 -0.010956 0.009600 -0.010408 -0.020877 0.001124 0.001302 -0.011027 0.007689 -0.012855 -0.010053 0.015524 -0.011756 -0.014445 0.012838 -0.003557 -0.002631 -0.014919 0.021895 0.008621 0.006011 0.005871 0.011097 -0.012552 0.009864 -0.009697 -0.007792 0.003663 0.004978 0.009092 -0.007198 -0.001348 0.007618 0.025486 0.007149 -0.016768 0.004974 0.013105 -0.007179 -0.009924 0.028900 0.010263 0.029879 0.011005 0.024107 -0.014780 -0.000254 -0.008161 0.012994 0.016509 0.010534 -0.003945 -0.005965 0.000273 -0.025741 0.008882 0.011034 -0.007206 0.012186 0.001373 0.006256 0.001687 -0.012325 -0.011104 0.021389 0.013408 -0.005745 -0.010816 -0.015975 0.004726 0.000780 0.029961 -0.004491 -0.014590 0.009606
pair 0.007474 -0.010299 -0.001655 0.012259 -0.003785 0.012899 -0.004412 -0.007991 0.005566 -0.021280 -0.003879 0.003225 -0.002568 -0.015250 0.010902 -0.000990 0.019650 0.008011 0.006914 0.004285 0.000649 -0.005092 -0.013846 0.001819 0.011316 0.005377 -0.009036 0.008422 -0.000805 -0.013122 0.002428 0.005049 -0.007772 0.011975 -0.011093 -0.008322 0.006560 -0.014850 -0.009091 0.010401 0.004660 -0.005505 -0.001190 0.014547 -0.000826 0.004107 0.003895 0.006217 -0.011551 0.003369 -0.005638 -0.002710 -0.003352 0.001052 0.003952 -0.001748 -0.002172 0.002793 0.017531 0.007108 -0.012281 0.008378 0.008133 -0.012638 -0.003250 0.022939 0.009251 0.013921 0.010180 0.022189 -0.003171 -0.001747 -0.011212 0.008119 0.007420 0.008796 -0.001481 -0.001644 -0.000043 -0.011809 -0.004099 0.016703 -0.002738 0.014258 0.003660 0.009460 0.003143 -0.009892 -0.009741 0.010441 0.007418 -0.002830 -0.000956 -0.013253 0.012257 -0.003194 0.021376 0.001676 -0.007408 0.007971
logitech 0.011053 -0.008517 0.000516 0.004469 -0.002641 0.012983 0.001639 -0.007797 -0.004022 -0.023421 -0.005717 0.002268 -0.005793 -0.013965 0.003072 0.003142 0.024943 0.010440 -0.001961 0.003586 0.003075 -0.011800 -0.015744 0.000723 0.004948 0.017237 -0.003337 0.007108 -0.007326 -0.013521 0.002378 -0.001248 -0.009875 0.006938 -0.013066 -0.010303 0.016902 -0.010340 -0.012106 0.009422 -0.006957 -0.005734 -0.006877 0.018050 -0.003198 0.001739 0.004927 0.011946 -0.006675 0.008801 -0.007287 -0.005809 -0.000079 -0.000161 0.001203 -0.006658 0.001808 0.005209 0.016506 0.013202 -0.011416 0.009438 0.005301 -0.011931 -0.008251 0.015516 0.003452 0.021583 0.004389 0.017452 -0.009122 0.002313 -0.005890 0.008386 0.007394 0.012407 0.001503 -0.004983 -0.004508 -0.017225 -0.000205 0.008113 -0.009910 0.011338 0.003715 0.002382 0.002693 -0.014120 -0.002371 0.017034 0.011784 -0.005639 -0.000984 -0.013374 0.014568 0.004152 0.022095 0.000167 -0.015756 0.010740
clear -0.018088 0.014518 0.007923 -0.022716 0.016386 -0.038309 -0.003440 0.022734 -0.002206 0.053299 -0.003078 -0.001840 0.016560 0.045441 -0.024671 0.003813 -0.057903 -0.020113 -0.008702 0.003412 -0.001495 0.016760 0.036132 0.010558 -0.022036 -0.020608 0.012584 -0.007406 0.021238 0.023449 -0.003018 -0.012127 0.020246 -0.019028 0.023762 0.014733 -0.032122 0.036320 0.023375 -0.030067 0.002938 0.006507 0.018541 -0.040663 -0.003543 -0.002293 -0.013107 -0.018549 0.013821 -0.020995 0.016290 0.007916 -0.008466 0.001872 -0.016463 0.015222 0.005248 -0.025969 -0.040546 -0.019292 0.037914 -0.018023 -0.019627 0.014498 0.017807 -0.053137 -0.019284 -0.046044 -0.020770 -0.062460 0.020994 -0.003382 0.016604 -0.018501 -0.023618 -0.018488 -0.005409 0.003096 0.000016 0.044243 -0.004595 -0.024593 0.023585 -0.041317 -0.006155 -0.016027 -0.002427 0.031880 0.012205 -0.042032 -0.016635 0.007204 0.013595 0.024132 -0.025405 -0.008679 -0.056952 0.000019 0.037201 -0.021249
big -0.001901 -0.000976 0.000913 0.000544 -0.010502 0.007894 -0.001357 -0.005970 -0.007401 -0.011937 -0.001658 -0.005691 -0.008508 -0.015456 0.009817 0.000298 0.011715 0.006253 0.003713 -0.005573 0.001700 -0.005135 -0.007421 -0.008093 -0.003688 -0.000685 0.002723 0.005442 0.002161 -0.001477 -0.000916 0.000225 -0.000204 0.005472 -0.004995 0.001073 0.005396 -0.015814 -0.005935 0.009291 -0.005349 0.003450 -0.000088 0.005653 0.001970 -0.006772 0.004922 0.009387 -0.006196 0.002044 -0.006726 -0.002992 -0.005972 -0.004919 0.001752 -0.006929 -0.004396 -0.001851 0.009699 0.001848 -0.009146 0.003336 0.001630 -0.011247 -0.006965 0.007849 0.005887 0.006656 0.009720 0.009177 -0.005036 0.004779 -0.000760 -0.001331 -0.001395 0.008485 0.006424 0.002082 -0.002520 -0.013841 0.003844 0.010942 -0.008844 0.010768 -0.002778 0.009468 0.004479 0.001997 0.005388 0.013959 0.006667 -0.007533 -0.006926 -0.000385 0.004044 0.004987 0.003625 0.000707 -0.008498 -0.000603
wall 0.015513 -0.010733 -0.001426 0.011128 -0.004901 0.019134 0.004318 -0.015649 -0.002615 -0.025127 0.004328 0.000250 -0.011539 -0.018600 0.008221 -0.001060 0.027148 0.007469 -0.000642 0.002684 -0.000553 -0.014931 -0.015966 -0.010140 0.013676 0.016516 -0.000736 0.007091 -0.005407 -0.011979 -0.002252 0.009643 -0.008462 0.013634 -0.014571 -0.007406 0.019825 -0.022115 -0.009718 0.011016 0.000790 -0.006923 -0.011881 0.017582 0.005949 -0.001177 0.006067 0.005067 -0.012628 0.009279 -0.016949 -0.009740 -0.003937 0.000838 0.004788 -0.008527 -0.000756 0.014784 0.017719 0.014210 -0.020701 0.013631 0.002021 -0.012175 -0.008481 0.024763 0.015495 0.024942 0.008511 0.031376 -0.006073 0.003354 -0.011618 0.002508 0.011817 0.007725 0.002564 -0.004785 -0.001115 -0.025624 0.005354 0.012683 -0.013183 0.024914 -0.000265 0.009712 -0.000071 -0.012474 -0.008639 0.018008 0.013340 -0.001813 -0.000883 -0.014098 0.009700 0.001859 0.022987 0.002159 -0.018272 0.009128
money 0.003730 -0.005698 0.003467 -0.001673 -0.003476 0.004376 0.002058 0.001966 0.000147 -0.003124 0.003516 -0.001605 -0.003091 0.000242 0.002487 -0.000678 0.005009 0.000884 -0.001846 0.002548 -0.000165 -0.001587 -0.007691 -0.000557 0.006841 0.003279 -0.001829 -0.002567 -0.003569 -0.003116 0.004341 0.001691 -0.002436 0.004572 -0.004277 -0.003566 0.004710 -0.001437 -0.003592 0.003842 -0.003321 0.002619 -0.001903 0.009139 -0.003099 0.001073 -0.002240 0.003833 -0.002062 -0.002203 -0.004859 -0.004441 -0.003555 -0.004292 0.004354 -0.003530 -0.000238 -0.001265 0.001881 -0.000393 -0.007479 0.005046 -0.000502 -0.003133 0.000537 0.003429 -0.002398 0.004491 0.004963 0.006765 -0.000199 -0.005160 0.001678 -0.000920 0.004896 0.000961 -0.004785 -0.002983 0.004028 -0.009281 0.002467 0.006362 -0.000665 -0.000784 -0.000694 0.004137 -0.005678 -0.002927 -0.004270 0.001904 -0.001925 -0.006898 -0.002785 0.000383 0.005949 0.000006 0.010243 0.000637 -0.007014 0.003929
case 0.007283 -0.012682 -0.003618 0.011828 0.000115 0.019071 -0.001253 -0.012166 0.000189 -0.031244 -0.006925 -0.002274 -0.003834 -0.016171 0.009268 -0.004653 0.026805 0.012147 0.005794 -0.001155 0.001706 -0.006782 -0.014562 -0.001198 0.014091 0.014512 -0.007410 -0.000179 -0.004402 -0.008688 0.005583 0.002210 -0.003349 0.012699 -0.014114 -0.003879 0.014757 -0.014130 -0.009793 0.008124 -0.006483 -0.011113 -0.013489 0.014287 0.002893 0.001462 0.000387 0.006275 -0.004249 0.010061 -0.012651 -0.001070 -0.000636 0.003268 0.006487 -0.007309 -0.005360 0.005304 0.021200 0.012155 -0.019518 0.005938 0.009102 -0.003976 -0.010545 0.018794 0.007034 0.018275 0.007280 0.021224 -0.013989 -0.000616 -0.008622 0.006277 0.011177 0.006560 -0.004638 -0.004154 -0.000464 -0.016805 -0.000930 0.008599 -0.009291 0.014145 0.000281 0.006960 0.002382 -0.020183 -0.012494 0.021119 0.003227 -0.000607 -0.010015 -0.016736 0.013662 0.001787 0.023225 -0.002141 -0.011996 0.017427
button 0.018767 -0.009382 -0.001925 0.010101 -0.004545 0.034253 0.005471 -0.014249 0.005672 -0.041706 -0.001145 -0.001440 -0.006059 -0.031793 0.006904 -0.007885 0.042736 0.016686 0.008401 -0.001654 0.000993 -0.015687 -0.021401 0.002673 0.018188 0.025221 -0.002954 0.012862 -0.013076 -0.018601 0.004345 0.003497 -0.015405 0.016631 -0.017834 -0.017067 0.017205 -0.021297 -0.016672 0.010765 -0.010338 -0.009301 -0.019396 0.024738 0.003523 -0.002762 0.007219 0.008905 -0.017162 0.018725 -0.012215 -0.002485 -0.000128 0.002706 0.018214 -0.002057 -0.003220 0.018187 0.032296 0.024637 -0.028348 0.013642 0.009795 -0.005172 -0.005583 0.037684 0.017605 0.036761 0.008741 0.036335 -0.018004 -0.002681 -0.008768 0.008804 0.012603 0.015993 0.000404 -0.006110 -0.005024 -0.027692 0.007579 0.013409 -0.016027 0.030625 0.004622 0.014274 -0.003154 -0.026542 -0.007731 0.029008 0.009554 -0.003293 -0.004876 -0.019221 0.015156 0.006652 0.040116 -0.004117 -0.026123 0.023010
tv 0.007806 -0.006029 0.001278 0.003192 -0.003948 0.014428 0.004291 -0.008149 -0.002633 -0.015006 -0.001111 -0.000101 -0.001925 -0.006289 0.000128 0.003728 0.015062 0.008554 -0.006103 -0.002462 -0.006065 -0.008235 -0.014490 -0.001136 0.003526 0.012697 -0.003235 0.002114 -0.003726 -0.004392 -0.002778 0.004449 -0.000174 0.008087 -0.004124 -0.004872 0.006606 -0.010908 -0.009514 0.011056 -0.005868 0.000865 0.003443 0.012967 -0.002210 0.003959 0.003441 0.002117 -0.007481 0.000521 -0.005331 -0.006210 -0.002192 -0.005229 0.007124 -0.002631 0.000678 0.001821 0.011917 0.000829 -0.006239 0.007261 0.008216 -0.012261 -0.005136 0.008862 0.000006 0.006934 0.005046 0.007235 -0.008559 0.001712 -0.008376 0.000565 0.004523 0.003065 0.001338 -0.000480 -0.000571 -0.011416 -0.002185 0.004326 -0.002277 0.012211 0.006194 0.000496 0.004406 -0.000555 -0.005009 0.006810 0.005691 -0.003855 -0.003382 -0.009081 0.012165 0.001452 0.015973 0.000738 -0.005896 0.010911
full 0.005210 -0.001995 -0.006050 0.004439 -0.007578 0.019521 0.000283 -0.007940 -0.004130 -0.024110 0.001402 -0.003049 -0.011334 -0.013075 0.008143 0.003049 0.015655 -0.000055 0.006597 0.004048 -0.008251 -0.007330 -0.015917 -0.003868 0.009253 0.015283 -0.006304 0.004573 -0.007754 -0.007976 -0.000219 0.005786 -0.006211 0.010425 -0.011355 -0.007962 0.015088 -0.012424 -0.012553 0.004581 0.000426 -0.002510 0.000001 0.012838 -0.000144 0.001651 0.006401 0.010696 -0.008411 0.013604 -0.011364 0.001037 0.000824 0.001338 0.007503 -0.006613 0.000858 0.006063 0.011017 0.012124 -0.008401 0.013074 0.005343 -0.011358 -0.008800 0.019404 0.012012 0.017437 0.004080 0.015362 -0.003320 0.004505 -0.004181 0.006638 0.007648 0.001841 -0.000845 -0.005175 -0.002887 -0.014930 -0.004475 0.014760 -0.011384 0.011223 -0.002841 0.002535 0.003570 -0.004535 -0.000134 0.014297 0.009362 0.000610 -0.009452 -0.011226 0.012668 -0.001428 0.022636 -0.004264 -0.009655 0.007842
movie 0.007547 -0.007937 -0.004894 0.004031 -0.002228 0.012226 0.004089 -0.009248 0.002987 -0.019166 0.003715 0.005139 -0.011204 -0.017864 0.007029 -0.000579 0.017542 0.008917 0.005267 0.002097 0.000210 -0.005899 -0.018341 0.002599 0.008587 0.015303 -0.004459 0.008623 -0.013771 -0.012338 0.004175 0.003788 -0.005143 -0.000488 -0.006024 -0.004360 0.015514 -0.001463 -0.013271 0.011571 -0.010539 -0.008455 -0.008446 0.009020 -0.001077 0.000730 0.001112 0.011282 -0.008361 0.005180 -0.003241 0.002837 0.001838 0.003252 0.007007 -0.006357 -0.001891 0.009659 0.013170 0.006415 -0.009467 0.002497 0.007442 -0.007955 0.000295 0.014526 0.003653 0.024558 0.003333 0.016802 -0.010682 -0.003755 -0.013739 0.005691 0.011898 0.006689 -0.000431 -0.002575 -0.000282 -0.013619 0.001380 0.004482 -0.011559 0.014570 0.001853 -0.000529 -0.006108 -0.006371 -0.006113 0.010119 0.010473 0.000316 -0.000507 -0.008284 0.010135 0.001259 0.017751 -0.003841 -0.006206 0.008644
stand 0.009033 -0.008008 0.002051 0.005836 -0.003175 0.014992 0.000597 -0.011674 0.002668 -0.018507 0.002037 0.000649 -0.005883 -0.011066 0.004642 -0.003789 0.014952 0.001914 0.006167 -0.006080 -0.004965 -0.010374 -0.009462 -0.004580 0.002713 0.004137 -0.000668 0.000104 -0.008436 -0.009709 -0.001631 0.001508 -0.005940 0.006879 -0.009679 -0.002434 0.012611 -0.015263 -0.011457 0.003663 0.004945 -0.000539 -0.009789 0.011476 -0.000849 -0.001826 0.000802 0.003167 -0.004409 0.006670 -0.010513 -0.001163 -0.003387 -0.005932 0.004395 -0.004211 0.002315 0.005774 0.014625 0.005282 -0.015228 0.011087 0.007484 -0.011884 -0.008467 0.015108 0.003912 0.016195 0.004885 0.016395 -0.006923 -0.002391 -0.006192 -0.000758 0.004843 0.004552 -0.000489 -0.004674 -0.003765 -0.013971 -0.003925 0.014813 -0.005746 0.009891 0.005832 0.008745 -0.001989 -0.004412 -0.006765 0.016944 0.006965 -0.009680 -0.006437 -0.007352 0.011215 0.004265 0.017727 0.001194 -0.013984 0.006582
box 0.011974 -0.016814 -0.007050 0.010398 -0.013687 0.018090 0.001657 -0.014386 -0.003576 -0.025025 0.000108 -0.000420 -0.014556 -0.021160 0.015079 0.000548 0.026597 0.008676 0.008732 0.007604 -0.002654 -0.010949 -0.025174 -0.002673 0.013797 0.021078 -0.011753 0.011760 -0.009213 -0.016507 -0.000857 0.004156 -0.007810 0.008568 -0.013348 -0.008778 0.019255 -0.022284 -0.009635 0.013938 -0.002706 -0.013256 -0.007051 0.025723 -0.000212 -0.004932 0.006953 0.011549 -0.008000 0.011805 -0.008794 -0.010613 0.005865 -0.006174 0.010379 -0.012701 -0.009773 0.009688 0.019791 0.011683 -0.021487 0.009692 0.009355 -0.018528 -0.005403 0.026734 0.006268 0.031941 0.008648 0.034764 -0.015844 0.005350 -0.014459 0.008221 0.012536 0.009780 0.001826 -0.002107 -0.003026 -0.023249 -0.003484 0.024450 -0.017241 0.021604 0.003828 0.004057 0.004206 -0.013080 -0.011467 0.025183 0.014578 -0.003342 -0.012043 -0.018403 0.017908 0.005399 0.028524 0.000232 -0.019052 0.010291
setup 0.006880 -0.008162 -0.003097 0.002256 -0.008063 0.007836 -0.000876 -0.006355 0.002280 -0.014529 0.002510 -0.000754 -0.006166 -0.011179 0.001110 0.002654 0.009281 0.001311 0.001086 0.005736 -0.003753 -0.006341 -0.013952 -0.006757 0.005918 0.005654 -0.003950 0.003310 -0.004004 -0.005185 -0.000147 0.000265 -0.007594 0.002758 -0.010848 -0.004418 0.012268 -0.003500 -0.009128 0.007896 -0.002061 -0.007905 -0.004598 0.010534 0.003685 -0.001040 0.002400 0.009142 -0.010163 0.009327 -0.002034 0.000976 0.004389 -0.001682 0.001269 -0.006310 0.000873 0.006357 0.011106 0.002840 -0.004753 0.003578 0.001215 -0.002388 -0.005890 0.011488 0.001744 0.012867 0.010282 0.019812 -0.003164 0.005894 -0.008127 0.006751 0.007624 0.006479 0.003998 0.001963 -0.002079 -0.007832 0.003115 0.010718 -0.007933 0.008189 0.006286 0.002757 0.000021 -0.003854 -0.005017 0.010822 0.008088 -0.005674 -0.009093 -0.003840 0.009912 -0.002078 0.010038 0.000793 -0.010498 0.007773
front 0.014642 -0.011526 0.000784 0.006816 -0.013528 0.021019 0.001639 -0.014833 0.004223 -0.022057 -0.000406 -0.000802 -0.010036 -0.015456 0.001576 0.000491 0.019739 0.002726 -0.000845 0.004374 -0.006671 -0.007470 -0.019022 0.001004 0.007293 0.013251 -0.002686 0.002323 -0.002172 -0.008818 -0.000496 0.001341 -0.009571 0.004627 -0.018594 -0.010706 0.012990 -0.011389 -0.010699 0.005259 -0.004998 -0.004698 -0.005589 0.022055 0.003477 -0.004512 -0.001328 0.009345 -0.013613 0.004235 -0.007126 -0.002401 0.004114 0.000026 0.011376 -0.002765 -0.006936 0.013320 0.023990 0.010255 -0.017076 0.006307 0.007891 -0.016551 -0.006441 0.024617 0.007230 0.023443 0.010251 0.022440 -0.010499 -0.000809 -0.012534 0.003321 0.012927 0.003261 -0.002337 0.004496 -0.000491 -0.025164 -0.003857 0.014242 -0.010782 0.013768 0.001015 0.012263 0.000880 -0.013753 -0.010210 0.022648 0.011756 -0.000929 -0.002693 -0.018104 0.012396 0.003270 0.018861 -0.003121 -0.017534 0.013147
center 0.016438 -0.004741 -0.002029 0.009665 -0.015844 0.021297 0.004958 -0.016417 -0.002784 -0.035433 -0.010781 -0.000979 0.002462 -0.019613 0.009974 0.002484 0.028404 0.010446 0.001692 -0.001909 0.001400 -0.008592 -0.015602 -0.000945 0.009731 0.015871 0.001759 0.005363 -0.014802 -0.011588 -0.003280 0.012618 -0.006355 0.012427 -0.013240 -0.012085 0.016615 -0.019040 -0.005248 0.007607 -0.000845 -0.008230 -0.006898 0.021969 0.004134 -0.002649 0.001972 0.013145 -0.008958 0.011566 -0.005618 -0.002341 -0.003007 -0.000751 0.005763 -0.010987 -0.002809 0.006838 0.026415 0.018504 -0.015033 0.006884 0.004408 -0.014064 -0.006796 0.024610 0.016583 0.013507 0.007078 0.027185 -0.008581 -0.008669 -0.013098 0.002179 0.017485 0.002926 -0.003435 -0.003216 0.004596 -0.019097 -0.003404 0.012416 -0.018238 0.020616 0.007127 0.006061 -0.005937 -0.013479 -0.016374 0.016143 0.010551 -0.012259 -0.004579 -0.019228 0.017947 0.000420 0.025558 0.001414 -0.018557 0.009806
receiver 0.017468 -0.009748 -0.005287 0.010045 -0.001837 0.014385 0.002087 -0.010835 0.005729 -0.018500 -0.002369 -0.003365 -0.009483 -0.013342 0.007946 -0.000044 0.022287 0.005434 0.000090 0.002109 -0.000277 -0.012345 -0.020721 0.001276 0.007748 0.011866 -0.006857 0.001240 -0.010167 -0.010457 0.005768 0.000362 -0.003280 0.004850 -0.012506 -0.002681 0.014043 -0.014441 -0.009444 0.009903 -0.003679 -0.001616 -0.001460 0.019987 0.006943 -0.002984 0.000206 0.007480 -0.009258 0.007358 -0.008621 -0.006767 0.001574 0.000187 0.009275 -0.004544 -0.007043 0.010783 0.020886 0.009158 -0.019923 0.010698 0.003965 -0.008788 -0.004851 0.025187 0.010771 0.018979 0.006688 0.021478 -0.013082 -0.005588 -0.005992 0.006254 0.012812 0.013224 -0.003200 -0.001198 -0.001499 -0.015278 0.001187 0.012795 -0.007883 0.018917 0.003016 0.001398 -0.005485 -0.008991 -0.008142 0.016593 0.009996 -0.005810 -0.002967 -0.014885 0.009615 0.001389 0.018780 -0.004913 -0.014136 0.013467
jack 0.025275 -0.013351 -0.005609 0.013717 -0.019453 0.043955 0.000258 -0.018618 -0.006159 -0.046103 -0.007898 -0.005711 -0.014584 -0.044875 0.015028 -0.005866 0.049962 0.022664 0.007236 -0.002845 -0.006116 -0.025192 -0.040291 -0.007506 0.013084 0.027467 0.000441 0.015657 -0.020951 -0.029448 0.000102 0.017529 -0.012891 0.020245 -0.023867 -0.017492 0.027353 -0.040264 -0.012104 0.015825 -0.010269 -0.013015 -0.005210 0.039802 0.001588 -0.003857 0.012647 0.023711 -0.024300 0.024649 -0.017881 -0.009581 0.002776 -0.009262 0.014269 -0.018359 -0.001193 0.016924 0.039048 0.020200 -0.029784 0.012613 0.014762 -0.020676 -0.014942 0.048071 0.021905 0.039727 0.018780 0.043459 -0.020751 0.003900 -0.021663 0.012132 0.014966 0.022298 -0.001497 0.002826 -0.009220 -0.039376 0.000615 0.021443 -0.029184 0.039876 0.003959 0.023250 -0.004932 -0.025222 -0.010571 0.043854 0.015923 -0.016838 -0.009511 -0.033484 0.030030 0.006528 0.049036 -0.004603 -0.024643 0.016758
feature -0.001030 -0.006077 -0.002087 0.007199 -0.006083 0.016487 -0.001274 -0.008095 0.000874 -0.011844 -0.002307 -0.003213 -0.002291 -0.010677 0.004693 0.000533 0.016697 0.002164 0.000613 -0.008680 0.004427 -0.008816 -0.006011 -0.002143 0.006852 0.005152 -0.003478 0.002790 -0.002343 -0.005733 0.000251 0.005254 -0.005367 0.004533 -0.011832 -0.001111 0.011772 -0.009551 -0.001052 0.001386 -0.001789 -0.003117 -0.002283 0.006457 0.001998 0.003809 0.004001 0.005286 -0.006828 0.005778 -0.004286 -0.004405 -0.005252 -0.002744 0.005506 -0.008220 0.001541 0.006809 0.006584 0.009125 -0.012401 0.005303 0.004026 -0.004960 -0.005846 0.013491 0.002529 0.011686 0.009311 0.016350 -0.010103 0.000162 0.002717 0.005876 0.008462 0.011020 0.002623 0.003887 -0.003230 -0.008686 0.004913 0.008477 -0.006718 0.011140 0.001046 0.006756 -0.004045 -0.012157 -0.000094 0.008881 0.007158 -0.000683 -0.007416 -0.007394 0.002225 0.002694 0.010494 0.001520 -0.007441 0.003302
star 0.001822 -0.003531 0.001538 0.002509 -0.002863 0.011105 0.000177 -0.005250 -0.000273 -0.015115 0.002806 -0.003995 -0.003968 -0.015068 0.007557 -0.003840 0.009460 0.011030 0.007661 -0.001232 0.001069 -0.000910 -0.014512 0.001803 0.005336 0.008980 0.003961 0.007201 -0.009745 -0.004230 0.000625 0.004784 -0.004039 0.002031 -0.006479 -0.008453 0.005179 -0.010352 -0.008198 0.003325 0.000245 0.000186 -0.001787 0.014087 -0.002446 -0.000016 0.008236 0.000642 -0.003092 0.008839 -0.008996 -0.007271 -0.000868 0.000122 0.010153 -0.003946 0.003972 0.005178 0.015297 0.007594 -0.013508 0.003138 -0.000463 -0.001057 0.002371 0.015580 0.008100 0.012395 0.000431 0.021187 -0.001706 0.003383 -0.006500 0.004231 0.007467 0.009300 -0.002302 -0.001991 -0.000117 -0.016173 -0.000371 0.002080 -0.007981 0.013854 0.005057 -0.001572 -0.001542 -0.004529 -0.004508 0.010973 0.010761 0.004082 -0.000478 -0.012529 0.009735 0.000938 0.008614 -0.001289 -0.007928 0.002406
range -0.002380 0.000312 -0.004616 -0.005513 -0.000358 0.000036 -0.002061 0.000349 -0.002189 0.007416 0.003175 -0.006214 -0.002800 0.003796 0.003580 0.004699 0.000435 0.003203 0.007043 -0.004566 0.000592 0.003101 -0.001008 -0.003467 0.001078 -0.006252 -0.000214 -0.002654 -0.002377 0.004890 -0.001939 -0.002546 -0.003924 0.002078 0.002624 0.003875 0.002660 0.000441 -0.000120 -0.003119 0.001206 -0.002879 -0.004084 0.003880 0.000555 -0.004427 0.002561 -0.002684 0.006819 -0.002451 0.000515 -0.006014 -0.000460 -0.001135 -0.007203 -0.003868 -0.001340 0.000309 -0.006783 -0.003721 0.001887 -0.004492 -0.001557 -0.000181 0.003900 -0.001488 -0.005715 -0.009368 0.001979 -0.006242 0.007326 0.005755 0.004497 -0.006166 -0.004441 0.001228 -0.001679 0.000031 -0.001052 0.005536 -0.001332 0.004449 0.006389 -0.005292 -0.004949 -0.003903 0.002869 0.004794 -0.002754 -0.001899 0.001214 0.000647 0.000027 -0.002468 -0.003120 -0.000944 -0.004155 -0.000849 -0.001098 -0.000564
remote 0.010877 -0.005555 -0.007483 0.009655 -0.001503 0.020171 0.001801 -0.009458 -0.000705 -0.025316 0.002708 0.003648 -0.001594 -0.018826 0.011301 -0.004212 0.021213 0.004396 -0.001253 -0.002591 0.001120 -0.003468 -0.011956 0.001776 0.009461 0.011189 -0.002876 0.004057 -0.006794 -0.006712 0.001920 0.004129 -0.002219 0.008496 -0.015412 -0.010872 0.014221 -0.013313 -0.010568 0.005004 0.000939 -0.002058 -0.003041 0.014948 0.006327 -0.003311 0.002879 0.004690 -0.012413 0.008528 -0.004009 0.001464 -0.005122 0.000093 0.003175 -0.000207 0.002742 0.011763 0.017290 0.013714 -0.011500 0.010629 0.005983 -0.002645 -0.007069 0.020667 0.006014 0.013568 0.004624 0.023313 -0.007551 -0.004841 -0.004115 0.002749 0.008058 0.004544 0.003925 -0.004481 -0.001929 -0.021970 0.002774 0.007243 -0.007380 0.015933 0.001118 0.007694 -0.001251 -0.015914 -0.007816 0.019238 0.010159 -0.005568 -0.003624 -0.013942 0.011265 -0.000185 0.018291 0.003659 -0.011089 0.014435
cheap 0.002032 -0.005252 0.000633 0.001781 -0.003919 0.006586 -0.001846 -0.003841 0.000268 0.000863 0.003143 -0.002688 -0.004947 0.000750 -0.001525 -0.002836 0.005369 0.001888 0.000893 0.005760 0.002870 0.002301 0.001096 -0.003567 -0.002027 0.001082 0.000119 0.006171 -0.001995 0.002410 0.000173 -0.003078 -0.000188 0.002583 -0.002111 0.002881 0.001612 -0.000572 -0.002753 0.002213 0.001221 0.002652 -0.001949 0.005918 -0.000821 -0.000772 -0.002516 0.004045 0.002725 0.004998 0.001798 -0.004079 0.004194 0.001928 0.007144 -0.006068 0.003344 0.004558 0.002215 -0.002928 -0.004061 -0.002507 0.003347 -0.004618 0.000762 0.003140 0.002149 0.008917 0.001977 0.009183 -0.001040 0.002212 -0.006704 -0.001766 -0.002911 -0.001788 0.003895 0.001131 -0.005104 -0.004632 0.002161 0.001958 -0.000476 0.007637 0.002435 0.004678 -0.002592 0.000836 -0.004865 0.005509 0.000395 -0.003712 -0.001960 -0.000666 0.000563 0.003779 0.004254 -0.000166 -0.004694 -0.002704
side 0.010011 -0.010779 -0.004180 0.008422 -0.008623 0.017313 -0.000863 -0.008998 -0.002365 -0.023260 -0.006602 0.003052 -0.006368 -0.019517 0.012898 0.002306 0.020797 0.008161 0.000388 -0.004249 0.000388 -0.011835 -0.012647 -0.005085 0.011255 0.013502 -0.008210 0.006000 -0.004670 -0.008938 -0.004525 0.003655 -0.010058 0.012007 -0.015302 -0.012976 0.013189 -0.023620 -0.008047 0.003724 -0.006684 -0.003614 -0.010581 0.015755 0.006953 -0.000647 0.010578 0.009827 -0.008367 0.010763 -0.013661 -0.009409 0.001546 -0.003474 0.010879 -0.011659 0.001084 0.007790 0.017810 0.017323 -0.011927 0.011153 0.007530 -0.012323 -0.010632 0.023004 0.007895 0.016230 0.008884 0.024877 -0.015223 0.001200 -0.009293 0.004782 0.010607 0.004199 0.006842 -0.002973 0.002186 -0.020426 0.002319 0.017657 -0.018114 0.016819 0.005110 0.004140 0.005330 -0.007416 -0.008618 0.022221 0.011692 -0.004207 -0.005271 -0.016193 0.013627 0.010385 0.023612 -0.001009 -0.010786 0.013161
design 0.006689 -0.003612 0.001447 0.012008 -0.009579 0.022253 -0.000167 -0.008834 0.002915 -0.023115 0.002451 -0.005129 -0.008867 -0.016694 0.011127 0.003338 0.019790 0.003237 -0.002842 -0.002832 0.000378 -0.006202 -0.018621 -0.005256 0.008009 0.015922 -0.007751 0.006582 -0.005990 -0.007422 -0.001346 -0.000700 -0.009470 0.012532 -0.008764 -0.004064 0.017451 -0.015754 -0.009873 0.008385 -0.001195 -0.001534 -0.003384 0.018452 0.004554 -0.000082 0.003550 0.004441 -0.006988 0.013402 -0.005680 -0.007380 0.002387 -0.003843 0.010373 -0.006926 -0.000145 0.012145 0.013578 0.008960 -0.015065 0.009092 0.004581 -0.008225 -0.000235 0.022879 0.007385 0.018211 0.011420 0.020056 -0.010118 -0.002503 -0.008890 0.004725 0.009521 0.008872 0.002138 -0.004036 -0.003592 -0.012345 0.002717 0.009534 -0.009016 0.012041 0.001264 0.012015 -0.002148 -0.014893 -0.001024 0.012829 0.009176 0.001906 -0.004843 -0.009666 0.014078 0.004925 0.025341 0.002226 -0.012255 0.006013
theater 0.009626 -0.006231 -0.005542 0.002094 0.007612 0.000625 -0.008968 0.003470 0.013814 0.008240 0.008222 0.002778 -0.006719 0.011278 0.005654 -0.002700 -0.005325 0.007647 0.002516 0.006049 0.006821 0.005114 -0.005979 0.007786 0.006941 0.010938 -0.001789 -0.004470 0.000222 -0.004518 -0.003902 -0.004173 0.004278 -0.000090 -0.011664 0.003298 0.008987 0.007926 -0.006898 -0.002767 0.003531 0.001722 -0.000774 0.003126 0.007654 0.008556 0.004421 -0.005648 0.000102 0.002863 -0.002346 0.001653 -0.000571 0.007887 0.004733 -0.001769 0.000839 0.009093 -0.005924 -0.001985 0.006342 -0.006280 0.004727 0.005027 0.010536 -0.006382 -0.007813 0.011492 -0.000326 0.009531 -0.010579 -0.006667 -0.006889 0.009210 0.002399 0.006415 -0.004884 -0.003877 0.005808 -0.002077 -0.002792 0.004482 -0.002147 -0.007175 0.003779 -0.001110 -0.003087 -0.003818 0.006035 -0.000585 0.010329 -0.000634 0.000736 0.010357 -0.001702 -0.000121 -0.001105 0.004580 -0.009093 0.003533
level -0.001269 0.006990 -0.002739 0.002123 -0.001737 -0.006209 -0.004295 0.005005 -0.004647 0.011985 0.005683 0.001582 -0.002585 0.001534 -0.008041 0.004836 -0.011726 -0.000839 -0.003124 -0.002533 -0.003064 0.000545 0.000923 0.008273 -0.001921 -0.001835 0.002843 -0.007088 0.000201 0.003933 0.001483 -0.001400 -0.001209 -0.004785 0.006611 0.002398 -0.001613 0.006641 0.004883 -0.008142 -0.003190 0.006982 -0.000999 -0.011749 0.002825 -0.001907 -0.003751 -0.001542 0.007465 -0.005675 0.006154 -0.001336 -0.001633 -0.000890 0.001447 0.004312 -0.000061 -0.007504 -0.007049 0.000548 0.006254 0.000152 -0.003258 0.003543 -0.000357 -0.005427 -0.006134 -0.011671 -0.000402 -0.012281 0.007760 -0.006082 0.004510 -0.001498 0.001791 -0.006646 0.000490 -0.002542 -0.001670 0.011967 0.004283 -0.008825 0.007912 -0.012141 -0.000321 -0.007474 0.003437 0.004943 0.004184 -0.009471 0.001558 0.001579 -0.003017 0.002883 -0.005572 -0.006437 -0.010134 -0.001444 -0.001183 -0.002408
base 0.000809 0.002422 -0.002354 0.001460 -0.004228 0.000756 -0.000425 0.003972 -0.002736 -0.003818 0.001652 0.003149 -0.002498 -0.005763 0.000896 -0.003111 0.002137 -0.000028 -0.001981 0.003029 0.000726 0.003275 -0.001202 0.003588 -0.000102 0.005608 -0.003334 -0.003746 -0.002100 0.004109 -0.003927 -0.002289 0.001905 0.001510 -0.000351 0.001484 -0.002377 -0.003198 0.001332 0.000426 -0.004512 -0.002485 -0.004482 0.000595 0.000998 -0.003837 0.002653 -0.003489 -0.000984 0.005491 0.001535 0.002646 -0.003919 0.004287 -0.001088 0.000870 -0.000462 0.005713 0.003593 0.003325 -0.003910 -0.002247 0.004592 0.000055 -0.002004 0.006790 -0.001279 0.001008 -0.002726 0.006249 -0.003249 0.004009 0.003107 0.004335 -0.002166 0.004286 -0.000638 0.003184 0.000280 -0.002847 -0.003282 0.002952 -0.002780 -0.002156 0.000578 -0.004306 0.002437 0.001235 0.003551 0.005331 -0.000590 0.003220 -0.004422 -0.005168 0.000144 0.001366 0.001693 -0.000785 0.002141 0.001750
desk 0.009924 -0.007840 -0.001151 0.004485 0.001578 0.004149 0.002317 -0.008768 -0.003868 -0.012802 -0.005064 -0.004377 -0.008899 -0.003204 -0.001708 0.004081 0.007869 0.001119 0.005282 0.005891 0.000834 -0.006461 -0.008179 -0.005388 0.001696 0.003435 -0.005458 -0.000100 -0.002660 -0.006184 -0.004198 0.006692 -0.008333 0.004030 -0.008424 -0.003653 0.004475 -0.005435 -0.002716 0.006219 0.001724 -0.002803 0.003161 0.004117 -0.000659 -0.002523 -0.002889 0.004680 -0.002315 0.001686 -0.004065 -0.000029 0.003541 -0.001102 0.000066 -0.006189 -0.007332 0.007008 0.007024 0.000562 -0.001980 0.001549 0.000263 -0.002843 0.000226 0.007561 0.002567 0.008126 0.003372 0.013673 -0.003348 0.004855 -0.002390 0.004290 0.002852 -0.001011 0.002675 -0.001037 0.000024 -0.004774 -0.001533 0.006937 -0.007771 0.005571 -0.001646 0.003207 0.000368 0.000624 -0.003993 0.012275 0.000647 0.000031 -0.000399 -0.005866 0.005307 0.005674 0.006363 -0.002741 -0.009935 -0.000141
end 0.000126 -0.000718 0.002719 0.004985 -0.000871 -0.003224 0.002194 0.002791 0.002678 -0.000538 -0.000165 0.003622 0.000566 -0.001700 0.001479 0.003192 -0.001520 0.005519 -0.001121 -0.003989 -0.004150 0.006719 0.002229 -0.004461 -0.000252 0.004093 0.004285 -0.002903 -0.000035 0.001251 -0.001064 0.002512 0.001824 0.005177 0.003996 0.001789 0.002448 -0.003904 0.003075 0.001944 0.000612 0.004908 -0.006724 0.002779 -0.004185 -0.001335 0.004789 0.002440 0.001777 0.001843 0.000249 -0.004140 0.005395 0.000409 0.000547 -0.001955 0.001668 0.005828 0.003961 -0.002071 -0.000634 0.000341 -0.002797 0.004540 0.001077 -0.001032 -0.003221 0.004223 0.003875 -0.002008 -0.002705 -0.000029 0.002352 0.000527 0.004438 0.001202 0.000265 -0.005060 -0.004682 0.001508 -0.004021 0.006309 0.006142 0.001740 0.001959 -0.002474 0.002994 0.000347 -0.000224 0.000196 -0.001453 -0.000499 -0.000640 0.002533 0.005179 -0.002635 -0.003759 -0.001391 0.000557 0.002074
light 0.017079 -0.012696 -0.000943 0.009295 -0.006475 0.031252 0.001926 -0.011323 0.008603 -0.034562 0.001570 0.003023 -0.014079 -0.030644 0.009556 -0.002568 0.037164 0.007741 0.005910 0.003667 0.002796 -0.007369 -0.026652 -0.006905 0.013589 0.020642 -0.011541 0.011834 -0.010010 -0.013085 0.004970 -0.001083 -0.010556 0.007964 -0.017377 -0.014941 0.023385 -0.015879 -0.020572 0.011763 -0.008965 -0.003636 -0.017281 0.018707 0.007730 0.003627 0.009424 0.005829 -0.010381 0.016786 -0.012692 -0.006055 0.004831 -0.001847 0.015604 -0.012515 -0.010222 0.019932 0.022478 0.016538 -0.021915 0.005221 0.003338 -0.013480 -0.002309 0.029721 0.009167 0.032840 0.007773 0.035821 -0.011306 0.003250 -0.014061 0.012458 0.012703 0.005716 -0.002510 -0.008658 -0.000199 -0.026748 0.002342 0.024493 -0.015344 0.026043 -0.002008 0.012182 -0.001839 -0.017978 -0.008746 0.023452 0.009020 0.001218 -0.004158 -0.012943 0.012051 0.007506 0.037190 -0.000388 -0.012318 0.013531
pc 0.001392 -0.000056 -0.001041 0.005817 -0.003317 0.005914 0.002879 -0.007499 -0.005401 -0.005345 -0.001938 0.003648 -0.005639 -0.007239 0.003242 0.002522 0.009513 0.007505 -0.003950 -0.004279 -0.003762 -0.002798 -0.003751 -0.002077 0.002075 0.008433 0.000665 0.003825 -0.002903 -0.005258 0.004007 0.001474 -0.002464 0.004257 -0.004632 -0.001895 0.005038 -0.009973 -0.003175 0.006372 -0.005461 -0.005636 -0.003873 0.010528 0.000003 0.001699 0.000646 -0.000878 -0.006522 0.003306 -0.003808 0.000410 0.001248 0.004397 0.006156 0.003178 -0.001998 -0.001078 0.001799 0.006292 -0.007009 0.006963 0.001735 -0.005078 -0.002447 0.004541 -0.000862 0.007647 0.005863 0.009313 -0.008135 0.001825 -0.004011 -0.001104 0.005450 0.000371 0.005611 0.001090 -0.003845 -0.000891 -0.001724 0.002772 -0.002920 0.000784 0.000539 0.007620 -0.003479 -0.001794 -0.003630 0.002614 -0.002515 0.001493 0.003355 -0.008301 0.006024 0.000930 0.007620 -0.003320 -0.006218 0.001075
hour 0.011590 -0.003875 0.001715 0.002490 -0.006625 0.013247 -0.002217 -0.011447 0.002975 -0.017764 -0.001543 0.003600 -0.007678 -0.008399 0.003712 0.000029 0.017187 0.003972 -0.000463 -0.002026 0.004984 -0.001616 -0.009737 -0.003657 0.007309 0.004315 -0.000567 0.005240 -0.002039 -0.011293 0.004148 0.003771 -0.001535 0.005294 -0.011795 -0.007616 0.008752 -0.010517 -0.009314 0.001949 0.000767 -0.006212 -0.000484 0.015912 0.001259 0.000029 0.002291 0.001750 -0.008579 0.004289 -0.008300 -0.004373 0.003870 -0.001977 0.009874 0.001633 0.003811 0.002682 0.017467 0.008907 -0.009781 0.004077 0.010463 -0.001561 -0.008633 0.019910 0.008287 0.019844 0.005793 0.017845 -0.011244 0.004061 -0.000148 0.001716 0.012237 0.011515 0.001422 0.002671 0.001249 -0.013800 0.006508 0.004300 -0.008975 0.014225 0.002396 0.005719 -0.003243 -0.007819 0.000489 0.015358 0.002803 0.002376 -0.001621 -0.008976 0.008667 0.000001 0.013110 -0.001226 -0.006933 0.011042
dock 0.014507 -0.009684 -0.007653 0.018243 -0.014768 0.032742 0.006488 -0.020848 -0.001897 -0.046187 -0.005920 -0.001052 -0.012486 -0.037249 0.014426 -0.003607 0.038678 0.011905 0.009046 -0.006201 0.005359 -0.020970 -0.030792 0.003771 0.020479 0.016108 -0.000272 0.008521 -0.016596 -0.017706 -0.001613 0.014780 -0.011244 0.022991 -0.017612 -0.009900 0.023680 -0.032548 -0.011439 0.022273 -0.007819 -0.006242 -0.011629 0.028259 0.001551 -0.002327 0.002471 0.020343 -0.011955 0.012785 -0.015655 -0.009394 0.000300 0.001719 0.011076 -0.011101 -0.005574 0.018523 0.030669 0.021924 -0.034163 0.014278 0.018403 -0.016638 -0.015597 0.036853 0.016567 0.033984 0.016438 0.039276 -0.016691 -0.006328 -0.010630 0.009952 0.017705 0.017921 -0.001407 -0.000448 0.003342 -0.039265 0.004675 0.014560 -0.024949 0.025282 0.007204 0.011735 -0.005255 -0.025340 -0.012896 0.025740 0.011159 -0.003207 -0.007966 -0.025506 0.022105 0.007181 0.040449 0.000758 -0.025126 0.022359
klipsch 0.002425 -0.003717 -0.000629 0.006406 0.001633 0.004602 -0.003993 -0.008626 0.002458 -0.005501 -0.003131 -0.003071 -0.004214 -0.006271 0.005872 -0.002075 0.012672 0.005510 0.001122 0.005295 0.001248 0.000473 -0.002477 -0.000330 0.004808 0.005941 0.001163 0.004177 -0.007425 -0.002625 -0.002778 0.000534 -0.006492 0.006243 -0.006614 -0.007533 0.011304 -0.008216 -0.009118 0.007650 -0.004261 0.000671 0.003785 0.006412 0.003681 0.003980 -0.001852 -0.001399 -0.005545 0.002815 -0.004383 -0.004249 0.004347 -0.004881 0.006101 -0.005429 -0.003535 0.003188 0.005466 0.000356 -0.010360 0.003548 0.001213 -0.007664 0.002095 0.007985 0.001913 0.008304 0.000806 0.011743 -0.005955 -0.002633 -0.006238 0.005712 0.002456 -0.001497 -0.005331 0.001191 0.003923 -0.013461 0.002091 0.004059 -0.007477 0.003857 0.001426 0.001443 -0.003462 -0.006428 -0.002425 0.010279 0.009175 0.003599 -0.000269 -0.000905 0.000961 0.002514 0.004016 -0.005797 -0.002578 0.008406
purchase -0.002638 -0.002410 0.000365 0.004157 0.000597 -0.002997 -0.004680 -0.002979 0.005063 -0.002865 -0.000563 0.001581 -0.000189 0.001627 -0.003336 0.000300 -0.003763 -0.002228 0.005946 0.001677 0.000346 -0.000631 -0.001268 -0.005382 0.001175 -0.003707 0.002513 0.004048 -0.003717 -0.000157 0.001039 0.004481 0.000064 0.004231 0.002228 -0.001923 0.002110 -0.004453 0.004194 0.002731 0.004181 0.002218 0.002383 -0.004142 -0.001662 0.004545 -0.001044 0.002552 -0.004817 -0.003681 0.004788 0.004207 -0.002804 0.001214 0.003075 0.004186 0.000871 0.003707 -0.002464 -0.001694 -0.005919 0.004147 -0.001017 0.001073 -0.004435 0.000267 -0.004888 -0.001921 0.001406 -0.001642 0.002438 0.002744 0.000027 -0.000170 0.000548 0.004234 -0.004654 -0.003577 -0.000689 0.001572 -0.001877 0.002945 0.002855 -0.001341 0.002677 0.001424 0.002962 -0.005992 -0.004811 -0.003335 0.001250 -0.004390 -0.005078 -0.002944 0.004187 -0.000845 0.003591 -0.001975 0.001868 0.003298
line 0.014624 -0.005313 -0.002392 0.007048 -0.011057 0.016531 0.004729 -0.006580 -0.004751 -0.026149 0.004225 0.001429 -0.010153 -0.021178 0.007722 -0.006472 0.022835 0.009586 0.010481 0.001374 -0.007283 -0.004585 -0.015717 -0.009219 0.009317 0.009979 -0.007759 0.001125 -0.005141 -0.007481 0.004020 0.005953 -0.006849 0.006258 -0.012844 -0.003260 0.010108 -0.018063 -0.008082 0.005413 0.004049 -0.010287 -0.012419 0.024998 -0.003272 -0.003064 0.000551 0.009907 -0.010516 0.012069 -0.005391 -0.001264 -0.002956 0.004732 0.003129 -0.002063 -0.005937 0.011615 0.020836 0.010381 -0.022112 0.008327 0.012742 -0.008177 -0.012830 0.027430 0.005975 0.029367 0.004887 0.024982 -0.014690 0.005893 -0.005395 0.008313 0.010679 0.013271 -0.000806 0.001926 -0.003387 -0.024249 0.000738 0.012832 -0.013102 0.019036 0.005639 0.007131 0.002452 -0.016297 -0.003583 0.019816 0.006607 -0.001956 -0.007002 -0.009932 0.017146 -0.002558 0.023313 -0.003480 -0.021728 0.016368
channel 0.004033 0.002473 0.002284 -0.001853 -0.000190 -0.008520 0.000124 0.004427 -0.002554 0.005539 -0.002173 -0.002810 0.007811 0.004650 -0.003050 0.004957 -0.005039 -0.001388 -0.002190 -0.000031 0.002585 -0.000616 0.004584 0.003783 0.000626 -0.003500 0.001439 -0.001935 0.003410 -0.001766 -0.001280 0.007974 0.006098 0.001876 -0.004664 0.005151 -0.009102 0.004144 0.004168 -0.007453 -0.003900 -0.003532 0.009350 0.002323 -0.002549 -0.004832 -0.005470 0.001626 0.004030 -0.002197 0.002393 -0.001284 0.001635 -0.002217 -0.002313 -0.002550 -0.002834 0.001079 -0.006472 0.000001 0.007992 -0.000327 -0.005830 -0.003846 -0.003376 -0.004177 0.002577 -0.006759 0.001111 -0.002288 0.005850 -0.009234 -0.002907 -0.007588 -0.003302 -0.005517 -0.001783 0.001505 -0.000932 0.002955 -0.003488 -0.008732 0.003192 -0.007011 0.002170 -0.005026 -0.001452 0.005342 -0.002385 -0.003467 -0.001309 0.000146 0.005554 -0.003830 0.003599 0.001013 -0.009326 0.001920 0.006375 -0.000956
screen 0.006364 -0.004374 -0.000858 0.007457 -0.005530 0.019903 0.000729 -0.010258 -0.000646 -0.017151 -0.007130 -0.002382 -0.008408 -0.017199 0.012322 0.001000 0.018049 0.006839 0.000180 0.001068 0.002579 -0.008568 -0.015797 0.000409 0.004402 0.009862 -0.001488 0.003370 -0.004661 -0.005035 -0.003713 0.004268 -0.003294 0.005169 -0.011734 -0.003761 0.007785 -0.014389 -0.010724 0.013662 0.002433 -0.009017 -0.003410 0.019174 0.000671 0.002312 0.007682 0.002932 -0.004405 0.006387 -0.010134 -0.008219 -0.003832 -0.000611 0.004932 -0.010904 -0.004923 0.003754 0.016210 0.015891 -0.011900 0.005265 0.001761 -0.010795 -0.008391 0.015998 0.008807 0.019067 0.011594 0.021608 -0.005879 -0.002482 -0.009456 0.000428 0.011016 0.006018 -0.000244 -0.003376 -0.006769 -0.016437 -0.002166 0.012451 -0.005292 0.013989 -0.000816 0.003004 0.003069 -0.013037 -0.004148 0.021033 0.004372 -0.007794 -0.007019 -0.014547 0.012781 0.002432 0.019347 -0.001390 -0.013224 0.007794
back -0.000083 -0.003644 -0.001213 0.004043 -0.002918 0.010772 -0.001788 -0.007630 0.000393 -0.011178 0.003430 -0.004085 -0.003584 -0.005507 0.003202 0.000014 0.011045 0.007378 0.002066 0.001823 -0.004898 -0.004524 -0.008344 -0.006295 0.003774 0.006615 -0.002553 -0.000908 -0.004399 -0.002855 0.005673 -0.000233 -0.000351 0.006916 -0.009644 -0.003256 0.007078 -0.009539 0.001490 0.000692 0.004454 -0.000672 -0.008314 0.005824 -0.000858 0.004518 -0.003883 0.004089 -0.001368 0.001666 -0.007572 -0.000165 0.004760 0.002001 0.002859 0.001764 0.002066 -0.000382 0.008903 0.004602 -0.001927 0.004350 0.001781 -0.006684 -0.004511 0.012970 0.003615 0.006876 0.001503 0.007151 -0.000477 0.004449 0.001265 0.004000 0.004356 0.002656 -0.004002 0.001239 0.000874 -0.013073 0.004338 0.005945 -0.007183 0.003098 0.001534 0.007926 0.000682 -0.009271 -0.000949 0.013438 -0.001820 -0.008232 -0.004861 -0.011000 0.004102 -0.001632 0.012400 0.003292 -0.008119 0.005478
cool 0.009660 -0.012661 0.000818 0.007472 -0.002452 0.013484 -0.002152 -0.009065 -0.000561 -0.025125 -0.005207 -0.003825 -0.013197 -0.019939 0.009308 -0.000765 0.025525 0.001592 0.007273 0.001613 0.002223 -0.012336 -0.018673 0.000135 0.008432 0.011531 -0.009584 0.006659 -0.002730 -0.003721 -0.000488 0.001451 -0.007300 0.005456 -0.013799 -0.007153 0.014680 -0.012305 -0.005876 0.006724 0.000358 -0.002141 -0.004848 0.015234 -0.003147 -0.005036 0.003570 0.009262 -0.010259 0.007401 -0.008052 0.000861 0.004507 0.003087 0.011244 -0.002505 -0.006056 0.012547 0.013035 0.013852 -0.015687 0.005888 0.007894 -0.013885 -0.002301 0.019123 0.010801 0.021844 0.009668 0.022533 -0.009123 0.003530 -0.005397 0.003964 0.010536 0.011805 0.003991 0.000786 0.001104 -0.022115 -0.002595 0.011154 -0.007087 0.020430 0.003791 0.006678 0.005089 -0.012315 -0.003413 0.011750 0.003655 -0.005073 -0.006403 -0.010468 0.013455 -0.000160 0.016325 -0.001411 -0.007943 0.009725
hard 0.007805 -0.010758 -0.001856 0.005264 -0.004061 0.014813 -0.002631 -0.010754 -0.003263 -0.021531 -0.003427 -0.001721 -0.007442 -0.016534 0.003484 -0.003529 0.015996 0.010211 0.006761 0.005141 -0.004982 -0.006076 -0.013043 0.002202 0.006361 0.015584 -0.003560 0.001185 -0.007009 -0.010334 0.003616 0.001760 -0.002894 0.011669 -0.008601 -0.007810 0.012058 -0.017369 -0.013596 0.006752 -0.000376 -0.006281 -0.009199 0.014962 0.003990 0.004228 0.007567 0.012383 -0.008029 0.005077 -0.011957 -0.006060 0.000658 0.004094 0.006817 -0.008791 -0.001021 0.005184 0.017673 0.012422 -0.009645 0.006919 0.010074 -0.005925 -0.006582 0.021585 0.007717 0.015936 0.011176 0.020624 -0.007251 0.004928 -0.006914 0.009767 0.007389 0.003773 0.004716 -0.000063 0.001821 -0.020058 0.002031 0.010511 -0.005507 0.015106 0.003493 0.005455 0.000395 -0.014874 -0.002743 0.017494 0.005145 0.000985 -0.004078 -0.007345 0.010591 0.004751 0.022553 -0.000952 -0.006761 0.015304
headphone 0.023743 -0.013812 -0.003157 0.015648 -0.015488 0.038682 0.007697 -0.024552 -0.001125 -0.042555 -0.000055 0.004201 -0.016374 -0.044965 0.016747 0.002548 0.048251 0.019808 0.008706 -0.000323 -0.005993 -0.014536 -0.033004 -0.001217 0.018402 0.025763 -0.002235 0.008369 -0.021891 -0.023126 0.006508 0.013188 -0.009010 0.012701 -0.030102 -0.013757 0.034198 -0.026912 -0.020024 0.016031 -0.013506 -0.005833 -0.015524 0.029687 0.002621 0.003788 0.007498 0.014361 -0.018932 0.016336 -0.015274 -0.006163 0.003423 0.001294 0.015399 -0.008379 -0.008912 0.016717 0.037673 0.026398 -0.028635 0.017246 0.017183 -0.022435 -0.017033 0.046443 0.014295 0.041756 0.021408 0.053725 -0.017458 -0.002613 -0.022851 0.013663 0.021056 0.018836 0.000506 -0.004294 -0.004465 -0.042077 0.005238 0.027670 -0.027438 0.034003 0.002788 0.014922 0.001401 -0.030000 -0.006898 0.039166 0.016373 -0.006818 -0.009692 -0.026041 0.027603 0.004932 0.050460 -0.008536 -0.031676 0.018487
house 0.009090 -0.004500 -0.000695 0.003114 0.001327 0.003429 -0.001612 -0.009154 0.003837 -0.008641 -0.001257 -0.002030 -0.007384 -0.013356 0.007365 -0.001069 0.010690 0.007746 0.005272 -0.000771 0.002067 -0.001778 -0.012410 0.000711 0.004753 0.010636 0.002027 -0.001004 -0.006018 -0.010746 0.000698 -0.001363 -0.007959 0.006432 -0.009207 -0.005088 0.009970 -0.003301 -0.007200 0.002677 -0.002423 -0.000126 0.001947 0.005592 -0.000536 0.002299 0.006471 0.002786 -0.008118 0.004147 -0.007781 -0.004968 0.001961 -0.004786 0.001533 -0.000144 -0.001732 0.001285 0.010184 0.010108 -0.008687 0.000217 0.004588 -0.002835 -0.006011 0.007425 -0.000416 0.010432 0.008466 0.010527 -0.002731 -0.000313 -0.004240 0.007630 0.003779 0.002617 -0.002131 0.002937 -0.006981 -0.010059 -0.001727 0.005873 -0.003266 0.009834 0.002328 0.003604 0.005253 -0.007058 -0.007045 0.011031 0.004775 -0.007250 0.001164 -0.003024 0.007952 0.002873 0.011823 -0.001893 -0.007469 0.003536
decent 0.009349 -0.002240 0.001600 0.004180 -0.001092 0.012559 0.004128 -0.002554 0.004879 -0.007234 -0.000568 -0.003560 -0.006758 -0.011553 0.008177 -0.002870 0.009198 0.007373 -0.004314 -0.000394 -0.000977 -0.007427 -0.009003 0.000250 -0.000479 0.008786 0.000995 0.006380 -0.009445 -0.002214 -0.000546 0.000060 0.000954 0.003797 -0.006036 -0.004008 0.010554 -0.005126 -0.006000 0.007268 -0.007266 0.000247 0.001714 0.001689 -0.002575 0.003643 0.004901 0.000035 -0.004814 0.001902 -0.007020 -0.005116 0.004086 -0.002376 0.007203 -0.005401 -0.006417 0.003896 0.004098 0.009067 -0.008201 0.008151 0.002909 -0.005963 -0.003553 0.005441 0.007632 0.013011 0.007156 0.012994 -0.006700 0.000011 -0.000158 0.003551 0.001103 0.002445 -0.000668 0.005343 -0.001059 -0.015469 -0.003451 0.010205 -0.011314 0.008750 0.003418 0.006237 -0.004272 -0.000932 0.001954 0.009171 0.002758 -0.001402 0.001204 -0.001337 0.010357 0.002597 0.012622 -0.004389 -0.010212 0.008386
office 0.002638 -0.002981 -0.001172 0.002182 0.001831 0.001444 0.003733 -0.000232 0.001749 -0.004292 -0.001387 0.001047 -0.004795 -0.007046 0.002523 0.003559 0.005340 -0.002994 0.000410 0.004436 0.003346 -0.004057 0.000219 0.003279 0.005315 0.001703 -0.007952 -0.004513 -0.001282 -0.001788 -0.001155 0.003398 -0.000513 -0.000557 -0.000416 -0.005598 0.003909 -0.003535 -0.006122 0.007782 0.004564 -0.002584 -0.002859 -0.000053 0.005222 0.004990 0.003501 0.005727 0.001798 -0.001338 -0.003696 -0.005115 -0.003269 0.002064 0.003526 -0.003008 -0.004949 0.005290 0.000233 0.005587 -0.004089 0.002054 0.006933 -0.006517 -0.004635 0.008401 -0.001274 0.005921 -0.000717 0.005793 -0.004000 0.003969 -0.007427 0.002809 0.000926 0.003827 -0.006246 -0.003650 0.003669 -0.001800 0.004180 0.004509 -0.003467 0.007465 0.004214 0.001996 -0.000906 -0.005151 -0.003214 0.006776 0.001846 -0.000901 -0.002240 -0.000238 -0.001233 0.000115 -0.000129 -0.004194 -0.003099 0.007613
cord 0.011689 -0.008441 -0.008518 0.009339 -0.003330 0.020727 -0.002514 -0.009300 -0.000861 -0.021656 0.003237 -0.003965 -0.003580 -0.015333 0.004486 -0.006353 0.016436 0.009918 -0.002607 0.000317 -0.001476 -0.007103 -0.014340 -0.004828 0.012564 0.007016 -0.002596 0.000024 -0.006212 -0.008527 0.002024 0.001250 -0.008231 0.004895 -0.009812 -0.011079 0.010468 -0.009247 -0.004744 0.009270 -0.006758 -0.008994 -0.007165 0.014786 -0.002508 -0.003322 0.008915 0.011470 -0.004324 0.009012 -0.006261 -0.008192 0.004677 0.000468 0.012185 -0.001980 -0.004405 0.013060 0.015360 0.008973 -0.015228 0.002719 0.011953 -0.006261 -0.000371 0.022796 0.005390 0.015453 0.005206 0.024913 -0.012605 0.004280 -0.009831 0.011943 0.007570 0.005492 -0.001980 -0.003949 -0.000357 -0.011802 0.000669 0.008562 -0.009709 0.013556 0.004329 0.009721 -0.001604 -0.014918 -0.004560 0.019019 0.007498 -0.003627 -0.003003 -0.006965 0.014308 0.004900 0.023408 0.001952 -0.014950 0.005800
large 0.019294 -0.009163 -0.005742 0.009891 -0.003784 0.017544 0.003049 -0.014204 -0.001402 -0.025790 -0.002905 0.002986 -0.010488 -0.023883 0.010272 0.000320 0.030568 0.005658 0.005899 0.006918 -0.002842 -0.010689 -0.020980 0.003831 0.007958 0.019585 -0.007909 0.005468 -0.008201 -0.011713 0.002711 -0.002161 -0.011240 0.005156 -0.017440 -0.009912 0.020626 -0.015525 -0.015786 0.015645 -0.009796 -0.006290 -0.010160 0.020095 0.002919 -0.001725 0.003000 0.010490 -0.012910 0.008137 -0.011654 -0.000162 0.005031 0.000064 0.007129 -0.002348 -0.007495 0.014415 0.026426 0.017743 -0.021626 0.009694 0.013628 -0.010513 -0.003888 0.031766 0.014297 0.031526 0.014120 0.032124 -0.009070 0.002583 -0.008911 0.012637 0.009032 0.013043 -0.001212 -0.007467 0.000901 -0.018678 0.001479 0.018618 -0.008510 0.017466 0.001333 0.006625 0.000605 -0.019851 -0.006609 0.019583 0.012234 0.000197 -0.004958 -0.009464 0.014877 0.000788 0.028339 -0.002654 -0.019203 0.012397
mid -0.006561 0.008339 -0.001555 -0.006936 0.001648 -0.016280 -0.003128 0.013485 0.005830 0.019152 0.002408 0.004849 0.000638 0.011561 -0.006905 -0.003842 -0.020829 -0.002975 -0.002212 -0.000394 -0.002487 0.009368 0.007873 -0.001141 -0.003454 -0.003416 -0.000913 -0.010738 0.008508 0.012502 0.000222 -0.005685 0.006084 -0.008221 0.014513 0.009961 -0.011942 0.018551 0.003988 -0.005161 0.006373 0.003002 0.004104 -0.012144 0.000999 -0.000844 -0.002454 -0.005922 0.006981 -0.003578 0.002658 -0.001504 0.003637 0.003081 -0.007173 0.007848 -0.001020 -0.008792 -0.013860 -0.005912 0.011351 -0.011228 -0.008389 0.010047 0.008595 -0.009187 -0.012930 -0.014821 -0.002326 -0.012093 0.008871 0.000092 0.002894 0.002392 -0.004706 -0.010105 -0.000646 -0.006157 0.000696 0.013986 -0.006488 -0.008349 0.011525 -0.012772 -0.003966 -0.011565 -0.000910 0.003437 0.000244 -0.009768 -0.000010 0.004658 0.006769 0.008800 -0.007294 -0.002647 -0.011807 0.005101 0.013831 -0.005200
bottom 0.008317 -0.000413 -0.006418 0.004981 -0.004099 0.019992 0.002707 -0.009238 0.001198 -0.021786 -0.006456 0.001134 -0.008578 -0.020409 0.002229 0.000391 0.022182 0.008128 0.000812 0.003127 -0.003517 -0.008836 -0.010586 -0.007874 0.001672 0.006136 0.002245 0.000810 -0.005987 -0.007891 0.000328 0.006379 -0.001974 0.011744 -0.005654 -0.005649 0.013504 -0.010594 -0.007398 0.004751 0.001393 -0.001960 -0.011708 0.017282 -0.001165 -0.001860 0.007722 0.001597 -0.002256 0.002600 -0.004307 -0.001412 0.005615 -0.002918 0.006723 -0.002656 -0.002790 0.000888 0.013042 0.005236 -0.007931 0.003690 0.011402 -0.010245 -0.001910 0.019816 0.009495 0.020186 0.008279 0.017726 -0.011886 0.004136 -0.007474 0.005635 0.003253 0.006838 0.003437 -0.005457 -0.000035 -0.012848 -0.002076 0.015281 -0.005615 0.018534 0.001372 0.008929 -0.000374 -0.008468 -0.001707 0.018704 0.007476 0.000587 -0.000607 -0.013705 0.004632 0.000999 0.012684 -0.004296 -0.007139 0.005950
adapter 0.010332 -0.003958 -0.001151 0.014319 -0.010322 0.023741 0.005369 -0.011712 -0.002088 -0.026896 -0.005443 0.002331 -0.006044 -0.021699 0.013094 -0.006105 0.031534 0.014603 0.003013 0.002702 -0.003375 -0.013915 -0.021157 -0.002106 0.010426 0.012733 -0.002190 0.000793 -0.006034 -0.014261 -0.001173 0.007416 -0.010370 0.013188 -0.012906 -0.012813 0.017318 -0.023378 -0.007587 0.008499 -0.006286 -0.005328 -0.010212 0.016406 0.005777 -0.003225 0.009168 0.008969 -0.007166 0.008947 -0.007164 0.000471 0.003956 -0.001301 0.006751 -0.007245 -0.001847 0.009623 0.018251 0.014842 -0.018774 0.009913 0.009575 -0.015707 -0.005101 0.026084 0.011331 0.028134 0.012926 0.025122 -0.015088 0.003214 -0.009567 0.005259 0.011843 0.005184 0.000903 -0.002351 -0.004976 -0.027587 0.006410 0.010859 -0.015247 0.024566 0.005013 0.015173 0.004645 -0.018566 -0.006141 0.025544 0.005465 -0.010077 -0.004355 -0.017229 0.014703 0.004095 0.031367 -0.003449 -0.014120 0.015216
satellite 0.003899 -0.006620 -0.001455 0.008493 -0.006854 0.006963 0.001956 -0.002391 -0.000750 -0.013630 0.000271 0.003725 -0.002237 -0.014146 0.001906 -0.001895 0.016716 -0.000417 0.004280 -0.003587 -0.001606 -0.001707 -0.012676 -0.004273 0.000169 0.006962 -0.002178 0.000483 -0.002480 -0.001117 -0.000475 -0.001046 -0.003881 0.010938 -0.005212 -0.003174 0.003487 -0.010967 -0.007112 0.003680 0.001494 -0.005415 -0.004662 0.015064 -0.004290 0.001769 0.004279 0.006208 -0.005051 0.010093 -0.004293 -0.007397 0.003668 -0.003323 0.002871 -0.004125 -0.003878 0.005529 0.014614 0.003879 -0.007369 0.004870 0.000489 -0.010587 -0.008873 0.017740 0.004889 0.014457 0.006739 0.009635 -0.005042 0.005971 -0.008477 0.003685 0.008486 0.010077 0.000182 0.003956 -0.004495 -0.015773 0.002236 0.005062 -0.002532 0.007207 0.002731 0.007476 0.006220 -0.003180 0.000791 0.013057 0.005845 -0.007792 -0.003741 -0.008490 0.002990 0.003232 0.009216 0.000580 -0.010118 0.008844
input 0.015344 -0.003275 0.000782 0.006058 -0.013801 0.024195 0.004603 -0.015346 0.004829 -0.019715 0.000679 0.004410 -0.004245 -0.021050 0.008777 -0.006356 0.020463 0.014597 0.002297 0.000862 -0.005346 -0.005346 -0.020686 -0.005585 0.004706 0.010585 0.001197 0.007126 -0.011211 -0.014634 0.005868 0.000793 -0.005887 0.009486 -0.015791 -0.012259 0.017393 -0.021050 -0.014613 0.008252 -0.004985 -0.009954 -0.000917 0.023347 0.000859 -0.003070 0.002487 0.013794 -0.005360 0.014968 -0.014035 -0.009430 0.002785 -0.006189 0.009687 -0.006410 0.000358 0.006077 0.022559 0.007272 -0.021021 0.010037 0.007216 -0.009886 -0.008697 0.021974 0.006615 0.020785 0.011625 0.023197 -0.013459 -0.004473 -0.009448 0.007541 0.010005 0.012703 -0.003062 0.002707 -0.008707 -0.023735 0.005871 0.009008 -0.016276 0.014926 0.000236 0.011003 -0.000360 -0.008910 -0.008422 0.020173 0.007485 -0.003886 -0.007591 -0.011513 0.011653 0.004520 0.020327 -0.004160 -0.018028 0.005535
rear 0.000309 -0.003851 -0.000680 0.003299 -0.004552 0.004130 -0.001113 0.000850 -0.001735 -0.001573 -0.005396 -0.003619 0.006490 0.001787 -0.005306 -0.003807 -0.001617 -0.004095 -0.003797 0.002681 0.002480 -0.003004 -0.003155 0.001035 -0.004408 -0.002708 0.003260 -0.000771 -0.002779 -0.001865 -0.001551 0.008137 -0.002381 -0.000943 -0.004880 0.004670 -0.003084 -0.004787 -0.002668 -0.004693 -0.003643 -0.005290 0.007194 -0.000968 -0.002797 0.001187 -0.001603 0.000942 0.000943 -0.003669 -0.004922 0.003479 -0.005138 -0.005079 0.001975 -0.002725 -0.005190 0.002137 0.006005 0.001865 0.004520 -0.000080 -0.003887 -0.001304 -0.004132 -0.000804 -0.002290 -0.003047 0.000653 -0.005191 0.003161 -0.002870 -0.001422 -0.006020 -0.003643 0.001328 -0.001434 -0.000545 0.004143 -0.003446 0.002607 -0.001795 -0.003503 0.003205 -0.003254 0.003744 0.001529 0.006079 -0.002716 0.001781 -0.001362 -0.003767 0.002564 -0.007637 0.001295 -0.001131 -0.000228 0.004042 -0.002117 -0.003984
expensive 0.008055 -0.005613 0.001727 0.003176 -0.002723 0.005007 0.000404 -0.001043 0.002943 -0.003644 0.002163 0.001462 -0.003327 -0.005001 -0.000488 -0.001911 0.008545 -0.000958 -0.003607 0.002821 -0.000091 -0.006398 -0.002340 0.003459 0.007061 -0.000177 -0.000862 0.000528 -0.000909 -0.003214 -0.003674 0.001171 -0.004912 -0.002277 -0.006167 -0.006202 0.005289 -0.000037 -0.005802 0.001954 0.000894 -0.000959 -0.001214 0.007246 0.002886 -0.003647 0.005610 0.004693 -0.005574 0.002312 -0.000516 -0.000703 0.001626 0.002568 -0.002948 -0.003102 0.003083 0.001037 0.002752 -0.000793 -0.004961 0.005378 0.005218 -0.003669 -0.003847 0.006174 -0.001097 0.006834 0.003702 0.012036 -0.001482 -0.003356 -0.000387 0.006798 0.000750 -0.002433 -0.004133 0.001942 -0.001335 -0.000478 0.003725 0.000316 0.000154 0.004649 -0.004392 0.000567 0.000363 -0.001247 -0.005345 0.005971 -0.000081 -0.001898 0.000603 -0.006910 0.003268 -0.002682 0.008488 -0.005496 -0.008270 -0.000631
black 0.005132 -0.002783 -0.001311 0.010672 -0.012441 0.012985 0.001947 -0.007340 0.000042 -0.017026 -0.000269 -0.000337 -0.004183 -0.014228 0.011187 -0.001710 0.017268 0.001603 -0.003044 -0.000959 0.000276 -0.003156 -0.014383 -0.002471 0.006343 0.005740 -0.004855 0.009876 0.001345 -0.010195 0.000648 0.009314 0.000174 0.013944 -0.010192 0.000242 0.005600 -0.017614 -0.007547 0.003108 0.004241 -0.001698 -0.001829 0.018022 0.004795 0.000272 -0.001373 0.002710 -0.006902 0.007095 -0.005664 -0.001185 0.001747 -0.004021 0.008471 -0.009131 -0.005752 0.004154 0.013411 0.009448 -0.006845 0.002097 0.007886 -0.008085 -0.007279 0.013239 0.011000 0.017494 0.004822 0.020737 -0.008896 0.003485 -0.003252 0.002385 0.010440 0.005220 -0.001905 -0.003560 -0.007302 -0.014013 0.000717 0.009457 -0.008814 0.015519 0.002444 0.008150 0.002901 -0.003106 -0.001444 0.011881 0.000923 -0.007536 -0.005207 -0.013719 0.011758 0.004750 0.014235 -0.002519 -0.014079 0.006492
connection 0.007617 -0.010358 -0.000039 0.004664 -0.011430 0.022472 0.005634 -0.007712 -0.004234 -0.020262 -0.005791 -0.005143 -0.003490 -0.016980 0.010909 -0.003275 0.018166 0.012676 0.002313 -0.006776 0.004242 -0.005168 -0.017627 -0.006789 0.010502 0.008054 0.000855 0.004057 -0.009918 -0.012856 -0.003300 0.007782 -0.007747 0.011053 -0.015323 -0.007756 0.013649 -0.012698 -0.013176 0.007666 -0.004927 -0.008770 -0.006902 0.022373 0.001591 0.000619 0.001316 0.012181 -0.010327 0.012434 -0.008692 -0.002680 -0.004620 0.003624 0.005756 -0.007946 0.001244 0.009759 0.018752 0.015258 -0.015037 0.006605 0.011192 -0.006878 -0.008142 0.018769 0.013678 0.018553 0.009517 0.018571 -0.009943 0.003178 -0.003621 0.006569 0.005216 0.004941 0.000081 0.003465 -0.005770 -0.023002 0.004089 0.014606 -0.011990 0.018542 0.000061 0.010879 -0.000308 -0.011835 -0.007879 0.015403 0.008610 -0.005048 -0.005213 -0.016485 0.010777 0.004752 0.017855 -0.000278 -0.011131 0.006064
life -0.004897 0.005368 -0.003021 -0.002877 0.000669 -0.005519 -0.004212 0.008811 0.003338 0.014876 0.003764 0.000241 -0.001081 0.013695 -0.008662 -0.001271 -0.010157 -0.002280 -0.000935 0.003069 0.005988 0.002880 0.008481 0.006374 -0.001768 -0.009708 0.006965 -0.007125 -0.001340 0.004444 0.002778 -0.007223 0.005278 -0.008492 0.004472 0.000466 -0.012343 0.006200 0.006589 -0.011596 0.002082 0.002308 0.002671 -0.007836 -0.002492 0.005395 -0.007127 -0.004471 -0.000332 -0.005897 0.005216 0.004558 -0.001614 0.003277 0.000543 0.008252 0.004282 -0.008212 -0.009335 -0.000497 0.011060 -0.004617 0.001649 0.013387 -0.000634 -0.008835 -0.007521 -0.007493 -0.004702 -0.011230 0.003029 -0.003363 0.006172 -0.000062 0.002952 -0.006908 -0.003924 -0.002931 -0.001303 0.003890 0.002758 -0.014152 0.001250 -0.007893 0.002858 -0.002352 0.002563 0.003452 0.003777 -0.005542 0.001006 0.007053 0.001736 0.009069 -0.002291 0.000029 -0.012626 0.005394 0.007861 -0.011327
reason 0.006439 -0.005826 -0.001561 0.007618 -0.002646 0.011774 0.001269 -0.005755 0.001511 -0.025631 0.000968 0.001778 -0.006327 -0.014601 0.005427 -0.001624 0.018467 0.006609 0.000321 0.000181 -0.001966 -0.006297 -0.016953 -0.003980 0.009081 0.007834 -0.007734 0.003886 -0.007470 -0.005655 0.001991 0.006282 -0.002623 0.007220 -0.014035 -0.007979 0.013557 -0.011343 -0.008158 0.008477 -0.001657 -0.004582 -0.004502 0.018903 0.002802 0.004673 0.007361 0.004115 -0.009682 0.013243 -0.007469 -0.001178 -0.004311 -0.005283 0.011394 -0.008993 -0.002611 0.010769 0.022292 0.005059 -0.012978 0.007486 0.001889 -0.008994 -0.003208 0.016606 0.007406 0.016175 0.003993 0.024425 -0.011251 -0.001280 -0.005394 0.008925 0.006439 0.009771 0.004651 0.000637 0.003037 -0.021057 0.001029 0.017460 -0.007979 0.012510 -0.000432 0.007798 -0.001498 -0.012152 -0.007288 0.018368 0.012196 -0.003457 -0.005931 -0.008978 0.009199 -0.001556 0.018185 0.002081 -0.008816 0.009128
top 0.010154 -0.003465 -0.003634 0.002383 -0.001424 0.015555 0.001167 -0.001542 -0.000063 -0.013041 0.001201 -0.004271 -0.000324 -0.008196 0.001756 -0.001175 0.018609 0.003187 0.000251 -0.003334 0.001571 -0.009633 -0.006774 -0.002097 0.004574 0.012952 -0.003315 0.001860 -0.005164 -0.005997 0.004298 0.005450 -0.003528 0.004765 -0.012506 -0.002016 0.009559 -0.012133 -0.005522 0.004121 -0.003475 -0.006622 -0.003735 0.015495 0.001275 -0.002516 0.006427 0.000934 -0.006386 0.005414 -0.000672 -0.002147 -0.000175 0.002660 0.009966 -0.002642 0.000323 0.001948 0.016480 0.005250 -0.013849 0.000395 0.007411 -0.003784 0.001068 0.016903 0.010377 0.011837 0.008585 0.015735 -0.003141 0.002089 -0.005960 0.008067 0.005059 0.005097 0.005629 -0.006042 -0.001077 -0.010605 -0.000958 0.007543 -0.002685 0.007950 -0.001962 0.006825 -0.000605 -0.009515 -0.007128 0.012761 0.005772 0.000758 -0.001664 -0.003659 0.002848 0.005882 0.012470 -0.002984 -0.005587 0.008218
wireless 0.010061 -0.004054 -0.001225 0.005456 -0.005979 0.016832 0.000002 -0.007222 -0.004240 -0.015739 0.002317 -0.001726 -0.001647 -0.009986 0.008033 -0.001654 0.014759 0.009490 0.008224 -0.003287 0.001534 -0.004287 -0.014445 -0.003866 0.010240 0.004725 -0.006608 0.008611 -0.004985 -0.006153 0.004466 -0.001217 -0.008809 0.011602 -0.006387 -0.000348 0.011999 -0.016940 -0.004176 0.012235 0.000190 -0.000566 -0.005703 0.010304 0.000142 0.000429 0.006512 0.003355 -0.009112 0.002882 -0.010485 -0.007066 0.001326 0.002084 0.000705 -0.000370 0.000498 0.008605 0.014632 0.012419 -0.016364 0.010727 0.011321 -0.007646 -0.005181 0.021639 0.007352 0.014740 0.003623 0.018884 -0.004908 0.001983 -0.003577 0.005574 0.007363 0.008631 0.004530 0.001878 -0.005322 -0.009671 0.005981 0.008309 -0.007106 0.013191 0.001537 0.005843 -0.001213 -0.007170 -0.006388 0.013022 0.005081 -0.008441 -0.000193 -0.013600 0.004901 0.003045 0.017026 0.000365 -0.014615 0.008849
amp 0.002435 -0.006366 -0.002322 0.003929 0.001109 0.001380 -0.002351 -0.005614 -0.000996 -0.007345 -0.001803 0.003398 -0.003960 -0.001554 -0.002631 -0.000152 0.004306 0.000840 -0.002465 -0.001563 0.001458 -0.002098 -0.007212 -0.002609 -0.000594 0.001289 -0.003982 0.006019 -0.005118 -0.006455 -0.000277 -0.000657 0.001553 0.004840 -0.004234 0.000993 0.002394 0.001896 0.001157 0.002536 0.001657 -0.000093 -0.006801 0.000231 0.005211 -0.001100 -0.001942 -0.002751 -0.005980 0.001044 -0.005795 0.002582 -0.003404 0.002133 0.000261 0.002113 0.000946 0.003482 0.001176 0.004872 -0.002475 0.000154 -0.003600 0.000482 -0.002316 0.009989 0.007139 0.009325 0.002113 0.003498 -0.004570 -0.003871 -0.002258 0.000358 0.006463 -0.002282 -0.002786 -0.000772 -0.000883 -0.007199 0.001983 0.006783 -0.005020 0.005711 -0.000120 0.000810 -0.002802 -0.000001 0.000171 0.002666 0.005078 -0.001572 -0.003001 -0.001280 0.001729 0.004968 0.003103 -0.002506 0.002355 0.002324
clock 0.008866 -0.004139 0.001693 0.009812 -0.013834 0.025638 0.003377 -0.018346 0.000824 -0.028782 -0.003371 0.002096 -0.009658 -0.024244 0.011423 0.001514 0.029524 0.005840 0.006825 -0.000169 -0.004804 -0.004706 -0.014995 -0.003253 0.009179 0.010336 -0.001642 0.009094 -0.010768 -0.009450 -0.004800 0.006355 -0.012300 0.016538 -0.008674 -0.010507 0.011165 -0.017623 -0.014774 0.015564 -0.003786 -0.006176 -0.000406 0.015384 -0.000464 -0.005455 -0.000576 0.015759 -0.011818 0.011857 -0.014220 -0.002340 -0.002472 0.000555 0.001814 -0.005983 -0.008614 0.010349 0.017503 0.015476 -0.018313 0.010865 0.003824 -0.013891 -0.009367 0.018818 0.014455 0.016998 0.003904 0.019526 -0.014597 -0.000145 -0.001515 0.007525 0.013090 0.008920 -0.002733 0.000234 0.004077 -0.027290 -0.002530 0.012552 -0.012728 0.023652 0.007943 0.004298 -0.000505 -0.010991 -0.008363 0.019848 0.011345 -0.009673 -0.000779 -0.015518 0.015148 0.001078 0.025506 0.001539 -0.013256 0.008710
card 0.009877 -0.001419 0.002512 0.001106 -0.000994 0.007631 0.001684 -0.002107 0.003011 -0.016850 -0.004078 -0.003626 -0.005926 -0.005870 0.008258 -0.002244 0.013793 0.004098 -0.000172 0.005205 -0.000977 -0.001263 -0.010232 -0.003755 0.004753 0.004435 -0.001346 0.001579 -0.000989 -0.010322 -0.003281 0.002084 -0.007344 0.006150 -0.005142 -0.002613 0.007023 -0.007153 -0.002118 0.003447 -0.002180 0.002490 -0.007965 0.010159 0.002837 0.006565 0.001400 0.008814 -0.005061 0.008657 -0.003881 -0.002934 0.002063 -0.001773 -0.000032 -0.006089 -0.001366 0.006007 0.010680 0.003515 -0.013003 0.004331 0.004793 -0.010630 -0.001388 0.015529 0.004640 0.016805 0.009919 0.014136 -0.003003 0.003904 -0.007966 0.000091 0.008307 0.005901 -0.004936 0.003708 0.000835 -0.012642 -0.003747 0.007815 -0.001922 0.004793 -0.001381 0.010648 0.000602 -0.010164 0.000821 0.009016 0.000682 -0.003698 -0.002322 -0.007926 0.010737 -0.003823 0.016798 -0.004610 -0.010068 0.010621
long -0.005606 0.004585 0.000273 0.000891 -0.004120 -0.002789 0.003404 0.005938 0.000369 0.000594 0.004162 0.003899 -0.001751 0.003869 0.000872 0.004820 -0.002449 0.001554 -0.001506 0.003467 0.005693 0.002916 0.005719 0.000230 -0.004014 -0.004908 0.005746 -0.005306 0.000122 -0.002567 -0.001927 0.004511 0.000390 0.001843 -0.002365 0.003468 -0.007485 -0.001574 0.000064 0.001169 0.005524 -0.000111 -0.002196 -0.006964 -0.001895 0.001079 -0.002950 0.001889 -0.000852 -0.000672 0.004808 -0.003887 -0.005124 0.001000 0.001707 0.001459 0.000061 -0.003893 0.000822 -0.005462 0.005383 -0.001533 -0.003770 0.002426 0.001690 -0.002739 -0.001193 -0.004385 0.003307 -0.008007 0.001717 -0.004437 0.005652 -0.003662 0.000656 -0.004224 0.002175 0.001353 0.000884 0.005296 0.005647 0.000228 -0.002473 -0.000194 -0.001584 -0.001052 0.003445 0.001040 0.004447 -0.006904 0.003164 0.001356 0.000985 0.004798 -0.002122 -0.001239 -0.006547 -0.002635 0.005361 -0.002982
woofer 0.003302 -0.002681 -0.005710 0.001435 0.002371 -0.000668 -0.004195 0.001721 -0.002854 -0.003066 0.002663 -0.000812 -0.003353 0.004395 0.002833 0.000480 0.004792 -0.005974 -0.002022 0.000972 -0.001385 -0.003554 -0.000767 -0.002732 0.002240 -0.002449 -0.004692 -0.006446 -0.004234 -0.005281 0.000595 -0.001761 0.003287 -0.000214 -0.005547 0.003651 0.005644 0.001307 -0.000981 -0.003548 0.004074 -0.000509 0.003861 -0.001435 -0.003947 0.005020 -0.002786 0.002960 0.001928 -0.002137 -0.001750 -0.002311 -0.004494 0.002874 -0.004509 0.004457 0.002687 -0.000677 -0.000852 -0.000809 -0.000275 0.000624 -0.003446 -0.004260 0.000381 0.002187 -0.005913 0.001731 0.006280 0.002156 -0.000359 -0.001567 -0.005588 0.000012 0.000966 0.003407 -0.004873 -0.003991 0.004263 -0.006010 -0.002816 -0.002319 -0.002912 0.005020 -0.005045 -0.001507 0.000405 -0.005362 0.003069 0.004665 0.006074 -0.004776 0.001879 0.003554 -0.000910 0.001999 0.004143 0.001230 -0.002493 0.003944
color 0.005654 -0.003019 0.002537 0.001801 -0.005403 0.004495 -0.001953 -0.004892 -0.001759 -0.007699 -0.000724 -0.002183 -0.003631 -0.003778 0.007884 0.001716 0.004726 0.003017 0.005827 -0.001276 0.001119 -0.002499 -0.005874 -0.004677 -0.000387 0.003789 -0.002403 0.003807 -0.003612 -0.003765 -0.000485 0.003856 -0.004595 0.003156 0.000533 0.000367 0.005737 -0.010890 -0.003436 0.005519 0.003822 0.001185 -0.002368 0.009535 0.002966 -0.004915 0.004718 0.004258 -0.003972 0.005824 -0.000364 0.001509 -0.005445 0.001261 0.004724 -0.002886 -0.003605 0.005905 0.004549 0.007758 -0.002193 0.001372 0.002261 -0.000608 0.000818 0.006704 0.005872 0.001179 0.003465 0.010922 -0.001754 0.004303 0.001308 -0.001282 -0.000344 -0.001110 0.002982 0.003341 -0.001268 -0.011222 -0.000759 0.004846 -0.005114 0.009146 -0.004403 0.005778 -0.003234 -0.003329 0.000844 0.011229 -0.002719 -0.004765 -0.001873 -0.007342 0.005295 0.003755 0.001471 -0.000503 -0.009623 0.005187
difference 0.005260 0.000882 -0.000641 0.003072 -0.002918 0.002296 -0.002855 0.001010 0.000889 0.000158 0.003749 0.001019 -0.000358 -0.000795 -0.004361 -0.000540 -0.004230 0.000384 0.000603 0.003053 0.001433 -0.003862 0.002587 0.001339 -0.004105 -0.003904 -0.001968 0.001916 0.004430 0.004783 0.002520 -0.002589 0.000730 -0.003359 0.002272 -0.003341 0.002540 0.004504 -0.000222 -0.004008 -0.002152 0.003781 -0.002163 -0.004961 0.002304 0.000948 -0.004585 0.004471 0.000441 0.000464 0.003144 0.004295 -0.004725 -0.001808 -0.002837 -0.000315 -0.003572 -0.004119 -0.002078 0.003623 0.005245 0.002458 -0.004716 0.002499 -0.004888 -0.003810 -0.005449 -0.003614 0.002125 0.001789 -0.001545 0.001905 0.002738 -0.003551 -0.004402 -0.001467 -0.000176 -0.002129 0.003390 -0.001562 0.002717 0.003728 -0.000374 -0.001521 -0.004354 -0.002449 0.003739 -0.002571 0.002236 -0.000228 -0.003686 0.004811 -0.004744 0.002807 0.004556 0.002188 -0.002253 -0.004134 0.000684 0.002258
station 0.016098 -0.014828 0.000106 0.010469 -0.013855 0.020088 0.006455 -0.015805 -0.001513 -0.030530 -0.000500 -0.002266 -0.009179 -0.019708 0.012040 0.003172 0.026400 0.007857 0.007308 -0.005380 -0.001650 -0.012635 -0.018281 -0.003228 0.008629 0.009821 -0.006601 0.013292 -0.007969 -0.012078 0.003983 0.009788 -0.013693 0.011871 -0.015976 -0.007924 0.022534 -0.021413 -0.007817 0.009229 0.000465 -0.010867 -0.010397 0.023860 0.003261 -0.005050 0.008955 0.012041 -0.007898 0.014001 -0.016174 -0.000896 0.003555 -0.006462 0.003708 -0.005131 -0.009718 0.011002 0.024757 0.010059 -0.020310 0.010663 0.003728 -0.009528 -0.015227 0.030358 0.009899 0.017564 0.007790 0.031272 -0.011507 0.001963 -0.004942 0.002744 0.005995 0.007853 0.005513 -0.000958 -0.002680 -0.022866 -0.001733 0.012340 -0.018559 0.019024 0.001881 0.008175 -0.003292 -0.012017 -0.009378 0.025079 0.014668 -0.000379 -0.007990 -0.019503 0.018925 0.003082 0.026072 -0.005801 -0.020077 0.019851
