1157 100
picture 0.001610 -0.059310 -0.008969 0.006871 -0.001152 0.040735 -0.005430 -0.000743 -0.027697 -0.016145 0.042493 0.001314 -0.010027 0.035219 0.012879 0.010590 -0.002087 -0.037741 -0.038756 -0.012943 -0.022347 -0.053429 -0.060345 0.023792 -0.004848 -0.086023 0.011549 0.024783 0.018622 0.009100 -0.030542 -0.017692 0.045398 -0.015933 -0.029319 -0.037018 0.012650 0.016448 0.022427 -0.031088 -0.000387 0.046030 -0.022707 0.023006 0.041248 -0.042696 0.019970 0.000830 -0.006669 -0.027094 -0.003294 0.020576 -0.048294 -0.001591 -0.003424 -0.006748 0.036016 -0.042070 -0.017820 0.024032 0.027565 0.030534 -0.063468 -0.023985 -0.028313 0.002588 0.012256 0.003268 -0.000647 0.049198 0.012616 -0.038383 -0.038298 0.045231 0.021101 0.008865 -0.031712 -0.046792 0.023222 0.015849 0.010407 -0.001497 -0.024282 0.013353 -0.029701 -0.035926 0.039945 0.014457 0.017831 0.063870 -0.009369 0.000096 0.061684 -0.029946 0.017811 0.010081 0.015410 -0.000457 0.010945 -0.026798
cable 0.063504 -0.081138 -0.058778 0.028033 0.006254 -0.016081 0.001320 -0.040921 -0.019056 -0.031475 0.056513 0.049619 0.029146 0.002248 0.018924 0.012981 0.000170 -0.095467 -0.050531 0.004739 -0.040258 -0.033133 -0.083016 0.109929 -0.036725 -0.112055 0.044085 0.022019 -0.005728 0.002762 -0.043538 -0.083977 0.024771 0.002409 -0.017246 -0.078514 0.034786 0.009211 0.044644 -0.018090 -0.016466 0.036917 -0.077053 0.088580 0.039884 -0.084664 0.053577 0.042901 -0.043297 -0.079525 -0.007933 0.085077 -0.007553 -0.047747 0.001253 -0.011101 0.023737 -0.022643 0.023021 0.032012 -0.026043 0.020055 -0.054384 -0.039532 0.020784 0.026741 0.027067 -0.032819 0.011881 0.071534 0.045359 0.005019 -0.031259 0.035378 0.059512 0.031066 -0.033917 -0.066132 0.088664 0.096155 0.022107 -0.007399 0.022060 0.024975 -0.066892 -0.038638 0.039290 0.003620 0.019276 0.045067 -0.009882 0.018221 0.063511 -0.002097 -0.036906 0.000208 -0.000058 -0.037337 -0.002143 -0.071423
screen 0.001845 -0.043140 -0.008222 0.002415 0.003142 0.020389 0.003692 -0.007882 -0.008331 -0.019185 0.032220 0.002764 0.005991 0.015359 0.004520 0.000324 -0.002728 -0.025944 -0.019067 0.001998 -0.020022 -0.038483 -0.040355 0.028948 -0.008406 -0.046162 0.009306 0.017128 0.014515 -0.005664 -0.022907 -0.017183 0.031346 -0.006787 -0.019263 -0.033358 0.012178 0.005089 0.017133 -0.020075 0.001468 0.032091 -0.014610 0.019132 0.029333 -0.029026 0.014830 0.002460 -0.016459 -0.020088 -0.005577 0.018433 -0.029924 -0.006219 0.009786 -0.010695 0.026749 -0.021760 -0.010150 0.010115 0.021157 0.017635 -0.034761 -0.014388 -0.018103 0.008603 0.012392 -0.003189 0.008385 0.034026 0.008515 -0.022686 -0.030948 0.027023 0.010083 -0.003430 -0.024764 -0.027624 0.023389 0.016584 0.004869 0.002225 -0.009596 0.012453 -0.018232 -0.026870 0.027746 0.006480 0.011234 0.034187 0.000565 0.002578 0.033308 -0.011267 0.009509 0.006631 0.005238 -0.003951 0.016653 -0.019338
antenna 0.021841 -0.081469 -0.036037 0.019391 -0.000663 0.028805 -0.002300 -0.029577 -0.017192 -0.011498 0.056948 0.013639 0.016297 0.025630 0.003030 0.012747 -0.006776 -0.060956 -0.039363 -0.014443 -0.047131 -0.050804 -0.079330 0.075234 0.002655 -0.102173 0.035731 0.024982 0.000595 -0.006083 -0.040032 -0.041505 0.047734 -0.005222 -0.024262 -0.058932 0.020596 0.010769 0.022741 -0.025592 -0.004076 0.055340 -0.042592 0.058933 0.044557 -0.062902 0.037226 0.014226 -0.007171 -0.064380 0.002725 0.038628 -0.051620 -0.026526 0.006243 -0.018114 0.028810 -0.033641 -0.002786 0.022531 0.015629 0.025355 -0.057318 -0.026618 -0.022233 0.020080 0.006310 -0.014775 0.008892 0.064236 0.008544 -0.033415 -0.045031 0.042375 0.053597 0.022880 -0.039106 -0.055748 0.050143 0.051802 0.021845 -0.000277 -0.016488 0.018220 -0.047508 -0.027422 0.053923 0.018576 0.025085 0.064809 -0.013699 0.001379 0.058731 -0.029241 -0.000339 0.011649 0.018129 -0.017184 0.011176 -0.039310
sound 0.029622 -0.156129 -0.047194 0.026206 0.000911 0.036147 -0.001033 -0.023440 -0.035234 -0.028534 0.111196 0.026193 0.021458 0.043715 0.022885 0.051300 -0.009219 -0.083274 -0.080125 -0.003593 -0.066307 -0.080018 -0.135105 0.098119 -0.000784 -0.157930 0.050130 0.045162 -0.013317 0.011755 -0.073789 -0.052800 0.070867 -0.008340 -0.060377 -0.114773 0.028644 0.024057 0.065364 -0.059138 0.020209 0.057125 -0.078483 0.101083 0.076245 -0.092605 0.052847 0.017246 -0.020975 -0.101878 0.000268 0.089758 -0.073674 -0.030230 -0.006314 -0.041600 0.076366 -0.074941 -0.043481 0.043309 0.025988 0.046749 -0.112177 -0.045112 -0.038934 0.023837 0.030132 -0.019551 0.011382 0.104713 0.031765 -0.054692 -0.080038 0.086371 0.074582 0.007504 -0.060778 -0.113875 0.081198 0.078952 0.047375 -0.014966 0.001843 0.024618 -0.069560 -0.072520 0.113599 0.017357 0.046372 0.112339 -0.017702 0.001496 0.115300 -0.054402 -0.005072 0.022815 0.010810 -0.024758 0.014151 -0.051754
channel 0.031593 -0.096967 -0.043018 0.012502 -0.010334 0.050864 0.002866 -0.037408 -0.025558 -0.023962 0.060184 0.015924 0.003764 0.027722 -0.000326 0.007782 -0.024898 -0.085220 -0.046545 -0.018107 -0.049104 -0.069465 -0.090838 0.084088 -0.013329 -0.137220 0.041382 0.038409 0.021404 -0.005049 -0.043425 -0.044465 0.052586 -0.018976 -0.040698 -0.060799 0.022748 0.024430 0.029861 -0.026703 -0.006501 0.081762 -0.046630 0.073251 0.067521 -0.080021 0.035744 0.025195 -0.013643 -0.060987 -0.000605 0.048382 -0.061422 -0.017832 0.005553 -0.014827 0.032457 -0.044003 -0.010801 0.034912 0.021903 0.030360 -0.085160 -0.036027 -0.019214 0.005687 0.013406 -0.016417 0.014872 0.075686 0.005398 -0.043681 -0.052570 0.040614 0.063548 0.022513 -0.051575 -0.063762 0.065122 0.057354 0.018221 -0.002191 -0.034424 0.019629 -0.056981 -0.032304 0.058339 0.032526 0.026770 0.087660 -0.008184 0.007308 0.080558 -0.032805 -0.008210 0.020038 0.016617 -0.027398 0.022524 -0.045733
video 0.024676 -0.111267 -0.048317 0.019023 0.001592 -0.003394 -0.009811 -0.022123 -0.026767 -0.034510 0.088395 0.048172 0.031836 0.022524 0.031516 0.035294 0.002723 -0.072965 -0.070479 0.005923 -0.049518 -0.044913 -0.108701 0.101613 -0.001114 -0.113524 0.053395 0.030859 -0.017267 0.004297 -0.059260 -0.059735 0.057299 0.016609 -0.031661 -0.098606 0.035243 0.008336 0.048607 -0.036901 0.011937 0.028363 -0.070679 0.090651 0.043078 -0.079719 0.044271 0.029327 -0.033115 -0.095081 -0.004744 0.084067 -0.029802 -0.055586 0.006441 -0.042136 0.056934 -0.049057 -0.020990 0.028172 0.008327 0.033573 -0.078949 -0.034520 -0.009088 0.032864 0.024913 -0.033204 0.008159 0.070557 0.042866 -0.018571 -0.055014 0.059441 0.060651 0.023032 -0.042187 -0.076037 0.078015 0.100791 0.036706 -0.005221 0.011220 0.036779 -0.050541 -0.052223 0.079780 0.003172 0.045792 0.063542 -0.013067 -0.001336 0.087994 -0.025364 -0.018120 0.008601 0.005014 -0.035714 0.007388 -0.052142
price 0.002936 -0.077531 -0.026630 0.016045 0.007266 0.028349 -0.006132 -0.010259 -0.020731 -0.020598 0.058327 0.014781 0.007497 0.022668 0.016944 0.026455 -0.000371 -0.054923 -0.041794 0.001446 -0.029485 -0.049874 -0.080803 0.054911 -0.003379 -0.093571 0.034135 0.024492 -0.006229 0.002290 -0.036317 -0.034972 0.052339 -0.000962 -0.029574 -0.059287 0.028069 0.010073 0.026313 -0.030514 0.010433 0.036301 -0.040686 0.047141 0.036115 -0.048107 0.026544 0.010875 -0.010607 -0.058830 -0.008913 0.040038 -0.035735 -0.021775 0.008056 -0.025448 0.041694 -0.048775 -0.018534 0.029328 0.015323 0.028332 -0.059828 -0.028068 -0.021176 0.019062 0.018623 -0.010182 0.008244 0.055675 0.023297 -0.028563 -0.047893 0.044300 0.040224 0.005127 -0.037071 -0.066272 0.043101 0.048880 0.023930 0.003093 -0.009924 0.019755 -0.039577 -0.031795 0.061650 0.010515 0.020374 0.060992 -0.003253 -0.002367 0.066026 -0.031428 0.007135 0.013316 0.006999 -0.011491 0.012399 -0.035721
remote 0.018045 -0.070480 -0.032422 0.024935 0.001302 0.023437 -0.000008 -0.032613 -0.014234 -0.029271 0.048339 0.015276 0.018507 0.015826 0.017531 0.016443 0.000743 -0.051855 -0.051636 -0.010037 -0.026454 -0.049751 -0.069816 0.073608 -0.009700 -0.095610 0.041727 0.021227 -0.007448 0.006149 -0.039109 -0.041195 0.046793 -0.000643 -0.027687 -0.072227 0.028710 0.013115 0.034287 -0.019407 -0.001196 0.035629 -0.035819 0.073019 0.041851 -0.062580 0.038873 0.026781 -0.014043 -0.059392 0.000398 0.054516 -0.037379 -0.028410 -0.001598 -0.024252 0.030747 -0.040362 -0.017572 0.023690 0.010013 0.019089 -0.062110 -0.033856 -0.002756 0.012500 0.012242 -0.021184 0.004867 0.058241 0.012946 -0.025863 -0.038757 0.041014 0.048290 0.001976 -0.048335 -0.064235 0.053040 0.057873 0.020458 -0.000700 -0.003043 0.010410 -0.050334 -0.029519 0.059349 0.018614 0.032626 0.047342 -0.004433 0.009503 0.064797 -0.016881 -0.017190 0.002700 0.008458 -0.014859 0.002149 -0.043666
box 0.043336 -0.076621 -0.050840 0.020941 0.001651 0.003995 -0.001790 -0.024736 -0.013784 -0.025050 0.059283 0.034273 0.015095 0.009269 0.011205 0.009470 -0.008193 -0.074000 -0.045616 0.000717 -0.039174 -0.033781 -0.076912 0.085206 -0.023204 -0.096827 0.032874 0.028695 -0.011193 -0.001955 -0.033548 -0.063646 0.038235 0.007524 -0.015342 -0.064643 0.029147 0.004694 0.035195 -0.025576 -0.007374 0.029218 -0.064013 0.063759 0.038114 -0.061674 0.040764 0.031761 -0.028967 -0.062449 -0.001580 0.064658 -0.017811 -0.031808 0.006588 -0.013527 0.031566 -0.029920 0.006520 0.026630 -0.006167 0.024709 -0.061799 -0.038802 -0.000299 0.020267 0.016649 -0.025175 0.008978 0.062750 0.025694 -0.009141 -0.038030 0.038303 0.046875 0.021788 -0.027864 -0.052459 0.066169 0.061252 0.020547 -0.003852 0.002137 0.019474 -0.058128 -0.039059 0.042887 0.004970 0.016899 0.049269 -0.013325 0.011865 0.061693 -0.017845 -0.016729 0.000600 0.000962 -0.029060 0.009555 -0.054330
dvd -0.002667 -0.131405 -0.037905 0.014345 0.007760 -0.003488 -0.023566 -0.005459 -0.019045 -0.028149 0.099086 0.047534 0.040027 0.039175 0.027361 0.053838 0.004079 -0.064026 -0.061636 0.001809 -0.054969 -0.025837 -0.103075 0.081736 0.022085 -0.108515 0.064498 0.019406 -0.038657 -0.004101 -0.043435 -0.052161 0.043537 0.026588 -0.022768 -0.113099 0.026857 -0.008093 0.071057 -0.038252 0.031760 0.023754 -0.073482 0.092036 0.047185 -0.069290 0.036670 0.022722 -0.014623 -0.092508 -0.014274 0.082081 -0.040149 -0.059816 -0.003212 -0.055174 0.070030 -0.041983 -0.034595 0.021205 0.009808 0.032084 -0.078484 -0.020765 -0.016542 0.035102 0.040540 -0.030379 0.016646 0.062727 0.041057 -0.032601 -0.060526 0.054656 0.066728 0.014346 -0.049433 -0.093774 0.060465 0.101112 0.039178 -0.025509 0.036732 0.035935 -0.034493 -0.044635 0.101128 -0.002743 0.045915 0.070064 -0.024762 -0.009849 0.089580 -0.031511 -0.022167 0.015015 0.009467 -0.023251 0.007840 -0.036332
player 0.007305 -0.096979 -0.030992 0.020935 0.005441 -0.000790 -0.014491 -0.002489 -0.014153 -0.033540 0.075667 0.044991 0.021402 0.017544 0.016827 0.022499 0.001294 -0.048493 -0.050515 -0.012791 -0.027928 -0.019096 -0.070396 0.071950 0.015613 -0.078845 0.042628 0.026500 -0.034909 -0.009877 -0.042739 -0.050630 0.037694 0.023070 -0.013417 -0.082548 0.010809 0.002332 0.054297 -0.042162 0.023240 0.023372 -0.061198 0.076856 0.034269 -0.062434 0.028987 0.019711 -0.004237 -0.070516 -0.006683 0.065649 -0.042547 -0.051127 0.002566 -0.034045 0.051579 -0.023535 -0.028275 0.008415 0.015676 0.013778 -0.059728 -0.012538 -0.002696 0.015358 0.029464 -0.025884 0.016760 0.041029 0.035270 -0.028852 -0.042221 0.030101 0.046078 0.010776 -0.042224 -0.051909 0.043427 0.077639 0.037065 -0.030543 0.031650 0.040978 -0.032271 -0.040103 0.069443 -0.003926 0.041967 0.054612 -0.026924 -0.007456 0.072963 -0.012715 -0.026284 0.014124 0.007203 -0.030441 0.003075 -0.033667
easy 0.014272 -0.075223 -0.027029 0.013522 0.001754 0.018252 -0.000050 -0.023579 -0.025135 -0.018294 0.058209 0.022745 0.018519 0.017642 0.018694 0.025935 0.001961 -0.051502 -0.042784 -0.002721 -0.035229 -0.044266 -0.075876 0.064917 -0.006728 -0.096476 0.036872 0.022147 -0.004412 0.004067 -0.034541 -0.029333 0.053270 -0.006330 -0.033131 -0.065315 0.028926 0.016960 0.032603 -0.034085 0.003267 0.038615 -0.046545 0.053010 0.038625 -0.052557 0.031689 0.009288 -0.019782 -0.063306 0.000099 0.053932 -0.032877 -0.018692 0.001252 -0.022626 0.035225 -0.046830 -0.016589 0.028688 0.020904 0.026489 -0.062543 -0.031315 -0.020162 0.014964 0.011428 -0.016734 0.008512 0.061637 0.025199 -0.025740 -0.049428 0.046541 0.046143 0.010440 -0.039517 -0.065021 0.044800 0.050373 0.020928 0.004432 -0.007410 0.016229 -0.043633 -0.037053 0.058039 0.010076 0.026982 0.060477 -0.007072 0.001545 0.066550 -0.028591 0.001675 0.009404 0.012162 -0.020779 0.003051 -0.041916
device 0.010649 -0.048753 -0.028976 0.008792 0.001713 0.001942 -0.000807 -0.012935 -0.010274 -0.020870 0.039741 0.018904 0.011866 0.012502 0.017755 0.010662 0.000936 -0.039339 -0.035069 -0.002482 -0.020611 -0.028910 -0.060687 0.052327 -0.004528 -0.066468 0.022759 0.022071 -0.008015 -0.002041 -0.032697 -0.037288 0.031999 0.002589 -0.019626 -0.051956 0.018989 0.010697 0.021355 -0.024639 0.004975 0.019384 -0.037793 0.043000 0.016994 -0.043039 0.028108 0.007798 -0.025745 -0.049264 -0.007964 0.047639 -0.014530 -0.030111 0.004575 -0.025468 0.021006 -0.028392 -0.009458 0.012328 0.010337 0.015423 -0.051852 -0.015930 -0.006559 0.011961 0.017559 -0.007414 0.002283 0.040401 0.022907 -0.010555 -0.029753 0.025662 0.030965 0.010311 -0.025969 -0.037403 0.034738 0.049742 0.010903 0.002067 0.003291 0.024825 -0.035608 -0.029899 0.032667 0.004621 0.020202 0.035279 -0.007369 0.007074 0.052186 -0.014840 -0.016193 0.006256 0.004330 -0.015503 0.005663 -0.033371
hd 0.018588 -0.063163 -0.026007 0.013146 -0.004426 0.013016 -0.004889 -0.017769 -0.012916 -0.021443 0.049222 0.019866 0.005414 0.018191 0.009096 0.011410 -0.006644 -0.054851 -0.035962 -0.008373 -0.030183 -0.033509 -0.059828 0.052945 -0.002930 -0.082263 0.028993 0.022380 0.001723 0.003795 -0.027341 -0.032569 0.025371 0.000663 -0.020085 -0.042725 0.016916 0.005315 0.029310 -0.021459 -0.009108 0.037196 -0.033907 0.049422 0.037714 -0.049942 0.029390 0.018136 -0.008613 -0.039461 0.002775 0.037247 -0.029639 -0.019949 0.002935 -0.019659 0.024594 -0.027612 -0.001716 0.017990 0.011097 0.019767 -0.049092 -0.025402 -0.002832 0.008455 0.017926 -0.010473 0.013326 0.039331 0.012740 -0.017434 -0.024269 0.029826 0.034912 0.016203 -0.028278 -0.045657 0.044032 0.038820 0.019916 -0.011988 -0.004257 0.020032 -0.038431 -0.022632 0.032840 0.012683 0.020770 0.048503 -0.013454 0.010186 0.050656 -0.012024 -0.016343 0.003948 0.012255 -0.021385 0.011209 -0.035298
signal 0.022362 -0.052475 -0.021616 0.012731 -0.003695 0.016020 0.004534 -0.013508 -0.015240 -0.010205 0.032621 0.009747 0.011095 0.016219 0.011312 0.001184 -0.010836 -0.044357 -0.030862 -0.002023 -0.021569 -0.026099 -0.044708 0.047376 -0.007593 -0.071236 0.015428 0.016308 0.000118 -0.001963 -0.020391 -0.033728 0.028406 0.001874 -0.014918 -0.043007 0.018722 0.010524 0.016787 -0.019187 -0.007135 0.036007 -0.033744 0.038600 0.030397 -0.045331 0.030331 0.010341 -0.012274 -0.043817 0.003464 0.027939 -0.020168 -0.015253 0.004575 -0.007231 0.018918 -0.022952 0.003357 0.012706 0.009622 0.018248 -0.036453 -0.020700 -0.004174 0.015860 0.010644 -0.009492 0.010787 0.039501 0.019158 -0.017293 -0.026269 0.026133 0.024405 0.012614 -0.021077 -0.034039 0.043234 0.041246 0.012241 -0.000504 -0.002870 0.017081 -0.030820 -0.024595 0.031264 0.005125 0.015295 0.036413 -0.002357 0.004009 0.037516 -0.009124 -0.005467 0.005825 0.008386 -0.019588 0.010856 -0.030892
review -0.000109 -0.042818 -0.016819 0.011616 0.001659 0.008456 -0.009002 -0.009746 -0.012819 -0.008980 0.030173 0.002445 -0.001726 0.017249 0.003704 0.011709 0.007673 -0.026598 -0.026332 -0.001686 -0.019635 -0.025716 -0.036574 0.029429 -0.001827 -0.052404 0.009854 0.014707 -0.000982 0.007642 -0.014867 -0.010075 0.026612 -0.003968 -0.016545 -0.035963 0.016533 0.002209 0.017590 -0.012778 0.009775 0.015613 -0.019369 0.021916 0.015415 -0.024581 0.020874 0.001845 -0.010119 -0.026000 -0.002299 0.025626 -0.025698 -0.007208 -0.002153 -0.013762 0.026104 -0.030603 -0.014405 0.011466 0.017390 0.014395 -0.041277 -0.018817 -0.010239 0.007286 0.013972 0.001991 0.000571 0.029779 0.013079 -0.019661 -0.026267 0.029939 0.021881 0.008135 -0.022260 -0.037548 0.020365 0.020793 0.013754 0.003595 -0.007893 0.006811 -0.017211 -0.025814 0.034038 0.004305 0.006015 0.032699 -0.008829 -0.000512 0.038161 -0.016943 0.005052 0.000684 0.005430 -0.004648 0.002502 -0.017239
sony -0.003407 -0.033213 -0.010062 0.002993 0.005566 0.012846 -0.007946 -0.003390 -0.015820 -0.012038 0.031062 0.002690 0.003114 0.016224 0.015955 0.005477 0.010363 -0.020892 -0.016595 0.001331 -0.020467 -0.021709 -0.041179 0.024821 -0.001571 -0.051203 0.016117 0.013377 -0.004129 0.002342 -0.013858 -0.015791 0.023389 -0.002767 -0.015995 -0.026455 0.010619 -0.000796 0.014067 -0.015783 0.000175 0.024918 -0.016125 0.021661 0.017728 -0.028222 0.013953 -0.001031 -0.007606 -0.025352 0.001921 0.019823 -0.018402 -0.011536 0.008176 -0.015203 0.024067 -0.027302 -0.001586 0.010614 0.019807 0.018779 -0.028424 -0.018599 -0.015641 0.003561 0.013079 -0.005238 0.008108 0.019024 0.005106 -0.017414 -0.019874 0.023846 0.023008 0.007257 -0.024390 -0.041315 0.018473 0.023359 0.010247 0.000801 -0.003941 0.009991 -0.018390 -0.017103 0.029979 0.000467 0.016678 0.033608 -0.007034 0.001007 0.038806 -0.014825 0.007970 0.000111 0.011120 -0.000572 0.001833 -0.021543
hdtv 0.018722 -0.063935 -0.020358 0.013188 -0.006466 0.025778 -0.005313 -0.012363 -0.015345 -0.018910 0.048855 0.013310 0.005095 0.020152 0.005108 0.011482 -0.011522 -0.046478 -0.031411 -0.003123 -0.027943 -0.042950 -0.058688 0.047015 -0.006872 -0.089303 0.024953 0.024915 0.007614 0.003619 -0.025820 -0.027657 0.037601 -0.008749 -0.020343 -0.052337 0.017945 0.010208 0.024245 -0.029096 0.001396 0.042517 -0.035767 0.037470 0.040661 -0.046550 0.016417 0.012376 -0.006369 -0.043915 -0.000455 0.037804 -0.040915 -0.018671 -0.001086 -0.017838 0.025513 -0.037358 -0.013083 0.024377 0.023871 0.021759 -0.056387 -0.016739 -0.020399 0.004934 0.012154 -0.012130 0.013726 0.048073 0.009866 -0.022374 -0.030565 0.029107 0.029795 0.008360 -0.033755 -0.052545 0.040921 0.034411 0.021345 -0.001582 -0.012878 0.016060 -0.036020 -0.029941 0.046623 0.008196 0.019886 0.053107 -0.013540 0.003844 0.048471 -0.019814 0.003825 0.015350 0.007052 -0.018023 0.012040 -0.025725
lcd 0.002672 -0.021122 -0.005375 0.005390 -0.002902 0.014384 -0.003736 0.005076 -0.010950 -0.009342 0.013748 0.001137 0.001877 0.012447 0.008003 -0.000663 0.003638 -0.013763 -0.005836 0.000289 -0.008272 -0.017994 -0.021203 0.005553 -0.003913 -0.029122 0.010135 0.008723 0.007662 -0.002951 -0.005062 -0.008157 0.012866 -0.006284 -0.004912 -0.012085 0.007804 0.005105 0.004836 -0.007799 -0.002783 0.016234 -0.011494 0.005532 0.016400 -0.011810 0.005455 0.003365 -0.003581 -0.011991 -0.000658 0.012012 -0.013113 -0.002454 0.006109 -0.009211 0.017973 -0.012747 -0.009885 0.002418 0.016966 0.004264 -0.014485 -0.009763 -0.008101 -0.000895 0.013557 -0.002239 0.002671 0.008993 0.002027 -0.009595 -0.009510 0.009309 0.009769 -0.003303 -0.016243 -0.015310 0.003921 0.012653 0.007653 -0.005344 -0.004791 0.002659 -0.006601 -0.016022 0.012802 -0.000071 0.002710 0.019769 -0.005670 0.002775 0.016466 -0.004018 0.005150 0.002546 0.008331 0.002742 0.011535 -0.010717
model -0.006996 -0.025707 -0.000496 0.000089 0.002866 0.008543 -0.003203 0.003182 -0.009434 -0.007861 0.019077 -0.002712 -0.003740 0.017336 0.008855 0.008471 0.013437 -0.013159 -0.007891 -0.004251 -0.006725 -0.013889 -0.021234 0.009789 -0.000960 -0.026312 0.008221 0.007403 0.005628 0.000170 -0.004159 -0.003456 0.022776 -0.004440 -0.005426 -0.015564 0.008496 -0.004035 0.007719 -0.013079 0.001822 0.011810 -0.012840 0.011068 0.015611 -0.013930 0.011804 -0.006967 0.003410 -0.008657 -0.002929 0.008874 -0.009569 -0.008320 0.001130 -0.007056 0.017764 -0.023341 -0.005764 0.009755 0.011448 0.012541 -0.014696 -0.001810 -0.012013 0.008830 0.011374 0.007132 -0.000869 0.012996 0.005070 -0.018087 -0.012594 0.021036 0.008281 0.003419 -0.015204 -0.029737 -0.000296 0.016063 0.006971 0.002582 -0.003564 0.007036 -0.013187 -0.015289 0.023727 0.004511 0.001621 0.019794 0.001072 -0.005462 0.027380 -0.008957 0.011423 0.006499 0.003505 -0.001669 0.002084 -0.010870
room 0.006622 -0.042830 -0.024093 0.007901 -0.000354 0.006699 0.002582 -0.017661 -0.020911 -0.017090 0.037622 0.017939 0.004459 0.012411 0.007213 0.010239 -0.001589 -0.031264 -0.035344 0.002700 -0.012630 -0.042118 -0.059171 0.038465 -0.007075 -0.053982 0.016514 0.022149 0.000982 0.006262 -0.032451 -0.018916 0.042862 -0.001107 -0.009954 -0.036348 0.017818 0.016722 0.018351 -0.022088 0.004845 0.017703 -0.041987 0.035669 0.020586 -0.038867 0.030111 0.010562 -0.019583 -0.032356 0.003715 0.039496 -0.022305 -0.019377 0.010448 -0.017609 0.029314 -0.033346 -0.004461 0.019370 0.017301 0.026696 -0.049131 -0.025165 -0.011757 0.005746 0.009465 -0.005587 0.005880 0.041734 0.011147 -0.009623 -0.031300 0.028281 0.029821 -0.001410 -0.025606 -0.035080 0.020522 0.026489 0.014773 0.001936 -0.007923 0.016727 -0.034166 -0.036643 0.033485 0.007704 0.013612 0.043703 -0.011838 0.009154 0.050259 -0.012859 -0.000728 -0.001175 0.008588 -0.015121 0.003864 -0.019243
digital 0.031549 -0.066449 -0.040263 0.011056 -0.000394 0.006334 0.003957 -0.022388 -0.013923 -0.017339 0.048788 0.021520 0.018497 0.020509 0.006982 0.010434 -0.011719 -0.059306 -0.043160 -0.009154 -0.035757 -0.030016 -0.067249 0.070375 -0.009607 -0.089479 0.029489 0.023358 -0.005744 -0.004739 -0.029215 -0.047260 0.027387 0.006652 -0.022644 -0.054263 0.024222 0.008970 0.029662 -0.027281 -0.002080 0.035619 -0.050469 0.054236 0.035364 -0.059292 0.038260 0.016576 -0.022248 -0.057954 -0.000398 0.049093 -0.031825 -0.031577 0.007709 -0.020979 0.029887 -0.026951 -0.006896 0.017234 0.002799 0.014391 -0.053277 -0.028016 -0.000338 0.016113 0.019187 -0.018046 0.011968 0.051405 0.023561 -0.015317 -0.037011 0.039348 0.039037 0.012919 -0.035401 -0.044547 0.054512 0.057766 0.019433 -0.004746 -0.001540 0.026240 -0.040569 -0.025335 0.038184 0.011807 0.016199 0.044783 -0.007137 0.002280 0.050350 -0.015732 -0.011545 0.011034 0.004368 -0.025364 0.010737 -0.034160
feature 0.008428 -0.047955 -0.024516 0.005885 0.005103 0.013490 -0.000686 -0.014994 -0.015761 -0.014599 0.040636 0.011277 0.013872 0.015514 0.015569 0.015571 0.002467 -0.039915 -0.031943 0.002612 -0.017845 -0.035201 -0.054253 0.045003 -0.001564 -0.068124 0.018725 0.023685 0.005181 0.002838 -0.029805 -0.024086 0.034041 -0.001856 -0.016101 -0.048183 0.013476 0.005165 0.026776 -0.026607 0.007211 0.021433 -0.033106 0.036974 0.027415 -0.039643 0.020254 0.010550 -0.019137 -0.042658 -0.002646 0.038672 -0.018613 -0.015040 0.008601 -0.018123 0.024615 -0.031964 -0.010434 0.019060 0.009055 0.019865 -0.040428 -0.016124 -0.012205 0.007074 0.008899 -0.008865 0.006591 0.040063 0.019004 -0.012023 -0.032359 0.030208 0.030731 0.004885 -0.026122 -0.038664 0.035369 0.033222 0.015210 -0.004637 -0.001740 0.020504 -0.032816 -0.021423 0.031461 0.007794 0.018558 0.042169 -0.009254 0.000601 0.049316 -0.014219 -0.008959 0.009831 0.009449 -0.015319 0.009789 -0.031748
color 0.004996 -0.008566 -0.007082 0.003292 0.003323 0.004957 -0.003668 -0.001630 -0.005232 -0.009188 0.013377 0.003029 -0.002244 0.006169 0.002439 0.004090 0.002641 -0.005868 -0.011807 -0.005087 0.001868 -0.011342 -0.014588 0.006962 0.002453 -0.021948 0.001668 0.012060 0.001862 0.004579 -0.011529 -0.008030 0.018683 -0.009086 -0.000883 -0.009388 0.000590 -0.000117 -0.001775 -0.005179 -0.002429 0.012257 -0.007297 0.003508 0.007101 -0.008869 0.010063 0.000186 -0.004994 -0.007857 0.001861 0.006676 -0.011316 -0.001863 -0.000093 0.001615 0.012948 -0.012751 0.002016 0.002528 0.011166 0.010750 -0.017480 -0.007744 -0.004107 -0.003391 0.003172 0.007855 0.004520 0.007211 -0.001812 -0.009742 -0.004271 0.013871 0.000156 -0.003136 -0.002753 -0.010711 0.005192 -0.005170 0.002023 0.006414 -0.006260 0.001504 -0.009761 -0.013179 0.004726 0.003516 -0.001245 0.008022 0.002222 0.001183 0.010040 -0.001393 0.006025 -0.000252 0.002946 0.001165 0.000487 -0.007530
service -0.007286 0.031237 0.001326 0.001203 0.002736 -0.000909 -0.001870 0.009065 0.005483 0.015613 -0.018861 -0.018910 -0.010081 -0.010013 -0.013570 -0.009904 0.008625 0.021201 0.021073 0.003534 0.010276 0.011107 0.025902 -0.020828 -0.006619 0.030948 -0.011971 -0.013020 0.002428 -0.001903 0.014119 0.015238 -0.017884 -0.003979 0.008974 0.033662 -0.007997 0.005104 -0.010448 0.013757 -0.006726 -0.014150 0.015332 -0.021126 -0.014810 0.016882 -0.006786 -0.004578 0.012377 0.024266 0.004811 -0.022559 0.015943 0.020945 0.004593 0.011753 -0.007679 0.003645 0.008634 -0.014431 -0.003299 -0.011313 0.021046 0.002191 0.004284 -0.002083 -0.004681 0.007677 -0.007942 -0.015398 -0.012995 0.000344 0.012097 -0.021565 -0.008314 -0.004388 0.020830 0.028585 -0.020868 -0.027167 -0.005015 0.010314 -0.002358 -0.013189 0.006021 0.016459 -0.029834 -0.002904 -0.019465 -0.014521 -0.005995 0.008599 -0.019126 0.012256 0.007818 -0.006278 0.000207 0.013260 -0.004787 0.013393
movie 0.002702 -0.024847 -0.014279 0.007765 0.000871 0.001253 -0.001112 -0.000643 -0.003687 -0.010793 0.028188 0.013141 0.012234 0.002054 0.006545 0.013033 -0.000489 -0.018916 -0.018530 -0.000721 -0.013015 -0.008496 -0.030008 0.026913 0.003315 -0.034798 0.016958 0.007962 -0.009717 -0.000861 -0.019914 -0.019513 0.019992 0.005829 -0.010279 -0.025378 0.013226 0.004210 0.013966 -0.011305 0.004537 0.006453 -0.016362 0.024150 0.005651 -0.021912 0.012149 0.000757 -0.009952 -0.025206 -0.005695 0.027171 -0.013586 -0.015225 -0.001685 -0.015535 0.019692 -0.016254 -0.004586 0.010409 0.005587 0.003137 -0.024049 -0.009023 -0.003468 0.004184 0.008414 -0.009719 0.000762 0.023044 0.006693 -0.005525 -0.011788 0.015747 0.021404 0.007618 -0.015617 -0.019301 0.014400 0.022350 0.014296 -0.004296 0.006138 0.013635 -0.015113 -0.014733 0.020368 0.001454 0.015738 0.018935 -0.000318 -0.002296 0.021412 -0.008606 -0.001788 0.007743 0.006921 -0.008227 -0.001488 -0.008879
file 0.008679 -0.095132 -0.045300 0.013127 0.006269 0.014138 -0.013653 -0.022225 -0.029552 -0.027670 0.081836 0.036195 0.021052 0.021790 0.021251 0.025394 0.005709 -0.070884 -0.056151 -0.006565 -0.044674 -0.048832 -0.101140 0.085745 -0.006861 -0.108517 0.048473 0.032334 -0.009463 -0.003115 -0.050620 -0.052593 0.062022 0.010041 -0.032778 -0.090227 0.035601 0.011971 0.043295 -0.042871 0.008908 0.034339 -0.064227 0.070980 0.038392 -0.070286 0.037846 0.020990 -0.027904 -0.084683 -0.009700 0.077203 -0.038576 -0.045705 0.006818 -0.040405 0.053020 -0.051536 -0.021739 0.027053 0.011728 0.031076 -0.079112 -0.025238 -0.019019 0.018978 0.029544 -0.013569 0.004588 0.065687 0.033886 -0.019582 -0.050325 0.048912 0.055918 0.013079 -0.050290 -0.073054 0.052154 0.074967 0.026449 -0.008645 0.007369 0.033210 -0.051635 -0.049197 0.073981 0.008807 0.034264 0.069867 -0.010316 0.005366 0.077915 -0.032286 -0.009870 0.014893 0.011791 -0.030202 0.005426 -0.045086
pc 0.011749 -0.062044 -0.024380 0.013010 -0.000884 0.014722 0.000270 -0.009470 -0.015713 -0.018819 0.041453 0.015680 0.008786 0.018582 0.018760 0.010118 -0.003556 -0.038899 -0.037517 0.000723 -0.019464 -0.035104 -0.056795 0.041488 -0.004286 -0.068438 0.031302 0.024717 0.004275 -0.002101 -0.026875 -0.027510 0.034878 0.004237 -0.015914 -0.047005 0.014629 0.005111 0.021674 -0.014719 -0.001085 0.027527 -0.030618 0.038957 0.027206 -0.043857 0.022802 0.014594 -0.016071 -0.035344 -0.005801 0.039262 -0.028123 -0.024536 0.002174 -0.019847 0.028678 -0.029447 -0.005319 0.022346 0.013161 0.013926 -0.050710 -0.013309 -0.013494 0.013292 0.011872 -0.007097 0.009614 0.044173 0.014077 -0.017432 -0.032797 0.036940 0.029062 0.007337 -0.033360 -0.049588 0.027520 0.037660 0.008289 0.003463 -0.004509 0.019135 -0.025842 -0.023415 0.036708 0.013603 0.012735 0.047677 -0.006719 0.005515 0.052600 -0.019485 -0.005606 0.009984 0.003571 -0.010091 0.010937 -0.026266
system 0.016526 -0.081306 -0.027312 0.017223 0.004231 0.011384 -0.007487 -0.016227 -0.023676 -0.025134 0.054894 0.016587 0.020615 0.020993 0.023514 0.025142 0.005440 -0.047262 -0.044060 -0.006514 -0.029128 -0.041768 -0.078568 0.055311 -0.008517 -0.093738 0.029732 0.027193 -0.002964 0.001678 -0.038841 -0.033699 0.044252 -0.003759 -0.027203 -0.064409 0.017929 0.008106 0.037255 -0.032843 0.012509 0.028832 -0.047255 0.061163 0.034154 -0.056898 0.037199 0.009440 -0.019932 -0.053092 -0.005753 0.049229 -0.031192 -0.022076 0.004344 -0.026167 0.041039 -0.042936 -0.017253 0.025506 0.010064 0.025018 -0.059975 -0.024029 -0.016816 0.018907 0.020637 -0.016796 0.004514 0.052527 0.021962 -0.018167 -0.045579 0.040613 0.043147 0.015345 -0.039731 -0.060286 0.040426 0.056944 0.016009 -0.002982 -0.000687 0.019016 -0.037169 -0.040240 0.058414 0.007258 0.023807 0.058010 -0.008994 0.001004 0.063216 -0.029659 0.000925 0.007076 0.003031 -0.017179 0.004580 -0.033834
input 0.013266 -0.054033 -0.020618 0.008656 -0.002249 -0.003307 -0.007980 -0.015891 -0.012491 -0.024249 0.042281 0.020723 0.020060 0.010877 0.017047 0.020825 0.000131 -0.046925 -0.038001 0.003437 -0.023061 -0.021439 -0.056425 0.055678 -0.008284 -0.070052 0.026905 0.017739 -0.002664 -0.001054 -0.033235 -0.029860 0.030039 0.002138 -0.016934 -0.056008 0.018853 0.007841 0.032897 -0.013863 0.004978 0.017606 -0.038444 0.043735 0.027515 -0.039901 0.031973 0.011505 -0.020672 -0.045375 -0.005286 0.049305 -0.018784 -0.022019 0.006998 -0.015099 0.031188 -0.020821 -0.003754 0.018696 0.004988 0.015659 -0.039309 -0.023270 -0.002378 0.018064 0.017456 -0.012153 0.008424 0.043607 0.026946 -0.010446 -0.028417 0.031624 0.033536 0.013983 -0.021951 -0.043013 0.039027 0.054956 0.019411 -0.009471 0.013387 0.016223 -0.035431 -0.032244 0.038880 0.002078 0.016024 0.033288 -0.004472 -0.001713 0.045021 -0.010970 -0.014249 0.006255 0.003198 -0.012521 0.002952 -0.034180
television 0.007371 -0.002279 0.000304 -0.001825 0.002724 0.004867 0.002864 0.001436 -0.001144 -0.000970 -0.005690 0.001294 -0.002145 0.004145 -0.005255 -0.001878 -0.005224 -0.002430 0.001422 0.002421 -0.000574 -0.001652 0.000254 0.004015 -0.000999 0.002734 0.002269 0.005250 0.005044 -0.003964 0.001510 -0.004169 0.004988 0.001136 -0.001531 -0.001570 0.000627 0.000143 0.003777 -0.004604 -0.005318 -0.002083 0.000349 -0.001353 -0.000236 -0.000230 -0.001878 0.000606 -0.005207 -0.000785 -0.002230 -0.001410 -0.004076 -0.000344 -0.000391 0.004888 0.001690 0.000439 -0.000133 0.004535 -0.000568 -0.000446 -0.000357 -0.001223 0.005394 -0.002796 0.000563 0.002171 -0.000399 -0.004207 -0.000689 -0.000771 -0.000216 -0.001187 0.000697 0.002702 -0.003540 -0.001436 -0.000187 0.001430 0.001800 0.001210 -0.002655 -0.003291 -0.003038 0.002528 -0.004873 0.001334 -0.000978 -0.001797 0.001813 -0.004367 0.000241 -0.001971 -0.001340 -0.004018 -0.004556 -0.006100 0.006160 0.002156
wall 0.012019 -0.017329 -0.012647 0.010942 -0.001371 0.002477 0.003619 -0.002433 -0.008705 -0.009982 0.019765 0.004983 0.005746 -0.000005 0.004273 0.000154 0.000143 -0.020045 -0.009306 0.004231 -0.010578 -0.011777 -0.019222 0.014660 -0.007895 -0.027361 0.010055 0.010227 0.001682 0.002522 -0.004593 -0.012428 0.016478 0.005635 -0.005827 -0.018560 0.002119 0.006894 0.005525 -0.008998 0.002406 0.007998 -0.016845 0.011843 0.010037 -0.014864 0.007920 0.001538 -0.004293 -0.012757 -0.005957 0.016623 -0.007945 -0.002698 0.004989 -0.006242 0.009293 -0.012229 0.000784 0.008644 -0.001380 0.011489 -0.011735 -0.010937 0.000029 0.004200 0.004651 0.000785 -0.004065 0.018492 0.013615 0.000279 -0.012457 0.012624 0.015081 0.002876 -0.005362 -0.021164 0.011202 0.010372 0.002401 0.002364 0.001857 0.009975 -0.011546 -0.012225 0.015017 -0.003708 -0.001128 0.010617 -0.003209 0.001440 0.020043 -0.006748 -0.001780 -0.003624 0.000060 -0.007777 -0.002106 -0.013964
money -0.000725 -0.036736 -0.014387 0.009003 -0.003318 0.008952 -0.005200 -0.005636 -0.010073 -0.008433 0.020773 0.007967 0.003856 0.012285 0.004173 0.014470 0.003319 -0.017200 -0.021262 -0.004101 -0.016036 -0.019434 -0.035135 0.020209 0.003113 -0.047632 0.014173 0.008451 -0.004139 -0.002294 -0.010786 -0.009022 0.020469 -0.001728 -0.014751 -0.028045 0.010418 -0.000126 0.013244 -0.011458 0.004386 0.015110 -0.019642 0.022390 0.017396 -0.023422 0.012073 -0.000655 0.000152 -0.025415 -0.003319 0.015551 -0.020479 -0.008605 0.003396 -0.014825 0.015995 -0.018571 -0.008834 0.015189 0.011263 0.012254 -0.031457 -0.011389 -0.013092 0.007958 0.006470 -0.000598 0.005120 0.021988 0.008505 -0.014143 -0.017477 0.020928 0.018057 0.007726 -0.012474 -0.028060 0.014025 0.016546 0.009635 0.003524 -0.005177 0.012236 -0.017298 -0.015273 0.027084 0.005752 0.008212 0.028125 -0.004681 -0.003007 0.030459 -0.011871 -0.003001 0.008987 0.006308 -0.001133 0.005153 -0.011769
audio 0.014791 -0.084137 -0.030422 0.011559 0.005299 0.006444 -0.006035 -0.018372 -0.018058 -0.022069 0.067211 0.025072 0.017444 0.021538 0.016353 0.027906 -0.006650 -0.055590 -0.042452 -0.004223 -0.043012 -0.040692 -0.080113 0.074995 -0.002517 -0.090840 0.030696 0.023573 -0.004644 0.003806 -0.044656 -0.041839 0.042687 0.002233 -0.022768 -0.066919 0.026820 0.013382 0.032433 -0.025282 0.003382 0.034836 -0.046068 0.060772 0.041697 -0.061830 0.039006 0.019167 -0.025810 -0.058514 -0.005689 0.059933 -0.029367 -0.035129 0.002773 -0.026083 0.033495 -0.032475 -0.009746 0.021835 0.002417 0.018533 -0.058098 -0.020777 -0.007570 0.024808 0.018604 -0.022396 0.005868 0.058974 0.021582 -0.017177 -0.041401 0.046439 0.041760 0.011621 -0.030535 -0.064347 0.052885 0.066455 0.020104 -0.007686 0.007642 0.028044 -0.041286 -0.037176 0.054912 0.005260 0.026754 0.050456 -0.005832 0.001920 0.063825 -0.019739 -0.017237 0.013109 0.002706 -0.026195 0.001854 -0.042655
station 0.013021 -0.027596 -0.010826 0.010004 -0.007521 0.017868 -0.004548 -0.016690 -0.012459 -0.010139 0.017873 0.005779 0.003960 0.007359 0.006538 0.001491 -0.008849 -0.029585 -0.020350 -0.004394 -0.015914 -0.026102 -0.030635 0.031024 -0.000580 -0.046732 0.010506 0.008722 -0.000823 -0.002304 -0.020778 -0.016214 0.018585 -0.005918 -0.010493 -0.019658 0.010630 0.006304 0.007340 -0.007689 -0.004204 0.028001 -0.013424 0.020491 0.016176 -0.023988 0.018130 0.003096 -0.007593 -0.019872 -0.005106 0.013967 -0.021355 -0.009883 0.000366 -0.005495 0.015262 -0.009375 0.004213 0.006361 0.004509 0.014318 -0.022853 -0.016009 -0.005191 0.004972 0.000998 -0.001254 0.006855 0.028525 0.005817 -0.009356 -0.012555 0.011804 0.022990 0.011639 -0.021528 -0.020306 0.022567 0.017087 0.008539 -0.004892 -0.009735 0.012600 -0.022845 -0.007447 0.016199 0.009031 0.009913 0.026284 -0.006052 0.002669 0.029408 -0.010780 -0.006124 0.000523 0.008681 -0.008573 0.001704 -0.019901
computer -0.002525 -0.023773 -0.002115 -0.000209 0.003367 0.006758 0.003622 -0.007983 -0.003261 -0.008637 0.012721 0.004407 0.008207 0.005865 0.003457 0.000702 -0.001158 -0.016248 -0.006169 -0.000776 -0.006730 -0.015007 -0.021255 0.012956 -0.004476 -0.019739 0.011084 0.002227 -0.002684 -0.006295 -0.010968 -0.004971 0.016294 0.000856 -0.002085 -0.013990 0.007029 0.000194 0.005781 -0.007479 0.002069 0.011397 -0.011927 0.013059 0.011932 -0.010191 0.005691 0.002451 -0.003511 -0.017331 -0.005688 0.015377 -0.003268 -0.010596 0.005058 -0.006004 0.004587 -0.006239 0.000200 0.004122 0.009367 0.007546 -0.010622 -0.005444 -0.002952 0.004111 0.007695 -0.005783 0.007075 0.009521 0.004381 -0.001757 -0.009994 0.015640 0.011760 0.004525 -0.010365 -0.019994 0.008127 0.018100 0.004170 0.000803 -0.001529 0.006058 -0.006321 -0.007800 0.008312 0.004528 0.004608 0.015018 -0.003667 0.003358 0.017964 -0.006293 -0.002267 0.006682 0.005848 -0.007085 -0.002020 -0.006966
speaker 0.015292 -0.088506 -0.024618 0.011671 0.001867 0.022291 0.000987 -0.019274 -0.017541 -0.024174 0.060876 0.014556 0.021724 0.024724 0.021640 0.028008 -0.002399 -0.044897 -0.051658 0.001876 -0.038380 -0.039779 -0.074992 0.061855 0.002391 -0.095943 0.030615 0.022097 -0.001321 0.006173 -0.044162 -0.035489 0.041691 -0.002860 -0.036299 -0.075052 0.024407 0.016415 0.038212 -0.027139 0.004993 0.032994 -0.037992 0.062004 0.035425 -0.059565 0.030339 0.006806 -0.009575 -0.054744 0.001162 0.052316 -0.040202 -0.026028 -0.001274 -0.033118 0.036762 -0.044543 -0.027581 0.026715 0.010635 0.027522 -0.062723 -0.027369 -0.015279 0.011466 0.015825 -0.015313 0.003104 0.059480 0.017619 -0.021780 -0.049412 0.047434 0.046717 0.006744 -0.037397 -0.060223 0.052081 0.051178 0.026627 -0.010635 0.001382 0.018093 -0.038960 -0.038266 0.065107 0.010657 0.023317 0.063523 -0.009020 -0.006451 0.065134 -0.032984 -0.007163 0.016627 0.001040 -0.021292 0.009709 -0.031151
card 0.016236 -0.064305 -0.025966 0.006652 -0.002566 0.016730 0.002324 -0.019972 -0.015853 -0.014411 0.049317 0.021092 0.013190 0.015229 0.013899 0.020640 -0.007291 -0.042341 -0.031984 -0.001259 -0.030185 -0.028216 -0.060420 0.050170 -0.004746 -0.074800 0.027416 0.014271 -0.001332 -0.003269 -0.025407 -0.032478 0.032276 -0.002662 -0.017225 -0.047653 0.021265 0.007913 0.020518 -0.019604 0.004291 0.026546 -0.030124 0.041612 0.028557 -0.041114 0.028240 0.014673 -0.015343 -0.049082 -0.001742 0.038647 -0.023835 -0.016107 -0.000655 -0.017979 0.021538 -0.027927 -0.015461 0.021380 0.010461 0.011670 -0.049677 -0.015178 -0.005493 0.007795 0.010525 -0.013370 0.007184 0.046136 0.015864 -0.013328 -0.035443 0.036784 0.034315 0.007250 -0.032285 -0.043539 0.039492 0.044306 0.013623 0.003080 0.001583 0.009313 -0.034550 -0.019476 0.038033 0.013736 0.016348 0.043515 -0.000662 -0.000285 0.043412 -0.023193 -0.005655 0.011400 -0.000867 -0.011955 0.001643 -0.024755
small 0.004678 -0.034776 -0.005555 0.001003 -0.004023 0.008851 0.001032 -0.002655 -0.015893 -0.011690 0.022677 -0.000056 0.008810 0.007785 0.006447 0.009330 -0.000713 -0.023203 -0.023068 -0.000883 -0.008942 -0.026992 -0.029066 0.015960 -0.004546 -0.035397 0.015635 0.012413 -0.002521 0.004721 -0.017236 -0.008307 0.024618 0.001243 -0.016317 -0.025781 0.014865 0.008497 0.017062 -0.018447 0.004901 0.016795 -0.012112 0.016838 0.019561 -0.024292 0.009318 -0.001943 -0.004620 -0.019979 0.001998 0.015168 -0.019991 -0.007697 0.003235 -0.010915 0.020009 -0.026063 -0.008881 0.011055 0.013159 0.019822 -0.031469 -0.013335 -0.010441 0.005877 0.006944 0.001802 0.003327 0.029246 0.005770 -0.014623 -0.023902 0.025216 0.010160 0.005658 -0.016743 -0.034255 0.015981 0.016783 0.011141 -0.002346 0.000437 0.002714 -0.011367 -0.021868 0.020941 0.007593 0.011494 0.028007 0.001428 -0.004144 0.025682 -0.017512 0.008493 0.005941 0.001033 -0.005940 0.006826 -0.017215
big -0.000436 -0.002473 0.008814 0.001338 -0.001500 0.001112 -0.001119 0.004410 -0.000330 -0.005197 0.006104 -0.002895 0.002609 0.011239 0.007000 -0.000525 0.002934 -0.005358 0.000388 -0.002141 -0.003512 -0.009489 -0.009493 -0.005054 -0.000856 -0.002135 0.001878 0.009245 0.000124 -0.003343 -0.000780 0.006800 0.012721 -0.006304 -0.006258 -0.002819 0.006427 0.006092 0.003018 0.000953 0.006340 -0.001060 -0.005113 -0.003798 0.002981 -0.000861 -0.002461 -0.000742 -0.005673 -0.004223 0.003018 0.002387 -0.002869 -0.003981 0.003513 -0.004666 0.003051 -0.012846 0.001687 0.009910 0.005867 0.003485 -0.008764 0.003515 -0.008710 0.004571 0.004824 0.004863 -0.000956 0.005928 0.002711 -0.003881 -0.004050 0.003824 -0.007015 -0.004328 -0.001024 -0.002812 -0.007398 -0.003047 -0.000012 -0.000832 -0.000172 0.001691 0.003993 -0.002113 0.003503 0.005789 -0.001674 0.010649 -0.000093 -0.003654 0.006188 -0.003873 0.011035 0.001493 0.003559 0.003673 0.004170 0.003190
power 0.010541 -0.036065 -0.019408 0.015851 0.000766 -0.007105 0.001285 -0.009040 -0.006475 -0.009167 0.035633 0.015616 0.015538 0.003839 0.007423 0.008231 0.004150 -0.025571 -0.025743 0.004150 -0.020551 -0.015497 -0.033753 0.037673 -0.012482 -0.040364 0.020653 0.014900 -0.007703 -0.005250 -0.025187 -0.030547 0.023872 0.005334 -0.014133 -0.040825 0.017458 0.008171 0.020535 -0.011989 0.005475 0.008106 -0.027532 0.028646 0.011826 -0.026781 0.025059 0.013142 -0.017351 -0.039118 -0.007850 0.027576 -0.003419 -0.018300 0.008275 -0.008745 0.018135 -0.014698 0.003269 0.007918 0.002225 0.015701 -0.023227 -0.012511 0.001829 0.009616 0.002932 -0.016145 0.002528 0.031656 0.012494 0.002275 -0.017656 0.016679 0.020713 0.011754 -0.011053 -0.033680 0.034355 0.035903 0.010447 0.004442 0.004869 0.013952 -0.022898 -0.014340 0.021210 0.004527 0.008863 0.015796 0.000130 -0.000453 0.023588 -0.011882 -0.008645 0.006504 -0.001483 -0.015117 0.005576 -0.021426
plasma 0.009019 -0.025960 -0.010381 0.004718 0.002663 0.014656 0.002672 -0.007887 -0.001578 -0.010631 0.021780 -0.001553 0.000849 0.013899 0.005726 0.004608 0.001371 -0.020627 -0.010568 0.001069 -0.016323 -0.012365 -0.024798 0.017063 -0.004586 -0.035520 0.008594 0.004888 -0.001998 -0.002942 -0.016153 -0.006391 0.011237 -0.000771 -0.006125 -0.020571 0.004157 0.002810 0.010216 -0.008309 -0.002260 0.019440 -0.013207 0.017376 0.010899 -0.016880 0.004370 0.002375 -0.004295 -0.017990 0.002586 0.018980 -0.014611 -0.012797 0.005000 -0.003828 0.017087 -0.011233 -0.008696 0.005258 0.007819 0.004801 -0.025844 -0.007740 -0.009431 -0.000264 0.011288 -0.000785 0.004778 0.020618 0.009394 -0.006648 -0.015701 0.011325 0.017901 0.002279 -0.016793 -0.021144 0.012844 0.010713 0.004889 -0.005352 -0.002513 0.005974 -0.012384 -0.006388 0.021614 0.005719 0.006518 0.021306 -0.003034 -0.000283 0.026231 -0.013188 0.003101 0.004347 0.004895 -0.003917 0.005196 -0.006802
media 0.002229 -0.024231 -0.014607 0.000697 0.003019 -0.012273 -0.010798 -0.011325 0.005757 -0.007719 0.025063 0.010888 0.010155 0.010330 0.000060 0.002441 -0.005311 -0.007939 -0.014626 0.000743 -0.009500 0.002872 -0.015719 0.021122 0.004115 -0.013448 0.013801 0.001591 -0.010442 0.000443 -0.006610 -0.021712 0.002184 0.010656 -0.009599 -0.023959 0.003886 -0.001264 0.012874 -0.007004 0.001691 0.007016 -0.016874 0.024193 0.005496 -0.017489 0.006008 0.014613 -0.010946 -0.021680 -0.004430 0.027139 -0.000732 -0.018228 0.002786 -0.013673 0.008841 -0.005002 -0.006044 0.003486 -0.005562 -0.002740 -0.020120 0.001483 0.002078 0.008364 0.008523 -0.008104 -0.005424 0.010377 0.009310 -0.002293 -0.011317 0.007151 0.020693 -0.001379 -0.009931 -0.004229 0.015421 0.026841 0.006848 -0.006062 0.017371 0.006642 -0.014696 0.000495 0.011489 0.006319 0.011125 0.008922 -0.008561 0.004109 0.015887 0.003389 -0.015912 0.003313 -0.005968 -0.008037 -0.006455 -0.008750
home 0.003126 -0.031185 -0.016543 0.005599 -0.001662 0.004054 -0.006259 -0.009601 -0.006423 -0.006494 0.022135 0.007179 0.003412 0.009585 0.012317 0.010847 0.002017 -0.026107 -0.024139 0.002332 -0.014612 -0.021230 -0.034273 0.031640 0.001314 -0.035539 0.020027 0.010952 -0.006183 0.000018 -0.014722 -0.011246 0.016461 -0.001392 -0.009849 -0.025154 0.012534 0.006392 0.018557 -0.011403 0.000083 0.016785 -0.021127 0.026334 0.020134 -0.029231 0.017095 0.010110 -0.003832 -0.029732 -0.002189 0.022995 -0.008880 -0.013369 0.005913 -0.013689 0.015307 -0.012669 -0.001433 0.005903 0.002534 0.008270 -0.025543 -0.010122 -0.004111 0.008129 0.008817 -0.004681 0.005466 0.022043 0.012806 -0.003039 -0.023989 0.013126 0.017037 -0.000645 -0.020634 -0.027013 0.022207 0.027464 0.006541 0.002581 0.003132 0.011949 -0.021338 -0.013058 0.020377 0.006809 0.010675 0.019284 -0.003191 0.001909 0.021819 -0.010354 -0.006647 0.005521 0.001331 -0.009075 0.002128 -0.021463
hour -0.003413 0.023859 0.000875 -0.007828 0.002526 -0.008050 -0.001878 0.003405 0.008378 0.001998 -0.008887 -0.008682 -0.000038 -0.008664 -0.003099 -0.006611 -0.003463 0.009256 0.012721 -0.003334 0.010124 0.011529 0.017617 -0.011560 -0.001275 0.014632 -0.008965 -0.004457 0.004789 0.001973 0.003635 0.003832 -0.006320 0.000538 0.006006 0.013654 -0.003196 -0.006079 -0.006770 0.011277 -0.001552 -0.007661 0.012663 -0.018321 -0.012152 0.008041 -0.002563 -0.000292 0.008129 0.018891 -0.003497 -0.013717 0.006260 0.000703 -0.003497 0.003092 -0.005091 0.009259 0.001848 -0.002860 0.001439 -0.009678 0.011451 0.006289 0.001272 -0.008921 -0.000085 0.002679 -0.000477 -0.014902 -0.009401 0.000604 0.008963 -0.006548 -0.008327 0.001133 0.012982 0.016998 -0.011010 -0.017939 -0.006108 0.002567 -0.003387 0.000178 0.005699 0.012180 -0.011599 -0.000897 -0.006303 -0.015966 0.000058 0.002585 -0.017705 0.006876 -0.002208 0.001222 0.001554 0.000414 0.003167 0.004147
wd 0.009321 -0.009718 -0.019746 0.007453 0.000249 -0.003262 -0.002097 -0.006052 -0.004675 -0.007689 0.023772 0.017941 0.006537 0.006135 -0.004997 -0.003657 -0.003286 -0.017878 -0.017059 -0.002171 -0.000294 0.004103 -0.018681 0.015703 -0.002824 -0.016459 0.008451 0.006631 -0.003089 -0.003100 -0.013519 -0.020392 0.012228 0.008863 -0.005412 -0.013205 0.007814 0.004167 0.014859 -0.013809 0.003053 0.005599 -0.021201 0.011357 0.002537 -0.016852 0.008432 0.002311 -0.015421 -0.019952 -0.000067 0.021667 -0.005388 -0.017231 0.004861 -0.006182 0.009956 -0.007242 -0.002784 -0.006356 -0.009747 0.000293 -0.017785 -0.012073 0.000543 0.007303 0.010646 0.001339 -0.003437 0.007948 0.002901 0.001318 -0.003196 0.002387 0.018807 0.001686 -0.000898 0.003532 0.010704 0.014968 0.011525 -0.000344 0.011779 0.015964 -0.011660 -0.004629 0.009601 0.004798 0.007866 0.008016 -0.012229 0.005706 0.011870 0.006753 -0.008885 -0.002504 0.000059 -0.008041 0.003988 -0.007559
image 0.005318 -0.037644 -0.011672 0.008461 0.002149 0.011870 -0.005725 -0.009396 -0.012810 -0.011597 0.034086 0.004716 0.008320 0.013917 0.004914 0.004173 0.005845 -0.028958 -0.020903 -0.001726 -0.017171 -0.023289 -0.035807 0.030413 -0.005430 -0.047713 0.017192 0.016017 0.005963 -0.002170 -0.018920 -0.013099 0.026777 -0.006674 -0.014761 -0.026424 0.014486 0.008440 0.014475 -0.015705 0.003329 0.023088 -0.030227 0.025963 0.021857 -0.032395 0.022433 0.003679 -0.014852 -0.026190 -0.002639 0.029992 -0.019116 -0.010367 -0.001495 -0.008626 0.025432 -0.024952 -0.004900 0.007949 0.012193 0.015244 -0.037939 -0.012907 -0.008629 0.012006 0.011369 -0.006425 0.000797 0.034943 0.008269 -0.013720 -0.021763 0.026186 0.021536 0.005864 -0.022349 -0.024937 0.017372 0.023871 0.005272 -0.004463 -0.005876 0.009285 -0.026448 -0.019214 0.027250 0.010378 0.011599 0.032290 -0.003324 0.006800 0.034405 -0.011590 0.004970 0.003281 0.008892 -0.014298 0.000365 -0.021513
button 0.004913 -0.031142 -0.017542 0.013129 0.004677 0.001175 0.003162 -0.011577 -0.006580 -0.017015 0.015850 0.003670 0.007458 0.006051 0.005617 0.012083 0.001557 -0.017292 -0.022272 0.001296 -0.005914 -0.019453 -0.030249 0.033136 -0.004204 -0.028987 0.010480 0.006215 0.000867 -0.002550 -0.017655 -0.012096 0.017893 -0.000552 -0.014556 -0.028878 0.016773 0.009288 0.009689 -0.005669 0.007452 0.005970 -0.009732 0.025949 0.016042 -0.027185 0.016422 0.008008 -0.007253 -0.029179 0.000387 0.019342 -0.012907 -0.014281 0.004028 -0.006453 0.008822 -0.012932 -0.005086 0.011474 0.001827 0.003509 -0.023045 -0.011035 -0.003433 0.012223 0.005018 -0.005820 0.003290 0.027426 0.007835 -0.003408 -0.014179 0.017950 0.019976 -0.004976 -0.022878 -0.024656 0.015666 0.025933 0.002000 0.000629 0.002032 0.008294 -0.023484 -0.016852 0.026621 0.008816 0.016818 0.011586 -0.000084 0.003002 0.020382 -0.006639 -0.001899 -0.003564 0.002841 -0.008849 0.001301 -0.012381
clear 0.010457 -0.054413 -0.017710 0.010699 -0.004351 0.016636 -0.004700 -0.010711 -0.009793 -0.012742 0.037004 0.010887 0.002125 0.017899 0.004477 0.007593 -0.010056 -0.027996 -0.025113 0.000738 -0.018125 -0.035287 -0.047452 0.034466 -0.001110 -0.061226 0.013812 0.022294 0.001650 -0.003628 -0.029536 -0.015212 0.033145 -0.007751 -0.025757 -0.043163 0.008714 0.011630 0.012899 -0.021862 0.007472 0.019202 -0.023550 0.029608 0.030881 -0.033660 0.014630 0.006890 -0.001695 -0.039689 0.001361 0.026935 -0.027689 -0.007833 -0.003324 -0.015115 0.021132 -0.031024 -0.016542 0.012947 0.013271 0.012366 -0.042894 -0.015123 -0.009156 0.006931 0.013269 -0.002655 0.005220 0.032300 0.008391 -0.018852 -0.031532 0.026611 0.021307 0.001876 -0.021199 -0.034110 0.030938 0.021584 0.019012 -0.005054 -0.012814 0.005932 -0.025294 -0.023440 0.035071 0.008382 0.011824 0.040477 -0.000897 -0.000634 0.037549 -0.020935 0.001206 0.006908 0.008833 -0.010740 0.008961 -0.023785
hdmus 0.022616 -0.050616 -0.029351 0.014125 0.000850 -0.003123 -0.000934 -0.010071 -0.005824 -0.017843 0.034134 0.019308 0.010426 0.002407 0.016109 0.009773 0.002191 -0.044331 -0.027748 0.001851 -0.021064 -0.020789 -0.051311 0.043750 -0.007045 -0.058874 0.026812 0.009714 -0.009686 0.000081 -0.024950 -0.031669 0.023767 0.001747 -0.010090 -0.048586 0.012610 -0.002034 0.024376 -0.011807 0.000935 0.015318 -0.041091 0.044573 0.023947 -0.031589 0.026700 0.018154 -0.016608 -0.037467 -0.000114 0.038396 -0.011028 -0.025688 -0.001066 -0.011725 0.023939 -0.019539 0.004183 0.011755 -0.001204 0.012293 -0.030945 -0.021498 0.000191 0.010943 0.017542 -0.010091 0.008965 0.030167 0.017507 0.001005 -0.022804 0.025962 0.030456 0.009101 -0.013292 -0.038118 0.034142 0.040412 0.013510 -0.007680 0.003863 0.018915 -0.027023 -0.021146 0.030543 -0.001222 0.012605 0.030359 -0.008202 0.006271 0.031486 -0.012798 -0.015797 0.007593 -0.002165 -0.019410 0.001260 -0.030686
company 0.007859 -0.003883 -0.011135 0.001627 0.002536 -0.002902 0.006000 0.001394 0.004227 0.001662 0.003400 0.004335 -0.002576 -0.003955 -0.000197 -0.004461 -0.002442 -0.006446 0.000764 0.000616 0.001178 0.007547 -0.002838 0.001963 -0.007499 -0.002670 -0.003830 0.004101 -0.002916 -0.001635 -0.002552 -0.007848 0.000610 0.002775 0.003159 -0.002081 0.002963 0.001178 0.000442 0.002868 -0.007257 -0.003840 -0.007618 0.006217 -0.001636 0.000758 0.007059 0.009112 -0.007706 -0.006114 -0.000993 -0.000474 0.005351 0.001295 0.003628 0.003657 -0.000859 0.001057 0.007186 0.004574 -0.011503 -0.004218 0.001314 -0.003710 0.002209 0.002343 -0.003439 -0.003271 -0.000762 0.001833 -0.002532 0.007823 -0.001697 -0.006873 0.005355 -0.001967 0.002138 0.005479 0.010238 0.006289 0.004381 -0.000916 -0.000072 0.002923 -0.007115 -0.006231 -0.008307 -0.004653 0.001155 0.001278 -0.004121 0.006104 -0.003222 0.003578 -0.009641 -0.003215 0.000928 -0.000166 -0.003737 -0.006985
option 0.000655 -0.032456 -0.007991 0.005652 0.004975 0.003361 -0.005193 -0.002904 -0.012425 -0.006898 0.025132 0.007981 0.009956 0.007476 0.008133 0.013508 -0.001630 -0.018376 -0.019630 0.002974 -0.009993 -0.018577 -0.025358 0.021521 -0.003834 -0.036837 0.014025 0.011125 0.004577 0.002688 -0.012591 -0.014171 0.022028 -0.001985 -0.010519 -0.026044 0.010537 0.008485 0.016302 -0.011007 0.007655 0.016756 -0.016168 0.019577 0.009543 -0.025468 0.015216 0.002391 -0.008654 -0.022356 -0.000270 0.019267 -0.012996 -0.008053 0.005643 -0.008736 0.018264 -0.013731 -0.011539 0.011447 0.003640 0.008900 -0.025480 -0.005649 -0.002187 0.009633 0.007051 -0.004705 0.005635 0.025678 0.008854 -0.011215 -0.020901 0.015597 0.018713 -0.001491 -0.011522 -0.022185 0.021628 0.024098 0.011875 0.001981 -0.001215 0.003362 -0.012769 -0.009056 0.022150 0.009857 0.013069 0.026430 -0.000604 0.001788 0.024374 -0.008490 -0.006596 0.007087 0.002496 -0.006177 0.001023 -0.009081
size 0.004441 -0.030515 -0.004258 -0.001098 0.001839 0.013969 -0.006579 -0.006425 -0.011976 -0.011297 0.020922 0.000634 0.003146 0.010286 0.005570 0.009248 0.001364 -0.018194 -0.016907 0.002062 -0.013971 -0.022258 -0.030887 0.020374 -0.001198 -0.035070 0.006210 0.011536 0.003047 0.001782 -0.013371 -0.006436 0.025904 -0.004451 -0.008911 -0.021307 0.004161 0.003134 0.015358 -0.018361 -0.001159 0.019095 -0.013093 0.014797 0.016045 -0.015870 0.012093 0.000658 -0.004298 -0.015100 -0.003157 0.017809 -0.020705 -0.003165 -0.002688 -0.012166 0.020527 -0.023105 -0.010408 0.006599 0.013794 0.012017 -0.025779 -0.006435 -0.010404 -0.000192 0.002008 -0.004471 0.005271 0.016764 0.006699 -0.014071 -0.019951 0.020059 0.010264 0.000404 -0.017315 -0.024715 0.012751 0.009795 0.010820 -0.004577 -0.006116 0.009496 -0.014457 -0.017390 0.022970 0.003861 0.004380 0.026841 -0.005999 -0.005561 0.021822 -0.011879 0.008512 0.001636 0.004205 -0.006379 0.004222 -0.011431
black 0.005587 0.017523 0.003783 -0.002230 0.001872 -0.005646 0.000980 0.004041 0.006018 0.000527 -0.003951 -0.000403 -0.004509 -0.000138 -0.007773 -0.003184 -0.002695 0.005183 0.002989 -0.000680 0.010228 -0.000551 0.012447 -0.015088 0.001335 0.020141 -0.008093 -0.000213 0.001196 0.006314 0.007687 0.005694 -0.006185 0.000967 0.005225 0.015226 -0.007361 -0.001752 -0.010614 0.007068 -0.003203 -0.011949 0.000324 -0.007760 -0.005461 0.006318 -0.001467 0.000781 -0.005592 0.014051 -0.002286 -0.002951 -0.001105 0.003346 -0.000539 0.004793 -0.000672 0.004938 0.004582 0.000776 0.000468 0.003735 0.007282 -0.003424 -0.003657 -0.009605 0.000589 0.010460 -0.005818 -0.010580 -0.004673 0.005065 0.004982 -0.009248 -0.011641 -0.008966 0.008377 0.012421 -0.006005 -0.011259 -0.007156 0.000884 -0.001612 -0.007219 0.003063 -0.001692 -0.012572 -0.004996 -0.005323 -0.010655 0.005698 0.000795 -0.006665 0.003267 0.005746 -0.006810 -0.002647 0.002231 0.001685 0.008367
customer -0.004080 -0.014348 -0.011829 0.009153 0.000908 0.002835 -0.010959 -0.005254 -0.016453 -0.014283 0.020368 0.001863 0.005360 0.009908 0.003375 0.008958 0.003439 -0.023161 -0.023780 -0.003071 0.000023 -0.016197 -0.018594 0.012821 -0.008777 -0.036683 0.006487 0.009589 0.005069 0.002771 -0.013070 -0.004139 0.015547 -0.002739 -0.006141 -0.017150 0.015758 0.009807 0.018389 -0.011208 -0.000146 0.006615 -0.020592 0.008936 0.004051 -0.012620 0.015957 -0.001227 -0.006755 -0.010968 -0.006900 0.014604 -0.006146 -0.012982 0.007320 -0.013849 0.011295 -0.022068 -0.004180 0.010557 0.006878 0.011479 -0.020549 -0.007268 0.001118 0.006069 0.002516 -0.004342 -0.004944 0.009933 0.005480 -0.010097 -0.012314 0.012269 0.003561 0.008256 -0.004277 -0.014415 0.012479 0.018241 -0.001377 0.005295 0.000439 0.003460 -0.013706 -0.015628 0.010282 0.006574 0.009009 0.014149 -0.004873 0.000083 0.017164 -0.006333 0.008256 -0.004104 0.003000 0.003863 -0.001562 -0.017401
samsung -0.005622 -0.016921 -0.005132 0.008535 -0.001805 0.006042 -0.005587 -0.007153 -0.005236 -0.002312 0.012131 0.002951 -0.001142 0.009800 0.010175 0.006377 0.001075 -0.012048 -0.007963 -0.000421 -0.005027 -0.008946 -0.013690 0.007579 -0.000282 -0.025103 0.009729 0.007345 0.001374 0.004491 -0.003009 -0.002808 0.013137 -0.000846 -0.006485 -0.011882 0.005513 0.002859 0.003029 -0.010993 0.002613 0.011425 -0.013990 0.013654 0.013184 -0.011761 0.005643 0.004489 -0.006689 -0.014285 -0.004909 0.005575 -0.010979 -0.000075 0.006178 -0.009491 0.015805 -0.009199 -0.005476 0.005275 0.003872 0.009902 -0.017446 -0.008898 -0.006148 0.003496 0.002311 0.000710 0.000769 0.006789 0.007288 -0.009539 -0.014839 0.016551 0.006843 0.003012 -0.012112 -0.017317 0.001798 0.012091 0.005495 -0.001358 0.000763 0.003668 -0.005766 -0.012980 0.012977 -0.002202 0.007820 0.010304 0.000489 -0.002686 0.017939 -0.011731 0.003501 -0.002979 -0.001153 0.003216 0.000234 -0.009544
radio 0.003111 -0.040710 -0.010624 0.007351 0.000341 0.008249 0.000610 -0.011147 -0.011754 -0.009081 0.031601 0.008292 0.008173 0.014037 0.007525 0.010904 -0.002292 -0.029382 -0.021274 -0.005043 -0.016498 -0.021172 -0.037818 0.024360 0.001072 -0.046576 0.017762 0.017405 0.004090 -0.004339 -0.022147 -0.009745 0.027293 -0.005065 -0.016788 -0.038171 0.016808 0.008242 0.015876 -0.019038 0.006415 0.016502 -0.015992 0.020442 0.018090 -0.025014 0.014128 0.005724 -0.004835 -0.029458 -0.002688 0.018604 -0.022496 -0.010116 0.002500 -0.016506 0.021333 -0.024518 -0.012740 0.010560 0.007326 0.012679 -0.029561 -0.008903 -0.012250 0.012096 0.006537 -0.007794 0.003659 0.026720 0.012223 -0.013693 -0.026588 0.018986 0.019231 0.009386 -0.020766 -0.037243 0.022168 0.027690 0.012550 0.006097 -0.005677 0.006520 -0.021488 -0.012638 0.034073 0.003413 0.008753 0.032200 -0.006804 0.001592 0.031872 -0.021663 0.003104 0.011881 0.005272 -0.001660 0.006659 -0.014433
setting 0.004874 -0.022653 -0.005627 0.005105 0.003873 0.004785 -0.004064 -0.001436 -0.008802 -0.006811 0.016626 0.002747 0.000015 0.003283 0.007415 0.005863 -0.001140 -0.009744 -0.014141 -0.001812 -0.013859 -0.015606 -0.018364 0.011994 -0.002317 -0.028261 0.003338 0.004460 -0.001271 0.000966 -0.007700 -0.004955 0.016386 0.001319 -0.005199 -0.018119 0.009011 0.006421 0.010330 -0.010049 0.003754 0.012637 -0.015246 0.012855 0.014265 -0.019686 0.008599 0.000360 -0.000192 -0.017784 0.002558 0.016814 -0.016265 -0.005491 0.000074 -0.008789 0.009111 -0.011345 -0.000787 0.010222 0.003825 0.005178 -0.017100 -0.010970 -0.010405 0.004657 0.001239 0.000058 -0.000804 0.012637 0.006746 -0.008096 -0.011270 0.016963 0.005884 0.005786 -0.010707 -0.020006 0.011327 0.014093 0.003077 0.003548 -0.005597 0.007727 -0.011203 -0.012480 0.014435 0.007257 0.009154 0.015573 -0.005168 0.003057 0.013987 -0.009513 0.005446 0.005261 0.006973 -0.001669 0.007042 -0.010746
side -0.005290 0.006979 0.010268 -0.003037 -0.005460 -0.004381 -0.001760 -0.000974 -0.004500 0.002552 -0.003089 -0.001412 0.001908 -0.000423 0.005168 -0.005373 0.003638 0.006908 0.000052 0.005798 0.008129 -0.004336 0.002541 -0.009475 -0.000424 0.000519 -0.007207 -0.002878 0.006675 -0.004808 0.004926 0.009602 0.006665 0.003166 0.005161 0.001099 -0.005263 0.001777 -0.000829 -0.002144 -0.002532 -0.002427 0.007170 -0.007466 0.004627 -0.000110 0.000315 -0.006389 0.001565 0.003362 -0.002765 -0.000036 0.004467 -0.001111 -0.005517 0.002018 -0.004956 -0.002143 0.003083 0.006298 0.007414 0.004178 0.004587 0.000263 -0.001995 -0.003509 0.001338 0.000751 0.002588 -0.006677 0.002592 -0.000337 0.007159 -0.002040 -0.009433 -0.004129 -0.000076 -0.005155 -0.006341 -0.003780 0.001998 0.001647 -0.006516 -0.000612 0.007148 -0.000116 0.000647 -0.002990 0.003450 0.000582 -0.002037 -0.006946 0.002443 0.004161 0.001378 0.005242 -0.000944 0.004245 0.001557 0.003606
area 0.009077 -0.022086 -0.007012 -0.000316 -0.002141 0.006377 -0.003353 -0.011562 -0.006650 -0.003733 0.011167 0.006363 -0.000897 0.003086 0.000303 -0.000017 0.001626 -0.018584 -0.006686 0.000389 -0.014717 -0.017873 -0.024541 0.016070 0.002485 -0.023161 0.007851 0.008586 0.003707 0.002757 -0.009601 -0.003168 0.008138 -0.005909 -0.010699 -0.017411 0.001384 0.001822 0.005988 -0.011812 -0.000539 0.012415 -0.007295 0.011564 0.009293 -0.010834 0.007315 0.000912 -0.004761 -0.015584 0.003414 0.008892 -0.016085 0.000781 -0.002672 -0.004227 0.004191 -0.009834 0.004369 0.002932 0.001458 0.007419 -0.016411 -0.006819 -0.004429 -0.001171 -0.000287 -0.002914 -0.000099 0.015661 0.006831 -0.006752 -0.015177 0.010899 0.015036 0.004477 -0.007633 -0.013333 0.012623 0.004974 0.003424 0.002179 -0.012059 0.000734 -0.016520 -0.005001 0.012841 0.002217 0.002317 0.014532 -0.006210 -0.000483 0.016999 -0.004640 -0.001162 0.003206 0.001102 -0.005708 0.005111 -0.008046
internet 0.005500 -0.035523 -0.012158 0.007654 -0.003442 0.014103 -0.007310 -0.005776 -0.007188 -0.005395 0.021468 0.007220 0.003228 0.009920 0.008658 0.002912 -0.001406 -0.021271 -0.022029 0.002561 -0.010733 -0.018732 -0.033477 0.024115 -0.000009 -0.042422 0.017380 0.013710 -0.004234 0.004109 -0.014749 -0.010534 0.015916 -0.003182 -0.010011 -0.027567 0.014239 0.003711 0.012408 -0.011007 0.006340 0.013756 -0.014228 0.024032 0.018588 -0.026012 0.013717 0.008523 -0.007927 -0.028689 -0.004272 0.023245 -0.019060 -0.007564 0.001917 -0.009743 0.010895 -0.016282 -0.005342 0.010799 0.005288 0.011156 -0.029176 -0.014586 -0.005737 0.005182 0.006352 -0.009480 0.004699 0.024762 0.002503 -0.015481 -0.021509 0.018097 0.016638 0.000858 -0.013235 -0.027027 0.021886 0.023182 0.010136 0.002916 -0.008330 0.013467 -0.020564 -0.008853 0.023592 0.000860 0.011680 0.024813 -0.008536 0.003864 0.028770 -0.011874 -0.004242 0.001029 0.009103 -0.001933 0.001194 -0.012020
hard 0.005588 -0.050482 -0.021495 0.011589 -0.003195 0.012394 0.001528 -0.016803 -0.009049 -0.019276 0.041290 0.020098 0.015421 0.015676 0.009949 0.011226 -0.002870 -0.030653 -0.031202 -0.005295 -0.018096 -0.029099 -0.052621 0.040635 0.001405 -0.066769 0.019256 0.018078 0.001072 0.000215 -0.023280 -0.021104 0.025108 -0.003058 -0.015484 -0.046895 0.009924 0.000341 0.024065 -0.012717 0.000098 0.028409 -0.025786 0.038293 0.021944 -0.030437 0.013674 0.007670 -0.012365 -0.043174 -0.009332 0.033099 -0.021722 -0.023194 0.003808 -0.018559 0.022205 -0.027497 -0.005660 0.016005 0.012313 0.012665 -0.040570 -0.012361 -0.010856 0.012560 0.006948 -0.005468 0.010779 0.033335 0.008790 -0.012111 -0.023091 0.029394 0.033923 0.003518 -0.030513 -0.044573 0.028359 0.037516 0.011491 0.000362 -0.007859 0.021301 -0.023851 -0.025214 0.034882 0.006954 0.010527 0.041558 -0.009024 0.004749 0.039727 -0.012920 -0.005728 0.008794 0.003674 -0.008051 0.012330 -0.025425
connection 0.012868 -0.012926 -0.006286 0.004921 0.000940 0.006379 0.004231 -0.003877 -0.002104 -0.006534 0.014328 0.008487 -0.000654 -0.002876 -0.002584 -0.000860 -0.000296 -0.014818 -0.011990 -0.000667 -0.008464 -0.014216 -0.020578 0.018696 0.001221 -0.028146 0.005064 0.003849 0.001973 -0.003794 -0.012706 -0.008658 0.005288 0.002048 -0.008934 -0.015316 0.008673 -0.000723 0.010304 -0.002516 0.003615 0.003869 -0.009963 0.018821 0.006161 -0.017751 0.010510 0.004412 -0.000296 -0.016237 -0.003891 0.010156 -0.006834 -0.003202 -0.000079 -0.008789 0.004510 -0.003740 0.001968 0.011023 0.000724 0.004105 -0.007872 -0.006682 -0.004067 0.002040 0.002920 -0.007600 0.005344 0.017962 -0.002336 -0.001789 -0.006519 0.011440 0.012084 0.005652 -0.011993 -0.016385 0.018988 0.005624 0.001887 -0.001931 -0.000488 0.004231 -0.006575 -0.008000 0.013702 0.003891 0.007398 0.014816 0.001979 -0.003001 0.013782 -0.002325 -0.008872 0.002267 0.008421 -0.001513 0.005389 -0.012457
monitor -0.001389 -0.020128 -0.004885 0.003223 0.001416 -0.002652 0.002022 0.000577 -0.009198 -0.008983 0.010187 0.009151 -0.000485 0.001705 0.007049 0.006984 -0.004255 -0.012705 -0.010397 0.001319 -0.006027 -0.011566 -0.015829 0.012901 -0.000985 -0.015727 0.006747 0.010274 0.000276 -0.002976 -0.008888 -0.008391 0.010500 0.001749 -0.005235 -0.016201 0.006405 -0.004072 0.004153 -0.002948 0.002627 0.004036 -0.006345 0.011191 0.012171 -0.008446 0.008277 0.003133 -0.004869 -0.015383 0.001453 0.005696 -0.007440 -0.003865 0.002039 -0.006886 0.014090 -0.004149 -0.006670 0.000292 0.005838 0.001003 -0.014116 -0.005207 -0.005518 0.002663 0.005868 0.000024 -0.000182 0.005843 0.004722 -0.000619 -0.012867 0.011063 0.011338 0.004032 -0.013686 -0.018296 0.011588 0.009684 0.003504 0.005000 0.003561 -0.001980 -0.010715 -0.006290 0.016344 0.002812 0.006372 0.008481 -0.000299 0.001718 0.015562 -0.003260 -0.000470 0.004631 -0.002487 -0.007643 0.000749 -0.003257
network 0.010109 -0.023286 -0.014747 0.004414 0.001806 0.002868 -0.001740 -0.009137 -0.009026 -0.011471 0.020406 0.007358 0.006789 0.005902 0.002678 0.007161 0.000486 -0.025549 -0.017695 -0.000800 -0.012741 -0.012161 -0.032275 0.024962 -0.002481 -0.037012 0.013318 0.005292 -0.002437 0.004755 -0.015239 -0.017486 0.010091 -0.001646 -0.006595 -0.021593 0.008333 0.003769 0.015301 -0.012677 0.002267 0.016132 -0.013988 0.022603 0.010327 -0.021281 0.010656 0.006905 -0.005944 -0.017284 0.000192 0.025241 -0.012882 -0.015628 0.007756 -0.008633 0.014676 -0.019340 -0.002348 0.011852 0.004069 0.005704 -0.023551 -0.009191 -0.007511 0.000646 0.010372 -0.006205 0.002615 0.014529 0.008363 -0.001944 -0.016708 0.015263 0.014763 0.004972 -0.011520 -0.018321 0.018761 0.025765 0.011321 -0.004683 0.000514 0.007452 -0.016285 -0.012700 0.022313 0.001863 0.009227 0.017251 -0.000372 0.001349 0.019471 -0.010126 -0.006859 0.000187 0.005130 -0.003280 0.001296 -0.016352
support -0.002288 0.016802 0.001984 0.001655 0.003611 -0.006757 -0.002733 0.005100 0.002812 0.000681 -0.010739 -0.003076 -0.000316 -0.004280 -0.006316 0.000876 0.000739 0.005824 0.005918 -0.003478 0.008803 0.001386 0.015831 -0.008931 -0.004263 0.014302 -0.000654 -0.006508 0.001891 0.002357 0.005199 0.010648 -0.005041 -0.005384 0.008472 0.013935 -0.003145 -0.003713 -0.003730 0.011061 -0.005039 -0.008313 0.003249 -0.008772 -0.011459 0.005402 0.000562 -0.004511 0.005511 0.003858 -0.002532 -0.006933 0.003407 0.006463 0.003732 0.007797 -0.008024 0.005278 -0.001816 0.000972 -0.002977 -0.006730 0.013309 0.004746 0.008265 0.000741 -0.001755 0.003696 -0.007896 -0.003362 -0.003404 0.003526 0.008337 -0.011115 -0.004625 -0.006996 0.006771 0.012415 -0.007446 -0.006223 -0.009398 0.004743 -0.000829 -0.004169 0.001459 0.003062 -0.009739 0.000358 -0.004299 -0.013072 0.000416 0.000502 -0.012728 0.008186 -0.004846 -0.006686 0.001882 -0.001681 -0.007077 0.001043
lamp -0.002960 0.017983 0.006963 -0.001100 0.005483 0.005817 0.000776 0.003214 0.003541 0.006316 -0.012435 -0.009641 -0.010970 -0.005860 -0.003132 -0.008785 0.005364 0.014921 0.007350 0.003808 0.007338 0.005861 0.010629 -0.023526 0.000678 0.017414 -0.006035 -0.005517 0.002795 0.000791 0.008785 0.013541 0.000141 0.000892 0.002486 0.012655 -0.008037 -0.007206 -0.007869 0.008697 0.003941 -0.002688 0.012353 -0.018405 -0.004881 0.014095 -0.007337 -0.007160 0.000302 0.015114 0.004789 -0.016550 0.000793 0.005009 0.004013 0.002352 -0.007473 0.006507 0.000929 -0.008061 0.003832 0.001444 0.011429 0.007887 -0.003561 -0.008017 -0.003377 0.010649 0.004493 -0.017563 -0.011900 0.005585 0.008304 -0.007100 -0.014529 -0.000944 0.004775 0.014405 -0.017917 -0.021885 -0.006760 -0.002047 -0.009208 -0.000299 0.014724 0.000741 -0.006126 -0.005059 -0.007651 -0.006037 0.007066 -0.004352 -0.012665 0.003138 0.005805 0.000333 0.000105 0.004633 0.004901 0.004856
inch 0.000017 -0.003045 0.003943 -0.004199 0.004419 0.000185 -0.005749 0.005759 -0.005668 0.003994 0.001690 -0.006135 0.002384 0.007792 0.004361 0.003463 0.007756 -0.000154 0.006056 -0.000921 -0.003058 -0.002787 0.000733 -0.008790 0.000386 0.004279 0.001713 -0.000516 0.007501 0.000986 0.001330 0.004934 -0.001551 -0.003692 -0.003511 -0.002585 -0.004148 -0.005296 -0.000167 0.004061 0.002384 -0.003246 0.003789 -0.005265 0.001199 0.005610 -0.007787 -0.005011 -0.001758 0.003367 0.003841 -0.007710 -0.004542 0.004119 -0.003296 -0.002963 -0.001912 0.001182 0.002290 -0.004199 0.010388 -0.001341 0.001330 -0.001064 -0.002154 0.000774 -0.002599 0.002025 0.001511 -0.005514 -0.003240 -0.007987 0.001564 0.001982 -0.004722 0.001815 0.002700 -0.006090 -0.011899 -0.004455 -0.002514 0.005467 -0.000219 -0.001928 0.005766 -0.003532 0.004551 0.002831 -0.000064 0.000765 -0.003065 0.003259 0.000875 -0.005594 0.008914 0.003705 0.000931 0.008448 -0.002418 0.003170
software 0.008002 -0.066989 -0.016938 0.008776 -0.002588 0.006092 0.001054 -0.012691 -0.015448 -0.014126 0.045815 0.019000 0.018169 0.011962 0.014806 0.022803 -0.005145 -0.039939 -0.027651 -0.000403 -0.031015 -0.029350 -0.057067 0.043381 -0.004308 -0.069446 0.031403 0.021307 -0.008689 -0.001447 -0.029947 -0.026607 0.031495 0.001896 -0.024277 -0.055410 0.018194 0.008027 0.022766 -0.016017 0.007689 0.024015 -0.033374 0.042603 0.025313 -0.045010 0.017660 0.008990 -0.007987 -0.049346 -0.000464 0.041250 -0.028807 -0.024947 0.000950 -0.016222 0.029734 -0.027420 -0.008662 0.020025 0.009244 0.012676 -0.043704 -0.016329 -0.008847 0.011268 0.016993 -0.009939 0.010684 0.038090 0.019401 -0.009658 -0.032129 0.033007 0.031330 0.005935 -0.025650 -0.051708 0.040180 0.039895 0.018756 0.001213 -0.002970 0.019413 -0.024654 -0.023079 0.040512 0.006626 0.023264 0.039019 -0.004738 -0.003449 0.046393 -0.024163 -0.003562 0.009200 0.009579 -0.011062 0.004771 -0.021641
setup 0.010755 -0.047019 -0.017941 0.010534 0.003174 0.014069 0.000190 -0.014991 -0.007071 -0.011477 0.035115 0.014872 0.006170 0.010383 0.011072 0.015796 -0.005019 -0.032637 -0.021159 0.003452 -0.024087 -0.032154 -0.049197 0.037568 -0.000769 -0.054874 0.014721 0.016298 0.000282 -0.000710 -0.017631 -0.015962 0.027028 -0.003064 -0.016888 -0.038949 0.015747 0.012085 0.023113 -0.017857 -0.001452 0.020195 -0.027226 0.030672 0.025571 -0.036603 0.014428 0.010555 -0.009195 -0.037961 0.003243 0.032017 -0.025567 -0.013769 -0.000029 -0.017192 0.025169 -0.021967 -0.009915 0.013840 0.011815 0.009017 -0.036070 -0.011568 -0.004357 0.003342 0.011031 -0.008306 0.007504 0.039973 0.007864 -0.016782 -0.023153 0.027193 0.029607 0.007161 -0.020447 -0.035874 0.027865 0.034214 0.014478 -0.005586 -0.001788 0.010554 -0.026077 -0.020220 0.032293 0.011550 0.010469 0.037317 -0.009656 -0.000861 0.034973 -0.015528 -0.000294 0.006464 -0.000563 -0.009228 0.005661 -0.022576
tuner 0.009563 -0.056510 -0.022897 0.015401 0.003547 0.017011 -0.000158 -0.010565 -0.019164 -0.021589 0.044848 0.014863 0.006007 0.011611 0.008843 0.012328 -0.001406 -0.044371 -0.037354 -0.002571 -0.026022 -0.031356 -0.052237 0.051370 -0.004276 -0.076211 0.029112 0.023418 -0.002178 0.003581 -0.025375 -0.027933 0.031075 0.000271 -0.024081 -0.052113 0.017344 0.003004 0.025153 -0.018959 -0.000056 0.030679 -0.032702 0.040083 0.024983 -0.045765 0.028955 0.010209 -0.013977 -0.038811 -0.001333 0.039118 -0.026636 -0.023427 0.002809 -0.020849 0.025681 -0.029835 -0.007424 0.016561 0.008561 0.012754 -0.043945 -0.013221 -0.008165 0.007476 0.015883 -0.014362 0.004450 0.038849 0.018150 -0.019597 -0.028565 0.035926 0.036979 0.012655 -0.033539 -0.042233 0.033062 0.039841 0.013270 0.000772 -0.004778 0.018148 -0.028003 -0.029648 0.036503 0.014221 0.013517 0.045073 -0.010581 -0.001821 0.043944 -0.019774 -0.003959 0.006550 0.004073 -0.016854 0.002052 -0.026177
minute 0.003458 -0.027858 -0.015874 0.003936 -0.001446 0.009011 0.003393 -0.009636 -0.004412 -0.011934 0.016940 0.007420 0.007707 0.004443 0.007128 0.004815 -0.006814 -0.020032 -0.021594 -0.000107 -0.010170 -0.011442 -0.026545 0.024964 -0.006540 -0.035106 0.007966 0.012340 -0.000557 -0.002776 -0.011762 -0.015357 0.016409 0.001654 -0.015068 -0.023541 0.004946 0.006038 0.010179 -0.008301 -0.003291 0.018314 -0.015795 0.025047 0.012479 -0.023517 0.015763 0.010017 -0.006685 -0.017897 0.000033 0.014711 -0.014662 -0.013008 0.002503 -0.010544 0.009474 -0.010637 -0.001963 0.006510 0.003251 0.003040 -0.026677 -0.007795 -0.004139 0.008733 0.006486 -0.002799 0.003095 0.022728 0.003058 -0.008001 -0.018357 0.014917 0.013820 0.001103 -0.011805 -0.025984 0.017261 0.023424 0.003806 -0.003359 -0.005288 0.010701 -0.019809 -0.014420 0.019298 0.006500 0.007942 0.017714 -0.005248 0.002063 0.027360 -0.010029 -0.004838 0.004895 0.000985 -0.008278 0.008772 -0.012643
netflix -0.007139 -0.022462 -0.007099 -0.001690 0.000847 0.004343 -0.004606 0.000548 -0.007280 -0.006231 0.013930 0.002659 0.003369 0.004663 0.009847 0.002351 -0.000035 -0.011306 -0.010173 0.004953 -0.004255 -0.015247 -0.026589 0.010384 -0.001085 -0.033464 0.012626 0.011045 0.006069 0.005664 -0.010445 -0.004947 0.021252 -0.002826 -0.012317 -0.018082 0.006222 0.003224 0.009810 -0.004709 0.004606 0.013169 -0.009243 0.006233 0.006001 -0.009331 0.009824 -0.002132 -0.001566 -0.011603 -0.005685 0.015603 -0.009065 -0.001796 0.006284 -0.009657 0.013573 -0.019038 -0.004237 0.008515 0.014207 0.004743 -0.014636 -0.001595 -0.004035 0.002423 0.001423 0.004334 0.005520 0.010606 -0.000072 -0.005870 -0.010291 0.017278 0.008330 0.000337 -0.010495 -0.023359 0.008206 0.015151 0.007295 0.007789 -0.009375 0.005708 -0.012383 -0.004561 0.017544 0.001001 0.008420 0.019066 -0.005104 0.002372 0.024795 -0.011884 0.006682 0.008137 0.002770 -0.002544 0.006188 -0.012870
control 0.000979 -0.028165 -0.007818 0.011800 0.002390 -0.001563 -0.007052 -0.008599 0.000709 -0.015500 0.011615 0.009963 0.016519 0.000895 0.013533 0.010888 0.004434 -0.010058 -0.013281 0.004160 -0.005651 -0.007667 -0.020543 0.027982 0.002015 -0.028869 0.012276 0.010405 -0.001475 -0.001221 -0.010608 -0.008392 0.008981 0.009349 -0.007910 -0.030900 0.004673 -0.000060 0.011080 -0.006134 0.008955 0.005124 -0.009954 0.024692 0.006538 -0.013178 0.012874 0.006182 -0.010289 -0.025294 0.001663 0.021324 -0.011057 -0.011832 0.001077 -0.007548 0.013889 -0.015990 -0.005381 0.006773 0.001685 0.006963 -0.015404 -0.010344 0.003879 0.011944 0.010102 -0.013994 0.004133 0.019847 0.013168 -0.007308 -0.018301 0.012836 0.015385 0.002608 -0.013772 -0.022419 0.018936 0.027274 0.002290 0.004640 0.012115 0.001224 -0.011774 -0.003381 0.022845 0.002338 0.005410 0.006675 -0.001276 0.003494 0.020881 -0.011940 -0.001352 -0.001722 0.002256 -0.003204 0.004492 -0.014968
receiver -0.000426 -0.030456 -0.007558 0.004029 -0.002875 0.004575 -0.004392 -0.007099 -0.006112 -0.007824 0.021027 0.009457 0.009336 0.006462 0.012248 0.005955 0.002325 -0.017589 -0.016215 -0.003874 -0.007550 -0.010638 -0.031467 0.029453 -0.002964 -0.031637 0.016609 0.008072 -0.005450 0.002403 -0.015243 -0.018455 0.009505 0.006013 -0.010986 -0.028451 0.011283 0.006218 0.010493 -0.004554 0.001918 0.012614 -0.013759 0.024441 0.015725 -0.019439 0.015962 0.003746 -0.003361 -0.022289 -0.003885 0.024017 -0.011298 -0.012936 -0.000933 -0.013023 0.012147 -0.017630 -0.000837 0.009054 0.004748 0.003319 -0.023540 -0.011227 -0.001078 0.004796 0.009394 -0.011252 0.005736 0.017468 0.009225 -0.007006 -0.010552 0.010956 0.019513 0.008293 -0.013982 -0.028623 0.019143 0.026684 0.006659 -0.005440 0.007027 0.008259 -0.011356 -0.012950 0.016373 0.000291 0.004206 0.017796 -0.000180 -0.000644 0.022644 -0.007602 -0.006358 0.003870 0.001313 -0.006125 0.000657 -0.011565
local 0.010616 -0.052186 -0.022040 0.012494 -0.005165 0.020542 -0.006053 -0.015067 -0.015728 -0.019148 0.033682 0.011568 0.005609 0.018157 0.005357 0.007477 -0.007251 -0.038189 -0.024605 -0.003127 -0.017901 -0.036081 -0.053649 0.040655 -0.002609 -0.069413 0.023077 0.013765 0.004567 -0.000134 -0.027817 -0.015871 0.034035 -0.008374 -0.017729 -0.043391 0.018280 0.004641 0.024853 -0.017184 0.007266 0.026927 -0.030600 0.034463 0.031378 -0.041167 0.017806 0.011917 -0.005358 -0.036707 -0.002852 0.032317 -0.028304 -0.014196 0.001934 -0.011719 0.022232 -0.026728 -0.007463 0.015974 0.009377 0.020081 -0.038620 -0.012572 -0.007132 0.004546 0.009292 -0.004380 0.005990 0.037524 0.012931 -0.013187 -0.026809 0.026117 0.029674 0.005961 -0.029004 -0.038263 0.028656 0.029785 0.012562 -0.003515 -0.011928 0.014454 -0.029845 -0.025485 0.037068 0.005970 0.016823 0.035876 -0.009259 -0.003161 0.041601 -0.018494 0.002134 0.002859 0.003028 -0.006418 0.009043 -0.019565
light -0.002592 0.035640 0.013545 -0.006130 -0.004167 -0.005312 0.000159 0.005720 0.013526 0.013055 -0.029301 -0.013718 -0.003228 -0.007789 -0.011510 -0.008329 0.001484 0.023893 0.021756 0.000817 0.015379 0.015915 0.035275 -0.034512 0.005529 0.039997 -0.015385 -0.006258 0.000874 0.003369 0.015491 0.023030 -0.016823 -0.004853 0.015611 0.027386 -0.016265 -0.005802 -0.018640 0.011380 -0.007460 -0.016838 0.024515 -0.022765 -0.019439 0.029821 -0.018163 -0.008146 0.006965 0.027632 0.002997 -0.019714 0.014388 0.012768 -0.004309 0.013170 -0.012337 0.015872 0.002164 -0.006386 -0.001838 -0.013128 0.026486 0.006550 0.006753 -0.012714 -0.003837 0.008301 0.001276 -0.021077 -0.013394 0.003604 0.018958 -0.011669 -0.022589 -0.006140 0.013138 0.025669 -0.023542 -0.023845 -0.011426 0.004358 -0.006834 -0.011341 0.014239 0.009017 -0.018477 -0.003619 -0.008112 -0.024647 0.003532 0.005336 -0.028303 0.007107 0.009570 -0.005187 0.001929 0.013698 -0.002118 0.020652
drive -0.014417 0.021279 0.014855 -0.009029 -0.000165 -0.004503 -0.003637 0.007020 0.009802 -0.000625 -0.015561 0.004163 -0.001592 -0.002819 -0.000690 -0.009510 0.005165 0.012836 0.015677 0.006235 0.017474 0.013085 0.019617 -0.021850 0.008405 0.025731 -0.011667 -0.004521 0.004263 -0.007314 0.004260 0.019660 -0.003663 -0.000419 0.003971 0.020746 -0.007318 -0.009462 -0.014479 0.006707 -0.003000 -0.009196 0.014142 -0.018379 -0.016411 0.018918 -0.007831 -0.014567 0.002181 0.017846 0.000887 -0.012095 0.004785 0.001877 0.001223 0.007746 -0.016895 0.003431 0.006886 -0.003788 -0.001491 -0.007391 0.019686 0.012682 0.006770 -0.007407 -0.011474 0.010017 -0.001916 -0.022759 -0.008872 0.012346 0.015779 -0.011029 -0.009016 0.004151 0.003203 0.010603 -0.012795 -0.012571 -0.008161 0.007319 -0.003190 -0.003964 0.019169 0.017605 -0.012697 0.001050 -0.004227 -0.009515 -0.000808 -0.000805 -0.017146 0.001724 -0.000229 -0.002614 0.000536 0.009139 -0.001383 0.006421
menu 0.004164 -0.026719 -0.005951 0.004090 0.003381 0.002260 -0.003055 -0.002354 -0.005049 -0.011227 0.017214 0.006205 0.006899 0.009071 0.007357 0.013042 0.002730 -0.011398 -0.010892 0.001942 -0.010330 -0.015132 -0.019191 0.016547 -0.003840 -0.034814 0.015547 0.006364 0.001239 0.000995 -0.011798 -0.015056 0.012236 -0.003174 -0.012479 -0.021620 0.009202 -0.001680 0.013274 -0.011556 0.004494 0.011607 -0.009295 0.018089 0.007562 -0.016042 0.008061 0.002403 -0.007453 -0.023649 0.002278 0.019564 -0.014627 -0.012482 0.005628 -0.008896 0.015066 -0.008701 -0.004437 0.008111 0.002377 0.003481 -0.020791 -0.010947 -0.002618 0.002946 0.007162 -0.006850 0.000582 0.019103 0.002374 -0.006888 -0.016695 0.017758 0.013175 0.003276 -0.018084 -0.018939 0.014775 0.019842 0.010795 -0.002777 -0.004036 0.000236 -0.009874 -0.011969 0.017611 0.004635 0.007555 0.020850 -0.006933 0.002393 0.019970 -0.006288 0.002700 0.007518 0.003117 -0.006591 0.006264 -0.011348
high 0.000825 0.000807 0.001388 0.003384 0.000069 0.000425 -0.003085 0.002097 -0.001782 -0.000857 -0.002598 0.004331 -0.005060 0.004479 -0.000012 -0.005763 0.002231 -0.004198 -0.001899 0.002430 -0.003645 0.004062 0.000632 0.001516 0.003804 0.002457 -0.005113 -0.000024 0.001183 0.004677 -0.001731 -0.002702 -0.004326 0.002112 0.005154 0.000922 0.001142 -0.002974 0.003665 -0.003467 0.004182 0.005513 -0.004566 -0.000444 0.004327 0.003719 -0.002974 -0.002681 0.002475 -0.001951 0.002464 0.002268 -0.000650 -0.003744 -0.000511 -0.001786 0.001439 -0.001850 0.002140 -0.003893 0.002002 0.004021 -0.001680 -0.006575 -0.001181 0.002799 0.004573 0.002468 0.000728 -0.000344 0.000920 0.002422 0.003336 -0.000783 0.003896 -0.001064 0.001745 -0.004135 -0.000042 0.000791 -0.001054 -0.001626 -0.001261 0.004537 -0.005396 -0.003727 0.001490 0.001999 0.004970 0.003012 0.001444 0.002797 -0.002825 -0.000402 0.002475 -0.005459 -0.003481 -0.004473 0.005258 -0.005690
part 0.000623 0.012968 0.009577 -0.006175 -0.002233 -0.002991 0.001169 -0.000958 0.006445 0.007567 -0.013161 -0.005948 0.001995 -0.007009 0.000668 -0.007213 0.003281 0.012727 0.002574 0.004112 0.010412 0.004247 0.014390 -0.007392 0.006314 0.013423 -0.004587 -0.002588 -0.001232 0.000377 0.009232 0.005319 -0.006079 -0.002559 0.000338 0.004961 0.001089 -0.003579 -0.007886 0.005854 -0.003053 -0.006479 0.010244 -0.007917 -0.005540 0.012575 -0.002706 -0.004362 0.003660 0.007267 0.004602 -0.010581 0.005216 0.000166 0.002441 0.001861 -0.002869 0.005155 0.004715 -0.007415 0.004525 -0.007338 0.007114 0.008519 0.004562 -0.002770 0.001364 0.004240 0.000307 -0.010620 -0.007255 -0.002603 0.003292 -0.006705 -0.010892 -0.004346 0.006216 0.008083 -0.010693 -0.005887 0.000701 0.005393 -0.003408 -0.007372 0.008044 0.008309 -0.007369 -0.003001 -0.000220 -0.012602 0.006014 0.003760 -0.009656 0.006995 0.002723 0.000043 0.001460 0.002604 -0.003047 0.007090
simple 0.004692 -0.018408 -0.007635 0.001981 0.003525 0.009497 -0.003733 -0.004062 -0.001953 -0.008416 0.012137 0.002485 0.002878 0.007360 0.005776 0.005532 0.003148 -0.015432 -0.016248 -0.001240 -0.005016 -0.017525 -0.024968 0.019822 -0.001566 -0.024370 0.012609 0.005595 -0.001109 -0.002446 -0.006006 -0.010803 0.018376 -0.003086 -0.009572 -0.020348 0.007265 0.006730 0.006207 -0.008614 -0.000874 0.009273 -0.010393 0.016063 0.013058 -0.013121 0.012846 0.006305 -0.007007 -0.014944 -0.002250 0.011412 -0.007562 -0.004006 0.006351 -0.003526 0.005432 -0.012022 0.000788 0.007728 0.006091 0.002119 -0.021598 -0.006801 -0.002648 0.005686 0.002760 -0.004275 0.003854 0.019267 0.003720 -0.003877 -0.015622 0.013553 0.016420 0.006025 -0.010592 -0.018128 0.013914 0.014210 0.001624 -0.001761 -0.005573 0.006019 -0.010205 -0.010766 0.013599 0.003852 0.005737 0.016707 -0.000386 0.003254 0.019891 -0.006321 0.003493 0.000301 0.007121 -0.006591 0.002497 -0.014620
line 0.000602 -0.009710 -0.002151 0.001795 0.002866 0.001842 -0.005244 -0.002371 -0.003271 -0.003335 0.013218 -0.000895 0.000768 0.000527 -0.000609 0.008609 0.001544 -0.015166 -0.013042 0.002408 -0.008592 -0.010803 -0.014967 0.010361 0.000562 -0.019643 0.005784 0.003453 0.002276 0.006076 -0.002240 -0.001775 0.004378 -0.007429 0.000548 -0.006798 0.001930 0.002725 0.003258 -0.004061 -0.001364 0.007901 -0.005575 0.007683 0.004017 -0.008583 0.009951 0.003818 -0.003218 -0.009409 -0.003048 0.004145 -0.012270 -0.006561 -0.003379 -0.006620 0.012084 -0.012091 -0.001176 0.002083 0.000092 0.009905 -0.011057 -0.006483 -0.000656 0.003347 0.003979 0.000991 0.006002 0.007881 0.004239 -0.007955 -0.005689 0.007627 0.010485 0.006348 -0.011278 -0.006241 0.010250 0.003026 -0.001005 -0.002502 0.003106 0.005685 -0.002940 -0.014330 0.011078 0.002078 0.003056 0.015269 -0.005694 0.005594 0.012007 -0.008906 -0.000280 -0.002541 0.000199 0.002202 0.003649 -0.006563
purchase -0.004477 0.012642 0.004883 -0.002050 0.003336 -0.000479 0.003836 0.000100 0.001524 -0.001359 -0.006939 0.001368 -0.002470 -0.001772 -0.004841 -0.006681 0.000226 0.002482 0.002368 -0.002152 0.007457 0.002108 0.006267 -0.007216 0.000558 0.008070 -0.005740 -0.003116 0.004873 0.000549 0.003476 0.003784 -0.000932 0.000435 0.003769 0.007129 -0.006743 -0.004885 -0.003565 0.007262 -0.003043 -0.001307 0.008932 -0.005932 -0.009263 0.008122 -0.004843 -0.003293 -0.000227 0.011500 0.003735 -0.004685 0.003796 0.006826 0.001702 -0.000300 -0.005018 0.004222 -0.002582 -0.005197 0.002145 -0.006297 0.010639 0.006910 0.000319 0.002653 0.002802 0.000498 -0.000563 -0.005867 0.001053 0.006015 0.000004 -0.003891 -0.003603 0.001033 0.006513 0.008641 -0.007071 -0.001025 0.000904 -0.001251 -0.000549 0.000245 0.009344 0.008372 -0.009756 -0.000311 -0.004293 -0.003630 -0.003772 -0.001154 -0.006599 0.000003 -0.000145 -0.003580 -0.004874 0.004351 -0.001885 0.005954
star 0.001271 -0.013455 -0.007479 0.007206 0.002418 0.004318 -0.001654 0.000744 0.001411 -0.004848 0.008206 0.002217 0.005313 0.004807 -0.000776 0.007208 0.004538 -0.011049 -0.009997 0.001781 -0.008944 -0.008674 -0.015793 0.009024 -0.006493 -0.019450 0.007878 0.005411 -0.001291 0.003307 -0.006598 -0.012273 0.010471 -0.003667 -0.005967 -0.013724 0.000306 0.003657 0.006409 -0.005628 -0.001300 0.004396 -0.003747 0.003845 0.009068 -0.013564 0.003335 0.004943 -0.004216 -0.006546 0.004618 0.011525 -0.001794 -0.001886 0.000565 -0.002471 0.009538 -0.008224 -0.002879 0.005336 0.002357 0.009020 -0.016220 -0.004229 -0.000143 0.001036 -0.001668 -0.003760 0.002345 0.011353 0.002917 -0.001577 -0.007549 0.006660 0.007078 -0.000444 -0.005807 -0.005270 0.011458 0.009875 0.000282 0.001058 0.002335 0.002448 -0.005790 -0.006036 0.005868 -0.000021 0.007513 0.012091 -0.003829 -0.001167 0.014669 -0.002715 0.003572 -0.001998 -0.000209 -0.004726 0.000503 -0.003271
component 0.014419 -0.050078 -0.021368 0.008786 0.000758 -0.003664 -0.000466 -0.007574 -0.005751 -0.017554 0.039120 0.023820 0.016358 0.004220 0.007019 0.016086 -0.000605 -0.036128 -0.025734 -0.004377 -0.025792 -0.009753 -0.037798 0.048895 -0.008134 -0.049479 0.024771 0.007841 -0.009122 0.000031 -0.023444 -0.028362 0.018659 0.002921 -0.005352 -0.041510 0.015787 -0.003681 0.026881 -0.008245 0.006273 0.016739 -0.031517 0.037830 0.018664 -0.031556 0.023309 0.014243 -0.017514 -0.041276 -0.002005 0.038966 -0.009024 -0.023165 0.000001 -0.017491 0.018783 -0.017845 0.003217 0.006237 -0.004630 0.012668 -0.032698 -0.009817 -0.001836 0.008246 0.008669 -0.009331 0.007225 0.029782 0.019877 -0.000195 -0.018583 0.021674 0.029429 0.005624 -0.015243 -0.031757 0.035291 0.041073 0.019028 -0.007225 0.007141 0.020256 -0.025659 -0.025304 0.034645 0.004510 0.017695 0.020644 -0.002800 0.006065 0.030486 -0.007208 -0.007536 0.000126 0.004309 -0.017829 0.003845 -0.022054
usb 0.006575 -0.050083 -0.023814 0.008316 -0.000578 0.003120 -0.008295 -0.017073 -0.010241 -0.015619 0.040665 0.018446 0.012219 0.009612 0.016917 0.014537 0.004882 -0.038235 -0.025737 0.002869 -0.024460 -0.026846 -0.052570 0.039528 -0.005419 -0.058498 0.022943 0.017294 -0.005678 -0.004225 -0.020847 -0.021126 0.026521 0.006844 -0.019057 -0.043779 0.014918 -0.000742 0.016250 -0.019969 -0.000214 0.017360 -0.026018 0.036739 0.018057 -0.033095 0.023047 0.004665 -0.017220 -0.037140 -0.004959 0.032332 -0.016742 -0.018980 0.004281 -0.018214 0.024154 -0.027009 -0.001729 0.017254 0.007443 0.011014 -0.039732 -0.010495 -0.004135 0.004702 0.008739 -0.007793 0.003802 0.028199 0.016391 -0.012257 -0.025597 0.022926 0.023956 0.011365 -0.025474 -0.038204 0.029060 0.033358 0.016078 0.001929 -0.000244 0.020775 -0.028017 -0.022241 0.027656 0.008801 0.011921 0.033599 -0.006757 0.003261 0.037330 -0.008504 -0.006268 0.010182 0.003279 -0.011713 0.009345 -0.024779
laptop -0.004643 0.008272 0.002478 0.000219 0.001627 0.001420 -0.004928 -0.000521 0.004030 0.001912 -0.001615 -0.004124 0.001003 -0.004129 -0.002859 -0.005265 0.005969 0.008269 0.004703 0.000769 0.001830 0.001440 0.006015 -0.008245 0.004839 0.004059 0.003385 0.000740 0.004865 0.002917 0.003455 -0.001423 0.001776 0.004168 0.004621 0.001064 -0.004783 0.002117 -0.000602 0.001029 0.001434 -0.001204 -0.001295 -0.001670 -0.001111 0.002797 -0.006092 -0.002591 -0.001678 0.003371 -0.003264 -0.000367 0.007669 0.000230 0.005172 0.001127 -0.003475 0.001576 -0.001496 0.001084 -0.000060 0.002383 0.004194 0.003012 0.004103 0.000442 -0.003643 -0.000444 0.000054 -0.002435 -0.000739 0.003775 0.002039 0.002559 0.000837 0.002687 0.002736 -0.001348 0.001361 -0.000115 -0.006260 0.001968 -0.000236 -0.000485 0.006347 0.004261 -0.001800 -0.002363 -0.006455 -0.002924 0.000465 0.000059 -0.002510 0.001729 0.001628 0.003793 0.002343 0.001687 -0.000918 0.007256
center 0.002378 -0.008454 -0.005773 0.007074 -0.005105 0.005288 0.004242 -0.007750 -0.002376 -0.000711 0.000798 -0.000002 0.001205 0.000122 -0.001117 -0.006730 -0.002493 -0.001468 -0.002678 0.000000 0.002034 -0.009372 -0.012592 0.008118 -0.004214 -0.014823 0.005892 0.005906 0.001406 -0.003600 -0.006831 -0.008734 0.006531 -0.000602 -0.003709 -0.003624 0.005703 0.008091 -0.001882 -0.007789 -0.008494 0.006022 -0.000122 0.001698 0.002408 -0.009196 -0.000637 0.000634 -0.002671 -0.000152 -0.001198 0.008350 -0.000155 -0.006014 0.003151 -0.004534 0.000958 0.001058 -0.006098 -0.000061 0.002367 0.005900 -0.013016 -0.003466 0.003047 -0.004166 -0.001779 0.005997 0.003607 0.003631 0.003103 -0.001318 -0.004657 0.009092 0.002441 -0.002503 -0.007345 -0.005173 0.004975 0.009319 -0.004823 0.000853 -0.005005 0.003598 -0.011297 0.001446 0.001591 0.005480 -0.003539 0.007903 -0.005338 0.005231 0.012226 0.000343 -0.002422 -0.002937 -0.004721 -0.003850 -0.001351 -0.001061
bedroom -0.001043 -0.020695 0.000122 -0.001982 0.003779 0.006445 -0.001341 -0.003397 -0.006571 -0.002451 0.010626 -0.001033 0.004887 0.003355 0.007382 -0.000090 0.003722 -0.012107 -0.003122 0.002259 -0.009145 -0.009902 -0.017803 0.012358 0.002890 -0.010830 0.006383 0.006928 -0.005137 0.003056 -0.005415 -0.008048 0.003978 -0.001339 -0.003128 -0.008776 0.002878 -0.003135 0.005486 -0.008757 0.004549 0.008213 -0.011667 0.006184 0.003654 -0.006753 0.002839 0.005471 0.002829 -0.013985 0.000927 0.007653 -0.005998 -0.001059 0.004580 -0.001799 0.012974 -0.008904 -0.001712 0.006993 0.003127 0.009342 -0.008529 -0.005298 -0.006165 -0.001462 0.006046 0.002225 0.005861 0.011304 0.004573 -0.005611 -0.008403 0.008369 0.011749 0.002274 -0.010050 -0.007738 0.002304 0.010034 0.003817 -0.001158 0.002316 0.004674 -0.008754 -0.008378 0.014385 0.000831 0.000072 0.013874 -0.001345 -0.000409 0.010989 -0.001205 -0.004999 0.002211 0.001719 -0.007819 -0.001823 -0.001692
reception 0.010166 -0.019034 -0.004811 0.008287 -0.000571 0.009567 -0.003938 -0.010159 -0.003946 -0.004806 0.010188 0.007640 0.004530 0.002854 -0.003415 0.000223 -0.008438 -0.019952 -0.010227 -0.006488 -0.010394 -0.011212 -0.016000 0.012825 -0.002663 -0.029968 0.007747 0.010522 0.005398 -0.003905 -0.013920 -0.004979 0.016612 -0.003605 -0.011675 -0.017832 0.000953 0.006460 0.005265 -0.007476 -0.000873 0.018853 -0.012480 0.015080 0.016996 -0.014346 0.010596 0.005531 -0.002179 -0.014264 -0.003016 0.012174 -0.012443 -0.000789 -0.002875 -0.007590 0.007196 -0.013969 -0.007850 0.002398 0.008698 0.011108 -0.013392 -0.005342 -0.003084 0.006038 0.007980 0.001404 -0.001913 0.015021 -0.000119 -0.009357 -0.012027 0.009426 0.011504 0.004901 -0.007543 -0.012754 0.012509 0.008791 0.010845 -0.001704 -0.004432 0.005545 -0.008830 -0.006894 0.010315 0.004201 0.003609 0.021252 -0.003527 -0.002691 0.015488 -0.010169 -0.003225 -0.000159 0.002474 -0.006632 0.007162 -0.007022
standard 0.011390 -0.023144 -0.014411 0.003292 0.000892 0.009873 -0.004091 -0.011857 -0.001615 -0.005974 0.017736 0.006887 0.002412 0.006134 0.005850 0.008488 -0.006566 -0.016453 -0.010533 -0.006648 -0.006616 -0.012649 -0.021328 0.022402 -0.001090 -0.036257 0.007581 0.012445 -0.001743 -0.004501 -0.015738 -0.008110 0.010796 -0.000549 -0.011053 -0.015718 0.009308 0.001504 0.008745 -0.012669 0.000377 0.019879 -0.011588 0.014667 0.020210 -0.020672 0.010061 0.007602 -0.004082 -0.018541 -0.003390 0.011795 -0.009328 -0.009084 0.004212 -0.002172 0.006924 -0.015181 -0.005967 0.011511 0.006728 0.004115 -0.017028 -0.007888 0.000691 0.004037 0.005694 -0.007841 0.000484 0.017364 -0.001289 -0.007191 -0.015943 0.012304 0.018960 0.003551 -0.016197 -0.020286 0.013697 0.012882 0.009240 -0.002221 -0.003366 0.009419 -0.009690 -0.013847 0.015418 0.010372 0.004640 0.022587 -0.003068 -0.002901 0.019316 -0.001991 -0.007369 0.002098 0.002778 -0.005551 0.008153 -0.016581
instruction 0.003310 -0.015736 -0.005092 0.000967 0.001267 0.002119 0.003351 -0.002739 0.000486 -0.002272 0.008475 0.007621 0.004148 0.003692 0.005272 0.010315 -0.002795 -0.009093 -0.006558 0.002084 -0.003004 -0.012902 -0.019715 0.010074 0.001686 -0.019383 0.007438 0.003555 0.001453 0.004991 -0.010148 -0.008535 0.008400 0.005428 -0.001366 -0.009964 0.003918 0.002051 0.004831 -0.008319 -0.001891 0.002194 -0.006895 0.010290 0.008717 -0.007964 0.003124 0.000779 -0.005927 -0.014807 -0.000970 0.017037 -0.003589 -0.005362 0.005133 -0.009396 0.009163 -0.007437 -0.001951 0.001659 0.005862 0.006306 -0.009955 -0.010360 -0.006272 0.000205 -0.000465 -0.008273 -0.001250 0.010292 0.002285 0.000413 -0.013589 0.008246 0.008724 0.000541 -0.009292 -0.010636 0.015131 0.009554 0.000374 -0.002993 0.002206 0.001595 -0.010079 -0.007572 0.007316 -0.001137 0.000518 0.009860 -0.002352 0.001778 0.008155 -0.006523 -0.001672 0.000893 -0.002772 -0.000701 -0.003501 -0.010046
deal -0.004104 -0.023613 -0.010319 0.004036 0.003564 0.007141 -0.002965 0.002328 -0.010281 -0.000939 0.020678 0.005882 0.002665 0.002497 0.005431 0.008784 0.005869 -0.010091 -0.012303 -0.002958 -0.003827 -0.012273 -0.014575 0.011877 0.005575 -0.019499 0.007428 0.001866 -0.005543 0.000181 -0.008304 -0.011977 0.014932 0.004026 -0.008227 -0.019686 0.000784 -0.000310 0.011510 -0.004268 0.001225 0.007715 -0.010197 0.017205 0.003225 -0.008936 0.003343 0.002626 -0.004787 -0.019796 0.003081 0.011724 -0.013851 -0.005446 0.003187 -0.008077 0.012903 -0.006394 -0.002609 0.001160 0.000299 0.005125 -0.018478 -0.006541 -0.001463 0.008180 0.004114 -0.005324 0.006092 0.011449 0.006564 -0.005392 -0.009996 0.011155 0.012313 -0.002350 -0.008903 -0.012836 0.009102 0.014719 0.003087 0.002350 0.000665 0.000224 -0.003356 -0.010835 0.014345 -0.000824 0.009150 0.011228 -0.003519 0.001839 0.020883 -0.004095 0.001987 0.005833 0.002700 -0.006555 0.004284 -0.003658
free 0.002045 -0.023390 -0.016374 0.003511 -0.004017 0.010420 -0.006314 -0.006777 -0.004563 -0.007127 0.022603 0.005163 0.002816 0.008611 0.005404 0.006881 0.000123 -0.016087 -0.014400 -0.002303 -0.015024 -0.021416 -0.026455 0.023611 -0.001758 -0.033900 0.014086 0.010387 0.006490 0.005509 -0.010181 -0.014186 0.020233 0.002380 -0.004646 -0.015336 0.006969 0.006239 0.010621 -0.009185 -0.004788 0.016861 -0.016617 0.022390 0.013602 -0.019123 0.008416 0.002647 -0.001068 -0.019012 -0.002760 0.014679 -0.011637 -0.005328 0.005474 -0.009575 0.012413 -0.010158 -0.007492 0.007000 0.008900 0.013232 -0.021054 -0.009399 -0.002034 0.005615 0.008248 -0.003642 -0.001946 0.015386 0.007620 -0.012620 -0.017490 0.009844 0.016523 0.002009 -0.007235 -0.013563 0.017499 0.010729 0.002823 -0.005576 -0.002650 0.008981 -0.016203 -0.013058 0.019915 0.008985 0.005024 0.022888 -0.006582 0.005389 0.022050 -0.007052 -0.000545 0.005651 0.000775 -0.007426 0.002117 -0.017393
adapter 0.005110 -0.030888 -0.010407 0.007695 -0.000899 0.005615 -0.000203 -0.010550 -0.010151 -0.004595 0.018907 0.014221 0.004551 0.008604 0.010432 0.011657 -0.004856 -0.020100 -0.011723 -0.000632 -0.007799 -0.018051 -0.031762 0.025807 0.000029 -0.032889 0.017377 0.004506 -0.001801 0.003219 -0.012715 -0.015158 0.018133 0.001875 -0.004130 -0.026267 0.009181 -0.001648 0.009083 -0.011127 0.002331 0.013540 -0.017778 0.019833 0.016166 -0.016927 0.016997 0.007603 -0.005132 -0.017428 -0.002821 0.019626 -0.015734 -0.015521 0.005662 -0.009301 0.017146 -0.013802 -0.003647 0.010821 0.007065 0.008026 -0.026194 -0.007713 -0.007592 0.010050 0.008720 -0.006142 0.003901 0.019772 0.009444 -0.008048 -0.010922 0.019338 0.017551 0.003999 -0.010416 -0.027600 0.021356 0.019186 0.005717 0.000114 -0.002996 0.011035 -0.019987 -0.015798 0.018251 0.006191 0.007877 0.014866 -0.001657 -0.001473 0.026408 -0.008107 0.000530 0.002845 0.005590 -0.003262 0.007552 -0.011343
output 0.014459 -0.064860 -0.019445 0.016409 0.003422 0.001345 0.000516 -0.010522 -0.011248 -0.015487 0.052267 0.022850 0.018316 0.015944 0.015897 0.019298 0.004292 -0.045948 -0.032303 -0.002814 -0.032666 -0.026471 -0.061930 0.049892 -0.001143 -0.071700 0.027462 0.021566 -0.007559 0.005198 -0.026193 -0.031829 0.033461 0.005811 -0.016790 -0.054253 0.022024 0.008911 0.033445 -0.024348 0.005235 0.019542 -0.042268 0.049673 0.029491 -0.040453 0.024447 0.011214 -0.019531 -0.045773 -0.002093 0.041396 -0.024971 -0.027232 -0.000788 -0.026313 0.034046 -0.032029 -0.016021 0.014131 0.001982 0.016885 -0.042689 -0.019786 -0.005733 0.012285 0.016200 -0.011129 0.003874 0.043414 0.025966 -0.020267 -0.033820 0.038166 0.038166 0.012149 -0.029287 -0.044534 0.040823 0.047353 0.022774 -0.005338 0.006976 0.022219 -0.033476 -0.032877 0.047722 0.007933 0.023865 0.042780 -0.010245 0.003055 0.052001 -0.012957 -0.003133 0.003538 0.002775 -0.012944 0.000194 -0.032044
flat -0.001174 0.021708 0.015505 -0.008335 -0.003685 0.001425 -0.002863 0.002565 0.004680 0.002096 -0.014059 -0.004477 -0.009615 0.004192 -0.006591 -0.005972 0.001184 0.009382 0.008354 -0.004101 0.012286 0.008907 0.016434 -0.024445 0.001375 0.014893 -0.006671 0.000582 0.010711 -0.004457 0.013529 0.014783 -0.002809 -0.001819 0.002222 0.015235 -0.007520 -0.004515 -0.009162 0.001158 0.002006 -0.006570 0.017034 -0.011798 -0.002228 0.014140 -0.010121 -0.011092 0.002553 0.015293 -0.002547 -0.018965 0.007472 0.004032 0.002422 0.009638 -0.001374 -0.000404 0.006129 -0.003009 0.004647 -0.006421 0.016632 0.008977 -0.005256 -0.001101 0.001061 0.012822 0.001413 -0.011906 -0.012406 0.005388 0.014877 -0.013133 -0.008304 0.002460 0.009651 0.017910 -0.011452 -0.017492 0.000562 -0.002581 -0.007919 -0.000798 0.011220 0.007305 -0.015279 0.001299 -0.002763 -0.004922 -0.002225 0.001944 -0.010495 0.001158 0.006861 -0.000956 -0.001300 0.006932 0.005018 0.015768
panasonic 0.003097 -0.013045 -0.006388 0.006919 -0.004924 0.002180 -0.004885 0.003370 -0.003821 -0.003147 0.008171 -0.002266 0.002605 -0.001491 0.006459 0.006675 -0.000610 -0.003842 -0.006400 -0.005377 -0.006670 -0.006817 -0.011576 0.003650 0.004769 -0.014710 0.005621 -0.002137 0.000161 0.005429 -0.002039 0.000696 0.001542 -0.000641 -0.005815 -0.005573 0.001269 0.003794 0.000780 -0.008207 -0.000741 0.005001 -0.004074 0.009409 0.006493 -0.008849 0.003473 0.006006 -0.003590 -0.005316 -0.002714 0.005221 0.000203 -0.004107 0.002432 -0.008054 0.008691 -0.006013 -0.000059 0.005139 0.001337 0.007015 -0.005413 -0.003836 -0.000713 0.004416 0.007543 -0.005462 -0.003337 0.006038 0.001381 -0.001173 -0.006817 0.007274 0.008181 -0.001693 -0.004156 -0.013064 0.005905 0.004862 -0.001876 0.001318 -0.002642 0.006825 -0.006053 -0.001489 0.011531 -0.001668 -0.002070 0.005490 -0.002082 0.003009 0.006472 -0.004429 -0.001449 0.005540 -0.003098 0.002604 0.000335 -0.008326
house 0.001197 -0.026995 -0.011878 0.002371 0.003893 0.001858 0.002178 -0.009167 -0.005668 -0.001554 0.016539 0.007874 0.009197 0.011749 0.011004 0.009447 0.000755 -0.014173 -0.010817 -0.000150 -0.013466 -0.016816 -0.028668 0.023800 -0.005922 -0.030681 0.010515 0.007746 -0.003822 -0.002031 -0.013481 -0.011629 0.016802 -0.002779 -0.008403 -0.017089 0.011095 0.002081 0.009353 -0.013635 0.002110 0.010878 -0.011126 0.015142 0.006008 -0.012561 0.010026 -0.000805 -0.007525 -0.019855 0.000252 0.018040 -0.005056 -0.004525 0.006476 -0.006219 0.014845 -0.008121 -0.002943 0.006215 0.001212 0.013657 -0.013236 -0.002498 -0.005755 0.003314 0.009041 -0.003629 -0.000785 0.013153 0.004582 -0.003253 -0.015016 0.009694 0.011881 0.000154 -0.009924 -0.021646 0.016478 0.013490 0.004463 -0.001396 -0.000951 0.002656 -0.018787 -0.007275 0.018938 0.004148 0.001938 0.020850 -0.000119 0.003109 0.015160 -0.006696 0.004431 0.004347 0.000305 -0.009048 -0.001810 -0.009656
warranty 0.000692 -0.018873 -0.012948 -0.000184 0.001371 0.004467 0.002716 -0.002930 -0.008594 -0.005166 0.015468 0.006338 0.001851 0.009117 0.005278 0.002818 -0.002969 -0.011317 -0.018004 0.001568 -0.016009 -0.016791 -0.022149 0.014441 -0.004715 -0.027734 0.006044 0.012771 -0.001437 -0.002551 -0.015192 -0.013393 0.009117 0.000415 -0.006684 -0.019844 0.005100 -0.002558 0.005817 -0.011458 0.006675 0.011149 -0.010044 0.016626 0.016495 -0.019601 0.007467 0.003892 -0.006073 -0.022317 0.003260 0.013616 -0.013430 -0.012414 0.006193 -0.010435 0.008040 -0.011734 0.000343 0.008601 0.003305 0.003934 -0.020550 -0.006968 -0.002759 0.008063 0.007650 -0.001398 0.004893 0.020001 0.000951 -0.008118 -0.008413 0.016885 0.013015 0.003883 -0.007170 -0.018803 0.011758 0.014191 0.003554 0.000935 -0.004581 0.006620 -0.008389 -0.009489 0.020874 0.001716 0.007573 0.020708 -0.005722 -0.002178 0.013199 -0.009684 0.004232 -0.000141 -0.000401 -0.009697 0.004946 -0.007885
game 0.000035 -0.024990 -0.010611 0.002752 -0.003731 0.003648 -0.002020 -0.006582 -0.009987 -0.006074 0.023711 0.005747 0.010664 0.012857 0.007717 0.005680 0.005064 -0.023526 -0.010047 -0.006194 -0.008232 -0.016856 -0.027775 0.024950 0.000127 -0.029690 0.009789 0.004776 0.000498 0.001596 -0.010507 -0.012340 0.011921 -0.000005 -0.009001 -0.019221 0.009349 0.001166 0.015280 -0.006962 0.003460 0.013582 -0.010203 0.020787 0.010165 -0.014519 0.011389 0.006291 -0.006561 -0.020390 -0.002764 0.018768 -0.009511 -0.008049 0.006717 -0.008312 0.016070 -0.016141 -0.003249 0.005300 0.008179 0.004983 -0.015143 -0.012728 -0.007065 0.003789 0.007546 -0.003012 0.004248 0.016282 0.005937 -0.005652 -0.011834 0.011229 0.015467 0.002262 -0.013450 -0.018985 0.012537 0.025404 0.008722 0.002885 -0.003043 0.011519 -0.017492 -0.016010 0.023473 0.004013 0.006025 0.021813 0.001093 -0.001937 0.026971 -0.012023 0.001637 0.002243 0.006995 -0.004535 0.008462 -0.018418
vcr 0.005887 -0.022442 -0.006051 0.002625 0.005250 0.005132 0.001548 0.002856 -0.007802 -0.003597 0.008912 0.007145 0.001778 0.000201 0.001002 0.008279 -0.004446 -0.011666 -0.005663 -0.001810 -0.002572 -0.004437 -0.009747 0.018410 0.001611 -0.014536 0.010297 0.004701 -0.007029 0.001022 -0.004263 -0.004431 0.005029 0.003073 -0.005474 -0.014312 0.003574 -0.002510 0.014006 -0.008853 0.007300 0.004088 -0.009717 0.014615 0.005198 -0.007553 0.002120 0.002259 -0.002644 -0.015187 0.000351 0.006444 -0.008046 -0.009361 -0.004335 -0.003134 0.004630 -0.005552 -0.004852 0.003769 0.006408 0.004989 -0.013348 -0.000679 -0.003638 -0.000725 0.004973 -0.008867 0.004575 0.009355 0.007486 -0.007119 -0.007113 0.002804 0.009533 0.006427 -0.009602 -0.016681 0.010812 0.014502 0.005704 -0.003190 0.008122 0.005598 -0.011282 -0.006981 0.013921 0.004901 0.010366 0.008704 -0.000664 -0.002703 0.017594 -0.000631 -0.002285 0.007005 0.005115 -0.008542 -0.001371 -0.010598
