863 100
recording 0.041612 0.008335 0.018711 0.018539 0.013816 0.021377 0.036642 0.040714 -0.032368 -0.046879 0.011355 -0.002812 0.007412 -0.070007 0.010694 0.017264 -0.013000 0.016471 0.005630 0.022045 -0.024666 -0.002964 0.042639 0.041022 0.018177 0.069749 0.003189 -0.024915 0.044674 0.022961 -0.010983 0.004293 0.015452 -0.012270 -0.034101 -0.032578 0.034387 0.000969 0.054422 -0.027789 -0.037975 -0.000279 0.038766 0.031204 -0.035306 -0.005012 -0.083585 -0.038128 -0.018082 0.010588 -0.020769 -0.073576 0.000012 0.085079 0.015554 0.021765 -0.031936 -0.031404 0.032394 -0.002933 -0.045353 -0.011572 -0.060221 -0.007700 0.048382 0.045443 0.063191 -0.084323 -0.011210 0.026789 0.049460 -0.036009 0.008192 -0.021996 -0.012590 -0.045000 -0.036864 -0.053895 0.060797 0.012235 0.020507 0.062063 -0.059171 -0.036420 0.039692 0.046710 -0.073423 -0.051739 0.020162 -0.058765 0.043529 0.001078 -0.013622 -0.030703 0.033284 -0.018342 -0.018883 -0.003938 0.004434 -0.037615
file -0.007395 0.077765 -0.068794 0.063801 -0.079960 0.150200 0.019248 0.132347 -0.064317 0.068420 0.064177 0.092356 0.002053 0.016273 0.025606 -0.082525 0.011193 0.068242 0.010635 0.059248 -0.020730 -0.026472 0.041850 0.047285 0.086648 0.047577 0.013641 -0.046461 0.096546 0.122869 0.055612 -0.051299 0.061773 -0.031914 -0.039144 -0.092691 0.059157 0.060599 -0.000712 0.044256 0.048527 0.074512 0.016642 0.133282 -0.082428 -0.070017 0.003119 -0.035610 -0.025020 -0.144071 -0.028462 -0.059829 -0.010731 -0.047905 -0.002239 0.083529 0.039644 0.064651 0.133958 0.025818 0.023204 0.022223 0.018268 0.043044 0.120350 -0.077934 0.043753 -0.047916 0.086126 0.061948 -0.072063 0.017247 0.038140 0.011987 -0.126259 0.013377 -0.110294 0.036195 -0.029697 0.035388 0.017376 -0.021252 0.026825 0.108837 0.068304 0.069889 -0.046467 -0.043133 0.019046 0.085682 0.065640 -0.058695 0.001115 0.105959 0.033932 -0.164774 -0.013417 -0.008380 -0.212545 0.079536
voice 0.068610 -0.039043 0.031126 0.024668 0.052055 -0.012720 0.029484 0.057495 -0.046940 -0.118479 0.009087 -0.012296 0.017758 -0.131568 0.018756 0.029566 -0.029462 0.005644 -0.003413 0.020352 -0.019072 -0.019649 0.061244 0.040202 -0.001839 0.092338 -0.008335 -0.034731 0.064398 0.042584 -0.043590 0.044654 0.009873 -0.042500 -0.032376 -0.072865 0.068141 -0.010045 0.084421 -0.053341 -0.060356 0.009280 0.064834 0.020110 -0.027850 -0.013026 -0.138938 -0.043235 -0.023404 0.046219 -0.013960 -0.125187 0.003023 0.122997 0.016939 0.033612 -0.048675 -0.090543 0.012346 0.015056 -0.062756 -0.032670 -0.104685 -0.037466 0.040806 0.077980 0.089255 -0.132999 -0.046427 0.040143 0.095313 -0.055500 -0.000176 -0.038094 0.011166 -0.088165 -0.029024 -0.087836 0.122866 -0.006581 0.055534 0.113833 -0.094456 -0.075429 0.014676 0.105260 -0.085061 -0.084583 0.036161 -0.116743 0.037899 0.009452 -0.018927 -0.074416 0.053033 0.012785 -0.029277 0.013840 0.049345 -0.066954
battery -0.034630 -0.049259 0.076116 -0.086956 0.077465 -0.126032 0.055327 -0.105057 0.078295 -0.057353 -0.011720 -0.119309 0.075205 -0.065037 -0.051930 0.079484 -0.003260 0.026237 -0.051672 -0.050822 -0.053717 0.082879 -0.028448 -0.040174 -0.102767 0.010918 -0.029048 0.076209 -0.048566 -0.048747 -0.024401 0.011153 0.020535 -0.045435 -0.035656 0.045185 -0.061672 0.019144 0.013401 -0.077476 -0.069968 -0.043628 -0.021336 -0.074379 0.116123 0.075811 -0.050790 -0.006884 0.001342 0.121400 -0.038154 -0.069311 0.073593 0.091087 0.002050 -0.073087 -0.046533 -0.041800 -0.076442 -0.069438 0.006577 0.057879 -0.033746 -0.039127 -0.082916 0.110023 -0.036016 0.032893 -0.019216 -0.061624 0.044798 0.003608 0.044733 0.017714 0.127009 -0.088227 0.047751 -0.024187 0.049076 -0.009491 0.005247 0.094805 -0.045106 -0.077919 -0.075147 0.037024 0.002279 0.019914 -0.014361 -0.129960 -0.014118 0.081338 -0.002622 -0.060866 -0.058697 0.021856 0.060024 0.035444 0.171467 -0.033300
sound 0.032788 -0.001287 0.008352 0.009137 0.012337 0.016333 0.024158 0.027733 -0.025580 -0.042149 -0.005755 -0.001717 -0.004603 -0.040470 0.014421 0.016126 -0.011186 -0.014144 0.012941 0.010469 0.001547 -0.005062 0.029023 0.028203 0.022063 0.039149 0.013474 -0.021338 0.023181 0.005631 -0.009922 0.007554 -0.009435 0.007191 -0.019397 -0.015487 0.030612 -0.011697 0.035284 -0.015033 -0.021782 -0.003548 0.032045 0.007911 -0.035712 -0.000720 -0.065410 -0.019259 -0.005792 0.007733 0.001952 -0.038672 -0.013251 0.062142 0.008491 0.018391 -0.014998 -0.024469 0.019443 0.003005 -0.040683 -0.018181 -0.041144 -0.008773 0.035132 0.025147 0.052805 -0.054856 -0.013266 0.025955 0.046029 -0.028319 -0.013267 -0.019280 -0.012370 -0.025063 -0.019676 -0.043978 0.035601 -0.000764 0.018485 0.028047 -0.042446 -0.028482 0.034106 0.011154 -0.050186 -0.021943 0.013935 -0.036517 0.024028 -0.001316 -0.012086 -0.031785 0.033103 0.019917 -0.022086 0.002299 0.008812 -0.030683
easy 0.016774 0.013308 -0.002331 0.013103 0.003447 0.025601 0.017950 0.042402 -0.022565 -0.011280 0.014081 0.010015 -0.003485 -0.018451 0.018049 0.005434 -0.010528 0.012594 -0.001625 0.012955 -0.002716 0.000333 0.011816 0.022454 0.028645 0.039210 -0.005034 -0.023193 0.027604 0.018578 0.011744 -0.015075 0.014319 0.005319 -0.026106 -0.020934 0.017857 0.004746 0.024496 0.003786 -0.014436 0.001296 0.013956 0.031502 -0.029216 -0.019678 -0.030402 -0.014879 -0.007437 -0.013098 -0.007627 -0.038906 -0.004676 0.024666 0.012274 0.016046 -0.015055 -0.000633 0.042943 0.011628 -0.024927 0.004247 -0.020805 -0.007045 0.037621 0.005949 0.031864 -0.025855 0.008055 0.019676 0.018838 -0.003283 -0.005132 -0.004829 -0.032070 -0.013358 -0.031831 -0.020421 0.014911 0.018675 0.004482 0.013021 -0.011698 0.003113 0.017467 0.018746 -0.039279 -0.017095 0.008633 -0.016275 0.033667 -0.003121 -0.006720 -0.005216 0.024764 -0.023642 -0.013318 -0.008896 -0.036842 -0.000895
computer -0.031506 0.025156 -0.058979 0.026263 -0.052585 0.067996 -0.001321 0.062231 -0.006463 0.058496 0.033774 0.055280 -0.016053 0.047454 0.019679 -0.062911 0.018324 0.035794 -0.011774 0.036425 0.005204 -0.007814 0.014129 0.003511 0.029887 -0.015506 -0.013127 -0.017052 0.042703 0.069562 0.034124 -0.036221 0.036108 -0.005058 -0.012108 -0.053346 0.024015 0.034741 -0.024769 0.041406 0.051101 0.062105 -0.002534 0.069071 -0.042503 -0.030571 0.016631 0.009746 0.013480 -0.096965 -0.000673 0.000492 0.005534 -0.063090 -0.017257 0.034567 0.033957 0.038541 0.070369 0.028846 0.034704 0.014481 0.032559 0.039208 0.062009 -0.059242 0.002956 0.007230 0.053992 0.024510 -0.073355 0.021705 0.015343 0.008524 -0.066673 0.014612 -0.051612 0.027597 -0.039778 0.004321 0.010458 -0.035604 0.043337 0.080790 0.027073 0.038587 0.000492 0.006502 0.011045 0.071292 0.012940 -0.042117 0.002121 0.080352 -0.010615 -0.086708 -0.001242 0.015217 -0.129820 0.069988
olympus 0.045495 -0.038173 0.040891 0.018653 0.036455 -0.021653 0.038804 0.035467 -0.040709 -0.095649 0.003999 -0.020645 0.017020 -0.103252 0.005073 0.031766 -0.040639 0.004228 0.000082 0.009865 -0.019521 0.000830 0.033883 0.025639 -0.000357 0.071457 -0.010902 -0.021568 0.049398 0.008795 -0.034518 0.040570 -0.000273 -0.025237 -0.015997 -0.043121 0.045558 -0.004528 0.066343 -0.056568 -0.056996 -0.017117 0.052904 0.002552 0.001119 -0.004886 -0.122178 -0.027685 -0.016223 0.064563 -0.003468 -0.086030 0.011674 0.115759 0.015808 0.016649 -0.050994 -0.075495 -0.006187 0.005245 -0.057019 -0.034120 -0.091257 -0.028770 0.024775 0.074920 0.058999 -0.101220 -0.046612 0.017505 0.078544 -0.046425 -0.008394 -0.031096 0.020974 -0.077455 -0.004500 -0.069952 0.103211 -0.003070 0.040030 0.093087 -0.080209 -0.084112 0.006328 0.070515 -0.066739 -0.069105 0.020777 -0.096950 0.020635 0.018864 -0.012827 -0.087691 0.045723 0.028990 -0.017810 0.001323 0.061894 -0.059182
device 0.024395 -0.000236 0.000861 0.015997 0.001897 0.016414 0.021996 0.036181 -0.029485 -0.036045 0.008927 0.006753 0.002390 -0.037068 0.020163 0.009849 -0.011173 0.014261 -0.001293 0.014003 -0.006387 0.003946 0.029128 0.019879 0.012229 0.043534 -0.002956 -0.019138 0.029395 0.032685 -0.008577 0.003867 0.011399 -0.009117 -0.021016 -0.037405 0.030017 0.005058 0.035841 -0.019248 -0.014866 0.009016 0.019896 0.025493 -0.020912 -0.015199 -0.058139 -0.016381 -0.005960 -0.000251 -0.000956 -0.053522 -0.000380 0.047199 0.007685 0.017297 -0.013915 -0.018506 0.030192 0.014898 -0.020946 -0.010556 -0.041685 -0.010331 0.037420 0.018682 0.044255 -0.054251 -0.005231 0.028675 0.024648 -0.020839 -0.003232 -0.011305 -0.007530 -0.042143 -0.027998 -0.032294 0.041382 0.013617 0.017335 0.038508 -0.032093 -0.013108 0.022934 0.036459 -0.046594 -0.033617 0.006445 -0.036278 0.026697 -0.002810 -0.007963 -0.018757 0.026648 -0.016573 -0.010020 0.005362 -0.016757 -0.016366
usb -0.015483 0.016381 -0.018077 0.016278 -0.021868 0.027240 0.021035 0.026768 -0.020365 0.001712 0.041762 -0.004534 0.010980 -0.000211 0.013782 -0.030019 -0.013163 0.033850 -0.022686 0.000944 -0.000412 0.022343 0.028481 0.017842 0.014378 0.013093 -0.013919 -0.018439 0.046286 0.044796 0.014610 -0.029194 0.047960 -0.021554 -0.028115 -0.045853 0.009291 0.037936 0.009335 -0.023989 -0.000222 0.035391 0.007964 0.042630 -0.003641 -0.016994 -0.039036 0.001493 -0.020629 -0.039703 -0.009096 -0.061672 0.019103 0.021418 0.009192 0.029531 0.011911 0.025839 0.024404 0.013015 0.018510 0.014184 -0.019143 -0.005071 0.027434 -0.019649 0.018540 -0.001585 0.025310 0.010283 -0.032855 0.004809 0.024168 -0.006972 -0.002456 -0.027982 -0.039024 -0.011700 -0.006354 0.005970 0.018831 0.013571 0.005633 0.000263 -0.001737 0.033369 -0.011539 -0.033905 -0.008759 0.000500 0.009101 -0.018128 0.007150 0.011132 -0.002977 -0.072208 -0.002135 0.018323 -0.047467 0.028203
digital 0.044296 -0.024185 0.039957 0.022253 0.041410 -0.013933 0.044484 0.052571 -0.057865 -0.096697 0.000622 -0.028317 0.003182 -0.107907 0.021316 0.028936 -0.056333 0.016084 0.007215 0.000948 -0.023788 0.015938 0.052732 0.027433 0.008243 0.093684 -0.021189 -0.041140 0.057070 0.014526 -0.050230 0.030769 0.004194 -0.029840 -0.025455 -0.049413 0.056053 -0.004370 0.091492 -0.066989 -0.053623 -0.000950 0.062876 0.006568 -0.009370 -0.015650 -0.141074 -0.047520 -0.030824 0.070187 -0.011470 -0.104160 0.025524 0.136339 0.010890 0.014092 -0.069014 -0.082419 -0.014406 0.004316 -0.057310 -0.031722 -0.101624 -0.031764 0.037049 0.085918 0.074394 -0.117973 -0.054493 0.014351 0.095311 -0.041684 0.004341 -0.025261 0.017563 -0.091337 -0.018125 -0.089960 0.112666 -0.001465 0.029550 0.104037 -0.075663 -0.100189 0.029364 0.069765 -0.095502 -0.091885 0.006604 -0.097820 0.027411 0.016976 -0.023656 -0.090819 0.039379 0.007211 -0.023638 0.005589 0.055331 -0.076760
button 0.025989 0.010926 0.014462 -0.001332 0.018740 0.019777 0.011052 0.029769 -0.004068 -0.033631 0.007763 -0.002104 0.017732 -0.039818 -0.001620 0.002578 0.005946 0.008441 0.007984 0.009524 -0.005881 -0.010681 0.025558 0.018105 0.002908 0.038802 0.005117 -0.007268 0.020574 0.022186 -0.000641 0.003667 0.001036 -0.003926 -0.017419 -0.032250 0.021401 0.003696 0.019777 -0.026062 -0.021392 0.013579 0.010072 0.011328 -0.022224 -0.008682 -0.036551 -0.027456 -0.018280 0.011069 -0.008455 -0.041369 -0.001253 0.037480 0.013058 0.019338 -0.007740 -0.016881 0.020526 0.007620 -0.024883 0.004477 -0.036522 0.000577 0.028992 0.017294 0.035235 -0.036603 -0.010189 0.012185 0.023959 -0.008991 0.001962 -0.012319 -0.008770 -0.014133 -0.018367 -0.022853 0.031921 0.006956 0.022254 0.027368 -0.022111 0.002370 0.012942 0.041604 -0.035086 -0.029100 0.012927 -0.026121 0.019455 0.007389 -0.003086 -0.011549 0.009261 0.000986 -0.005890 0.002696 -0.015717 -0.005291
sony 0.014291 -0.010451 0.007770 0.008032 0.000932 -0.001419 0.001863 0.009734 -0.010446 -0.020439 0.002368 -0.002186 -0.001662 -0.017975 -0.003328 0.001550 -0.015611 -0.001760 0.005478 0.003674 0.003845 -0.004241 0.010441 0.004981 -0.001599 0.004777 -0.004198 -0.006410 0.013322 0.004906 -0.010316 0.009945 -0.000046 -0.005292 0.005687 -0.013249 0.015522 0.000819 0.014078 -0.016306 -0.008775 0.001352 0.009640 -0.007416 0.000896 -0.003566 -0.026678 -0.000929 -0.002956 0.015180 0.005697 -0.006181 -0.004422 0.020098 -0.001832 0.002120 -0.014542 -0.023024 -0.011107 0.007635 -0.005849 -0.010294 -0.021641 -0.001124 -0.000903 0.008540 0.007378 -0.025091 -0.012310 0.004956 0.013201 -0.005371 -0.000378 -0.011269 0.000615 -0.015358 0.003087 -0.015277 0.022398 -0.005563 0.012164 0.020219 -0.012151 -0.018292 -0.000547 0.008534 -0.006776 -0.019184 0.002111 -0.015636 -0.004467 0.007535 -0.007978 -0.018525 0.016296 0.012355 -0.006210 -0.003683 0.014457 -0.012728
feature 0.009457 -0.003042 0.009904 0.004809 0.012903 -0.000866 0.008062 0.010081 -0.009167 -0.027231 -0.002022 -0.009493 0.000397 -0.023476 0.002699 0.003696 -0.004228 0.002298 0.005533 -0.001813 -0.005734 -0.000304 0.012849 0.004692 0.001499 0.026300 -0.002632 -0.007056 0.016939 0.010145 -0.004421 0.004061 0.002374 -0.003807 -0.008163 -0.013457 0.012561 0.001503 0.025797 -0.018210 -0.010398 -0.003589 0.015412 0.008993 -0.007186 -0.007863 -0.029819 -0.010450 -0.006294 0.011330 0.001825 -0.029006 0.003747 0.034923 0.002370 0.003007 -0.009969 -0.012661 0.003735 0.002366 -0.017377 -0.000008 -0.025281 -0.010434 0.013192 0.023097 0.016610 -0.029365 -0.010180 0.011037 0.019460 -0.008212 0.000820 -0.004631 0.004941 -0.019948 0.001006 -0.019499 0.027830 0.007476 0.013677 0.020679 -0.015925 -0.015197 0.009986 0.019654 -0.018985 -0.015088 0.002065 -0.019697 0.008136 0.010816 -0.007011 -0.018950 0.012801 -0.003044 -0.008702 0.000306 0.006408 -0.009806
player 0.012661 0.016963 -0.001154 0.020745 -0.010927 0.037786 0.016787 0.032386 -0.020068 -0.011941 0.008270 0.014736 0.004906 -0.016799 0.010422 -0.007404 0.001116 0.004522 0.004436 0.014190 -0.000934 -0.010858 0.019494 0.020147 0.021396 0.030934 -0.002594 -0.022517 0.024424 0.032906 0.003708 0.002420 0.010602 -0.001773 -0.014509 -0.028084 0.022903 0.003590 0.013622 0.003114 0.002065 0.017230 0.020149 0.034298 -0.031099 -0.014973 -0.028387 -0.015290 -0.012460 -0.025070 0.000449 -0.025863 -0.010385 0.017689 0.003688 0.019391 0.003199 -0.001434 0.029905 0.012959 -0.020618 0.000917 -0.012458 0.007448 0.033206 -0.001612 0.029569 -0.039928 0.011331 0.020141 0.002640 -0.011371 -0.004533 -0.006997 -0.024469 -0.012312 -0.029198 -0.009960 0.014452 0.005403 0.014069 0.011975 -0.011151 0.005522 0.020909 0.027691 -0.027998 -0.022038 0.006035 0.000960 0.019655 -0.008574 -0.008558 -0.000536 0.024161 -0.027087 -0.005444 0.004435 -0.033309 -0.002099
small 0.017402 -0.001076 0.018690 0.008773 0.027757 -0.016188 0.011960 0.003098 -0.018887 -0.030098 0.003188 -0.013433 -0.001062 -0.038435 0.016057 0.028321 -0.015417 -0.004198 0.000331 -0.004465 -0.007691 0.011042 0.002822 0.013195 -0.005769 0.031316 -0.009447 -0.002244 0.004680 -0.007119 -0.005963 -0.002834 0.001686 0.001912 -0.015087 0.002810 0.006254 -0.004529 0.033117 -0.015103 -0.028957 -0.021119 0.014618 -0.003237 0.005654 0.004981 -0.041168 -0.010438 -0.010281 0.035666 -0.001296 -0.037600 0.002480 0.049367 0.014345 -0.007320 -0.023322 -0.012103 0.000726 -0.001196 -0.019279 -0.005457 -0.027078 -0.025107 0.002802 0.035174 0.025602 -0.022433 -0.022546 0.007564 0.041743 -0.012023 -0.009625 -0.002692 0.006239 -0.030972 -0.002237 -0.022083 0.026017 0.015788 -0.000874 0.033217 -0.028948 -0.031477 -0.007288 0.000064 -0.025939 -0.022933 0.006543 -0.047534 0.018497 0.016419 -0.003507 -0.033184 0.011160 0.014612 -0.000020 -0.008962 0.029824 -0.032745
price 0.007373 -0.006068 0.002622 0.005588 0.002058 0.002824 0.001610 0.005215 -0.011174 -0.007773 0.005088 0.001924 -0.009631 -0.012518 0.006086 0.007104 -0.006236 -0.009078 0.003897 0.005619 0.005118 -0.008107 0.008333 0.008585 0.002703 0.009694 -0.000635 -0.003627 0.009826 0.007728 -0.003328 0.006929 0.000001 0.004016 0.001128 -0.008354 0.007761 -0.000048 0.008060 -0.002550 -0.005289 0.003782 0.011647 0.004050 -0.009840 -0.006687 -0.015272 -0.004680 0.000831 0.000541 0.006653 -0.013418 -0.008881 0.009940 0.006396 0.000058 -0.006332 -0.007070 0.000222 0.005116 -0.008944 -0.011867 -0.015602 -0.009571 0.006085 0.002759 0.011801 -0.017842 -0.008911 0.011889 0.009722 -0.003776 -0.004707 -0.004112 -0.006053 -0.010941 -0.004362 -0.008609 0.012034 0.002294 0.007484 0.006868 -0.010061 -0.012473 0.002391 -0.002213 -0.004705 -0.008782 0.004310 -0.005064 -0.001726 0.002365 -0.001372 -0.013442 0.012794 0.004955 -0.010069 -0.004900 0.000827 -0.010585
audio 0.007220 0.006657 -0.007321 0.017907 -0.014949 0.033311 0.010154 0.038519 -0.023192 -0.003793 0.014650 0.025093 -0.000823 -0.013805 0.013885 -0.012160 -0.003512 0.017149 0.001803 0.014240 -0.011498 -0.004474 0.025242 0.017205 0.018403 0.025917 -0.000756 -0.021277 0.034378 0.026651 -0.000610 -0.002961 0.013678 -0.011586 -0.011504 -0.028797 0.027501 0.007791 0.009766 -0.001575 0.003785 0.018588 0.016420 0.034809 -0.027476 -0.014552 -0.019935 -0.009017 -0.000703 -0.025291 -0.004212 -0.033074 0.001712 0.007521 -0.002086 0.026802 -0.005226 -0.006230 0.026988 0.007494 -0.001289 -0.006221 -0.011512 0.007308 0.029464 -0.002457 0.024275 -0.029575 0.009278 0.015337 0.001374 -0.004549 0.005748 -0.000967 -0.021346 -0.014646 -0.031224 -0.003898 0.014433 0.005452 0.016923 0.012034 -0.012208 0.012142 0.018716 0.025937 -0.030324 -0.022334 0.006303 0.003042 0.020375 -0.008830 -0.001019 0.014743 0.014262 -0.029672 -0.009238 0.001470 -0.042349 0.008552
hour 0.029684 -0.021321 0.029235 -0.005065 0.042273 -0.021984 0.034374 0.030127 -0.014353 -0.072775 0.009835 -0.027597 0.031992 -0.096644 0.008952 0.024943 -0.010130 0.019665 -0.013478 0.003192 -0.030501 0.008956 0.042921 0.028376 -0.021925 0.075469 -0.010062 -0.009069 0.038820 0.022632 -0.020729 0.024909 0.013557 -0.033093 -0.033111 -0.039436 0.035024 0.006114 0.058618 -0.048739 -0.044199 0.002484 0.033129 0.013659 -0.004549 0.005773 -0.099733 -0.026843 -0.016098 0.038214 -0.016597 -0.103257 0.014337 0.102728 0.021964 0.017939 -0.035774 -0.046624 0.002724 -0.013358 -0.033864 0.007568 -0.070374 -0.027275 0.020220 0.062946 0.055969 -0.074498 -0.019127 0.009306 0.069327 -0.044492 0.013324 -0.019507 0.033574 -0.080572 -0.017949 -0.069337 0.077033 0.004456 0.030035 0.092147 -0.057526 -0.053393 0.004280 0.069989 -0.065407 -0.054585 0.012925 -0.081442 0.028133 0.026388 -0.012111 -0.052289 0.024185 -0.001161 -0.023362 0.015596 0.050435 -0.036980
software 0.006933 0.004441 -0.007857 0.019974 -0.015085 0.033005 0.010747 0.039209 -0.023172 -0.005389 0.013284 0.021587 -0.006284 -0.012873 0.006947 -0.013012 -0.009609 0.011107 0.006465 0.017540 -0.004401 -0.011315 0.021204 0.016567 0.018995 0.024299 -0.004166 -0.018526 0.029644 0.032206 -0.002448 -0.001185 0.016834 -0.010694 -0.006456 -0.025774 0.019136 0.011957 0.016523 -0.000028 0.000550 0.009804 0.012316 0.033163 -0.022163 -0.019637 -0.023800 -0.014813 -0.005307 -0.018473 -0.006669 -0.030694 -0.000115 0.012929 0.005818 0.023389 -0.004772 -0.000427 0.019402 0.006948 -0.000640 -0.001541 -0.012605 0.002159 0.032083 -0.006425 0.023315 -0.032757 0.002656 0.021903 -0.000880 -0.001292 0.011517 0.002950 -0.021557 -0.012663 -0.027496 -0.010435 0.008098 0.009903 0.012887 0.009583 -0.002123 0.007673 0.018626 0.026347 -0.027454 -0.026525 0.000883 0.001390 0.020490 -0.010567 -0.005974 0.010355 0.020679 -0.026424 -0.013252 0.004753 -0.036585 0.003928
folder -0.001267 0.038366 -0.031648 0.013562 -0.032690 0.077269 -0.003888 0.059045 -0.007267 0.033655 0.021677 0.041208 -0.000543 0.020596 0.006368 -0.048579 0.021059 0.027360 0.016413 0.030479 -0.005266 -0.022734 0.020050 0.010595 0.035119 0.010915 0.003611 -0.021367 0.037255 0.058296 0.029095 -0.022613 0.026248 -0.005906 -0.017946 -0.049528 0.034487 0.027633 -0.018639 0.026550 0.040101 0.051043 0.010416 0.063232 -0.054852 -0.021045 0.021085 -0.015188 -0.001297 -0.077327 -0.001173 -0.012371 -0.009160 -0.043814 0.000921 0.029316 0.029764 0.020456 0.069233 0.015690 0.016578 0.016476 0.015438 0.030145 0.064397 -0.045181 0.021776 -0.020788 0.049199 0.027978 -0.039125 0.016775 0.003034 0.000935 -0.067390 0.017312 -0.046047 0.024881 -0.019701 0.019144 0.010973 -0.019063 0.021026 0.073624 0.025366 0.044995 -0.008347 -0.004508 0.012257 0.053945 0.024937 -0.032444 -0.005943 0.066054 0.002335 -0.067338 -0.002369 0.004864 -0.115216 0.053143
pc -0.010495 -0.000552 -0.023968 0.012945 -0.020740 0.023074 -0.006580 0.022644 0.000979 0.012198 0.012643 0.020072 -0.008745 0.014722 0.001559 -0.027924 0.000335 0.018053 -0.004726 0.014351 0.004875 -0.010180 0.007214 -0.000600 0.008248 -0.006264 -0.009510 0.000452 0.019025 0.021438 0.002607 -0.006718 0.015320 -0.010598 -0.007731 -0.026978 0.008335 0.015109 -0.011398 0.008502 0.021828 0.018576 -0.001032 0.020617 -0.008915 -0.011890 -0.000150 0.002949 0.008689 -0.033968 0.003495 -0.004986 0.001860 -0.016470 -0.011117 0.013496 0.007286 0.003966 0.015467 0.009476 0.014093 -0.000451 0.003357 0.013165 0.024833 -0.018745 0.006969 0.002978 0.018472 0.004848 -0.024755 0.005846 0.002078 0.001349 -0.021902 -0.002942 -0.014534 0.010423 -0.006867 -0.004806 0.010585 -0.012593 0.008628 0.021687 0.007696 0.018552 -0.000047 -0.001950 0.001464 0.024942 0.006751 -0.014993 -0.003378 0.022879 -0.002379 -0.031237 0.001776 0.006202 -0.037995 0.018615
music 0.019081 0.014959 0.003524 0.013907 0.002866 0.035646 0.006428 0.044026 -0.023057 -0.018081 0.008218 0.018664 0.003147 -0.029206 0.015438 -0.011095 -0.003849 0.008072 0.012173 0.011954 -0.004298 -0.015697 0.026425 0.026033 0.016702 0.032557 0.004378 -0.021791 0.030844 0.029260 0.004497 0.001214 0.014734 -0.001388 -0.017743 -0.029497 0.033128 0.008575 0.023384 -0.002342 -0.004086 0.016705 0.026945 0.031070 -0.027223 -0.010016 -0.037712 -0.024934 -0.015499 -0.014014 -0.005539 -0.032036 -0.005430 0.032034 0.004762 0.026233 -0.001642 -0.011542 0.030456 0.005950 -0.021707 -0.002405 -0.020042 0.007872 0.039362 0.009879 0.039111 -0.047053 0.002721 0.021032 0.013089 -0.016671 0.001558 -0.012237 -0.027990 -0.010766 -0.024691 -0.012466 0.025461 0.005355 0.015749 0.018857 -0.015080 0.000577 0.019087 0.032063 -0.038298 -0.020943 0.005771 -0.004853 0.023751 -0.005010 -0.002916 -0.005616 0.016063 -0.019438 -0.009150 -0.000375 -0.027193 -0.000279
record 0.036650 -0.010091 0.018113 0.010183 0.022670 -0.003102 0.020363 0.026347 -0.023249 -0.050591 0.005011 -0.020337 0.013242 -0.068376 0.014540 0.031266 -0.016038 0.006585 -0.002265 0.000126 -0.018503 0.000213 0.022152 0.020662 0.006700 0.048036 0.001845 -0.018047 0.025296 0.013819 -0.013939 0.015038 0.004046 -0.013494 -0.028172 -0.018484 0.022515 -0.000018 0.038857 -0.038322 -0.038813 -0.007680 0.027464 0.011868 -0.007234 -0.003891 -0.065822 -0.019736 -0.016526 0.027597 -0.014015 -0.064137 0.008027 0.072251 0.016437 0.005618 -0.022029 -0.034594 0.009390 0.000391 -0.035001 -0.001598 -0.049667 -0.023479 0.017989 0.045223 0.047618 -0.061193 -0.025580 0.016257 0.049990 -0.025894 -0.001303 -0.012297 0.013301 -0.045543 -0.015926 -0.048381 0.055192 0.004706 0.014470 0.058188 -0.049254 -0.037913 0.008607 0.036756 -0.044845 -0.041427 0.005540 -0.061509 0.027009 0.016437 -0.010623 -0.044444 0.024633 0.010451 -0.018042 0.005090 0.027274 -0.040221
microphone 0.021043 -0.010460 0.012487 0.004829 0.009202 -0.009615 0.019521 0.000937 -0.019833 -0.035518 -0.005904 -0.013356 0.000444 -0.038428 0.009847 0.018713 -0.012436 -0.007938 0.006949 0.001827 0.001676 0.010482 0.007641 0.019205 0.003721 0.020432 0.006512 -0.015745 0.004390 -0.011550 -0.015419 0.013444 -0.007767 0.006061 -0.008729 -0.004496 0.008888 -0.006246 0.032909 -0.017504 -0.030186 -0.014377 0.015954 -0.004365 -0.004570 0.004082 -0.042918 -0.006385 -0.007321 0.028392 -0.001852 -0.026741 0.001301 0.046982 0.013273 0.000276 -0.024135 -0.021102 -0.008842 -0.003674 -0.027787 -0.018478 -0.025886 -0.013121 0.008663 0.031455 0.026815 -0.028314 -0.024652 0.008957 0.032826 -0.023997 -0.004929 -0.014358 0.006302 -0.028835 0.004385 -0.034268 0.029435 0.000045 0.010172 0.033528 -0.029660 -0.040940 0.014906 0.007423 -0.028231 -0.025838 0.002729 -0.038008 0.011479 0.008089 -0.007114 -0.039188 0.022047 0.019457 -0.013634 0.000658 0.025535 -0.032492
model 0.016199 -0.005276 0.011677 0.015896 0.009674 -0.006235 0.017943 0.020201 -0.019581 -0.034343 0.003290 -0.006959 0.004125 -0.041108 0.011087 0.007224 -0.018640 0.004235 0.001720 0.006095 -0.004179 -0.005127 0.014688 0.016858 0.007998 0.030099 -0.005767 -0.017360 0.023882 0.010741 -0.011785 0.006310 0.003749 -0.011185 -0.011177 -0.017370 0.018796 -0.000233 0.031586 -0.017995 -0.016339 -0.006354 0.023145 0.004587 -0.013689 -0.007501 -0.053943 -0.018937 -0.007498 0.018340 -0.007741 -0.039628 0.008399 0.050750 0.011513 0.014178 -0.022549 -0.028141 -0.002312 0.005329 -0.019613 -0.007186 -0.041183 -0.016259 0.011380 0.030123 0.031553 -0.042256 -0.016926 0.010094 0.034605 -0.015067 0.002534 -0.011120 0.006024 -0.034282 -0.007881 -0.030646 0.035668 0.002494 0.013275 0.036937 -0.029984 -0.031889 0.004930 0.022601 -0.037516 -0.036158 0.004560 -0.036672 0.009472 0.001340 -0.008546 -0.036304 0.018409 0.003420 -0.013259 0.002049 0.020924 -0.031011
mic 0.015554 -0.015111 0.016859 0.002885 0.012105 -0.005394 0.019740 -0.002348 -0.012700 -0.028022 -0.010233 -0.007877 -0.003606 -0.025359 0.003719 0.013572 -0.015273 -0.015183 0.002421 0.000495 0.005391 0.009920 0.010564 0.017430 0.004808 0.009656 0.000109 -0.003836 -0.000994 -0.011551 -0.015948 0.013449 -0.006943 0.012398 0.000697 0.005839 0.011391 -0.016076 0.016963 -0.015238 -0.025139 -0.020020 0.016657 -0.010334 -0.009889 0.005200 -0.040844 -0.004983 -0.006645 0.026486 0.000699 -0.009875 0.001866 0.040471 0.009182 -0.001432 -0.013125 -0.020177 -0.006406 0.001354 -0.026209 -0.018486 -0.018530 -0.004987 0.007333 0.029234 0.016875 -0.024020 -0.020123 0.009888 0.020619 -0.018915 -0.014552 -0.011124 0.009692 -0.018144 0.014179 -0.023437 0.027518 0.004246 0.012045 0.020078 -0.028621 -0.034093 0.014359 -0.003469 -0.016041 -0.014336 0.005239 -0.027916 0.000853 0.010397 -0.002180 -0.030530 0.018869 0.029824 -0.009309 -0.000606 0.033360 -0.029152
playback 0.015401 -0.001956 0.012332 -0.000005 0.003814 0.003918 0.016962 0.013970 -0.008250 -0.020261 0.000681 0.001316 0.006949 -0.031059 0.005629 0.005885 -0.012784 -0.002944 0.003252 0.008183 -0.008254 -0.003674 0.008963 0.007270 0.004043 0.019218 0.003960 -0.012193 0.010460 0.009049 -0.005924 0.005769 -0.004100 -0.001299 -0.009244 -0.009448 0.007528 -0.001840 0.020869 -0.015263 -0.014063 -0.007037 0.013568 0.005816 -0.005529 0.002772 -0.035008 -0.016840 -0.004919 0.018045 -0.005383 -0.022753 0.001554 0.037201 0.003873 0.008656 -0.014289 -0.016421 0.010301 0.002340 -0.022242 -0.005180 -0.023447 -0.005910 0.019675 0.020619 0.025241 -0.027025 -0.013374 0.009088 0.021016 -0.008906 -0.004268 -0.005667 0.001501 -0.015390 -0.005231 -0.023310 0.021815 0.003356 0.009115 0.019557 -0.021561 -0.015244 0.009375 0.016521 -0.028090 -0.019112 0.006674 -0.020303 0.007063 -0.000660 -0.007554 -0.015878 0.013930 0.004887 -0.009521 -0.000322 0.012954 -0.015587
format -0.009303 0.011769 -0.023298 0.013413 -0.026600 0.023512 -0.002942 0.022378 -0.013571 0.020581 0.008415 0.026780 -0.008782 0.016544 0.005021 -0.027368 0.001326 0.016033 0.004604 0.005118 0.002777 -0.007314 0.004962 0.000233 0.011597 -0.005064 0.006915 -0.012752 0.013485 0.017818 0.014182 -0.007171 0.011596 -0.009923 0.009079 -0.009502 0.010211 0.009958 -0.011070 0.015919 0.020388 0.011512 0.000065 0.018686 -0.008275 -0.011113 0.017272 0.004140 0.003253 -0.034915 -0.003773 0.007638 -0.001373 -0.021182 -0.004658 0.017962 0.010534 0.012324 0.018063 0.005111 0.021072 0.003024 0.019429 0.012352 0.008924 -0.022249 -0.008841 0.001974 0.014914 0.006842 -0.030109 0.002413 0.003757 0.007534 -0.022370 0.005795 -0.012514 0.020923 -0.024095 0.002746 0.000087 -0.012599 0.018863 0.029790 0.008254 0.002082 0.003699 -0.002936 -0.002479 0.034042 0.010172 -0.011506 0.002910 0.027960 0.006515 -0.028511 -0.004943 -0.003544 -0.045860 0.013844
speaker 0.014359 -0.015198 0.021717 -0.006488 0.012050 -0.011465 0.021865 0.000396 -0.011151 -0.028134 -0.009045 -0.019379 0.006458 -0.032282 0.004623 0.019837 -0.016592 -0.001835 0.000171 -0.004354 0.000119 0.011264 0.005905 0.005956 -0.000987 0.018304 0.004321 -0.007644 0.000870 -0.012471 -0.018778 0.014366 -0.008151 0.001536 -0.010495 0.001547 0.005735 -0.001678 0.019461 -0.019802 -0.028466 -0.018957 0.012211 -0.004594 0.001387 0.007609 -0.042677 -0.006526 -0.007922 0.035318 -0.004586 -0.020898 0.000125 0.047764 0.005283 -0.003618 -0.018899 -0.021404 -0.006968 0.000194 -0.022162 -0.013374 -0.022772 -0.007558 0.004970 0.028400 0.021639 -0.027853 -0.021856 -0.000928 0.033175 -0.010703 0.000516 -0.007058 0.008339 -0.027433 0.000902 -0.022176 0.027842 -0.004900 0.008500 0.033431 -0.031463 -0.030444 0.004737 0.010565 -0.024279 -0.016199 0.003944 -0.039832 0.010108 0.010686 -0.006236 -0.034060 0.009566 0.022699 -0.010730 0.001009 0.035099 -0.033162
life 0.021191 -0.031648 0.039039 -0.031810 0.055845 -0.056091 0.039016 -0.017714 0.010371 -0.081107 0.004587 -0.053367 0.048697 -0.096092 -0.012839 0.044770 -0.018809 0.023315 -0.032632 -0.007368 -0.018187 0.018896 0.017196 0.000323 -0.051913 0.054888 -0.028879 0.016554 0.009169 0.007087 -0.027763 0.025636 0.019792 -0.039405 -0.037374 -0.023677 0.017224 0.008532 0.043853 -0.065835 -0.055093 -0.016456 0.019621 -0.022318 0.035256 0.025425 -0.089559 -0.019683 -0.013829 0.072399 -0.021340 -0.096559 0.028909 0.104206 0.014155 -0.020123 -0.048513 -0.050149 -0.013466 -0.020666 -0.029642 0.014683 -0.076143 -0.031621 -0.001345 0.070206 0.031225 -0.042740 -0.026395 -0.008975 0.055541 -0.021801 0.020443 -0.015774 0.064020 -0.083874 0.015646 -0.058817 0.079623 -0.010686 0.034185 0.089748 -0.061901 -0.056684 -0.028392 0.075742 -0.032816 -0.022156 0.020670 -0.108077 0.015042 0.041724 -0.021968 -0.072535 0.002326 0.003763 0.005442 0.019081 0.082367 -0.029180
manual 0.001270 -0.003000 0.006513 0.005453 -0.000123 0.007773 0.002674 0.007900 -0.000304 -0.010020 -0.002851 0.000668 0.000799 -0.000411 -0.001462 0.004398 0.001122 0.001302 0.004618 -0.003880 0.006989 -0.007990 0.000606 0.005859 0.000945 0.000288 0.005498 -0.001543 0.003828 0.005276 0.000860 0.003691 0.000539 -0.000411 -0.000572 -0.005820 0.010979 0.001256 0.008794 -0.004090 -0.001997 -0.006420 0.008500 -0.001519 -0.008479 -0.005896 -0.006713 -0.005299 -0.001294 0.003920 0.001718 -0.001712 -0.008174 0.006958 -0.002881 -0.001265 0.000931 -0.004049 -0.005149 0.003916 -0.008510 -0.007420 -0.001521 0.003115 -0.000512 0.000080 0.008646 -0.012108 -0.003833 -0.001525 -0.000994 -0.000336 -0.010869 0.000806 0.000600 0.006592 -0.005314 -0.007948 0.001977 -0.005380 0.001895 0.001874 0.001043 -0.003171 -0.003057 0.003303 -0.006762 -0.007893 -0.005287 -0.000063 0.001610 0.001875 0.002060 -0.012342 0.007567 0.008181 -0.002334 0.003695 -0.003482 -0.007226
review 0.016690 -0.013091 0.018228 0.000186 0.011772 -0.012578 0.016335 0.011961 -0.013316 -0.033881 0.001053 -0.008666 0.009429 -0.033219 0.003209 0.008941 -0.017785 0.006916 0.004396 0.001250 -0.007002 0.008752 0.016042 0.011699 -0.001890 0.023315 -0.003843 -0.011485 0.014530 0.000456 -0.012876 0.008190 0.000130 -0.010470 -0.006326 -0.013914 0.015728 0.002029 0.021870 -0.017396 -0.018851 -0.008891 0.009185 0.004268 0.002834 -0.005597 -0.032226 -0.014287 -0.008026 0.024052 -0.003554 -0.029640 0.007583 0.036231 0.009191 0.000897 -0.015651 -0.025136 -0.005872 -0.004556 -0.011575 -0.009634 -0.027203 -0.015686 0.005427 0.025422 0.019694 -0.033450 -0.011221 0.004056 0.027315 -0.014528 0.005268 -0.011633 0.013830 -0.024848 -0.004630 -0.025654 0.033948 -0.000980 0.010220 0.029940 -0.021218 -0.026735 0.004982 0.016430 -0.018546 -0.025770 0.000149 -0.037943 0.009171 0.012236 -0.008633 -0.027635 0.012464 0.004425 -0.006325 -0.000533 0.020170 -0.019513
class 0.019873 0.000626 0.006379 0.005226 0.012732 0.002194 0.010624 0.017348 -0.020758 -0.019018 0.008011 -0.009913 0.000646 -0.035941 0.013400 0.005650 -0.009511 0.011620 0.000630 0.004811 -0.014536 -0.000380 0.021171 0.010309 0.004154 0.031225 0.001649 -0.012847 0.018609 0.020787 -0.004003 0.000050 0.014780 -0.006148 -0.017160 -0.020614 0.011475 0.005640 0.024575 -0.015835 -0.012267 -0.002123 0.019835 0.012429 -0.007290 -0.004175 -0.040067 -0.016742 -0.004317 0.001467 -0.008478 -0.044850 0.002880 0.041392 0.011486 0.009899 -0.014159 -0.017934 0.013320 -0.000419 -0.013962 0.001681 -0.028415 -0.007559 0.020670 0.017722 0.022934 -0.037261 -0.006187 0.010756 0.017732 -0.021446 0.007474 -0.006010 0.003583 -0.032983 -0.015027 -0.021731 0.030733 0.010748 0.009777 0.033777 -0.024794 -0.018084 0.010877 0.032029 -0.031764 -0.024661 0.007140 -0.033563 0.016801 0.007384 -0.008770 -0.019468 0.016103 -0.011155 -0.007839 -0.006086 0.006268 -0.012391
setting 0.012226 -0.013523 0.017604 -0.004428 0.019593 -0.012478 0.015918 0.002020 -0.006426 -0.037071 0.003133 -0.021137 0.005555 -0.038964 0.002452 0.022693 -0.011470 0.006964 -0.003969 0.001624 -0.014665 0.006328 0.011789 0.004952 -0.006499 0.031037 -0.003390 -0.005246 0.007573 0.002460 -0.009493 0.006704 0.001527 -0.006280 -0.017218 -0.008188 0.012160 -0.003805 0.031876 -0.027479 -0.022965 -0.002165 0.008093 -0.006397 0.000435 0.010646 -0.052317 -0.013045 -0.002727 0.027556 -0.010749 -0.037089 0.013194 0.051676 0.007822 0.005129 -0.017774 -0.032867 -0.003193 -0.004200 -0.015369 -0.004706 -0.034938 -0.015959 0.004061 0.036836 0.021950 -0.034695 -0.019692 0.000007 0.039472 -0.012097 0.006254 -0.007599 0.016227 -0.035070 -0.007151 -0.028780 0.040256 -0.004471 0.016728 0.040062 -0.033332 -0.038341 0.004582 0.027227 -0.029972 -0.022953 0.008619 -0.041552 0.006891 0.007164 -0.010489 -0.036083 0.009228 0.009417 -0.002513 0.007994 0.029259 -0.026134
mode 0.024270 0.003045 0.011904 0.002084 0.013133 0.006542 0.006960 0.029151 -0.010342 -0.032054 0.001557 -0.006814 0.015033 -0.043867 0.010589 0.011966 0.002592 0.002760 0.005827 -0.000362 -0.023937 -0.012165 0.025192 0.023208 -0.003926 0.043490 0.016983 -0.011640 0.024535 0.007852 -0.008476 0.009192 -0.002738 -0.017214 -0.015485 -0.013106 0.025978 -0.002955 0.024536 -0.026944 -0.019020 0.003293 0.012128 0.014270 -0.021886 0.004939 -0.043065 -0.016862 -0.008260 0.009238 -0.004693 -0.042068 -0.005930 0.048376 0.010996 0.017059 -0.018344 -0.026918 0.008609 -0.007297 -0.019359 -0.004439 -0.035950 -0.013089 0.017122 0.029546 0.037625 -0.050784 -0.014957 0.011450 0.044970 -0.025771 -0.003357 -0.012846 0.003799 -0.018486 -0.021521 -0.029546 0.036036 0.010620 0.011590 0.044415 -0.029645 -0.021001 0.015926 0.022174 -0.039650 -0.033096 0.003935 -0.031616 0.024974 0.003477 -0.006660 -0.017510 0.012882 0.009689 -0.021984 -0.004195 0.007803 -0.022306
clear 0.017024 -0.007430 0.008617 0.005343 0.006405 0.003963 0.002852 0.013625 -0.001965 -0.024381 -0.001174 0.000985 0.000457 -0.016844 0.004479 0.012928 -0.008838 -0.005835 0.007703 0.003406 0.004644 -0.003033 0.006829 0.004639 0.005572 0.015420 0.001798 -0.011596 0.002838 0.006618 -0.009968 0.002467 -0.001545 0.004987 -0.003371 -0.007960 0.012743 0.000523 0.019565 -0.006398 -0.013710 -0.005534 0.015219 0.005377 -0.013368 0.000951 -0.031532 -0.011953 -0.000624 0.016362 0.004955 -0.015161 0.004151 0.022152 0.001605 0.007765 -0.008571 -0.019107 -0.000102 0.001888 -0.017455 -0.007079 -0.021907 -0.001197 0.015877 0.011127 0.017724 -0.023307 -0.013935 0.002245 0.022849 -0.012339 -0.006007 -0.005991 0.002470 -0.018634 -0.002248 -0.013711 0.017014 0.000581 0.010175 0.013682 -0.012356 -0.017732 0.009214 0.016902 -0.013304 -0.008087 0.008323 -0.014583 0.008035 -0.001165 -0.008639 -0.022677 0.003951 0.013587 -0.001153 0.005679 0.003835 -0.017486
memory 0.005162 -0.002259 0.010691 0.001933 0.009783 0.000699 0.008815 0.005839 -0.001380 -0.025526 -0.000730 -0.015582 0.012387 -0.025175 0.005929 0.006034 -0.004473 0.003749 0.000202 -0.001510 -0.002416 0.004454 0.012156 0.004306 -0.002400 0.018593 -0.007243 -0.003870 0.008963 0.012188 -0.004014 0.005318 0.011323 -0.007655 -0.008783 -0.012617 0.008963 0.000989 0.019864 -0.020261 -0.013484 -0.000727 0.014577 0.000196 0.001251 0.005045 -0.034250 -0.005870 -0.008157 0.014329 -0.002593 -0.026831 0.004537 0.033796 0.005254 -0.000968 -0.012939 -0.008846 -0.002485 0.003480 -0.012003 0.001208 -0.025710 -0.008616 0.007121 0.019997 0.016539 -0.024206 -0.008239 0.007151 0.011036 -0.013184 0.004349 -0.006659 0.009571 -0.024335 0.000654 -0.022726 0.026713 -0.004147 0.008791 0.027370 -0.018116 -0.018413 0.002970 0.020648 -0.018346 -0.014446 0.006696 -0.023222 0.004113 0.006580 -0.006347 -0.021027 0.008505 -0.006685 -0.001044 0.007379 0.010323 -0.008437
pocket 0.021983 0.000859 0.007980 0.006669 0.013948 -0.006990 0.008285 0.017136 -0.019699 -0.017051 0.002106 -0.007854 0.000799 -0.020941 0.013739 0.018933 -0.010551 -0.001352 0.001920 -0.001404 0.001758 0.004468 0.006509 0.016219 0.012952 0.021904 -0.003243 -0.010166 0.009644 -0.005836 -0.001247 0.002984 0.007504 0.008366 -0.016443 0.002201 0.000407 -0.001858 0.023966 -0.012392 -0.019708 -0.015486 0.014890 0.009734 -0.007352 -0.008757 -0.029086 -0.002754 0.000216 0.010981 -0.002040 -0.028794 0.002812 0.030177 0.009538 0.000551 -0.017289 -0.003080 0.003844 0.004381 -0.014082 -0.003051 -0.022884 -0.016022 0.002833 0.018318 0.023220 -0.017755 -0.008480 0.015467 0.027637 -0.018965 -0.009149 -0.010344 -0.001535 -0.021831 -0.009300 -0.018944 0.013714 0.012295 -0.002186 0.014001 -0.015317 -0.025083 0.005624 -0.003022 -0.021759 -0.014946 -0.001042 -0.026484 0.014166 0.007371 0.001707 -0.025970 0.019903 0.006408 -0.011608 -0.004313 0.014423 -0.017331
noise 0.019247 -0.007466 0.015652 -0.001357 0.008249 0.006322 0.013052 0.016550 -0.007742 -0.030150 0.001349 -0.001847 -0.002152 -0.029434 0.008730 0.012201 -0.003709 -0.005758 0.007749 0.001213 -0.001858 -0.006757 0.017637 0.006489 0.005290 0.018300 0.003178 -0.010907 0.009659 0.008304 -0.012368 0.013232 -0.006434 0.002053 -0.013277 -0.014393 0.017147 -0.004884 0.017971 -0.014410 -0.012229 0.004043 0.015365 0.003209 -0.019379 -0.003402 -0.041823 -0.016657 -0.010883 0.012694 0.000524 -0.020876 -0.002231 0.031494 0.003272 0.010176 -0.010303 -0.025827 0.001365 -0.001757 -0.021384 -0.014207 -0.027476 -0.005991 0.017607 0.021543 0.031451 -0.030949 -0.011154 0.007630 0.022496 -0.016952 -0.009895 -0.006901 -0.002243 -0.015965 -0.004855 -0.021062 0.031937 -0.001984 0.013670 0.025326 -0.020820 -0.019571 0.013791 0.015946 -0.027527 -0.019776 0.009564 -0.027112 0.011161 0.000076 -0.009891 -0.023423 0.013710 0.012039 -0.002461 0.003720 0.006106 -0.016369
note 0.011729 -0.002575 0.006303 -0.002049 0.011138 -0.002590 0.008452 0.008018 -0.010039 -0.013376 0.004617 -0.011535 0.009140 -0.014999 0.000491 0.008422 -0.004139 0.001140 -0.003197 -0.003704 -0.003774 0.000932 0.011766 0.003941 -0.002848 0.021262 -0.002839 -0.005186 0.006745 0.005064 -0.001572 0.005108 0.004613 -0.007067 -0.012060 -0.003226 0.005471 -0.000852 0.015226 -0.014422 -0.014614 -0.005579 0.008944 0.007250 0.003377 -0.002805 -0.017987 -0.011133 -0.006151 0.008116 0.000052 -0.020835 0.002639 0.027870 0.009536 0.001743 -0.006848 -0.012514 0.003619 -0.004532 -0.011926 -0.005776 -0.014519 -0.007365 0.006973 0.017451 0.014449 -0.018064 -0.003203 0.005197 0.018721 -0.006873 0.004369 0.000645 0.006591 -0.018031 0.001348 -0.017994 0.018808 0.005338 0.003482 0.019826 -0.010354 -0.019302 -0.002462 0.012503 -0.015049 -0.014500 -0.002924 -0.021356 0.006942 0.008142 -0.000629 -0.011432 0.003322 0.001882 -0.004625 -0.002925 0.014891 -0.010669
light 0.004767 0.001633 0.000385 -0.004893 0.005565 0.000390 0.000270 0.002868 -0.009512 -0.012237 0.006305 0.000969 0.007173 -0.005177 0.007145 0.009380 -0.004700 0.000368 -0.003382 -0.009117 0.006410 0.004255 -0.002912 0.002954 -0.005340 0.013064 -0.007845 -0.002025 -0.003060 -0.012392 0.004041 -0.002493 -0.004672 0.003387 -0.004918 0.000396 -0.008044 -0.004869 0.008883 -0.000784 -0.005458 -0.011989 0.006084 0.002518 0.006952 0.003499 -0.008250 -0.004507 -0.002063 0.008726 -0.001500 -0.009778 0.003860 0.007404 0.001368 -0.004290 -0.006295 0.004026 0.001056 -0.004349 -0.006771 -0.005382 -0.002297 -0.006137 -0.009572 0.002547 0.005897 0.005012 -0.007098 0.006300 0.016145 -0.004838 -0.008966 0.001769 0.009815 -0.002007 0.000788 -0.004486 0.008282 0.008414 -0.002211 0.006677 -0.006811 -0.015615 -0.006022 -0.011153 -0.010952 -0.002824 0.001839 -0.016533 0.004749 0.006091 -0.001347 -0.011391 0.011459 0.009895 -0.000502 0.001559 0.006379 -0.007156
simple 0.003621 0.000960 0.000111 0.007772 0.004869 0.015567 0.007773 0.020991 -0.008116 -0.009272 0.005402 0.004294 -0.004151 -0.014701 0.003856 0.002171 -0.008480 0.000497 0.002887 0.010743 0.004717 -0.001933 0.004787 0.007251 0.006048 0.014886 -0.000729 -0.009861 0.009413 0.008959 -0.001570 -0.004006 0.010105 -0.001912 -0.007422 -0.010039 0.016260 0.003701 0.005967 -0.003833 -0.002281 0.002976 0.009799 0.007090 -0.012289 -0.002840 -0.021955 -0.007948 -0.002156 -0.004489 -0.006534 -0.022170 0.002825 0.013445 0.003875 0.007979 -0.004399 -0.007913 0.009489 0.009643 -0.012984 -0.001795 -0.008177 -0.001075 0.015088 0.006668 0.017227 -0.016231 0.001173 0.011374 0.008907 -0.005774 -0.002564 -0.003424 -0.007962 -0.014458 -0.009336 -0.010280 0.014351 0.004221 0.010776 0.013816 -0.011133 -0.000718 0.006211 0.018786 -0.011118 -0.011254 0.001581 -0.005986 0.013747 -0.003296 -0.000699 -0.006836 0.013862 -0.004744 -0.006425 0.001631 -0.005416 -0.003180
port -0.032742 0.021161 -0.035480 0.008515 -0.037715 0.039151 -0.005586 0.026260 -0.001301 0.037858 0.012933 0.028608 -0.012522 0.050245 0.007494 -0.043182 0.008590 0.027194 -0.015316 0.013534 0.016008 -0.006004 0.009229 -0.016042 0.007703 -0.027032 -0.010652 0.001814 0.017042 0.044776 0.018110 -0.018622 0.009471 0.006900 -0.006240 -0.027865 0.003026 0.012986 -0.027441 0.012397 0.031404 0.040965 -0.007115 0.027880 -0.024336 -0.021031 0.012846 0.006065 0.000225 -0.055901 0.004872 0.004686 0.005007 -0.050948 -0.013157 0.011394 0.022130 0.038492 0.027715 0.018774 0.018797 0.005948 0.025621 0.024374 0.022802 -0.045803 -0.002860 0.020706 0.044004 0.016974 -0.057033 0.019673 -0.001462 0.003566 -0.027653 0.014175 -0.009684 0.026032 -0.035005 -0.002639 0.000113 -0.030777 0.029664 0.059580 0.007401 0.013905 0.020851 0.017278 0.003419 0.052365 -0.007936 -0.027123 0.004792 0.041504 -0.016864 -0.050119 0.015638 0.009701 -0.070245 0.055223
meeting 0.010977 -0.008086 0.010392 -0.004852 0.013659 -0.005913 0.013535 0.001505 -0.005483 -0.022840 0.002885 -0.007016 0.007061 -0.028591 -0.000289 0.010251 -0.007606 0.003434 -0.003469 0.003494 -0.012314 0.003471 0.006807 0.002507 -0.001733 0.023951 -0.004129 0.000442 0.010194 -0.003432 -0.009891 0.006295 0.001969 -0.010953 -0.010263 -0.001581 0.003356 -0.001594 0.019018 -0.012016 -0.021926 0.000687 0.013839 0.001941 0.001641 0.002928 -0.024693 -0.013191 -0.002756 0.014486 -0.004656 -0.024224 0.008960 0.034714 0.003711 0.003559 -0.015274 -0.020091 -0.001136 -0.002641 -0.016636 -0.007261 -0.023459 -0.010835 0.002066 0.019635 0.010149 -0.026579 -0.008209 0.000230 0.027953 -0.014180 0.002721 -0.010944 0.004628 -0.019388 -0.008320 -0.022711 0.026550 -0.002255 0.008141 0.021892 -0.025569 -0.020908 0.008573 0.014577 -0.024933 -0.014655 0.008998 -0.033081 0.007860 0.004224 -0.002954 -0.021890 0.010898 0.006588 -0.007080 -0.001606 0.019369 -0.021089
wma -0.013990 0.013019 -0.017796 0.009609 -0.020174 0.025559 -0.003648 0.016767 -0.001539 0.029991 0.006221 0.027204 -0.010184 0.021064 -0.001348 -0.025706 0.013861 0.006029 0.003857 0.011784 0.001591 -0.014192 0.002252 -0.002846 0.012035 -0.013729 0.003952 -0.009022 0.007030 0.011018 0.016965 -0.009186 0.005017 -0.003438 0.005990 -0.003686 0.001663 0.011085 -0.019041 0.026666 0.026022 0.019401 -0.002086 0.016551 -0.008936 -0.006760 0.028605 0.004858 0.009757 -0.033455 -0.002761 0.017711 -0.007204 -0.031036 -0.011249 0.007934 0.010688 0.017639 0.020831 0.007529 0.019501 0.002937 0.020931 0.021214 0.014334 -0.026001 -0.009204 0.009952 0.022926 0.000950 -0.033776 0.006466 0.003279 0.000210 -0.023759 0.013801 -0.016430 0.019404 -0.028405 -0.001763 -0.009317 -0.018951 0.022101 0.032454 0.004450 -0.000560 0.009536 0.012895 -0.002111 0.039108 0.003802 -0.019698 0.000444 0.039185 -0.008252 -0.024333 -0.003286 -0.004808 -0.051252 0.023130
mac -0.003985 0.013841 -0.014131 0.017346 -0.016128 0.032076 -0.006094 0.018283 -0.011356 0.020213 0.013967 0.024662 -0.010444 0.019314 0.002977 -0.016958 0.005154 0.013325 0.002987 0.005508 0.000460 -0.011719 0.005627 -0.000827 0.013652 -0.006641 -0.002051 -0.006729 0.014984 0.022369 0.012136 -0.013649 0.005876 0.000858 -0.004462 -0.013220 0.001285 0.012056 -0.009700 0.013732 0.019601 0.012622 -0.004745 0.019146 -0.013937 -0.015869 0.014924 0.002624 -0.002252 -0.030653 -0.004621 0.008630 -0.001700 -0.028570 -0.003300 0.009241 0.007193 0.015957 0.020577 0.012628 0.008854 -0.001583 0.012672 0.009292 0.012531 -0.026101 -0.001423 0.006392 0.016267 0.010702 -0.020462 0.005780 0.003639 0.006499 -0.029169 0.009981 -0.013911 0.016103 -0.015207 0.009534 0.001541 -0.017561 0.017792 0.029951 0.011636 0.006729 0.004021 0.001961 -0.003738 0.029065 0.006407 -0.012866 0.002091 0.030260 0.001634 -0.031402 0.001319 -0.002306 -0.046923 0.024746
case -0.000702 -0.003192 0.006118 -0.003393 0.000185 -0.013261 0.003670 -0.006104 0.004878 -0.001371 0.001070 -0.006975 0.000081 0.004588 -0.002755 0.000441 0.003354 -0.003922 -0.002978 -0.005816 -0.002815 0.007491 0.000809 -0.004599 -0.006997 -0.006523 0.002029 0.009462 -0.005268 -0.010211 0.001401 -0.001593 -0.005516 -0.001385 0.004763 0.004253 -0.001261 -0.002845 0.001631 -0.005298 -0.005650 -0.008005 -0.001995 -0.012619 0.006082 0.004638 0.003829 -0.000529 0.001847 0.009661 0.002474 0.004772 0.001717 0.002515 -0.000119 -0.006023 -0.002871 -0.004245 -0.009054 -0.005493 -0.000311 0.001564 0.001065 -0.006420 -0.013817 0.000575 -0.008267 0.004604 -0.005518 -0.008853 0.002541 0.003685 -0.004443 -0.003515 0.011912 0.001516 0.007850 -0.003139 -0.001060 -0.003144 -0.000582 -0.003171 -0.001735 -0.005300 -0.004620 -0.008058 0.007310 -0.000199 -0.004016 -0.008204 -0.005948 0.007506 -0.000832 -0.001219 -0.007068 0.009415 0.005170 0.005245 0.008034 -0.000843
phone 0.023955 0.003098 0.011551 0.010315 0.008641 -0.004289 0.012926 0.017188 -0.023655 -0.026479 0.008233 -0.010322 0.007477 -0.028539 0.016612 0.014064 -0.014556 -0.000828 -0.002293 -0.002174 -0.001610 -0.000451 0.008405 0.017811 0.012209 0.030779 0.005215 -0.004845 0.014017 0.007800 -0.005010 0.004892 0.002485 -0.008946 -0.015731 -0.007316 0.013263 -0.003449 0.028104 -0.018792 -0.026932 -0.008677 0.019998 0.002719 -0.006370 -0.012318 -0.036899 -0.007801 -0.006256 0.008665 -0.001264 -0.029949 -0.000206 0.042821 0.013283 0.008145 -0.011780 -0.018178 0.007472 0.000856 -0.022441 -0.002990 -0.026830 -0.020296 0.011344 0.021227 0.028707 -0.031520 -0.008651 0.013868 0.029097 -0.020424 -0.003944 -0.012160 -0.002126 -0.021872 -0.009849 -0.019822 0.024514 0.003638 0.010979 0.028454 -0.022169 -0.028208 0.012141 0.006744 -0.027887 -0.026248 0.007456 -0.030831 0.019759 0.002513 0.001182 -0.033220 0.020548 -0.003064 -0.013515 -0.008716 0.012891 -0.018480
size 0.013059 -0.000344 0.009963 -0.001845 0.004708 -0.003637 0.009362 -0.000016 -0.011563 -0.008209 -0.002053 -0.004071 0.001724 -0.012759 0.005222 0.014073 -0.008589 0.001454 -0.002015 -0.006593 -0.003314 0.007105 -0.000780 0.004108 -0.004976 0.011554 -0.002085 -0.006418 -0.004164 -0.011818 0.000258 -0.003553 -0.004151 -0.003685 -0.009669 0.002195 -0.003528 0.000040 0.014924 -0.007020 -0.008637 -0.008796 0.009950 -0.005051 0.007008 -0.000949 -0.013217 0.002353 -0.004695 0.017375 -0.004558 -0.010088 0.005122 0.017872 0.000475 -0.000969 -0.015070 -0.007504 0.000980 -0.003276 -0.009001 -0.005336 -0.011136 -0.011378 -0.005481 0.017712 0.008141 -0.004288 -0.010009 0.005634 0.013090 -0.000723 -0.001184 -0.000867 0.000341 -0.010656 -0.001740 -0.014405 0.007456 0.000491 0.003011 0.008037 -0.014472 -0.018322 -0.004333 -0.006698 -0.012704 -0.001545 -0.000676 -0.019728 0.002865 0.004693 0.001986 -0.016767 0.010935 0.012401 -0.004897 -0.007170 0.016080 -0.010546
instruction 0.011135 -0.004365 0.014387 0.008546 0.009716 -0.005162 0.012230 0.007309 -0.006928 -0.019706 0.006324 -0.005992 0.005429 -0.027277 0.005852 0.013786 -0.009232 -0.002047 0.003628 -0.002533 -0.009777 0.004604 0.015538 0.010527 0.004317 0.022548 -0.001380 -0.004922 0.010652 0.008456 -0.004565 0.010140 0.002950 -0.002466 -0.005926 -0.011817 0.007913 -0.003558 0.023675 -0.014650 -0.010398 0.000302 0.013505 0.005861 0.003540 0.001006 -0.027074 -0.013281 -0.005857 0.015919 -0.005927 -0.029120 0.001179 0.031024 0.002093 0.007925 -0.007875 -0.017721 0.001737 0.004220 -0.016219 -0.004437 -0.019270 -0.007935 0.000468 0.014837 0.017227 -0.027384 -0.010964 0.001055 0.017803 -0.016586 -0.002718 -0.004750 0.002163 -0.018366 -0.005065 -0.022346 0.019068 0.005645 0.008133 0.028050 -0.020369 -0.021934 0.000328 0.012288 -0.024481 -0.015772 0.002236 -0.027240 0.012495 0.010436 -0.001948 -0.023173 0.015131 0.002248 -0.003267 0.002894 0.010852 -0.022514
stereo 0.009300 -0.001986 0.002121 -0.002987 0.004784 -0.011575 -0.000239 -0.004301 0.000579 -0.011207 -0.006172 -0.003584 0.001830 -0.002675 -0.003782 0.001401 0.000429 -0.017877 -0.001465 -0.002443 0.004754 -0.002744 -0.002218 0.003532 0.002697 -0.006049 0.008789 -0.007638 -0.003530 -0.017580 -0.007476 0.014442 -0.005827 0.004426 0.009132 0.006638 0.005202 -0.012864 0.008563 -0.005426 -0.008388 -0.014702 0.008780 -0.009195 -0.006128 0.001662 -0.015159 -0.000973 -0.002727 0.016421 0.005596 0.008046 -0.002147 0.017728 0.000581 0.004730 -0.001657 -0.010895 -0.013738 0.005530 -0.013670 -0.014957 -0.001800 0.001323 0.001840 0.002365 0.000934 -0.008453 -0.015601 0.002448 0.006580 -0.007153 -0.008399 -0.001044 0.011705 0.004666 0.006935 -0.006578 0.000099 -0.007019 0.002974 0.007611 -0.004552 -0.009884 -0.000279 -0.008401 -0.004577 -0.000056 0.004928 -0.007035 -0.001556 0.004119 0.002277 -0.016737 0.004325 0.026706 -0.009700 0.000850 0.024264 -0.013538
low 0.021310 -0.009724 0.015949 0.006838 0.015918 -0.006272 0.011530 0.011070 -0.007127 -0.033803 -0.006034 -0.010509 -0.002708 -0.033028 0.004859 0.020780 -0.013116 -0.005114 0.002732 -0.001006 -0.001164 0.000276 0.010688 0.013063 -0.001761 0.027390 0.002168 -0.009929 0.011250 -0.001731 -0.017081 0.010918 -0.006912 0.001217 -0.012101 -0.003167 0.010050 -0.007026 0.020789 -0.019079 -0.016613 -0.004330 0.008957 -0.000209 -0.006731 0.005023 -0.044473 -0.006843 -0.001356 0.020391 -0.006219 -0.035343 0.007391 0.043608 0.003638 0.004937 -0.015289 -0.020851 0.005542 -0.002281 -0.018465 -0.014135 -0.033512 -0.015886 0.013412 0.023496 0.022612 -0.035475 -0.017877 0.012200 0.033334 -0.014550 -0.002714 -0.009331 0.012474 -0.020177 -0.008974 -0.026160 0.029662 -0.002687 0.015893 0.032022 -0.024690 -0.031195 0.005881 0.018481 -0.026012 -0.017842 0.004668 -0.040188 0.007094 0.006290 -0.002069 -0.033463 0.009737 0.017412 -0.007075 0.005910 0.021567 -0.025882
money 0.004988 -0.004427 -0.000589 0.001136 0.005398 0.002176 0.003642 0.006153 -0.006514 -0.005279 -0.001672 -0.000943 0.004783 -0.001924 0.004222 -0.002773 -0.001821 0.004318 0.000874 0.005947 0.004875 -0.000896 0.007999 -0.000239 -0.000715 0.007187 0.000801 0.000220 0.003190 0.005757 0.000330 -0.001157 0.005960 -0.005893 -0.007067 -0.005366 0.002972 0.000860 0.008119 0.001075 -0.004794 -0.001982 0.007735 -0.001442 -0.002320 -0.002514 -0.012330 -0.005419 -0.002746 -0.002176 -0.001581 -0.009762 0.000451 0.002086 0.002368 0.005726 0.000623 -0.002706 -0.000474 0.001846 -0.001715 -0.001801 -0.004022 0.003217 0.006561 0.007436 0.003381 0.000071 -0.002597 0.005714 0.000683 0.001793 0.001114 0.002334 0.005945 -0.007010 0.004393 -0.000348 0.008380 0.001858 0.001327 0.009123 -0.007290 0.001510 -0.003413 0.006798 0.000189 -0.005498 -0.000567 -0.005533 -0.003740 0.000005 -0.000009 0.000228 0.002426 0.003204 0.002473 0.000365 0.005356 -0.005771
minute 0.003557 0.003541 0.004385 -0.004444 0.010079 0.004528 0.006457 0.012833 -0.005843 -0.011057 0.007217 -0.006394 0.005669 -0.014639 0.006254 -0.003269 0.002754 0.012619 0.002555 0.009558 -0.011098 0.003653 0.006490 0.003986 -0.001462 0.013814 -0.004999 -0.002548 0.007661 0.011213 -0.000566 -0.002946 0.004971 -0.009394 -0.015484 -0.010785 0.006782 0.003955 0.009148 -0.010519 -0.009722 0.009716 0.008608 0.007335 -0.009437 -0.004768 -0.020362 -0.012288 -0.006580 -0.000453 -0.000629 -0.023280 0.005737 0.017628 0.008549 0.001017 -0.002088 -0.010729 0.014799 -0.001624 -0.001069 0.008247 -0.013476 -0.006620 0.008121 0.004410 0.015556 -0.021387 0.003907 -0.000673 0.005232 -0.007709 0.006178 -0.003499 0.002430 -0.013928 -0.012805 -0.014851 0.017723 0.003589 0.009063 0.015741 -0.009540 -0.005017 0.003822 0.022564 -0.014689 -0.015095 0.009614 -0.009774 0.007756 0.003489 0.000152 -0.004796 0.009021 -0.016267 0.001028 0.005668 -0.006887 -0.005016
function 0.006505 0.002528 0.004999 0.004410 0.000513 0.012429 -0.000685 0.007366 -0.009550 -0.004240 0.001343 0.005872 -0.002276 -0.006549 0.007999 -0.000923 -0.000076 0.004302 0.001465 0.006679 -0.000661 -0.004689 0.007040 0.004836 0.008534 0.005864 -0.004765 -0.003874 0.010566 0.012856 -0.001406 0.001586 -0.001303 -0.001947 -0.008956 -0.011602 0.007927 0.000221 0.007496 -0.004672 0.000468 0.002456 0.003651 0.004042 -0.013123 -0.002711 -0.010656 -0.009704 0.001056 -0.004698 0.003526 -0.005995 0.000835 0.006873 -0.000690 0.007693 -0.000888 -0.000859 0.005908 0.007889 -0.007970 -0.001162 -0.010297 -0.003406 0.009682 0.006632 0.013533 -0.012317 0.003472 0.005762 0.001649 0.001835 -0.006068 -0.002272 -0.009420 -0.010487 -0.008089 -0.000600 0.008401 0.001947 0.006370 0.010067 0.000061 -0.002988 0.011273 0.007622 -0.014338 -0.003533 -0.000901 -0.003502 0.004358 -0.001345 0.001747 -0.006101 0.007166 -0.006726 -0.001350 0.003539 -0.011603 0.000124
screen 0.012420 -0.002622 0.016624 0.004964 0.015750 0.001969 0.017101 0.005454 -0.008749 -0.023670 0.003195 -0.011679 0.006991 -0.031318 0.001273 0.011714 -0.009945 0.000103 0.006336 0.000657 -0.002125 0.007391 0.016286 0.012186 -0.004802 0.021350 -0.004397 -0.011238 0.009613 0.002471 -0.005987 0.003549 -0.001305 -0.000959 -0.008855 -0.011839 0.013814 0.001643 0.025270 -0.011439 -0.020441 -0.002602 0.012429 0.006669 -0.005928 0.001713 -0.030228 -0.017177 -0.008692 0.018713 -0.010997 -0.029454 0.003928 0.032013 0.009390 0.004381 -0.013221 -0.015568 0.001716 -0.005209 -0.012876 -0.007273 -0.019274 -0.008802 0.008644 0.025173 0.018846 -0.027148 -0.015976 0.008998 0.021700 -0.013764 -0.001463 -0.004866 0.006361 -0.016012 -0.008835 -0.017767 0.025529 0.000240 0.006715 0.024648 -0.024962 -0.021107 0.006936 0.015874 -0.023344 -0.019218 0.009085 -0.034411 0.013925 0.011946 -0.000696 -0.022931 0.014225 0.003395 -0.001987 -0.002918 0.011242 -0.012944
volume 0.005229 -0.003053 0.007253 -0.005868 0.000751 -0.003631 0.002440 -0.004789 0.006089 -0.010282 -0.006778 -0.004456 -0.002482 -0.005748 0.004844 0.010599 -0.002177 -0.004922 0.001503 -0.002368 0.001252 0.004415 0.004844 -0.003214 -0.001242 0.007331 -0.002146 0.002123 0.000049 -0.002292 -0.005412 0.000032 -0.006470 0.003843 -0.007525 0.003243 -0.001078 -0.005955 0.002334 0.000758 -0.010351 -0.000849 -0.002466 -0.002842 -0.005893 0.007214 -0.015213 -0.001474 0.000679 0.011755 0.000773 -0.001360 0.004164 0.011789 0.002963 -0.001463 -0.006300 -0.009349 0.001180 -0.003079 -0.007547 -0.005948 -0.008816 0.000800 0.001259 0.008211 0.003592 -0.010439 -0.004750 -0.000400 0.015093 -0.007843 -0.002457 -0.003989 -0.001452 -0.004348 -0.004344 -0.012280 0.012549 -0.002431 -0.001649 0.005631 -0.013906 -0.005278 0.007485 0.003763 -0.003836 -0.001155 -0.000021 -0.015727 0.002886 0.001288 -0.001352 -0.005323 -0.003768 0.006611 0.003830 -0.000299 0.002813 -0.012380
control 0.018311 -0.001230 0.009498 0.000517 0.005935 0.002921 0.013150 0.009057 -0.012179 -0.022192 0.000809 -0.001083 0.008636 -0.031360 0.006971 0.013465 -0.011177 0.002902 -0.001615 0.004102 -0.004062 0.000396 0.013421 0.006295 0.006278 0.024811 -0.002932 -0.004298 0.013064 0.005409 -0.001974 0.006453 -0.001227 -0.003422 -0.005163 -0.005636 0.011137 -0.005639 0.014836 -0.017228 -0.018260 -0.007406 0.007629 0.008417 -0.006506 -0.004766 -0.029145 -0.006967 -0.002387 0.015044 -0.007208 -0.029818 0.005929 0.026770 0.003869 0.008960 -0.012136 -0.014347 0.007553 0.002810 -0.017113 -0.002031 -0.023460 -0.005074 0.009663 0.015281 0.020648 -0.029631 -0.012253 0.006870 0.022678 -0.010576 -0.002935 -0.006625 -0.000115 -0.016627 -0.005251 -0.021397 0.022153 -0.002095 0.007274 0.026616 -0.022639 -0.019447 0.011259 0.016098 -0.020654 -0.013059 -0.000634 -0.026040 0.012003 0.004353 -0.004654 -0.017666 0.013911 0.000589 -0.002342 -0.002405 0.010063 -0.013635
user 0.010100 -0.000189 0.004918 0.004853 0.006580 -0.000469 0.006193 0.004402 -0.007948 -0.008557 0.006230 0.001246 0.002435 -0.007737 -0.003947 0.003442 -0.001609 -0.000984 -0.004396 0.004684 0.000689 -0.006712 0.005283 -0.000263 0.005977 0.012094 0.005780 -0.002544 0.006232 -0.000811 -0.002595 0.007338 0.000621 0.000023 -0.003138 -0.004539 0.009249 -0.003531 0.008013 -0.003876 -0.005050 -0.004834 -0.000281 0.001800 0.002296 -0.001804 -0.009238 -0.009374 -0.006218 0.004011 -0.006681 -0.013834 -0.005587 0.013164 -0.002693 0.001503 -0.000810 -0.001979 -0.001863 0.001577 -0.011091 0.003231 -0.011842 -0.001429 0.002195 0.004210 0.011937 -0.006801 -0.005320 0.008293 0.012578 -0.002436 -0.002143 -0.005458 0.003576 -0.008140 -0.003055 -0.008802 0.009702 -0.002808 0.007942 0.004117 -0.007739 -0.000814 0.001385 0.008349 -0.012697 -0.008574 -0.000706 -0.012140 0.010298 0.003594 0.004585 -0.008299 0.002448 -0.001493 -0.006587 0.003868 -0.002512 -0.009279
cable -0.011914 0.000394 -0.019799 0.004500 -0.014126 0.017621 -0.000933 0.005407 -0.001304 0.016549 0.008443 0.013364 -0.008017 0.015745 0.002976 -0.020572 0.004133 0.011937 -0.010163 0.005342 0.004573 0.005796 -0.003034 -0.010312 0.006766 -0.008164 -0.001580 0.007326 0.004531 0.020640 0.004202 -0.013226 0.007437 -0.000767 -0.002291 -0.010219 -0.001295 0.008530 -0.006724 0.001176 0.016519 0.018161 -0.010920 0.013795 -0.006672 -0.008712 -0.001335 0.002691 0.003401 -0.017599 -0.000643 0.001547 0.002221 -0.015774 -0.002700 0.006693 0.012042 0.020994 0.013138 0.008828 0.008511 0.002367 0.005466 0.012951 0.010045 -0.014101 -0.006398 0.018460 0.020483 0.008382 -0.029509 0.007974 -0.001100 0.007721 -0.007429 0.004661 -0.003910 0.009263 -0.014041 0.002668 0.006362 -0.009351 0.012778 0.025081 -0.001015 0.007744 0.012555 0.010899 -0.000392 0.018252 -0.007059 -0.005555 0.006973 0.017857 -0.004895 -0.023472 0.006227 0.004981 -0.020359 0.019964
long 0.002890 -0.013807 0.015341 -0.011300 0.017545 -0.015887 0.004199 0.001445 0.003114 -0.025568 -0.001739 -0.016196 0.009054 -0.024540 -0.003075 0.015278 -0.008623 0.005161 -0.010155 0.000564 -0.009576 0.008496 0.008854 0.000718 -0.008737 0.015011 -0.008038 0.006570 -0.000209 0.001536 -0.012822 0.005753 0.007228 -0.004568 -0.003785 -0.008190 0.006883 0.000385 0.012795 -0.011176 -0.019673 -0.008741 0.002293 -0.004047 0.010761 0.002913 -0.018558 -0.003124 -0.006137 0.022202 -0.000253 -0.026367 0.007379 0.029295 -0.000154 -0.003392 -0.013520 -0.011304 -0.009473 -0.008870 -0.007026 0.002211 -0.019179 -0.010238 -0.001938 0.023220 0.008943 -0.014638 -0.011859 0.001029 0.015387 -0.003632 0.008170 -0.008649 0.019607 -0.024832 -0.001864 -0.011090 0.023282 0.004776 0.002690 0.027053 -0.011217 -0.013105 -0.006238 0.018056 -0.014447 -0.013066 0.002617 -0.032561 0.002523 0.012232 -0.001671 -0.018533 -0.001400 0.004437 0.003542 0.001775 0.027985 -0.012581
headphone 0.000286 0.002079 0.003530 -0.001245 -0.000458 -0.002456 -0.001790 -0.013353 0.005056 0.001730 0.000097 -0.002659 0.002841 0.005068 -0.001265 0.000577 0.001716 -0.010496 0.004760 -0.003809 0.001319 0.007638 -0.002315 0.007603 -0.000592 -0.000171 0.004233 -0.001150 -0.006708 -0.012640 -0.002082 0.005260 -0.010239 0.007047 0.005308 0.008614 -0.008972 -0.002197 -0.005053 -0.001521 -0.010140 -0.013088 -0.004152 -0.006380 0.003902 0.002715 0.003006 0.003379 -0.000100 0.004249 -0.004039 0.008513 -0.000274 0.001151 0.001984 -0.001942 0.000962 0.004578 -0.001193 -0.002962 -0.005988 -0.000924 0.004866 -0.000986 0.000952 0.006143 -0.002944 0.005316 -0.001157 0.003720 -0.002487 0.000479 0.001312 -0.003863 0.000848 0.009837 0.002902 -0.001356 -0.004771 -0.001700 -0.002180 0.001960 -0.001147 -0.005793 0.002797 -0.014636 0.006544 0.007097 -0.003350 0.000189 0.003330 0.005382 -0.001509 -0.005793 0.005789 0.006283 -0.000737 -0.001076 0.011568 -0.003197
room 0.017757 -0.001442 0.008294 0.000512 0.014788 -0.006318 0.011346 0.009907 -0.014892 -0.019361 -0.001705 -0.011712 0.002728 -0.027897 0.009475 0.013458 -0.006462 -0.002289 -0.001242 0.003604 -0.000496 0.001892 0.005684 0.007842 -0.004384 0.023597 0.005403 -0.008213 0.008352 -0.001500 -0.011016 0.000133 0.000692 -0.008608 -0.005060 -0.006508 0.008577 0.002390 0.024052 -0.015149 -0.019315 -0.003941 0.012121 0.004918 -0.005386 -0.004459 -0.034477 -0.007214 -0.007451 0.010840 -0.007883 -0.025704 0.003977 0.035137 0.006511 0.004685 -0.013396 -0.014988 0.003167 -0.002638 -0.010400 -0.005978 -0.019967 -0.013574 0.011489 0.024313 0.019842 -0.025766 -0.016320 0.008484 0.020027 -0.018211 0.002806 -0.006960 0.009970 -0.022204 -0.008162 -0.022390 0.017948 0.001504 0.003803 0.022180 -0.024413 -0.024582 0.002788 0.006841 -0.025388 -0.009843 -0.000943 -0.023674 0.011138 0.004290 -0.008259 -0.021956 0.006878 0.007214 -0.011321 -0.000742 0.017576 -0.019699
menu 0.013353 0.002042 0.006635 -0.000883 0.007789 0.012597 0.002281 0.011531 -0.007186 -0.016827 0.002243 -0.000115 0.005187 -0.019838 0.001848 0.001741 0.001529 0.001923 0.002441 0.009462 -0.003888 -0.003139 0.007910 0.011438 0.002145 0.017508 -0.004169 -0.007396 0.012774 0.010537 -0.000631 0.003504 0.008426 -0.003415 -0.004511 -0.012434 0.008109 -0.000419 0.015225 -0.011567 -0.011414 0.009384 0.010338 0.007725 -0.011508 0.000789 -0.017494 -0.009753 -0.005714 0.005419 -0.005273 -0.017178 -0.002081 0.018799 -0.000455 0.004665 -0.001039 -0.013409 0.011018 -0.001376 -0.009964 -0.000674 -0.013983 0.003131 0.015684 0.003689 0.012859 -0.023958 -0.000378 0.001919 0.011200 -0.005596 -0.003318 -0.004694 -0.008798 -0.010743 -0.012054 -0.009426 0.014670 -0.001010 0.011737 0.009520 -0.013796 0.001524 0.005609 0.017912 -0.015312 -0.012468 0.002175 -0.010163 0.008450 -0.004130 -0.008101 -0.003288 0.011199 -0.007094 -0.002367 0.000096 -0.007579 -0.005699
option 0.004405 -0.008385 -0.000940 0.004394 0.008857 -0.001437 0.004231 0.003962 -0.002306 -0.007842 -0.004098 -0.000336 -0.001881 -0.016302 -0.002746 0.003504 -0.001463 0.000518 0.001361 -0.002427 -0.006056 0.005515 0.004872 0.006390 0.003685 0.008079 -0.000504 -0.006267 0.003106 -0.005246 -0.008864 -0.001334 -0.005246 0.001057 -0.003251 0.000612 0.007101 0.002514 0.005756 -0.007960 -0.010179 0.001990 0.008453 -0.001513 -0.001819 -0.003682 -0.010327 -0.004774 -0.002913 0.010340 -0.001885 -0.016511 0.000020 0.010347 0.004456 0.003461 -0.010913 -0.009702 0.003137 -0.000808 -0.013159 -0.001028 -0.006454 0.001402 0.007784 0.004686 0.011250 -0.010877 -0.005603 0.000423 0.010727 -0.004371 -0.002274 -0.008042 0.003630 -0.014489 0.001429 -0.006309 0.014745 -0.003206 0.005015 0.006438 -0.005821 -0.008252 -0.001034 0.005448 -0.014976 -0.007897 0.000099 -0.012740 0.005020 0.000603 -0.004218 -0.011501 0.000955 0.009864 -0.000163 -0.004172 0.004755 -0.011426
aaa 0.007930 -0.021823 0.026180 -0.021811 0.039572 -0.038208 0.029422 -0.008435 0.009994 -0.052921 0.006858 -0.035040 0.022244 -0.054432 -0.004611 0.021558 -0.015723 0.014196 -0.025466 -0.003870 -0.013205 0.014869 0.016569 -0.006297 -0.032983 0.032561 -0.019676 0.010582 0.003621 0.009605 -0.019574 0.015659 0.010755 -0.024305 -0.026510 -0.016894 0.007384 0.005417 0.022032 -0.035617 -0.034466 -0.005882 0.015103 -0.009293 0.018484 0.012523 -0.055885 -0.016523 -0.010993 0.047467 -0.015155 -0.063788 0.015996 0.060797 0.011565 -0.010631 -0.025369 -0.034023 -0.012035 -0.005716 -0.017285 0.009287 -0.047420 -0.021406 -0.009779 0.044144 0.017797 -0.019610 -0.018980 0.000520 0.030675 -0.010028 0.018210 -0.012830 0.039769 -0.055867 0.008345 -0.035511 0.040787 -0.001099 0.015651 0.055280 -0.030391 -0.040606 -0.018679 0.048272 -0.021413 -0.020739 0.005750 -0.061018 0.007964 0.031824 -0.009781 -0.041229 -0.000243 -0.003467 0.003498 0.015117 0.055777 -0.018153
external -0.007551 -0.007300 -0.000122 -0.008981 0.000944 -0.016819 -0.000974 -0.023352 0.009031 0.000808 -0.003848 -0.000022 -0.005759 0.009459 -0.002505 0.003400 0.001477 -0.010528 0.004848 -0.008909 0.009274 0.002895 -0.013769 -0.005586 -0.006653 -0.017058 0.004644 0.009214 -0.020770 -0.021501 -0.002004 0.009769 -0.009874 0.003289 0.015211 0.020309 -0.006323 -0.002235 -0.010352 0.003463 -0.003641 -0.016222 -0.010480 -0.020618 0.006229 0.003473 0.006924 0.014191 0.002014 0.008823 0.008119 0.028744 -0.003689 -0.002628 -0.003880 -0.012267 0.002093 0.001465 -0.019937 -0.003234 0.007019 -0.010374 0.011880 -0.003880 -0.012468 -0.007995 -0.015215 0.020952 -0.011766 -0.012524 -0.003065 0.000642 -0.011228 -0.001608 0.016198 0.012659 0.016207 0.006150 -0.011068 -0.009287 -0.005314 -0.014779 0.003155 -0.001113 -0.006847 -0.026805 0.010092 0.016326 -0.006780 0.003174 -0.008505 -0.002226 0.003970 -0.007391 -0.004791 0.022661 0.000107 -0.002562 0.021825 -0.005403
high 0.006390 0.002248 0.000189 0.000722 0.000742 -0.000760 0.002963 0.004699 -0.010235 -0.014233 0.003191 -0.005023 0.000071 -0.014777 0.000024 0.000901 -0.003098 0.004589 -0.003887 0.000880 0.002708 0.001061 0.010531 0.005464 0.004632 0.006606 -0.001317 -0.003265 0.004858 0.000468 -0.000261 0.007493 -0.002498 0.003270 -0.004945 -0.005584 0.007950 -0.000317 0.005330 -0.004668 -0.003004 -0.000349 0.007553 0.003955 -0.008983 -0.003723 -0.019752 -0.002337 -0.005149 0.004132 -0.003867 -0.012170 -0.002275 0.014150 -0.001571 0.008049 -0.001629 -0.007383 0.004163 -0.001446 -0.006579 -0.001519 -0.009477 -0.006465 0.005013 0.003602 0.016179 -0.011013 0.001636 0.008650 0.005230 -0.003643 -0.002649 -0.009276 0.006477 -0.014277 0.000273 -0.014694 0.015583 0.000109 0.004487 0.010710 -0.006577 -0.009960 0.006435 0.008696 -0.014314 -0.012873 0.001223 -0.007847 0.000139 0.004788 -0.006818 -0.010075 0.006318 0.004627 -0.004437 0.001550 0.006258 -0.002139
drive -0.010019 0.012064 -0.015113 0.009523 -0.013384 0.017585 0.000844 0.019196 -0.005334 0.011613 0.002335 0.016511 -0.007281 0.015792 0.007623 -0.015841 0.005777 0.010114 -0.001349 0.006938 0.008486 0.000336 0.004992 -0.006930 0.004354 -0.006654 -0.010745 -0.007538 0.010859 0.028462 0.009494 -0.008755 0.011211 -0.002527 -0.005230 -0.014489 0.003958 0.002633 -0.004286 0.002254 0.018048 0.017180 -0.001655 0.013368 -0.017079 -0.004573 0.001643 0.003415 -0.000706 -0.026830 -0.002403 -0.009560 0.007292 -0.013795 -0.006517 0.010917 0.011147 0.010949 0.015771 0.006897 0.009416 0.007661 0.007969 0.012206 0.017635 -0.015729 0.005680 0.000420 0.016578 0.012537 -0.018962 0.009797 0.001170 0.002335 -0.012070 -0.003658 -0.005775 0.002895 -0.004018 -0.004210 0.007999 -0.005910 0.014960 0.026008 0.010794 0.010897 -0.003572 0.001030 -0.000756 0.018973 0.001398 -0.005612 -0.003559 0.014473 -0.000309 -0.028322 0.004064 0.008450 -0.032579 0.024422
hard -0.003999 0.002182 0.000372 -0.002682 -0.003347 -0.005208 -0.003312 0.000999 0.007074 0.000857 0.004044 0.001496 0.001805 0.002987 -0.006953 0.004969 -0.002698 -0.004831 -0.000216 -0.002288 0.002721 0.001398 0.002624 0.004046 -0.003164 -0.006028 0.000467 0.000886 -0.003566 0.000189 0.003947 0.004425 0.001967 0.000913 -0.002282 0.005769 -0.000932 0.001997 0.000462 0.002956 -0.003998 -0.004374 -0.005259 -0.002518 0.005912 0.003241 0.004060 0.003630 -0.004028 0.003237 0.002233 -0.000620 0.001183 -0.005460 -0.004229 -0.001360 -0.004374 -0.000029 -0.002654 -0.004573 0.002167 -0.002950 0.004187 0.005610 -0.003111 -0.002943 -0.006527 0.006445 -0.003729 0.001706 -0.006255 0.005813 0.004263 0.005247 -0.002323 0.000066 0.003543 0.004607 -0.001206 0.001439 0.000509 0.002739 -0.001606 -0.002913 -0.002650 0.002350 -0.003218 0.001312 0.000730 -0.001179 -0.001516 0.005406 -0.002442 0.004856 -0.005729 0.001224 0.001054 -0.002429 -0.000477 -0.004630
purpose 0.003964 0.001003 0.003683 0.003689 0.009326 -0.002827 0.009750 0.000577 -0.001713 -0.017477 0.003895 -0.001385 0.004310 -0.013480 0.006678 0.005331 0.000161 -0.001318 0.002098 0.001460 0.001441 -0.000512 0.001275 0.008842 -0.004702 0.013350 -0.004728 -0.005180 0.006458 0.005634 -0.009044 0.000630 -0.003662 0.001195 -0.002055 -0.010060 0.002609 0.002881 0.012644 -0.003099 -0.011277 -0.003095 0.006709 -0.003171 -0.005236 -0.003242 -0.021975 -0.009359 -0.003726 0.013974 0.000498 -0.013871 0.001801 0.017546 0.007727 0.006094 -0.005031 -0.008658 -0.000602 0.001961 -0.014688 -0.001526 -0.010929 -0.004724 0.008539 0.009706 0.014724 -0.013547 -0.005779 0.006488 0.008583 -0.002852 0.000154 -0.002128 0.000619 -0.015292 -0.005362 -0.015737 0.011823 0.005269 0.008942 0.010549 -0.010617 -0.014567 0.001809 0.012435 -0.011944 -0.012805 0.002707 -0.013758 0.009039 0.004682 0.000087 -0.016049 0.002974 0.006480 -0.006794 0.001309 0.005893 -0.006600
interview 0.004157 0.000178 0.000131 0.004315 0.006196 0.005166 0.007656 0.003991 -0.009148 -0.014617 0.000391 0.001523 0.004279 -0.016309 0.004466 0.004318 -0.004019 0.000030 -0.002750 0.000812 -0.001100 0.001345 0.008137 0.002339 0.006787 0.010993 0.003375 -0.003292 0.010858 0.006800 -0.000039 -0.001561 0.007232 -0.005135 -0.005774 -0.008065 0.002027 -0.003421 0.009109 -0.002690 -0.009937 0.002142 0.010733 0.004661 -0.008108 -0.007337 -0.017186 -0.001530 -0.003943 0.005866 -0.005519 -0.015186 -0.003850 0.018913 0.007766 -0.000161 -0.002987 -0.011688 0.000602 -0.000476 -0.006900 -0.004388 -0.016927 -0.002926 0.005906 0.005177 0.013050 -0.019329 -0.001427 0.005458 0.007936 -0.011616 0.001043 -0.002524 -0.004284 -0.008361 -0.009473 -0.013144 0.015636 0.003934 0.005070 0.014678 -0.007332 -0.012377 0.006105 0.011793 -0.011954 -0.011960 0.002997 -0.012461 0.006122 0.006045 -0.000976 -0.008473 0.012501 -0.007639 -0.001570 -0.000703 0.003694 -0.011098
cd 0.005951 -0.003615 -0.001245 0.008506 -0.006353 0.004817 0.005182 0.006421 -0.009552 0.001246 0.007726 -0.000792 -0.000580 -0.007304 -0.001963 -0.001745 0.002228 0.009780 -0.005325 0.004004 -0.002587 0.002691 0.009433 -0.001750 0.007994 0.004487 -0.004806 -0.005933 0.012425 0.010380 -0.001121 -0.004077 0.008027 -0.002265 0.000890 -0.008533 0.006797 0.000369 -0.000728 0.001129 0.001184 0.005523 -0.001298 0.003147 -0.002123 -0.007668 -0.001019 0.000234 0.004076 -0.004696 -0.003569 -0.008996 0.000176 0.002217 -0.002761 0.008240 -0.004703 0.000629 0.005612 0.004240 -0.001809 0.000699 -0.003897 -0.005322 0.003356 -0.002435 0.001371 -0.010810 0.007087 -0.000840 0.004436 0.001223 0.007103 0.000204 -0.006440 -0.004277 -0.003922 -0.004191 0.001216 -0.002625 0.006255 0.008550 -0.006382 0.005795 -0.002006 0.006668 -0.004405 -0.009989 0.000239 -0.002187 0.003622 -0.001495 -0.002986 0.006705 0.006859 -0.012147 -0.002507 -0.002358 -0.011056 -0.003516
level 0.013060 0.004441 -0.002157 0.010233 -0.000807 0.009155 0.001106 0.011983 -0.011451 -0.008249 0.002923 0.003634 -0.007394 -0.017107 0.002554 0.010376 -0.004715 0.000358 0.001902 0.000797 -0.002618 -0.006409 0.002334 0.013942 0.007663 0.014385 0.004556 -0.012948 0.007503 0.006897 -0.000047 0.003398 -0.006927 0.003456 -0.005392 -0.005926 0.013912 -0.004180 0.012774 -0.007309 -0.009334 0.003975 0.003664 0.002523 -0.010316 -0.005958 -0.021859 -0.005512 0.001550 -0.002568 0.002597 -0.016575 -0.005427 0.015046 0.007546 0.008556 -0.005507 -0.012694 0.006523 0.007692 -0.012635 -0.001981 -0.013984 -0.002824 0.010509 0.010074 0.015504 -0.023226 -0.001507 0.005776 0.015990 -0.012366 -0.003733 -0.004890 -0.000511 -0.010179 -0.005612 -0.015796 0.008914 0.006842 0.008253 0.006911 -0.006325 -0.011019 0.011410 0.003384 -0.010496 -0.007872 0.004731 -0.009873 0.013122 -0.000647 -0.008632 -0.012532 0.008411 -0.001105 -0.009136 -0.003022 -0.007799 -0.005992
windows -0.002257 0.014820 -0.013196 0.007575 -0.013004 0.018617 -0.000766 0.017094 -0.010551 0.011323 0.009928 0.018288 -0.000598 0.000971 0.006809 -0.011671 0.007647 0.011527 0.005838 0.005168 0.001117 -0.001064 0.003828 0.008549 0.006379 0.008937 -0.003074 -0.008709 0.014478 0.021500 0.010066 -0.009732 0.005256 0.000710 -0.007588 -0.011143 0.005463 0.009845 -0.003314 0.005068 0.008160 0.016245 0.004475 0.022280 -0.013750 -0.014257 0.001884 -0.006062 0.000328 -0.025814 0.000891 -0.005148 -0.000607 -0.009655 -0.004590 0.009838 0.009330 0.012279 0.016312 0.002189 0.002347 0.007494 0.007771 0.007995 0.021298 -0.014300 0.006136 -0.008700 0.012870 0.008599 -0.013705 0.005403 0.009823 0.002502 -0.020312 0.002834 -0.009307 0.002878 -0.006458 0.007586 0.002029 -0.008594 0.001246 0.018023 0.011678 0.015697 -0.006450 -0.008500 0.001913 0.016152 0.004213 -0.005767 0.001274 0.015201 0.001448 -0.019081 0.001096 0.005195 -0.028477 0.011126
lecture 0.000697 -0.006139 0.001714 -0.003085 0.004178 -0.008801 0.007657 -0.004314 -0.005577 -0.011839 -0.004590 -0.004521 0.002748 -0.011764 -0.003372 0.000585 -0.001390 0.003091 -0.000858 0.000489 -0.003144 0.001420 0.004637 0.001590 -0.008200 0.004601 -0.000617 0.001720 0.005901 0.001503 -0.006711 -0.001832 -0.004063 -0.003343 -0.001968 -0.003594 -0.002258 -0.001487 0.007942 -0.007910 -0.004705 -0.006867 -0.000241 -0.000390 -0.000185 -0.002106 -0.010260 0.001024 0.001305 0.006310 -0.001213 -0.010959 0.003450 0.004788 0.002304 -0.004599 -0.001355 -0.009651 -0.004978 -0.000903 -0.003539 -0.005216 -0.002288 -0.007832 -0.005576 0.009034 -0.001350 -0.003803 -0.003784 -0.002597 0.010878 -0.007580 0.002274 -0.003982 -0.000799 -0.003030 -0.000823 -0.005672 0.011027 -0.002893 0.004528 0.006307 -0.005976 -0.011183 0.001869 0.001788 -0.009478 -0.003628 0.006252 -0.011181 0.002097 0.002116 -0.004594 -0.001583 0.002049 0.007981 -0.001101 0.001237 0.009899 -0.001605
conversation 0.012067 -0.005741 0.004382 0.001692 0.004154 0.005313 0.003284 0.007549 -0.015417 -0.019383 -0.001180 0.000618 -0.002996 -0.015057 0.004714 0.006972 -0.009488 -0.003781 0.001572 0.001085 -0.007316 0.002567 0.005967 0.006390 0.002396 0.014602 -0.000525 -0.002599 0.005346 0.007035 -0.004340 -0.000620 0.004731 0.001779 -0.009484 -0.005905 0.010119 -0.006231 0.010272 -0.007961 -0.010534 0.002806 0.013922 0.001920 -0.004585 -0.005333 -0.021914 -0.006815 -0.000721 0.004621 -0.004417 -0.021190 0.001890 0.017194 0.001874 0.009079 -0.004174 -0.007003 0.001989 0.000656 -0.013660 -0.003299 -0.021552 -0.001545 0.005332 0.011526 0.016373 -0.018713 -0.008492 0.010409 0.016160 -0.011136 -0.003365 -0.009750 -0.000494 -0.008562 -0.002131 -0.019284 0.014284 0.006333 0.003016 0.011413 -0.014679 -0.013612 0.007625 0.010426 -0.012790 -0.013297 0.006719 -0.012281 0.010327 0.001802 -0.004022 -0.011960 0.012284 0.004940 -0.007961 0.001790 0.001674 -0.011931
star 0.001613 -0.003769 0.003695 0.005734 0.001787 0.000042 0.001593 0.000690 -0.005560 -0.001830 0.004631 -0.000540 -0.000813 -0.006529 0.003933 0.002947 -0.005489 -0.003234 0.001367 -0.000821 -0.000165 0.002947 0.005221 -0.000629 0.005542 0.007058 -0.002836 -0.003372 0.006209 -0.001478 -0.007662 0.003062 0.002991 -0.001316 -0.004602 -0.004620 0.003854 -0.005286 0.008979 -0.007592 -0.001789 0.002079 -0.001331 0.004599 -0.003407 0.000731 -0.009348 0.000763 -0.001451 0.005199 -0.000006 -0.006208 0.004392 0.013653 0.007287 -0.002675 -0.008402 -0.001367 -0.002030 0.001197 -0.006022 0.000765 -0.008785 -0.004486 0.003864 0.006256 0.002151 -0.012414 0.001265 0.001838 0.008402 -0.004907 -0.002774 -0.000738 0.004227 -0.010355 -0.006491 -0.003067 0.006462 0.005657 0.004916 0.011268 -0.002829 -0.011541 0.007019 0.002575 -0.004045 -0.011012 0.003155 -0.009373 -0.000123 0.006697 0.000408 -0.010296 0.002481 0.003500 -0.005501 -0.006572 0.007785 -0.003954
jack -0.003741 0.006263 0.005382 -0.005424 -0.006253 -0.008779 0.001066 -0.014330 0.006398 0.006925 -0.011328 -0.001496 -0.005945 0.013901 -0.000282 0.000456 -0.000354 -0.016986 0.001770 -0.008939 0.007997 0.005255 -0.009587 -0.005913 0.005450 -0.008743 0.006772 0.001233 -0.011224 -0.018022 0.003070 0.006099 -0.014934 0.008571 0.006836 0.023774 -0.008666 -0.012178 -0.004957 0.007064 0.000770 -0.008400 -0.001978 -0.008843 0.000799 -0.000928 0.013279 0.003973 0.000495 0.003983 0.004652 0.018793 -0.008574 -0.002682 0.003006 -0.007750 0.005618 0.007511 -0.014119 -0.002468 -0.001627 -0.004189 0.017143 0.000913 -0.008729 -0.010020 -0.011297 0.015053 -0.000891 -0.004279 -0.004271 0.006978 -0.010432 -0.001433 0.000382 0.017875 0.013199 0.010873 -0.015866 0.002848 -0.006501 -0.010059 0.010044 0.002910 -0.002169 -0.032226 0.013276 0.012540 -0.003198 0.005844 -0.004917 -0.003771 0.005943 -0.006527 0.003271 0.011504 -0.003398 -0.003246 0.012787 0.001670
side -0.000774 -0.002406 0.000974 -0.005595 0.003894 -0.003873 -0.003531 -0.000916 -0.004801 -0.000183 -0.000738 -0.006315 0.005728 -0.000311 0.000399 0.002908 0.000517 -0.004792 0.004216 -0.001065 0.006662 -0.001848 0.004480 -0.001329 -0.005707 -0.000186 0.000178 -0.001504 0.001077 -0.002376 0.001187 0.002509 -0.000486 0.003387 -0.004538 -0.004905 0.001983 0.000403 -0.002286 -0.005475 0.000621 -0.000953 0.000656 0.000040 0.001789 -0.001515 -0.003460 -0.001154 -0.002397 0.003854 -0.000194 0.000977 -0.001795 0.005747 0.001697 0.002490 0.002980 -0.002450 -0.003644 -0.002898 0.001258 -0.005787 -0.002187 -0.000644 -0.003425 0.002113 0.004198 -0.004689 -0.007124 -0.002739 -0.000760 -0.001869 -0.007661 -0.003903 0.001926 -0.000130 0.005922 -0.000421 0.001389 0.000011 -0.001170 0.004891 0.001257 -0.000756 0.002561 0.002461 -0.001298 -0.003201 -0.003766 -0.007699 0.000695 0.005318 -0.001737 -0.007829 -0.001668 0.008031 -0.000081 -0.002102 0.001124 -0.006920
purchase 0.005071 -0.007021 0.002950 -0.004473 0.002702 -0.005513 0.003985 -0.002733 -0.005026 -0.005792 -0.002161 0.000633 -0.001457 -0.009610 -0.000244 -0.001168 -0.000290 0.002104 0.001687 0.003148 -0.000630 -0.000477 0.004335 0.000426 0.002459 0.009201 -0.000437 -0.002259 0.004684 -0.002867 -0.004043 0.003225 -0.001673 0.003150 0.001822 -0.001608 -0.002805 0.001554 0.006745 -0.002307 -0.002035 0.001083 0.006015 0.000505 0.002724 0.004813 -0.011225 0.002208 -0.002035 0.001027 -0.005629 -0.004112 0.005227 0.006756 0.005220 0.004069 -0.007197 -0.003170 -0.004593 -0.000182 0.000021 -0.005013 -0.003974 -0.002813 0.002790 0.004627 0.006720 -0.002023 -0.003500 0.003071 0.009186 -0.003809 -0.000908 -0.004514 0.001765 -0.002784 -0.001817 -0.008808 0.003985 -0.002317 0.004860 0.011460 -0.005375 -0.007920 0.004583 0.004858 -0.006034 -0.008600 -0.003315 -0.009966 -0.001279 0.002406 -0.000480 -0.002035 0.001387 -0.002616 0.002733 0.002309 0.001444 -0.004643
easier -0.000544 0.003072 0.005236 -0.000896 0.001994 0.005833 0.001688 0.013119 -0.001143 -0.011680 0.006213 -0.002481 0.008949 -0.012341 -0.001266 -0.001271 -0.003844 0.009488 -0.001538 0.003777 -0.003385 -0.003167 0.010242 0.004569 -0.000907 0.014327 0.002736 -0.005229 0.012701 0.005827 0.003625 -0.001524 0.004845 -0.006049 -0.009565 -0.012627 0.010157 0.003560 0.009879 -0.002960 -0.000082 0.001686 0.006455 0.010666 -0.007103 -0.004474 -0.011085 -0.011938 -0.008447 -0.000955 -0.008116 -0.021971 0.004538 0.015721 0.006899 0.003558 -0.006933 -0.003345 0.010782 0.002765 -0.002564 0.004800 -0.013738 0.001406 0.010001 0.007672 0.010957 -0.013253 -0.000955 0.007778 0.001873 0.000955 0.002243 0.003571 -0.001442 -0.009759 -0.011881 -0.000981 0.009438 0.005949 0.002118 0.014964 -0.008261 0.002778 -0.002644 0.015717 -0.010726 -0.010808 0.000079 -0.005885 0.006265 -0.002485 -0.001746 -0.002712 0.004186 -0.012030 -0.001562 0.002076 -0.003502 0.001772
rechargeable 0.000554 -0.014960 0.015000 -0.016266 0.026252 -0.020465 0.020399 -0.011896 0.008516 -0.030898 0.005226 -0.025262 0.027208 -0.043502 -0.012392 0.019295 -0.003732 0.012280 -0.014300 -0.003135 -0.015152 0.012588 0.006190 0.001600 -0.024790 0.016592 -0.015595 0.010874 0.001493 0.002334 -0.015047 0.012814 0.014178 -0.012766 -0.022181 -0.013225 -0.001905 0.008290 0.014824 -0.032204 -0.023289 -0.006043 0.004361 -0.011790 0.017135 0.016919 -0.036424 -0.007876 -0.008725 0.034592 -0.008616 -0.046015 0.020008 0.045154 0.009917 -0.005392 -0.014054 -0.021512 -0.006418 -0.011508 -0.008596 0.005051 -0.030054 -0.015238 -0.007025 0.034947 0.009139 -0.013900 -0.007861 -0.008613 0.025145 -0.010229 0.014911 -0.010485 0.026835 -0.037467 0.009001 -0.023657 0.029205 -0.005802 0.011691 0.043601 -0.021473 -0.029341 -0.012513 0.036251 -0.010196 -0.008235 0.005648 -0.042620 0.001704 0.021160 -0.008823 -0.026600 -0.008514 0.000502 0.010694 0.009906 0.036255 -0.007290
job 0.012046 0.000093 0.003055 0.005517 0.002180 0.001190 0.004288 0.012071 -0.013099 -0.013219 -0.001566 0.000744 0.004616 -0.020694 0.005250 0.003505 -0.005928 0.005359 0.001791 0.001546 -0.002611 -0.001903 0.008483 0.005957 0.000608 0.017625 -0.000949 -0.003719 0.011566 0.005857 -0.007175 0.002317 0.003450 -0.008146 -0.009214 -0.003972 0.012173 0.003643 0.016098 -0.006564 -0.006364 -0.004988 0.012903 0.005840 -0.004495 -0.005145 -0.020854 -0.004908 -0.001103 0.005256 0.002017 -0.024679 0.004900 0.020531 0.006466 0.008294 -0.009702 -0.010644 0.006253 0.002649 -0.014635 0.001102 -0.012772 -0.003073 0.001788 0.012538 0.015865 -0.012479 -0.003421 0.005530 0.014583 -0.006005 0.003982 -0.006908 0.004185 -0.016907 -0.007506 -0.014944 0.017096 0.001143 0.003588 0.017789 -0.008070 -0.017010 0.005454 0.008513 -0.011981 -0.012192 0.002094 -0.022257 0.004349 0.003571 -0.000641 -0.013299 0.007234 0.002300 -0.005558 0.002561 0.002855 -0.009041
version 0.004283 0.002910 -0.003300 0.002484 -0.004129 0.013270 0.003970 0.011956 -0.002015 0.006481 0.005014 0.008949 0.003690 0.001947 0.003146 -0.012399 0.004004 0.004578 -0.003555 0.001942 0.003730 -0.003150 0.002662 0.006516 0.002292 0.008194 0.000476 -0.002049 0.007923 0.008528 0.004813 0.000329 0.008352 0.000208 -0.002288 -0.007639 0.012606 0.001445 0.002566 -0.004320 0.005752 0.005403 0.000451 0.016648 -0.009069 -0.003281 -0.009912 -0.007885 0.000602 -0.007535 -0.005290 -0.007614 -0.000525 -0.002484 0.000223 0.007596 -0.001790 0.002809 0.012591 0.007826 -0.003655 0.003743 -0.003107 0.004634 0.011940 -0.001408 0.009307 -0.011266 0.010777 0.008959 -0.009140 0.003793 -0.002358 -0.001643 -0.004117 -0.000156 -0.007599 -0.000099 -0.001488 0.006627 0.007612 0.006389 -0.000278 0.004338 0.007270 0.011676 -0.004700 -0.006057 0.003911 0.007842 0.008850 -0.007334 -0.003817 0.007816 0.004841 -0.015591 -0.002368 0.002939 -0.014678 0.008873
student 0.005318 -0.007232 0.008704 0.003596 0.003465 -0.008682 0.004379 0.004014 -0.012135 -0.007200 0.005054 -0.006768 0.003553 -0.010575 0.005939 0.007236 -0.004340 0.004544 -0.004567 0.004187 -0.008350 0.004537 0.000583 0.003716 0.002346 0.013984 0.001070 0.001899 0.007103 -0.003036 -0.002377 0.002306 -0.002963 -0.007579 0.000617 -0.007705 0.005543 -0.003211 0.006774 -0.007189 -0.006139 -0.001118 0.000075 -0.002249 -0.001527 0.003645 -0.016987 -0.001250 0.002704 0.009045 -0.001444 -0.015986 0.005038 0.009019 0.002598 0.004304 -0.003407 -0.011587 -0.000030 0.005077 -0.001227 0.001629 -0.014853 -0.009088 -0.001138 0.014005 0.004531 -0.006091 -0.008197 0.003997 0.014715 -0.006869 0.000175 0.000836 0.001319 -0.016338 -0.003815 -0.003752 0.011597 0.003411 0.001864 0.016823 -0.008754 -0.012172 0.001004 0.001410 -0.011788 -0.004705 0.002361 -0.015343 0.004336 0.005270 -0.001487 -0.014732 0.006407 0.002149 -0.003369 -0.001769 0.010089 -0.008547
switch 0.001685 0.001893 -0.000132 0.001646 -0.002842 -0.003633 0.004605 0.004361 0.004053 0.000629 0.002389 -0.003631 0.003983 0.002245 0.003861 0.000302 0.001869 0.002492 -0.000103 0.000382 -0.002764 -0.004207 -0.002166 0.000604 -0.001783 0.002525 -0.004290 0.003263 0.001292 0.003243 -0.005004 0.001902 0.003362 0.000439 0.003653 -0.002731 0.001749 -0.000515 -0.002148 -0.001453 -0.005569 -0.001232 -0.001732 -0.003920 -0.002210 0.001872 0.000953 0.000965 -0.000628 0.002934 0.005045 -0.002253 0.001820 0.005383 0.003342 -0.002291 0.004158 -0.002938 -0.002477 -0.000145 0.002197 0.002470 0.003283 0.001490 -0.000375 0.004311 0.004931 0.002314 0.001253 0.001287 -0.001610 0.005692 -0.005357 -0.001895 -0.003311 -0.004037 0.001113 -0.004312 -0.000578 -0.002270 0.003400 -0.001268 -0.002010 0.004656 -0.002576 0.005496 -0.002992 -0.000622 0.005540 -0.002732 0.001852 -0.003466 0.002162 -0.005050 -0.003345 0.000982 0.003915 0.002078 -0.003671 -0.002036
reason 0.005999 -0.000378 0.004253 0.003928 0.001551 0.006635 0.000287 0.009149 -0.007345 -0.007292 0.004187 0.002332 0.003565 -0.007524 0.002814 0.000513 -0.001879 0.007207 -0.002905 -0.000252 -0.000291 -0.000566 0.003118 0.002646 0.007456 0.006374 -0.002249 -0.006649 0.008841 0.008175 -0.000132 -0.005745 0.009680 -0.004940 -0.007127 -0.007872 0.009158 0.001055 0.008221 -0.009452 -0.002734 0.004246 0.003948 0.004807 0.001496 0.001303 -0.013790 -0.006241 -0.001252 -0.001053 -0.004408 -0.012566 -0.001135 0.005181 -0.000636 0.004789 -0.009279 -0.004322 0.002698 0.003724 -0.004226 -0.004004 -0.006931 -0.006105 0.000111 0.006454 0.009756 -0.012271 -0.004940 0.008165 0.008473 -0.000136 0.004911 0.000765 0.002674 -0.004657 -0.008930 -0.004146 0.007340 -0.000890 0.002530 0.009683 -0.006021 -0.001236 0.006385 0.009979 -0.012997 -0.006979 0.004082 -0.005556 0.002911 -0.002482 -0.001059 -0.007944 0.006183 -0.002558 0.000229 0.002881 -0.004377 -0.007590
important 0.005353 0.002261 -0.004666 -0.001969 -0.002293 -0.000994 0.002194 0.002708 -0.006378 -0.007882 0.000543 0.003643 -0.001213 -0.006549 0.004368 0.003138 -0.005230 0.005914 -0.001602 0.002827 -0.003285 0.003519 0.001324 0.006036 -0.002255 0.003219 -0.001323 -0.000072 0.006338 0.002681 0.000613 0.002183 0.006744 0.002724 -0.005447 -0.002953 0.001764 -0.003196 0.002301 -0.000195 0.001364 0.004028 0.000045 0.009678 -0.006720 -0.004480 -0.004725 -0.005422 -0.002948 -0.004394 0.000415 -0.007868 0.002076 0.000839 0.001245 0.007793 -0.002593 -0.005109 0.009869 0.002912 -0.005171 -0.000082 -0.008508 -0.003410 0.000548 0.002532 0.007161 -0.011585 -0.001295 0.007830 0.005238 -0.003782 -0.003139 0.002463 -0.004896 -0.010554 -0.006894 0.000537 0.007415 0.005889 0.007681 0.008696 -0.000178 -0.004881 0.006744 0.001971 -0.011046 -0.007342 0.001277 -0.009036 0.002676 0.001412 0.000918 -0.002553 0.005514 -0.001167 0.000870 0.003753 -0.000627 0.001861
system -0.003097 0.004449 -0.005900 0.001652 -0.008392 0.013439 -0.005053 0.007451 -0.004338 0.006882 0.005474 0.008108 0.001703 0.005147 -0.000921 -0.005008 0.003996 0.004045 0.005929 0.002977 0.005686 -0.005875 0.002857 0.005540 0.012344 0.000142 -0.001311 0.000028 -0.000795 0.003529 0.006150 -0.008035 0.003268 0.002193 -0.001790 -0.000930 0.007318 0.001939 -0.003113 0.011644 0.003996 0.009253 0.001590 0.004229 -0.005279 -0.003849 0.012013 0.002125 0.001122 -0.008895 0.002471 0.004512 -0.002431 -0.014733 0.000201 0.004921 0.010136 0.008239 0.010236 0.003338 0.002443 -0.002985 0.011956 0.010472 0.004941 -0.007111 -0.004661 -0.003551 0.003040 0.004382 -0.006465 -0.002322 0.003225 0.002499 -0.006583 0.004710 -0.009675 0.006666 -0.003733 -0.000206 -0.004163 -0.010275 0.008921 0.010910 0.005407 0.000700 0.000921 -0.003704 -0.000934 0.009623 -0.000736 -0.009005 0.003249 0.011289 0.006171 -0.013482 0.002882 -0.005015 -0.014283 0.007428
college 0.010573 -0.008908 0.007240 -0.001055 0.012449 -0.001524 0.006473 0.007082 -0.009021 -0.015912 -0.003360 -0.007043 0.003232 -0.015542 -0.002716 0.007411 -0.008816 0.002849 -0.001302 0.002011 -0.007010 -0.000668 0.006784 0.007026 -0.003693 0.019652 0.000973 0.002618 0.012877 0.001058 -0.004169 0.001632 0.009475 -0.006491 -0.007142 -0.009655 0.007914 0.001795 0.017181 -0.016628 -0.013843 -0.005378 0.007208 -0.000981 0.001178 0.000322 -0.020799 -0.004246 -0.008184 0.010144 -0.005767 -0.022429 -0.001874 0.022683 0.002357 0.005290 -0.005643 -0.014398 -0.001455 0.002457 -0.007815 -0.001316 -0.016278 -0.009502 0.005097 0.012523 0.011411 -0.014273 -0.009300 -0.001168 0.013549 -0.010835 0.002102 -0.004466 0.007090 -0.014802 -0.006261 -0.014958 0.014573 0.003766 0.007958 0.022156 -0.014430 -0.020006 -0.003003 0.015285 -0.016631 -0.012053 -0.000461 -0.021784 0.005931 0.001658 -0.002038 -0.017710 0.007183 -0.004457 -0.008391 -0.003240 0.017637 -0.007272
compatible -0.000213 -0.002538 -0.005640 0.009552 -0.002602 -0.000441 0.001249 0.012506 -0.008340 -0.002173 0.002001 -0.000837 0.000393 -0.008841 0.004481 -0.001384 -0.008708 0.002844 -0.003717 0.003236 -0.008944 0.000315 -0.000725 0.008968 0.004583 0.010342 0.002146 -0.003799 0.004438 0.009264 -0.004023 -0.004760 0.004820 -0.001453 -0.000210 -0.008925 0.004933 0.000753 0.005134 -0.006922 0.002016 -0.003558 0.004848 0.009244 0.002526 -0.001767 -0.007341 -0.005312 0.000700 0.001150 -0.000987 -0.011895 0.005133 0.003969 0.004098 0.003769 -0.004649 0.001037 0.006007 -0.003912 -0.003502 -0.004443 -0.003485 0.001175 0.001762 0.003436 0.008042 -0.007335 -0.001500 0.007243 0.006115 -0.007967 0.003162 -0.002628 0.001205 -0.007804 -0.007998 -0.001744 0.002616 0.001652 0.001013 0.006898 -0.000580 -0.002866 0.003731 0.007995 -0.002740 -0.004886 -0.002989 -0.000314 0.001361 0.002966 -0.003437 0.000511 0.009511 -0.009188 -0.006435 0.003519 -0.000752 -0.000554
card 0.000963 -0.001123 0.007390 -0.003010 0.002539 -0.005480 0.003591 0.002966 0.001271 -0.001319 0.003039 -0.004813 0.002593 -0.002874 0.001083 0.007112 -0.006402 -0.004624 -0.003675 -0.000376 0.003806 0.000887 -0.002805 0.006311 -0.005116 0.001802 0.002652 0.003244 -0.002747 0.001666 -0.005992 0.002072 0.001560 0.002285 -0.005796 0.004470 -0.002738 -0.000724 -0.002745 -0.004626 0.000253 -0.000217 0.001366 0.001131 -0.001848 0.003253 -0.008844 -0.000070 -0.003365 0.000008 -0.000465 -0.001990 -0.002687 0.005324 -0.000125 -0.004605 0.001542 0.002965 -0.003389 0.001728 -0.005133 0.002151 0.002387 0.000537 -0.005020 -0.000958 0.002633 -0.002037 -0.006692 -0.001874 0.002572 0.003973 -0.001366 -0.000127 -0.000644 0.001431 0.004932 0.000970 0.004893 0.002094 0.000992 0.000843 -0.007612 -0.006175 -0.005561 0.004376 0.002944 -0.003439 0.002026 0.001030 0.004885 0.003846 0.004641 -0.005421 -0.001407 0.009091 -0.004335 0.004021 0.003731 -0.000750
part 0.000025 0.000385 0.004482 -0.000338 -0.003076 -0.004247 -0.000810 -0.002043 -0.005014 -0.001214 0.000822 0.000209 0.005159 -0.004166 0.003752 -0.004526 -0.000899 0.004489 -0.002596 0.005068 0.005609 -0.002565 0.002299 -0.002386 -0.003574 -0.001500 -0.006860 -0.005037 0.005983 -0.000051 0.000496 0.004586 0.005829 0.002719 0.003055 -0.006738 -0.001173 0.003821 0.002889 -0.005180 -0.004873 0.000551 0.004895 -0.002162 0.003494 -0.005021 -0.001788 -0.003839 -0.001973 -0.002177 -0.001006 -0.000690 0.004404 0.000981 -0.004126 0.002284 -0.005053 -0.001971 0.002220 0.005057 0.001290 0.002726 -0.002544 -0.003465 0.000436 -0.000684 0.003412 -0.007565 0.001949 -0.001025 0.004426 -0.000707 0.004598 -0.002997 -0.002457 -0.006604 0.001288 -0.004874 0.003385 0.000859 0.006425 0.004021 -0.006178 0.000014 0.001831 0.005297 0.000705 -0.006273 0.005426 -0.001548 -0.004203 -0.003039 0.003205 0.001493 -0.000329 0.002596 -0.001273 0.003589 0.001309 0.001551
radio 0.014435 -0.002427 0.008210 0.013730 0.011166 0.013192 0.017368 0.018158 -0.015495 -0.022112 0.009486 -0.000047 0.000225 -0.036026 0.012105 0.012962 -0.011696 -0.000097 0.006090 0.002585 -0.001414 -0.004515 0.019151 0.017344 0.010564 0.027590 -0.000878 -0.013964 0.021726 0.015474 -0.003184 0.006116 0.002120 -0.006378 -0.018886 -0.021590 0.012860 0.001472 0.026039 -0.011627 -0.017298 -0.001637 0.022611 0.010484 -0.016729 -0.000125 -0.037488 -0.013945 -0.009915 0.006675 -0.000020 -0.041318 0.000804 0.033574 0.012723 0.009937 -0.008751 -0.017703 0.008154 0.007329 -0.014570 0.000340 -0.026384 -0.008759 0.015803 0.022605 0.032705 -0.041258 -0.008481 0.014155 0.026376 -0.020431 0.002846 -0.008996 -0.008886 -0.023851 -0.013697 -0.026311 0.032589 0.003365 0.014992 0.029414 -0.029920 -0.020491 0.010435 0.029008 -0.026137 -0.028775 0.004371 -0.027519 0.015137 0.006447 -0.002401 -0.022757 0.019295 -0.002734 -0.014424 -0.000006 0.005767 -0.020290
expensive 0.004079 0.000146 -0.002759 -0.002265 -0.001153 0.005964 -0.004861 0.003211 -0.006835 -0.004426 -0.003664 -0.000329 -0.000955 -0.005189 -0.000246 -0.002120 -0.003238 0.003373 -0.002863 -0.001068 0.002650 -0.003780 0.003027 0.005793 0.005086 0.000205 -0.003449 -0.006447 -0.002661 0.007109 -0.001674 -0.001603 0.001886 0.002651 0.003718 -0.005801 0.000717 0.002783 0.007046 0.004161 0.003732 -0.000942 0.002572 -0.001147 -0.006649 -0.003003 0.002427 -0.003975 0.004444 -0.002578 0.004102 -0.006440 -0.004340 0.002815 -0.002404 0.004394 -0.004578 -0.004211 0.001012 -0.002498 -0.005602 0.004419 0.003331 0.002623 0.006274 0.004052 0.004692 0.003073 0.002472 -0.000114 0.001283 -0.001681 -0.000101 -0.001274 -0.003379 -0.004902 0.002267 0.001447 -0.002597 0.005404 0.000208 -0.003885 0.001178 -0.004648 0.004741 -0.002156 -0.003414 -0.000894 0.001885 -0.001495 0.004214 -0.000115 0.002443 -0.000054 -0.002282 -0.006198 0.002598 0.001851 -0.003764 -0.003080
background 0.013310 -0.006947 0.011919 0.003031 0.013330 -0.001750 0.013261 0.012057 -0.018400 -0.017508 -0.002741 -0.006378 -0.004848 -0.022199 0.011082 0.013478 -0.010797 -0.001696 -0.001561 0.007406 -0.003650 0.003875 0.007677 0.005972 0.007653 0.018859 0.006406 -0.008290 0.010917 0.008673 -0.004797 -0.001387 -0.004808 0.001862 -0.005800 -0.009896 0.012371 -0.004975 0.022197 -0.013213 -0.014779 -0.005886 0.015474 0.001732 -0.011169 -0.000690 -0.028717 -0.010238 0.001563 0.004566 -0.003664 -0.019656 -0.003632 0.028636 0.011208 0.007826 -0.010063 -0.016006 0.004453 0.002207 -0.018631 -0.002461 -0.025315 -0.006566 0.013571 0.018329 0.022605 -0.025704 -0.008067 0.010509 0.024485 -0.010149 -0.005577 -0.009749 -0.004386 -0.017776 -0.004053 -0.016212 0.016993 0.002524 0.008101 0.022718 -0.014706 -0.016125 0.011158 0.010226 -0.025720 -0.016772 0.004455 -0.023594 0.006967 0.004632 -0.002312 -0.016666 0.012092 0.008657 -0.002914 -0.004398 0.013042 -0.019066
power 0.002683 -0.006818 0.004752 -0.004804 0.009137 -0.009416 -0.000782 -0.008049 0.005403 -0.007146 0.002244 -0.004816 -0.000438 -0.009785 -0.005103 0.005944 -0.000152 0.000899 -0.001005 0.000112 -0.005930 0.005517 0.005505 -0.006273 -0.011506 0.001467 0.000759 0.003520 -0.006420 -0.000570 -0.005103 -0.002590 -0.002629 0.000450 -0.007943 0.000686 -0.002401 -0.003131 0.000268 -0.004564 -0.010131 0.001536 -0.003748 -0.000009 0.006656 0.004565 -0.011702 -0.004994 -0.004269 0.005680 -0.002525 -0.006878 0.006905 0.008750 0.000148 -0.007773 -0.003976 -0.004177 -0.006072 -0.007206 -0.003867 0.002671 -0.002155 -0.003117 -0.004803 0.006155 -0.004077 -0.000085 -0.001305 0.001783 0.007337 -0.004415 -0.000054 0.003580 0.013190 -0.010670 0.005367 -0.001499 0.004530 -0.005978 0.003632 0.004487 -0.007001 -0.012110 -0.001291 0.007083 -0.003917 0.001273 -0.000122 -0.012481 -0.004253 0.002554 -0.004766 -0.009890 -0.001983 0.006240 -0.000510 0.000676 0.014120 -0.007151
extra -0.004381 0.002065 0.002034 0.001595 -0.004251 0.002322 0.006983 0.002391 -0.002083 -0.002571 0.004290 0.000230 -0.001324 -0.009809 -0.001250 -0.004375 -0.004636 0.003058 -0.005509 0.002810 0.000632 -0.001391 0.010463 0.006543 -0.000205 0.011673 -0.007854 -0.003922 0.012386 0.005339 -0.001512 -0.005229 0.007118 -0.008738 -0.005186 -0.005879 0.006451 0.002132 0.005957 -0.008427 0.002603 0.010539 0.005386 0.005161 -0.001563 -0.003267 -0.014273 -0.004226 0.002952 -0.007214 0.001121 -0.013079 0.002395 0.007561 0.003131 -0.000435 0.000917 0.001846 0.007090 -0.001167 -0.002396 -0.003427 -0.010364 -0.002833 0.004774 0.006967 0.003244 -0.006387 -0.002890 0.001333 -0.004205 0.002363 0.004292 0.000788 -0.004589 -0.007349 -0.000981 -0.006434 0.006415 -0.002685 0.008225 0.002747 -0.008176 -0.003766 -0.002840 0.006504 -0.007178 -0.003122 0.002818 -0.005070 0.001256 -0.002141 -0.001393 -0.004370 0.002355 -0.004889 0.003462 0.000276 -0.005146 0.000395
tape 0.008563 0.000499 0.005192 0.002131 0.005542 -0.002548 0.004723 -0.000897 -0.005157 -0.010274 -0.003932 0.001721 -0.004078 -0.003572 0.005277 0.005948 0.001371 -0.002466 0.000738 -0.004367 0.002939 -0.002082 0.001177 0.002987 0.001089 0.004525 0.000396 -0.004222 -0.002962 -0.004719 0.001107 0.006809 0.002310 0.002602 -0.004175 0.002197 0.006830 -0.003478 0.006385 -0.007357 -0.006967 0.001172 0.007399 0.002761 0.001374 -0.001540 -0.003455 -0.004428 -0.001025 0.003423 -0.003262 -0.010730 -0.004912 0.009776 0.004696 -0.004407 0.000815 -0.005221 0.000406 0.002603 -0.002026 0.001429 -0.007460 -0.007154 -0.003051 0.004921 0.009540 -0.002417 -0.006426 -0.000275 0.011358 -0.003276 -0.004704 -0.001858 0.000707 -0.003629 0.004012 -0.002616 0.010777 0.002780 0.001046 0.007051 -0.002034 -0.009856 0.001184 0.001225 -0.007166 -0.001044 0.000799 -0.007288 -0.001703 -0.002668 0.001823 -0.008913 0.001333 0.002090 -0.005615 -0.002113 0.004294 -0.001372
type 0.004814 0.001396 -0.005263 -0.001172 -0.005692 0.005764 0.005690 -0.001964 -0.001297 0.001481 0.002087 0.005032 0.000857 -0.004693 0.000886 -0.005469 0.000462 -0.001291 -0.000761 0.005287 0.003570 -0.001392 0.000298 0.001403 -0.002404 0.001964 0.005308 0.003342 0.007102 0.000182 -0.001155 0.003662 0.000929 0.002216 -0.003910 -0.003032 0.002140 0.000732 -0.002854 0.004351 -0.003837 0.001307 0.001236 0.005488 -0.005620 0.000548 -0.003498 0.001827 -0.000061 -0.005190 0.004808 0.000528 -0.002734 0.002637 0.004999 -0.000242 -0.002417 -0.004350 0.005544 -0.001428 -0.001892 0.004927 -0.005138 0.005193 0.004899 -0.003219 0.004207 -0.003858 -0.002059 0.000858 -0.001084 -0.000414 -0.000711 0.003329 0.001210 -0.005082 -0.002767 -0.003042 -0.003405 0.003828 0.003965 -0.003044 -0.002563 0.002799 0.004004 0.006552 -0.004865 -0.003349 0.005229 0.000862 0.001342 0.001962 0.004105 0.001400 0.002468 -0.006782 -0.003117 0.004555 -0.002557 0.001932
cheap 0.002784 -0.004451 0.009737 0.005843 0.004324 0.000316 0.006158 0.008609 -0.007495 -0.012393 0.006919 -0.006669 -0.001120 -0.020923 0.004531 0.002694 -0.009521 -0.000782 -0.006217 0.003432 -0.005624 0.005636 0.005360 0.000629 0.001156 0.013057 -0.005531 -0.004791 0.010887 0.004501 -0.007450 0.007126 0.009241 -0.000992 -0.004265 -0.004912 0.005506 0.005688 0.014679 -0.014185 -0.005172 0.001538 0.011449 0.006161 -0.003650 0.001417 -0.019329 -0.001966 -0.002046 0.011051 0.000450 -0.016767 -0.002042 0.017575 0.001481 -0.000499 -0.009203 -0.008716 0.004809 -0.003114 -0.008851 0.004195 -0.012872 -0.004819 0.005461 0.015835 0.014581 -0.019300 -0.002109 0.005000 0.011594 -0.008641 0.000571 -0.003539 0.005683 -0.012240 -0.002309 -0.016685 0.015482 0.007133 0.007874 0.020680 -0.012523 -0.014634 -0.000609 0.013494 -0.013113 -0.006887 0.006266 -0.012918 0.009014 0.005562 -0.000949 -0.016343 0.009030 -0.000771 -0.006860 0.001038 0.006456 -0.004491
connection -0.009723 0.005753 -0.017621 -0.001607 -0.010235 0.018049 0.000291 0.003918 0.005391 0.011367 0.000223 0.011220 -0.001815 0.021689 0.004581 -0.018069 0.001622 0.008481 -0.009195 0.003054 0.008847 0.002723 -0.000415 -0.004570 0.005768 -0.004642 -0.003257 0.005623 0.003377 0.012402 0.006883 -0.009695 0.007639 -0.003830 -0.003524 -0.004497 -0.004573 0.006340 -0.013842 0.009450 0.015042 0.012074 -0.005086 0.009829 -0.010693 -0.005021 0.003118 0.000606 0.005169 -0.019433 0.001928 0.005726 0.003381 -0.020412 -0.007913 0.001376 0.007590 0.014295 0.013260 0.010028 0.004405 0.004682 0.011525 0.012030 0.009810 -0.017540 -0.004142 0.010020 0.021235 0.004512 -0.019072 0.004566 -0.000181 0.004726 -0.014078 0.009979 -0.004793 0.005637 -0.015544 -0.002121 0.004634 -0.017209 0.014765 0.023775 -0.000185 0.001414 0.008033 0.012296 0.002546 0.014228 0.001971 -0.009766 0.001506 0.014272 -0.009754 -0.017862 0.006095 0.008644 -0.023842 0.022690
